svm_type c_svc
kernel_type rbf
gamma 0.000833333
nr_class 6
total_sv 72
rho 0.0831607 -0.0452993 -0.0282564 -0.0335645 -0.0283685 -0.124856 -0.119516 -0.116108 -0.118344 0.00357652 0.0135412 0.016002 -0.00269225 0.0131832 0.010271
label 8 10 12 13 15 16
nr_sv 12 12 12 12 12 12
SV
1 1 1 1 1 1:0 2:0 3:0 4:0 5:0 6:0 7:0 8:0 9:0 10:0 11:1 12:0 13:0 14:0 15:0 16:0 17:0 18:0 19:0 20:0 21:0 22:0 23:0 24:0 25:0 26:0 27:0 28:0 29:0 30:0 31:1 32:0 33:0 34:0 35:0 36:0 37:0 38:0 39:0 40:0 41:0 42:0 43:0 44:0 45:0 46:0 47:0 48:0 49:0 50:0 51:1 52:0 53:0 54:0 55:0 56:0 57:0 58:0 59:0 60:0 61:0 62:0 63:0 64:0 65:0 66:0 67:0 68:0 69:0 70:0.990826 71:0.00917431 72:0 73:0 74:0 75:0 76:0 77:0 78:0 79:0 80:0 81:0 82:0 83:0 84:0 85:0 86:0 87:0 88:0 89:0 90:0 91:1 92:0 93:0 94:0 95:0 96:0 97:0 98:0 99:0 100:0 101:0 102:0 103:0 104:0 105:0 106:0 107:0 108:0 109:0 110:0 111:1 112:0 113:0 114:0 115:0 116:0 117:0 118:0 119:0 120:0 121:0 122:0 123:0 124:0 125:0 126:0 127:0 128:0 129:0 130:0.926606 131:0.0733945 132:0 133:0 134:0 135:0 136:0 137:0 138:0 139:0 140:0 141:0 142:0 143:0 144:0 145:0 146:0 147:0 148:0 149:0 150:0 151:0 152:0 153:0.0275229 154:0.642202 155:0.330275 156:0 157:0 158:0 159:0 160:0 161:0 162:0 163:0 164:0 165:0 166:0 167:0 168:0 169:0 170:0.211009 171:0.788991 172:0 173:0 174:0 175:0 176:0 177:0 178:0 179:0 180:0 181:0 182:0 183:0 184:0 185:0 186:0 187:0 188:0 189:0 190:0.458716 191:0.541284 192:0 193:0 194:0 195:0 196:0 197:0 198:0 199:0 200:0 201:0 202:0 203:0 204:0 205:0 206:0 207:0 208:0 209:0 210:0 211:0 212:0 213:0 214:0 215:0.0366972 216:0.633027 217:0.330275 218:0 219:0 220:0 221:0 222:0 223:0 224:0 225:0 226:0 227:0 228:0 229:0 230:0.0642202 231:0.761468 232:0.174312 233:0 234:0 235:0 236:0 237:0 238:0 239:0 240:0 241:0 242:0 243:0 244:0 245:0 246:0 247:0 248:0.0366972 249:0.963303 250:0 251:0 252:0 253:0 254:0 255:0 256:0 257:0 258:0 259:0 260:0 261:0 262:0 263:0 264:0 265:0 266:0 267:0 268:0 269:0 270:0 271:0 272:0 273:0.40367 274:0.59633 275:0 276:0 277:0 278:0 279:0 280:0 281:0 282:0 283:0 284:0 285:0 286:0 287:0 288:0 289:0 290:0.385321 291:0.614679 292:0 293:0 294:0 295:0 296:0 297:0 298:0 299:0 300:0 301:0 302:0 303:0 304:0 305:0 306:0.0642202 307:0.40367 308:0.486239 309:0.0458716 310:0 311:0 312:0 313:0 314:0 315:0 316:0 317:0 318:0 319:0 320:0 321:0 322:0 323:0 324:0 325:0 326:0 327:0 328:0 329:0 330:0 331:0.256881 332:0.0366972 333:0.0275229 334:0.0825688 335:0.321101 336:0.247706 337:0.0275229 338:0 339:0 340:0 341:0 342:0 343:0 344:0 345:0 346:0 347:0 348:0.0458716 349:0.12844 350:0.779817 351:0.0458716 352:0 353:0 354:0 355:0 356:0 357:0 358:0 359:0 360:0 361:0 362:0 363:0 364:0 365:0 366:0.0183486 367:0.174312 368:0.66055 369:0.146789 370:0 371:0 372:0 373:0 374:0 375:0 376:0 377:0 378:0 379:0 380:0 381:0 382:0 383:0 384:0 385:0 386:0 387:0 388:0 389:0 390:0.229358 391:0.0550459 392:0.0183486 393:0.0183486 394:0.00917431 395:0.0183486 396:0.0825688 397:0.211009 398:0.321101 399:0.0366972 400:0 401:0 402:0 403:0 404:0 405:0 406:0.0458716 407:0.0642202 408:0.321101 409:0.0825688 410:0.33945 411:0.146789 412:0 413:0 414:0 415:0 416:0 417:0 418:0 419:0 420:0 421:0 422:0 423:0 424:0 425:0 426:0.0366972 427:0.110092 428:0.59633 429:0.211009 430:0.0458716 431:0 432:0 433:0 434:0 435:0 436:0 437:0 438:0 439:0 440:0 441:0 442:0 443:0 444:0 445:0 446:0 447:0 448:0 449:0.0458716 450:0.211009 451:0.0275229 452:0.0183486 453:0.0183486 454:0 455:0.0183486 456:0.0183486 457:0.174312 458:0.183486 459:0.284404 460:0 461:0 462:0 463:0 464:0 465:0 466:0.0550459 467:0.0825688 468:0.302752 469:0.119266 470:0.275229 471:0.165138 472:0 473:0 474:0 475:0 476:0 477:0 478:0 479:0 480:0 481:0 482:0 483:0 484:0 485:0 486:0 487:0 488:0 489:0 490:0 491:0 492:0.93578 493:0.0642202 494:0 495:0 496:0 497:0 498:0 499:0 500:0 501:0 502:0 503:0 504:0 505:0 506:0 507:0 508:0 509:0 510:0 511:0 512:0 513:0.275229 514:0.724771 515:0 516:0 517:0 518:0 519:0 520:0 521:0 522:0 523:0 524:0 525:0 526:0 527:0 528:0 529:0 530:0 531:0.431193 532:0.568807 533:0 534:0 535:0 536:0 537:0 538:0 539:0 540:0 541:0 542:0 543:0 544:0 545:0 546:0 547:0 548:0 549:0 550:0 551:0 552:0.238532 553:0.385321 554:0.33945 555:0.0366972 556:0 557:0 558:0 559:0 560:0 561:0 562:0 563:0 564:0 565:0 566:0 567:0 568:0 569:0 570:0 571:0.229358 572:0.0825688 573:0.0366972 574:0.0275229 575:0.33945 576:0.247706 577:0.0366972 578:0 579:0 580:0 581:0 582:0 583:0 584:0 585:0 586:0 587:0 588:0 589:0.00917431 590:0.394495 591:0.238532 592:0.357798 593:0 594:0 595:0 596:0 597:0 598:0 599:0 600:0 601:0 602:0 603:0 604:0 605:0 606:0 607:0 608:0 609:0 610:0 611:0 612:0.110092 613:0.752294 614:0.100917 615:0.0366972 616:0 617:0 618:0 619:0 620:0 621:0 622:0 623:0 624:0 625:0 626:0 627:0 628:0 629:0.00917431 630:0.211009 631:0.0642202 632:0.0183486 633:0.0183486 634:0.0183486 635:0.0183486 636:0.0917431 637:0.211009 638:0.247706 639:0.0917431 640:0 641:0 642:0 643:0 644:0 645:0 646:0 647:0.0275229 648:0.165138 649:0.220183 650:0.0366972 651:0.321101 652:0.220183 653:0.00917431 654:0 655:0 656:0 657:0 658:0 659:0 660:0 661:0 662:0 663:0 664:0 665:0 666:0 667:0 668:0 669:0 670:0 671:0.00917431 672:0.357798 673:0.53211 674:0.0642202 675:0.0183486 676:0.0183486 677:0 678:0 679:0 680:0 681:0 682:0 683:0 684:0 685:0 686:0 687:0 688:0 689:0.0183486 690:0.247706 691:0.0183486 692:0.0183486 693:0.0183486 694:0.00917431 695:0.00917431 696:0.0183486 697:0.183486 698:0.201835 699:0.256881 700:0 701:0 702:0 703:0 704:0 705:0 706:0.0550459 707:0.0733945 708:0.256881 709:0.0458716 710:0.0275229 711:0.330275 712:0.192661 713:0.0183486 714:0 715:0 716:0 717:0 718:0 719:0 720:0 721:0 722:0 723:0 724:0 725:0 726:0 727:0 728:0 729:0.174312 730:0.825688 731:0 732:0 733:0 734:0 735:0 736:0 737:0 738:0 739:0 740:0 741:0 742:0 743:0 744:0 745:0 746:0 747:0 748:0 749:0 750:1 751:0 752:0 753:0 754:0 755:0 756:0 757:0 758:0 759:0 760:0 761:0 762:0 763:0 764:0 765:0 766:0 767:0 768:0 769:0 770:1 771:0 772:0 773:0 774:0 775:0 776:0 777:0 778:0 779:0 780:0 781:0 782:0 783:0 784:0 785:0 786:0 787:0 788:0 789:0.743119 790:0.256881 791:0 792:0 793:0 794:0 795:0 796:0 797:0 798:0 799:0 800:0 801:0 802:0 803:0 804:0 805:0 806:0 807:0 808:0.623853 809:0.100917 810:0.275229 811:0 812:0 813:0 814:0 815:0 816:0 817:0 818:0 819:0 820:0 821:0 822:0 823:0 824:0 825:0.0275229 826:0.587156 827:0.385321 828:0 829:0 830:0 831:0 832:0 833:0 834:0 835:0 836:0 837:0 838:0 839:0 840:0 841:0 842:0 843:0 844:0 845:0 846:0 847:0 848:0 849:0.963303 850:0.0366972 851:0 852:0 853:0 854:0 855:0 856:0 857:0 858:0 859:0 860:0 861:0 862:0 863:0 864:0.00917431 865:0.559633 866:0.137615 867:0.293578 868:0 869:0 870:0 871:0 872:0 873:0 874:0 875:0 876:0 877:0 878:0 879:0 880:0 881:0 882:0 883:0 884:0.0642202 885:0.53211 886:0.137615 887:0.266055 888:0 889:0 890:0 891:0 892:0 893:0 894:0 895:0 896:0 897:0 898:0 899:0 900:0 901:0 902:0 903:0 904:0 905:0 906:0 907:0 908:0 909:0.40367 910:0.59633 911:0 912:0 913:0 914:0 915:0 916:0 917:0 918:0 919:0 920:0 921:0 922:0 923:0 924:0.146789 925:0.513761 926:0.275229 927:0.0642202 928:0 929:0 930:0 931:0 932:0 933:0 934:0 935:0 936:0 937:0 938:0 939:0 940:0 941:0 942:0 943:0.00917431 944:0.577982 945:0.137615 946:0.275229 947:0 948:0 949:0 950:0 951:0 952:0 953:0 954:0 955:0 956:0 957:0 958:0 959:0 960:0 961:0 962:0 963:0 964:0 965:0 966:0 967:0 968:0 969:0 970:0 971:0.321101 972:0.678899 973:0 974:0 975:0 976:0 977:0 978:0 979:0 980:0 981:0 982:0 983:0 984:0 985:0 986:0 987:0 988:0 989:0.0550459 990:0.944954 991:0 992:0 993:0 994:0 995:0 996:0 997:0 998:0 999:0 1000:0 1001:0 1002:0 1003:0 1004:0 1005:0 1006:0 1007:0 1008:0 1009:0 1010:0.0275229 1011:0.972477 1012:0 1013:0 1014:0 1015:0 1016:0 1017:0 1018:0 1019:0 1020:0 1021:0 1022:0 1023:0 1024:0 1025:0 1026:0 1027:0 1028:0 1029:0 1030:0 1031:0 1032:0.981651 1033:0.0183486 1034:0 1035:0 1036:0 1037:0 1038:0 1039:0 1040:0 1041:0 1042:0 1043:0 1044:0 1045:0 1046:0 1047:0 1048:0.633027 1049:0.0917431 1050:0.275229 1051:0 1052:0 1053:0 1054:0 1055:0 1056:0 1057:0 1058:0 1059:0 1060:0 1061:0 1062:0 1063:0 1064:0 1065:0 1066:0.238532 1067:0.697248 1068:0.0642202 1069:0 1070:0 1071:0 1072:0 1073:0 1074:0 1075:0 1076:0 1077:0 1078:0 1079:0 1080:0 1081:0 1082:0 1083:0 1084:0 1085:0 1086:0 1087:0 1088:0 1089:0 1090:0 1091:0 1092:0.192661 1093:0.807339 1094:0 1095:0 1096:0 1097:0 1098:0 1099:0 1100:0 1101:0 1102:0 1103:0 1104:0 1105:0.440367 1106:0.275229 1107:0.284404 1108:0 1109:0 1110:0 1111:0 1112:0 1113:0 1114:0 1115:0 1116:0 1117:0 1118:0 1119:0 1120:0 1121:0 1122:0 1123:0 1124:0 1125:0.522936 1126:0.201835 1127:0.0917431 1128:0.183486 1129:0 1130:0 1131:0 1132:0 1133:0 1134:0 1135:0 1136:0 1137:0 1138:0 1139:0 1140:0 1141:0 1142:0 1143:0 1144:0 1145:0 1146:0 1147:0 1148:0 1149:0 1150:0 1151:0 1152:0 1153:1 1154:0 1155:0 1156:0 1157:0 1158:0 1159:0 1160:0 1161:0 1162:0 1163:0 1164:0.137615 1165:0.522936 1166:0.238532 1167:0.100917 1168:0 1169:0 1170:0 1171:0 1172:0 1173:0 1174:0 1175:0 1176:0 1177:0 1178:0 1179:0 1180:0 1181:0 1182:0 1183:0 1184:0.458716 1185:0.211009 1186:0.137615 1187:0.192661 1188:0 1189:0 1190:0 1191:0 1192:0 1193:0 1194:0 1195:0 1196:0 1197:0 1198:0 1199:0 1200:0 
1 1 1 1 1 1:0 2:0 3:0 4:0 5:0 6:0 7:0 8:0 9:0 10:0 11:1 12:0 13:0 14:0 15:0 16:0 17:0 18:0 19:0 20:0 21:0 22:0 23:0 24:0 25:0 26:0 27:0 28:0 29:0 30:0 31:1 32:0 33:0 34:0 35:0 36:0 37:0 38:0 39:0 40:0 41:0 42:0 43:0 44:0 45:0 46:0 47:0 48:0 49:0 50:0 51:1 52:0 53:0 54:0 55:0 56:0 57:0 58:0 59:0 60:0 61:0 62:0 63:0 64:0 65:0 66:0 67:0 68:0 69:0 70:0.732919 71:0.267081 72:0 73:0 74:0 75:0 76:0 77:0 78:0 79:0 80:0 81:0 82:0 83:0 84:0 85:0 86:0 87:0 88:0 89:0 90:0 91:1 92:0 93:0 94:0 95:0 96:0 97:0 98:0 99:0 100:0 101:0 102:0 103:0 104:0 105:0 106:0 107:0 108:0 109:0 110:0 111:1 112:0 113:0 114:0 115:0 116:0 117:0 118:0 119:0 120:0 121:0 122:0 123:0 124:0 125:0 126:0 127:0 128:0 129:0 130:0.590062 131:0.409938 132:0 133:0 134:0 135:0 136:0 137:0 138:0 139:0 140:0 141:0 142:0 143:0 144:0 145:0 146:0 147:0 148:0 149:0 150:0 151:0 152:0 153:0 154:0.627329 155:0.372671 156:0 157:0 158:0 159:0 160:0 161:0 162:0 163:0 164:0 165:0 166:0 167:0 168:0 169:0 170:0.173913 171:0.826087 172:0 173:0 174:0 175:0 176:0 177:0 178:0 179:0 180:0 181:0 182:0 183:0 184:0 185:0 186:0 187:0 188:0 189:0.0745342 190:0.149068 191:0.732919 192:0.0434783 193:0 194:0 195:0 196:0 197:0 198:0 199:0 200:0 201:0 202:0 203:0 204:0 205:0 206:0 207:0 208:0 209:0 210:0 211:0 212:0 213:0 214:0 215:0.118012 216:0.596273 217:0.285714 218:0 219:0 220:0 221:0 222:0 223:0 224:0 225:0 226:0 227:0 228:0 229:0 230:0.440994 231:0.559006 232:0 233:0 234:0 235:0 236:0 237:0 238:0 239:0 240:0 241:0 242:0 243:0 244:0 245:0 246:0 247:0 248:0.124224 249:0.875776 250:0 251:0 252:0 253:0 254:0 255:0 256:0 257:0 258:0 259:0 260:0 261:0 262:0 263:0 264:0 265:0 266:0 267:0 268:0 269:0 270:0 271:0 272:0.0124224 273:0.291925 274:0.639752 275:0.0559006 276:0 277:0 278:0 279:0 280:0 281:0 282:0 283:0 284:0 285:0 286:0 287:0 288:0 289:0.0807453 290:0.503106 291:0.223602 292:0.0559006 293:0.136646 294:0 295:0 296:0 297:0 298:0 299:0 300:0 301:0 302:0 303:0 304:0 305:0 306:0.00621118 307:0.347826 308:0.465839 309:0.149068 310:0.0310559 311:0 312:0 313:0 314:0 315:0 316:0 317:0 318:0 319:0 320:0 321:0 322:0 323:0 324:0 325:0 326:0 327:0 328:0 329:0 330:0 331:0.204969 332:0.15528 333:0.0372671 334:0.217391 335:0.236025 336:0.149068 337:0 338:0 339:0 340:0 341:0 342:0 343:0 344:0 345:0 346:0 347:0.0434783 348:0.329193 349:0.173913 350:0.204969 351:0.068323 352:0.0621118 353:0.0807453 354:0.0248447 355:0.0124224 356:0 357:0 358:0 359:0 360:0 361:0 362:0 363:0 364:0 365:0.0124224 366:0.124224 367:0.15528 368:0.304348 369:0.167702 370:0.0869565 371:0.130435 372:0.0186335 373:0 374:0 375:0 376:0 377:0 378:0 379:0 380:0 381:0 382:0 383:0 384:0 385:0 386:0 387:0 388:0 389:0.149068 390:0.0496894 391:0.0931677 392:0.0310559 393:0.0310559 394:0.0496894 395:0.180124 396:0.254658 397:0.0745342 398:0.0745342 399:0.0124224 400:0 401:0 402:0 403:0 404:0 405:0.0124224 406:0.0434783 407:0.192547 408:0.254658 409:0.167702 410:0.136646 411:0.0745342 412:0.0434783 413:0.0621118 414:0.0124224 415:0 416:0 417:0 418:0 419:0 420:0 421:0 422:0 423:0 424:0 425:0.0496894 426:0.0993789 427:0.130435 428:0.285714 429:0.167702 430:0.0931677 431:0.111801 432:0.0621118 433:0 434:0 435:0 436:0 437:0 438:0 439:0 440:0 441:0 442:0 443:0 444:0 445:0 446:0 447:0 448:0.136646 449:0.0372671 450:0.0372671 451:0.0621118 452:0.0310559 453:0.0310559 454:0.0372671 455:0.167702 456:0.21118 457:0.142857 458:0.068323 459:0.0310559 460:0.00621118 461:0 462:0 463:0 464:0 465:0.0248447 466:0.10559 467:0.167702 468:0.198758 469:0.204969 470:0.111801 471:0.0869565 472:0.0621118 473:0.0248447 474:0.0124224 475:0 476:0 477:0 478:0 479:0 480:0 481:0 482:0 483:0 484:0 485:0 486:0 487:0 488:0 489:0 490:0 491:0.0931677 492:0.78882 493:0.118012 494:0 495:0 496:0 497:0 498:0 499:0 500:0 501:0 502:0 503:0 504:0 505:0 506:0 507:0 508:0 509:0 510:0 511:0 512:0.0186335 513:0.322981 514:0.645963 515:0.0124224 516:0 517:0 518:0 519:0 520:0 521:0 522:0 523:0 524:0 525:0 526:0 527:0 528:0 529:0 530:0.217391 531:0.198758 532:0.509317 533:0.0745342 534:0 535:0 536:0 537:0 538:0 539:0 540:0 541:0 542:0 543:0 544:0 545:0 546:0 547:0 548:0 549:0 550:0 551:0.0186335 552:0.341615 553:0.279503 554:0.304348 555:0.0559006 556:0 557:0 558:0 559:0 560:0 561:0 562:0 563:0 564:0 565:0 566:0 567:0 568:0 569:0 570:0 571:0.242236 572:0.173913 573:0.142857 574:0.236025 575:0.149068 576:0.0559006 577:0 578:0 579:0 580:0 581:0 582:0 583:0 584:0 585:0 586:0 587:0.0248447 588:0.173913 589:0.0559006 590:0.0993789 591:0.0869565 592:0.322981 593:0.198758 594:0.0372671 595:0 596:0 597:0 598:0 599:0 600:0 601:0 602:0 603:0 604:0 605:0 606:0 607:0 608:0 609:0 610:0.0186335 611:0.0931677 612:0.124224 613:0.322981 614:0.223602 615:0.118012 616:0.0993789 617:0 618:0 619:0 620:0 621:0 622:0 623:0 624:0 625:0 626:0 627:0 628:0.00621118 629:0.161491 630:0.068323 631:0.0372671 632:0.0621118 633:0.0248447 634:0.118012 635:0.21118 636:0.167702 637:0.142857 638:0 639:0 640:0 641:0 642:0 643:0 644:0 645:0.0372671 646:0.118012 647:0.0372671 648:0.142857 649:0.0434783 650:0.068323 651:0.248447 652:0.186335 653:0.111801 654:0.00621118 655:0 656:0 657:0 658:0 659:0 660:0 661:0 662:0 663:0 664:0 665:0 666:0 667:0 668:0 669:0 670:0.0434783 671:0.0807453 672:0.142857 673:0.310559 674:0.192547 675:0.0869565 676:0.0993789 677:0.0434783 678:0 679:0 680:0 681:0 682:0 683:0 684:0 685:0 686:0 687:0 688:0.149068 689:0.0434783 690:0.0372671 691:0.0434783 692:0.0248447 693:0.0559006 694:0.0869565 695:0.124224 696:0.21118 697:0.192547 698:0.0310559 699:0 700:0 701:0 702:0 703:0 704:0 705:0.10559 706:0.0559006 707:0.10559 708:0.0869565 709:0.0434783 710:0.0993789 711:0.242236 712:0.167702 713:0.0931677 714:0 715:0 716:0 717:0 718:0 719:0 720:0 721:0 722:0 723:0 724:0 725:0 726:0 727:0 728:0 729:0 730:1 731:0 732:0 733:0 734:0 735:0 736:0 737:0 738:0 739:0 740:0 741:0 742:0 743:0 744:0 745:0 746:0 747:0 748:0 749:0.0124224 750:0.987578 751:0 752:0 753:0 754:0 755:0 756:0 757:0 758:0 759:0 760:0 761:0 762:0 763:0 764:0 765:0 766:0 767:0 768:0 769:0 770:0.795031 771:0.204969 772:0 773:0 774:0 775:0 776:0 777:0 778:0 779:0 780:0 781:0 782:0 783:0 784:0 785:0 786:0 787:0 788:0 789:0.869565 790:0.130435 791:0 792:0 793:0 794:0 795:0 796:0 797:0 798:0 799:0 800:0 801:0 802:0 803:0 804:0 805:0.583851 806:0.416149 807:0 808:0 809:0 810:0 811:0 812:0 813:0 814:0 815:0 816:0 817:0 818:0 819:0 820:0 821:0 822:0 823:0 824:0 825:0 826:0 827:0 828:0 829:0.118012 830:0.677019 831:0.204969 832:0 833:0 834:0 835:0 836:0 837:0 838:0 839:0 840:0 841:0 842:0 843:0 844:0 845:0 846:0 847:0 848:0.689441 849:0.285714 850:0.0248447 851:0 852:0 853:0 854:0 855:0 856:0 857:0 858:0 859:0 860:0 861:0.15528 862:0.614907 863:0.217391 864:0.0124224 865:0 866:0 867:0 868:0 869:0 870:0 871:0 872:0 873:0 874:0 875:0 876:0 877:0 878:0 879:0 880:0 881:0 882:0 883:0 884:0 885:0 886:0 887:0 888:0 889:0.304348 890:0.403727 891:0.291925 892:0 893:0 894:0 895:0 896:0 897:0 898:0 899:0 900:0 901:0 902:0 903:0 904:0 905:0 906:0 907:0 908:0.453416 909:0.515528 910:0.0310559 911:0 912:0 913:0 914:0 915:0 916:0 917:0 918:0 919:0 920:0 921:0.447205 922:0.434783 923:0.118012 924:0 925:0 926:0 927:0 928:0 929:0 930:0 931:0 932:0 933:0 934:0 935:0 936:0 937:0 938:0 939:0 940:0 941:0 942:0 943:0 944:0 945:0 946:0 947:0 948:0.068323 949:0.515528 950:0.372671 951:0.0434783 952:0 953:0 954:0 955:0 956:0 957:0 958:0 959:0 960:0 961:0 962:0 963:0 964:0 965:0 966:0 967:0 968:0 969:0 970:0 971:1 972:0 973:0 974:0 975:0 976:0 977:0 978:0 979:0 980:0 981:0 982:0 983:0 984:0 985:0 986:0 987:0 988:0 989:0.0248447 990:0.975155 991:0 992:0 993:0 994:0 995:0 996:0 997:0 998:0 999:0 1000:0 1001:0 1002:0 1003:0 1004:0 1005:0 1006:0 1007:0 1008:0 1009:0 1010:0.254658 1011:0.745342 1012:0 1013:0 1014:0 1015:0 1016:0 1017:0 1018:0 1019:0 1020:0 1021:0 1022:0 1023:0 1024:0 1025:0 1026:0 1027:0 1028:0 1029:0 1030:0 1031:0.0434783 1032:0.956522 1033:0 1034:0 1035:0 1036:0 1037:0 1038:0 1039:0 1040:0 1041:0 1042:0 1043:0 1044:0 1045:0.596273 1046:0.403727 1047:0 1048:0 1049:0 1050:0 1051:0 1052:0 1053:0 1054:0 1055:0 1056:0 1057:0 1058:0 1059:0 1060:0 1061:0 1062:0 1063:0 1064:0 1065:0 1066:0 1067:0 1068:0 1069:0.10559 1070:0.42236 1071:0.47205 1072:0 1073:0 1074:0 1075:0 1076:0 1077:0 1078:0 1079:0 1080:0 1081:0 1082:0 1083:0 1084:0 1085:0 1086:0 1087:0 1088:0 1089:0 1090:0 1091:0 1092:0.726708 1093:0.273292 1094:0 1095:0 1096:0 1097:0 1098:0 1099:0 1100:0 1101:0.198758 1102:0.602484 1103:0.198758 1104:0 1105:0 1106:0 1107:0 1108:0 1109:0 1110:0 1111:0 1112:0 1113:0 1114:0 1115:0 1116:0 1117:0 1118:0 1119:0 1120:0 1121:0 1122:0 1123:0 1124:0 1125:0 1126:0 1127:0 1128:0 1129:0.0807453 1130:0.372671 1131:0.459627 1132:0.0869565 1133:0 1134:0 1135:0 1136:0 1137:0 1138:0 1139:0 1140:0 1141:0 1142:0 1143:0 1144:0 1145:0 1146:0 1147:0 1148:0 1149:0 1150:0 1151:0 1152:0.484472 1153:0.515528 1154:0 1155:0 1156:0 1157:0 1158:0 1159:0 1160:0 1161:0.571429 1162:0.36646 1163:0.0621118 1164:0 1165:0 1166:0 1167:0 1168:0 1169:0 1170:0 1171:0 1172:0 1173:0 1174:0 1175:0 1176:0 1177:0 1178:0 1179:0 1180:0 1181:0 1182:0 1183:0 1184:0 1185:0 1186:0 1187:0 1188:0.0310559 1189:0.248447 1190:0.484472 1191:0.236025 1192:0 1193:0 1194:0 1195:0 1196:0 1197:0 1198:0 1199:0 1200:0 
1 1 1 1 1 1:0 2:0 3:0 4:0 5:0 6:0 7:0 8:0 9:0 10:0 11:1 12:0 13:0 14:0 15:0 16:0 17:0 18:0 19:0 20:0 21:0 22:0 23:0 24:0 25:0 26:0 27:0 28:0 29:0 30:0 31:1 32:0 33:0 34:0 35:0 36:0 37:0 38:0 39:0 40:0 41:0 42:0 43:0 44:0 45:0 46:0 47:0 48:0 49:0 50:0 51:1 52:0 53:0 54:0 55:0 56:0 57:0 58:0 59:0 60:0 61:0 62:0 63:0 64:0 65:0 66:0 67:0 68:0 69:0 70:1 71:0 72:0 73:0 74:0 75:0 76:0 77:0 78:0 79:0 80:0 81:0 82:0 83:0 84:0 85:0 86:0 87:0 88:0 89:0 90:0 91:1 92:0 93:0 94:0 95:0 96:0 97:0 98:0 99:0 100:0 101:0 102:0 103:0 104:0 105:0 106:0 107:0 108:0 109:0 110:0 111:1 112:0 113:0 114:0 115:0 116:0 117:0 118:0 119:0 120:0 121:0 122:0 123:0 124:0 125:0 126:0 127:0 128:0 129:0 130:0.548387 131:0.451613 132:0 133:0 134:0 135:0 136:0 137:0 138:0 139:0 140:0 141:0 142:0 143:0 144:0 145:0 146:0 147:0 148:0 149:0 150:0 151:0 152:0 153:1 154:0 155:0 156:0 157:0 158:0 159:0 160:0 161:0 162:0 163:0 164:0 165:0 166:0 167:0 168:0 169:0 170:0 171:0.795699 172:0.204301 173:0 174:0 175:0 176:0 177:0 178:0 179:0 180:0 181:0 182:0 183:0 184:0 185:0 186:0 187:0 188:0 189:0 190:0.612903 191:0.387097 192:0 193:0 194:0 195:0 196:0 197:0 198:0 199:0 200:0 201:0 202:0 203:0 204:0 205:0 206:0 207:0 208:0 209:0 210:0 211:0 212:0 213:0 214:0 215:1 216:0 217:0 218:0 219:0 220:0 221:0 222:0 223:0 224:0 225:0 226:0 227:0 228:0 229:0 230:0.172043 231:0.634409 232:0.193548 233:0 234:0 235:0 236:0 237:0 238:0 239:0 240:0 241:0 242:0 243:0 244:0 245:0 246:0 247:0 248:0.0107527 249:0.989247 250:0 251:0 252:0 253:0 254:0 255:0 256:0 257:0 258:0 259:0 260:0 261:0 262:0 263:0 264:0 265:0 266:0 267:0 268:0 269:0 270:0 271:0 272:0.387097 273:0.612903 274:0 275:0 276:0 277:0 278:0 279:0 280:0 281:0 282:0 283:0 284:0 285:0 286:0 287:0 288:0 289:0 290:0 291:1 292:0 293:0 294:0 295:0 296:0 297:0 298:0 299:0 300:0 301:0 302:0 303:0 304:0 305:0 306:0.0107527 307:0.817204 308:0.172043 309:0 310:0 311:0 312:0 313:0 314:0 315:0 316:0 317:0 318:0 319:0 320:0 321:0 322:0 323:0 324:0 325:0 326:0 327:0 328:0 329:0 330:0.0107527 331:0.139785 332:0.0215054 333:0.215054 334:0.516129 335:0.0967742 336:0 337:0 338:0 339:0 340:0 341:0 342:0 343:0 344:0 345:0 346:0 347:0 348:0 349:0.419355 350:0.580645 351:0 352:0 353:0 354:0 355:0 356:0 357:0 358:0 359:0 360:0 361:0 362:0 363:0 364:0 365:0 366:0.0645161 367:0.365591 368:0.419355 369:0.150538 370:0 371:0 372:0 373:0 374:0 375:0 376:0 377:0 378:0 379:0 380:0 381:0 382:0 383:0 384:0 385:0 386:0 387:0 388:0 389:0 390:0.139785 391:0 392:0.0215054 393:0.0107527 394:0.0322581 395:0.301075 396:0.333333 397:0.16129 398:0 399:0 400:0 401:0 402:0 403:0 404:0 405:0 406:0 407:0 408:0.344086 409:0.301075 410:0.311828 411:0.0430108 412:0 413:0 414:0 415:0 416:0 417:0 418:0 419:0 420:0 421:0 422:0 423:0 424:0 425:0 426:0.107527 427:0.258065 428:0.408602 429:0.225806 430:0 431:0 432:0 433:0 434:0 435:0 436:0 437:0 438:0 439:0 440:0 441:0 442:0 443:0 444:0 445:0 446:0 447:0 448:0 449:0 450:0.129032 451:0.0107527 452:0.0107527 453:0.0215054 454:0 455:0.11828 456:0.354839 457:0.311828 458:0.0430108 459:0 460:0 461:0 462:0 463:0 464:0 465:0 466:0.0107527 467:0.0645161 468:0.354839 469:0.215054 470:0.247312 471:0.107527 472:0 473:0 474:0 475:0 476:0 477:0 478:0 479:0 480:0 481:0 482:0 483:0 484:0 485:0 486:0 487:0 488:0 489:0 490:0 491:0 492:0.83871 493:0.16129 494:0 495:0 496:0 497:0 498:0 499:0 500:0 501:0 502:0 503:0 504:0 505:0 506:0 507:0 508:0 509:0 510:0 511:0 512:0.204301 513:0.795699 514:0 515:0 516:0 517:0 518:0 519:0 520:0 521:0 522:0 523:0 524:0 525:0 526:0 527:0 528:0 529:0 530:0 531:0.591398 532:0.408602 533:0 534:0 535:0 536:0 537:0 538:0 539:0 540:0 541:0 542:0 543:0 544:0 545:0 546:0 547:0 548:0 549:0 550:0 551:0 552:0 553:0.182796 554:0.612903 555:0.204301 556:0 557:0 558:0 559:0 560:0 561:0 562:0 563:0 564:0 565:0 566:0 567:0 568:0 569:0 570:0.129032 571:0.0107527 572:0.0215054 573:0.172043 574:0.397849 575:0.258065 576:0.0107527 577:0 578:0 579:0 580:0 581:0 582:0 583:0 584:0 585:0 586:0 587:0 588:0 589:0 590:0 591:0.903226 592:0.0967742 593:0 594:0 595:0 596:0 597:0 598:0 599:0 600:0 601:0 602:0 603:0 604:0 605:0 606:0 607:0 608:0 609:0 610:0 611:0 612:0 613:0.322581 614:0.365591 615:0.225806 616:0.0860215 617:0 618:0 619:0 620:0 621:0 622:0 623:0 624:0 625:0 626:0 627:0 628:0 629:0.139785 630:0.0107527 631:0 632:0.0107527 633:0.0107527 634:0.0215054 635:0.172043 636:0.397849 637:0.204301 638:0.0322581 639:0 640:0 641:0 642:0 643:0 644:0 645:0 646:0 647:0 648:0 649:0 650:0.473118 651:0.387097 652:0.107527 653:0.0322581 654:0 655:0 656:0 657:0 658:0 659:0 660:0 661:0 662:0 663:0 664:0 665:0 666:0 667:0 668:0 669:0 670:0 671:0 672:0.107527 673:0.301075 674:0.268817 675:0.172043 676:0.150538 677:0 678:0 679:0 680:0 681:0 682:0 683:0 684:0 685:0 686:0 687:0 688:0.0537634 689:0.0860215 690:0.0107527 691:0.0107527 692:0 693:0.0107527 694:0.0107527 695:0.0645161 696:0.311828 697:0.333333 698:0.107527 699:0 700:0 701:0 702:0 703:0 704:0 705:0 706:0 707:0 708:0 709:0.0215054 710:0.473118 711:0.344086 712:0.107527 713:0.0537634 714:0 715:0 716:0 717:0 718:0 719:0 720:0 721:0 722:0 723:0 724:0 725:0 726:0 727:0 728:0 729:0 730:1 731:0 732:0 733:0 734:0 735:0 736:0 737:0 738:0 739:0 740:0 741:0 742:0 743:0 744:0 745:0 746:0 747:0 748:0 749:0 750:1 751:0 752:0 753:0 754:0 755:0 756:0 757:0 758:0 759:0 760:0 761:0 762:0 763:0 764:0 765:0 766:0 767:0 768:0 769:0 770:1 771:0 772:0 773:0 774:0 775:0 776:0 777:0 778:0 779:0 780:0 781:0 782:0 783:0 784:0 785:0 786:0 787:0 788:0 789:0.989247 790:0.0107527 791:0 792:0 793:0 794:0 795:0 796:0 797:0 798:0 799:0 800:0 801:0 802:0 803:0 804:0 805:0 806:0 807:0 808:0.698925 809:0.16129 810:0.139785 811:0 812:0 813:0 814:0 815:0 816:0 817:0 818:0 819:0 820:0 821:0 822:0 823:0 824:0 825:0 826:0.150538 827:0.849462 828:0 829:0 830:0 831:0 832:0 833:0 834:0 835:0 836:0 837:0 838:0 839:0 840:0 841:0 842:0 843:0 844:0 845:0 846:0 847:0 848:0 849:0.0860215 850:0.913979 851:0 852:0 853:0 854:0 855:0 856:0 857:0 858:0 859:0 860:0 861:0 862:0 863:0 864:0 865:0 866:0.258065 867:0.612903 868:0.129032 869:0 870:0 871:0 872:0 873:0 874:0 875:0 876:0 877:0 878:0 879:0 880:0 881:0 882:0 883:0 884:0.0537634 885:0.677419 886:0.268817 887:0 888:0 889:0 890:0 891:0 892:0 893:0 894:0 895:0 896:0 897:0 898:0 899:0 900:0 901:0 902:0 903:0 904:0 905:0 906:0 907:0 908:0 909:0.172043 910:0.827957 911:0 912:0 913:0 914:0 915:0 916:0 917:0 918:0 919:0 920:0 921:0 922:0 923:0 924:0 925:0 926:0.752688 927:0.247312 928:0 929:0 930:0 931:0 932:0 933:0 934:0 935:0 936:0 937:0 938:0 939:0 940:0 941:0 942:0 943:0 944:0.311828 945:0.677419 946:0.0107527 947:0 948:0 949:0 950:0 951:0 952:0 953:0 954:0 955:0 956:0 957:0 958:0 959:0 960:0 961:0 962:0 963:0 964:0 965:0 966:0 967:0 968:0 969:0 970:0 971:0.956989 972:0.0430108 973:0 974:0 975:0 976:0 977:0 978:0 979:0 980:0 981:0 982:0 983:0 984:0 985:0 986:0 987:0 988:0 989:0 990:1 991:0 992:0 993:0 994:0 995:0 996:0 997:0 998:0 999:0 1000:0 1001:0 1002:0 1003:0 1004:0 1005:0 1006:0 1007:0 1008:0 1009:0 1010:0.913979 1011:0.0860215 1012:0 1013:0 1014:0 1015:0 1016:0 1017:0 1018:0 1019:0 1020:0 1021:0 1022:0 1023:0 1024:0 1025:0 1026:0 1027:0 1028:0 1029:0 1030:0 1031:0 1032:1 1033:0 1034:0 1035:0 1036:0 1037:0 1038:0 1039:0 1040:0 1041:0 1042:0 1043:0 1044:0 1045:0 1046:0 1047:0 1048:0.677419 1049:0.322581 1050:0 1051:0 1052:0 1053:0 1054:0 1055:0 1056:0 1057:0 1058:0 1059:0 1060:0 1061:0 1062:0 1063:0 1064:0 1065:0 1066:0.376344 1067:0.623656 1068:0 1069:0 1070:0 1071:0 1072:0 1073:0 1074:0 1075:0 1076:0 1077:0 1078:0 1079:0 1080:0 1081:0 1082:0 1083:0 1084:0 1085:0 1086:0 1087:0 1088:0 1089:0 1090:0 1091:0 1092:1 1093:0 1094:0 1095:0 1096:0 1097:0 1098:0 1099:0 1100:0 1101:0 1102:0 1103:0 1104:0 1105:0 1106:0.473118 1107:0.397849 1108:0.129032 1109:0 1110:0 1111:0 1112:0 1113:0 1114:0 1115:0 1116:0 1117:0 1118:0 1119:0 1120:0 1121:0 1122:0 1123:0 1124:0.0645161 1125:0.526882 1126:0.408602 1127:0 1128:0 1129:0 1130:0 1131:0 1132:0 1133:0 1134:0 1135:0 1136:0 1137:0 1138:0 1139:0 1140:0 1141:0 1142:0 1143:0 1144:0 1145:0 1146:0 1147:0 1148:0 1149:0 1150:0 1151:0.0215054 1152:0.903226 1153:0.0752688 1154:0 1155:0 1156:0 1157:0 1158:0 1159:0 1160:0 1161:0 1162:0 1163:0 1164:0 1165:0 1166:0.731183 1167:0.215054 1168:0.0537634 1169:0 1170:0 1171:0 1172:0 1173:0 1174:0 1175:0 1176:0 1177:0 1178:0 1179:0 1180:0 1181:0 1182:0 1183:0 1184:0.376344 1185:0.623656 1186:0 1187:0 1188:0 1189:0 1190:0 1191:0 1192:0 1193:0 1194:0 1195:0 1196:0 1197:0 1198:0 1199:0 1200:0 
1 1 1 1 1 1:0 2:0 3:0 4:0 5:0 6:0 7:0 8:0 9:0 10:0 11:1 12:0 13:0 14:0 15:0 16:0 17:0 18:0 19:0 20:0 21:0 22:0 23:0 24:0 25:0 26:0 27:0 28:0 29:0 30:0 31:1 32:0 33:0 34:0 35:0 36:0 37:0 38:0 39:0 40:0 41:0 42:0 43:0 44:0 45:0 46:0 47:0 48:0 49:0 50:0 51:1 52:0 53:0 54:0 55:0 56:0 57:0 58:0 59:0 60:0 61:0 62:0 63:0 64:0 65:0 66:0 67:0 68:0 69:0 70:0.535948 71:0.464052 72:0 73:0 74:0 75:0 76:0 77:0 78:0 79:0 80:0 81:0 82:0 83:0 84:0 85:0 86:0 87:0 88:0 89:0 90:0 91:1 92:0 93:0 94:0 95:0 96:0 97:0 98:0 99:0 100:0 101:0 102:0 103:0 104:0 105:0 106:0 107:0 108:0 109:0 110:0 111:1 112:0 113:0 114:0 115:0 116:0 117:0 118:0 119:0 120:0 121:0 122:0 123:0 124:0 125:0 126:0 127:0 128:0 129:0 130:0.398693 131:0.601307 132:0 133:0 134:0 135:0 136:0 137:0 138:0 139:0 140:0 141:0 142:0 143:0 144:0 145:0 146:0 147:0 148:0 149:0 150:0 151:0 152:0 153:0.235294 154:0.764706 155:0 156:0 157:0 158:0 159:0 160:0 161:0 162:0 163:0 164:0 165:0 166:0 167:0 168:0 169:0 170:0 171:1 172:0 173:0 174:0 175:0 176:0 177:0 178:0 179:0 180:0 181:0 182:0 183:0 184:0 185:0 186:0 187:0 188:0 189:0 190:0.594771 191:0.405229 192:0 193:0 194:0 195:0 196:0 197:0 198:0 199:0 200:0 201:0 202:0 203:0 204:0 205:0 206:0 207:0 208:0 209:0 210:0 211:0 212:0 213:0 214:0.0457516 215:0.150327 216:0.803922 217:0 218:0 219:0 220:0 221:0 222:0 223:0 224:0 225:0 226:0 227:0 228:0 229:0 230:0.477124 231:0.522876 232:0 233:0 234:0 235:0 236:0 237:0 238:0 239:0 240:0 241:0 242:0 243:0 244:0 245:0 246:0 247:0 248:0.0980392 249:0.901961 250:0 251:0 252:0 253:0 254:0 255:0 256:0 257:0 258:0 259:0 260:0 261:0 262:0 263:0 264:0 265:0 266:0 267:0 268:0 269:0 270:0 271:0 272:0.0261438 273:0.810458 274:0.163399 275:0 276:0 277:0 278:0 279:0 280:0 281:0 282:0 283:0 284:0 285:0 286:0 287:0 288:0 289:0 290:0.228758 291:0.614379 292:0.130719 293:0.0261438 294:0 295:0 296:0 297:0 298:0 299:0 300:0 301:0 302:0 303:0 304:0 305:0 306:0.0261438 307:0.522876 308:0.45098 309:0 310:0 311:0 312:0 313:0 314:0 315:0 316:0 317:0 318:0 319:0 320:0 321:0 322:0 323:0 324:0 325:0 326:0 327:0 328:0 329:0 330:0 331:0.111111 332:0.0326797 333:0.0653595 334:0.457516 335:0.320261 336:0.0130719 337:0 338:0 339:0 340:0 341:0 342:0 343:0 344:0 345:0 346:0 347:0 348:0.176471 349:0.111111 350:0.359477 351:0.267974 352:0.0849673 353:0 354:0 355:0 356:0 357:0 358:0 359:0 360:0 361:0 362:0 363:0 364:0 365:0 366:0.0392157 367:0.20915 368:0.535948 369:0.202614 370:0.0130719 371:0 372:0 373:0 374:0 375:0 376:0 377:0 378:0 379:0 380:0 381:0 382:0 383:0 384:0 385:0 386:0 387:0 388:0 389:0.0980392 390:0.0130719 391:0.0130719 392:0.00653595 393:0.00653595 394:0.0130719 395:0.189542 396:0.470588 397:0.189542 398:0 399:0 400:0 401:0 402:0 403:0 404:0 405:0 406:0 407:0.0915033 408:0.117647 409:0.228758 410:0.346405 411:0.183007 412:0.0326797 413:0 414:0 415:0 416:0 417:0 418:0 419:0 420:0 421:0 422:0 423:0 424:0 425:0 426:0.0392157 427:0.202614 428:0.379085 429:0.346405 430:0.0326797 431:0 432:0 433:0 434:0 435:0 436:0 437:0 438:0 439:0 440:0 441:0 442:0 443:0 444:0 445:0 446:0 447:0 448:0 449:0.104575 450:0.00653595 451:0.00653595 452:0.00653595 453:0.00653595 454:0.00653595 455:0.0784314 456:0.333333 457:0.431373 458:0.0196078 459:0 460:0 461:0 462:0 463:0 464:0 465:0 466:0.0130719 467:0.117647 468:0.0784314 469:0.287582 470:0.320261 471:0.150327 472:0.0326797 473:0 474:0 475:0 476:0 477:0 478:0 479:0 480:0 481:0 482:0 483:0 484:0 485:0 486:0 487:0 488:0 489:0 490:0 491:0 492:0.575163 493:0.424837 494:0 495:0 496:0 497:0 498:0 499:0 500:0 501:0 502:0 503:0 504:0 505:0 506:0 507:0 508:0 509:0 510:0 511:0 512:0.0326797 513:0.810458 514:0.156863 515:0 516:0 517:0 518:0 519:0 520:0 521:0 522:0 523:0 524:0 525:0 526:0 527:0 528:0 529:0.0326797 530:0.137255 531:0.699346 532:0.130719 533:0 534:0 535:0 536:0 537:0 538:0 539:0 540:0 541:0 542:0 543:0 544:0 545:0 546:0 547:0 548:0 549:0 550:0 551:0.0392157 552:0.0392157 553:0.24183 554:0.627451 555:0.0522876 556:0 557:0 558:0 559:0 560:0 561:0 562:0 563:0 564:0 565:0 566:0 567:0 568:0 569:0 570:0 571:0.117647 572:0.0196078 573:0.0718954 574:0.352941 575:0.431373 576:0.00653595 577:0 578:0 579:0 580:0 581:0 582:0 583:0 584:0 585:0 586:0 587:0.0261438 588:0.0718954 589:0.117647 590:0.346405 591:0.392157 592:0.0457516 593:0 594:0 595:0 596:0 597:0 598:0 599:0 600:0 601:0 602:0 603:0 604:0 605:0 606:0 607:0 608:0 609:0 610:0.0130719 611:0.0784314 612:0.0588235 613:0.490196 614:0.287582 615:0.0522876 616:0.0196078 617:0 618:0 619:0 620:0 621:0 622:0 623:0 624:0 625:0 626:0 627:0 628:0 629:0.0980392 630:0.00653595 631:0.0130719 632:0.00653595 633:0.00653595 634:0.0130719 635:0.189542 636:0.372549 637:0.294118 638:0 639:0 640:0 641:0 642:0 643:0 644:0 645:0 646:0 647:0.0261438 648:0.156863 649:0.196078 650:0.464052 651:0.143791 652:0.0130719 653:0 654:0 655:0 656:0 657:0 658:0 659:0 660:0 661:0 662:0 663:0 664:0 665:0 666:0 667:0 668:0 669:0 670:0.0261438 671:0.0784314 672:0.0915033 673:0.496732 674:0.235294 675:0.0522876 676:0.0196078 677:0 678:0 679:0 680:0 681:0 682:0 683:0 684:0 685:0 686:0 687:0 688:0.0522876 689:0.0457516 690:0.0130719 691:0.00653595 692:0.00653595 693:0.00653595 694:0.00653595 695:0.0392157 696:0.300654 697:0.457516 698:0.0653595 699:0 700:0 701:0 702:0 703:0 704:0 705:0 706:0 707:0.0261438 708:0.183007 709:0.228758 710:0.411765 711:0.130719 712:0.0196078 713:0 714:0 715:0 716:0 717:0 718:0 719:0 720:0 721:0 722:0 723:0 724:0 725:0 726:0 727:0 728:0 729:0.0326797 730:0.96732 731:0 732:0 733:0 734:0 735:0 736:0 737:0 738:0 739:0 740:0 741:0 742:0 743:0 744:0 745:0 746:0 747:0 748:0 749:0.0261438 750:0.973856 751:0 752:0 753:0 754:0 755:0 756:0 757:0 758:0 759:0 760:0 761:0 762:0 763:0 764:0 765:0 766:0 767:0 768:0 769:0 770:0.732026 771:0.267974 772:0 773:0 774:0 775:0 776:0 777:0 778:0 779:0 780:0 781:0 782:0 783:0 784:0 785:0 786:0 787:0 788:0 789:0.72549 790:0.27451 791:0 792:0 793:0 794:0 795:0 796:0 797:0 798:0 799:0 800:0 801:0 802:0 803:0 804:0 805:0.287582 806:0.712418 807:0 808:0 809:0 810:0 811:0 812:0 813:0 814:0 815:0 816:0 817:0 818:0 819:0 820:0 821:0 822:0 823:0 824:0 825:0 826:0 827:0 828:0 829:0 830:0.816993 831:0.183007 832:0 833:0 834:0 835:0 836:0 837:0 838:0 839:0 840:0 841:0 842:0 843:0 844:0 845:0 846:0 847:0 848:0.0849673 849:0.555556 850:0.359477 851:0 852:0 853:0 854:0 855:0 856:0 857:0 858:0 859:0 860:0 861:0.0130719 862:0.117647 863:0.601307 864:0.267974 865:0 866:0 867:0 868:0 869:0 870:0 871:0 872:0 873:0 874:0 875:0 876:0 877:0 878:0 879:0 880:0 881:0 882:0 883:0 884:0 885:0 886:0 887:0 888:0 889:0.0653595 890:0.392157 891:0.542484 892:0 893:0 894:0 895:0 896:0 897:0 898:0 899:0 900:0 901:0 902:0 903:0 904:0 905:0 906:0 907:0 908:0.24183 909:0.568627 910:0.189542 911:0 912:0 913:0 914:0 915:0 916:0 917:0 918:0 919:0 920:0 921:0.0196078 922:0.30719 923:0.470588 924:0.202614 925:0 926:0 927:0 928:0 929:0 930:0 931:0 932:0 933:0 934:0 935:0 936:0 937:0 938:0 939:0 940:0 941:0 942:0 943:0 944:0 945:0 946:0 947:0 948:0 949:0.104575 950:0.48366 951:0.405229 952:0.00653595 953:0 954:0 955:0 956:0 957:0 958:0 959:0 960:0 961:0 962:0 963:0 964:0 965:0 966:0 967:0 968:0 969:0 970:0 971:0.980392 972:0.0196078 973:0 974:0 975:0 976:0 977:0 978:0 979:0 980:0 981:0 982:0 983:0 984:0 985:0 986:0 987:0 988:0 989:0 990:1 991:0 992:0 993:0 994:0 995:0 996:0 997:0 998:0 999:0 1000:0 1001:0 1002:0 1003:0 1004:0 1005:0 1006:0 1007:0 1008:0 1009:0 1010:0.75817 1011:0.24183 1012:0 1013:0 1014:0 1015:0 1016:0 1017:0 1018:0 1019:0 1020:0 1021:0 1022:0 1023:0 1024:0 1025:0 1026:0 1027:0 1028:0 1029:0 1030:0 1031:0.640523 1032:0.359477 1033:0 1034:0 1035:0 1036:0 1037:0 1038:0 1039:0 1040:0 1041:0 1042:0 1043:0 1044:0 1045:0.150327 1046:0.849673 1047:0 1048:0 1049:0 1050:0 1051:0 1052:0 1053:0 1054:0 1055:0 1056:0 1057:0 1058:0 1059:0 1060:0 1061:0 1062:0 1063:0 1064:0 1065:0 1066:0 1067:0 1068:0 1069:0.156863 1070:0.810458 1071:0.0326797 1072:0 1073:0 1074:0 1075:0 1076:0 1077:0 1078:0 1079:0 1080:0 1081:0 1082:0 1083:0 1084:0 1085:0 1086:0 1087:0 1088:0 1089:0 1090:0 1091:0.542484 1092:0.411765 1093:0.0457516 1094:0 1095:0 1096:0 1097:0 1098:0 1099:0 1100:0 1101:0 1102:0.0653595 1103:0.509804 1104:0.424837 1105:0 1106:0 1107:0 1108:0 1109:0 1110:0 1111:0 1112:0 1113:0 1114:0 1115:0 1116:0 1117:0 1118:0 1119:0 1120:0 1121:0 1122:0 1123:0 1124:0 1125:0 1126:0 1127:0 1128:0 1129:0.202614 1130:0.575163 1131:0.222222 1132:0 1133:0 1134:0 1135:0 1136:0 1137:0 1138:0 1139:0 1140:0 1141:0 1142:0 1143:0 1144:0 1145:0 1146:0 1147:0 1148:0 1149:0 1150:0.0980392 1151:0.352941 1152:0.496732 1153:0.0522876 1154:0 1155:0 1156:0 1157:0 1158:0 1159:0 1160:0 1161:0.0522876 1162:0.0980392 1163:0.705882 1164:0.143791 1165:0 1166:0 1167:0 1168:0 1169:0 1170:0 1171:0 1172:0 1173:0 1174:0 1175:0 1176:0 1177:0 1178:0 1179:0 1180:0 1181:0 1182:0 1183:0 1184:0 1185:0 1186:0 1187:0 1188:0.117647 1189:0.163399 1190:0.712418 1191:0.00653595 1192:0 1193:0 1194:0 1195:0 1196:0 1197:0 1198:0 1199:0 1200:0 
1 1 1 1 1 1:0 2:0 3:0 4:0 5:0 6:0 7:0 8:0 9:0 10:0 11:1 12:0 13:0 14:0 15:0 16:0 17:0 18:0 19:0 20:0 21:0 22:0 23:0 24:0 25:0 26:0 27:0 28:0 29:0 30:0 31:1 32:0 33:0 34:0 35:0 36:0 37:0 38:0 39:0 40:0 41:0 42:0 43:0 44:0 45:0 46:0 47:0 48:0 49:0 50:0 51:1 52:0 53:0 54:0 55:0 56:0 57:0 58:0 59:0 60:0 61:0 62:0 63:0 64:0 65:0 66:0 67:0 68:0 69:0 70:0.851282 71:0.148718 72:0 73:0 74:0 75:0 76:0 77:0 78:0 79:0 80:0 81:0 82:0 83:0 84:0 85:0 86:0 87:0 88:0 89:0 90:0 91:1 92:0 93:0 94:0 95:0 96:0 97:0 98:0 99:0 100:0 101:0 102:0 103:0 104:0 105:0 106:0 107:0 108:0 109:0 110:0 111:1 112:0 113:0 114:0 115:0 116:0 117:0 118:0 119:0 120:0 121:0 122:0 123:0 124:0 125:0 126:0 127:0 128:0 129:0 130:0.964103 131:0.0358974 132:0 133:0 134:0 135:0 136:0 137:0 138:0 139:0 140:0 141:0 142:0 143:0 144:0 145:0 146:0 147:0 148:0 149:0 150:0 151:0 152:0 153:1 154:0 155:0 156:0 157:0 158:0 159:0 160:0 161:0 162:0 163:0 164:0 165:0 166:0 167:0 168:0 169:0 170:0 171:1 172:0 173:0 174:0 175:0 176:0 177:0 178:0 179:0 180:0 181:0 182:0 183:0 184:0 185:0 186:0 187:0 188:0 189:0 190:1 191:0 192:0 193:0 194:0 195:0 196:0 197:0 198:0 199:0 200:0 201:0 202:0 203:0 204:0 205:0 206:0 207:0 208:0 209:0 210:0 211:0 212:0 213:0 214:0.128205 215:0.871795 216:0 217:0 218:0 219:0 220:0 221:0 222:0 223:0 224:0 225:0 226:0 227:0 228:0 229:0 230:0 231:1 232:0 233:0 234:0 235:0 236:0 237:0 238:0 239:0 240:0 241:0 242:0 243:0 244:0 245:0 246:0 247:0 248:0 249:1 250:0 251:0 252:0 253:0 254:0 255:0 256:0 257:0 258:0 259:0 260:0 261:0 262:0 263:0 264:0 265:0 266:0 267:0 268:0 269:0 270:0 271:0 272:0.94359 273:0.0564103 274:0 275:0 276:0 277:0 278:0 279:0 280:0 281:0 282:0 283:0 284:0 285:0 286:0 287:0 288:0 289:0 290:0 291:1 292:0 293:0 294:0 295:0 296:0 297:0 298:0 299:0 300:0 301:0 302:0 303:0 304:0 305:0 306:0 307:0.733333 308:0.0564103 309:0.210256 310:0 311:0 312:0 313:0 314:0 315:0 316:0 317:0 318:0 319:0 320:0 321:0 322:0 323:0 324:0 325:0 326:0 327:0 328:0 329:0 330:0 331:0.317949 332:0.379487 333:0.14359 334:0.158974 335:0 336:0 337:0 338:0 339:0 340:0 341:0 342:0 343:0 344:0 345:0 346:0 347:0 348:0 349:0.025641 350:0.625641 351:0.348718 352:0 353:0 354:0 355:0 356:0 357:0 358:0 359:0 360:0 361:0 362:0 363:0 364:0 365:0 366:0.133333 367:0.369231 368:0.266667 369:0.230769 370:0 371:0 372:0 373:0 374:0 375:0 376:0 377:0 378:0 379:0 380:0 381:0 382:0 383:0 384:0 385:0 386:0 387:0 388:0 389:0.2 390:0.00512821 391:0.00512821 392:0.0102564 393:0.251282 394:0.271795 395:0.117949 396:0.138462 397:0 398:0 399:0 400:0 401:0 402:0 403:0 404:0 405:0 406:0 407:0 408:0 409:0.4 410:0.425641 411:0.174359 412:0 413:0 414:0 415:0 416:0 417:0 418:0 419:0 420:0 421:0 422:0 423:0 424:0 425:0.0307692 426:0.158974 427:0.184615 428:0.364103 429:0.261538 430:0 431:0 432:0 433:0 434:0 435:0 436:0 437:0 438:0 439:0 440:0 441:0 442:0 443:0 444:0 445:0 446:0 447:0 448:0 449:0.2 450:0.00512821 451:0.00512821 452:0.00512821 453:0.123077 454:0.307692 455:0.14359 456:0.14359 457:0.0666667 458:0 459:0 460:0 461:0 462:0 463:0 464:0 465:0 466:0 467:0 468:0.0153846 469:0.34359 470:0.353846 471:0.287179 472:0 473:0 474:0 475:0 476:0 477:0 478:0 479:0 480:0 481:0 482:0 483:0 484:0 485:0 486:0 487:0 488:0 489:0 490:0 491:0 492:1 493:0 494:0 495:0 496:0 497:0 498:0 499:0 500:0 501:0 502:0 503:0 504:0 505:0 506:0 507:0 508:0 509:0 510:0 511:0 512:0.979487 513:0.0205128 514:0 515:0 516:0 517:0 518:0 519:0 520:0 521:0 522:0 523:0 524:0 525:0 526:0 527:0 528:0 529:0 530:0 531:1 532:0 533:0 534:0 535:0 536:0 537:0 538:0 539:0 540:0 541:0 542:0 543:0 544:0 545:0 546:0 547:0 548:0 549:0 550:0 551:0 552:0.210256 553:0.415385 554:0.374359 555:0 556:0 557:0 558:0 559:0 560:0 561:0 562:0 563:0 564:0 565:0 566:0 567:0 568:0 569:0 570:0.102564 571:0.271795 572:0.338462 573:0.133333 574:0.14359 575:0.0102564 576:0 577:0 578:0 579:0 580:0 581:0 582:0 583:0 584:0 585:0 586:0 587:0 588:0 589:0.0461538 590:0.497436 591:0.45641 592:0 593:0 594:0 595:0 596:0 597:0 598:0 599:0 600:0 601:0 602:0 603:0 604:0 605:0 606:0 607:0 608:0 609:0 610:0 611:0.0153846 612:0.374359 613:0.425641 614:0.14359 615:0.0410256 616:0 617:0 618:0 619:0 620:0 621:0 622:0 623:0 624:0 625:0 626:0 627:0 628:0 629:0.210256 630:0.0153846 631:0.0307692 632:0.0615385 633:0.230769 634:0.220513 635:0.123077 636:0.107692 637:0 638:0 639:0 640:0 641:0 642:0 643:0 644:0 645:0 646:0 647:0 648:0 649:0.297436 650:0.353846 651:0.348718 652:0 653:0 654:0 655:0 656:0 657:0 658:0 659:0 660:0 661:0 662:0 663:0 664:0 665:0 666:0 667:0 668:0 669:0 670:0 671:0.025641 672:0.451282 673:0.374359 674:0.0923077 675:0.0564103 676:0 677:0 678:0 679:0 680:0 681:0 682:0 683:0 684:0 685:0 686:0 687:0 688:0.0153846 689:0.194872 690:0.0153846 691:0.0307692 692:0.0102564 693:0.169231 694:0.282051 695:0.107692 696:0.107692 697:0.0666667 698:0 699:0 700:0 701:0 702:0 703:0 704:0 705:0 706:0 707:0 708:0.0153846 709:0.230769 710:0.374359 711:0.379487 712:0 713:0 714:0 715:0 716:0 717:0 718:0 719:0 720:0 721:0 722:0 723:0 724:0 725:0 726:0 727:0 728:0 729:0 730:1 731:0 732:0 733:0 734:0 735:0 736:0 737:0 738:0 739:0 740:0 741:0 742:0 743:0 744:0 745:0 746:0 747:0 748:0 749:0 750:1 751:0 752:0 753:0 754:0 755:0 756:0 757:0 758:0 759:0 760:0 761:0 762:0 763:0 764:0 765:0 766:0 767:0 768:0 769:0 770:1 771:0 772:0 773:0 774:0 775:0 776:0 777:0 778:0 779:0 780:0 781:0 782:0 783:0 784:0 785:0 786:0 787:0 788:0 789:0 790:0.102564 791:0.574359 792:0.323077 793:0 794:0 795:0 796:0 797:0 798:0 799:0 800:0 801:0 802:0 803:0 804:0 805:0 806:0.0358974 807:0.702564 808:0.261538 809:0 810:0 811:0 812:0 813:0 814:0 815:0 816:0 817:0 818:0 819:0 820:0 821:0 822:0 823:0 824:0 825:0 826:0 827:0.507692 828:0.307692 829:0.0461538 830:0.107692 831:0.0307692 832:0 833:0 834:0 835:0 836:0 837:0 838:0 839:0 840:0 841:0 842:0 843:0 844:0 845:0 846:0 847:0 848:0 849:0.0615385 850:0.251282 851:0.564103 852:0.123077 853:0 854:0 855:0 856:0 857:0 858:0 859:0 860:0 861:0 862:0 863:0 864:0.025641 865:0.558974 866:0.338462 867:0.0666667 868:0.0102564 869:0 870:0 871:0 872:0 873:0 874:0 875:0 876:0 877:0 878:0 879:0 880:0 881:0 882:0 883:0 884:0 885:0 886:0.487179 887:0.389744 888:0.123077 889:0 890:0 891:0 892:0 893:0 894:0 895:0 896:0 897:0 898:0 899:0 900:0 901:0 902:0 903:0 904:0 905:0 906:0 907:0 908:0 909:0.00512821 910:0.0923077 911:0.841026 912:0.0615385 913:0 914:0 915:0 916:0 917:0 918:0 919:0 920:0 921:0 922:0 923:0 924:0.0205128 925:0.528205 926:0.410256 927:0.0410256 928:0 929:0 930:0 931:0 932:0 933:0 934:0 935:0 936:0 937:0 938:0 939:0 940:0 941:0 942:0 943:0 944:0 945:0.0205128 946:0.753846 947:0.189744 948:0.0358974 949:0 950:0 951:0 952:0 953:0 954:0 955:0 956:0 957:0 958:0 959:0 960:0 961:0 962:0 963:0 964:0 965:0 966:0 967:0 968:0 969:0 970:0 971:1 972:0 973:0 974:0 975:0 976:0 977:0 978:0 979:0 980:0 981:0 982:0 983:0 984:0 985:0 986:0 987:0 988:0 989:0 990:1 991:0 992:0 993:0 994:0 995:0 996:0 997:0 998:0 999:0 1000:0 1001:0 1002:0 1003:0 1004:0 1005:0 1006:0 1007:0 1008:0 1009:0 1010:0.984615 1011:0.0153846 1012:0 1013:0 1014:0 1015:0 1016:0 1017:0 1018:0 1019:0 1020:0 1021:0 1022:0 1023:0 1024:0 1025:0 1026:0 1027:0 1028:0 1029:0 1030:0 1031:0.25641 1032:0.733333 1033:0.0102564 1034:0 1035:0 1036:0 1037:0 1038:0 1039:0 1040:0 1041:0 1042:0 1043:0 1044:0 1045:0 1046:0 1047:0.805128 1048:0.194872 1049:0 1050:0 1051:0 1052:0 1053:0 1054:0 1055:0 1056:0 1057:0 1058:0 1059:0 1060:0 1061:0 1062:0 1063:0 1064:0 1065:0 1066:0 1067:0.548718 1068:0.266667 1069:0.0974359 1070:0.0666667 1071:0.0205128 1072:0 1073:0 1074:0 1075:0 1076:0 1077:0 1078:0 1079:0 1080:0 1081:0 1082:0 1083:0 1084:0 1085:0 1086:0 1087:0 1088:0 1089:0 1090:0.0461538 1091:0.297436 1092:0.65641 1093:0 1094:0 1095:0 1096:0 1097:0 1098:0 1099:0 1100:0 1101:0 1102:0 1103:0 1104:0 1105:0.830769 1106:0.169231 1107:0 1108:0 1109:0 1110:0 1111:0 1112:0 1113:0 1114:0 1115:0 1116:0 1117:0 1118:0 1119:0 1120:0 1121:0 1122:0 1123:0 1124:0 1125:0 1126:0.564103 1127:0.353846 1128:0.0820513 1129:0 1130:0 1131:0 1132:0 1133:0 1134:0 1135:0 1136:0 1137:0 1138:0 1139:0 1140:0 1141:0 1142:0 1143:0 1144:0 1145:0 1146:0 1147:0 1148:0 1149:0 1150:0 1151:0.753846 1152:0.246154 1153:0 1154:0 1155:0 1156:0 1157:0 1158:0 1159:0 1160:0 1161:0 1162:0 1163:0 1164:0 1165:0.497436 1166:0.502564 1167:0 1168:0 1169:0 1170:0 1171:0 1172:0 1173:0 1174:0 1175:0 1176:0 1177:0 1178:0 1179:0 1180:0 1181:0 1182:0 1183:0 1184:0 1185:0.0153846 1186:0.682051 1187:0.282051 1188:0.0205128 1189:0 1190:0 1191:0 1192:0 1193:0 1194:0 1195:0 1196:0 1197:0 1198:0 1199:0 1200:0 
1 1 1 1 1 1:0 2:0 3:0 4:0 5:0 6:0 7:0 8:0 9:0 10:0 11:1 12:0 13:0 14:0 15:0 16:0 17:0 18:0 19:0 20:0 21:0 22:0 23:0 24:0 25:0 26:0 27:0 28:0 29:0 30:0 31:1 32:0 33:0 34:0 35:0 36:0 37:0 38:0 39:0 40:0 41:0 42:0 43:0 44:0 45:0 46:0 47:0 48:0 49:0 50:0 51:1 52:0 53:0 54:0 55:0 56:0 57:0 58:0 59:0 60:0 61:0 62:0 63:0 64:0 65:0 66:0 67:0 68:0 69:0 70:0.64486 71:0.35514 72:0 73:0 74:0 75:0 76:0 77:0 78:0 79:0 80:0 81:0 82:0 83:0 84:0 85:0 86:0 87:0 88:0 89:0 90:0 91:1 92:0 93:0 94:0 95:0 96:0 97:0 98:0 99:0 100:0 101:0 102:0 103:0 104:0 105:0 106:0 107:0 108:0 109:0 110:0 111:1 112:0 113:0 114:0 115:0 116:0 117:0 118:0 119:0 120:0 121:0 122:0 123:0 124:0 125:0 126:0 127:0 128:0 129:0 130:0.939252 131:0.0607477 132:0 133:0 134:0 135:0 136:0 137:0 138:0 139:0 140:0 141:0 142:0 143:0 144:0 145:0 146:0 147:0 148:0 149:0 150:0 151:0 152:0 153:0 154:0.257009 155:0.742991 156:0 157:0 158:0 159:0 160:0 161:0 162:0 163:0 164:0 165:0 166:0 167:0 168:0 169:0 170:0 171:0.869159 172:0.130841 173:0 174:0 175:0 176:0 177:0 178:0 179:0 180:0 181:0 182:0 183:0 184:0 185:0 186:0 187:0 188:0 189:0 190:0.766355 191:0.233645 192:0 193:0 194:0 195:0 196:0 197:0 198:0 199:0 200:0 201:0 202:0 203:0 204:0 205:0 206:0 207:0 208:0 209:0 210:0 211:0 212:0 213:0 214:0 215:0 216:1 217:0 218:0 219:0 220:0 221:0 222:0 223:0 224:0 225:0 226:0 227:0 228:0 229:0 230:0 231:0.985981 232:0.0140187 233:0 234:0 235:0 236:0 237:0 238:0 239:0 240:0 241:0 242:0 243:0 244:0 245:0 246:0 247:0 248:0 249:1 250:0 251:0 252:0 253:0 254:0 255:0 256:0 257:0 258:0 259:0 260:0 261:0 262:0 263:0 264:0 265:0 266:0 267:0 268:0 269:0 270:0 271:0 272:0 273:0.528037 274:0.471963 275:0 276:0 277:0 278:0 279:0 280:0 281:0 282:0 283:0 284:0 285:0 286:0 287:0 288:0 289:0 290:0 291:0.971963 292:0.0280374 293:0 294:0 295:0 296:0 297:0 298:0 299:0 300:0 301:0 302:0 303:0 304:0 305:0 306:0 307:0.294393 308:0.602804 309:0.102804 310:0 311:0 312:0 313:0 314:0 315:0 316:0 317:0 318:0 319:0 320:0 321:0 322:0 323:0 324:0 325:0 326:0 327:0 328:0 329:0 330:0 331:0.364486 332:0.378505 333:0.0560748 334:0.0700935 335:0.0794393 336:0.0514019 337:0 338:0 339:0 340:0 341:0 342:0 343:0 344:0 345:0 346:0 347:0 348:0 349:0 350:0.369159 351:0.584112 352:0.046729 353:0 354:0 355:0 356:0 357:0 358:0 359:0 360:0 361:0 362:0 363:0 364:0 365:0 366:0.0747664 367:0.196262 368:0.668224 369:0.0607477 370:0 371:0 372:0 373:0 374:0 375:0 376:0 377:0 378:0 379:0 380:0 381:0 382:0 383:0 384:0 385:0 386:0 387:0 388:0 389:0.158879 390:0.200935 391:0.0186916 392:0.0654206 393:0.0981308 394:0.224299 395:0.0514019 396:0.0747664 397:0.107477 398:0 399:0 400:0 401:0 402:0 403:0 404:0 405:0 406:0 407:0 408:0 409:0.154206 410:0.67757 411:0.168224 412:0 413:0 414:0 415:0 416:0 417:0 418:0 419:0 420:0 421:0 422:0 423:0 424:0 425:0.0373832 426:0.0560748 427:0.14486 428:0.705607 429:0.0560748 430:0 431:0 432:0 433:0 434:0 435:0 436:0 437:0 438:0 439:0 440:0 441:0 442:0 443:0 444:0 445:0 446:0 447:0 448:0 449:0.345794 450:0.0186916 451:0.0186916 452:0.0327103 453:0.0514019 454:0.233645 455:0.0841122 456:0.0654206 457:0.088785 458:0.0607477 459:0 460:0 461:0 462:0 463:0 464:0 465:0 466:0 467:0 468:0.0140187 469:0.205607 470:0.570093 471:0.200935 472:0.00934579 473:0 474:0 475:0 476:0 477:0 478:0 479:0 480:0 481:0 482:0 483:0 484:0 485:0 486:0 487:0 488:0 489:0 490:0 491:0 492:1 493:0 494:0 495:0 496:0 497:0 498:0 499:0 500:0 501:0 502:0 503:0 504:0 505:0 506:0 507:0 508:0 509:0 510:0 511:0 512:0 513:0.61215 514:0.38785 515:0 516:0 517:0 518:0 519:0 520:0 521:0 522:0 523:0 524:0 525:0 526:0 527:0 528:0 529:0 530:0.0607477 531:0.780374 532:0.158879 533:0 534:0 535:0 536:0 537:0 538:0 539:0 540:0 541:0 542:0 543:0 544:0 545:0 546:0 547:0 548:0 549:0 550:0 551:0 552:0.285047 553:0.53271 554:0.182243 555:0 556:0 557:0 558:0 559:0 560:0 561:0 562:0 563:0 564:0 565:0 566:0 567:0 568:0 569:0 570:0 571:0.345794 572:0.350467 573:0.11215 574:0.0841122 575:0.0794393 576:0.0280374 577:0 578:0 579:0 580:0 581:0 582:0 583:0 584:0 585:0 586:0 587:0 588:0 589:0.046729 590:0.163551 591:0.733645 592:0.0560748 593:0 594:0 595:0 596:0 597:0 598:0 599:0 600:0 601:0 602:0 603:0 604:0 605:0 606:0 607:0 608:0 609:0 610:0 611:0 612:0.38785 613:0.420561 614:0.172897 615:0.0186916 616:0 617:0 618:0 619:0 620:0 621:0 622:0 623:0 624:0 625:0 626:0 627:0 628:0 629:0.224299 630:0.11215 631:0.0560748 632:0.046729 633:0.0794393 634:0.219626 635:0.11215 636:0.0841122 637:0.0607477 638:0.0046729 639:0 640:0 641:0 642:0 643:0 644:0 645:0 646:0 647:0 648:0.00934579 649:0.14486 650:0.303738 651:0.490654 652:0.0514019 653:0 654:0 655:0 656:0 657:0 658:0 659:0 660:0 661:0 662:0 663:0 664:0 665:0 666:0 667:0 668:0 669:0 670:0 671:0.0046729 672:0.317757 673:0.476636 674:0.163551 675:0.0373832 676:0 677:0 678:0 679:0 680:0 681:0 682:0 683:0 684:0 685:0 686:0 687:0 688:0 689:0.299065 690:0.0373832 691:0.0560748 692:0.0420561 693:0.0514019 694:0.191589 695:0.126168 696:0.0794393 697:0.0841122 698:0.0327103 699:0 700:0 701:0 702:0 703:0 704:0 705:0 706:0 707:0 708:0.0233645 709:0.140187 710:0.299065 711:0.476636 712:0.0607477 713:0 714:0 715:0 716:0 717:0 718:0 719:0 720:0 721:0 722:0 723:0 724:0 725:0 726:0 727:0 728:0 729:0 730:1 731:0 732:0 733:0 734:0 735:0 736:0 737:0 738:0 739:0 740:0 741:0 742:0 743:0 744:0 745:0 746:0 747:0 748:0 749:0 750:1 751:0 752:0 753:0 754:0 755:0 756:0 757:0 758:0 759:0 760:0 761:0 762:0 763:0 764:0 765:0 766:0 767:0 768:0 769:0 770:0.892523 771:0.107477 772:0 773:0 774:0 775:0 776:0 777:0 778:0 779:0 780:0 781:0 782:0 783:0 784:0 785:0 786:0 787:0 788:0 789:0.0607477 790:0.939252 791:0 792:0 793:0 794:0 795:0 796:0 797:0 798:0 799:0 800:0 801:0 802:0 803:0 804:0 805:0 806:0.859813 807:0.140187 808:0 809:0 810:0 811:0 812:0 813:0 814:0 815:0 816:0 817:0 818:0 819:0 820:0 821:0 822:0 823:0 824:0 825:0 826:0 827:0 828:0 829:0 830:0.556075 831:0.443925 832:0 833:0 834:0 835:0 836:0 837:0 838:0 839:0 840:0 841:0 842:0 843:0 844:0 845:0 846:0 847:0 848:0.0046729 849:0.205607 850:0.78972 851:0 852:0 853:0 854:0 855:0 856:0 857:0 858:0 859:0 860:0 861:0 862:0 863:0 864:1 865:0 866:0 867:0 868:0 869:0 870:0 871:0 872:0 873:0 874:0 875:0 876:0 877:0 878:0 879:0 880:0 881:0 882:0 883:0 884:0 885:0 886:0 887:0 888:0 889:0.0327103 890:0.401869 891:0.53271 892:0.0327103 893:0 894:0 895:0 896:0 897:0 898:0 899:0 900:0 901:0 902:0 903:0 904:0 905:0 906:0 907:0 908:0.00934579 909:0.275701 910:0.714953 911:0 912:0 913:0 914:0 915:0 916:0 917:0 918:0 919:0 920:0 921:0 922:0 923:0.378505 924:0.621495 925:0 926:0 927:0 928:0 929:0 930:0 931:0 932:0 933:0 934:0 935:0 936:0 937:0 938:0 939:0 940:0 941:0 942:0 943:0 944:0 945:0 946:0 947:0 948:0.0233645 949:0.186916 950:0.584112 951:0.205607 952:0 953:0 954:0 955:0 956:0 957:0 958:0 959:0 960:0 961:0 962:0 963:0 964:0 965:0 966:0 967:0 968:0 969:0 970:0 971:1 972:0 973:0 974:0 975:0 976:0 977:0 978:0 979:0 980:0 981:0 982:0 983:0 984:0 985:0 986:0 987:0 988:0 989:0 990:1 991:0 992:0 993:0 994:0 995:0 996:0 997:0 998:0 999:0 1000:0 1001:0 1002:0 1003:0 1004:0 1005:0 1006:0 1007:0 1008:0 1009:0 1010:0.757009 1011:0.242991 1012:0 1013:0 1014:0 1015:0 1016:0 1017:0 1018:0 1019:0 1020:0 1021:0 1022:0 1023:0 1024:0 1025:0 1026:0 1027:0 1028:0 1029:0 1030:0 1031:0.700935 1032:0.299065 1033:0 1034:0 1035:0 1036:0 1037:0 1038:0 1039:0 1040:0 1041:0 1042:0 1043:0 1044:0 1045:0 1046:0.948598 1047:0.0514019 1048:0 1049:0 1050:0 1051:0 1052:0 1053:0 1054:0 1055:0 1056:0 1057:0 1058:0 1059:0 1060:0 1061:0 1062:0 1063:0 1064:0 1065:0 1066:0 1067:0 1068:0 1069:0 1070:0.457944 1071:0.542056 1072:0 1073:0 1074:0 1075:0 1076:0 1077:0 1078:0 1079:0 1080:0 1081:0 1082:0 1083:0 1084:0 1085:0 1086:0 1087:0 1088:0 1089:0 1090:0.0186916 1091:0.663551 1092:0.308411 1093:0.00934579 1094:0 1095:0 1096:0 1097:0 1098:0 1099:0 1100:0 1101:0 1102:0 1103:0.088785 1104:0.911215 1105:0 1106:0 1107:0 1108:0 1109:0 1110:0 1111:0 1112:0 1113:0 1114:0 1115:0 1116:0 1117:0 1118:0 1119:0 1120:0 1121:0 1122:0 1123:0 1124:0 1125:0 1126:0 1127:0 1128:0 1129:0.0747664 1130:0.579439 1131:0.345794 1132:0 1133:0 1134:0 1135:0 1136:0 1137:0 1138:0 1139:0 1140:0 1141:0 1142:0 1143:0 1144:0 1145:0 1146:0 1147:0 1148:0 1149:0 1150:0.0233645 1151:0.518692 1152:0.443925 1153:0.0140187 1154:0 1155:0 1156:0 1157:0 1158:0 1159:0 1160:0 1161:0 1162:0 1163:0.705607 1164:0.280374 1165:0.0140187 1166:0 1167:0 1168:0 1169:0 1170:0 1171:0 1172:0 1173:0 1174:0 1175:0 1176:0 1177:0 1178:0 1179:0 1180:0 1181:0 1182:0 1183:0 1184:0 1185:0 1186:0 1187:0 1188:0.0327103 1189:0.247664 1190:0.584112 1191:0.135514 1192:0 1193:0 1194:0 1195:0 1196:0 1197:0 1198:0 1199:0 1200:0 
1 1 1 1 1 1:0 2:0 3:0 4:0 5:0 6:0 7:0 8:0 9:0 10:0 11:1 12:0 13:0 14:0 15:0 16:0 17:0 18:0 19:0 20:0 21:0 22:0 23:0 24:0 25:0 26:0 27:0 28:0 29:0 30:0 31:1 32:0 33:0 34:0 35:0 36:0 37:0 38:0 39:0 40:0 41:0 42:0 43:0 44:0 45:0 46:0 47:0 48:0 49:0 50:0 51:1 52:0 53:0 54:0 55:0 56:0 57:0 58:0 59:0 60:0 61:0 62:0 63:0 64:0 65:0 66:0 67:0 68:0 69:0 70:0.412698 71:0.587302 72:0 73:0 74:0 75:0 76:0 77:0 78:0 79:0 80:0 81:0 82:0 83:0 84:0 85:0 86:0 87:0 88:0 89:0 90:0 91:1 92:0 93:0 94:0 95:0 96:0 97:0 98:0 99:0 100:0 101:0 102:0 103:0 104:0 105:0 106:0 107:0 108:0 109:0 110:0.137566 111:0.862434 112:0 113:0 114:0 115:0 116:0 117:0 118:0 119:0 120:0 121:0 122:0 123:0 124:0 125:0 126:0 127:0 128:0 129:0.010582 130:0.37037 131:0.608466 132:0.010582 133:0 134:0 135:0 136:0 137:0 138:0 139:0 140:0 141:0 142:0 143:0 144:0 145:0 146:0 147:0 148:0 149:0 150:0 151:0 152:0.026455 153:0.349206 154:0.624339 155:0 156:0 157:0 158:0 159:0 160:0 161:0 162:0 163:0 164:0 165:0 166:0 167:0 168:0 169:0 170:0.328042 171:0.396825 172:0.275132 173:0 174:0 175:0 176:0 177:0 178:0 179:0 180:0 181:0 182:0 183:0 184:0 185:0 186:0 187:0 188:0 189:0.015873 190:0.407407 191:0.57672 192:0 193:0 194:0 195:0 196:0 197:0 198:0 199:0 200:0 201:0 202:0 203:0 204:0 205:0 206:0 207:0 208:0 209:0 210:0 211:0 212:0 213:0 214:0.042328 215:0.597884 216:0.359788 217:0 218:0 219:0 220:0 221:0 222:0 223:0 224:0 225:0 226:0 227:0 228:0 229:0.190476 230:0.428571 231:0.338624 232:0.042328 233:0 234:0 235:0 236:0 237:0 238:0 239:0 240:0 241:0 242:0 243:0 244:0 245:0 246:0 247:0 248:0.042328 249:0.957672 250:0 251:0 252:0 253:0 254:0 255:0 256:0 257:0 258:0 259:0 260:0 261:0 262:0 263:0 264:0 265:0 266:0 267:0 268:0 269:0 270:0 271:0 272:0.169312 273:0.825397 274:0.00529101 275:0 276:0 277:0 278:0 279:0 280:0 281:0 282:0 283:0 284:0 285:0 286:0 287:0 288:0 289:0 290:0.121693 291:0.708995 292:0.169312 293:0 294:0 295:0 296:0 297:0 298:0 299:0 300:0 301:0 302:0 303:0 304:0 305:0 306:0.021164 307:0.0740741 308:0.328042 309:0.57672 310:0 311:0 312:0 313:0 314:0 315:0 316:0 317:0 318:0 319:0 320:0 321:0 322:0 323:0 324:0 325:0 326:0 327:0 328:0 329:0 330:0.179894 331:0.608466 332:0.042328 333:0.037037 334:0.0740741 335:0.0582011 336:0 337:0 338:0 339:0 340:0 341:0 342:0 343:0 344:0 345:0 346:0 347:0 348:0.047619 349:0.111111 350:0.396825 351:0.259259 352:0.185185 353:0 354:0 355:0 356:0 357:0 358:0 359:0 360:0 361:0 362:0 363:0 364:0 365:0 366:0 367:0.031746 368:0.111111 369:0.486772 370:0.206349 371:0.164021 372:0 373:0 374:0 375:0 376:0 377:0 378:0 379:0 380:0 381:0 382:0 383:0 384:0 385:0 386:0 387:0 388:0 389:0.0740741 390:0.253968 391:0.195767 392:0.238095 393:0.0634921 394:0.021164 395:0.0687831 396:0.047619 397:0.037037 398:0 399:0 400:0 401:0 402:0 403:0 404:0 405:0 406:0.015873 407:0.0793651 408:0.26455 409:0.507937 410:0.126984 411:0.00529101 412:0 413:0 414:0 415:0 416:0 417:0 418:0 419:0 420:0 421:0 422:0 423:0 424:0 425:0 426:0 427:0.00529101 428:0.0846561 429:0.428571 430:0.179894 431:0.216931 432:0.0846561 433:0 434:0 435:0 436:0 437:0 438:0 439:0 440:0 441:0 442:0 443:0 444:0 445:0 446:0 447:0 448:0 449:0.116402 450:0.21164 451:0.100529 452:0.291005 453:0.0899471 454:0.021164 455:0.0582011 456:0.047619 457:0.0582011 458:0.00529101 459:0 460:0 461:0 462:0 463:0 464:0 465:0.00529101 466:0.042328 467:0.164021 468:0.481481 469:0.26455 470:0.042328 471:0 472:0 473:0 474:0 475:0 476:0 477:0 478:0 479:0 480:0 481:0 482:0 483:0 484:0 485:0 486:0 487:0 488:0 489:0 490:0.00529101 491:0.169312 492:0.719577 493:0.10582 494:0 495:0 496:0 497:0 498:0 499:0 500:0 501:0 502:0 503:0 504:0 505:0 506:0 507:0 508:0 509:0 510:0 511:0 512:0.216931 513:0.777778 514:0.00529101 515:0 516:0 517:0 518:0 519:0 520:0 521:0 522:0 523:0 524:0 525:0 526:0 527:0 528:0 529:0.021164 530:0.243386 531:0.481481 532:0.253968 533:0 534:0 535:0 536:0 537:0 538:0 539:0 540:0 541:0 542:0 543:0 544:0 545:0 546:0 547:0 548:0 549:0 550:0 551:0.047619 552:0.21164 553:0.502645 554:0.195767 555:0.042328 556:0 557:0 558:0 559:0 560:0 561:0 562:0 563:0 564:0 565:0 566:0 567:0 568:0 569:0 570:0.259259 571:0.296296 572:0.0793651 573:0.248677 574:0.0793651 575:0.037037 576:0 577:0 578:0 579:0 580:0 581:0 582:0 583:0 584:0 585:0 586:0 587:0.0952381 588:0.100529 589:0.0687831 590:0.206349 591:0.280423 592:0.238095 593:0.010582 594:0 595:0 596:0 597:0 598:0 599:0 600:0 601:0 602:0 603:0 604:0 605:0 606:0 607:0 608:0 609:0 610:0.0793651 611:0.306878 612:0.10582 613:0.206349 614:0.253968 615:0.047619 616:0 617:0 618:0 619:0 620:0 621:0 622:0 623:0 624:0 625:0 626:0 627:0 628:0.026455 629:0.015873 630:0.031746 631:0.349206 632:0.15873 633:0.0582011 634:0.206349 635:0.0634921 636:0.047619 637:0.042328 638:0 639:0 640:0 641:0 642:0 643:0 644:0 645:0.148148 646:0.042328 647:0.037037 648:0.111111 649:0.195767 650:0.222222 651:0.047619 652:0.031746 653:0.0846561 654:0.0793651 655:0 656:0 657:0 658:0 659:0 660:0 661:0 662:0 663:0 664:0 665:0 666:0 667:0 668:0 669:0.010582 670:0.0793651 671:0.280423 672:0.153439 673:0.195767 674:0.206349 675:0.0634921 676:0.010582 677:0 678:0 679:0 680:0 681:0 682:0 683:0 684:0 685:0 686:0 687:0.015873 688:0.021164 689:0.031746 690:0.026455 691:0.0582011 692:0.375661 693:0.0687831 694:0.0687831 695:0.227513 696:0.0529101 697:0.047619 698:0.00529101 699:0 700:0 701:0 702:0 703:0.015873 704:0.164021 705:0.021164 706:0.047619 707:0.0687831 708:0.238095 709:0.148148 710:0.0582011 711:0.042328 712:0.021164 713:0.031746 714:0.142857 715:0 716:0 717:0 718:0 719:0 720:0 721:0 722:0 723:0 724:0 725:0 726:0 727:0 728:0 729:0.026455 730:0.973545 731:0 732:0 733:0 734:0 735:0 736:0 737:0 738:0 739:0 740:0 741:0 742:0 743:0 744:0 745:0 746:0 747:0 748:0 749:0.010582 750:0.989418 751:0 752:0 753:0 754:0 755:0 756:0 757:0 758:0 759:0 760:0 761:0 762:0 763:0 764:0 765:0 766:0 767:0 768:0 769:0 770:0.693122 771:0.306878 772:0 773:0 774:0 775:0 776:0 777:0 778:0 779:0 780:0 781:0 782:0 783:0 784:0 785:0 786:0 787:0 788:0.00529101 789:0.539683 790:0.455026 791:0 792:0 793:0 794:0 795:0 796:0 797:0 798:0 799:0 800:0 801:0 802:0 803:0 804:0 805:0 806:0 807:0.010582 808:0.47619 809:0.502645 810:0.010582 811:0 812:0 813:0 814:0 815:0 816:0 817:0 818:0 819:0 820:0 821:0 822:0 823:0 824:0 825:0 826:0.169312 827:0.587302 828:0.243386 829:0 830:0 831:0 832:0 833:0 834:0 835:0 836:0 837:0 838:0 839:0 840:0 841:0 842:0 843:0 844:0 845:0 846:0 847:0.037037 848:0.724868 849:0.0529101 850:0.0740741 851:0.111111 852:0 853:0 854:0 855:0 856:0 857:0 858:0 859:0 860:0 861:0 862:0 863:0 864:0 865:0 866:0.42328 867:0.57672 868:0 869:0 870:0 871:0 872:0 873:0 874:0 875:0 876:0 877:0 878:0 879:0 880:0 881:0 882:0 883:0 884:0 885:0 886:0.164021 887:0.174603 888:0.582011 889:0.0793651 890:0 891:0 892:0 893:0 894:0 895:0 896:0 897:0 898:0 899:0 900:0 901:0 902:0 903:0 904:0 905:0 906:0 907:0.00529101 908:0.206349 909:0.650794 910:0.132275 911:0.00529101 912:0 913:0 914:0 915:0 916:0 917:0 918:0 919:0 920:0 921:0 922:0 923:0 924:0 925:0.037037 926:0.428571 927:0.534392 928:0 929:0 930:0 931:0 932:0 933:0 934:0 935:0 936:0 937:0 938:0 939:0 940:0 941:0 942:0 943:0 944:0 945:0.037037 946:0.179894 947:0.449735 948:0.31746 949:0.015873 950:0 951:0 952:0 953:0 954:0 955:0 956:0 957:0 958:0 959:0 960:0 961:0 962:0 963:0 964:0 965:0 966:0 967:0 968:0 969:0 970:0 971:0.973545 972:0.026455 973:0 974:0 975:0 976:0 977:0 978:0 979:0 980:0 981:0 982:0 983:0 984:0 985:0 986:0 987:0 988:0 989:0.00529101 990:0.994709 991:0 992:0 993:0 994:0 995:0 996:0 997:0 998:0 999:0 1000:0 1001:0 1002:0 1003:0 1004:0 1005:0 1006:0 1007:0 1008:0 1009:0 1010:0.867725 1011:0.132275 1012:0 1013:0 1014:0 1015:0 1016:0 1017:0 1018:0 1019:0 1020:0 1021:0 1022:0 1023:0 1024:0 1025:0 1026:0 1027:0 1028:0 1029:0 1030:0 1031:0 1032:0.253968 1033:0.746032 1034:0 1035:0 1036:0 1037:0 1038:0 1039:0 1040:0 1041:0 1042:0 1043:0 1044:0 1045:0 1046:0 1047:0.047619 1048:0.380952 1049:0.571429 1050:0 1051:0 1052:0 1053:0 1054:0 1055:0 1056:0 1057:0 1058:0 1059:0 1060:0 1061:0 1062:0 1063:0 1064:0 1065:0 1066:0 1067:0.359788 1068:0.640212 1069:0 1070:0 1071:0 1072:0 1073:0 1074:0 1075:0 1076:0 1077:0 1078:0 1079:0 1080:0 1081:0 1082:0 1083:0 1084:0 1085:0 1086:0 1087:0 1088:0 1089:0 1090:0.047619 1091:0.227513 1092:0.243386 1093:0.470899 1094:0.010582 1095:0 1096:0 1097:0 1098:0 1099:0 1100:0 1101:0 1102:0 1103:0 1104:0.0582011 1105:0.216931 1106:0.492063 1107:0.232804 1108:0 1109:0 1110:0 1111:0 1112:0 1113:0 1114:0 1115:0 1116:0 1117:0 1118:0 1119:0 1120:0 1121:0 1122:0 1123:0 1124:0 1125:0 1126:0.285714 1127:0.386243 1128:0.190476 1129:0.137566 1130:0 1131:0 1132:0 1133:0 1134:0 1135:0 1136:0 1137:0 1138:0 1139:0 1140:0 1141:0 1142:0 1143:0 1144:0 1145:0 1146:0 1147:0 1148:0 1149:0 1150:0 1151:0.0846561 1152:0.465608 1153:0.439153 1154:0.010582 1155:0 1156:0 1157:0 1158:0 1159:0 1160:0 1161:0 1162:0 1163:0 1164:0.100529 1165:0.291005 1166:0.417989 1167:0.190476 1168:0 1169:0 1170:0 1171:0 1172:0 1173:0 1174:0 1175:0 1176:0 1177:0 1178:0 1179:0 1180:0 1181:0 1182:0 1183:0 1184:0 1185:0.037037 1186:0.550265 1187:0.206349 1188:0.190476 1189:0.015873 1190:0 1191:0 1192:0 1193:0 1194:0 1195:0 1196:0 1197:0 1198:0 1199:0 1200:0 
1 1 1 1 1 1:0 2:0 3:0 4:0 5:0 6:0 7:0 8:0 9:0 10:0 11:1 12:0 13:0 14:0 15:0 16:0 17:0 18:0 19:0 20:0 21:0 22:0 23:0 24:0 25:0 26:0 27:0 28:0 29:0 30:0 31:1 32:0 33:0 34:0 35:0 36:0 37:0 38:0 39:0 40:0 41:0 42:0 43:0 44:0 45:0 46:0 47:0 48:0 49:0 50:0 51:1 52:0 53:0 54:0 55:0 56:0 57:0 58:0 59:0 60:0 61:0 62:0 63:0 64:0 65:0 66:0 67:0 68:0 69:0 70:0.984456 71:0.015544 72:0 73:0 74:0 75:0 76:0 77:0 78:0 79:0 80:0 81:0 82:0 83:0 84:0 85:0 86:0 87:0 88:0 89:0 90:0.196891 91:0.803109 92:0 93:0 94:0 95:0 96:0 97:0 98:0 99:0 100:0 101:0 102:0 103:0 104:0 105:0 106:0 107:0 108:0 109:0 110:0.450777 111:0.549223 112:0 113:0 114:0 115:0 116:0 117:0 118:0 119:0 120:0 121:0 122:0 123:0 124:0 125:0 126:0 127:0 128:0.00518135 129:0.19171 130:0.57513 131:0.227979 132:0 133:0 134:0 135:0 136:0 137:0 138:0 139:0 140:0 141:0 142:0 143:0 144:0 145:0 146:0 147:0 148:0 149:0.108808 150:0.0880829 151:0 152:0 153:0.481865 154:0.321244 155:0 156:0 157:0 158:0 159:0 160:0 161:0 162:0 163:0 164:0 165:0 166:0 167:0 168:0 169:0.0466321 170:0.227979 171:0.606218 172:0.119171 173:0 174:0 175:0 176:0 177:0 178:0 179:0 180:0 181:0 182:0 183:0 184:0 185:0 186:0 187:0 188:0 189:0.015544 190:0.476684 191:0.492228 192:0.015544 193:0 194:0 195:0 196:0 197:0 198:0 199:0 200:0 201:0 202:0 203:0 204:0 205:0 206:0 207:0 208:0 209:0 210:0 211:0.0414508 212:0.15544 213:0 214:0.170984 215:0.321244 216:0.310881 217:0 218:0 219:0 220:0 221:0 222:0 223:0 224:0 225:0 226:0 227:0 228:0.0725389 229:0.160622 230:0.150259 231:0.564767 232:0.0518135 233:0 234:0 235:0 236:0 237:0 238:0 239:0 240:0 241:0 242:0 243:0 244:0 245:0 246:0 247:0.176166 248:0.0829016 249:0.694301 250:0.0466321 251:0 252:0 253:0 254:0 255:0 256:0 257:0 258:0 259:0 260:0 261:0 262:0 263:0 264:0 265:0 266:0 267:0 268:0.0466321 269:0.150259 270:0 271:0.0207254 272:0.176166 273:0.606218 274:0 275:0 276:0 277:0 278:0 279:0 280:0 281:0 282:0 283:0 284:0 285:0 286:0 287:0 288:0 289:0.15544 290:0.414508 291:0.430052 292:0 293:0 294:0 295:0 296:0 297:0 298:0 299:0 300:0 301:0 302:0 303:0 304:0.00518135 305:0.0310881 306:0.0207254 307:0.248705 308:0.518135 309:0.145078 310:0.0310881 311:0 312:0 313:0 314:0 315:0 316:0 317:0 318:0 319:0 320:0 321:0 322:0 323:0 324:0 325:0 326:0 327:0.0103627 328:0.0259067 329:0 330:0.119171 331:0.512953 332:0.0362694 333:0.0466321 334:0.227979 335:0.0207254 336:0 337:0 338:0 339:0 340:0 341:0 342:0 343:0 344:0 345:0 346:0 347:0.0103627 348:0.0829016 349:0.26943 350:0.295337 351:0.290155 352:0.0518135 353:0 354:0 355:0 356:0 357:0 358:0 359:0 360:0 361:0 362:0.0207254 363:0.015544 364:0 365:0.00518135 366:0.0466321 367:0.233161 368:0.160622 369:0.165803 370:0.295337 371:0.0569948 372:0 373:0 374:0 375:0 376:0 377:0 378:0 379:0 380:0 381:0 382:0 383:0 384:0 385:0 386:0 387:0.0259067 388:0.0621762 389:0.124352 390:0.170984 391:0.139896 392:0.0259067 393:0.145078 394:0.0207254 395:0.0984456 396:0.170984 397:0.015544 398:0 399:0 400:0 401:0 402:0 403:0 404:0 405:0 406:0 407:0.119171 408:0.238342 409:0.34715 410:0.145078 411:0.108808 412:0.0414508 413:0 414:0 415:0 416:0 417:0 418:0 419:0 420:0 421:0.0207254 422:0.0310881 423:0 424:0 425:0 426:0.0725389 427:0.150259 428:0.170984 429:0.165803 430:0.248705 431:0.124352 432:0.015544 433:0 434:0 435:0 436:0 437:0 438:0 439:0 440:0 441:0 442:0 443:0 444:0 445:0.015544 446:0 447:0.0207254 448:0.139896 449:0.0466321 450:0.160622 451:0.0984456 452:0.0569948 453:0.145078 454:0.015544 455:0.0569948 456:0.186529 457:0.0569948 458:0 459:0 460:0 461:0 462:0 463:0 464:0 465:0 466:0.0414508 467:0.108808 468:0.26943 469:0.321244 470:0.119171 471:0.0673575 472:0.0725389 473:0 474:0 475:0 476:0 477:0 478:0 479:0 480:0 481:0 482:0.0259067 483:0.0466321 484:0.0310881 485:0.0621762 486:0.0621762 487:0.0518135 488:0.0310881 489:0.00518135 490:0 491:0.0414508 492:0.476684 493:0.165803 494:0 495:0 496:0 497:0 498:0 499:0 500:0 501:0 502:0.0673575 503:0.0518135 504:0 505:0.124352 506:0.0725389 507:0 508:0 509:0 510:0 511:0 512:0.00518135 513:0.621762 514:0.0569948 515:0 516:0 517:0 518:0 519:0 520:0 521:0 522:0 523:0 524:0 525:0 526:0 527:0 528:0 529:0 530:0.0777202 531:0.207254 532:0.352332 533:0.290155 534:0.0725389 535:0 536:0 537:0 538:0 539:0 540:0 541:0 542:0 543:0 544:0.015544 545:0.0621762 546:0.0621762 547:0.0880829 548:0.0569948 549:0.0310881 550:0 551:0.0466321 552:0.248705 553:0.170984 554:0.176166 555:0.0414508 556:0 557:0 558:0 559:0 560:0 561:0 562:0 563:0 564:0.103627 565:0.103627 566:0.103627 567:0.00518135 568:0 569:0 570:0.0207254 571:0.326425 572:0.0310881 573:0.0310881 574:0.160622 575:0.11399 576:0 577:0 578:0 579:0 580:0 581:0 582:0 583:0 584:0 585:0 586:0 587:0 588:0 589:0.0518135 590:0.0518135 591:0.217617 592:0.305699 593:0.181347 594:0.0880829 595:0.0984456 596:0.00518135 597:0 598:0 599:0 600:0 601:0 602:0 603:0 604:0 605:0 606:0 607:0.0829016 608:0.129534 609:0.0932643 610:0.0621762 611:0.0725389 612:0.253886 613:0.124352 614:0.124352 615:0.0569948 616:0 617:0 618:0 619:0 620:0 621:0 622:0 623:0 624:0.0259067 625:0.119171 626:0.0880829 627:0.0259067 628:0.0932643 629:0.0621762 630:0.124352 631:0.119171 632:0.0310881 633:0.0207254 634:0.0362694 635:0.0829016 636:0.15544 637:0.015544 638:0 639:0 640:0 641:0 642:0 643:0 644:0 645:0 646:0 647:0.0310881 648:0.0621762 649:0.0984456 650:0.26943 651:0.0984456 652:0.186529 653:0.217617 654:0.0362694 655:0 656:0 657:0 658:0 659:0 660:0 661:0 662:0 663:0 664:0 665:0 666:0 667:0.0362694 668:0.0569948 669:0.0829016 670:0.0673575 671:0.150259 672:0.243523 673:0.181347 674:0.103627 675:0.0569948 676:0.0207254 677:0 678:0 679:0 680:0 681:0 682:0 683:0 684:0.0207254 685:0.124352 686:0.0414508 687:0.0259067 688:0.119171 689:0.160622 690:0.0310881 691:0.0932643 692:0.0466321 693:0.0362694 694:0.0207254 695:0.0466321 696:0.129534 697:0.0932643 698:0.0103627 699:0 700:0 701:0 702:0 703:0 704:0 705:0 706:0.015544 707:0.0673575 708:0.0984456 709:0.227979 710:0.170984 711:0.103627 712:0.165803 713:0.150259 714:0 715:0 716:0 717:0 718:0 719:0 720:0 721:0 722:0 723:0 724:0 725:0 726:0 727:0 728:0 729:0 730:0.683938 731:0.248705 732:0.0673575 733:0 734:0 735:0 736:0 737:0 738:0 739:0 740:0 741:0 742:0 743:0 744:0 745:0 746:0 747:0 748:0 749:0.186529 750:0.61658 751:0.196891 752:0 753:0 754:0 755:0 756:0 757:0 758:0 759:0 760:0 761:0 762:0 763:0 764:0 765:0 766:0 767:0 768:0 769:0.0207254 770:0.88601 771:0.0932643 772:0 773:0 774:0 775:0 776:0 777:0 778:0 779:0 780:0 781:0 782:0 783:0 784:0 785:0 786:0 787:0 788:0 789:0.471503 790:0.243523 791:0.0829016 792:0.129534 793:0.0466321 794:0.0259067 795:0 796:0 797:0 798:0 799:0 800:0 801:0 802:0 803:0 804:0.0259067 805:0.414508 806:0.362694 807:0.0466321 808:0.150259 809:0 810:0 811:0 812:0 813:0 814:0 815:0 816:0 817:0 818:0 819:0 820:0 821:0 822:0 823:0 824:0 825:0 826:0 827:0 828:0.00518135 829:0.336788 830:0.549223 831:0.108808 832:0 833:0 834:0 835:0 836:0 837:0 838:0 839:0 840:0 841:0 842:0 843:0 844:0 845:0 846:0 847:0 848:0.0362694 849:0.518135 850:0.259067 851:0.11399 852:0.015544 853:0.0466321 854:0.0103627 855:0 856:0 857:0 858:0 859:0 860:0 861:0.0569948 862:0.419689 863:0.326425 864:0.0569948 865:0.139896 866:0 867:0 868:0 869:0 870:0 871:0 872:0 873:0 874:0 875:0 876:0 877:0 878:0 879:0 880:0 881:0 882:0 883:0 884:0 885:0 886:0 887:0 888:0.0207254 889:0.316062 890:0.367876 891:0.295337 892:0 893:0 894:0 895:0 896:0 897:0 898:0 899:0 900:0 901:0 902:0 903:0 904:0 905:0 906:0 907:0 908:0.0103627 909:0.544041 910:0.274611 911:0.11399 912:0.0362694 913:0.0207254 914:0 915:0 916:0 917:0 918:0 919:0 920:0 921:0.134715 922:0.471503 923:0.129534 924:0.253886 925:0.0103627 926:0 927:0 928:0 929:0 930:0 931:0 932:0 933:0 934:0 935:0 936:0 937:0 938:0 939:0 940:0 941:0 942:0 943:0 944:0 945:0 946:0 947:0 948:0.0259067 949:0.528497 950:0.316062 951:0.0829016 952:0.0466321 953:0 954:0 955:0 956:0 957:0 958:0 959:0 960:0 961:0 962:0 963:0 964:0 965:0 966:0 967:0 968:0 969:0.0829016 970:0.0362694 971:0.860104 972:0.0207254 973:0 974:0 975:0 976:0 977:0 978:0 979:0 980:0 981:0 982:0 983:0 984:0 985:0 986:0 987:0.103627 988:0.015544 989:0.0310881 990:0.668394 991:0.181347 992:0 993:0 994:0 995:0 996:0 997:0 998:0 999:0 1000:0 1001:0 1002:0 1003:0 1004:0 1005:0 1006:0 1007:0 1008:0 1009:0 1010:0.518135 1011:0.481865 1012:0 1013:0 1014:0 1015:0 1016:0 1017:0 1018:0 1019:0 1020:0 1021:0 1022:0 1023:0 1024:0 1025:0 1026:0 1027:0 1028:0 1029:0 1030:0.015544 1031:0.46114 1032:0.321244 1033:0.129534 1034:0.0673575 1035:0.00518135 1036:0 1037:0 1038:0 1039:0 1040:0 1041:0 1042:0 1043:0 1044:0.0673575 1045:0.388601 1046:0.326425 1047:0.139896 1048:0.0621762 1049:0.0103627 1050:0 1051:0.00518135 1052:0 1053:0 1054:0 1055:0 1056:0 1057:0 1058:0 1059:0 1060:0 1061:0 1062:0 1063:0 1064:0 1065:0 1066:0 1067:0 1068:0.0259067 1069:0.0932643 1070:0.305699 1071:0.57513 1072:0 1073:0 1074:0 1075:0 1076:0 1077:0 1078:0 1079:0 1080:0 1081:0 1082:0 1083:0 1084:0 1085:0 1086:0 1087:0 1088:0 1089:0 1090:0.00518135 1091:0.601036 1092:0.134715 1093:0.15544 1094:0.0673575 1095:0.0207254 1096:0.015544 1097:0 1098:0 1099:0 1100:0 1101:0.0310881 1102:0.0932643 1103:0.658031 1104:0.145078 1105:0.0621762 1106:0.00518135 1107:0.00518135 1108:0 1109:0 1110:0 1111:0 1112:0 1113:0 1114:0 1115:0 1116:0 1117:0 1118:0 1119:0 1120:0 1121:0 1122:0 1123:0 1124:0 1125:0 1126:0 1127:0 1128:0.00518135 1129:0.165803 1130:0.0829016 1131:0.217617 1132:0.0259067 1133:0.502591 1134:0 1135:0 1136:0 1137:0 1138:0 1139:0 1140:0 1141:0 1142:0 1143:0 1144:0 1145:0 1146:0 1147:0 1148:0 1149:0 1150:0 1151:0.53886 1152:0.217617 1153:0.15544 1154:0.0569948 1155:0.0310881 1156:0 1157:0 1158:0 1159:0 1160:0 1161:0.0932643 1162:0.233161 1163:0.497409 1164:0.160622 1165:0.0103627 1166:0.00518135 1167:0 1168:0 1169:0 1170:0 1171:0 1172:0 1173:0 1174:0 1175:0 1176:0 1177:0 1178:0 1179:0 1180:0 1181:0 1182:0 1183:0 1184:0 1185:0 1186:0 1187:0 1188:0 1189:0.202073 1190:0.0725389 1191:0.176166 1192:0.528497 1193:0.0207254 1194:0 1195:0 1196:0 1197:0 1198:0 1199:0 1200:0 
1 1 1 1 1 1:0 2:0 3:0 4:0 5:0 6:0 7:0 8:0 9:0 10:0 11:1 12:0 13:0 14:0 15:0 16:0 17:0 18:0 19:0 20:0 21:0 22:0 23:0 24:0 25:0 26:0 27:0 28:0 29:0 30:0 31:1 32:0 33:0 34:0 35:0 36:0 37:0 38:0 39:0 40:0 41:0 42:0 43:0 44:0 45:0 46:0 47:0 48:0 49:0 50:0 51:1 52:0 53:0 54:0 55:0 56:0 57:0 58:0 59:0 60:0 61:0 62:0 63:0 64:0 65:0 66:0 67:0 68:0 69:0 70:1 71:0 72:0 73:0 74:0 75:0 76:0 77:0 78:0 79:0 80:0 81:0 82:0 83:0 84:0 85:0 86:0 87:0 88:0 89:0 90:0 91:1 92:0 93:0 94:0 95:0 96:0 97:0 98:0 99:0 100:0 101:0 102:0 103:0 104:0 105:0 106:0 107:0 108:0 109:0 110:0.0517241 111:0.948276 112:0 113:0 114:0 115:0 116:0 117:0 118:0 119:0 120:0 121:0 122:0 123:0 124:0 125:0 126:0 127:0 128:0 129:0 130:0.568965 131:0.431034 132:0 133:0 134:0 135:0 136:0 137:0 138:0 139:0 140:0 141:0 142:0 143:0 144:0 145:0 146:0 147:0 148:0 149:0 150:0 151:0 152:0 153:0.543103 154:0.456897 155:0 156:0 157:0 158:0 159:0 160:0 161:0 162:0 163:0 164:0 165:0 166:0 167:0 168:0 169:0 170:0.155172 171:0.844828 172:0 173:0 174:0 175:0 176:0 177:0 178:0 179:0 180:0 181:0 182:0 183:0 184:0 185:0 186:0 187:0 188:0 189:0 190:0 191:1 192:0 193:0 194:0 195:0 196:0 197:0 198:0 199:0 200:0 201:0 202:0 203:0 204:0 205:0 206:0 207:0 208:0 209:0 210:0 211:0 212:0 213:0 214:0 215:0.560345 216:0.439655 217:0 218:0 219:0 220:0 221:0 222:0 223:0 224:0 225:0 226:0 227:0 228:0 229:0.0344828 230:0.456897 231:0.508621 232:0 233:0 234:0 235:0 236:0 237:0 238:0 239:0 240:0 241:0 242:0 243:0 244:0 245:0 246:0 247:0 248:0.0862069 249:0.913793 250:0 251:0 252:0 253:0 254:0 255:0 256:0 257:0 258:0 259:0 260:0 261:0 262:0 263:0 264:0 265:0 266:0 267:0 268:0 269:0 270:0 271:0 272:0.0689655 273:0.931035 274:0 275:0 276:0 277:0 278:0 279:0 280:0 281:0 282:0 283:0 284:0 285:0 286:0 287:0 288:0 289:0 290:0.724138 291:0.275862 292:0 293:0 294:0 295:0 296:0 297:0 298:0 299:0 300:0 301:0 302:0 303:0 304:0 305:0 306:0 307:0.577586 308:0.293103 309:0.12931 310:0 311:0 312:0 313:0 314:0 315:0 316:0 317:0 318:0 319:0 320:0 321:0 322:0 323:0 324:0 325:0 326:0 327:0 328:0 329:0 330:0 331:0.422414 332:0.0344828 333:0.0689655 334:0.422414 335:0.0517241 336:0 337:0 338:0 339:0 340:0 341:0 342:0 343:0 344:0 345:0 346:0 347:0 348:0 349:0.439655 350:0.560345 351:0 352:0 353:0 354:0 355:0 356:0 357:0 358:0 359:0 360:0 361:0 362:0 363:0 364:0 365:0 366:0 367:0.163793 368:0.387931 369:0.232759 370:0.181034 371:0.0344828 372:0 373:0 374:0 375:0 376:0 377:0 378:0 379:0 380:0 381:0 382:0 383:0 384:0 385:0 386:0 387:0 388:0 389:0.0603448 390:0.258621 391:0.0258621 392:0.0689655 393:0.0258621 394:0.0344828 395:0.198276 396:0.215517 397:0.112069 398:0 399:0 400:0 401:0 402:0 403:0 404:0 405:0 406:0 407:0.155172 408:0.482759 409:0.275862 410:0.0862069 411:0 412:0 413:0 414:0 415:0 416:0 417:0 418:0 419:0 420:0 421:0 422:0 423:0 424:0 425:0 426:0 427:0.0948276 428:0.327586 429:0.224138 430:0.275862 431:0.0775862 432:0 433:0 434:0 435:0 436:0 437:0 438:0 439:0 440:0 441:0 442:0 443:0 444:0 445:0 446:0 447:0 448:0 449:0.12931 450:0.189655 451:0.0431034 452:0.0344828 453:0.0258621 454:0.0258621 455:0.103448 456:0.198276 457:0.25 458:0 459:0 460:0 461:0 462:0 463:0 464:0 465:0 466:0 467:0.336207 468:0.327586 469:0.206897 470:0.12931 471:0 472:0 473:0 474:0 475:0 476:0 477:0 478:0 479:0 480:0 481:0 482:0 483:0 484:0 485:0 486:0 487:0 488:0 489:0 490:0 491:0 492:0.827586 493:0.172414 494:0 495:0 496:0 497:0 498:0 499:0 500:0 501:0 502:0 503:0 504:0 505:0 506:0 507:0 508:0 509:0 510:0 511:0 512:0.0172414 513:0.982759 514:0 515:0 516:0 517:0 518:0 519:0 520:0 521:0 522:0 523:0 524:0 525:0 526:0 527:0 528:0 529:0 530:0.0603448 531:0.922414 532:0.0172414 533:0 534:0 535:0 536:0 537:0 538:0 539:0 540:0 541:0 542:0 543:0 544:0 545:0 546:0 547:0 548:0 549:0 550:0 551:0 552:0 553:0.37931 554:0.612069 555:0.00862069 556:0 557:0 558:0 559:0 560:0 561:0 562:0 563:0 564:0 565:0 566:0 567:0 568:0 569:0 570:0 571:0.413793 572:0.0431034 573:0.0948276 574:0.267241 575:0.181034 576:0 577:0 578:0 579:0 580:0 581:0 582:0 583:0 584:0 585:0 586:0 587:0 588:0 589:0 590:0.75 591:0.25 592:0 593:0 594:0 595:0 596:0 597:0 598:0 599:0 600:0 601:0 602:0 603:0 604:0 605:0 606:0 607:0 608:0 609:0 610:0 611:0.0431034 612:0.181034 613:0.431034 614:0.336207 615:0.00862069 616:0 617:0 618:0 619:0 620:0 621:0 622:0 623:0 624:0 625:0 626:0 627:0 628:0 629:0.0689655 630:0.0689655 631:0.206897 632:0.0775862 633:0.0344828 634:0.0172414 635:0.163793 636:0.181034 637:0.181034 638:0 639:0 640:0 641:0 642:0 643:0 644:0 645:0 646:0 647:0.0172414 648:0.344828 649:0.310345 650:0.327586 651:0 652:0 653:0 654:0 655:0 656:0 657:0 658:0 659:0 660:0 661:0 662:0 663:0 664:0 665:0 666:0 667:0 668:0 669:0 670:0.0431034 671:0.0258621 672:0.241379 673:0.37069 674:0.275862 675:0.0431034 676:0 677:0 678:0 679:0 680:0 681:0 682:0 683:0 684:0 685:0 686:0 687:0 688:0 689:0.12931 690:0.0172414 691:0.189655 692:0.0603448 693:0.0431034 694:0.0172414 695:0.0431034 696:0.189655 697:0.25 698:0.0603448 699:0 700:0 701:0 702:0 703:0 704:0 705:0 706:0 707:0.112069 708:0.37931 709:0.224138 710:0.284483 711:0 712:0 713:0 714:0 715:0 716:0 717:0 718:0 719:0 720:0 721:0 722:0 723:0 724:0 725:0 726:0 727:0 728:0 729:0 730:1 731:0 732:0 733:0 734:0 735:0 736:0 737:0 738:0 739:0 740:0 741:0 742:0 743:0 744:0 745:0 746:0 747:0 748:0 749:0 750:1 751:0 752:0 753:0 754:0 755:0 756:0 757:0 758:0 759:0 760:0 761:0 762:0 763:0 764:0 765:0 766:0 767:0 768:0 769:0 770:1 771:0 772:0 773:0 774:0 775:0 776:0 777:0 778:0 779:0 780:0 781:0 782:0 783:0 784:0 785:0 786:0 787:0 788:0.12931 789:0.87069 790:0 791:0 792:0 793:0 794:0 795:0 796:0 797:0 798:0 799:0 800:0 801:0 802:0 803:0 804:0 805:0 806:0 807:0.0431034 808:0.655172 809:0.301724 810:0 811:0 812:0 813:0 814:0 815:0 816:0 817:0 818:0 819:0 820:0 821:0 822:0 823:0 824:0 825:0 826:0 827:0.637931 828:0.362069 829:0 830:0 831:0 832:0 833:0 834:0 835:0 836:0 837:0 838:0 839:0 840:0 841:0 842:0 843:0 844:0 845:0 846:0 847:0 848:0.137931 849:0.862069 850:0 851:0 852:0 853:0 854:0 855:0 856:0 857:0 858:0 859:0 860:0 861:0 862:0 863:0 864:0.275862 865:0.387931 866:0.336207 867:0 868:0 869:0 870:0 871:0 872:0 873:0 874:0 875:0 876:0 877:0 878:0 879:0 880:0 881:0 882:0 883:0 884:0 885:0 886:0.112069 887:0.793103 888:0.0948276 889:0 890:0 891:0 892:0 893:0 894:0 895:0 896:0 897:0 898:0 899:0 900:0 901:0 902:0 903:0 904:0 905:0 906:0 907:0 908:0 909:1 910:0 911:0 912:0 913:0 914:0 915:0 916:0 917:0 918:0 919:0 920:0 921:0 922:0 923:0 924:0.543103 925:0.137931 926:0.198276 927:0.12069 928:0 929:0 930:0 931:0 932:0 933:0 934:0 935:0 936:0 937:0 938:0 939:0 940:0 941:0 942:0 943:0 944:0 945:0 946:0.741379 947:0.232759 948:0.0258621 949:0 950:0 951:0 952:0 953:0 954:0 955:0 956:0 957:0 958:0 959:0 960:0 961:0 962:0 963:0 964:0 965:0 966:0 967:0 968:0 969:0 970:0 971:0.956897 972:0.0431034 973:0 974:0 975:0 976:0 977:0 978:0 979:0 980:0 981:0 982:0 983:0 984:0 985:0 986:0 987:0 988:0 989:0 990:1 991:0 992:0 993:0 994:0 995:0 996:0 997:0 998:0 999:0 1000:0 1001:0 1002:0 1003:0 1004:0 1005:0 1006:0 1007:0 1008:0 1009:0 1010:0.0689655 1011:0.931035 1012:0 1013:0 1014:0 1015:0 1016:0 1017:0 1018:0 1019:0 1020:0 1021:0 1022:0 1023:0 1024:0 1025:0 1026:0 1027:0 1028:0 1029:0 1030:0 1031:0 1032:0 1033:1 1034:0 1035:0 1036:0 1037:0 1038:0 1039:0 1040:0 1041:0 1042:0 1043:0 1044:0 1045:0 1046:0 1047:0 1048:0.646552 1049:0.353448 1050:0 1051:0 1052:0 1053:0 1054:0 1055:0 1056:0 1057:0 1058:0 1059:0 1060:0 1061:0 1062:0 1063:0 1064:0 1065:0 1066:0 1067:0.0431034 1068:0.956897 1069:0 1070:0 1071:0 1072:0 1073:0 1074:0 1075:0 1076:0 1077:0 1078:0 1079:0 1080:0 1081:0 1082:0 1083:0 1084:0 1085:0 1086:0 1087:0 1088:0 1089:0 1090:0 1091:0 1092:0 1093:1 1094:0 1095:0 1096:0 1097:0 1098:0 1099:0 1100:0 1101:0 1102:0 1103:0 1104:0.103448 1105:0.543103 1106:0.155172 1107:0.198276 1108:0 1109:0 1110:0 1111:0 1112:0 1113:0 1114:0 1115:0 1116:0 1117:0 1118:0 1119:0 1120:0 1121:0 1122:0 1123:0 1124:0 1125:0 1126:0 1127:0.896552 1128:0.103448 1129:0 1130:0 1131:0 1132:0 1133:0 1134:0 1135:0 1136:0 1137:0 1138:0 1139:0 1140:0 1141:0 1142:0 1143:0 1144:0 1145:0 1146:0 1147:0 1148:0 1149:0 1150:0 1151:0 1152:0 1153:1 1154:0 1155:0 1156:0 1157:0 1158:0 1159:0 1160:0 1161:0 1162:0 1163:0 1164:0.543103 1165:0.12931 1166:0.327586 1167:0 1168:0 1169:0 1170:0 1171:0 1172:0 1173:0 1174:0 1175:0 1176:0 1177:0 1178:0 1179:0 1180:0 1181:0 1182:0 1183:0 1184:0 1185:0 1186:0.62069 1187:0.37931 1188:0 1189:0 1190:0 1191:0 1192:0 1193:0 1194:0 1195:0 1196:0 1197:0 1198:0 1199:0 1200:0 
1 1 1 1 1 1:0 2:0 3:0 4:0 5:0 6:0 7:0 8:0 9:0 10:0 11:1 12:0 13:0 14:0 15:0 16:0 17:0 18:0 19:0 20:0 21:0 22:0 23:0 24:0 25:0 26:0 27:0 28:0 29:0 30:0 31:1 32:0 33:0 34:0 35:0 36:0 37:0 38:0 39:0 40:0 41:0 42:0 43:0 44:0 45:0 46:0 47:0 48:0 49:0 50:0 51:1 52:0 53:0 54:0 55:0 56:0 57:0 58:0 59:0 60:0 61:0 62:0 63:0 64:0 65:0 66:0 67:0 68:0 69:0 70:0.522013 71:0.477987 72:0 73:0 74:0 75:0 76:0 77:0 78:0 79:0 80:0 81:0 82:0 83:0 84:0 85:0 86:0 87:0 88:0 89:0 90:0 91:1 92:0 93:0 94:0 95:0 96:0 97:0 98:0 99:0 100:0 101:0 102:0 103:0 104:0 105:0 106:0 107:0 108:0 109:0 110:0 111:1 112:0 113:0 114:0 115:0 116:0 117:0 118:0 119:0 120:0 121:0 122:0 123:0 124:0 125:0 126:0 127:0 128:0 129:0 130:0.534591 131:0.465409 132:0 133:0 134:0 135:0 136:0 137:0 138:0 139:0 140:0 141:0 142:0 143:0 144:0 145:0 146:0 147:0 148:0 149:0 150:0 151:0 152:0 153:0 154:0.792453 155:0.207547 156:0 157:0 158:0 159:0 160:0 161:0 162:0 163:0 164:0 165:0 166:0 167:0 168:0 169:0 170:0 171:1 172:0 173:0 174:0 175:0 176:0 177:0 178:0 179:0 180:0 181:0 182:0 183:0 184:0 185:0 186:0 187:0 188:0 189:0 190:0.18239 191:0.81761 192:0 193:0 194:0 195:0 196:0 197:0 198:0 199:0 200:0 201:0 202:0 203:0 204:0 205:0 206:0 207:0 208:0 209:0 210:0 211:0 212:0 213:0 214:0 215:0.257862 216:0.742138 217:0 218:0 219:0 220:0 221:0 222:0 223:0 224:0 225:0 226:0 227:0 228:0 229:0 230:0.314465 231:0.685535 232:0 233:0 234:0 235:0 236:0 237:0 238:0 239:0 240:0 241:0 242:0 243:0 244:0 245:0 246:0 247:0 248:0.308176 249:0.672956 250:0.0188679 251:0 252:0 253:0 254:0 255:0 256:0 257:0 258:0 259:0 260:0 261:0 262:0 263:0 264:0 265:0 266:0 267:0 268:0 269:0 270:0 271:0 272:0 273:0.805031 274:0.194969 275:0 276:0 277:0 278:0 279:0 280:0 281:0 282:0 283:0 284:0 285:0 286:0 287:0 288:0 289:0 290:0.226415 291:0.773585 292:0 293:0 294:0 295:0 296:0 297:0 298:0 299:0 300:0 301:0 302:0 303:0 304:0 305:0 306:0.0188679 307:0.72956 308:0.207547 309:0.0440252 310:0 311:0 312:0 313:0 314:0 315:0 316:0 317:0 318:0 319:0 320:0 321:0 322:0 323:0 324:0 325:0 326:0 327:0 328:0 329:0 330:0 331:0.0377358 332:0.201258 333:0.106918 334:0.408805 335:0.245283 336:0 337:0 338:0 339:0 340:0 341:0 342:0 343:0 344:0 345:0 346:0 347:0 348:0 349:0.238994 350:0.440252 351:0.220126 352:0.100629 353:0 354:0 355:0 356:0 357:0 358:0 359:0 360:0 361:0 362:0 363:0 364:0 365:0.0754717 366:0.125786 367:0.163522 368:0.371069 369:0.264151 370:0 371:0 372:0 373:0 374:0 375:0 376:0 377:0 378:0 379:0 380:0 381:0 382:0 383:0 384:0 385:0 386:0 387:0 388:0 389:0 390:0.0440252 391:0.0440252 392:0.0314465 393:0.081761 394:0.106918 395:0.207547 396:0.383648 397:0.100629 398:0 399:0 400:0 401:0 402:0 403:0 404:0 405:0 406:0 407:0 408:0.0440252 409:0.496855 410:0.459119 411:0 412:0 413:0 414:0 415:0 416:0 417:0 418:0 419:0 420:0 421:0 422:0 423:0 424:0.0377358 425:0.100629 426:0.0691824 427:0.0754717 428:0.339623 429:0.345912 430:0.0314465 431:0 432:0 433:0 434:0 435:0 436:0 437:0 438:0 439:0 440:0 441:0 442:0 443:0 444:0 445:0 446:0 447:0 448:0 449:0 450:0.0251572 451:0.0503145 452:0.0251572 453:0.0628931 454:0.106918 455:0.138365 456:0.289308 457:0.295597 458:0.00628931 459:0 460:0 461:0 462:0 463:0 464:0 465:0 466:0 467:0 468:0.132075 469:0.528302 470:0.333333 471:0.00628931 472:0 473:0 474:0 475:0 476:0 477:0 478:0 479:0 480:0 481:0 482:0 483:0 484:0 485:0 486:0 487:0 488:0 489:0 490:0 491:0 492:0.433962 493:0.566038 494:0 495:0 496:0 497:0 498:0 499:0 500:0 501:0 502:0 503:0 504:0 505:0 506:0 507:0 508:0 509:0 510:0 511:0 512:0 513:0.710692 514:0.289308 515:0 516:0 517:0 518:0 519:0 520:0 521:0 522:0 523:0 524:0 525:0 526:0 527:0 528:0 529:0 530:0 531:0.849057 532:0.150943 533:0 534:0 535:0 536:0 537:0 538:0 539:0 540:0 541:0 542:0 543:0 544:0 545:0 546:0 547:0 548:0 549:0 550:0 551:0 552:0.00628931 553:0.188679 554:0.628931 555:0.176101 556:0 557:0 558:0 559:0 560:0 561:0 562:0 563:0 564:0 565:0 566:0 567:0 568:0 569:0 570:0 571:0.0691824 572:0.201258 573:0.113208 574:0.301887 575:0.283019 576:0.0314465 577:0 578:0 579:0 580:0 581:0 582:0 583:0 584:0 585:0 586:0 587:0 588:0 589:0 590:0.327044 591:0.559748 592:0.113208 593:0 594:0 595:0 596:0 597:0 598:0 599:0 600:0 601:0 602:0 603:0 604:0 605:0 606:0 607:0 608:0 609:0 610:0 611:0 612:0.100629 613:0.345912 614:0.27044 615:0.106918 616:0.0566038 617:0.119497 618:0 619:0 620:0 621:0 622:0 623:0 624:0 625:0 626:0 627:0 628:0 629:0 630:0 631:0.081761 632:0.0691824 633:0.0566038 634:0.138365 635:0.213836 636:0.238994 637:0.169811 638:0.0314465 639:0 640:0 641:0 642:0 643:0 644:0 645:0 646:0 647:0 648:0 649:0.459119 650:0.415094 651:0.125786 652:0 653:0 654:0 655:0 656:0 657:0 658:0 659:0 660:0 661:0 662:0 663:0 664:0 665:0 666:0 667:0 668:0 669:0 670:0 671:0.00628931 672:0.132075 673:0.377358 674:0.201258 675:0.0628931 676:0.0566038 677:0.138365 678:0.0251572 679:0 680:0 681:0 682:0 683:0 684:0 685:0 686:0 687:0 688:0 689:0 690:0 691:0.0754717 692:0.0440252 693:0.0628931 694:0.100629 695:0.194969 696:0.194969 697:0.213836 698:0.113208 699:0 700:0 701:0 702:0 703:0 704:0 705:0 706:0 707:0 708:0.0440252 709:0.515723 710:0.371069 711:0.0691824 712:0 713:0 714:0 715:0 716:0 717:0 718:0 719:0 720:0 721:0 722:0 723:0 724:0 725:0 726:0 727:0 728:0 729:0.0880503 730:0.91195 731:0 732:0 733:0 734:0 735:0 736:0 737:0 738:0 739:0 740:0 741:0 742:0 743:0 744:0 745:0 746:0 747:0 748:0 749:0 750:1 751:0 752:0 753:0 754:0 755:0 756:0 757:0 758:0 759:0 760:0 761:0 762:0 763:0 764:0 765:0 766:0 767:0 768:0 769:0 770:1 771:0 772:0 773:0 774:0 775:0 776:0 777:0 778:0 779:0 780:0 781:0 782:0 783:0 784:0 785:0 786:0 787:0 788:0 789:0.622642 790:0.377358 791:0 792:0 793:0 794:0 795:0 796:0 797:0 798:0 799:0 800:0 801:0 802:0 803:0 804:0 805:0.54717 806:0.45283 807:0 808:0 809:0 810:0 811:0 812:0 813:0 814:0 815:0 816:0 817:0 818:0 819:0 820:0 821:0 822:0 823:0 824:0 825:0 826:0 827:0 828:0 829:0 830:0.238994 831:0.761006 832:0 833:0 834:0 835:0 836:0 837:0 838:0 839:0 840:0 841:0 842:0 843:0 844:0 845:0 846:0 847:0 848:0.0125786 849:0.597484 850:0.389937 851:0 852:0 853:0 854:0 855:0 856:0 857:0 858:0 859:0 860:0 861:0 862:0.113208 863:0.849057 864:0.0377358 865:0 866:0 867:0 868:0 869:0 870:0 871:0 872:0 873:0 874:0 875:0 876:0 877:0 878:0 879:0 880:0 881:0 882:0 883:0 884:0 885:0 886:0 887:0 888:0 889:0.132075 890:0.0691824 891:0.496855 892:0.301887 893:0 894:0 895:0 896:0 897:0 898:0 899:0 900:0 901:0 902:0 903:0 904:0 905:0 906:0 907:0 908:0 909:0.679245 910:0.320755 911:0 912:0 913:0 914:0 915:0 916:0 917:0 918:0 919:0 920:0 921:0 922:0.308176 923:0.572327 924:0.119497 925:0 926:0 927:0 928:0 929:0 930:0 931:0 932:0 933:0 934:0 935:0 936:0 937:0 938:0 939:0 940:0 941:0 942:0 943:0 944:0 945:0 946:0 947:0 948:0 949:0.169811 950:0.389937 951:0.402516 952:0.0377358 953:0 954:0 955:0 956:0 957:0 958:0 959:0 960:0 961:0 962:0 963:0 964:0 965:0 966:0 967:0 968:0 969:0 970:0 971:0.90566 972:0.0943396 973:0 974:0 975:0 976:0 977:0 978:0 979:0 980:0 981:0 982:0 983:0 984:0 985:0 986:0 987:0 988:0 989:0.0691824 990:0.930818 991:0 992:0 993:0 994:0 995:0 996:0 997:0 998:0 999:0 1000:0 1001:0 1002:0 1003:0 1004:0 1005:0 1006:0 1007:0 1008:0 1009:0 1010:0.666667 1011:0.333333 1012:0 1013:0 1014:0 1015:0 1016:0 1017:0 1018:0 1019:0 1020:0 1021:0 1022:0 1023:0 1024:0 1025:0 1026:0 1027:0 1028:0 1029:0 1030:0 1031:0.584906 1032:0.415094 1033:0 1034:0 1035:0 1036:0 1037:0 1038:0 1039:0 1040:0 1041:0 1042:0 1043:0 1044:0 1045:0.377358 1046:0.622642 1047:0 1048:0 1049:0 1050:0 1051:0 1052:0 1053:0 1054:0 1055:0 1056:0 1057:0 1058:0 1059:0 1060:0 1061:0 1062:0 1063:0 1064:0 1065:0 1066:0 1067:0 1068:0 1069:0 1070:0.320755 1071:0.679245 1072:0 1073:0 1074:0 1075:0 1076:0 1077:0 1078:0 1079:0 1080:0 1081:0 1082:0 1083:0 1084:0 1085:0 1086:0 1087:0 1088:0 1089:0 1090:0.0188679 1091:0.440252 1092:0.421384 1093:0.119497 1094:0 1095:0 1096:0 1097:0 1098:0 1099:0 1100:0 1101:0 1102:0.238994 1103:0.761006 1104:0 1105:0 1106:0 1107:0 1108:0 1109:0 1110:0 1111:0 1112:0 1113:0 1114:0 1115:0 1116:0 1117:0 1118:0 1119:0 1120:0 1121:0 1122:0 1123:0 1124:0 1125:0 1126:0 1127:0 1128:0 1129:0.0440252 1130:0.314465 1131:0.553459 1132:0.0880503 1133:0 1134:0 1135:0 1136:0 1137:0 1138:0 1139:0 1140:0 1141:0 1142:0 1143:0 1144:0 1145:0 1146:0 1147:0 1148:0 1149:0 1150:0 1151:0.471698 1152:0.421384 1153:0.106918 1154:0 1155:0 1156:0 1157:0 1158:0 1159:0 1160:0 1161:0.0691824 1162:0.327044 1163:0.597484 1164:0.00628931 1165:0 1166:0 1167:0 1168:0 1169:0 1170:0 1171:0 1172:0 1173:0 1174:0 1175:0 1176:0 1177:0 1178:0 1179:0 1180:0 1181:0 1182:0 1183:0 1184:0 1185:0 1186:0 1187:0 1188:0.0125786 1189:0.220126 1190:0.553459 1191:0.18239 1192:0.0314465 1193:0 1194:0 1195:0 1196:0 1197:0 1198:0 1199:0 1200:0 
1 1 1 1 1 1:0 2:0 3:0 4:0 5:0 6:0 7:0 8:0 9:0 10:0 11:1 12:0 13:0 14:0 15:0 16:0 17:0 18:0 19:0 20:0 21:0 22:0 23:0 24:0 25:0 26:0 27:0 28:0 29:0 30:0 31:1 32:0 33:0 34:0 35:0 36:0 37:0 38:0 39:0 40:0 41:0 42:0 43:0 44:0 45:0 46:0 47:0 48:0 49:0 50:0 51:1 52:0 53:0 54:0 55:0 56:0 57:0 58:0 59:0 60:0 61:0 62:0 63:0 64:0 65:0 66:0 67:0 68:0 69:0 70:0.866995 71:0.133005 72:0 73:0 74:0 75:0 76:0 77:0 78:0 79:0 80:0 81:0 82:0 83:0 84:0 85:0 86:0 87:0 88:0 89:0 90:0 91:1 92:0 93:0 94:0 95:0 96:0 97:0 98:0 99:0 100:0 101:0 102:0 103:0 104:0 105:0 106:0 107:0 108:0 109:0 110:0 111:1 112:0 113:0 114:0 115:0 116:0 117:0 118:0 119:0 120:0 121:0 122:0 123:0 124:0 125:0 126:0 127:0 128:0 129:0 130:0.738916 131:0.261084 132:0 133:0 134:0 135:0 136:0 137:0 138:0 139:0 140:0 141:0 142:0 143:0 144:0 145:0 146:0 147:0 148:0 149:0 150:0 151:0 152:0 153:1 154:0 155:0 156:0 157:0 158:0 159:0 160:0 161:0 162:0 163:0 164:0 165:0 166:0 167:0 168:0 169:0 170:0 171:0 172:0.896552 173:0.103448 174:0 175:0 176:0 177:0 178:0 179:0 180:0 181:0 182:0 183:0 184:0 185:0 186:0 187:0 188:0 189:0 190:0.0837438 191:0.842365 192:0.0738916 193:0 194:0 195:0 196:0 197:0 198:0 199:0 200:0 201:0 202:0 203:0 204:0 205:0 206:0 207:0 208:0 209:0 210:0 211:0 212:0 213:0 214:0.241379 215:0.758621 216:0 217:0 218:0 219:0 220:0 221:0 222:0 223:0 224:0 225:0 226:0 227:0 228:0 229:0 230:0 231:0 232:0.0788177 233:0.921182 234:0 235:0 236:0 237:0 238:0 239:0 240:0 241:0 242:0 243:0 244:0 245:0 246:0 247:0 248:0 249:0.862069 250:0.137931 251:0 252:0 253:0 254:0 255:0 256:0 257:0 258:0 259:0 260:0 261:0 262:0 263:0 264:0 265:0 266:0 267:0 268:0 269:0 270:0 271:0 272:0.807882 273:0.192118 274:0 275:0 276:0 277:0 278:0 279:0 280:0 281:0 282:0 283:0 284:0 285:0 286:0 287:0 288:0 289:0 290:0 291:0.0295567 292:0.970443 293:0 294:0 295:0 296:0 297:0 298:0 299:0 300:0 301:0 302:0 303:0 304:0 305:0 306:0 307:0.0837438 308:0.866995 309:0.0492611 310:0 311:0 312:0 313:0 314:0 315:0 316:0 317:0 318:0 319:0 320:0 321:0 322:0 323:0 324:0 325:0 326:0 327:0 328:0 329:0 330:0 331:0.167488 332:0.0394089 333:0.236453 334:0.477833 335:0.0788177 336:0 337:0 338:0 339:0 340:0 341:0 342:0 343:0 344:0 345:0 346:0 347:0 348:0 349:0 350:0.197044 351:0.315271 352:0.472906 353:0.0147783 354:0 355:0 356:0 357:0 358:0 359:0 360:0 361:0 362:0 363:0 364:0 365:0 366:0.00985222 367:0.364532 368:0.492611 369:0.128079 370:0.00492611 371:0 372:0 373:0 374:0 375:0 376:0 377:0 378:0 379:0 380:0 381:0 382:0 383:0 384:0 385:0 386:0 387:0 388:0 389:0 390:0.157635 391:0.0147783 392:0.0295567 393:0.0295567 394:0.0492611 395:0.197044 396:0.349754 397:0.172414 398:0 399:0 400:0 401:0 402:0 403:0 404:0 405:0 406:0 407:0 408:0.0197044 409:0.0985222 410:0.280788 411:0.197044 412:0.403941 413:0 414:0 415:0 416:0 417:0 418:0 419:0 420:0 421:0 422:0 423:0 424:0 425:0 426:0.0738916 427:0.349754 428:0.330049 429:0.20197 430:0.044335 431:0 432:0 433:0 434:0 435:0 436:0 437:0 438:0 439:0 440:0 441:0 442:0 443:0 444:0 445:0 446:0 447:0 448:0 449:0 450:0.157635 451:0.0246305 452:0.0147783 453:0.00985222 454:0.0689655 455:0.0689655 456:0.157635 457:0.477833 458:0.0197044 459:0 460:0 461:0 462:0 463:0 464:0 465:0 466:0 467:0 468:0.0246305 469:0.1133 470:0.256158 471:0.182266 472:0.413793 473:0.00985222 474:0 475:0 476:0 477:0 478:0 479:0 480:0 481:0 482:0 483:0 484:0 485:0 486:0 487:0 488:0 489:0 490:0 491:0 492:0.921182 493:0.0788177 494:0 495:0 496:0 497:0 498:0 499:0 500:0 501:0 502:0 503:0 504:0 505:0 506:0 507:0 508:0 509:0 510:0 511:0 512:0.891626 513:0.108374 514:0 515:0 516:0 517:0 518:0 519:0 520:0 521:0 522:0 523:0 524:0 525:0 526:0 527:0 528:0 529:0 530:0 531:0 532:1 533:0 534:0 535:0 536:0 537:0 538:0 539:0 540:0 541:0 542:0 543:0 544:0 545:0 546:0 547:0 548:0 549:0 550:0 551:0 552:0.167488 553:0.566502 554:0.241379 555:0.0246305 556:0 557:0 558:0 559:0 560:0 561:0 562:0 563:0 564:0 565:0 566:0 567:0 568:0 569:0 570:0 571:0.167488 572:0.0640394 573:0.26601 574:0.46798 575:0.0344828 576:0 577:0 578:0 579:0 580:0 581:0 582:0 583:0 584:0 585:0 586:0 587:0 588:0 589:0 590:0.315271 591:0.325123 592:0.359606 593:0 594:0 595:0 596:0 597:0 598:0 599:0 600:0 601:0 602:0 603:0 604:0 605:0 606:0 607:0 608:0 609:0 610:0 611:0 612:0.0197044 613:0.369458 614:0.507389 615:0.0985222 616:0.00492611 617:0 618:0 619:0 620:0 621:0 622:0 623:0 624:0 625:0 626:0 627:0 628:0 629:0 630:0 631:0.00985222 632:0.157635 633:0.0344828 634:0.108374 635:0.182266 636:0.408867 637:0.0985222 638:0 639:0 640:0 641:0 642:0 643:0 644:0 645:0 646:0 647:0 648:0 649:0.1133 650:0.187192 651:0.128079 652:0.571429 653:0 654:0 655:0 656:0 657:0 658:0 659:0 660:0 661:0 662:0 663:0 664:0 665:0 666:0 667:0 668:0 669:0 670:0 671:0 672:0.0394089 673:0.364532 674:0.44335 675:0.137931 676:0.0147783 677:0 678:0 679:0 680:0 681:0 682:0 683:0 684:0 685:0 686:0 687:0 688:0 689:0 690:0 691:0.00985222 692:0.152709 693:0.00985222 694:0.0738916 695:0.226601 696:0.0591133 697:0.438424 698:0.0295567 699:0 700:0 701:0 702:0 703:0 704:0 705:0 706:0 707:0 708:0.0147783 709:0.0985222 710:0.167488 711:0.108374 712:0.610837 713:0 714:0 715:0 716:0 717:0 718:0 719:0 720:0 721:0 722:0 723:0 724:0 725:0 726:0 727:0 728:0 729:0 730:1 731:0 732:0 733:0 734:0 735:0 736:0 737:0 738:0 739:0 740:0 741:0 742:0 743:0 744:0 745:0 746:0 747:0 748:0 749:0 750:1 751:0 752:0 753:0 754:0 755:0 756:0 757:0 758:0 759:0 760:0 761:0 762:0 763:0 764:0 765:0 766:0 767:0 768:0 769:0 770:1 771:0 772:0 773:0 774:0 775:0 776:0 777:0 778:0 779:0 780:0 781:0 782:0 783:0 784:0 785:0 786:0 787:0 788:0 789:0.793103 790:0.206897 791:0 792:0 793:0 794:0 795:0 796:0 797:0 798:0 799:0 800:0 801:0 802:0 803:0 804:0 805:0 806:0 807:0 808:0 809:1 810:0 811:0 812:0 813:0 814:0 815:0 816:0 817:0 818:0 819:0 820:0 821:0 822:0 823:0 824:0 825:0.364532 826:0.635468 827:0 828:0 829:0 830:0 831:0 832:0 833:0 834:0 835:0 836:0 837:0 838:0 839:0 840:0 841:0 842:0 843:0 844:0 845:0 846:0 847:0 848:0 849:0.167488 850:0.832512 851:0 852:0 853:0 854:0 855:0 856:0 857:0 858:0 859:0 860:0 861:0 862:0 863:0 864:0 865:0 866:0.206897 867:0.793103 868:0 869:0 870:0 871:0 872:0 873:0 874:0 875:0 876:0 877:0 878:0 879:0 880:0 881:0 882:0 883:0 884:0.123153 885:0.876847 886:0 887:0 888:0 889:0 890:0 891:0 892:0 893:0 894:0 895:0 896:0 897:0 898:0 899:0 900:0 901:0 902:0 903:0 904:0 905:0 906:0 907:0 908:0 909:0.128079 910:0.871921 911:0 912:0 913:0 914:0 915:0 916:0 917:0 918:0 919:0 920:0 921:0 922:0 923:0 924:0 925:0 926:1 927:0 928:0 929:0 930:0 931:0 932:0 933:0 934:0 935:0 936:0 937:0 938:0 939:0 940:0 941:0 942:0 943:0 944:0.960591 945:0.0394089 946:0 947:0 948:0 949:0 950:0 951:0 952:0 953:0 954:0 955:0 956:0 957:0 958:0 959:0 960:0 961:0 962:0 963:0 964:0 965:0 966:0 967:0 968:0 969:0 970:0 971:1 972:0 973:0 974:0 975:0 976:0 977:0 978:0 979:0 980:0 981:0 982:0 983:0 984:0 985:0 986:0 987:0 988:0 989:0 990:1 991:0 992:0 993:0 994:0 995:0 996:0 997:0 998:0 999:0 1000:0 1001:0 1002:0 1003:0 1004:0 1005:0 1006:0 1007:0 1008:0 1009:0 1010:1 1011:0 1012:0 1013:0 1014:0 1015:0 1016:0 1017:0 1018:0 1019:0 1020:0 1021:0 1022:0 1023:0 1024:0 1025:0 1026:0 1027:0 1028:0 1029:0 1030:0 1031:0 1032:0.881773 1033:0.118227 1034:0 1035:0 1036:0 1037:0 1038:0 1039:0 1040:0 1041:0 1042:0 1043:0 1044:0 1045:0 1046:0 1047:0 1048:0 1049:1 1050:0 1051:0 1052:0 1053:0 1054:0 1055:0 1056:0 1057:0 1058:0 1059:0 1060:0 1061:0 1062:0 1063:0 1064:0 1065:0 1066:1 1067:0 1068:0 1069:0 1070:0 1071:0 1072:0 1073:0 1074:0 1075:0 1076:0 1077:0 1078:0 1079:0 1080:0 1081:0 1082:0 1083:0 1084:0 1085:0 1086:0 1087:0 1088:0 1089:0 1090:0 1091:0 1092:0.694581 1093:0.305419 1094:0 1095:0 1096:0 1097:0 1098:0 1099:0 1100:0 1101:0 1102:0 1103:0 1104:0 1105:0 1106:0.152709 1107:0.847291 1108:0 1109:0 1110:0 1111:0 1112:0 1113:0 1114:0 1115:0 1116:0 1117:0 1118:0 1119:0 1120:0 1121:0 1122:0 1123:0 1124:0 1125:1 1126:0 1127:0 1128:0 1129:0 1130:0 1131:0 1132:0 1133:0 1134:0 1135:0 1136:0 1137:0 1138:0 1139:0 1140:0 1141:0 1142:0 1143:0 1144:0 1145:0 1146:0 1147:0 1148:0 1149:0 1150:0 1151:0 1152:0.669951 1153:0.330049 1154:0 1155:0 1156:0 1157:0 1158:0 1159:0 1160:0 1161:0 1162:0 1163:0 1164:0 1165:0 1166:0.91133 1167:0.0886699 1168:0 1169:0 1170:0 1171:0 1172:0 1173:0 1174:0 1175:0 1176:0 1177:0 1178:0 1179:0 1180:0 1181:0 1182:0 1183:0 1184:1 1185:0 1186:0 1187:0 1188:0 1189:0 1190:0 1191:0 1192:0 1193:0 1194:0 1195:0 1196:0 1197:0 1198:0 1199:0 1200:0 
