svm_type c_svc
kernel_type rbf
gamma 0.00277778
nr_class 6
total_sv 72
rho 0.508515 -0.244117 0.0144422 -0.428836 -0.451856 -0.740186 -0.593621 -0.984988 -0.954439 0.0915843 -0.0619685 -0.075904 -0.162943 -0.163264 0.0161346
label 8 10 12 13 15 16
nr_sv 12 12 12 12 12 12
SV
1 1 1 1 1 1:-1 2:-1 3:-1 4:1 5:-1 6:-1 7:-1 8:-1 9:-1 10:1 11:-1 12:-1 13:-1 14:-1 15:-1 16:1 17:-1 18:-1 19:-1 20:-1 21:0.981652 22:-0.981651 23:-1 24:-1 25:-1 26:-1 27:-1 28:1 29:-1 30:-1 31:-1 32:-1 33:-1 34:1 35:-1 36:-1 37:-1 38:-1 39:0.853212 40:-0.853211 41:-1 42:-1 43:-1 44:-1 45:-1 46:-0.376146 47:0.376146 48:-1 49:-1 50:-1 51:-0.577982 52:0.577982 53:-1 54:-1 55:-1 56:-1 57:-0.082568 58:0.082568 59:-1 60:-1 61:-1 62:-1 63:-1 64:-1 65:1 66:-1 67:-1 68:-1 69:-0.87156 70:0.87156 71:-1 72:-1 73:-1 74:-1 75:1 76:-1 77:-1 78:-1 79:-1 80:-1 81:-1 82:0.853212 83:-0.853211 84:-1 85:-1 86:-1 87:-0.229358 88:0.229358 89:-1 90:-1 91:-1 92:-0.302752 93:0.302752 94:-1 95:-1 96:-1 97:-1 98:-1 99:-1 100:-0.33945 101:0.33945 102:-1 103:-1 104:-1 105:0.908256 106:-0.908257 107:-1 108:-1 109:-1 110:-0.761468 111:0.761468 112:-1 113:-1 114:-1 115:-1 116:-1 117:-0.541284 118:-0.816514 119:-0.486238 120:-0.155964 121:-1 122:-0.834862 123:0.541284 124:-0.706422 125:-1 126:-1 127:-1 128:-0.834862 129:0.834862 130:-1 131:-1 132:-1 133:-1 134:-1 135:-0.486238 136:-0.87156 137:-0.72477 138:0.082568 139:-1 140:-0.779816 141:0.449542 142:-0.669724 143:-1 144:-1 145:-1 146:-1 147:-1 148:1 149:-1 150:-1 151:-1 152:-1 153:-1 154:0.46789 155:-0.46789 156:-1 157:-1 158:-1 159:-1 160:1 161:-1 162:-1 163:-1 164:-1 165:-1 166:0.669724 167:-0.669724 168:-1 169:-1 170:-1 171:-1 172:-0.302752 173:0.302752 174:-1 175:-1 176:-1 177:-0.19266 178:0.19266 179:-1 180:-1 181:-1 182:-1 183:-1 184:0.834862 185:-0.834862 186:-1 187:-1 188:-1 189:-0.559634 190:-0.798166 191:-0.376146 192:-0.266056 193:-1 194:-0.981651 195:-0.119266 196:0.100918 197:-1 198:-1 199:-1 200:-1 201:-1 202:0.834862 203:-0.834862 204:-1 205:-1 206:-1 207:-0.46789 208:-0.889908 209:-0.706422 210:0.06422 211:-1 212:-0.798166 213:-0.284404 214:0.082568 215:-1 216:-1 217:-1 218:-1 219:1 220:-1 221:-1 222:-1 223:-1 224:-1 225:1 226:-1 227:-1 228:-1 229:-1 230:-1 231:1 232:-1 233:-1 234:-1 235:-1 236:-1 237:1 238:-1 239:-1 240:-1 241:-1 242:-1 243:1 244:-1 245:-1 246:-1 247:-1 248:1 249:-1 250:-1 251:-1 252:-1 253:-1 254:-1 255:1 256:-1 257:-1 258:-1 259:-1 260:1 261:-1 262:-1 263:-1 264:-1 265:-1 266:0.633028 267:-0.633028 268:-1 269:-1 270:-1 271:-1 272:-1 273:1 274:-1 275:-1 276:-1 277:-1 278:1 279:-1 280:-1 281:-1 282:-1 283:-0.706422 284:0.706422 285:-1 286:-1 287:-1 288:-1 289:-1 290:-1 291:-1 292:1 293:-1 294:-1 295:-1 296:-1 297:1 298:-1 299:-1 300:-1 301:-1 302:-1 303:-0.944954 304:0.944954 305:-1 306:-1 307:-1 308:-1 309:-1 310:1 311:-1 312:-1 313:-1 314:-1 315:1 316:-1 317:-1 318:-1 319:-1 320:0.21101 321:-0.21101 322:-1 323:-1 324:-1 325:-1 326:-1 327:-1 328:1 329:-1 330:-1 331:-1 332:1 333:-1 334:-1 335:-1 336:-1 337:-1 338:0.59633 339:-0.59633 340:-1 341:-1 342:-1 343:-1 344:-1 345:-1 346:1 347:-1 348:-1 349:-1 350:1 351:-1 352:-1 353:-1 354:-1 355:-1 356:1 357:-1 358:-1 359:-1 360:-1 
1 1 1 1 1 1:-1 2:-1 3:-1 4:1 5:-1 6:-1 7:-1 8:-1 9:-1 10:1 11:-1 12:-1 13:-1 14:-1 15:-1 16:1 17:-1 18:-1 19:-1 20:-1 21:0.465838 22:-0.465838 23:-1 24:-1 25:-1 26:-1 27:-1 28:1 29:-1 30:-1 31:-1 32:-1 33:-1 34:1 35:-1 36:-1 37:-1 38:-1 39:0.180124 40:-0.180124 41:-1 42:-1 43:-1 44:-1 45:-1 46:-0.925466 47:0.925466 48:-1 49:-1 50:-1 51:-0.652174 52:0.652174 53:-1 54:-1 55:-1 56:-1 57:-0.552796 58:0.552796 59:-1 60:-1 61:-1 62:-1 63:-1 64:-1 65:1 66:-1 67:-1 68:-1 69:-0.118012 70:0.118012 71:-1 72:-1 73:-1 74:-1 75:1 76:-1 77:-1 78:-1 79:-1 80:-1 81:-1 82:0.229814 83:-0.229814 84:-1 85:-1 86:-1 87:0.167702 88:-0.167702 89:-1 90:-1 91:-1 92:-0.590062 93:0.590062 94:-1 95:-1 96:-1 97:-1 98:-1 99:-1 100:-0.180124 101:0.180124 102:-1 103:-1 104:-0.975155 105:0.47826 106:-0.552796 107:-0.950311 108:-1 109:-1 110:-0.540372 111:0.242236 112:-0.701864 113:-1 114:-1 115:-1 116:-1 117:-0.602484 118:-0.677018 119:0.0807461 120:-0.801242 121:-1 122:-0.614906 123:0.229814 124:-0.614906 125:-1 126:-1 127:-1 128:-0.465838 129:0.118012 130:-0.652174 131:-1 132:-1 133:-1 134:-1 135:-0.57764 136:-0.714286 137:-0.018634 138:-0.68944 139:-1 140:-0.540372 141:0.167702 142:-0.639752 143:-0.987578 144:-1 145:-1 146:-1 147:-1 148:1 149:-1 150:-1 151:-1 152:-1 153:-1 154:0.403726 155:-0.403726 156:-1 157:-1 158:-1 159:-0.565218 160:0.565218 161:-1 162:-1 163:-1 164:-1 165:-1 166:0.490684 167:-0.490684 168:-1 169:-1 170:-1 171:-1 172:0.279504 173:-0.279504 174:-1 175:-1 176:-1 177:-0.291926 178:0.279504 179:-0.987578 180:-1 181:-1 182:-1 183:-0.962733 184:0.291926 185:-0.329192 186:-1 187:-1 188:-1 189:-0.52795 190:-0.714286 191:0.217392 192:-0.975155 193:-1 194:-0.652174 195:-0.453416 196:0.10559 197:-1 198:-1 199:-1 200:-1 201:-0.913043 202:0.192546 203:-0.279504 204:-1 205:-1 206:-1 207:-0.540372 208:-0.73913 209:0.130434 210:-0.850932 211:-1 212:-0.57764 213:-0.428572 214:0.006212 215:-1 216:-1 217:-1 218:-1 219:1 220:-1 221:-1 222:-1 223:-1 224:-1 225:1 226:-1 227:-1 228:-1 229:-1 230:-1 231:0.590062 232:-0.590062 233:-1 234:-1 235:-1 236:-1 237:1 238:-1 239:-1 240:-1 241:-1 242:1 243:-1 244:-1 245:-1 246:-1 247:-1 248:-1 249:0.590062 250:-0.590062 251:-1 252:-1 253:-1 254:-1 255:1 256:-1 257:-1 258:-1 259:1 260:-1 261:-1 262:-1 263:-1 264:-1 265:-1 266:-1 267:0.41615 268:-0.41615 269:-1 270:-1 271:-1 272:-1 273:1 274:-1 275:-1 276:-1 277:1 278:-1 279:-1 280:-1 281:-1 282:-1 283:-1 284:-1 285:0.913044 286:-0.913043 287:-1 288:-1 289:-1 290:-1 291:-1 292:1 293:-1 294:-1 295:-1 296:-1 297:1 298:-1 299:-1 300:-1 301:-1 302:-1 303:-0.490684 304:0.490684 305:-1 306:-1 307:-1 308:-1 309:-1 310:1 311:-1 312:-1 313:-1 314:1 315:-1 316:-1 317:-1 318:-1 319:-1 320:-1 321:0.0559 322:-0.0559 323:-1 324:-1 325:-1 326:-1 327:-1 328:1 329:-1 330:-1 331:1 332:-1 333:-1 334:-1 335:-1 336:-1 337:-1 338:-1 339:-0.093168 340:0.093168 341:-1 342:-1 343:-1 344:-1 345:-1 346:1 347:-1 348:-1 349:1 350:-1 351:-1 352:-1 353:-1 354:-1 355:-1 356:-1 357:0.52795 358:-0.52795 359:-1 360:-1 
1 1 0 0.2788901642828448 0.9065022886531917 1:-1 2:-1 3:-1 4:1 5:-1 6:-1 7:-1 8:-1 9:-1 10:1 11:-1 12:-1 13:-1 14:-1 15:-1 16:1 17:-1 18:-1 19:-1 20:-1 21:1 22:-1 23:-1 24:-1 25:-1 26:-1 27:-1 28:1 29:-1 30:-1 31:-1 32:-1 33:-1 34:1 35:-1 36:-1 37:-1 38:-1 39:0.096774 40:-0.096774 41:-1 42:-1 43:-1 44:-1 45:-1 46:1 47:-1 48:-1 49:-1 50:-1 51:-1 52:1 53:-1 54:-1 55:-1 56:-1 57:0.225806 58:-0.225806 59:-1 60:-1 61:-1 62:-1 63:-1 64:-1 65:1 66:-1 67:-1 68:-1 69:-0.655914 70:0.655914 71:-1 72:-1 73:-1 74:-1 75:1 76:-1 77:-1 78:-1 79:-1 80:-1 81:-1 82:1 83:-1 84:-1 85:-1 86:-1 87:-1 88:1 89:-1 90:-1 91:-1 92:0.11828 93:-0.11828 94:-1 95:-1 96:-1 97:-1 98:-1 99:-0.978495 100:0.11828 101:-0.139784 102:-1 103:-1 104:-1 105:1 106:-1 107:-1 108:-1 109:-1 110:-0.333334 111:0.333334 112:-1 113:-1 114:-1 115:-1 116:-1 117:-0.72043 118:-0.935484 119:0.612904 120:-0.956989 121:-1 122:-1 123:0.913978 124:-0.913978 125:-1 126:-1 127:-1 128:-0.39785 129:0.39785 130:-1 131:-1 132:-1 133:-1 134:-1 135:-0.741936 136:-0.913978 137:0.39785 138:-0.741936 139:-1 140:-0.913978 141:0.698924 142:-0.784946 143:-1 144:-1 145:-1 146:-1 147:-1 148:1 149:-1 150:-1 151:-1 152:-1 153:-1 154:1 155:-1 156:-1 157:-1 158:-1 159:-1 160:1 161:-1 162:-1 163:-1 164:-1 165:-1 166:-0.505376 167:0.505376 168:-1 169:-1 170:-1 171:-0.741936 172:-0.39785 173:0.139784 174:-1 175:-1 176:-1 177:-1 178:1 179:-1 180:-1 181:-1 182:-1 183:-1 184:0.075268 185:-0.075268 186:-1 187:-1 188:-1 189:-0.698924 190:-0.935484 191:0.48387 192:-0.849462 193:-1 194:-1 195:-0.053764 196:0.053764 197:-1 198:-1 199:-1 200:-1 201:-1 202:0.010752 203:-0.010752 204:-1 205:-1 206:-1 207:-0.698924 208:-0.956989 209:0.204302 210:-0.548388 211:-1 212:-1 213:-0.010752 214:0.010752 215:-1 216:-1 217:-1 218:-1 219:1 220:-1 221:-1 222:-1 223:-1 224:-1 225:1 226:-1 227:-1 228:-1 229:-1 230:-1 231:1 232:-1 233:-1 234:-1 235:-1 236:-1 237:1 238:-1 239:-1 240:-1 241:-1 242:-1 243:1 244:-1 245:-1 246:-1 247:-1 248:1 249:-1 250:-1 251:-1 252:-1 253:-1 254:-1 255:1 256:-1 257:-1 258:-1 259:-1 260:0.72043 261:-0.72043 262:-1 263:-1 264:-1 265:-1 266:1 267:-1 268:-1 269:-1 270:-1 271:-1 272:-1 273:1 274:-1 275:-1 276:-1 277:-1 278:0.892474 279:-0.892473 280:-1 281:-1 282:-1 283:-0.892473 284:0.892474 285:-1 286:-1 287:-1 288:-1 289:-1 290:-1 291:-1 292:1 293:-1 294:-1 295:-1 296:-1 297:1 298:-1 299:-1 300:-1 301:-1 302:-1 303:0.827958 304:-0.827957 305:-1 306:-1 307:-1 308:-1 309:-1 310:1 311:-1 312:-1 313:-1 314:-1 315:1 316:-1 317:-1 318:-1 319:-1 320:1 321:-1 322:-1 323:-1 324:-1 325:-1 326:-1 327:-1 328:1 329:-1 330:-1 331:-1 332:0.569892 333:-0.569892 334:-1 335:-1 336:-1 337:-1 338:1 339:-1 340:-1 341:-1 342:-1 343:-1 344:-1 345:-1 346:1 347:-1 348:-1 349:-1 350:0.870968 351:-0.870968 352:-1 353:-1 354:-1 355:-1 356:1 357:-1 358:-1 359:-1 360:-1 
1 0.8867835208438671 1 1 1 1:-1 2:-1 3:-1 4:1 5:-1 6:-1 7:-1 8:-1 9:-1 10:1 11:-1 12:-1 13:-1 14:-1 15:-1 16:1 17:-1 18:-1 19:-1 20:-1 21:0.071896 22:-0.071896 23:-1 24:-1 25:-1 26:-1 27:-1 28:1 29:-1 30:-1 31:-1 32:-1 33:-1 34:1 35:-1 36:-1 37:-1 38:-1 39:-0.202614 40:0.202614 41:-1 42:-1 43:-1 44:-1 45:-1 46:-0.202614 47:0.202614 48:-1 49:-1 50:-1 51:-1 52:1 53:-1 54:-1 55:-1 56:-1 57:0.189542 58:-0.189542 59:-1 60:-1 61:-1 62:-1 63:-1 64:-1 65:1 66:-1 67:-1 68:-1 69:-0.045752 70:0.045752 71:-1 72:-1 73:-1 74:-1 75:1 76:-1 77:-1 78:-1 79:-1 80:-1 81:-1 82:1 83:-1 84:-1 85:-1 86:-1 87:-0.542484 88:0.542484 89:-1 90:-1 91:-1 92:-0.30719 93:0.30719 94:-1 95:-1 96:-1 97:-1 98:-1 99:-1 100:-0.411764 101:0.411764 102:-1 103:-1 104:-1 105:0.294118 106:-0.294118 107:-1 108:-1 109:-1 110:-0.673202 111:0.673202 112:-1 113:-1 114:-1 115:-1 116:-1 117:-0.777778 118:-0.947712 119:0.72549 120:-1 121:-1 122:-0.882353 123:0.45098 124:-0.568628 125:-1 126:-1 127:-1 128:-0.673202 129:0.673202 130:-1 131:-1 132:-1 133:-1 134:-1 135:-0.777778 136:-0.960784 137:0.477124 138:-0.738562 139:-1 140:-0.843137 141:0.477124 142:-0.633986 143:-1 144:-1 145:-1 146:-1 147:-1 148:1 149:-1 150:-1 151:-1 152:-1 153:-1 154:1 155:-1 156:-1 157:-1 158:-1 159:-0.66013 160:0.66013 161:-1 162:-1 163:-1 164:-1 165:-1 166:-0.00653601 167:0.00653601 168:-1 169:-1 170:-1 171:-1 172:-0.411764 173:0.411764 174:-1 175:-1 176:-1 177:0.124184 178:-0.124182 179:-1 180:-1 181:-1 182:-1 183:-0.973856 184:0.568628 185:-0.594772 186:-1 187:-1 188:-1 189:-0.79085 190:-0.934641 191:0.699346 192:-0.973856 193:-1 194:-1 195:0.686274 196:-0.686274 197:-1 198:-1 199:-1 200:-1 201:-0.947712 202:0.568628 203:-0.620916 204:-1 205:-1 206:-1 207:-0.777778 208:-0.960784 209:0.30719 210:-0.568628 211:-1 212:-0.973856 213:0.673202 214:-0.699346 215:-1 216:-1 217:-1 218:-1 219:1 220:-1 221:-1 222:-1 223:-1 224:-1 225:1 226:-1 227:-1 228:-1 229:-1 230:-1 231:0.464052 232:-0.464052 233:-1 234:-1 235:-1 236:-1 237:1 238:-1 239:-1 240:-1 241:-1 242:1 243:-1 244:-1 245:-1 246:-1 247:-1 248:-1 249:0.633986 250:-0.633986 251:-1 252:-1 253:-1 254:-1 255:1 256:-1 257:-1 258:-1 259:0.960784 260:-0.960784 261:-1 262:-1 263:-1 264:-1 265:-1 266:-1 267:-0.084968 268:0.084968 269:-1 270:-1 271:-1 272:-1 273:1 274:-1 275:-1 276:-1 277:1 278:-1 279:-1 280:-1 281:-1 282:-1 283:-1 284:-1 285:0.17647 286:-0.17647 287:-1 288:-1 289:-1 290:-1 291:-1 292:1 293:-1 294:-1 295:-1 296:-1 297:1 298:-1 299:-1 300:-1 301:-1 302:-1 303:0.51634 304:-0.51634 305:-1 306:-1 307:-1 308:-1 309:-1 310:1 311:-1 312:-1 313:-1 314:1 315:-1 316:-1 317:-1 318:-1 319:-1 320:-1 321:0.93464 322:-0.934641 323:-1 324:-1 325:-1 326:-1 327:-1 328:1 329:-1 330:-1 331:1 332:-1 333:-1 334:-1 335:-1 336:-1 337:-1 338:-1 339:0.555556 340:-0.555556 341:-1 342:-1 343:-1 344:-1 345:-0.803922 346:0.803922 347:-1 348:-1 349:0.895424 350:-0.895425 351:-1 352:-1 353:-1 354:-1 355:-1 356:-1 357:0.986928 358:-0.986928 359:-1 360:-1 
1 1 1 1 1 1:-1 2:-1 3:-1 4:1 5:-1 6:-1 7:-1 8:-1 9:-1 10:1 11:-1 12:-1 13:-1 14:-1 15:-1 16:1 17:-1 18:-1 19:-1 20:-1 21:0.702564 22:-0.702564 23:-1 24:-1 25:-1 26:-1 27:-1 28:1 29:-1 30:-1 31:-1 32:-1 33:-1 34:1 35:-1 36:-1 37:-1 38:-1 39:0.928206 40:-0.928205 41:-1 42:-1 43:-1 44:-1 45:-1 46:1 47:-1 48:-1 49:-1 50:-1 51:-1 52:1 53:-1 54:-1 55:-1 56:-1 57:1 58:-1 59:-1 60:-1 61:-1 62:-1 63:-1 64:-1 65:1 66:-1 67:-1 68:-1 69:-1 70:1 71:-1 72:-1 73:-1 74:-1 75:1 76:-1 77:-1 78:-1 79:-1 80:-1 81:-1 82:1 83:-1 84:-1 85:-1 86:-1 87:-1 88:1 89:-1 90:-1 91:-1 92:-0.097436 93:0.097436 94:-1 95:-1 96:-1 97:-1 98:-1 99:-1 100:0.74359 101:-0.74359 102:-1 103:-1 104:-1 105:0.302564 106:-0.302564 107:-1 108:-1 109:-1 110:-0.23077 111:0.23077 112:-1 113:-1 114:-1 115:-1 116:-1 117:-0.589744 118:-0.189744 119:-0.220512 120:-1 121:-1 122:-1 123:0.651282 124:-0.651282 125:-1 126:-1 127:-1 128:-0.45641 129:0.45641 130:-1 131:-1 132:-1 133:-1 134:-1 135:-0.589744 136:-0.548718 137:0.138462 138:-1 139:-1 140:-1 141:0.425642 142:-0.425642 143:-1 144:-1 145:-1 146:-1 147:-1 148:1 149:-1 150:-1 151:-1 152:-1 153:-1 154:1 155:-1 156:-1 157:-1 158:-1 159:-1 160:1 161:-1 162:-1 163:-1 164:-1 165:-1 166:0.948718 167:-0.948718 168:-1 169:-1 170:-1 171:-0.794872 172:0.579488 173:-0.784616 174:-1 175:-1 176:-1 177:0.08718 178:-0.08718 179:-1 180:-1 181:-1 182:-1 183:-1 184:0.805128 185:-0.805128 186:-1 187:-1 188:-1 189:-0.548718 190:-0.117948 191:-0.333334 192:-1 193:-1 194:-1 195:0.302564 196:-0.302564 197:-1 198:-1 199:-1 200:-1 201:-1 202:0.784616 203:-0.784616 204:-1 205:-1 206:-1 207:-0.548718 208:-0.405128 209:-0.046154 210:-1 211:-1 212:-1 213:0.241026 214:-0.241026 215:-1 216:-1 217:-1 218:-1 219:1 220:-1 221:-1 222:-1 223:-1 224:-1 225:1 226:-1 227:-1 228:-1 229:-1 230:-1 231:1 232:-1 233:-1 234:-1 235:-1 236:-1 237:-0.794872 238:0.794872 239:-1 240:-1 241:-1 242:-0.015384 243:0.015384 244:-1 245:-1 246:-1 247:-1 248:-0.579488 249:0.517948 250:-0.938462 251:-1 252:-1 253:-1 254:-1 255:-0.374358 256:0.37436 257:-1 258:-1 259:-1 260:0.938462 261:-0.938462 262:-1 263:-1 264:-1 265:-1 266:0.692308 267:-0.692308 268:-1 269:-1 270:-1 271:-1 272:-1 273:-0.805128 274:0.805128 275:-1 276:-1 277:-1 278:1 279:-1 280:-1 281:-1 282:-1 283:-1 284:0.897436 285:-0.897436 286:-1 287:-1 288:-1 289:-1 290:-1 291:-1 292:1 293:-1 294:-1 295:-1 296:-1 297:1 298:-1 299:-1 300:-1 301:-1 302:-1 303:0.96923 304:-0.969231 305:-1 306:-1 307:-1 308:-1 309:-1 310:1 311:-1 312:-1 313:-1 314:-0.23077 315:0.23077 316:-1 317:-1 318:-1 319:-1 320:-0.282052 321:0.241026 322:-0.958974 323:-1 324:-1 325:-1 326:-1 327:-0.907692 328:0.907692 329:-1 330:-1 331:-1 332:1 333:-1 334:-1 335:-1 336:-1 337:-1 338:0.702564 339:-0.702564 340:-1 341:-1 342:-1 343:-1 344:-1 345:-1 346:1 347:-1 348:-1 349:-1 350:1 351:-1 352:-1 353:-1 354:-1 355:-1 356:0.866666 357:-0.866667 358:-1 359:-1 360:-1 
1 1 1 1 1 1:-1 2:-1 3:-1 4:1 5:-1 6:-1 7:-1 8:-1 9:-1 10:1 11:-1 12:-1 13:-1 14:-1 15:-1 16:1 17:-1 18:-1 19:-1 20:-1 21:0.28972 22:-0.28972 23:-1 24:-1 25:-1 26:-1 27:-1 28:1 29:-1 30:-1 31:-1 32:-1 33:-1 34:1 35:-1 36:-1 37:-1 38:-1 39:0.878504 40:-0.878505 41:-1 42:-1 43:-1 44:-1 45:-1 46:-1 47:1 48:-1 49:-1 50:-1 51:-1 52:1 53:-1 54:-1 55:-1 56:-1 57:0.53271 58:-0.53271 59:-1 60:-1 61:-1 62:-1 63:-1 64:-1 65:1 66:-1 67:-1 68:-1 69:-1 70:1 71:-1 72:-1 73:-1 74:-1 75:1 76:-1 77:-1 78:-1 79:-1 80:-1 81:-1 82:1 83:-1 84:-1 85:-1 86:-1 87:-1 88:1 89:-1 90:-1 91:-1 92:-0.75701 93:0.75701 94:-1 95:-1 96:-1 97:-1 98:-1 99:-1 100:0.626168 101:-0.626168 102:-1 103:-1 104:-1 105:-0.261682 106:0.261682 107:-1 108:-1 109:-1 110:-0.59813 111:0.59813 112:-1 113:-1 114:-1 115:-1 116:-1 117:-0.280374 118:-0.439252 119:-0.364486 120:-0.915888 121:-1 122:-1 123:0.663552 124:-0.663552 125:-1 126:-1 127:-1 128:-0.607476 129:0.607476 130:-1 131:-1 132:-1 133:-1 134:-1 135:-0.271028 136:-0.71028 137:-0.2243 138:-0.794392 139:-1 140:-1 141:0.57944 142:-0.57944 143:-1 144:-1 145:-1 146:-1 147:-1 148:1 149:-1 150:-1 151:-1 152:-1 153:-1 154:1 155:-1 156:-1 157:-1 158:-1 159:-0.878505 160:0.878504 161:-1 162:-1 163:-1 164:-1 165:-1 166:0.878504 167:-0.878505 168:-1 169:-1 170:-1 171:-1 172:0.672898 173:-0.672898 174:-1 175:-1 176:-1 177:-0.57944 178:0.57944 179:-1 180:-1 181:-1 182:-1 183:-1 184:0.831776 185:-0.831776 186:-1 187:-1 188:-1 189:-0.327102 190:-0.429906 191:-0.28972 192:-0.953271 193:-1 194:-1 195:-0.084112 196:0.084112 197:-1 198:-1 199:-1 200:-1 201:-1 202:0.841122 203:-0.841121 204:-1 205:-1 206:-1 207:-0.327102 208:-0.654206 209:-0.149532 210:-0.869159 211:-1 212:-1 213:-0.074766 214:0.074766 215:-1 216:-1 217:-1 218:-1 219:1 220:-1 221:-1 222:-1 223:-1 224:-1 225:1 226:-1 227:-1 228:-1 229:-1 230:-1 231:0.785046 232:-0.785046 233:-1 234:-1 235:-1 236:-1 237:1 238:-1 239:-1 240:-1 241:-1 242:1 243:-1 244:-1 245:-1 246:-1 247:-1 248:-1 249:0.11215 250:-0.11215 251:-1 252:-1 253:-1 254:-1 255:1 256:-1 257:-1 258:-1 259:-0.28972 260:0.28972 261:-1 262:-1 263:-1 264:-1 265:-1 266:-1 267:-0.130842 268:0.130842 269:-1 270:-1 271:-1 272:-1 273:1 274:-1 275:-1 276:-1 277:0.82243 278:-0.82243 279:-1 280:-1 281:-1 282:-1 283:-1 284:-1 285:0.588786 286:-0.588786 287:-1 288:-1 289:-1 290:-1 291:-1 292:1 293:-1 294:-1 295:-1 296:-1 297:1 298:-1 299:-1 300:-1 301:-1 302:-1 303:0.514018 304:-0.514018 305:-1 306:-1 307:-1 308:-1 309:-1 310:1 311:-1 312:-1 313:-1 314:1 315:-1 316:-1 317:-1 318:-1 319:-1 320:-1 321:-0.084112 322:0.084112 323:-1 324:-1 325:-1 326:-1 327:-0.962617 328:0.962616 329:-1 330:-1 331:0.59813 332:-0.59813 333:-1 334:-1 335:-1 336:-1 337:-1 338:-1 339:0.308412 340:-0.308412 341:-1 342:-1 343:-1 344:-1 345:-0.953271 346:0.953272 347:-1 348:-1 349:0.831776 350:-0.831776 351:-1 352:-1 353:-1 354:-1 355:-1 356:-1 357:0.728972 358:-0.728972 359:-1 360:-1 
1 1 1 1 1 1:-1 2:-1 3:-1 4:1 5:-1 6:-1 7:-1 8:-1 9:-1 10:1 11:-1 12:-1 13:-1 14:-1 15:-1 16:1 17:-1 18:-1 19:-1 20:-1 21:-0.174604 22:0.174604 23:-1 24:-1 25:-1 26:-1 27:-1 28:1 29:-1 30:-1 31:-1 32:-1 33:-0.724868 34:0.724868 35:-1 36:-1 37:-1 38:-1 39:-0.238096 40:0.238096 41:-1 42:-1 43:-1 44:-1 45:-1 46:0.957672 47:-0.957672 48:-1 49:-1 50:-1 51:-0.343916 52:0.343916 53:-1 54:-1 55:-1 56:-1 57:-0.15344 58:0.15344 59:-1 60:-1 61:-1 62:-1 63:-1 64:-1 65:1 66:-1 67:-1 68:-1 69:0.238096 70:-0.238096 71:-1 72:-1 73:-1 74:-1 75:1 76:-1 77:-1 78:-1 79:-1 80:-1 81:-1 82:1 83:-1 84:-1 85:-1 86:-1 87:-0.756614 88:0.756614 89:-1 90:-1 91:-1 92:-0.862434 93:0.862434 94:-1 95:-1 96:-1 97:-1 98:-1 99:-0.640212 100:0.41799 101:-0.777778 102:-1 103:-1 104:-1 105:0.111112 106:-0.111112 107:-1 108:-1 109:-1 110:-1 111:0.671958 112:-0.671958 113:-1 114:-1 115:-1 116:-1 117:-0.343916 118:0.00529003 119:-0.661376 120:-1 121:-1 122:-0.873016 123:0.862434 124:-0.989418 125:-1 126:-1 127:-1 128:-1 129:0.396826 130:-0.396826 131:-1 132:-1 133:-1 134:-1 135:-0.343916 136:-0.015874 137:-0.68254 138:-0.957672 139:-1 140:-0.756614 141:0.756614 142:-1 143:-1 144:-1 145:-1 146:-1 147:-0.989418 148:0.989418 149:-1 150:-1 151:-1 152:-1 153:-1 154:1 155:-1 156:-1 157:-1 158:-1 159:-0.4709 160:0.4709 161:-1 162:-1 163:-1 164:-1 165:-1 166:0.73545 167:-0.73545 168:-1 169:-1 170:-1 171:-0.481482 172:0.291006 173:-0.809524 174:-1 175:-1 176:-0.989418 177:-0.068784 178:0.058202 179:-1 180:-1 181:-1 182:-1 183:-0.84127 184:0.428572 185:-0.587302 186:-1 187:-1 188:-1 189:-0.851852 190:0.142858 191:-0.291006 192:-1 193:-1 194:-0.555556 195:0.068784 196:-0.544974 197:-0.968254 198:-1 199:-1 200:-1 201:-0.820106 202:0.587302 203:-0.767196 204:-1 205:-1 206:-1 207:-0.809524 208:0.058202 209:-0.31217 210:-0.936508 211:-0.809524 212:-0.640212 213:-0.026456 214:-0.767196 215:-0.756614 216:-1 217:-1 218:-1 219:1 220:-1 221:-1 222:-1 223:-1 224:-1 225:1 226:-1 227:-1 228:-1 229:-1 230:-1 231:0.386244 232:-0.386244 233:-1 234:-1 235:-1 236:-1 237:1 238:-1 239:-1 240:-1 241:-1 242:-1 243:1 244:-1 245:-1 246:-1 247:-1 248:0.026456 249:-0.026456 250:-1 251:-1 252:-1 253:-1 254:-0.989418 255:0.767196 256:-0.777778 257:-1 258:-1 259:-1 260:0.978836 261:-0.978836 262:-1 263:-1 264:-1 265:-1 266:-0.640212 267:0.640212 268:-1 269:-1 270:-1 271:-1 272:-1 273:0.989418 274:-0.989418 275:-1 276:-1 277:-1 278:1 279:-1 280:-1 281:-1 282:-1 283:-1 284:-0.04762 285:0.0476201 286:-1 287:-1 288:-1 289:-1 290:-1 291:-1 292:1 293:-1 294:-1 295:-1 296:-1 297:1 298:-1 299:-1 300:-1 301:-1 302:-1 303:0.73545 304:-0.73545 305:-1 306:-1 307:-1 308:-1 309:-1 310:1 311:-1 312:-1 313:-1 314:-1 315:1 316:-1 317:-1 318:-1 319:-1 320:-0.555556 321:0.555556 322:-1 323:-1 324:-1 325:-1 326:-1 327:-0.904762 328:0.904762 329:-1 330:-1 331:-1 332:0.968254 333:-0.968254 334:-1 335:-1 336:-1 337:-1 338:0.185186 339:-0.185186 340:-1 341:-1 342:-1 343:-1 344:-1 345:-1 346:1 347:-1 348:-1 349:-0.968254 350:0.968254 351:-1 352:-1 353:-1 354:-1 355:-1 356:0.502646 357:-0.502646 358:-1 359:-1 360:-1 
1 1 1 1 1 1:-1 2:-1 3:-1 4:1 5:-1 6:-1 7:-1 8:-1 9:-1 10:1 11:-1 12:-1 13:-1 14:-1 15:-1 16:1 17:-1 18:-1 19:-1 20:-1 21:0.968912 22:-0.968912 23:-1 24:-1 25:-1 26:-1 27:-0.606218 28:0.606218 29:-1 30:-1 31:-1 32:-1 33:-0.098446 34:0.098446 35:-1 36:-1 37:-1 38:-1 39:0.544042 40:-0.544042 41:-1 42:-1 43:-1 44:-1 45:-0.606218 46:0.253886 47:-0.647668 48:-1 49:-1 50:-1 51:-0.450778 52:0.450778 53:-1 54:-1 55:-1 56:-1 57:-0.015544 58:0.0155441 59:-1 60:-1 61:-1 62:-1 63:-1 64:-0.606218 65:0.606218 66:-1 67:-1 68:-1 69:-0.23316 70:0.23316 71:-1 72:-1 73:-1 74:-0.823834 75:0.823834 76:-1 77:-1 78:-1 79:-1 80:-1 81:-0.606218 82:0.606218 83:-1 84:-1 85:-1 86:-1 87:0.139896 88:-0.139896 89:-1 90:-1 91:-1 92:-0.492228 93:0.492228 94:-1 95:-1 96:-1 97:-1 98:-1 99:-0.68912 100:0.336788 101:-0.647668 102:-1 103:-1 104:-1 105:0.316062 106:-0.316062 107:-1 108:-1 109:-0.927461 110:-0.61658 111:0.430052 112:-0.88601 113:-1 114:-1 115:-1 116:-1 117:-0.23316 118:-0.357512 119:-0.409326 120:-1 121:-1 122:-0.875648 123:0.57513 124:-0.699482 125:-1 126:-1 127:-0.896373 128:-0.68912 129:0.3057 130:-0.720208 131:-1 132:-1 133:-1 134:-0.958549 135:-0.274612 136:-0.388602 137:-0.409326 138:-0.968912 139:-1 140:-0.761658 141:0.481866 142:-0.720208 143:-1 144:-1 145:-0.84456 146:-0.61658 147:-0.906736 148:0.367876 149:-1 150:-1 151:-0.761658 152:-0.606218 153:-1 154:0.367876 155:-1 156:-1 157:-1 158:-1 159:-0.84456 160:0.803108 161:-0.958549 162:-1 163:-1 164:-0.647668 165:-0.720208 166:-0.046632 167:-0.585492 168:-1 169:-0.968912 170:-0.409326 171:-0.948187 172:-0.11917 173:-0.554404 174:-1 175:-1 176:-1 177:-0.792746 178:0.440414 179:-0.647668 180:-1 181:-1 182:-0.875648 183:-0.388602 184:0.056994 185:-0.792746 186:-1 187:-1 188:-0.512954 189:-0.409326 190:-0.637306 191:-0.440414 192:-1 193:-1 194:-0.979275 195:-0.098446 196:0.067358 197:-0.989637 198:-1 199:-1 200:-0.968912 201:-0.544042 202:0.212436 203:-0.699482 204:-1 205:-1 206:-0.585492 207:-0.367876 208:-0.626942 209:-0.46114 210:-0.958549 211:-1 212:-0.875648 213:0.03627 214:-0.160622 215:-1 216:-1 217:-1 218:-1 219:0.367876 220:-0.367876 221:-1 222:-1 223:-1 224:-1 225:0.606218 226:-0.606218 227:-1 228:-1 229:-1 230:-1 231:0.813472 232:-0.813471 233:-1 234:-1 235:-1 236:-1 237:0.430052 238:-0.440414 239:-0.989637 240:-1 241:-1 242:0.637306 243:-0.637306 244:-1 245:-1 246:-1 247:-1 248:-1 249:0.782384 250:-0.782384 251:-1 252:-1 253:-1 254:-1 255:0.626942 256:-0.637306 257:-0.989637 258:-1 259:0.658032 260:-0.658032 261:-1 262:-1 263:-1 264:-1 265:-1 266:-1 267:0.409326 268:-0.409326 269:-1 270:-1 271:-1 272:-1 273:0.658032 274:-0.658032 275:-1 276:-1 277:0.637306 278:-0.637306 279:-1 280:-1 281:-1 282:-1 283:-1 284:-1 285:0.740932 286:-0.740932 287:-1 288:-1 289:-1 290:-1 291:-0.761658 292:0.761658 293:-1 294:-1 295:-1 296:-0.823834 297:0.46114 298:-0.637306 299:-1 300:-1 301:-1 302:-1 303:0.03627 304:-0.03627 305:-1 306:-1 307:-1 308:-1 309:-0.968912 310:0.917098 311:-0.948187 312:-1 313:-0.979275 314:0.761658 315:-0.792746 316:-0.989637 317:-1 318:-1 319:-1 320:-1 321:-0.15026 322:0.15026 323:-1 324:-1 325:-1 326:-1 327:-0.989637 328:0.875648 329:-0.88601 330:-1 331:0.637306 332:-0.647668 333:-0.989637 334:-1 335:-1 336:-1 337:-1 338:-1 339:-0.492228 340:0.492228 341:-1 342:-1 343:-1 344:-1 345:-1 346:0.875648 347:-0.875648 348:-1 349:0.813472 350:-0.813471 351:-1 352:-1 353:-1 354:-1 355:-1 356:-1 357:-0.450778 358:0.450778 359:-1 360:-1 
1 1 1 1 1 1:-1 2:-1 3:-1 4:1 5:-1 6:-1 7:-1 8:-1 9:-1 10:1 11:-1 12:-1 13:-1 14:-1 15:-1 16:1 17:-1 18:-1 19:-1 20:-1 21:1 22:-1 23:-1 24:-1 25:-1 26:-1 27:-1 28:1 29:-1 30:-1 31:-1 32:-1 33:-0.896552 34:0.896552 35:-1 36:-1 37:-1 38:-1 39:0.13793 40:-0.137932 41:-1 42:-1 43:-1 44:-1 45:-1 46:0.62069 47:-0.62069 48:-1 49:-1 50:-1 51:-0.689656 52:0.689656 53:-1 54:-1 55:-1 56:-1 57:-1 58:1 59:-1 60:-1 61:-1 62:-1 63:-1 64:-1 65:1 66:-1 67:-1 68:-1 69:-0.017242 70:0.017242 71:-1 72:-1 73:-1 74:-1 75:1 76:-1 77:-1 78:-1 79:-1 80:-1 81:-1 82:1 83:-1 84:-1 85:-1 86:-1 87:0.448276 88:-0.448276 89:-1 90:-1 91:-1 92:0.034482 93:-0.034482 94:-1 95:-1 96:-1 97:-1 98:-1 99:-1 100:0.293104 101:-0.293104 102:-1 103:-1 104:-1 105:1 106:-1 107:-1 108:-1 109:-1 110:-0.827586 111:0.75862 112:-0.931034 113:-1 114:-1 115:-1 116:-1 117:-0.362068 118:-0.74138 119:0.103448 120:-1 121:-1 122:-1 123:1 124:-1 125:-1 126:-1 127:-1 128:-0.913793 129:0.75862 130:-0.844828 131:-1 132:-1 133:-1 134:-1 135:-0.362068 136:-0.775862 137:-0.086206 138:-0.775862 139:-1 140:-0.74138 141:0.74138 142:-1 143:-1 144:-1 145:-1 146:-1 147:-1 148:1 149:-1 150:-1 151:-1 152:-1 153:-1 154:1 155:-1 156:-1 157:-1 158:-1 159:-0.87931 160:0.87931 161:-1 162:-1 163:-1 164:-1 165:-1 166:-0.017242 167:0.017242 168:-1 169:-1 170:-1 171:-1 172:0.310344 173:-0.310344 174:-1 175:-1 176:-1 177:0.5 178:-0.5 179:-1 180:-1 181:-1 182:-1 183:-1 184:0.5 185:-0.5 186:-1 187:-1 188:-1 189:-0.724138 190:-0.362068 191:0.086206 192:-1 193:-1 194:-1 195:1 196:-1 197:-1 198:-1 199:-1 200:-1 201:-0.913793 202:0.431034 203:-0.517242 204:-1 205:-1 206:-1 207:-0.706896 208:-0.396552 209:-0.25862 210:-0.637932 211:-1 212:-0.775862 213:0.775862 214:-1 215:-1 216:-1 217:-1 218:-1 219:1 220:-1 221:-1 222:-1 223:-1 224:-1 225:1 226:-1 227:-1 228:-1 229:-1 230:-1 231:1 232:-1 233:-1 234:-1 235:-1 236:-1 237:1 238:-1 239:-1 240:-1 241:-1 242:-1 243:1 244:-1 245:-1 246:-1 247:-1 248:-0.362068 249:0.36207 250:-1 251:-1 252:-1 253:-1 254:-1 255:1 256:-1 257:-1 258:-1 259:-1 260:1 261:-1 262:-1 263:-1 264:-1 265:-1 266:0.155172 267:-0.155172 268:-1 269:-1 270:-1 271:-1 272:-1 273:1 274:-1 275:-1 276:-1 277:-1 278:1 279:-1 280:-1 281:-1 282:-1 283:-1 284:0.74138 285:-0.74138 286:-1 287:-1 288:-1 289:-1 290:-1 291:-1 292:1 293:-1 294:-1 295:-1 296:-1 297:1 298:-1 299:-1 300:-1 301:-1 302:-1 303:-0.862069 304:0.86207 305:-1 306:-1 307:-1 308:-1 309:-1 310:1 311:-1 312:-1 313:-1 314:-1 315:1 316:-1 317:-1 318:-1 319:-1 320:-1 321:1 322:-1 323:-1 324:-1 325:-1 326:-1 327:-1 328:1 329:-1 330:-1 331:-1 332:1 333:-1 334:-1 335:-1 336:-1 337:-1 338:0.24138 339:-0.24138 340:-1 341:-1 342:-1 343:-1 344:-1 345:-1 346:1 347:-1 348:-1 349:-1 350:1 351:-1 352:-1 353:-1 354:-1 355:-1 356:0.948276 357:-0.948276 358:-1 359:-1 360:-1 
1 0 1 1 1 1:-1 2:-1 3:-1 4:1 5:-1 6:-1 7:-1 8:-1 9:-1 10:1 11:-1 12:-1 13:-1 14:-1 15:-1 16:1 17:-1 18:-1 19:-1 20:-1 21:0.044026 22:-0.044026 23:-1 24:-1 25:-1 26:-1 27:-1 28:1 29:-1 30:-1 31:-1 32:-1 33:-1 34:1 35:-1 36:-1 37:-1 38:-1 39:0.069182 40:-0.069182 41:-1 42:-1 43:-1 44:-1 45:-1 46:-0.836478 47:0.836478 48:-1 49:-1 50:-1 51:-1 52:1 53:-1 54:-1 55:-1 56:-1 57:-0.63522 58:0.63522 59:-1 60:-1 61:-1 62:-1 63:-1 64:-1 65:1 66:-1 67:-1 68:-1 69:-0.37107 70:0.37107 71:-1 72:-1 73:-1 74:-1 75:1 76:-1 77:-1 78:-1 79:-1 80:-1 81:-1 82:1 83:-1 84:-1 85:-1 86:-1 87:-0.54717 88:0.54717 89:-1 90:-1 91:-1 92:-0.056604 93:0.056604 94:-1 95:-1 96:-1 97:-1 98:-1 99:-1 100:-0.144654 101:0.144654 102:-1 103:-1 104:-1 105:0.35849 106:-0.35849 107:-1 108:-1 109:-1 110:-0.433962 111:0.433962 112:-1 113:-1 114:-1 115:-1 116:-1 117:-0.91195 118:-0.647798 119:0.559748 120:-1 121:-1 122:-1 123:1 124:-1 125:-1 126:-1 127:-1 128:-0.484276 129:0.484276 130:-1 131:-1 132:-1 133:-1 134:-1 135:-0.949686 136:-0.660378 137:0.496856 138:-0.886792 139:-1 140:-1 141:0.987422 142:-0.987421 143:-1 144:-1 145:-1 146:-1 147:-1 148:1 149:-1 150:-1 151:-1 152:-1 153:-1 154:0.974842 155:-0.974843 156:-1 157:-1 158:-1 159:-1 160:1 161:-1 162:-1 163:-1 164:-1 165:-1 166:-0.383648 167:0.383648 168:-1 169:-1 170:-1 171:-1 172:-0.081762 173:0.081762 174:-1 175:-1 176:-1 177:-0.345912 178:0.345912 179:-1 180:-1 181:-1 182:-1 183:-1 184:0.106918 185:-0.106918 186:-1 187:-1 188:-1 189:-1 190:-0.496856 191:0.383648 192:-0.886792 193:-1 194:-1 195:0.748428 196:-0.748428 197:-1 198:-1 199:-1 200:-1 201:-1 202:0.157232 203:-0.383648 204:-0.773584 205:-1 206:-1 207:-1 208:-0.572328 209:0.232704 210:-0.660378 211:-1 212:-1 213:0.861636 214:-0.861635 215:-1 216:-1 217:-1 218:-1 219:1 220:-1 221:-1 222:-1 223:-1 224:-1 225:1 226:-1 227:-1 228:-1 229:-1 230:-1 231:1 232:-1 233:-1 234:-1 235:-1 236:-1 237:1 238:-1 239:-1 240:-1 241:-1 242:1 243:-1 244:-1 245:-1 246:-1 247:-1 248:-1 249:-0.522012 250:0.522012 251:-1 252:-1 253:-1 254:-1 255:1 256:-1 257:-1 258:-1 259:1 260:-1 261:-1 262:-1 263:-1 264:-1 265:-1 266:-1 267:-0.597484 268:0.597484 269:-1 270:-1 271:-1 272:-1 273:1 274:-1 275:-1 276:-1 277:0.987422 278:-0.987421 279:-1 280:-1 281:-1 282:-1 283:-1 284:-1 285:0.119496 286:-0.119496 287:-1 288:-1 289:-1 290:-1 291:-1 292:1 293:-1 294:-1 295:-1 296:-1 297:1 298:-1 299:-1 300:-1 301:-1 302:-1 303:0.333334 304:-0.333334 305:-1 306:-1 307:-1 308:-1 309:-1 310:1 311:-1 312:-1 313:-1 314:1 315:-1 316:-1 317:-1 318:-1 319:-1 320:-1 321:-0.35849 322:0.35849 323:-1 324:-1 325:-1 326:-1 327:-0.962264 328:0.962264 329:-1 330:-1 331:1 332:-1 333:-1 334:-1 335:-1 336:-1 337:-1 338:-1 339:-0.283018 340:0.283018 341:-1 342:-1 343:-1 344:-1 345:-1 346:1 347:-1 348:-1 349:1 350:-1 351:-1 352:-1 353:-1 354:-1 355:-1 356:-1 357:0.572328 358:-0.572328 359:-1 360:-1 
1 0.8915742676086559 0.7757369767897406 1 1 1:-1 2:-1 3:-1 4:1 5:-1 6:-1 7:-1 8:-1 9:-1 10:1 11:-1 12:-1 13:-1 14:-1 15:-1 16:1 17:-1 18:-1 19:-1 20:-1 21:0.73399 22:-0.73399 23:-1 24:-1 25:-1 26:-1 27:-1 28:1 29:-1 30:-1 31:-1 32:-1 33:-1 34:1 35:-1 36:-1 37:-1 38:-1 39:0.477832 40:-0.477832 41:-1 42:-1 43:-1 44:-1 45:-1 46:1 47:-1 48:-1 49:-1 50:-1 51:-1 52:1 53:-1 54:-1 55:-1 56:-1 57:-0.832512 58:0.832512 59:-1 60:-1 61:-1 62:-1 63:-1 64:-1 65:1 66:-1 67:-1 68:-1 69:-1 70:1 71:-1 72:-1 73:-1 74:-1 75:1 76:-1 77:-1 78:-1 79:-1 80:-1 81:-1 82:1 83:-1 84:-1 85:-1 86:-1 87:-1 88:1 89:-1 90:-1 91:-1 92:-0.980296 93:0.980296 94:-1 95:-1 96:-1 97:-1 98:-1 99:-1 100:0.00492597 101:-0.00492603 102:-1 103:-1 104:-1 105:-0.605912 106:0.605912 107:-1 108:-1 109:-1 110:-0.615764 111:0.615764 112:-1 113:-1 114:-1 115:-1 116:-1 117:-0.68473 118:-0.793104 119:0.477832 120:-1 121:-1 122:-1 123:-0.20197 124:0.20197 125:-1 126:-1 127:-1 128:-0.359606 129:0.359606 130:-1 131:-1 132:-1 133:-1 134:-1 135:-0.68473 136:-0.862069 137:0.15271 138:-0.605912 139:-1 140:-1 141:-0.211822 142:0.211822 143:-1 144:-1 145:-1 146:-1 147:-1 148:1 149:-1 150:-1 151:-1 152:-1 153:-1 154:1 155:-1 156:-1 157:-1 158:-1 159:-1 160:1 161:-1 162:-1 163:-1 164:-1 165:-1 166:0.694582 167:-0.694582 168:-1 169:-1 170:-1 171:-1 172:0.034482 173:-0.034482 174:-1 175:-1 176:-1 177:-0.369458 178:0.369458 179:-1 180:-1 181:-1 182:-1 183:-1 184:0.073892 185:-0.073892 186:-1 187:-1 188:-1 189:-1 190:-0.566502 191:0.566502 192:-1 193:-1 194:-1 195:-0.399014 196:0.399014 197:-1 198:-1 199:-1 200:-1 201:-1 202:-0.073892 203:0.073892 204:-1 205:-1 206:-1 207:-1 208:-0.605912 209:0.408868 210:-0.802956 211:-1 212:-1 213:-0.438424 214:0.438424 215:-1 216:-1 217:-1 218:-1 219:1 220:-1 221:-1 222:-1 223:-1 224:-1 225:1 226:-1 227:-1 228:-1 229:-1 230:-1 231:1 232:-1 233:-1 234:-1 235:-1 236:-1 237:1 238:-1 239:-1 240:-1 241:-1 242:-1 243:1 244:-1 245:-1 246:-1 247:-1 248:1 249:-1 250:-1 251:-1 252:-1 253:-1 254:-1 255:1 256:-1 257:-1 258:-1 259:-1 260:1 261:-1 262:-1 263:-1 264:-1 265:-1 266:1 267:-1 268:-1 269:-1 270:-1 271:-1 272:-1 273:1 274:-1 275:-1 276:-1 277:-1 278:1 279:-1 280:-1 281:-1 282:-1 283:-0.714286 284:0.714286 285:-1 286:-1 287:-1 288:-1 289:-1 290:-1 291:-1 292:1 293:-1 294:-1 295:-1 296:-1 297:1 298:-1 299:-1 300:-1 301:-1 302:-1 303:1 304:-1 305:-1 306:-1 307:-1 308:-1 309:-1 310:1 311:-1 312:-1 313:-1 314:-1 315:1 316:-1 317:-1 318:-1 319:-1 320:1 321:-1 322:-1 323:-1 324:-1 325:-1 326:-1 327:-1 328:1 329:-1 330:-1 331:-1 332:1 333:-1 334:-1 335:-1 336:-1 337:-1 338:1 339:-1 340:-1 341:-1 342:-1 343:-1 344:-1 345:-1 346:1 347:-1 348:-1 349:-1 350:1 351:-1 352:-1 353:-1 354:-1 355:-1 356:1 357:-1 358:-1 359:-1 360:-1 
1 1 1 1 1 1:-1 2:-1 3:-1 4:1 5:-1 6:-1 7:-1 8:-1 9:-1 10:1 11:-1 12:-1 13:-1 14:-1 15:-1 16:1 17:-1 18:-1 19:-1 20:-1 21:-0.01031 22:0.0103101 23:-1 24:-1 25:-1 26:-1 27:-1 28:1 29:-1 30:-1 31:-1 32:-1 33:-1 34:1 35:-1 36:-1 37:-1 38:-1 39:-0.360824 40:0.360824 41:-1 42:-1 43:-1 44:-1 45:-1 46:-0.051546 47:0.051546 48:-1 49:-1 50:-1 51:-1 52:1 53:-1 54:-1 55:-1 56:-1 57:-0.793814 58:0.793814 59:-1 60:-1 61:-1 62:-1 63:-1 64:-1 65:1 66:-1 67:-1 68:-1 69:-1 70:1 71:-1 72:-1 73:-1 74:-1 75:1 76:-1 77:-1 78:-1 79:-1 80:-1 81:-1 82:1 83:-1 84:-1 85:-1 86:-1 87:-0.969072 88:0.969072 89:-1 90:-1 91:-1 92:-0.824742 93:0.824742 94:-1 95:-1 96:-1 97:-1 98:-1 99:-1 100:-0.463918 101:0.463918 102:-1 103:-1 104:-1 105:0.020618 106:-0.061856 107:-0.958763 108:-1 109:-1 110:-0.371134 111:0.360824 112:-0.989691 113:-1 114:-1 115:-1 116:-1 117:-0.639176 118:-0.979381 119:0.43299 120:-0.814433 121:-1 122:-0.979381 123:0.340206 124:-0.360824 125:-1 126:-1 127:-1 128:-0.103092 129:0.041238 130:-0.938144 131:-1 132:-1 133:-1 134:-1 135:-0.639176 136:-0.979381 137:-0.309278 138:-0.072164 139:-1 140:-0.979381 141:0.319588 142:-0.340206 143:-1 144:-1 145:-1 146:-1 147:-1 148:1 149:-1 150:-1 151:-1 152:-1 153:-1 154:1 155:-1 156:-1 157:-1 158:-1 159:-0.680412 160:0.680412 161:-1 162:-1 163:-1 164:-1 165:-1 166:0.15464 167:-0.15464 168:-1 169:-1 170:-1 171:-1 172:-0.402062 173:0.402062 174:-1 175:-1 176:-1 177:-0.113402 178:0.113402 179:-1 180:-1 181:-1 182:-1 183:-1 184:0.082474 185:-0.082474 186:-1 187:-1 188:-1 189:-0.639176 190:-0.969072 191:0.536082 192:-0.927835 193:-1 194:-0.896907 195:0.329896 196:-0.43299 197:-1 198:-1 199:-1 200:-1 201:-0.979381 202:0.082474 203:-0.103092 204:-1 205:-1 206:-1 207:-0.639176 208:-0.979381 209:0.13402 210:-0.515464 211:-1 212:-0.907216 213:0.319588 214:-0.412372 215:-1 216:-1 217:-1 218:-1 219:1 220:-1 221:-1 222:-1 223:-1 224:-1 225:1 226:-1 227:-1 228:-1 229:-1 230:-1 231:0.649484 232:-0.649484 233:-1 234:-1 235:-1 236:-1 237:1 238:-1 239:-1 240:-1 241:-1 242:1 243:-1 244:-1 245:-1 246:-1 247:-1 248:-1 249:0.835052 250:-0.835052 251:-1 252:-1 253:-1 254:-1 255:1 256:-1 257:-1 258:-1 259:1 260:-1 261:-1 262:-1 263:-1 264:-1 265:-1 266:-1 267:0.876288 268:-0.876289 269:-1 270:-1 271:-1 272:-1 273:1 274:-1 275:-1 276:-1 277:1 278:-1 279:-1 280:-1 281:-1 282:-1 283:-1 284:-1 285:0.969072 286:-0.969072 287:-1 288:-1 289:-1 290:-1 291:-1 292:1 293:-1 294:-1 295:-1 296:-1 297:1 298:-1 299:-1 300:-1 301:-1 302:-1 303:0.752578 304:-0.752578 305:-1 306:-1 307:-1 308:-1 309:-1 310:1 311:-1 312:-1 313:-1 314:1 315:-1 316:-1 317:-1 318:-1 319:-1 320:-1 321:1 322:-1 323:-1 324:-1 325:-1 326:-1 327:-1 328:1 329:-1 330:-1 331:1 332:-1 333:-1 334:-1 335:-1 336:-1 337:-1 338:-1 339:0.824742 340:-0.824742 341:-1 342:-1 343:-1 344:-1 345:-1 346:1 347:-1 348:-1 349:1 350:-1 351:-1 352:-1 353:-1 354:-1 355:-1 356:-1 357:0.804124 358:-0.804124 359:-1 360:-1 
-1 1 1 1 1 1:-1 2:-1 3:-1 4:1 5:-1 6:-1 7:-1 8:-1 9:-1 10:1 11:-1 12:-1 13:-1 14:-1 15:-1 16:1 17:-1 18:-1 19:-1 20:-1 21:1 22:-1 23:-1 24:-1 25:-1 26:-1 27:-1 28:1 29:-1 30:-1 31:-1 32:-1 33:-1 34:1 35:-1 36:-1 37:-1 38:-1 39:1 40:-1 41:-1 42:-1 43:-1 44:-1 45:-1 46:-1 47:1 48:-1 49:-1 50:-1 51:-1 52:1 53:-1 54:-1 55:-1 56:-1 57:1 58:-1 59:-1 60:-1 61:-1 62:-1 63:-1 64:-1 65:1 66:-1 67:-1 68:-1 69:-0.52381 70:0.52381 71:-1 72:-1 73:-1 74:-1 75:1 76:-1 77:-1 78:-1 79:-1 80:-1 81:-1 82:1 83:-1 84:-1 85:-1 86:-1 87:1 88:-1 89:-1 90:-1 91:-1 92:-1 93:1 94:-1 95:-1 96:-1 97:-1 98:-1 99:-0.638096 100:0.638096 101:-1 102:-1 103:-1 104:-1 105:1 106:-1 107:-1 108:-1 109:-1 110:-1 111:1 112:-1 113:-1 114:-1 115:-1 116:-1 117:1 118:-1 119:-1 120:-1 121:-1 122:-1 123:1 124:-1 125:-1 126:-1 127:-1 128:-1 129:1 130:-1 131:-1 132:-1 133:-1 134:-1 135:1 136:-1 137:-1 138:-1 139:-1 140:-1 141:1 142:-1 143:-1 144:-1 145:-1 146:-1 147:-1 148:1 149:-1 150:-1 151:-1 152:-1 153:-1 154:1 155:-1 156:-1 157:-1 158:-1 159:-1 160:1 161:-1 162:-1 163:-1 164:-1 165:-1 166:0.904762 167:-0.904762 168:-1 169:-1 170:-1 171:-0.847619 172:0.485714 173:-0.638096 174:-1 175:-1 176:-1 177:-0.371428 178:0.371428 179:-1 180:-1 181:-1 182:-1 183:-1 184:0.904762 185:-0.904762 186:-1 187:-1 188:-1 189:0.257142 190:-0.771428 191:-0.52381 192:-0.961905 193:-1 194:-1 195:1 196:-1 197:-1 198:-1 199:-1 200:-1 201:-1 202:0.942858 203:-0.942857 204:-1 205:-1 206:-1 207:-0.257142 208:-0.314286 209:-0.542858 210:-0.885714 211:-1 212:-1 213:1 214:-1 215:-1 216:-1 217:-1 218:-1 219:1 220:-1 221:-1 222:-1 223:-1 224:-1 225:1 226:-1 227:-1 228:-1 229:-1 230:-1 231:1 232:-1 233:-1 234:-1 235:-1 236:-1 237:1 238:-1 239:-1 240:-1 241:-1 242:-1 243:1 244:-1 245:-1 246:-1 247:-1 248:1 249:-1 250:-1 251:-1 252:-1 253:-1 254:-1 255:1 256:-1 257:-1 258:-1 259:-1 260:1 261:-1 262:-1 263:-1 264:-1 265:-1 266:1 267:-1 268:-1 269:-1 270:-1 271:-1 272:-1 273:1 274:-1 275:-1 276:-1 277:-1 278:1 279:-1 280:-1 281:-1 282:-1 283:-1 284:1 285:-1 286:-1 287:-1 288:-1 289:-1 290:-1 291:-1 292:1 293:-1 294:-1 295:-1 296:-1 297:1 298:-1 299:-1 300:-1 301:-1 302:-1 303:-1 304:1 305:-1 306:-1 307:-1 308:-1 309:-1 310:1 311:-1 312:-1 313:-1 314:-1 315:1 316:-1 317:-1 318:-1 319:-1 320:-1 321:1 322:-1 323:-1 324:-1 325:-1 326:-1 327:-1 328:1 329:-1 330:-1 331:-1 332:1 333:-1 334:-1 335:-1 336:-1 337:-1 338:-1 339:1 340:-1 341:-1 342:-1 343:-1 344:-1 345:-1 346:1 347:-1 348:-1 349:-1 350:1 351:-1 352:-1 353:-1 354:-1 355:-1 356:-1 357:1 358:-1 359:-1 360:-1 
-1 1 1 1 1 1:-1 2:-1 3:-1 4:1 5:-1 6:-1 7:-1 8:-1 9:-1 10:1 11:-1 12:-1 13:-1 14:-1 15:-1 16:1 17:-1 18:-1 19:-1 20:-1 21:-1 22:1 23:-1 24:-1 25:-1 26:-1 27:-1 28:1 29:-1 30:-1 31:-1 32:-1 33:-1 34:1 35:-1 36:-1 37:-1 38:-1 39:-0.578948 40:0.578948 41:-1 42:-1 43:-1 44:-1 45:-1 46:-0.978947 47:0.978948 48:-1 49:-1 50:-1 51:-1 52:1 53:-1 54:-1 55:-1 56:-1 57:-0.11579 58:0.11579 59:-1 60:-1 61:-1 62:-1 63:-1 64:-1 65:1 66:-1 67:-1 68:-1 69:-1 70:1 71:-1 72:-1 73:-1 74:-1 75:1 76:-1 77:-1 78:-1 79:-1 80:-1 81:-1 82:0.91579 83:-0.915789 84:-1 85:-1 86:-1 87:-1 88:1 89:-1 90:-1 91:-1 92:-1 93:1 94:-1 95:-1 96:-1 97:-1 98:-1 99:-0.642106 100:0.642106 101:-1 102:-1 103:-1 104:-1 105:-1 106:0.157894 107:-0.157894 108:-1 109:-1 110:-1 111:1 112:-1 113:-1 114:-1 115:-1 116:-1 117:0.91579 118:-0.915789 119:-1 120:-1 121:-1 122:-1 123:-0.747368 124:-0.263158 125:0.0105259 126:-1 127:-1 128:-1 129:1 130:-1 131:-1 132:-1 133:-1 134:-1 135:0.936842 136:-0.936842 137:-1 138:-1 139:-1 140:-1 141:-0.473684 142:-0.642106 143:0.11579 144:-1 145:-1 146:-1 147:-1 148:1 149:-1 150:-1 151:-1 152:-1 153:-1 154:1 155:-1 156:-1 157:-1 158:-1 159:-0.768422 160:0.768422 161:-1 162:-1 163:-1 164:-1 165:-0.810526 166:0.810526 167:-1 168:-1 169:-1 170:-1 171:-0.726316 172:0.410526 173:-0.68421 174:-1 175:-1 176:-1 177:0.494736 178:-0.494736 179:-1 180:-1 181:-1 182:-1 183:-0.68421 184:0.68421 185:-1 186:-1 187:-1 188:-1 189:0.0105259 190:-0.663158 191:-0.347368 192:-1 193:-1 194:-0.936842 195:0.747368 196:-0.810526 197:-1 198:-1 199:-1 200:-1 201:-0.705264 202:0.473684 203:-0.768422 204:-1 205:-1 206:-0.873684 207:-0.094736 208:-0.726316 209:-0.452632 210:-0.852632 211:-1 212:-0.810526 213:0.621052 214:-0.810526 215:-1 216:-1 217:-1 218:-1 219:1 220:-1 221:-1 222:-1 223:-1 224:-1 225:1 226:-1 227:-1 228:-1 229:-1 230:-1 231:-0.705264 232:0.705264 233:-1 234:-1 235:-1 236:-1 237:1 238:-1 239:-1 240:-1 241:-1 242:1 243:-1 244:-1 245:-1 246:-1 247:-1 248:-1 249:1 250:-1 251:-1 252:-1 253:-1 254:0.936842 255:-0.936842 256:-1 257:-1 258:-1 259:1 260:-1 261:-1 262:-1 263:-1 264:-1 265:-1 266:1 267:-1 268:-1 269:-1 270:-1 271:-1 272:0.873684 273:-0.873684 274:-1 275:-1 276:-1 277:1 278:-1 279:-1 280:-1 281:-1 282:-1 283:-1 284:1 285:-1 286:-1 287:-1 288:-1 289:-1 290:-1 291:-1 292:1 293:-1 294:-1 295:-1 296:-1 297:1 298:-1 299:-1 300:-1 301:-1 302:-1 303:1 304:-1 305:-1 306:-1 307:-1 308:-1 309:-1 310:1 311:-1 312:-1 313:-1 314:1 315:-1 316:-1 317:-1 318:-1 319:-1 320:-1 321:1 322:-1 323:-1 324:-1 325:-1 326:-1 327:-1 328:1 329:-1 330:-1 331:1 332:-1 333:-1 334:-1 335:-1 336:-1 337:-1 338:0.578948 339:-0.578948 340:-1 341:-1 342:-1 343:-1 344:-1 345:-1 346:1 347:-1 348:-1 349:1 350:-1 351:-1 352:-1 353:-1 354:-1 355:-1 356:1 357:-1 358:-1 359:-1 360:-1 
-1 1 0.8880809923500573 1 1 1:-1 2:-1 3:-1 4:1 5:-1 6:-1 7:-1 8:-1 9:-1 10:1 11:-1 12:-1 13:-1 14:-1 15:-1 16:1 17:-1 18:-1 19:-1 20:-1 21:1 22:-1 23:-1 24:-1 25:-1 26:-1 27:-1 28:1 29:-1 30:-1 31:-1 32:-1 33:-1 34:1 35:-1 36:-1 37:-1 38:-1 39:1 40:-1 41:-1 42:-1 43:-1 44:-1 45:-1 46:1 47:-1 48:-1 49:-1 50:-1 51:-1 52:1 53:-1 54:-1 55:-1 56:-1 57:1 58:-1 59:-1 60:-1 61:-1 62:-1 63:-1 64:-1 65:1 66:-1 67:-1 68:-1 69:-1 70:1 71:-1 72:-1 73:-1 74:-1 75:1 76:-1 77:-1 78:-1 79:-1 80:-1 81:-1 82:1 83:-1 84:-1 85:-1 86:-1 87:-1 88:1 89:-1 90:-1 91:-1 92:-1 93:1 94:-1 95:-1 96:-1 97:-1 98:-1 99:1 100:-1 101:-1 102:-1 103:-1 104:-1 105:-0.859649 106:0.85965 107:-1 108:-1 109:-1 110:-0.894737 111:0.894736 112:-1 113:-1 114:-1 115:-1 116:-1 117:0.894736 118:-0.894737 119:-1 120:-1 121:-1 122:-1 123:0.964912 124:-0.964912 125:-1 126:-1 127:-1 128:-0.894737 129:0.894736 130:-1 131:-1 132:-1 133:-1 134:-0.929825 135:0.824562 136:-0.894737 137:-1 138:-1 139:-1 140:-1 141:1 142:-1 143:-1 144:-1 145:-1 146:-1 147:-1 148:1 149:-1 150:-1 151:-1 152:-1 153:-1 154:1 155:-1 156:-1 157:-1 158:-1 159:-1 160:1 161:-1 162:-1 163:-1 164:-1 165:-1 166:0.473684 167:-0.473684 168:-1 169:-1 170:-1 171:-1 172:1 173:-1 174:-1 175:-1 176:-1 177:-0.438596 178:0.438596 179:-1 180:-1 181:-1 182:-1 183:-1 184:0.824562 185:-0.824561 186:-1 187:-1 188:-1 189:-1 190:-1 191:1 192:-1 193:-1 194:-1 195:-0.052632 196:0.052632 197:-1 198:-1 199:-1 200:-1 201:-1 202:0.85965 203:-0.859649 204:-1 205:-1 206:-1 207:-1 208:-1 209:1 210:-1 211:-1 212:-1 213:-0.719298 214:0.719298 215:-1 216:-1 217:-1 218:-1 219:1 220:-1 221:-1 222:-1 223:-1 224:-1 225:1 226:-1 227:-1 228:-1 229:-1 230:-1 231:1 232:-1 233:-1 234:-1 235:-1 236:-1 237:1 238:-1 239:-1 240:-1 241:-1 242:-1 243:1 244:-1 245:-1 246:-1 247:-1 248:1 249:-1 250:-1 251:-1 252:-1 253:-1 254:-1 255:1 256:-1 257:-1 258:-1 259:-1 260:1 261:-1 262:-1 263:-1 264:-1 265:-1 266:1 267:-1 268:-1 269:-1 270:-1 271:-1 272:-1 273:1 274:-1 275:-1 276:-1 277:-1 278:1 279:-1 280:-1 281:-1 282:-1 283:-0.929825 284:0.929824 285:-1 286:-1 287:-1 288:-1 289:-1 290:-1 291:-1 292:1 293:-1 294:-1 295:-1 296:-1 297:1 298:-1 299:-1 300:-1 301:-1 302:-1 303:0.754386 304:-0.754386 305:-1 306:-1 307:-1 308:-1 309:-1 310:1 311:-1 312:-1 313:-1 314:-1 315:1 316:-1 317:-1 318:-1 319:-1 320:1 321:-1 322:-1 323:-1 324:-1 325:-1 326:-1 327:-1 328:1 329:-1 330:-1 331:-1 332:1 333:-1 334:-1 335:-1 336:-1 337:-1 338:1 339:-1 340:-1 341:-1 342:-1 343:-1 344:-1 345:-1 346:1 347:-1 348:-1 349:-1 350:0.403508 351:-0.403508 352:-1 353:-1 354:-1 355:-1 356:1 357:-1 358:-1 359:-1 360:-1 
-1 1 1 1 1 1:-1 2:-1 3:-1 4:1 5:-1 6:-1 7:-1 8:-1 9:-1 10:1 11:-1 12:-1 13:-1 14:-1 15:-1 16:1 17:-1 18:-1 19:-1 20:-1 21:-0.294118 22:0.294118 23:-1 24:-1 25:-1 26:-1 27:-1 28:1 29:-1 30:-1 31:-1 32:-1 33:-1 34:1 35:-1 36:-1 37:-1 38:-1 39:-0.960784 40:0.960784 41:-1 42:-1 43:-1 44:-1 45:-1 46:-1 47:1 48:-1 49:-1 50:-1 51:-0.960784 52:0.960784 53:-1 54:-1 55:-1 56:-1 57:0.019608 58:-0.019608 59:-1 60:-1 61:-1 62:-1 63:-1 64:-1 65:0.72549 66:-0.72549 67:-1 68:-1 69:-0.843137 70:0.843138 71:-1 72:-1 73:-1 74:-1 75:0.254902 76:-0.254902 77:-1 78:-1 79:-1 80:-1 81:-1 82:-0.019608 83:0.019608 84:-1 85:-1 86:-1 87:-0.019608 88:0.019608 89:-1 90:-1 91:-1 92:-1 93:1 94:-1 95:-1 96:-1 97:-1 98:-1 99:-1 100:0.843138 101:-0.843137 102:-1 103:-1 104:-1 105:-0.137254 106:0.137254 107:-1 108:-1 109:-1 110:-0.72549 111:0.72549 112:-1 113:-1 114:-1 115:-1 116:-1 117:0.254902 118:-0.372548 119:-0.882353 120:-1 121:-1 122:-0.764706 123:-0.411764 124:0.17647 125:-1 126:-1 127:-1 128:-0.72549 129:0.72549 130:-1 131:-1 132:-1 133:-1 134:-1 135:0.568628 136:-0.72549 137:-0.843137 138:-1 139:-1 140:-0.72549 141:-0.45098 142:0.17647 143:-1 144:-1 145:-1 146:-1 147:-1 148:1 149:-1 150:-1 151:-1 152:-1 153:-1 154:0.09804 155:-0.09804 156:-1 157:-1 158:-1 159:1 160:-1 161:-1 162:-1 163:-1 164:-1 165:-0.490196 166:0.490196 167:-1 168:-1 169:-1 170:-1 171:-1 172:-0.137254 173:0.137254 174:-1 175:-1 176:-1 177:1 178:-1 179:-1 180:-1 181:-1 182:-0.764706 183:-0.686274 184:0.137254 185:-0.686274 186:-1 187:-1 188:-1 189:-0.333334 190:-0.803922 191:0.137254 192:-1 193:-1 194:-0.72549 195:0.72549 196:-1 197:-1 198:-1 199:-1 200:-0.72549 201:-0.72549 202:0.09804 203:-0.647058 204:-1 205:-1 206:-1 207:-0.333334 208:-0.803922 209:0.137254 210:-1 211:-1 212:-0.72549 213:0.72549 214:-1 215:-1 216:-1 217:-1 218:-1 219:1 220:-1 221:-1 222:-1 223:-1 224:-1 225:1 226:-1 227:-1 228:-1 229:-1 230:-1 231:-1 232:1 233:-1 234:-1 235:-1 236:-1 237:1 238:-1 239:-1 240:-1 241:-1 242:0.921568 243:-0.921569 244:-1 245:-1 246:-1 247:-1 248:-1 249:-1 250:1 251:-1 252:-1 253:-1 254:-1 255:-0.215686 256:0.215686 257:-1 258:-1 259:0.72549 260:-0.72549 261:-1 262:-1 263:-1 264:-1 265:-1 266:-1 267:-0.372548 268:0.37255 269:-1 270:-1 271:-1 272:-1 273:-0.607844 274:0.607844 275:-1 276:-1 277:0.529412 278:-0.529412 279:-1 280:-1 281:-1 282:-1 283:-1 284:-1 285:0.529412 286:-0.529412 287:-1 288:-1 289:-1 290:-1 291:-1 292:1 293:-1 294:-1 295:-1 296:-1 297:1 298:-1 299:-1 300:-1 301:-1 302:-1 303:1 304:-1 305:-1 306:-1 307:-1 308:-1 309:-1 310:1 311:-1 312:-1 313:-1 314:0.960784 315:-0.960784 316:-1 317:-1 318:-1 319:-1 320:-1 321:1 322:-1 323:-1 324:-1 325:-1 326:-1 327:-1 328:1 329:-1 330:-1 331:0.254902 332:-0.254902 333:-1 334:-1 335:-1 336:-1 337:-1 338:-1 339:1 340:-1 341:-1 342:-1 343:-1 344:-1 345:-0.960784 346:0.960784 347:-1 348:-1 349:0.921568 350:-0.921569 351:-1 352:-1 353:-1 354:-1 355:-1 356:-1 357:1 358:-1 359:-1 360:-1 
-1 1 1 1 1 1:-1 2:-1 3:-1 4:1 5:-1 6:-1 7:-1 8:-1 9:-1 10:1 11:-1 12:-1 13:-1 14:-1 15:-1 16:1 17:-1 18:-1 19:-1 20:-1 21:-0.792 22:0.792 23:-1 24:-1 25:-1 26:-1 27:-1 28:1 29:-1 30:-1 31:-1 32:-1 33:-1 34:1 35:-1 36:-1 37:-1 38:-1 39:0.312 40:-0.312 41:-1 42:-1 43:-1 44:-1 45:-1 46:1 47:-1 48:-1 49:-1 50:-1 51:-1 52:1 53:-1 54:-1 55:-1 56:-1 57:0.52 58:-0.52 59:-1 60:-1 61:-1 62:-1 63:-1 64:-1 65:1 66:-1 67:-1 68:-1 69:-1 70:1 71:-1 72:-1 73:-1 74:-1 75:1 76:-1 77:-1 78:-1 79:-1 80:-1 81:-1 82:1 83:-1 84:-1 85:-1 86:-1 87:-1 88:1 89:-1 90:-1 91:-1 92:-1 93:1 94:-1 95:-1 96:-1 97:-1 98:-1 99:-1 100:1 101:-1 102:-1 103:-1 104:-1 105:-0.44 106:0.44 107:-1 108:-1 109:-1 110:-1 111:1 112:-1 113:-1 114:-1 115:-1 116:-1 117:1 118:-1 119:-1 120:-1 121:-1 122:-1 123:1 124:-1 125:-1 126:-1 127:-1 128:-1 129:1 130:-1 131:-1 132:-1 133:-1 134:-1 135:1 136:-1 137:-1 138:-1 139:-1 140:-1 141:1 142:-1 143:-1 144:-1 145:-1 146:-1 147:-1 148:1 149:-1 150:-1 151:-1 152:-1 153:-1 154:1 155:-1 156:-1 157:-1 158:-1 159:-0.456 160:0.456 161:-1 162:-1 163:-1 164:-1 165:-1 166:1 167:-1 168:-1 169:-1 170:-1 171:-1 172:1 173:-1 174:-1 175:-1 176:-1 177:0.568 178:-0.568 179:-1 180:-1 181:-1 182:-1 183:-0.92 184:0.92 185:-1 186:-1 187:-1 188:-1 189:-0.328 190:0.232 191:-0.904 192:-1 193:-1 194:-0.936 195:0.872 196:-0.936 197:-1 198:-1 199:-1 200:-1 201:-0.84 202:0.84 203:-1 204:-1 205:-1 206:-1 207:-0.36 208:0.216 209:-0.856 210:-1 211:-1 212:-0.92 213:0.92 214:-1 215:-1 216:-1 217:-1 218:-1 219:1 220:-1 221:-1 222:-1 223:-1 224:-1 225:1 226:-1 227:-1 228:-1 229:-1 230:-1 231:0.12 232:-0.12 233:-1 234:-1 235:-1 236:-1 237:0.392 238:-0.392 239:-1 240:-1 241:-1 242:-1 243:1 244:-1 245:-1 246:-1 247:-1 248:1 249:-1 250:-1 251:-1 252:-1 253:-1 254:-1 255:-0.408 256:0.408 257:-1 258:-1 259:-1 260:1 261:-1 262:-1 263:-1 264:-1 265:-1 266:1 267:-1 268:-1 269:-1 270:-1 271:-1 272:-1 273:-0.952 274:0.952 275:-1 276:-1 277:-1 278:1 279:-1 280:-1 281:-1 282:-1 283:-1 284:1 285:-1 286:-1 287:-1 288:-1 289:-1 290:-1 291:-1 292:1 293:-1 294:-1 295:-1 296:-1 297:1 298:-1 299:-1 300:-1 301:-1 302:-1 303:1 304:-1 305:-1 306:-1 307:-1 308:-1 309:-1 310:1 311:-1 312:-1 313:-1 314:-1 315:1 316:-1 317:-1 318:-1 319:-1 320:0.376 321:-0.376 322:-1 323:-1 324:-1 325:-1 326:-1 327:-1 328:1 329:-1 330:-1 331:-1 332:1 333:-1 334:-1 335:-1 336:-1 337:-1 338:1 339:-1 340:-1 341:-1 342:-1 343:-1 344:-1 345:-1 346:1 347:-1 348:-1 349:-1 350:1 351:-1 352:-1 353:-1 354:-1 355:-1 356:1 357:-1 358:-1 359:-1 360:-1 
-1 1 1 1 1 1:-1 2:-1 3:-1 4:1 5:-1 6:-1 7:-1 8:-1 9:-1 10:1 11:-1 12:-1 13:-1 14:-1 15:-1 16:1 17:-1 18:-1 19:-1 20:-1 21:1 22:-1 23:-1 24:-1 25:-1 26:-1 27:-1 28:1 29:-1 30:-1 31:-1 32:-1 33:-1 34:1 35:-1 36:-1 37:-1 38:-1 39:1 40:-1 41:-1 42:-1 43:-1 44:-1 45:-1 46:-0.775862 47:0.775862 48:-1 49:-1 50:-1 51:-1 52:1 53:-1 54:-1 55:-1 56:-1 57:0.13793 58:-0.137932 59:-1 60:-1 61:-1 62:-1 63:-1 64:-1 65:1 66:-1 67:-1 68:-1 69:-1 70:1 71:-1 72:-1 73:-1 74:-1 75:1 76:-1 77:-1 78:-1 79:-1 80:-1 81:-1 82:1 83:-1 84:-1 85:-1 86:-1 87:-0.034482 88:0.034482 89:-1 90:-1 91:-1 92:-1 93:1 94:-1 95:-1 96:-1 97:-1 98:-1 99:-1 100:1 101:-1 102:-1 103:-1 104:-1 105:1 106:-1 107:-1 108:-1 109:-1 110:-1 111:1 112:-1 113:-1 114:-1 115:-1 116:-1 117:1 118:-1 119:-1 120:-1 121:-1 122:-1 123:1 124:-1 125:-1 126:-1 127:-1 128:-1 129:1 130:-1 131:-1 132:-1 133:-1 134:-1 135:1 136:-1 137:-1 138:-1 139:-1 140:-1 141:1 142:-1 143:-1 144:-1 145:-1 146:-1 147:-1 148:1 149:-1 150:-1 151:-1 152:-1 153:-1 154:1 155:-1 156:-1 157:-1 158:-1 159:-1 160:1 161:-1 162:-1 163:-1 164:-1 165:-1 166:0.87931 167:-0.87931 168:-1 169:-1 170:-1 171:-1 172:1 173:-1 174:-1 175:-1 176:-1 177:-1 178:1 179:-1 180:-1 181:-1 182:-1 183:-1 184:0.75862 185:-0.75862 186:-1 187:-1 188:-1 189:0.206896 190:-0.25862 191:-0.948276 192:-1 193:-1 194:-1 195:-0.155172 196:0.155172 197:-1 198:-1 199:-1 200:-1 201:-1 202:0.689656 203:-0.689656 204:-1 205:-1 206:-1 207:0.206896 208:-0.5 209:-0.706896 210:-1 211:-1 212:-1 213:-0.12069 214:0.12069 215:-1 216:-1 217:-1 218:-1 219:1 220:-1 221:-1 222:-1 223:-1 224:-1 225:1 226:-1 227:-1 228:-1 229:-1 230:-1 231:1 232:-1 233:-1 234:-1 235:-1 236:-1 237:1 238:-1 239:-1 240:-1 241:-1 242:1 243:-1 244:-1 245:-1 246:-1 247:-1 248:-1 249:-0.017242 250:0.017242 251:-1 252:-1 253:-1 254:-1 255:1 256:-1 257:-1 258:-1 259:1 260:-1 261:-1 262:-1 263:-1 264:-1 265:-1 266:-1 267:-0.827586 268:0.827586 269:-1 270:-1 271:-1 272:-1 273:1 274:-1 275:-1 276:-1 277:1 278:-1 279:-1 280:-1 281:-1 282:-1 283:-1 284:-1 285:1 286:-1 287:-1 288:-1 289:-1 290:-1 291:-1 292:1 293:-1 294:-1 295:-1 296:-1 297:1 298:-1 299:-1 300:-1 301:-1 302:-1 303:-0.413794 304:0.413794 305:-1 306:-1 307:-1 308:-1 309:-1 310:1 311:-1 312:-1 313:-1 314:1 315:-1 316:-1 317:-1 318:-1 319:-1 320:-1 321:-1 322:1 323:-1 324:-1 325:-1 326:-1 327:-1 328:1 329:-1 330:-1 331:1 332:-1 333:-1 334:-1 335:-1 336:-1 337:-1 338:-1 339:-0.706896 340:0.706896 341:-1 342:-1 343:-1 344:-1 345:-1 346:1 347:-1 348:-1 349:1 350:-1 351:-1 352:-1 353:-1 354:-1 355:-1 356:-1 357:0.534482 358:-0.534482 359:-1 360:-1 
-1 1 1 1 1 1:-1 2:-1 3:-1 4:1 5:-1 6:-1 7:-1 8:-1 9:-1 10:1 11:-1 12:-1 13:-1 14:-1 15:-1 16:1 17:-1 18:-1 19:-1 20:-1 21:-0.051724 22:0.051724 23:-1 24:-1 25:-1 26:-1 27:-1 28:1 29:-1 30:-1 31:-1 32:-1 33:-1 34:1 35:-1 36:-1 37:-1 38:-1 39:-1 40:1 41:-1 42:-1 43:-1 44:-1 45:-1 46:1 47:-1 48:-1 49:-1 50:-1 51:-1 52:1 53:-1 54:-1 55:-1 56:-1 57:-1 58:1 59:-1 60:-1 61:-1 62:-1 63:-1 64:-1 65:1 66:-1 67:-1 68:-1 69:-1 70:1 71:-1 72:-1 73:-1 74:-1 75:0.034482 76:-0.034482 77:-1 78:-1 79:-1 80:-1 81:-1 82:1 83:-1 84:-1 85:-1 86:-1 87:-0.25862 88:0.25862 89:-1 90:-1 91:-1 92:-0.982759 93:0.051724 94:-0.068966 95:-1 96:-1 97:-1 98:-1 99:0.25862 100:-0.25862 101:-1 102:-1 103:-1 104:-1 105:0.431034 106:-0.431034 107:-1 108:-1 109:-1 110:-0.655172 111:0.655172 112:-1 113:-1 114:-1 115:-1 116:-1 117:-0.051724 118:0.051724 119:-1 120:-1 121:-1 122:-1 123:-1 124:1 125:-1 126:-1 127:-1 128:0.034482 129:-0.034482 130:-1 131:-1 132:-1 133:-1 134:-1 135:0.36207 136:-0.362068 137:-1 138:-1 139:-1 140:-1 141:-1 142:1 143:-1 144:-1 145:-1 146:-1 147:-1 148:1 149:-1 150:-1 151:-1 152:-1 153:-1 154:1 155:-1 156:-1 157:-1 158:-1 159:-1 160:1 161:-1 162:-1 163:-1 164:-1 165:-1 166:-0.75862 167:0.75862 168:-1 169:-1 170:-1 171:0.189656 172:-0.189656 173:-1 174:-1 175:-1 176:-1 177:0.982758 178:-0.982759 179:-1 180:-1 181:-1 182:-1 183:-1 184:-0.551724 185:0.551724 186:-1 187:-1 188:-1 189:0.12069 190:-0.672414 191:-0.448276 192:-1 193:-1 194:-1 195:0.948276 196:-0.948276 197:-1 198:-1 199:-1 200:-1 201:-1 202:-0.517242 203:0.517242 204:-1 205:-1 206:-1 207:0.086206 208:-0.74138 209:-0.344828 210:-1 211:-1 212:-0.293104 213:0.155172 214:-0.862069 215:-1 216:-1 217:-1 218:-1 219:0.793104 220:-0.793104 221:-1 222:-1 223:-1 224:-1 225:1 226:-1 227:-1 228:-1 229:-1 230:-1 231:1 232:-1 233:-1 234:-1 235:-1 236:-1 237:-0.965517 238:0.965518 239:-1 240:-1 241:-1 242:-1 243:1 244:-1 245:-1 246:-1 247:-1 248:1 249:-1 250:-1 251:-1 252:-1 253:-1 254:-1 255:-0.982759 256:0.982758 257:-1 258:-1 259:-1 260:0.672414 261:-0.672414 262:-1 263:-1 264:-1 265:-1 266:1 267:-1 268:-1 269:-1 270:-1 271:-1 272:-1 273:-0.965517 274:0.965518 275:-1 276:-1 277:-1 278:1 279:-1 280:-1 281:-1 282:-1 283:-0.87931 284:0.87931 285:-1 286:-1 287:-1 288:-1 289:-1 290:-1 291:-0.034482 292:0.034482 293:-1 294:-1 295:-1 296:-1 297:1 298:-1 299:-1 300:-1 301:-1 302:-1 303:0.206896 304:-0.206896 305:-1 306:-1 307:-1 308:-1 309:-1 310:1 311:-1 312:-1 313:-1 314:-1 315:1 316:-1 317:-1 318:-1 319:-1 320:1 321:-1 322:-1 323:-1 324:-1 325:-1 326:-1 327:-1 328:-0.327586 329:0.327586 330:-1 331:-1 332:1 333:-1 334:-1 335:-1 336:-1 337:-1 338:1 339:-1 340:-1 341:-1 342:-1 343:-1 344:-1 345:-1 346:-0.672414 347:0.672414 348:-1 349:-1 350:1 351:-1 352:-1 353:-1 354:-1 355:-0.948276 356:0.948276 357:-1 358:-1 359:-1 360:-1 
-1 1 1 1 1 1:-1 2:-1 3:-1 4:1 5:-1 6:-1 7:-1 8:-1 9:-1 10:1 11:-1 12:-1 13:-1 14:-1 15:-1 16:1 17:-1 18:-1 19:-1 20:-1 21:1 22:-1 23:-1 24:-1 25:-1 26:-1 27:-1 28:1 29:-1 30:-1 31:-1 32:-1 33:-1 34:1 35:-1 36:-1 37:-1 38:-1 39:1 40:-1 41:-1 42:-1 43:-1 44:-1 45:-1 46:-1 47:1 48:-1 49:-1 50:-1 51:-1 52:1 53:-1 54:-1 55:-1 56:-1 57:0.456 58:-0.456 59:-1 60:-1 61:-1 62:-1 63:-1 64:-1 65:1 66:-1 67:-1 68:-1 69:-1 70:1 71:-1 72:-1 73:-1 74:-1 75:1 76:-1 77:-1 78:-1 79:-1 80:-1 81:-1 82:1 83:-1 84:-1 85:-1 86:-1 87:-1 88:1 89:-1 90:-1 91:-1 92:-1 93:1 94:-1 95:-1 96:-1 97:-1 98:-1 99:-1 100:1 101:-1 102:-1 103:-1 104:-1 105:-0.728 106:0.728 107:-1 108:-1 109:-1 110:-1 111:1 112:-1 113:-1 114:-1 115:-1 116:-1 117:1 118:-1 119:-1 120:-1 121:-1 122:-1 123:1 124:-1 125:-1 126:-1 127:-1 128:-1 129:1 130:-1 131:-1 132:-1 133:-1 134:-1 135:1 136:-1 137:-1 138:-1 139:-1 140:-1 141:1 142:-1 143:-1 144:-1 145:-1 146:-1 147:-1 148:1 149:-1 150:-1 151:-1 152:-1 153:-1 154:1 155:-1 156:-1 157:-1 158:-1 159:-1 160:1 161:-1 162:-1 163:-1 164:-1 165:-1 166:1 167:-1 168:-1 169:-1 170:-1 171:-1 172:1 173:-1 174:-1 175:-1 176:-1 177:-0.904 178:0.904 179:-1 180:-1 181:-1 182:-1 183:-1 184:0.856 185:-0.856 186:-1 187:-1 188:-1 189:0.52 190:-0.52 191:-1 192:-1 193:-1 194:-1 195:0.6 196:-0.6 197:-1 198:-1 199:-1 200:-1 201:-0.984 202:0.408 203:-0.424 204:-1 205:-1 206:-1 207:0.536 208:-0.536 209:-1 210:-1 211:-1 212:-1 213:0.76 214:-0.76 215:-1 216:-1 217:-1 218:-1 219:1 220:-1 221:-1 222:-1 223:-1 224:-1 225:1 226:-1 227:-1 228:-1 229:-1 230:-1 231:1 232:-1 233:-1 234:-1 235:-1 236:-1 237:1 238:-1 239:-1 240:-1 241:-1 242:1 243:-1 244:-1 245:-1 246:-1 247:-1 248:-1 249:1 250:-1 251:-1 252:-1 253:-1 254:-1 255:1 256:-1 257:-1 258:-1 259:1 260:-1 261:-1 262:-1 263:-1 264:-1 265:-1 266:-1 267:-1 268:1 269:-1 270:-1 271:-1 272:-1 273:1 274:-1 275:-1 276:-1 277:1 278:-1 279:-1 280:-1 281:-1 282:-1 283:-1 284:-1 285:1 286:-1 287:-1 288:-1 289:-1 290:-1 291:-1 292:1 293:-1 294:-1 295:-1 296:-1 297:1 298:-1 299:-1 300:-1 301:-1 302:-1 303:0.888 304:-0.888 305:-1 306:-1 307:-1 308:-1 309:-1 310:1 311:-1 312:-1 313:-1 314:1 315:-1 316:-1 317:-1 318:-1 319:-1 320:-1 321:-1 322:1 323:-1 324:-1 325:-1 326:-1 327:-1 328:1 329:-1 330:-1 331:1 332:-1 333:-1 334:-1 335:-1 336:-1 337:-1 338:-1 339:-1 340:1 341:-1 342:-1 343:-1 344:-1 345:-1 346:1 347:-1 348:-1 349:1 350:-1 351:-1 352:-1 353:-1 354:-1 355:-1 356:-1 357:1 358:-1 359:-1 360:-1 
-1 1 1 1 1 1:-1 2:-1 3:-1 4:1 5:-1 6:-1 7:-1 8:-1 9:-1 10:1 11:-1 12:-1 13:-1 14:-1 15:-1 16:1 17:-1 18:-1 19:-1 20:-1 21:-0.918033 22:0.918032 23:-1 24:-1 25:-1 26:-1 27:-1 28:1 29:-1 30:-1 31:-1 32:-1 33:-1 34:1 35:-1 36:-1 37:-1 38:-1 39:-1 40:1 41:-1 42:-1 43:-1 44:-1 45:-1 46:-0.786886 47:0.786886 48:-1 49:-1 50:-1 51:-1 52:1 53:-1 54:-1 55:-1 56:-1 57:-0.606558 58:0.606558 59:-1 60:-1 61:-1 62:-1 63:-1 64:-1 65:1 66:-1 67:-1 68:-1 69:-0.672132 70:0.672132 71:-1 72:-1 73:-1 74:-1 75:1 76:-1 77:-1 78:-1 79:-1 80:-1 81:-1 82:0.95082 83:-0.95082 84:-1 85:-1 86:-1 87:-0.967213 88:0.967214 89:-1 90:-1 91:-1 92:-1 93:1 94:-1 95:-1 96:-1 97:-1 98:-1 99:-1 100:1 101:-1 102:-1 103:-1 104:-1 105:1 106:-1 107:-1 108:-1 109:-1 110:-1 111:0.95082 112:-0.95082 113:-1 114:-1 115:-1 116:-1 117:-0.409836 118:0 119:-0.590164 120:-1 121:-1 122:-1 123:1 124:-1 125:-1 126:-1 127:-1 128:-1 129:0.262296 130:-0.262296 131:-1 132:-1 133:-1 134:-1 135:-0.393442 136:-0.278688 137:-0.327868 138:-1 139:-1 140:-0.163934 141:0.163934 142:-1 143:-1 144:-1 145:-1 146:-1 147:-1 148:1 149:-1 150:-1 151:-1 152:-1 153:-1 154:1 155:-1 156:-1 157:-1 158:-1 159:-0.327868 160:0.327868 161:-1 162:-1 163:-1 164:-1 165:-1 166:1 167:-1 168:-1 169:-1 170:-1 171:-1 172:0.688524 173:-0.688524 174:-1 175:-1 176:-1 177:1 178:-1 179:-1 180:-1 181:-1 182:-1 183:-1 184:1 185:-1 186:-1 187:-1 188:-1 189:-0.180328 190:-0.590164 191:-0.327868 192:-0.901639 193:-1 194:-0.590164 195:0.590164 196:-1 197:-1 198:-1 199:-1 200:-1 201:-0.934426 202:0.934426 203:-1 204:-1 205:-1 206:-1 207:-0.131148 208:-0.655738 209:-0.360656 210:-0.852459 211:-1 212:0.393442 213:-0.393442 214:-1 215:-1 216:-1 217:-1 218:-1 219:1 220:-1 221:-1 222:-1 223:-1 224:-1 225:1 226:-1 227:-1 228:-1 229:-1 230:-1 231:0.639344 232:-0.639344 233:-1 234:-1 235:-1 236:-1 237:1 238:-1 239:-1 240:-1 241:-1 242:-1 243:1 244:-1 245:-1 246:-1 247:-1 248:0.14754 249:-0.14754 250:-1 251:-1 252:-1 253:-1 254:-1 255:1 256:-1 257:-1 258:-1 259:-1 260:1 261:-1 262:-1 263:-1 264:-1 265:-1 266:1 267:-1 268:-1 269:-1 270:-1 271:-1 272:-1 273:1 274:-1 275:-1 276:-1 277:-1 278:1 279:-1 280:-1 281:-1 282:-1 283:-1 284:1 285:-1 286:-1 287:-1 288:-1 289:-1 290:-1 291:-1 292:1 293:-1 294:-1 295:-1 296:-1 297:1 298:-1 299:-1 300:-1 301:-1 302:-1 303:1 304:-1 305:-1 306:-1 307:-1 308:-1 309:-1 310:1 311:-1 312:-1 313:-1 314:-1 315:1 316:-1 317:-1 318:-1 319:-1 320:-0.770492 321:0.770492 322:-1 323:-1 324:-1 325:-1 326:-1 327:-1 328:1 329:-1 330:-1 331:-1 332:1 333:-1 334:-1 335:-1 336:-1 337:-1 338:0.885246 339:-0.885246 340:-1 341:-1 342:-1 343:-1 344:-1 345:-1 346:1 347:-1 348:-1 349:-1 350:1 351:-1 352:-1 353:-1 354:-1 355:-1 356:1 357:-1 358:-1 359:-1 360:-1 
-1 0.7384675920225723 1 1 1 1:-1 2:-1 3:-1 4:1 5:-1 6:-1 7:-1 8:-1 9:-1 10:1 11:-1 12:-1 13:-1 14:-1 15:-1 16:1 17:-1 18:-1 19:-1 20:-1 21:-1 22:1 23:-1 24:-1 25:-1 26:-1 27:-1 28:1 29:-1 30:-1 31:-1 32:-1 33:-1 34:1 35:-1 36:-1 37:-1 38:-1 39:-0.643564 40:0.643564 41:-1 42:-1 43:-1 44:-1 45:-1 46:-1 47:1 48:-1 49:-1 50:-1 51:-1 52:1 53:-1 54:-1 55:-1 56:-1 57:0.267326 58:-0.267326 59:-1 60:-1 61:-1 62:-1 63:-1 64:-1 65:1 66:-1 67:-1 68:-1 69:-0.722772 70:0.722772 71:-1 72:-1 73:-1 74:-1 75:1 76:-1 77:-1 78:-1 79:-1 80:-1 81:-1 82:0.960396 83:-0.960396 84:-1 85:-1 86:-1 87:-1 88:1 89:-1 90:-1 91:-1 92:-1 93:1 94:-1 95:-1 96:-1 97:-1 98:-1 99:-1 100:1 101:-1 102:-1 103:-1 104:-1 105:-1 106:1 107:-1 108:-1 109:-1 110:-1 111:1 112:-1 113:-1 114:-1 115:-1 116:-1 117:-0.80198 118:0.80198 119:-1 120:-1 121:-1 122:-1 123:0.544554 124:-0.544554 125:-1 126:-1 127:-1 128:-1 129:1 130:-1 131:-1 132:-1 133:-1 134:-1 135:-0.544554 136:0.386138 137:-0.841584 138:-1 139:-1 140:-1 141:0.861386 142:-0.861386 143:-1 144:-1 145:-1 146:-1 147:-1 148:1 149:-1 150:-1 151:-1 152:-1 153:-1 154:1 155:-1 156:-1 157:-1 158:-1 159:1 160:-1 161:-1 162:-1 163:-1 164:-1 165:-0.782178 166:0.782178 167:-1 168:-1 169:-1 170:-1 171:-1 172:0.881188 173:-0.881188 174:-1 175:-1 176:-1 177:1 178:-1 179:-1 180:-1 181:-1 182:-1 183:-0.128712 184:0.128712 185:-1 186:-1 187:-1 188:-1 189:0.168316 190:-0.782178 191:-0.386138 192:-1 193:-1 194:-0.861386 195:0.861386 196:-1 197:-1 198:-1 199:-1 200:-1 201:-0.049504 202:0.049504 203:-1 204:-1 205:-1 206:-1 207:0.168316 208:-0.841584 209:-0.326732 210:-1 211:-1 212:-0.70297 213:0.70297 214:-1 215:-1 216:-1 217:-1 218:-1 219:1 220:-1 221:-1 222:-1 223:-1 224:-1 225:1 226:-1 227:-1 228:-1 229:-1 230:-1 231:-1 232:1 233:-1 234:-1 235:-1 236:-1 237:1 238:-1 239:-1 240:-1 241:-1 242:1 243:-1 244:-1 245:-1 246:-1 247:-1 248:-1 249:-1 250:1 251:-1 252:-1 253:-1 254:-1 255:0.881188 256:-0.881188 257:-1 258:-1 259:1 260:-1 261:-1 262:-1 263:-1 264:-1 265:-1 266:-1 267:-1 268:1 269:-1 270:-1 271:-1 272:-1 273:1 274:-1 275:-1 276:-1 277:1 278:-1 279:-1 280:-1 281:-1 282:-1 283:-1 284:-1 285:-0.465346 286:0.465346 287:-1 288:-1 289:-1 290:-1 291:-1 292:1 293:-1 294:-1 295:-1 296:-1 297:1 298:-1 299:-1 300:-1 301:-1 302:-1 303:1 304:-1 305:-1 306:-1 307:-1 308:-1 309:-1 310:1 311:-1 312:-1 313:-1 314:1 315:-1 316:-1 317:-1 318:-1 319:-1 320:-1 321:-0.267326 322:0.267326 323:-1 324:-1 325:-1 326:-1 327:-1 328:1 329:-1 330:-1 331:1 332:-1 333:-1 334:-1 335:-1 336:-1 337:-1 338:-1 339:-1 340:1 341:-1 342:-1 343:-1 344:-1 345:-1 346:1 347:-1 348:-1 349:1 350:-1 351:-1 352:-1 353:-1 354:-1 355:-1 356:-1 357:-0.564356 358:0.564356 359:-1 360:-1 
-1 1 1 1 1 1:-1 2:-1 3:-1 4:1 5:-1 6:-1 7:-1 8:-1 9:-1 10:1 11:-1 12:-1 13:-1 14:-1 15:-1 16:1 17:-1 18:-1 19:-1 20:-1 21:0.683334 22:-0.683334 23:-1 24:-1 25:-1 26:-1 27:-1 28:1 29:-1 30:-1 31:-1 32:-1 33:1 34:-1 35:-1 36:-1 37:-1 38:-1 39:0.683334 40:-0.683334 41:-1 42:-1 43:-1 44:-1 45:-1 46:1 47:-1 48:-1 49:-1 50:-1 51:1 52:-1 53:-1 54:-1 55:-1 56:-1 57:-0.516666 58:0.516666 59:-1 60:-1 61:-1 62:-1 63:-1 64:-1 65:1 66:-1 67:-1 68:-1 69:1 70:-1 71:-1 72:-1 73:-1 74:-1 75:1 76:-1 77:-1 78:-1 79:-1 80:-1 81:-1 82:1 83:-1 84:-1 85:-1 86:-1 87:1 88:-1 89:-1 90:-1 91:-1 92:-1 93:1 94:-1 95:-1 96:-1 97:-1 98:-1 99:-1 100:1 101:-1 102:-1 103:-1 104:-1 105:1 106:-1 107:-1 108:-1 109:-1 110:-1 111:1 112:-1 113:-1 114:-1 115:-1 116:-1 117:1 118:-1 119:-1 120:-1 121:-1 122:-1 123:1 124:-1 125:-1 126:-1 127:-1 128:-1 129:1 130:-1 131:-1 132:-1 133:-1 134:-1 135:1 136:-1 137:-1 138:-1 139:-1 140:-0.933333 141:0.933334 142:-1 143:-1 144:-1 145:-1 146:-1 147:-1 148:1 149:-1 150:-1 151:-1 152:-1 153:-1 154:1 155:-1 156:-1 157:-1 158:-1 159:-1 160:1 161:-1 162:-1 163:-1 164:-1 165:-1 166:1 167:-1 168:-1 169:-1 170:-1 171:-0.983333 172:0.983334 173:-1 174:-1 175:-1 176:-1 177:-0.4 178:0.4 179:-1 180:-1 181:-1 182:-1 183:-1 184:0.783334 185:-0.783334 186:-1 187:-1 188:-1 189:0.633334 190:-0.633334 191:-1 192:-1 193:-1 194:-1 195:1 196:-1 197:-1 198:-1 199:-1 200:-1 201:-1 202:0.766666 203:-0.766666 204:-1 205:-1 206:-1 207:0.733334 208:-0.733334 209:-1 210:-1 211:-1 212:-0.9 213:0.9 214:-1 215:-1 216:-1 217:-1 218:-1 219:1 220:-1 221:-1 222:-1 223:-1 224:-1 225:1 226:-1 227:-1 228:-1 229:-1 230:-1 231:1 232:-1 233:-1 234:-1 235:-1 236:-1 237:1 238:-1 239:-1 240:-1 241:-1 242:-1 243:1 244:-1 245:-1 246:-1 247:-1 248:1 249:-1 250:-1 251:-1 252:-1 253:-1 254:-1 255:1 256:-1 257:-1 258:-1 259:-1 260:1 261:-1 262:-1 263:-1 264:-1 265:-1 266:0.616666 267:-0.616666 268:-1 269:-1 270:-1 271:-1 272:-1 273:1 274:-1 275:-1 276:-1 277:-1 278:-0.5 279:0.5 280:-1 281:-1 282:-1 283:-1 284:1 285:-1 286:-1 287:-1 288:-1 289:-1 290:-1 291:-1 292:1 293:-1 294:-1 295:-1 296:-1 297:1 298:-1 299:-1 300:-1 301:-1 302:-1 303:-1 304:1 305:-1 306:-1 307:-1 308:-1 309:-1 310:1 311:-1 312:-1 313:-1 314:-1 315:1 316:-1 317:-1 318:-1 319:-1 320:-1 321:1 322:-1 323:-1 324:-1 325:-1 326:-1 327:-1 328:1 329:-1 330:-1 331:-1 332:1 333:-1 334:-1 335:-1 336:-1 337:-1 338:-0.8 339:0.8 340:-1 341:-1 342:-1 343:-1 344:-1 345:-1 346:1 347:-1 348:-1 349:-1 350:0.0166661 351:-0.016666 352:-1 353:-1 354:-1 355:-1 356:0.233334 357:-0.233334 358:-1 359:-1 360:-1 
-1 1 1 1 1 1:-1 2:-1 3:-1 4:1 5:-1 6:-1 7:-1 8:-1 9:-1 10:1 11:-1 12:-1 13:-1 14:-1 15:-1 16:1 17:-1 18:-1 19:-1 20:-1 21:1 22:-1 23:-1 24:-1 25:-1 26:-1 27:-1 28:1 29:-1 30:-1 31:-1 32:-1 33:-1 34:1 35:-1 36:-1 37:-1 38:-1 39:1 40:-1 41:-1 42:-1 43:-1 44:-1 45:-1 46:-1 47:1 48:-1 49:-1 50:-1 51:-1 52:1 53:-1 54:-1 55:-1 56:-1 57:-0.836478 58:0.836478 59:-1 60:-1 61:-1 62:-1 63:-1 64:-1 65:1 66:-1 67:-1 68:-1 69:-1 70:1 71:-1 72:-1 73:-1 74:-1 75:1 76:-1 77:-1 78:-1 79:-1 80:-1 81:-1 82:1 83:-1 84:-1 85:-1 86:-1 87:0.408806 88:-0.408806 89:-1 90:-1 91:-1 92:-1 93:1 94:-1 95:-1 96:-1 97:-1 98:-1 99:-1 100:1 101:-1 102:-1 103:-1 104:-1 105:0.597484 106:-0.597484 107:-1 108:-1 109:-1 110:-0.698114 111:0.698114 112:-1 113:-1 114:-1 115:-1 116:-1 117:1 118:-1 119:-1 120:-1 121:-1 122:-1 123:0.63522 124:-0.63522 125:-1 126:-1 127:-1 128:-0.698114 129:0.698114 130:-1 131:-1 132:-1 133:-1 134:-1 135:1 136:-1 137:-1 138:-1 139:-1 140:-1 141:0.63522 142:-0.63522 143:-1 144:-1 145:-1 146:-1 147:-1 148:1 149:-1 150:-1 151:-1 152:-1 153:-1 154:1 155:-1 156:-1 157:-1 158:-1 159:-1 160:1 161:-1 162:-1 163:-1 164:-1 165:-1 166:0.899372 167:-0.899371 168:-1 169:-1 170:-1 171:-1 172:1 173:-1 174:-1 175:-1 176:-1 177:-0.886792 178:0.886792 179:-1 180:-1 181:-1 182:-1 183:-1 184:0.836478 185:-0.836478 186:-1 187:-1 188:-1 189:0.622642 190:-0.647798 191:-0.974843 192:-1 193:-1 194:-1 195:-0.534592 196:0.534592 197:-1 198:-1 199:-1 200:-1 201:-1 202:0.836478 203:-0.836478 204:-1 205:-1 206:-1 207:0.685534 208:-0.72327 209:-0.962264 210:-1 211:-1 212:-0.974843 213:-0.345912 214:0.320754 215:-1 216:-1 217:-1 218:-1 219:1 220:-1 221:-1 222:-1 223:-1 224:-1 225:1 226:-1 227:-1 228:-1 229:-1 230:-1 231:1 232:-1 233:-1 234:-1 235:-1 236:-1 237:1 238:-1 239:-1 240:-1 241:-1 242:1 243:-1 244:-1 245:-1 246:-1 247:-1 248:-1 249:1 250:-1 251:-1 252:-1 253:-1 254:-1 255:1 256:-1 257:-1 258:-1 259:1 260:-1 261:-1 262:-1 263:-1 264:-1 265:-1 266:-1 267:1 268:-1 269:-1 270:-1 271:-1 272:-1 273:1 274:-1 275:-1 276:-1 277:1 278:-1 279:-1 280:-1 281:-1 282:-1 283:-1 284:-1 285:1 286:-1 287:-1 288:-1 289:-1 290:-1 291:-1 292:1 293:-1 294:-1 295:-1 296:-1 297:1 298:-1 299:-1 300:-1 301:-1 302:-1 303:-1 304:1 305:-1 306:-1 307:-1 308:-1 309:-1 310:1 311:-1 312:-1 313:-1 314:1 315:-1 316:-1 317:-1 318:-1 319:-1 320:-1 321:-0.471698 322:0.471698 323:-1 324:-1 325:-1 326:-1 327:-1 328:1 329:-1 330:-1 331:1 332:-1 333:-1 334:-1 335:-1 336:-1 337:-1 338:-1 339:0.81132 340:-0.811321 341:-1 342:-1 343:-1 344:-1 345:-1 346:1 347:-1 348:-1 349:1 350:-1 351:-1 352:-1 353:-1 354:-1 355:-1 356:-1 357:1 358:-1 359:-1 360:-1 
-1 -1 1 1 1 1:-1 2:-1 3:-1 4:1 5:-1 6:-1 7:-1 8:-1 9:-1 10:1 11:-1 12:-1 13:-1 14:-1 15:-1 16:1 17:-1 18:-1 19:-1 20:-1 21:0.58209 22:-0.58209 23:-1 24:-1 25:-1 26:-1 27:-1 28:1 29:-1 30:-1 31:-1 32:-1 33:-0.094528 34:0.094528 35:-1 36:-1 37:-1 38:-0.980099 39:0.56219 40:-0.58209 41:-1 42:-1 43:-1 44:-1 45:-1 46:0.910448 47:-0.910448 48:-1 49:-1 50:-1 51:-0.23383 52:0.23383 53:-1 54:-1 55:-1 56:-0.303482 57:-0.114428 58:-0.58209 59:-1 60:-1 61:-1 62:-1 63:-1 64:-0.19403 65:0.19403 66:-1 67:-1 68:-1 69:-0.23383 70:0.23383 71:-1 72:-1 73:-1 74:-1 75:0.960198 76:-0.960199 77:-1 78:-1 79:-1 80:-1 81:-1 82:1 83:-1 84:-1 85:-1 86:-1 87:-0.383084 88:0.134328 89:-0.751244 90:-1 91:-1 92:-0.860697 93:0.253732 94:-0.393034 95:-1 96:-1 97:-1 98:-1 99:0.452736 100:-0.452736 101:-1 102:-1 103:-1 104:-1 105:0.144278 106:-0.154228 107:-0.99005 108:-1 109:-1 110:-0.741294 111:0.61194 112:-0.870647 113:-1 114:-1 115:-1 116:-1 117:0.094528 118:-0.094528 119:-1 120:-1 121:-1 122:-1 123:0.940298 124:-0.940299 125:-1 126:-1 127:-1 128:-0.711442 129:0.402986 130:-0.691542 131:-1 132:-1 133:-1 134:-1 135:0.104478 136:-0.104478 137:-1 138:-1 139:-1 140:-0.960199 141:0.960198 142:-1 143:-1 144:-1 145:-1 146:-0.950249 147:-0.044776 148:-0.00497597 149:-1 150:-1 151:-1 152:-1 153:-0.950249 154:0.950248 155:-1 156:-1 157:-1 158:-1 159:-0.22388 160:0.21393 161:-0.99005 162:-1 163:-1 164:-1 165:0.104478 166:-0.104478 167:-1 168:-1 169:-1 170:-1 171:-0.56219 172:0.56219 173:-1 174:-1 175:-1 176:-1 177:0.761194 178:-0.761194 179:-1 180:-1 181:-1 182:-1 183:-0.761194 184:0.721392 185:-0.960199 186:-1 187:-1 188:-1 189:0.014926 190:-0.014926 191:-1 192:-1 193:-1 194:-1 195:0.900498 196:-0.900498 197:-1 198:-1 199:-1 200:-1 201:-0.781094 202:0.63184 203:-0.850746 204:-1 205:-1 206:-1 207:0.074626 208:-0.074626 209:-1 210:-1 211:-1 212:-0.313432 213:-0.16418 214:-0.522388 215:-1 216:-1 217:-1 218:-1 219:0.034826 220:-0.034826 221:-1 222:-1 223:-1 224:-1 225:0.890548 226:-0.890547 227:-1 228:-1 229:-1 230:-1 231:0.552238 232:-0.552238 233:-1 234:-1 235:-1 236:-1 237:-0.422886 238:-0.761194 239:0.18408 240:-1 241:-1 242:-1 243:1 244:-1 245:-1 246:-1 247:-1 248:-0.691542 249:0.691542 250:-1 251:-1 252:-1 253:-1 254:-1 255:-0.422886 256:-0.761194 257:0.154228 258:-0.970149 259:-1 260:0.900498 261:-0.900498 262:-1 263:-1 264:-1 265:-1 266:0.124378 267:-0.124378 268:-1 269:-1 270:-1 271:-1 272:-1 273:-0.422886 274:-0.820896 275:0.20398 276:-0.960199 277:-1 278:0.960198 279:-0.960199 280:-1 281:-1 282:-1 283:-1 284:0.144278 285:-0.144278 286:-1 287:-1 288:-1 289:-1 290:-1 291:-0.980099 292:0.9801 293:-1 294:-1 295:-1 296:-1 297:1 298:-1 299:-1 300:-1 301:-1 302:-1 303:-0.124378 304:0.124378 305:-1 306:-1 307:-1 308:-1 309:-1 310:0.243782 311:-0.243782 312:-1 313:-1 314:-0.940299 315:0.19403 316:-0.253732 317:-1 318:-1 319:-1 320:-0.830846 321:0.830846 322:-1 323:-1 324:-1 325:-1 326:-1 327:-1 328:-0.383084 329:0.293532 330:-0.910448 331:-1 332:0.23383 333:-0.23383 334:-1 335:-1 336:-1 337:-1 338:0.870646 339:-0.870647 340:-1 341:-1 342:-1 343:-1 344:-1 345:-1 346:-0.442786 347:0.323384 348:-0.880597 349:-1 350:0.23383 351:-0.23383 352:-1 353:-1 354:-1 355:-1 356:0.870646 357:-0.870647 358:-1 359:-1 360:-1 
-1 -1 1 1 1 1:-1 2:-1 3:-1 4:1 5:-1 6:-1 7:-1 8:-1 9:-1 10:1 11:-1 12:-1 13:-1 14:-1 15:-1 16:1 17:-1 18:-1 19:-1 20:-1 21:0.48421 22:-0.48421 23:-1 24:-1 25:-1 26:-1 27:-0.578948 28:0.578948 29:-1 30:-1 31:-1 32:-1 33:-0.6 34:0.6 35:-1 36:-1 37:-1 38:-0.968421 39:0.642106 40:-0.673684 41:-1 42:-1 43:-1 44:-1 45:-0.810526 46:0.052632 47:-0.242106 48:-1 49:-1 50:-1 51:-0.452632 52:0.452632 53:-1 54:-1 55:-1 56:-0.810526 57:0.263158 58:-0.452632 59:-1 60:-1 61:-1 62:-1 63:-1 64:-0.189474 65:0.189474 66:-1 67:-1 68:-1 69:-0.568422 70:0.568422 71:-1 72:-1 73:-1 74:-0.915789 75:0.757894 76:-0.842105 77:-1 78:-1 79:-1 80:-1 81:-0.905263 82:0.852632 83:-0.947368 84:-1 85:-1 86:-1 87:-0.294736 88:0.294736 89:-1 90:-1 91:-1 92:-0.547368 93:0.536842 94:-0.989474 95:-1 96:-1 97:-1 98:-1 99:-0.71579 100:0.71579 101:-1 102:-1 103:-1 104:-1 105:-0.2 106:0.2 107:-1 108:-1 109:-1 110:-0.473684 111:0.452632 112:-0.978947 113:-1 114:-1 115:-1 116:-1 117:0.221052 118:-0.326316 119:-0.894737 120:-1 121:-1 122:-0.915789 123:0.589474 124:-0.673684 125:-1 126:-1 127:-0.968421 128:-0.463158 129:0.305264 130:-0.873684 131:-1 132:-1 133:-1 134:-1 135:0.263158 136:-0.473684 137:-0.789474 138:-1 139:-1 140:-0.663158 141:0.494736 142:-0.831579 143:-1 144:-1 145:-1 146:-1 147:-0.810526 148:0.789474 149:-0.978947 150:-1 151:-1 152:-1 153:-0.894737 154:0.894736 155:-1 156:-1 157:-1 158:-1 159:-0.294736 160:0.294736 161:-1 162:-1 163:-1 164:-1 165:-0.978947 166:0.31579 167:-0.336842 168:-1 169:-1 170:-1 171:-0.894737 172:0.873684 173:-0.978947 174:-1 175:-1 176:-1 177:-0.168422 178:0.157894 179:-0.989474 180:-1 181:-1 182:-1 183:-0.978947 184:0.210526 185:-0.842105 186:-0.389474 187:-1 188:-1 189:0.094736 190:-0.157894 191:-0.936842 192:-1 193:-1 194:-1 195:0.88421 196:-0.884211 197:-1 198:-1 199:-1 200:-1 201:-0.989474 202:0.2 203:-0.852632 204:-0.357894 205:-1 206:-1 207:0.147368 208:-0.210526 209:-0.936842 210:-1 211:-1 212:-1 213:0.947368 214:-0.947368 215:-1 216:-1 217:-1 218:-1 219:0.31579 220:-0.31579 221:-1 222:-1 223:-1 224:-1 225:0.873684 226:-0.873684 227:-1 228:-1 229:-1 230:-0.936842 231:0.631578 232:-0.694736 233:-1 234:-1 235:-1 236:-1 237:-0.105264 238:-0.442106 239:-0.51579 240:-0.936842 241:-1 242:-0.221052 243:0.11579 244:-0.894737 245:-1 246:-1 247:-1 248:-0.11579 249:-0.305264 250:-0.578948 251:-1 252:-1 253:-1 254:-1 255:-0.010526 256:-0.610526 257:-0.505264 258:-0.873684 259:-0.242106 260:-0.147368 261:-0.610526 262:-1 263:-1 264:-1 265:-0.863158 266:-0.147368 267:-0.48421 268:-0.505264 269:-1 270:-1 271:-1 272:-1 273:-0.031578 274:-0.642106 275:-0.557894 276:-0.768422 277:-0.210526 278:-0.052632 279:-0.736842 280:-1 281:-1 282:-1 283:-0.8 284:-0.2 285:-0.08421 286:-0.915789 287:-1 288:-1 289:-1 290:-1 291:-0.926316 292:0.926316 293:-1 294:-1 295:-1 296:-1 297:0.873684 298:-0.873684 299:-1 300:-1 301:-1 302:-1 303:0.094736 304:-0.094736 305:-1 306:-1 307:-1 308:-1 309:-0.989474 310:0.073684 311:-0.08421 312:-1 313:-1 314:-0.168422 315:0 316:-0.831579 317:-1 318:-1 319:-0.968421 320:-0.610526 321:-0.042106 322:-0.378948 323:-1 324:-1 325:-1 326:-1 327:-1 328:0.252632 329:-0.347368 330:-0.905263 331:-0.178948 332:-0.231578 333:-0.589474 334:-1 335:-1 336:-1 337:-0.915789 338:-0.28421 339:-0.347368 340:-0.452632 341:-1 342:-1 343:-1 344:-1 345:-1 346:0.221052 347:-0.368422 348:-0.852632 349:-0.136842 350:-0.557894 351:-0.305264 352:-1 353:-1 354:-1 355:-0.936842 356:-0.178948 357:0.11579 358:-1 359:-1 360:-1 
-0.778357788452523 -1 0.7145899200401152 0.06019042077037276 0.6206267300701027 1:-1 2:-1 3:-1 4:1 5:-1 6:-1 7:-1 8:-1 9:-1 10:1 11:-1 12:-1 13:-1 14:-1 15:-1 16:1 17:-1 18:-1 19:-1 20:-1 21:0.384616 22:-0.384616 23:-1 24:-1 25:-1 26:-1 27:-0.969231 28:0.96923 29:-1 30:-1 31:-1 32:-1 33:-1 34:1 35:-1 36:-1 37:-1 38:-1 39:1 40:-1 41:-1 42:-1 43:-1 44:-1 45:-1 46:1 47:-1 48:-1 49:-1 50:-1 51:-1 52:1 53:-1 54:-1 55:-1 56:-0.723076 57:0.4 58:-0.676924 59:-1 60:-1 61:-1 62:-1 63:-1 64:0.276924 65:-0.276924 66:-1 67:-1 68:-1 69:-0.184616 70:0.184616 71:-1 72:-1 73:-1 74:-0.876923 75:0.876924 76:-1 77:-1 78:-1 79:-1 80:-1 81:-0.784616 82:0.784616 83:-1 84:-1 85:-1 86:-1 87:-0.63077 88:0.63077 89:-1 90:-1 91:-1 92:-0.907692 93:0.907692 94:-1 95:-1 96:-1 97:-1 98:-1 99:0.092308 100:-0.092308 101:-1 102:-1 103:-1 104:-1 105:0.953846 106:-0.953846 107:-1 108:-1 109:-1 110:-1 111:0.138462 112:-0.138462 113:-1 114:-1 115:-1 116:-1 117:0.63077 118:-0.63077 119:-1 120:-1 121:-1 122:-0.953846 123:0.953846 124:-1 125:-1 126:-1 127:-1 128:-1 129:0.092308 130:-0.092308 131:-1 132:-1 133:-1 134:-1 135:0.615384 136:-0.615384 137:-1 138:-1 139:-1 140:-0.046154 141:0.046154 142:-1 143:-1 144:-1 145:-1 146:-1 147:-0.538462 148:0.538462 149:-1 150:-1 151:-1 152:-1 153:-1 154:1 155:-1 156:-1 157:-1 158:-1 159:-0.676924 160:0.676924 161:-1 162:-1 163:-1 164:-1 165:-0.984615 166:0.646154 167:-0.661538 168:-1 169:-1 170:-1 171:-0.584616 172:0.584616 173:-1 174:-1 175:-1 176:-1 177:0.23077 178:-0.23077 179:-1 180:-1 181:-1 182:-1 183:-0.784616 184:-0.184616 185:-0.03077 186:-1 187:-1 188:-1 189:-0.276924 190:0.276924 191:-1 192:-1 193:-1 194:-1 195:0.56923 196:-0.56923 197:-1 198:-1 199:-1 200:-1 201:-0.692308 202:-0.276924 203:-0.123076 204:-0.907692 205:-1 206:-1 207:-0.123076 208:0.123076 209:-1 210:-1 211:-1 212:-1 213:0.523076 214:-0.523076 215:-1 216:-1 217:-1 218:-1 219:0.646154 220:-0.646154 221:-1 222:-1 223:-1 224:-1 225:1 226:-1 227:-1 228:-1 229:-1 230:-1 231:0.923076 232:-0.923077 233:-1 234:-1 235:-1 236:-1 237:-0.56923 238:0.507692 239:-0.938462 240:-1 241:-1 242:-1 243:0.96923 244:-0.969231 245:-1 246:-1 247:-1 248:-0.076924 249:0.076924 250:-1 251:-1 252:-1 253:-1 254:-1 255:-1 256:0.923076 257:-0.923077 258:-1 259:-1 260:-0.292308 261:0.292308 262:-1 263:-1 264:-1 265:-1 266:0.938462 267:-0.938462 268:-1 269:-1 270:-1 271:-1 272:-1 273:-1 274:0.8 275:-0.8 276:-1 277:-1 278:-0.261538 279:0.261538 280:-1 281:-1 282:-1 283:-1 284:1 285:-1 286:-1 287:-1 288:-1 289:-1 290:-1 291:-1 292:1 293:-1 294:-1 295:-1 296:-1 297:0.723076 298:-0.723076 299:-1 300:-1 301:-1 302:-1 303:0.338462 304:-0.338462 305:-1 306:-1 307:-1 308:-1 309:-1 310:-0.43077 311:0.43077 312:-1 313:-1 314:-1 315:-0.107692 316:0.107692 317:-1 318:-1 319:-1 320:-1 321:0.815384 322:-0.815385 323:-1 324:-1 325:-1 326:-1 327:-1 328:-0.507692 329:-0.03077 330:-0.461538 331:-1 332:-0.384616 333:-0.323076 334:-0.292308 335:-1 336:-1 337:-1 338:0.015384 339:-0.015384 340:-1 341:-1 342:-1 343:-1 344:-1 345:-1 346:-0.538462 347:-0.353846 348:-0.107692 349:-1 350:-0.353846 351:-0.43077 352:-0.215384 353:-1 354:-1 355:-1 356:0.215384 357:-0.215384 358:-1 359:-1 360:-1 
-1 -1 1 1 1 1:-1 2:-1 3:-1 4:1 5:-1 6:-1 7:-1 8:-1 9:-1 10:1 11:-1 12:-1 13:-1 14:-1 15:-1 16:1 17:-1 18:-1 19:-1 20:-1 21:-0.186046 22:0.186046 23:-1 24:-1 25:-1 26:-1 27:-0.174418 28:0.174418 29:-1 30:-1 31:-1 32:-1 33:-0.627906 34:0.627906 35:-1 36:-1 37:-1 38:-1 39:-0.395348 40:0.38372 41:-0.988372 42:-1 43:-1 44:-1 45:-0.651162 46:0.418604 47:-0.767442 48:-1 49:-1 50:-1 51:-0.604652 52:0.604652 53:-1 54:-1 55:-1 56:-1 57:-0.895349 58:0.267442 59:-0.372094 60:-1 61:-1 62:-1 63:-1 64:0.197674 65:-0.197674 66:-1 67:-1 68:-1 69:-0.534884 70:0.534884 71:-1 72:-1 73:-1 74:-0.965116 75:0.313954 76:-0.38372 77:-0.965116 78:-1 79:-1 80:-1 81:-0.325582 82:0.325582 83:-1 84:-1 85:-1 86:-1 87:0.174418 88:-0.174418 89:-1 90:-1 91:-1 92:-0.813953 93:0.372094 94:-0.55814 95:-1 96:-1 97:-1 98:-1 99:-0.94186 100:0.94186 101:-1 102:-1 103:-1 104:-1 105:0.686046 106:-0.686046 107:-1 108:-1 109:-1 110:-0.593024 111:0.174418 112:-0.581396 113:-1 114:-1 115:-1 116:-1 117:0.313954 118:-0.313954 119:-1 120:-1 121:-1 122:-0.77907 123:0.77907 124:-1 125:-1 126:-1 127:-0.988372 128:-0.38372 129:0.034884 130:-0.66279 131:-1 132:-1 133:-1 134:-1 135:0.313954 136:-0.313954 137:-1 138:-1 139:-1 140:-0.61628 141:0.61628 142:-1 143:-1 144:-1 145:-1 146:-1 147:-0.965116 148:0.55814 149:-0.593024 150:-1 151:-1 152:-1 153:0.174418 154:-0.174418 155:-1 156:-1 157:-1 158:-1 159:-0.767442 160:0.767442 161:-1 162:-1 163:-1 164:-1 165:-0.790698 166:0.511628 167:-0.72093 168:-1 169:-1 170:-1 171:-0.034884 172:0.034884 173:-1 174:-1 175:-1 176:-1 177:-0.534884 178:0.534884 179:-1 180:-1 181:-1 182:-1 183:-0.988372 184:-0.034884 185:0.011628 186:-0.988372 187:-1 188:-1 189:-0.093024 190:0.093024 191:-1 192:-1 193:-1 194:-1 195:0.093024 196:-0.093024 197:-1 198:-1 199:-1 200:-1 201:-1 202:-0.186046 203:0.174418 204:-0.988372 205:-1 206:-1 207:0.034884 208:-0.034884 209:-1 210:-1 211:-1 212:-1 213:0.290698 214:-0.290698 215:-1 216:-1 217:-1 218:-1 219:1 220:-1 221:-1 222:-1 223:-1 224:-1 225:-0.023256 226:0.0232559 227:-1 228:-1 229:-1 230:-0.988372 231:0.802326 232:-0.813953 233:-1 234:-1 235:-1 236:0.255814 237:-0.255814 238:-1 239:-1 240:-1 241:-1 242:-0.488372 243:-0.732558 244:0.22093 245:-1 246:-1 247:-1 248:-0.848837 249:0.848838 250:-1 251:-1 252:-1 253:-0.174418 254:-0.325582 255:-0.5 256:-1 257:-1 258:-1 259:-0.55814 260:-0.825581 261:0.372094 262:-0.988372 263:-1 264:-1 265:-1 266:-0.465116 267:0.348838 268:-0.883721 269:-1 270:-1 271:-0.151162 272:-0.348838 273:-0.5 274:-1 275:-1 276:-1 277:-0.61628 278:-0.767442 279:0.360466 280:-0.976744 281:-1 282:-1 283:-1 284:-0.406976 285:0.360466 286:-0.953488 287:-1 288:-1 289:-1 290:-1 291:-0.372094 292:0.372094 293:-1 294:-1 295:-1 296:-1 297:0.860466 298:-0.860465 299:-1 300:-1 301:-1 302:-1 303:-0.61628 304:0.61628 305:-1 306:-1 307:-1 308:-1 309:-0.418604 310:0.27907 311:-0.860465 312:-1 313:-1 314:-0.5 315:0.395348 316:-0.895349 317:-1 318:-1 319:-1 320:-0.755814 321:0.534884 322:-0.77907 323:-1 324:-1 325:-1 326:-0.918605 327:-0.453488 328:-0.104652 329:-0.523256 330:-1 331:-0.581396 332:-0.674418 333:-0.33721 334:-0.406976 335:-1 336:-1 337:-1 338:-0.627906 339:0 340:-0.372094 341:-1 342:-1 343:-1 344:-0.918605 345:-0.372094 346:0.034884 347:-0.744186 348:-1 349:-0.593024 350:-0.66279 351:-0.186046 352:-0.55814 353:-1 354:-1 355:-1 356:-0.581396 357:0.197674 358:-0.61628 359:-1 360:-1 
-1 -1 1 1 1 1:-1 2:-1 3:-1 4:1 5:-1 6:-1 7:-1 8:-1 9:-1 10:1 11:-1 12:-1 13:-1 14:-1 15:-1 16:1 17:-1 18:-1 19:-1 20:-1 21:-0.763888 22:0.763888 23:-1 24:-1 25:-1 26:-1 27:-1 28:1 29:-1 30:-1 31:-1 32:-1 33:-0.986111 34:0.986112 35:-1 36:-1 37:-1 38:-1 39:-1 40:1 41:-1 42:-1 43:-1 44:-1 45:-0.986111 46:0.986112 47:-1 48:-1 49:-1 50:-1 51:-0.430556 52:0.430556 53:-1 54:-1 55:-1 56:-1 57:-1 58:0.930556 59:-0.930556 60:-1 61:-1 62:-1 63:-1 64:0.083334 65:-0.083334 66:-1 67:-1 68:-1 69:-0.013888 70:0.013888 71:-1 72:-1 73:-1 74:-1 75:0.388888 76:-0.388888 77:-1 78:-1 79:-1 80:-1 81:-1 82:1 83:-1 84:-1 85:-1 86:-1 87:-0.041666 88:0.041666 89:-1 90:-1 91:-1 92:-1 93:0.930556 94:-0.930556 95:-1 96:-1 97:-1 98:-1 99:-0.416666 100:0.416666 101:-1 102:-1 103:-1 104:-1 105:0.555556 106:-0.555556 107:-1 108:-1 109:-1 110:-1 111:0.361112 112:-0.361112 113:-1 114:-1 115:-1 116:-1 117:0.680556 118:-0.680556 119:-1 120:-1 121:-1 122:-0.791666 123:0.791666 124:-1 125:-1 126:-1 127:-1 128:-1 129:0.194444 130:-0.194444 131:-1 132:-1 133:-1 134:-1 135:0.972222 136:-0.972222 137:-1 138:-1 139:-1 140:-0.513888 141:0.513888 142:-1 143:-1 144:-1 145:-1 146:-1 147:-1 148:1 149:-1 150:-1 151:-1 152:-1 153:-0.652778 154:0.652778 155:-1 156:-1 157:-1 158:-1 159:-0.486112 160:0.486112 161:-1 162:-1 163:-1 164:-1 165:-1 166:1 167:-1 168:-1 169:-1 170:-1 171:1 172:-1 173:-1 174:-1 175:-1 176:-1 177:0.208334 178:-0.208334 179:-1 180:-1 181:-1 182:-1 183:-1 184:0.708334 185:-0.708334 186:-1 187:-1 188:-1 189:0.319444 190:-0.319444 191:-1 192:-1 193:-1 194:-1 195:1 196:-1 197:-1 198:-1 199:-1 200:-1 201:-1 202:0.416666 203:-0.416666 204:-1 205:-1 206:-0.986111 207:0.194444 208:-0.208334 209:-1 210:-1 211:-1 212:-0.916667 213:0.916666 214:-1 215:-1 216:-1 217:-1 218:-1 219:1 220:-1 221:-1 222:-1 223:-1 224:-1 225:0.944444 226:-0.944444 227:-1 228:-1 229:-1 230:-1 231:0.888888 232:-0.888889 233:-1 234:-1 235:-1 236:0.319444 237:-0.319444 238:-1 239:-1 240:-1 241:-1 242:-1 243:0.291666 244:-0.291666 245:-1 246:-1 247:-1 248:-0.347222 249:0.263888 250:-0.916667 251:-1 252:-1 253:-0.486112 254:-0.333334 255:-0.180556 256:-1 257:-1 258:-1 259:-1 260:-0.347222 261:-0.347222 262:-0.305556 263:-1 264:-1 265:-1 266:0.319444 267:-0.319444 268:-1 269:-1 270:-1 271:-0.402778 272:-0.222222 273:-0.375 274:-1 275:-1 276:-1 277:-1 278:-0.305556 279:-0.25 280:-0.444444 281:-1 282:-1 283:-1 284:0.458334 285:-0.458334 286:-1 287:-1 288:-1 289:-1 290:-1 291:-0.916667 292:0.916666 293:-1 294:-1 295:-1 296:-1 297:1 298:-1 299:-1 300:-1 301:-1 302:-1 303:-0.166666 304:0.166666 305:-1 306:-1 307:-1 308:-0.444444 309:-0.013888 310:-0.541666 311:-1 312:-1 313:-1 314:-0.944444 315:0.625 316:-0.680556 317:-1 318:-1 319:-1 320:-0.722222 321:-0.222222 322:-0.055556 323:-1 324:-1 325:-0.958333 326:0.166666 327:-0.611112 328:-0.597222 329:-1 330:-1 331:-1 332:-0.152778 333:-0.458334 334:-0.388888 335:-1 336:-1 337:-1 338:-0.194444 339:0.027778 340:-0.833333 341:-1 342:-1 343:-0.972222 344:0.208334 345:-0.652778 346:-0.583334 347:-1 348:-1 349:-1 350:-0.152778 351:-0.027778 352:-0.819444 353:-1 354:-1 355:-1 356:-0.055556 357:0.0555561 358:-1 359:-1 360:-1 
-1 -1 1 1 1 1:-1 2:-1 3:-1 4:1 5:-1 6:-1 7:-1 8:-1 9:-1 10:1 11:-1 12:-1 13:-1 14:-1 15:-1 16:1 17:-1 18:-1 19:-1 20:-1 21:-0.213484 22:0.213484 23:-1 24:-1 25:-1 26:-1 27:-0.674158 28:0.674158 29:-1 30:-1 31:-1 32:-1 33:-0.573034 34:0.573034 35:-1 36:-1 37:-1 38:-1 39:-0.58427 40:0.573034 41:-0.988764 42:-1 43:-1 44:-1 45:-0.820225 46:0.393258 47:-0.573034 48:-1 49:-1 50:-1 51:-0.393258 52:0.393258 53:-1 54:-1 55:-1 56:-1 57:-0.77528 58:0.58427 59:-0.808989 60:-1 61:-1 62:-1 63:-1 64:-0.348314 65:0.348314 66:-1 67:-1 68:-1 69:-0.348314 70:0.348314 71:-1 72:-1 73:-1 74:-1 75:0.24719 76:-0.247192 77:-1 78:-1 79:-1 80:-1 81:-0.853933 82:0.808988 83:-0.955056 84:-1 85:-1 86:-1 87:0.325842 88:-0.325842 89:-1 90:-1 91:-1 92:-1 93:-0.078652 94:0.067416 95:-0.988764 96:-1 97:-1 98:-1 99:-0.382022 100:0.382022 101:-1 102:-1 103:-1 104:-1 105:0.921348 106:-0.921348 107:-1 108:-1 109:-1 110:-1 111:-0.505618 112:0.483146 113:-0.977528 114:-1 115:-1 116:-0.853933 117:0.853932 118:-1 119:-1 120:-1 121:-1 122:-0.988764 123:0.932584 124:-0.94382 125:-1 126:-1 127:-1 128:-1 129:-0.539326 130:0.47191 131:-0.932584 132:-1 133:-1 134:-0.764044 135:0.764046 136:-1 137:-1 138:-1 139:-1 140:-0.988764 141:0.932584 142:-0.94382 143:-1 144:-1 145:-1 146:-1 147:-0.932584 148:0.921348 149:-0.988764 150:-1 151:-1 152:-1 153:-0.550562 154:0.550562 155:-1 156:-1 157:-1 158:-1 159:-0.662922 160:0.662922 161:-1 162:-1 163:-1 164:-1 165:-0.988764 166:0.539326 167:-0.550562 168:-1 169:-1 170:-1 171:-0.258426 172:0.258428 173:-1 174:-1 175:-1 176:-1 177:-0.235956 178:0.235954 179:-1 180:-1 181:-1 182:-1 183:-0.988764 184:0.314606 185:-0.325842 186:-1 187:-1 188:-1 189:0.573034 190:-0.573034 191:-1 192:-1 193:-1 194:-0.808989 195:-0.247192 196:0.05618 197:-1 198:-1 199:-1 200:-1 201:-1 202:0.24719 203:-0.247192 204:-1 205:-1 206:-1 207:0.438202 208:-0.438202 209:-1 210:-1 211:-1 212:-0.651686 213:-0.325842 214:-0.022472 215:-1 216:-1 217:-1 218:-1 219:0.977528 220:-0.977528 221:-1 222:-1 223:-1 224:-1 225:0.617978 226:-0.617978 227:-1 228:-1 229:-1 230:-1 231:0.898876 232:-0.898876 233:-1 234:-1 235:-1 236:-0.280898 237:0.033708 238:-0.752808 239:-1 240:-1 241:-1 242:-0.213484 243:-0.314606 244:-0.47191 245:-1 246:-1 247:-1 248:-0.662922 249:0.573034 250:-0.910112 251:-1 252:-1 253:-0.831461 254:-0.269662 255:-0.022472 256:-0.876404 257:-1 258:-1 259:-0.505618 260:-0.539326 261:-0.146068 262:-0.808989 263:-1 264:-1 265:-1 266:-0.022472 267:-0.179776 268:-0.797752 269:-1 270:-1 271:-0.808989 272:-0.314606 273:-0.05618 274:-0.820225 275:-1 276:-1 277:-0.337078 278:-0.685394 279:-0.11236 280:-0.865169 281:-1 282:-1 283:-0.977528 284:0.022472 285:-0.202248 286:-0.842697 287:-1 288:-1 289:-1 290:-1 291:-0.88764 292:0.88764 293:-1 294:-1 295:-1 296:-1 297:0.88764 298:-0.88764 299:-1 300:-1 301:-1 302:-1 303:-0.662922 304:0.662922 305:-1 306:-1 307:-1 308:-1 309:0.134832 310:-0.134832 311:-1 312:-1 313:-1 314:-0.41573 315:0.370786 316:-0.955056 317:-1 318:-1 319:-1 320:-0.606742 321:-0.123596 322:-0.269662 323:-1 324:-1 325:-1 326:-0.64045 327:-0.067416 328:-0.292134 329:-1 330:-1 331:-0.606742 332:0.325842 333:-0.719102 334:-1 335:-1 336:-1 337:-1 338:0.022472 339:-0.483146 340:-0.539326 341:-1 342:-1 343:-1 344:-0.629214 345:-0.146068 346:-0.22472 347:-1 348:-1 349:-0.449438 350:-0.044944 351:-0.505618 352:-1 353:-1 354:-1 355:-0.921348 356:0 357:-0.393258 358:-0.685394 359:-1 360:-1 
-1 -1 1 1 1 1:-1 2:-1 3:-1 4:1 5:-1 6:-1 7:-1 8:-1 9:-1 10:1 11:-1 12:-1 13:-1 14:-1 15:-1 16:1 17:-1 18:-1 19:-1 20:-1 21:-0.452514 22:0.452514 23:-1 24:-1 25:-1 26:-1 27:-0.888268 28:0.888268 29:-1 30:-1 31:-1 32:-1 33:-0.765364 34:0.765364 35:-1 36:-1 37:-1 38:-1 39:-0.128492 40:0.128492 41:-1 42:-1 43:-1 44:-1 45:-1 46:1 47:-1 48:-1 49:-1 50:-1 51:-0.597766 52:0.597766 53:-1 54:-1 55:-1 56:-1 57:0.519554 58:-0.519554 59:-1 60:-1 61:-1 62:-1 63:-1 64:-0.351956 65:0.351956 66:-1 67:-1 68:-1 69:-0.486034 70:0.486034 71:-1 72:-1 73:-1 74:-1 75:0.955308 76:-0.955307 77:-1 78:-1 79:-1 80:-1 81:-1 82:1 83:-1 84:-1 85:-1 86:-1 87:-1 88:1 89:-1 90:-1 91:-1 92:-1 93:0.497206 94:-0.497206 95:-1 96:-1 97:-1 98:-1 99:0.19553 100:-0.19553 101:-1 102:-1 103:-1 104:-1 105:-0.061452 106:-0.374302 107:-0.564246 108:-1 109:-1 110:-0.843575 111:0.843576 112:-1 113:-1 114:-1 115:-1 116:-1 117:0.44134 118:-0.44134 119:-1 120:-1 121:-1 122:-1 123:-0.22905 124:0.128492 125:-0.899441 126:-1 127:-1 128:-0.78771 129:0.78771 130:-1 131:-1 132:-1 133:-1 134:-1 135:0.340782 136:-0.340782 137:-1 138:-1 139:-1 140:-1 141:-0.22905 142:-0.284916 143:-0.486034 144:-1 145:-1 146:-1 147:-1 148:0.82123 149:-0.821229 150:-1 151:-1 152:-1 153:-1 154:0.955308 155:-0.955307 156:-1 157:-1 158:-1 159:-0.351956 160:0.351956 161:-1 162:-1 163:-1 164:-1 165:-0.78771 166:0.22905 167:-0.44134 168:-1 169:-1 170:-1 171:-0.910615 172:0.910614 173:-1 174:-1 175:-1 176:-1 177:0.407822 178:-0.407822 179:-1 180:-1 181:-1 182:-1 183:-0.653632 184:-0.072626 185:-0.273744 186:-1 187:-1 188:-1 189:0.19553 190:-0.19553 191:-1 192:-1 193:-1 194:-0.821229 195:0.82123 196:-1 197:-1 198:-1 199:-1 200:-0.955307 201:-0.631284 202:-0.173184 203:-0.240224 204:-1 205:-1 206:-1 207:-0.072626 208:0.072626 209:-1 210:-1 211:-1 212:-0.396648 213:0.396648 214:-1 215:-1 216:-1 217:-1 218:-1 219:1 220:-1 221:-1 222:-1 223:-1 224:-1 225:1 226:-1 227:-1 228:-1 229:-1 230:-1 231:0.497206 232:-0.497206 233:-1 234:-1 235:-1 236:-0.463688 237:0.463688 238:-1 239:-1 240:-1 241:-1 242:-1 243:0.284916 244:-0.284916 245:-1 246:-1 247:-1 248:-0.463688 249:0.463688 250:-1 251:-1 252:-1 253:-1 254:-0.776536 255:0.765364 256:-0.988827 257:-1 258:-1 259:-1 260:-0.128492 261:0.128492 262:-1 263:-1 264:-1 265:-1 266:-0.407822 267:0.407822 268:-1 269:-1 270:-1 271:-1 272:-0.731844 273:0.653632 274:-0.921788 275:-1 276:-1 277:-1 278:0.01676 279:-0.01676 280:-1 281:-1 282:-1 283:-1 284:-0.217878 285:0.217878 286:-1 287:-1 288:-1 289:-1 290:-1 291:-1 292:1 293:-1 294:-1 295:-1 296:-1 297:0.955308 298:-0.955307 299:-1 300:-1 301:-1 302:-1 303:0.75419 304:-0.75419 305:-1 306:-1 307:-1 308:-1 309:-0.340782 310:-0.05028 311:-0.608938 312:-1 313:-1 314:-1 315:0.463688 316:-0.463688 317:-1 318:-1 319:-1 320:-0.899441 321:0.765364 322:-0.865922 323:-1 324:-1 325:-1 326:-1 327:-0.530726 328:0.106146 329:-0.877095 330:-0.698324 331:-1 332:0.217878 333:-0.284916 334:-0.932961 335:-1 336:-1 337:-1 338:-0.519554 339:0.26257 340:-0.743016 341:-1 342:-1 343:-1 344:-1 345:-0.50838 346:-0.01676 347:-0.765364 348:-0.709498 349:-1 350:0.307262 351:-0.374302 352:-0.932961 353:-1 354:-1 355:-1 356:-0.206704 357:0.027934 358:-0.821229 359:-1 360:-1 
-1 -1 1 1 1 1:-1 2:-1 3:-1 4:1 5:-1 6:-1 7:-1 8:-1 9:-1 10:1 11:-1 12:-1 13:-1 14:-1 15:-1 16:1 17:-1 18:-1 19:-1 20:-1 21:-0.135922 22:0.135922 23:-1 24:-1 25:-1 26:-1 27:-0.514564 28:0.514564 29:-1 30:-1 31:-1 32:-1 33:-0.660194 34:0.660194 35:-1 36:-1 37:-1 38:-0.980583 39:0.203884 40:-0.2233 41:-1 42:-1 43:-1 44:-1 45:-0.786408 46:0.145632 47:-0.359224 48:-1 49:-1 50:-1 51:-0.446602 52:0.446602 53:-1 54:-1 55:-1 56:-0.796116 57:0.582524 58:-0.786408 59:-1 60:-1 61:-1 62:-1 63:-0.990291 64:-0.038834 65:0.029126 66:-1 67:-1 68:-1 69:-0.15534 70:0.15534 71:-1 72:-1 73:-1 74:-0.815534 75:0.62136 76:-0.805825 77:-1 78:-1 79:-1 80:-1 81:-0.145632 82:-0.00970799 83:-0.84466 84:-1 85:-1 86:-1 87:-0.990291 88:0.951456 89:-0.961165 90:-1 91:-1 92:-0.446602 93:0.330098 94:-0.883495 95:-1 96:-1 97:-1 98:-0.854369 99:-0.165048 100:0.019418 101:-1 102:-1 103:-1 104:-1 105:-0.815534 106:0.320388 107:-0.504854 108:-1 109:-1 110:-0.135922 111:0.029126 112:-0.893204 113:-1 114:-1 115:-1 116:-1 117:0.563106 118:-0.563106 119:-1 120:-1 121:-1 122:-0.980583 123:-0.417476 124:0.398058 125:-1 126:-1 127:-0.92233 128:-0.174758 129:-0.00970799 130:-0.893204 131:-1 132:-1 133:-1 134:-1 135:0.572816 136:-0.572816 137:-1 138:-1 139:-1 140:-0.941748 141:-0.116504 142:0.058252 143:-1 144:-1 145:-1 146:-1 147:-0.592234 148:0.398058 149:-0.805825 150:-1 151:-1 152:-1 153:-0.708738 154:0.708738 155:-1 156:-1 157:-1 158:-1 159:0.2233 160:-0.2233 161:-1 162:-1 163:-1 164:-0.951456 165:-0.398058 166:0.048544 167:-0.69903 168:-1 169:-1 170:-1 171:-0.38835 172:0.38835 173:-1 174:-1 175:-1 176:-0.84466 177:0.62136 178:-0.7767 179:-1 180:-1 181:-1 182:-0.786408 183:-0.213592 184:0 185:-1 186:-1 187:-1 188:-1 189:0.601942 190:-0.601942 191:-1 192:-1 193:-1 194:-0.679612 195:0.669902 196:-0.990291 197:-1 198:-1 199:-1 200:-0.728156 201:-0.2233 202:-0.048544 203:-1 204:-1 205:-1 206:-1 207:0.650486 208:-0.650486 209:-1 210:-1 211:-1 212:-0.650486 213:0.650486 214:-1 215:-1 216:-1 217:-1 218:-1 219:0.815534 220:-0.815534 221:-1 222:-1 223:-1 224:-1 225:0.912622 226:-0.912621 227:-1 228:-1 229:-1 230:-1 231:-0.174758 232:0.174758 233:-1 234:-1 235:-1 236:-0.951456 237:0.68932 238:-0.737864 239:-1 240:-1 241:-1 242:-0.38835 243:0.368932 244:-0.980583 245:-1 246:-1 247:-1 248:-0.213592 249:-0.291262 250:-0.495146 251:-1 252:-1 253:-1 254:-0.582524 255:0.475728 256:-0.893204 257:-1 258:-1 259:-0.417476 260:-0.135922 261:-0.446602 262:-1 263:-1 264:-1 265:-1 266:0.271844 267:-0.757282 268:-0.514564 269:-1 270:-1 271:-1 272:-0.76699 273:0.747572 274:-0.980583 275:-1 276:-1 277:-0.37864 278:-0.145632 279:-0.475728 280:-1 281:-1 282:-1 283:-1 284:0.242718 285:-0.37864 286:-0.864078 287:-1 288:-1 289:-1 290:-1 291:-0.92233 292:0.92233 293:-1 294:-1 295:-1 296:-1 297:0.07767 298:-0.07767 299:-1 300:-1 301:-1 302:-1 303:0.834952 304:-0.834951 305:-1 306:-1 307:-1 308:-1 309:-1 310:0.271844 311:-0.271844 312:-1 313:-1 314:-0.407766 315:-0.553398 316:-0.038834 317:-1 318:-1 319:-1 320:-0.601942 321:0.37864 322:-0.7767 323:-1 324:-1 325:-1 326:-1 327:-1 328:0.019418 329:-0.398058 330:-0.62136 331:-0.446602 332:-0.572816 333:-0.097088 334:-0.883495 335:-1 336:-1 337:-1 338:-0.320388 339:0.0679621 340:-0.747572 341:-1 342:-1 343:-1 344:-1 345:-0.961165 346:-0.058252 347:-0.446602 348:-0.53398 349:-0.417476 350:-0.601942 351:-0.067962 352:-0.912621 353:-1 354:-1 355:-1 356:-0.30097 357:0.30097 358:-1 359:-1 360:-1 
-0 -0.7384675920225723 0.2096254803073544 1 1 1:-1 2:-1 3:-1 4:1 5:-1 6:-1 7:-1 8:-1 9:-1 10:1 11:-1 12:-1 13:-1 14:-1 15:-1 16:1 17:-1 18:-1 19:-1 20:-1 21:0.037838 22:-0.037838 23:-1 24:-1 25:-1 26:-1 27:-0.545946 28:0.545946 29:-1 30:-1 31:-1 32:-1 33:-0.751352 34:0.751352 35:-1 36:-1 37:-1 38:-0.967568 39:-0.037838 40:0.00540602 41:-1 42:-1 43:-1 44:-1 45:-0.848649 46:0.848648 47:-1 48:-1 49:-1 50:-1 51:-0.772972 52:0.708108 53:-0.935135 54:-1 55:-1 56:-0.664864 57:-0.351352 58:0.016216 59:-1 60:-1 61:-1 62:-1 63:-1 64:-0.037838 65:0.037838 66:-1 67:-1 68:-1 69:-0.697298 70:0.556756 71:-0.859459 72:-1 73:-1 74:-0.859459 75:0.081082 76:-0.32973 77:-0.891892 78:-1 79:-1 80:-1 81:-0.535136 82:0.535136 83:-1 84:-1 85:-1 86:-1 87:-0.427028 88:0.394594 89:-0.967568 90:-1 91:-1 92:-1 93:0.221622 94:-0.675676 95:-0.545946 96:-1 97:-1 98:-1 99:0.643244 100:-0.643244 101:-1 102:-1 103:-1 104:-1 105:0.502702 106:-0.502702 107:-1 108:-1 109:-1 110:-1 111:0.416216 112:-0.437838 113:-0.978378 114:-1 115:-1 116:-1 117:0.805406 118:-0.805405 119:-1 120:-1 121:-1 122:-0.989189 123:0.837838 124:-0.848649 125:-1 126:-1 127:-1 128:-0.697298 129:-0.32973 130:0.00540602 131:-0.978378 132:-1 133:-1 134:-1 135:0.437838 136:-0.437838 137:-1 138:-1 139:-1 140:-0.621622 141:0.491892 142:-0.87027 143:-1 144:-1 145:-1 146:-0.686486 147:-0.491892 148:0.156756 149:-0.978378 150:-1 151:-1 152:-1 153:-0.902703 154:0.902702 155:-1 156:-1 157:-1 158:-1 159:-0.945946 160:0.913514 161:-0.967568 162:-1 163:-1 164:-0.816216 165:-0.427028 166:0.2 167:-0.956757 168:-1 169:-1 170:-1 171:-0.232432 172:0.232432 173:-1 174:-1 175:-1 176:-0.989189 177:-0.32973 178:0.318918 179:-1 180:-1 181:-1 182:-1 183:-0.686486 184:0.372972 185:-0.686486 186:-1 187:-1 188:-1 189:0.816216 190:-0.816216 191:-1 192:-1 193:-1 194:-0.989189 195:0.772972 196:-0.783784 197:-1 198:-1 199:-1 200:-1 201:-0.6 202:0.2 203:-0.61081 204:-0.989189 205:-1 206:-1 207:0.848648 208:-0.848649 209:-1 210:-1 211:-1 212:-0.945946 213:0.881082 214:-0.935135 215:-1 216:-1 217:-1 218:-1 219:0.113514 220:-0.113514 221:-1 222:-1 223:-1 224:-1 225:0.881082 226:-0.881081 227:-1 228:-1 229:-1 230:-1 231:0.751352 232:-0.751352 233:-1 234:-1 235:-1 236:-1 237:-0.34054 238:-0.405406 239:-0.254054 240:-1 241:-1 242:-0.967568 243:0.967568 244:-1 245:-1 246:-1 247:-1 248:-0.156756 249:0.091892 250:-0.935135 251:-1 252:-1 253:-1 254:-1 255:-0.32973 256:-0.675676 257:-0.264864 258:-0.72973 259:-1 260:0.027028 261:-0.027028 262:-1 263:-1 264:-1 265:-1 266:0.275676 267:-0.275676 268:-1 269:-1 270:-1 271:-1 272:-1 273:-0.697298 274:-0.416216 275:-0.416216 276:-0.47027 277:-1 278:0.156756 279:-0.156756 280:-1 281:-1 282:-1 283:-1 284:0.513514 285:-0.513514 286:-1 287:-1 288:-1 289:-1 290:-1 291:-0.535136 292:0.535136 293:-1 294:-1 295:-1 296:-1 297:0.61081 298:-0.61081 299:-1 300:-1 301:-1 302:-1 303:0.394594 304:-0.394594 305:-1 306:-1 307:-1 308:-1 309:-1 310:-0.07027 311:0.0702699 312:-1 313:-1 314:-1 315:0.578378 316:-0.578378 317:-1 318:-1 319:-1 320:0.264864 321:-0.264864 322:-1 323:-1 324:-1 325:-1 326:-1 327:-1 328:-0.654054 329:0.437838 330:-0.783784 331:-1 332:-0.113514 333:0.05946 334:-0.945946 335:-1 336:-1 337:-1 338:0.351352 339:-0.351352 340:-1 341:-1 342:-1 343:-1 344:-1 345:-1 346:-0.751352 347:0.232432 348:-0.481082 349:-1 350:-0.081082 351:0.00540602 352:-0.924324 353:-1 354:-1 355:-1 356:0.643244 357:-0.643244 358:-1 359:-1 360:-1 
