svm_type c_svc
kernel_type rbf
gamma 0.00138889
nr_class 6
total_sv 72
rho 0.111706 -0.0736561 -0.040377 -0.0782338 -0.0702903 -0.179583 -0.162506 -0.187367 -0.194837 0.00645965 -0.00115988 0.0123105 0.0108069 0.00716218 0.00853309
label 8 10 12 13 15 16
nr_sv 12 12 12 12 12 12
SV
1 1 1 1 1 1:0 2:0 3:0 4:0 5:0 6:0 7:1 8:0 9:0 10:0 11:0 12:0 13:0 14:0 15:0 16:0 17:0 18:0 19:1 20:0 21:0 22:0 23:0 24:0 25:0 26:0 27:0 28:0 29:0 30:0 31:1 32:0 33:0 34:0 35:0 36:0 37:0 38:0 39:0 40:0 41:0 42:0.990826 43:0.00917431 44:0 45:0 46:0 47:0 48:0 49:0 50:0 51:0 52:0 53:0 54:0 55:1 56:0 57:0 58:0 59:0 60:0 61:0 62:0 63:0 64:0 65:0 66:0 67:1 68:0 69:0 70:0 71:0 72:0 73:0 74:0 75:0 76:0 77:0 78:0.926606 79:0.0733945 80:0 81:0 82:0 83:0 84:0 85:0 86:0 87:0 88:0 89:0 90:0 91:0 92:0.311927 93:0.688073 94:0 95:0 96:0 97:0 98:0 99:0 100:0 101:0 102:0.211009 103:0.788991 104:0 105:0 106:0 107:0 108:0 109:0 110:0 111:0 112:0 113:0 114:0.458716 115:0.541284 116:0 117:0 118:0 119:0 120:0 121:0 122:0 123:0 124:0 125:0 126:0 127:0 128:0 129:0.0366972 130:0.963303 131:0 132:0 133:0 134:0 135:0 136:0 137:0 138:0.0642202 139:0.93578 140:0 141:0 142:0 143:0 144:0 145:0 146:0 147:0 148:0 149:0.678899 150:0.321101 151:0 152:0 153:0 154:0 155:0 156:0 157:0 158:0 159:0 160:0 161:0 162:0 163:0 164:0.926606 165:0.0733945 166:0 167:0 168:0 169:0 170:0 171:0 172:0 173:0 174:0.385321 175:0.614679 176:0 177:0 178:0 179:0 180:0 181:0 182:0 183:0 184:0.348624 185:0.651376 186:0 187:0 188:0 189:0 190:0 191:0 192:0 193:0 194:0 195:0 196:0 197:0 198:0 199:0.284404 200:0.0458716 201:0.394495 202:0.275229 203:0 204:0 205:0 206:0 207:0 208:0 209:0.0825688 210:0.87156 211:0.0458716 212:0 213:0 214:0 215:0 216:0 217:0 218:0 219:0 220:0.119266 221:0.816514 222:0.0642202 223:0 224:0 225:0 226:0 227:0 228:0 229:0 230:0 231:0 232:0 233:0 234:0.229358 235:0.0642202 236:0.0275229 237:0.0275229 238:0.229358 239:0.422018 240:0 241:0 242:0 243:0 244:0.0825688 245:0.357798 246:0.412844 247:0.146789 248:0 249:0 250:0 251:0 252:0 253:0 254:0 255:0 256:0.0825688 257:0.816514 258:0.100917 259:0 260:0 261:0 262:0 263:0 264:0 265:0 266:0 267:0 268:0 269:0 270:0.256881 271:0.0366972 272:0.0275229 273:0.0183486 274:0.119266 275:0.412844 276:0.12844 277:0 278:0 279:0 280:0.110092 281:0.348624 282:0.376147 283:0.165138 284:0 285:0 286:0 287:0 288:0 289:0 290:0 291:0 292:0 293:0 294:0 295:0.577982 296:0.422018 297:0 298:0 299:0 300:0 301:0 302:0 303:0 304:0 305:0 306:0 307:0 308:0.733945 309:0.266055 310:0 311:0 312:0 313:0 314:0 315:0 316:0 317:0 318:0 319:0.954128 320:0.0458716 321:0 322:0 323:0 324:0 325:0 326:0 327:0 328:0 329:0 330:0 331:0.0458716 332:0.788991 333:0.165138 334:0 335:0 336:0 337:0 338:0 339:0 340:0 341:0 342:0 343:0.311927 344:0.0366972 345:0.366972 346:0.284404 347:0 348:0 349:0 350:0 351:0 352:0 353:0 354:0.40367 355:0.587156 356:0.00917431 357:0 358:0 359:0 360:0 361:0 362:0 363:0 364:0 365:0 366:0 367:0.0183486 368:0.899083 369:0.0825688 370:0 371:0 372:0 373:0 374:0 375:0 376:0 377:0 378:0.220183 379:0.0733945 380:0.0275229 381:0.0366972 382:0.275229 383:0.357798 384:0.00917431 385:0 386:0 387:0 388:0.00917431 389:0.302752 390:0.137615 391:0.486239 392:0.0642202 393:0 394:0 395:0 396:0 397:0 398:0 399:0 400:0 401:0 402:0 403:0.12844 404:0.788991 405:0.0642202 406:0.0183486 407:0 408:0 409:0 410:0 411:0 412:0 413:0 414:0.266055 415:0.0366972 416:0.0183486 417:0.0183486 418:0.12844 419:0.394495 420:0.137615 421:0 422:0 423:0 424:0.100917 425:0.302752 426:0.0550459 427:0.495413 428:0.0458716 429:0 430:0 431:0 432:0 433:0 434:0 435:0 436:0 437:0 438:1 439:0 440:0 441:0 442:0 443:0 444:0 445:0 446:0 447:0 448:0 449:0 450:1 451:0 452:0 453:0 454:0 455:0 456:0 457:0 458:0 459:0 460:0 461:0 462:1 463:0 464:0 465:0 466:0 467:0 468:0 469:0 470:0 471:0 472:0 473:0 474:1 475:0 476:0 477:0 478:0 479:0 480:0 481:0 482:0 483:0 484:0 485:0.66055 486:0.33945 487:0 488:0 489:0 490:0 491:0 492:0 493:0 494:0 495:0.0275229 496:0.972477 497:0 498:0 499:0 500:0 501:0 502:0 503:0 504:0 505:0 506:0 507:0 508:0 509:0 510:1 511:0 512:0 513:0 514:0 515:0 516:0 517:0 518:0 519:0.568807 520:0.431193 521:0 522:0 523:0 524:0 525:0 526:0 527:0 528:0 529:0 530:0 531:0.59633 532:0.220183 533:0.183486 534:0 535:0 536:0 537:0 538:0 539:0 540:0 541:0 542:0 543:0 544:0 545:0 546:1 547:0 548:0 549:0 550:0 551:0 552:0 553:0 554:0 555:0.66055 556:0.33945 557:0 558:0 559:0 560:0 561:0 562:0 563:0 564:0 565:0 566:0.146789 567:0.577982 568:0.275229 569:0 570:0 571:0 572:0 573:0 574:0 575:0 576:0 577:0 578:0 579:0 580:0 581:0 582:0 583:1 584:0 585:0 586:0 587:0 588:0 589:0 590:0 591:0 592:0 593:0 594:1 595:0 596:0 597:0 598:0 599:0 600:0 601:0 602:0 603:0 604:0 605:0 606:0.0275229 607:0.972477 608:0 609:0 610:0 611:0 612:0 613:0 614:0 615:0 616:0 617:0 618:0 619:0 620:1 621:0 622:0 623:0 624:0 625:0 626:0 627:0 628:0 629:0.66055 630:0.33945 631:0 632:0 633:0 634:0 635:0 636:0 637:0 638:0 639:0 640:0.605505 641:0.394495 642:0 643:0 644:0 645:0 646:0 647:0 648:0 649:0 650:0 651:0 652:0 653:0 654:0 655:0 656:1 657:0 658:0 659:0 660:0 661:0 662:0 663:0.440367 664:0.559633 665:0 666:0 667:0 668:0 669:0 670:0 671:0 672:0 673:0 674:0 675:0.522936 676:0.275229 677:0.201835 678:0 679:0 680:0 681:0 682:0 683:0 684:0 685:0 686:0 687:0 688:0 689:0 690:0 691:0 692:1 693:0 694:0 695:0 696:0 697:0 698:0 699:0.66055 700:0.33945 701:0 702:0 703:0 704:0 705:0 706:0 707:0 708:0 709:0 710:0 711:0.669725 712:0.330275 713:0 714:0 715:0 716:0 717:0 718:0 719:0 720:0 
1 1 1 1 1 1:0 2:0 3:0 4:0 5:0 6:0 7:1 8:0 9:0 10:0 11:0 12:0 13:0 14:0 15:0 16:0 17:0 18:0 19:1 20:0 21:0 22:0 23:0 24:0 25:0 26:0 27:0 28:0 29:0 30:0 31:1 32:0 33:0 34:0 35:0 36:0 37:0 38:0 39:0 40:0 41:0 42:0.732919 43:0.267081 44:0 45:0 46:0 47:0 48:0 49:0 50:0 51:0 52:0 53:0 54:0 55:1 56:0 57:0 58:0 59:0 60:0 61:0 62:0 63:0 64:0 65:0 66:0 67:1 68:0 69:0 70:0 71:0 72:0 73:0 74:0 75:0 76:0 77:0 78:0.590062 79:0.409938 80:0 81:0 82:0 83:0 84:0 85:0 86:0 87:0 88:0 89:0 90:0 91:0 92:0.0372671 93:0.962733 94:0 95:0 96:0 97:0 98:0 99:0 100:0 101:0 102:0.173913 103:0.826087 104:0 105:0 106:0 107:0 108:0 109:0 110:0 111:0 112:0 113:0 114:0.223602 115:0.776398 116:0 117:0 118:0 119:0 120:0 121:0 122:0 123:0 124:0 125:0 126:0 127:0 128:0 129:0.118012 130:0.881988 131:0 132:0 133:0 134:0 135:0 136:0 137:0 138:0.440994 139:0.559006 140:0 141:0 142:0 143:0 144:0 145:0 146:0 147:0 148:0 149:0.440994 150:0.559006 151:0 152:0 153:0 154:0 155:0 156:0 157:0 158:0 159:0 160:0 161:0 162:0 163:0.00621118 164:0.608696 165:0.385093 166:0 167:0 168:0 169:0 170:0 171:0 172:0 173:0 174:0.583851 175:0.26087 176:0.15528 177:0 178:0 179:0 180:0 181:0 182:0 183:0 184:0.204969 185:0.689441 186:0.10559 187:0 188:0 189:0 190:0 191:0 192:0 193:0 194:0 195:0 196:0 197:0 198:0 199:0.322981 200:0.0869565 201:0.440994 202:0.149068 203:0 204:0 205:0 206:0 207:0 208:0.0124224 209:0.440994 210:0.298137 211:0.0931677 212:0.130435 213:0.0248447 214:0 215:0 216:0 217:0 218:0 219:0.0124224 220:0.217391 221:0.447205 222:0.173913 223:0.149068 224:0 225:0 226:0 227:0 228:0 229:0 230:0 231:0 232:0 233:0.0124224 234:0.186335 235:0.111801 236:0.0496894 237:0.223602 238:0.31677 239:0.0931677 240:0.00621118 241:0 242:0 243:0.0124224 244:0.180124 245:0.385093 246:0.229814 247:0.10559 248:0.0869565 249:0 250:0 251:0 252:0 253:0 254:0 255:0.0496894 256:0.217391 257:0.341615 258:0.217391 259:0.173913 260:0 261:0 262:0 263:0 264:0 265:0 266:0 267:0 268:0 269:0.149068 270:0.0621118 271:0.0931677 272:0.0496894 273:0.186335 274:0.304348 275:0.136646 276:0.0186335 277:0 278:0 279:0.0248447 280:0.204969 281:0.341615 282:0.242236 283:0.111801 284:0.068323 285:0.00621118 286:0 287:0 288:0 289:0 290:0 291:0 292:0 293:0 294:0 295:0.658385 296:0.341615 297:0 298:0 299:0 300:0 301:0 302:0 303:0 304:0 305:0 306:0 307:0 308:0.701863 309:0.298137 310:0 311:0 312:0 313:0 314:0 315:0 316:0 317:0 318:0.217391 319:0.559006 320:0.223602 321:0 322:0 323:0 324:0 325:0 326:0 327:0 328:0 329:0 330:0 331:0.167702 332:0.57764 333:0.254658 334:0 335:0 336:0 337:0 338:0 339:0 340:0 341:0 342:0 343:0.372671 344:0.267081 345:0.304348 346:0.0559006 347:0 348:0 349:0 350:0 351:0 352:0 353:0.21118 354:0.142857 355:0.347826 356:0.291925 357:0.00621118 358:0 359:0 360:0 361:0 362:0 363:0 364:0 365:0 366:0.0186335 367:0.173913 368:0.47205 369:0.236025 370:0.0993789 371:0 372:0 373:0 374:0 375:0 376:0 377:0.0310559 378:0.204969 379:0.0745342 380:0.068323 381:0.310559 382:0.298137 383:0.0124224 384:0 385:0 386:0 387:0.0372671 388:0.136646 389:0.167702 390:0.10559 391:0.354037 392:0.198758 393:0 394:0 395:0 396:0 397:0 398:0 399:0 400:0 401:0 402:0.0434783 403:0.161491 404:0.434783 405:0.217391 406:0.142857 407:0 408:0 409:0 410:0 411:0 412:0 413:0.173913 414:0.0559006 415:0.0621118 416:0.068323 417:0.204969 418:0.360248 419:0.0745342 420:0 421:0 422:0 423:0.10559 424:0.10559 425:0.15528 426:0.130435 427:0.372671 428:0.130435 429:0 430:0 431:0 432:0 433:0 434:0 435:0 436:0 437:0 438:1 439:0 440:0 441:0 442:0 443:0 444:0 445:0 446:0 447:0 448:0 449:0 450:1 451:0 452:0 453:0 454:0 455:0 456:0 457:0 458:0 459:0 460:0 461:0 462:0.795031 463:0.204969 464:0 465:0 466:0 467:0 468:0 469:0 470:0 471:0 472:0 473:0 474:1 475:0 476:0 477:0 478:0 479:0 480:0 481:0 482:0 483:0.583851 484:0.416149 485:0 486:0 487:0 488:0 489:0 490:0 491:0 492:0 493:0 494:0 495:0 496:0 497:0 498:0.795031 499:0.204969 500:0 501:0 502:0 503:0 504:0 505:0 506:0 507:0 508:0 509:0.826087 510:0.173913 511:0 512:0 513:0 514:0 515:0 516:0 517:0.546584 518:0.453416 519:0 520:0 521:0 522:0 523:0 524:0 525:0 526:0 527:0 528:0 529:0 530:0 531:0 532:0 533:0.0186335 534:0.689441 535:0.291925 536:0 537:0 538:0 539:0 540:0 541:0 542:0 543:0 544:0 545:0.819876 546:0.180124 547:0 548:0 549:0 550:0 551:0 552:0 553:0.795031 554:0.204969 555:0 556:0 557:0 558:0 559:0 560:0 561:0 562:0 563:0 564:0 565:0 566:0 567:0 568:0 569:0.322981 570:0.63354 571:0.0434783 572:0 573:0 574:0 575:0 576:0 577:0 578:0 579:0 580:0 581:0 582:0 583:1 584:0 585:0 586:0 587:0 588:0 589:0 590:0 591:0 592:0 593:0 594:1 595:0 596:0 597:0 598:0 599:0 600:0 601:0 602:0 603:0 604:0 605:0 606:0.254658 607:0.745342 608:0 609:0 610:0 611:0 612:0 613:0 614:0 615:0 616:0 617:0 618:0 619:0.956522 620:0.0434783 621:0 622:0 623:0 624:0 625:0 626:0 627:0.596273 628:0.403727 629:0 630:0 631:0 632:0 633:0 634:0 635:0 636:0 637:0 638:0 639:0 640:0 641:0 642:0.52795 643:0.47205 644:0 645:0 646:0 647:0 648:0 649:0 650:0 651:0 652:0 653:0 654:0 655:0.354037 656:0.645963 657:0 658:0 659:0 660:0 661:0.645963 662:0.354037 663:0 664:0 665:0 666:0 667:0 668:0 669:0 670:0 671:0 672:0 673:0 674:0 675:0 676:0 677:0 678:0.453416 679:0.546584 680:0 681:0 682:0 683:0 684:0 685:0 686:0 687:0 688:0 689:0 690:0 691:0.217391 692:0.782609 693:0 694:0 695:0 696:0 697:0.850932 698:0.149068 699:0 700:0 701:0 702:0 703:0 704:0 705:0 706:0 707:0 708:0 709:0 710:0 711:0 712:0 713:0.0993789 714:0.664596 715:0.236025 716:0 717:0 718:0 719:0 720:0 
1 1 1 1 1 1:0 2:0 3:0 4:0 5:0 6:0 7:1 8:0 9:0 10:0 11:0 12:0 13:0 14:0 15:0 16:0 17:0 18:0 19:1 20:0 21:0 22:0 23:0 24:0 25:0 26:0 27:0 28:0 29:0 30:0 31:1 32:0 33:0 34:0 35:0 36:0 37:0 38:0 39:0 40:0 41:0 42:1 43:0 44:0 45:0 46:0 47:0 48:0 49:0 50:0 51:0 52:0 53:0 54:0 55:1 56:0 57:0 58:0 59:0 60:0 61:0 62:0 63:0 64:0 65:0 66:0 67:1 68:0 69:0 70:0 71:0 72:0 73:0 74:0 75:0 76:0 77:0 78:0.548387 79:0.451613 80:0 81:0 82:0 83:0 84:0 85:0 86:0 87:0 88:0 89:0 90:0 91:0 92:1 93:0 94:0 95:0 96:0 97:0 98:0 99:0 100:0 101:0 102:0 103:1 104:0 105:0 106:0 107:0 108:0 109:0 110:0 111:0 112:0 113:0 114:0.612903 115:0.387097 116:0 117:0 118:0 119:0 120:0 121:0 122:0 123:0 124:0 125:0 126:0 127:0 128:0 129:1 130:0 131:0 132:0 133:0 134:0 135:0 136:0 137:0 138:0.172043 139:0.827957 140:0 141:0 142:0 143:0 144:0 145:0 146:0 147:0 148:0 149:0.924731 150:0.0752688 151:0 152:0 153:0 154:0 155:0 156:0 157:0 158:0 159:0 160:0 161:0 162:0 163:0.0322581 164:0.967742 165:0 166:0 167:0 168:0 169:0 170:0 171:0 172:0 173:0 174:0 175:1 176:0 177:0 178:0 179:0 180:0 181:0 182:0 183:0 184:0.55914 185:0.44086 186:0 187:0 188:0 189:0 190:0 191:0 192:0 193:0 194:0 195:0 196:0 197:0 198:0.0107527 199:0.150538 200:0.408602 201:0.430108 202:0 203:0 204:0 205:0 206:0 207:0 208:0 209:0 210:1 211:0 212:0 213:0 214:0 215:0 216:0 217:0 218:0 219:0 220:0.333333 221:0.55914 222:0.107527 223:0 224:0 225:0 226:0 227:0 228:0 229:0 230:0 231:0 232:0 233:0 234:0.139785 235:0.0107527 236:0.0215054 237:0.333333 238:0.473118 239:0.0215054 240:0 241:0 242:0 243:0 244:0 245:0.451613 246:0.505376 247:0.0430108 248:0 249:0 250:0 251:0 252:0 253:0 254:0 255:0 256:0.301075 257:0.526882 258:0.172043 259:0 260:0 261:0 262:0 263:0 264:0 265:0 266:0 267:0 268:0 269:0 270:0.129032 271:0.0215054 272:0.0215054 273:0.11828 274:0.580645 275:0.129032 276:0 277:0 278:0 279:0 280:0.0430108 281:0.44086 282:0.408602 283:0.107527 284:0 285:0 286:0 287:0 288:0 289:0 290:0 291:0 292:0 293:0 294:0 295:0.172043 296:0.827957 297:0 298:0 299:0 300:0 301:0 302:0 303:0 304:0 305:0 306:0 307:0.0107527 308:0.989247 309:0 310:0 311:0 312:0 313:0 314:0 315:0 316:0 317:0 318:0 319:1 320:0 321:0 322:0 323:0 324:0 325:0 326:0 327:0 328:0 329:0 330:0 331:0 332:0.247312 333:0.752688 334:0 335:0 336:0 337:0 338:0 339:0 340:0 341:0 342:0.129032 343:0.0215054 344:0.27957 345:0.55914 346:0.0107527 347:0 348:0 349:0 350:0 351:0 352:0 353:0 354:0 355:1 356:0 357:0 358:0 359:0 360:0 361:0 362:0 363:0 364:0 365:0 366:0 367:0 368:0.537634 369:0.376344 370:0.0860215 371:0 372:0 373:0 374:0 375:0 376:0 377:0 378:0.150538 379:0.0107527 380:0.0215054 381:0.182796 382:0.55914 383:0.0752688 384:0 385:0 386:0 387:0 388:0 389:0 390:0.473118 391:0.473118 392:0.0537634 393:0 394:0 395:0 396:0 397:0 398:0 399:0 400:0 401:0 402:0 403:0.0430108 404:0.462366 405:0.344086 406:0.150538 407:0 408:0 409:0 410:0 411:0 412:0 413:0.107527 414:0.0430108 415:0.0107527 416:0.0107527 417:0.0752688 418:0.526882 419:0.225806 420:0 421:0 422:0 423:0 424:0 425:0 426:0.494624 427:0.44086 428:0.0645161 429:0 430:0 431:0 432:0 433:0 434:0 435:0 436:0 437:0 438:1 439:0 440:0 441:0 442:0 443:0 444:0 445:0 446:0 447:0 448:0 449:0 450:1 451:0 452:0 453:0 454:0 455:0 456:0 457:0 458:0 459:0 460:0 461:0 462:1 463:0 464:0 465:0 466:0 467:0 468:0 469:0 470:0 471:0 472:0 473:0 474:1 475:0 476:0 477:0 478:0 479:0 480:0 481:0 482:0 483:0 484:0 485:0.849462 486:0.150538 487:0 488:0 489:0 490:0 491:0 492:0 493:0 494:0 495:0 496:1 497:0 498:0 499:0 500:0 501:0 502:0 503:0 504:0 505:0 506:0 507:0 508:0 509:0 510:1 511:0 512:0 513:0 514:0 515:0 516:0 517:0 518:0 519:0 520:0.860215 521:0.139785 522:0 523:0 524:0 525:0 526:0 527:0 528:0 529:0 530:0 531:0.731183 532:0.268817 533:0 534:0 535:0 536:0 537:0 538:0 539:0 540:0 541:0 542:0 543:0 544:0 545:0 546:1 547:0 548:0 549:0 550:0 551:0 552:0 553:0 554:0 555:0 556:0.946237 557:0.0537634 558:0 559:0 560:0 561:0 562:0 563:0 564:0 565:0 566:0.0537634 567:0.935484 568:0.0107527 569:0 570:0 571:0 572:0 573:0 574:0 575:0 576:0 577:0 578:0 579:0 580:0 581:0 582:0 583:1 584:0 585:0 586:0 587:0 588:0 589:0 590:0 591:0 592:0 593:0 594:1 595:0 596:0 597:0 598:0 599:0 600:0 601:0 602:0 603:0 604:0 605:0 606:0.913979 607:0.0860215 608:0 609:0 610:0 611:0 612:0 613:0 614:0 615:0 616:0 617:0 618:0 619:0.935484 620:0.0645161 621:0 622:0 623:0 624:0 625:0 626:0 627:0 628:0 629:0.795699 630:0.204301 631:0 632:0 633:0 634:0 635:0 636:0 637:0 638:0 639:0 640:1 641:0 642:0 643:0 644:0 645:0 646:0 647:0 648:0 649:0 650:0 651:0 652:0 653:0 654:0 655:0.827957 656:0.172043 657:0 658:0 659:0 660:0 661:0 662:0 663:0 664:0.784946 665:0.215054 666:0 667:0 668:0 669:0 670:0 671:0 672:0 673:0 674:0 675:0.591398 676:0.408602 677:0 678:0 679:0 680:0 681:0 682:0 683:0 684:0 685:0 686:0 687:0 688:0 689:0 690:0 691:0.72043 692:0.27957 693:0 694:0 695:0 696:0 697:0 698:0 699:0 700:0.935484 701:0.0645161 702:0 703:0 704:0 705:0 706:0 707:0 708:0 709:0 710:0 711:1 712:0 713:0 714:0 715:0 716:0 717:0 718:0 719:0 720:0 
1 1 1 1 1 1:0 2:0 3:0 4:0 5:0 6:0 7:1 8:0 9:0 10:0 11:0 12:0 13:0 14:0 15:0 16:0 17:0 18:0 19:1 20:0 21:0 22:0 23:0 24:0 25:0 26:0 27:0 28:0 29:0 30:0 31:1 32:0 33:0 34:0 35:0 36:0 37:0 38:0 39:0 40:0 41:0 42:0.535948 43:0.464052 44:0 45:0 46:0 47:0 48:0 49:0 50:0 51:0 52:0 53:0 54:0 55:1 56:0 57:0 58:0 59:0 60:0 61:0 62:0 63:0 64:0 65:0 66:0 67:1 68:0 69:0 70:0 71:0 72:0 73:0 74:0 75:0 76:0 77:0 78:0.398693 79:0.601307 80:0 81:0 82:0 83:0 84:0 85:0 86:0 87:0 88:0 89:0 90:0 91:0 92:0.398693 93:0.601307 94:0 95:0 96:0 97:0 98:0 99:0 100:0 101:0 102:0 103:1 104:0 105:0 106:0 107:0 108:0 109:0 110:0 111:0 112:0 113:0 114:0.594771 115:0.405229 116:0 117:0 118:0 119:0 120:0 121:0 122:0 123:0 124:0 125:0 126:0 127:0 128:0 129:0.196078 130:0.803922 131:0 132:0 133:0 134:0 135:0 136:0 137:0 138:0.477124 139:0.522876 140:0 141:0 142:0 143:0 144:0 145:0 146:0 147:0 148:0 149:0.588235 150:0.411765 151:0 152:0 153:0 154:0 155:0 156:0 157:0 158:0 159:0 160:0 161:0 162:0 163:0 164:1 165:0 166:0 167:0 168:0 169:0 170:0 171:0 172:0 173:0 174:0.228758 175:0.732026 176:0.0392157 177:0 178:0 179:0 180:0 181:0 182:0 183:0 184:0.346405 185:0.653595 186:0 187:0 188:0 189:0 190:0 191:0 192:0 193:0 194:0 195:0 196:0 197:0 198:0 199:0.137255 200:0.156863 201:0.69281 202:0.0130719 203:0 204:0 205:0 206:0 207:0 208:0 209:0.202614 210:0.444444 211:0.352941 212:0 213:0 214:0 215:0 216:0 217:0 218:0 219:0 220:0.163399 221:0.72549 222:0.111111 223:0 224:0 225:0 226:0 227:0 228:0 229:0 230:0 231:0 232:0 233:0 234:0.111111 235:0.0130719 236:0.0130719 237:0.202614 238:0.660131 239:0 240:0 241:0 242:0 243:0 244:0.0588235 245:0.20915 246:0.51634 247:0.215686 248:0 249:0 250:0 251:0 252:0 253:0 254:0 255:0 256:0.163399 257:0.620915 258:0.215686 259:0 260:0 261:0 262:0 263:0 264:0 265:0 266:0 267:0 268:0 269:0.0522876 270:0.0588235 271:0.0130719 272:0.00653595 273:0.0849673 274:0.653595 275:0.130719 276:0 277:0 278:0 279:0 280:0.0784314 281:0.235294 282:0.503268 283:0.183007 284:0 285:0 286:0 287:0 288:0 289:0 290:0 291:0 292:0 293:0 294:0 295:0.248366 296:0.751634 297:0 298:0 299:0 300:0 301:0 302:0 303:0 304:0 305:0 306:0 307:0 308:1 309:0 310:0 311:0 312:0 313:0 314:0 315:0 316:0 317:0.00653595 318:0.163399 319:0.830065 320:0 321:0 322:0 323:0 324:0 325:0 326:0 327:0 328:0 329:0 330:0 331:0.0718954 332:0.424837 333:0.503268 334:0 335:0 336:0 337:0 338:0 339:0 340:0 341:0 342:0 343:0.130719 344:0.163399 345:0.699346 346:0.00653595 347:0 348:0 349:0 350:0 351:0 352:0 353:0.143791 354:0.418301 355:0.437909 356:0 357:0 358:0 359:0 360:0 361:0 362:0 363:0 364:0 365:0 366:0.0130719 367:0.111111 368:0.673203 369:0.183007 370:0.0196078 371:0 372:0 373:0 374:0 375:0 376:0 377:0 378:0.104575 379:0.0196078 380:0.0130719 381:0.196078 382:0.653595 383:0.0130719 384:0 385:0 386:0 387:0 388:0 389:0.267974 390:0.575163 391:0.156863 392:0 393:0 394:0 395:0 396:0 397:0 398:0 399:0 400:0 401:0 402:0.0261438 403:0.124183 404:0.660131 405:0.169935 406:0.0196078 407:0 408:0 409:0 410:0 411:0 412:0 413:0.0915033 414:0.0196078 415:0.0130719 416:0.00653595 417:0.0457516 418:0.607843 419:0.215686 420:0 421:0 422:0 423:0 424:0.0130719 425:0.254902 426:0.581699 427:0.150327 428:0 429:0 430:0 431:0 432:0 433:0 434:0 435:0 436:0 437:0 438:1 439:0 440:0 441:0 442:0 443:0 444:0 445:0 446:0 447:0 448:0 449:0 450:1 451:0 452:0 453:0 454:0 455:0 456:0 457:0 458:0 459:0 460:0 461:0 462:0.732026 463:0.267974 464:0 465:0 466:0 467:0 468:0 469:0 470:0 471:0 472:0 473:0.0915033 474:0.908497 475:0 476:0 477:0 478:0 479:0 480:0 481:0 482:0 483:0.287582 484:0.712418 485:0 486:0 487:0 488:0 489:0 490:0 491:0 492:0 493:0 494:0 495:0 496:0 497:0 498:0.816993 499:0.183007 500:0 501:0 502:0 503:0 504:0 505:0 506:0 507:0 508:0 509:0.254902 510:0.745098 511:0 512:0 513:0 514:0 515:0 516:0 517:0.0261438 518:0.954248 519:0.0196078 520:0 521:0 522:0 523:0 524:0 525:0 526:0 527:0 528:0 529:0 530:0 531:0 532:0 533:0 534:0.457516 535:0.542484 536:0 537:0 538:0 539:0 540:0 541:0 542:0 543:0 544:0 545:0.372549 546:0.627451 547:0 548:0 549:0 550:0 551:0 552:0 553:0.117647 554:0.882353 555:0 556:0 557:0 558:0 559:0 560:0 561:0 562:0 563:0 564:0 565:0 566:0 567:0 568:0 569:0.0392157 570:0.54902 571:0.411765 572:0 573:0 574:0 575:0 576:0 577:0 578:0 579:0 580:0 581:0 582:0 583:1 584:0 585:0 586:0 587:0 588:0 589:0 590:0 591:0 592:0 593:0 594:1 595:0 596:0 597:0 598:0 599:0 600:0 601:0 602:0 603:0 604:0 605:0 606:0.75817 607:0.24183 608:0 609:0 610:0 611:0 612:0 613:0 614:0 615:0 616:0 617:0 618:0 619:1 620:0 621:0 622:0 623:0 624:0 625:0 626:0 627:0.150327 628:0.849673 629:0 630:0 631:0 632:0 633:0 634:0 635:0 636:0 637:0 638:0 639:0 640:0 641:0 642:0.96732 643:0.0326797 644:0 645:0 646:0 647:0 648:0 649:0 650:0 651:0 652:0 653:0 654:0 655:0.895425 656:0.104575 657:0 658:0 659:0 660:0 661:0.0522876 662:0.947712 663:0 664:0 665:0 666:0 667:0 668:0 669:0 670:0 671:0 672:0 673:0 674:0 675:0 676:0 677:0.117647 678:0.660131 679:0.222222 680:0 681:0 682:0 683:0 684:0 685:0 686:0 687:0 688:0 689:0 690:0.0980392 691:0.784314 692:0.117647 693:0 694:0 695:0 696:0 697:0.0915033 698:0.856209 699:0.0522876 700:0 701:0 702:0 703:0 704:0 705:0 706:0 707:0 708:0 709:0 710:0 711:0 712:0 713:0.176471 714:0.816993 715:0.00653595 716:0 717:0 718:0 719:0 720:0 
1 1 1 1 1 1:0 2:0 3:0 4:0 5:0 6:0 7:1 8:0 9:0 10:0 11:0 12:0 13:0 14:0 15:0 16:0 17:0 18:0 19:1 20:0 21:0 22:0 23:0 24:0 25:0 26:0 27:0 28:0 29:0 30:0 31:1 32:0 33:0 34:0 35:0 36:0 37:0 38:0 39:0 40:0 41:0 42:0.851282 43:0.148718 44:0 45:0 46:0 47:0 48:0 49:0 50:0 51:0 52:0 53:0 54:0 55:1 56:0 57:0 58:0 59:0 60:0 61:0 62:0 63:0 64:0 65:0 66:0 67:1 68:0 69:0 70:0 71:0 72:0 73:0 74:0 75:0 76:0 77:0 78:0.964103 79:0.0358974 80:0 81:0 82:0 83:0 84:0 85:0 86:0 87:0 88:0 89:0 90:0 91:0 92:1 93:0 94:0 95:0 96:0 97:0 98:0 99:0 100:0 101:0 102:0 103:1 104:0 105:0 106:0 107:0 108:0 109:0 110:0 111:0 112:0 113:0 114:1 115:0 116:0 117:0 118:0 119:0 120:0 121:0 122:0 123:0 124:0 125:0 126:0 127:0 128:0 129:1 130:0 131:0 132:0 133:0 134:0 135:0 136:0 137:0 138:0 139:1 140:0 141:0 142:0 143:0 144:0 145:0 146:0 147:0 148:0 149:0.646154 150:0.353846 151:0 152:0 153:0 154:0 155:0 156:0 157:0 158:0 159:0 160:0 161:0 162:0 163:0.148718 164:0.851282 165:0 166:0 167:0 168:0 169:0 170:0 171:0 172:0 173:0 174:0 175:1 176:0 177:0 178:0 179:0 180:0 181:0 182:0 183:0 184:0.451282 185:0.548718 186:0 187:0 188:0 189:0 190:0 191:0 192:0 193:0 194:0 195:0 196:0 197:0 198:0 199:0.605128 200:0.266667 201:0.128205 202:0 203:0 204:0 205:0 206:0 207:0 208:0 209:0 210:0.651282 211:0.348718 212:0 213:0 214:0 215:0 216:0 217:0 218:0 219:0 220:0.384615 221:0.615385 222:0 223:0 224:0 225:0 226:0 227:0 228:0 229:0 230:0 231:0 232:0 233:0 234:0.205128 235:0.0102564 236:0.394872 237:0.251282 238:0.138462 239:0 240:0 241:0 242:0 243:0 244:0 245:0.025641 246:0.8 247:0.174359 248:0 249:0 250:0 251:0 252:0 253:0 254:0 255:0.0307692 256:0.241026 257:0.712821 258:0.0153846 259:0 260:0 261:0 262:0 263:0 264:0 265:0 266:0 267:0 268:0 269:0.0615385 270:0.14359 271:0.0102564 272:0.215385 273:0.358974 274:0.210256 275:0 276:0 277:0 278:0 279:0 280:0 281:0.0410256 282:0.671795 283:0.287179 284:0 285:0 286:0 287:0 288:0 289:0 290:0 291:0 292:0 293:0 294:0 295:0.928205 296:0.0717949 297:0 298:0 299:0 300:0 301:0 302:0 303:0 304:0 305:0 306:0 307:0.0410256 308:0.958974 309:0 310:0 311:0 312:0 313:0 314:0 315:0 316:0 317:0 318:0 319:1 320:0 321:0 322:0 323:0 324:0 325:0 326:0 327:0 328:0 329:0 330:0 331:0 332:0.974359 333:0.025641 334:0 335:0 336:0 337:0 338:0 339:0 340:0 341:0 342:0.102564 343:0.471795 344:0.317949 345:0.107692 346:0 347:0 348:0 349:0 350:0 351:0 352:0 353:0 354:0.54359 355:0.45641 356:0 357:0 358:0 359:0 360:0 361:0 362:0 363:0 364:0 365:0 366:0 367:0.0923077 368:0.810256 369:0.0974359 370:0 371:0 372:0 373:0 374:0 375:0 376:0 377:0.0102564 378:0.215385 379:0.0564103 380:0.384615 381:0.225641 382:0.107692 383:0 384:0 385:0 386:0 387:0 388:0 389:0.0153846 390:0.635897 391:0.348718 392:0 393:0 394:0 395:0 396:0 397:0 398:0 399:0 400:0 401:0 402:0 403:0.230769 404:0.661538 405:0.107692 406:0 407:0 408:0 409:0 410:0 411:0 412:0 413:0.112821 414:0.112821 415:0.0410256 416:0.25641 417:0.302564 418:0.174359 419:0 420:0 421:0 422:0 423:0 424:0 425:0.025641 426:0.594872 427:0.379487 428:0 429:0 430:0 431:0 432:0 433:0 434:0 435:0 436:0 437:0 438:1 439:0 440:0 441:0 442:0 443:0 444:0 445:0 446:0 447:0 448:0 449:0 450:1 451:0 452:0 453:0 454:0 455:0 456:0 457:0 458:0 459:0 460:0 461:0 462:1 463:0 464:0 465:0 466:0 467:0 468:0 469:0 470:0 471:0 472:0 473:0 474:0.102564 475:0.866667 476:0.0307692 477:0 478:0 479:0 480:0 481:0 482:0 483:0 484:0.492308 485:0.507692 486:0 487:0 488:0 489:0 490:0 491:0 492:0 493:0 494:0 495:0 496:0.210256 497:0.605128 498:0.153846 499:0.0307692 500:0 501:0 502:0 503:0 504:0 505:0 506:0 507:0 508:0 509:0.00512821 510:0.307692 511:0.68718 512:0 513:0 514:0 515:0 516:0 517:0 518:0 519:0.584615 520:0.384615 521:0.0307692 522:0 523:0 524:0 525:0 526:0 527:0 528:0 529:0 530:0 531:0 532:0.846154 533:0.153846 534:0 535:0 536:0 537:0 538:0 539:0 540:0 541:0 542:0 543:0 544:0 545:0 546:0.0974359 547:0.902564 548:0 549:0 550:0 551:0 552:0 553:0 554:0 555:0.548718 556:0.451282 557:0 558:0 559:0 560:0 561:0 562:0 563:0 564:0 565:0 566:0 567:0.0205128 568:0.928205 569:0.0512821 570:0 571:0 572:0 573:0 574:0 575:0 576:0 577:0 578:0 579:0 580:0 581:0 582:0 583:1 584:0 585:0 586:0 587:0 588:0 589:0 590:0 591:0 592:0 593:0 594:1 595:0 596:0 597:0 598:0 599:0 600:0 601:0 602:0 603:0 604:0 605:0 606:0.984615 607:0.0153846 608:0 609:0 610:0 611:0 612:0 613:0 614:0 615:0 616:0 617:0 618:0 619:0.953846 620:0.0461538 621:0 622:0 623:0 624:0 625:0 626:0 627:0 628:0.384615 629:0.615385 630:0 631:0 632:0 633:0 634:0 635:0 636:0 637:0 638:0 639:0 640:0.358974 641:0.45641 642:0.164103 643:0.0205128 644:0 645:0 646:0 647:0 648:0 649:0 650:0 651:0 652:0 653:0 654:0.0461538 655:0.892308 656:0.0615385 657:0 658:0 659:0 660:0 661:0 662:0 663:0.830769 664:0.169231 665:0 666:0 667:0 668:0 669:0 670:0 671:0 672:0 673:0 674:0 675:0 676:0.851282 677:0.148718 678:0 679:0 680:0 681:0 682:0 683:0 684:0 685:0 686:0 687:0 688:0 689:0 690:0 691:1 692:0 693:0 694:0 695:0 696:0 697:0 698:0 699:0.497436 700:0.502564 701:0 702:0 703:0 704:0 705:0 706:0 707:0 708:0 709:0 710:0 711:0.0153846 712:0.917949 713:0.0666667 714:0 715:0 716:0 717:0 718:0 719:0 720:0 
1 1 1 1 1 1:0 2:0 3:0 4:0 5:0 6:0 7:1 8:0 9:0 10:0 11:0 12:0 13:0 14:0 15:0 16:0 17:0 18:0 19:1 20:0 21:0 22:0 23:0 24:0 25:0 26:0 27:0 28:0 29:0 30:0 31:1 32:0 33:0 34:0 35:0 36:0 37:0 38:0 39:0 40:0 41:0 42:0.64486 43:0.35514 44:0 45:0 46:0 47:0 48:0 49:0 50:0 51:0 52:0 53:0 54:0 55:1 56:0 57:0 58:0 59:0 60:0 61:0 62:0 63:0 64:0 65:0 66:0 67:1 68:0 69:0 70:0 71:0 72:0 73:0 74:0 75:0 76:0 77:0 78:0.939252 79:0.0607477 80:0 81:0 82:0 83:0 84:0 85:0 86:0 87:0 88:0 89:0 90:0 91:0 92:0 93:1 94:0 95:0 96:0 97:0 98:0 99:0 100:0 101:0 102:0 103:1 104:0 105:0 106:0 107:0 108:0 109:0 110:0 111:0 112:0 113:0 114:0.766355 115:0.233645 116:0 117:0 118:0 119:0 120:0 121:0 122:0 123:0 124:0 125:0 126:0 127:0 128:0 129:0 130:1 131:0 132:0 133:0 134:0 135:0 136:0 137:0 138:0 139:1 140:0 141:0 142:0 143:0 144:0 145:0 146:0 147:0 148:0 149:0.462617 150:0.537383 151:0 152:0 153:0 154:0 155:0 156:0 157:0 158:0 159:0 160:0 161:0 162:0 163:0 164:1 165:0 166:0 167:0 168:0 169:0 170:0 171:0 172:0 173:0 174:0 175:1 176:0 177:0 178:0 179:0 180:0 181:0 182:0 183:0 184:0.121495 185:0.836449 186:0.0420561 187:0 188:0 189:0 190:0 191:0 192:0 193:0 194:0 195:0 196:0 197:0 198:0 199:0.649533 200:0.163551 201:0.135514 202:0.0514019 203:0 204:0 205:0 206:0 207:0 208:0 209:0 210:0.369159 211:0.630841 212:0 213:0 214:0 215:0 216:0 217:0 218:0 219:0 220:0.200935 221:0.799065 222:0 223:0 224:0 225:0 226:0 227:0 228:0 229:0 230:0 231:0 232:0 233:0 234:0.359813 235:0.0420561 236:0.238318 237:0.17757 238:0.140187 239:0.0420561 240:0 241:0 242:0 243:0 244:0 245:0.00934579 246:0.82243 247:0.168224 248:0 249:0 250:0 251:0 252:0 253:0 254:0 255:0.0373832 256:0.158879 257:0.794393 258:0.00934579 259:0 260:0 261:0 262:0 263:0 264:0 265:0 266:0 267:0 268:0 269:0.0934579 270:0.271028 271:0.0420561 272:0.102804 273:0.275701 274:0.11215 275:0.102804 276:0 277:0 278:0 279:0 280:0 281:0.0233645 282:0.766355 283:0.21028 284:0 285:0 286:0 287:0 288:0 289:0 290:0 291:0 292:0 293:0 294:0 295:0.995327 296:0.0046729 297:0 298:0 299:0 300:0 301:0 302:0 303:0 304:0 305:0 306:0 307:0 308:1 309:0 310:0 311:0 312:0 313:0 314:0 315:0 316:0 317:0 318:0.0607477 319:0.939252 320:0 321:0 322:0 323:0 324:0 325:0 326:0 327:0 328:0 329:0 330:0 331:0.0934579 332:0.845794 333:0.0607477 334:0 335:0 336:0 337:0 338:0 339:0 340:0 341:0 342:0 343:0.616822 344:0.219626 345:0.135514 346:0.0280374 347:0 348:0 349:0 350:0 351:0 352:0 353:0 354:0.21028 355:0.78972 356:0 357:0 358:0 359:0 360:0 361:0 362:0 363:0 364:0 365:0 366:0 367:0.0654206 368:0.850467 369:0.0841122 370:0 371:0 372:0 373:0 374:0 375:0 376:0 377:0 378:0.336449 379:0.0981308 380:0.186916 381:0.228972 382:0.126168 383:0.0233645 384:0 385:0 386:0 387:0 388:0 389:0.0186916 390:0.439252 391:0.542056 392:0 393:0 394:0 395:0 396:0 397:0 398:0 399:0 400:0 401:0 402:0 403:0.116822 404:0.803738 405:0.0794393 406:0 407:0 408:0 409:0 410:0 411:0 412:0 413:0.214953 414:0.121495 415:0.0841122 416:0.088785 417:0.294393 418:0.130841 419:0.0654206 420:0 421:0 422:0 423:0 424:0 425:0.0841122 426:0.378505 427:0.537383 428:0 429:0 430:0 431:0 432:0 433:0 434:0 435:0 436:0 437:0 438:1 439:0 440:0 441:0 442:0 443:0 444:0 445:0 446:0 447:0 448:0 449:0 450:1 451:0 452:0 453:0 454:0 455:0 456:0 457:0 458:0 459:0 460:0 461:0 462:0.892523 463:0.107477 464:0 465:0 466:0 467:0 468:0 469:0 470:0 471:0 472:0 473:0 474:1 475:0 476:0 477:0 478:0 479:0 480:0 481:0 482:0 483:0 484:1 485:0 486:0 487:0 488:0 489:0 490:0 491:0 492:0 493:0 494:0 495:0 496:0 497:0 498:0.556075 499:0.443925 500:0 501:0 502:0 503:0 504:0 505:0 506:0 507:0 508:0 509:0.0233645 510:0.976636 511:0 512:0 513:0 514:0 515:0 516:0 517:0 518:0.35514 519:0.64486 520:0 521:0 522:0 523:0 524:0 525:0 526:0 527:0 528:0 529:0 530:0 531:0 532:0 533:0 534:0.434579 535:0.565421 536:0 537:0 538:0 539:0 540:0 541:0 542:0 543:0 544:0 545:0.0327103 546:0.96729 547:0 548:0 549:0 550:0 551:0 552:0 553:0 554:0.911215 555:0.088785 556:0 557:0 558:0 559:0 560:0 561:0 562:0 563:0 564:0 565:0 566:0 567:0 568:0 569:0.0327103 570:0.761682 571:0.205607 572:0 573:0 574:0 575:0 576:0 577:0 578:0 579:0 580:0 581:0 582:0 583:1 584:0 585:0 586:0 587:0 588:0 589:0 590:0 591:0 592:0 593:0 594:1 595:0 596:0 597:0 598:0 599:0 600:0 601:0 602:0 603:0 604:0 605:0 606:0.757009 607:0.242991 608:0 609:0 610:0 611:0 612:0 613:0 614:0 615:0 616:0 617:0 618:0 619:1 620:0 621:0 622:0 623:0 624:0 625:0 626:0 627:0 628:1 629:0 630:0 631:0 632:0 633:0 634:0 635:0 636:0 637:0 638:0 639:0 640:0 641:0 642:0.457944 643:0.542056 644:0 645:0 646:0 647:0 648:0 649:0 650:0 651:0 652:0 653:0 654:0.0186916 655:0.873832 656:0.107477 657:0 658:0 659:0 660:0 661:0 662:0.799065 663:0.200935 664:0 665:0 666:0 667:0 668:0 669:0 670:0 671:0 672:0 673:0 674:0 675:0 676:0 677:0 678:0.654206 679:0.345794 680:0 681:0 682:0 683:0 684:0 685:0 686:0 687:0 688:0 689:0 690:0.0233645 691:0.892523 692:0.0841122 693:0 694:0 695:0 696:0 697:0 698:0.915888 699:0.0841122 700:0 701:0 702:0 703:0 704:0 705:0 706:0 707:0 708:0 709:0 710:0 711:0 712:0 713:0.0841122 714:0.780374 715:0.135514 716:0 717:0 718:0 719:0 720:0 
1 1 1 1 1 1:0 2:0 3:0 4:0 5:0 6:0 7:1 8:0 9:0 10:0 11:0 12:0 13:0 14:0 15:0 16:0 17:0 18:0 19:1 20:0 21:0 22:0 23:0 24:0 25:0 26:0 27:0 28:0 29:0 30:0 31:1 32:0 33:0 34:0 35:0 36:0 37:0 38:0 39:0 40:0 41:0 42:0.412698 43:0.587302 44:0 45:0 46:0 47:0 48:0 49:0 50:0 51:0 52:0 53:0 54:0 55:1 56:0 57:0 58:0 59:0 60:0 61:0 62:0 63:0 64:0 65:0 66:0.137566 67:0.862434 68:0 69:0 70:0 71:0 72:0 73:0 74:0 75:0 76:0 77:0 78:0.380952 79:0.613757 80:0.00529101 81:0 82:0 83:0 84:0 85:0 86:0 87:0 88:0 89:0 90:0 91:0.015873 92:0.962963 93:0.021164 94:0 95:0 96:0 97:0 98:0 99:0 100:0 101:0 102:0.328042 103:0.671958 104:0 105:0 106:0 107:0 108:0 109:0 110:0 111:0 112:0 113:0 114:0.42328 115:0.57672 116:0 117:0 118:0 119:0 120:0 121:0 122:0 123:0 124:0 125:0 126:0 127:0 128:0 129:0.640212 130:0.359788 131:0 132:0 133:0 134:0 135:0 136:0 137:0 138:0.619048 139:0.380952 140:0 141:0 142:0 143:0 144:0 145:0 146:0 147:0 148:0 149:0.232804 150:0.767196 151:0 152:0 153:0 154:0 155:0 156:0 157:0 158:0 159:0 160:0 161:0 162:0 163:0 164:1 165:0 166:0 167:0 168:0 169:0 170:0 171:0 172:0 173:0 174:0.121693 175:0.878307 176:0 177:0 178:0 179:0 180:0 181:0 182:0 183:0 184:0.0687831 185:0.486772 186:0.444444 187:0 188:0 189:0 190:0 191:0 192:0 193:0 194:0 195:0 196:0 197:0 198:0.179894 199:0.640212 200:0.0687831 201:0.111111 202:0 203:0 204:0 205:0 206:0 207:0 208:0 209:0.0740741 210:0.481481 211:0.391534 212:0.0529101 213:0 214:0 215:0 216:0 217:0 218:0 219:0 220:0 221:0.179894 222:0.656085 223:0.164021 224:0 225:0 226:0 227:0 228:0 229:0 230:0 231:0 232:0 233:0 234:0.328042 235:0.402116 236:0.100529 237:0.0846561 238:0.0846561 239:0 240:0 241:0 242:0 243:0 244:0.0634921 245:0.47619 246:0.455026 247:0.00529101 248:0 249:0 250:0 251:0 252:0 253:0 254:0 255:0 256:0 257:0.253968 258:0.444444 259:0.301587 260:0 261:0 262:0 263:0 264:0 265:0 266:0 267:0 268:0 269:0 270:0.328042 271:0.312169 272:0.179894 273:0.0687831 274:0.0899471 275:0.021164 276:0 277:0 278:0 279:0.00529101 280:0.116402 281:0.761905 282:0.116402 283:0 284:0 285:0 286:0 287:0 288:0 289:0 290:0 291:0 292:0 293:0 294:0.00529101 295:0.31746 296:0.677249 297:0 298:0 299:0 300:0 301:0 302:0 303:0 304:0 305:0 306:0 307:0 308:1 309:0 310:0 311:0 312:0 313:0 314:0 315:0 316:0 317:0 318:0.26455 319:0.73545 320:0 321:0 322:0 323:0 324:0 325:0 326:0 327:0 328:0 329:0 330:0 331:0.190476 332:0.677249 333:0.132275 334:0 335:0 336:0 337:0 338:0 339:0 340:0 341:0 342:0.259259 343:0.354497 344:0.291005 345:0.0952381 346:0 347:0 348:0 349:0 350:0 351:0 352:0.00529101 353:0.201058 354:0.26455 355:0.449735 356:0.0793651 357:0 358:0 359:0 360:0 361:0 362:0 363:0 364:0 365:0 366:0.0793651 367:0.391534 368:0.322751 369:0.206349 370:0 371:0 372:0 373:0 374:0 375:0 376:0 377:0.031746 378:0.042328 379:0.486772 380:0.0846561 381:0.26455 382:0.0899471 383:0 384:0 385:0 386:0 387:0.148148 388:0.0740741 389:0.206349 390:0.328042 391:0.0687831 392:0.15873 393:0.015873 394:0 395:0 396:0 397:0 398:0 399:0 400:0 401:0 402:0.0899471 403:0.407407 404:0.386243 405:0.10582 406:0.010582 407:0 408:0 409:0 410:0 411:0 412:0 413:0.042328 414:0.0529101 415:0.402116 416:0.126984 417:0.269841 418:0.0740741 419:0.031746 420:0 421:0 422:0.0952381 423:0.10582 424:0.0740741 425:0.338624 426:0.148148 427:0.0529101 428:0.0634921 429:0.121693 430:0 431:0 432:0 433:0 434:0 435:0 436:0 437:0 438:1 439:0 440:0 441:0 442:0 443:0 444:0 445:0 446:0 447:0 448:0 449:0 450:1 451:0 452:0 453:0 454:0 455:0 456:0 457:0 458:0 459:0 460:0 461:0 462:0.693122 463:0.306878 464:0 465:0 466:0 467:0 468:0 469:0 470:0 471:0 472:0 473:0.0846561 474:0.915344 475:0 476:0 477:0 478:0 479:0 480:0 481:0 482:0 483:0 484:0 485:0.68254 486:0.31746 487:0 488:0 489:0 490:0 491:0 492:0 493:0 494:0 495:0 496:0.513228 497:0.486772 498:0 499:0 500:0 501:0 502:0 503:0 504:0 505:0 506:0 507:0 508:0.00529101 509:0.767196 510:0.116402 511:0.111111 512:0 513:0 514:0 515:0 516:0 517:0 518:0 519:0 520:0.989418 521:0.010582 522:0 523:0 524:0 525:0 526:0 527:0 528:0 529:0 530:0 531:0 532:0.179894 533:0.804233 534:0.015873 535:0 536:0 537:0 538:0 539:0 540:0 541:0 542:0 543:0 544:0 545:0.666667 546:0.328042 547:0.00529101 548:0 549:0 550:0 551:0 552:0 553:0 554:0 555:0.037037 556:0.962963 557:0 558:0 559:0 560:0 561:0 562:0 563:0 564:0 565:0 566:0 567:0.037037 568:0.439153 569:0.513228 570:0.010582 571:0 572:0 573:0 574:0 575:0 576:0 577:0 578:0 579:0 580:0 581:0 582:0 583:1 584:0 585:0 586:0 587:0 588:0 589:0 590:0 591:0 592:0 593:0 594:1 595:0 596:0 597:0 598:0 599:0 600:0 601:0 602:0 603:0 604:0 605:0 606:0.867725 607:0.132275 608:0 609:0 610:0 611:0 612:0 613:0 614:0 615:0 616:0 617:0 618:0 619:0.185185 620:0.814815 621:0 622:0 623:0 624:0 625:0 626:0 627:0 628:0 629:0.666667 630:0.333333 631:0 632:0 633:0 634:0 635:0 636:0 637:0 638:0 639:0 640:0.222222 641:0.777778 642:0 643:0 644:0 645:0 646:0 647:0 648:0 649:0 650:0 651:0 652:0 653:0 654:0.047619 655:0.328042 656:0.624339 657:0 658:0 659:0 660:0 661:0 662:0 663:0.275132 664:0.708995 665:0.015873 666:0 667:0 668:0 669:0 670:0 671:0 672:0 673:0 674:0 675:0 676:0.592593 677:0.31746 678:0.0899471 679:0 680:0 681:0 682:0 683:0 684:0 685:0 686:0 687:0 688:0 689:0 690:0 691:0.455026 692:0.544974 693:0 694:0 695:0 696:0 697:0 698:0.015873 699:0.375661 700:0.608466 701:0 702:0 703:0 704:0 705:0 706:0 707:0 708:0 709:0 710:0 711:0.037037 712:0.714286 713:0.248677 714:0 715:0 716:0 717:0 718:0 719:0 720:0 
1 1 1 1 1 1:0 2:0 3:0 4:0 5:0 6:0 7:1 8:0 9:0 10:0 11:0 12:0 13:0 14:0 15:0 16:0 17:0 18:0 19:1 20:0 21:0 22:0 23:0 24:0 25:0 26:0 27:0 28:0 29:0 30:0 31:1 32:0 33:0 34:0 35:0 36:0 37:0 38:0 39:0 40:0 41:0 42:0.984456 43:0.015544 44:0 45:0 46:0 47:0 48:0 49:0 50:0 51:0 52:0 53:0 54:0.196891 55:0.803109 56:0 57:0 58:0 59:0 60:0 61:0 62:0 63:0 64:0 65:0 66:0.450777 67:0.549223 68:0 69:0 70:0 71:0 72:0 73:0 74:0 75:0 76:0 77:0.108808 78:0.663212 79:0.227979 80:0 81:0 82:0 83:0 84:0 85:0 86:0 87:0 88:0 89:0 90:0.196891 91:0 92:0.626943 93:0.176166 94:0 95:0 96:0 97:0 98:0 99:0 100:0 101:0 102:0.274611 103:0.715026 104:0.0103627 105:0 106:0 107:0 108:0 109:0 110:0 111:0 112:0 113:0 114:0.492228 115:0.507772 116:0 117:0 118:0 119:0 120:0 121:0 122:0 123:0 124:0 125:0 126:0 127:0.196891 128:0 129:0.492228 130:0.310881 131:0 132:0 133:0 134:0 135:0 136:0 137:0.0984456 138:0.284974 139:0.61658 140:0 141:0 142:0 143:0 144:0 145:0 146:0 147:0 148:0.0880829 149:0.585492 150:0.326425 151:0 152:0 153:0 154:0 155:0 156:0 157:0 158:0 159:0 160:0 161:0.139896 162:0.0569948 163:0.15544 164:0.647668 165:0 166:0 167:0 168:0 169:0 170:0 171:0 172:0 173:0 174:0.569948 175:0.430052 176:0 177:0 178:0 179:0 180:0 181:0 182:0 183:0.0362694 184:0.217617 185:0.626943 186:0.119171 187:0 188:0 189:0 190:0 191:0 192:0 193:0 194:0 195:0 196:0 197:0.0362694 198:0.119171 199:0.544041 200:0.124352 201:0.176166 202:0 203:0 204:0 205:0 206:0 207:0 208:0 209:0.19171 210:0.466321 211:0.341969 212:0 213:0 214:0 215:0 216:0 217:0.00518135 218:0.0310881 219:0.00518135 220:0.186529 221:0.362694 222:0.352332 223:0.0569948 224:0 225:0 226:0 227:0 228:0 229:0 230:0 231:0 232:0 233:0.150259 234:0.233161 235:0.150259 236:0.170984 237:0.108808 238:0.186529 239:0 240:0 241:0 242:0 243:0 244:0.0621762 245:0.430052 246:0.357513 247:0.150259 248:0 249:0 250:0 251:0 252:0 253:0.0466321 254:0.00518135 255:0 256:0.15544 257:0.264249 258:0.388601 259:0.139896 260:0 261:0 262:0 263:0 264:0 265:0 266:0 267:0.015544 268:0.00518135 269:0.181347 270:0.181347 271:0.150259 272:0.15544 273:0.0673575 274:0.227979 275:0.015544 276:0 277:0 278:0 279:0 280:0.119171 281:0.430052 282:0.310881 283:0.139896 284:0 285:0 286:0 287:0 288:0 289:0 290:0.0777202 291:0.0880829 292:0.103627 293:0.0466321 294:0 295:0.341969 296:0.341969 297:0 298:0 299:0 300:0 301:0.0259067 302:0.0932643 303:0.124352 304:0.0725389 305:0 306:0 307:0 308:0.683938 309:0 310:0 311:0 312:0 313:0 314:0 315:0 316:0 317:0 318:0.0777202 319:0.518135 320:0.38342 321:0.0207254 322:0 323:0 324:0 325:0 326:0 327:0.0777202 328:0.0984456 329:0.139896 330:0 331:0.0984456 332:0.378238 333:0.207254 334:0 335:0 336:0 337:0 338:0.015544 339:0.19171 340:0.103627 341:0.00518135 342:0.0207254 343:0.357513 344:0.0829016 345:0.222798 346:0 347:0 348:0 349:0 350:0 351:0 352:0 353:0 354:0.103627 355:0.445596 356:0.274611 357:0.170984 358:0.00518135 359:0 360:0 361:0 362:0 363:0 364:0.0621762 365:0.207254 366:0.0984456 367:0.145078 368:0.38342 369:0.103627 370:0 371:0 372:0 373:0 374:0 375:0.145078 376:0.0984456 377:0.145078 378:0.150259 379:0.129534 380:0.0518135 381:0.108808 382:0.170984 383:0 384:0 385:0 386:0 387:0 388:0.0103627 389:0.0932643 390:0.357513 391:0.222798 392:0.310881 393:0.00518135 394:0 395:0 396:0 397:0 398:0 399:0 400:0.015544 401:0.134715 402:0.0932643 403:0.212435 404:0.393782 405:0.129534 406:0.0207254 407:0 408:0 409:0 410:0 411:0.145078 412:0.0621762 413:0.165803 414:0.150259 415:0.134715 416:0.0518135 417:0.0569948 418:0.212435 419:0.0207254 420:0 421:0 422:0 423:0 424:0.0621762 425:0.19171 426:0.326425 427:0.217617 428:0.202073 429:0 430:0 431:0 432:0 433:0 434:0 435:0 436:0 437:0 438:0.683938 439:0.316062 440:0 441:0 442:0 443:0 444:0 445:0 446:0 447:0 448:0 449:0.0414508 450:0.761658 451:0.196891 452:0 453:0 454:0 455:0 456:0 457:0 458:0 459:0 460:0 461:0 462:0.906736 463:0.0932643 464:0 465:0 466:0 467:0 468:0 469:0 470:0 471:0 472:0 473:0 474:0.715026 475:0.207254 476:0.0725389 477:0.00518135 478:0 479:0 480:0 481:0 482:0 483:0.440415 484:0.378238 485:0.181347 486:0 487:0 488:0 489:0 490:0 491:0 492:0 493:0 494:0 495:0 496:0 497:0.0259067 498:0.865285 499:0.108808 500:0 501:0 502:0 503:0 504:0 505:0 506:0 507:0 508:0 509:0.212435 510:0.601036 511:0.124352 512:0.0569948 513:0.00518135 514:0 515:0 516:0 517:0.202073 518:0.626943 519:0.170984 520:0 521:0 522:0 523:0 524:0 525:0 526:0 527:0 528:0 529:0 530:0 531:0 532:0 533:0.0829016 534:0.621762 535:0.295337 536:0 537:0 538:0 539:0 540:0 541:0 542:0 543:0 544:0 545:0.0880829 546:0.740933 547:0.129534 548:0.0414508 549:0 550:0 551:0 552:0 553:0.512953 554:0.305699 555:0.181347 556:0 557:0 558:0 559:0 560:0 561:0 562:0 563:0 564:0 565:0 566:0 567:0 568:0 569:0.15544 570:0.715026 571:0.129534 572:0 573:0 574:0 575:0 576:0 577:0 578:0 579:0 580:0 581:0 582:0.119171 583:0.880829 584:0 585:0 586:0 587:0 588:0 589:0 590:0 591:0 592:0.0880829 593:0.0310881 594:0.699482 595:0.181347 596:0 597:0 598:0 599:0 600:0 601:0 602:0 603:0 604:0 605:0 606:0.518135 607:0.481865 608:0 609:0 610:0 611:0 612:0 613:0 614:0 615:0 616:0 617:0 618:0.015544 619:0.756477 620:0.202073 621:0.0259067 622:0 623:0 624:0 625:0 626:0.0103627 627:0.445596 628:0.435233 629:0.0984456 630:0.00518135 631:0.00518135 632:0 633:0 634:0 635:0 636:0 637:0 638:0 639:0 640:0 641:0.0310881 642:0.393782 643:0.57513 644:0 645:0 646:0 647:0 648:0 649:0 650:0 651:0 652:0 653:0 654:0.00518135 655:0.668394 656:0.26943 657:0.0414508 658:0.015544 659:0 660:0 661:0.11399 662:0.704663 663:0.170984 664:0.00518135 665:0.00518135 666:0 667:0 668:0 669:0 670:0 671:0 672:0 673:0 674:0 675:0 676:0 677:0.0673575 678:0.186529 679:0.222798 680:0.523316 681:0 682:0 683:0 684:0 685:0 686:0 687:0 688:0 689:0 690:0 691:0.694301 692:0.243523 693:0.0621762 694:0 695:0 696:0 697:0.170984 698:0.735751 699:0.0880829 700:0.00518135 701:0 702:0 703:0 704:0 705:0 706:0 707:0 708:0 709:0 710:0 711:0 712:0 713:0.0466321 714:0.227979 715:0.689119 716:0.0362694 717:0 718:0 719:0 720:0 
1 1 1 1 1 1:0 2:0 3:0 4:0 5:0 6:0 7:1 8:0 9:0 10:0 11:0 12:0 13:0 14:0 15:0 16:0 17:0 18:0 19:1 20:0 21:0 22:0 23:0 24:0 25:0 26:0 27:0 28:0 29:0 30:0 31:1 32:0 33:0 34:0 35:0 36:0 37:0 38:0 39:0 40:0 41:0 42:1 43:0 44:0 45:0 46:0 47:0 48:0 49:0 50:0 51:0 52:0 53:0 54:0 55:1 56:0 57:0 58:0 59:0 60:0 61:0 62:0 63:0 64:0 65:0 66:0.0517241 67:0.948276 68:0 69:0 70:0 71:0 72:0 73:0 74:0 75:0 76:0 77:0 78:0.568965 79:0.431034 80:0 81:0 82:0 83:0 84:0 85:0 86:0 87:0 88:0 89:0 90:0 91:0 92:0.810345 93:0.189655 94:0 95:0 96:0 97:0 98:0 99:0 100:0 101:0 102:0.155172 103:0.844828 104:0 105:0 106:0 107:0 108:0 109:0 110:0 111:0 112:0 113:0 114:0 115:1 116:0 117:0 118:0 119:0 120:0 121:0 122:0 123:0 124:0 125:0 126:0 127:0 128:0 129:0.560345 130:0.439655 131:0 132:0 133:0 134:0 135:0 136:0 137:0 138:0.491379 139:0.508621 140:0 141:0 142:0 143:0 144:0 145:0 146:0 147:0 148:0 149:0.551724 150:0.448276 151:0 152:0 153:0 154:0 155:0 156:0 157:0 158:0 159:0 160:0 161:0 162:0 163:0 164:1 165:0 166:0 167:0 168:0 169:0 170:0 171:0 172:0 173:0 174:0.724138 175:0.275862 176:0 177:0 178:0 179:0 180:0 181:0 182:0 183:0 184:0.517241 185:0.482759 186:0 187:0 188:0 189:0 190:0 191:0 192:0 193:0 194:0 195:0 196:0 197:0 198:0 199:0.448276 200:0.198276 201:0.353448 202:0 203:0 204:0 205:0 206:0 207:0 208:0 209:0.0258621 210:0.974138 211:0 212:0 213:0 214:0 215:0 216:0 217:0 218:0 219:0 220:0.0862069 221:0.5 222:0.37931 223:0.0344828 224:0 225:0 226:0 227:0 228:0 229:0 230:0 231:0 232:0 233:0 234:0.318966 235:0.0775862 236:0.0517241 237:0.224138 238:0.327586 239:0 240:0 241:0 242:0 243:0 244:0 245:0.715517 246:0.284483 247:0 248:0 249:0 250:0 251:0 252:0 253:0 254:0 255:0 256:0.0431034 257:0.508621 258:0.37069 259:0.0775862 260:0 261:0 262:0 263:0 264:0 265:0 266:0 267:0 268:0 269:0.00862069 270:0.310345 271:0.0689655 272:0.0431034 273:0.12069 274:0.336207 275:0.112069 276:0 277:0 278:0 279:0 280:0.12931 281:0.603448 282:0.267241 283:0 284:0 285:0 286:0 287:0 288:0 289:0 290:0 291:0 292:0 293:0 294:0 295:0.0862069 296:0.913793 297:0 298:0 299:0 300:0 301:0 302:0 303:0 304:0 305:0 306:0 307:0 308:1 309:0 310:0 311:0 312:0 313:0 314:0 315:0 316:0 317:0 318:0.0603448 319:0.939655 320:0 321:0 322:0 323:0 324:0 325:0 326:0 327:0 328:0 329:0 330:0 331:0 332:0.491379 333:0.508621 334:0 335:0 336:0 337:0 338:0 339:0 340:0 341:0 342:0 343:0.448276 344:0.206897 345:0.344828 346:0 347:0 348:0 349:0 350:0 351:0 352:0 353:0 354:0.75 355:0.25 356:0 357:0 358:0 359:0 360:0 361:0 362:0 363:0 364:0 365:0 366:0 367:0.0689655 368:0.681035 369:0.25 370:0 371:0 372:0 373:0 374:0 375:0 376:0 377:0 378:0.137931 379:0.267241 380:0.0517241 381:0.181034 382:0.362069 383:0 384:0 385:0 386:0 387:0 388:0 389:0.525862 390:0.474138 391:0 392:0 393:0 394:0 395:0 396:0 397:0 398:0 399:0 400:0 401:0 402:0.0431034 403:0.0517241 404:0.663793 405:0.241379 406:0 407:0 408:0 409:0 410:0 411:0 412:0 413:0 414:0.146552 415:0.224138 416:0.0775862 417:0.0517241 418:0.318966 419:0.181034 420:0 421:0 422:0 423:0 424:0.112069 425:0.456897 426:0.431034 427:0 428:0 429:0 430:0 431:0 432:0 433:0 434:0 435:0 436:0 437:0 438:1 439:0 440:0 441:0 442:0 443:0 444:0 445:0 446:0 447:0 448:0 449:0 450:1 451:0 452:0 453:0 454:0 455:0 456:0 457:0 458:0 459:0 460:0 461:0 462:1 463:0 464:0 465:0 466:0 467:0 468:0 469:0 470:0 471:0 472:0 473:0.586207 474:0.413793 475:0 476:0 477:0 478:0 479:0 480:0 481:0 482:0 483:0 484:0 485:0.836207 486:0.163793 487:0 488:0 489:0 490:0 491:0 492:0 493:0 494:0 495:0 496:0.318966 497:0.681035 498:0 499:0 500:0 501:0 502:0 503:0 504:0 505:0 506:0 507:0 508:0 509:0.474138 510:0.525862 511:0 512:0 513:0 514:0 515:0 516:0 517:0 518:0 519:0.663793 520:0.336207 521:0 522:0 523:0 524:0 525:0 526:0 527:0 528:0 529:0 530:0 531:0 532:0.577586 533:0.422414 534:0 535:0 536:0 537:0 538:0 539:0 540:0 541:0 542:0 543:0 544:0 545:0.12931 546:0.87069 547:0 548:0 549:0 550:0 551:0 552:0 553:0 554:0 555:0.681035 556:0.318966 557:0 558:0 559:0 560:0 561:0 562:0 563:0 564:0 565:0 566:0 567:0 568:0.87069 569:0.12931 570:0 571:0 572:0 573:0 574:0 575:0 576:0 577:0 578:0 579:0 580:0 581:0 582:0 583:1 584:0 585:0 586:0 587:0 588:0 589:0 590:0 591:0 592:0 593:0 594:1 595:0 596:0 597:0 598:0 599:0 600:0 601:0 602:0 603:0 604:0 605:0 606:0.0689655 607:0.931035 608:0 609:0 610:0 611:0 612:0 613:0 614:0 615:0 616:0 617:0 618:0 619:0 620:1 621:0 622:0 623:0 624:0 625:0 626:0 627:0 628:0 629:0.75 630:0.25 631:0 632:0 633:0 634:0 635:0 636:0 637:0 638:0 639:0 640:0 641:1 642:0 643:0 644:0 645:0 646:0 647:0 648:0 649:0 650:0 651:0 652:0 653:0 654:0 655:0 656:1 657:0 658:0 659:0 660:0 661:0 662:0 663:0.646552 664:0.353448 665:0 666:0 667:0 668:0 669:0 670:0 671:0 672:0 673:0 674:0 675:0 676:0.62069 677:0.37931 678:0 679:0 680:0 681:0 682:0 683:0 684:0 685:0 686:0 687:0 688:0 689:0 690:0 691:0 692:1 693:0 694:0 695:0 696:0 697:0 698:0 699:0.672414 700:0.327586 701:0 702:0 703:0 704:0 705:0 706:0 707:0 708:0 709:0 710:0 711:0 712:0.974138 713:0.0258621 714:0 715:0 716:0 717:0 718:0 719:0 720:0 
1 1 1 1 1 1:0 2:0 3:0 4:0 5:0 6:0 7:1 8:0 9:0 10:0 11:0 12:0 13:0 14:0 15:0 16:0 17:0 18:0 19:1 20:0 21:0 22:0 23:0 24:0 25:0 26:0 27:0 28:0 29:0 30:0 31:1 32:0 33:0 34:0 35:0 36:0 37:0 38:0 39:0 40:0 41:0 42:0.522013 43:0.477987 44:0 45:0 46:0 47:0 48:0 49:0 50:0 51:0 52:0 53:0 54:0 55:1 56:0 57:0 58:0 59:0 60:0 61:0 62:0 63:0 64:0 65:0 66:0 67:1 68:0 69:0 70:0 71:0 72:0 73:0 74:0 75:0 76:0 77:0 78:0.534591 79:0.465409 80:0 81:0 82:0 83:0 84:0 85:0 86:0 87:0 88:0 89:0 90:0 91:0 92:0.081761 93:0.918239 94:0 95:0 96:0 97:0 98:0 99:0 100:0 101:0 102:0 103:1 104:0 105:0 106:0 107:0 108:0 109:0 110:0 111:0 112:0 113:0 114:0.18239 115:0.81761 116:0 117:0 118:0 119:0 120:0 121:0 122:0 123:0 124:0 125:0 126:0 127:0 128:0 129:0.257862 130:0.742138 131:0 132:0 133:0 134:0 135:0 136:0 137:0 138:0.314465 139:0.685535 140:0 141:0 142:0 143:0 144:0 145:0 146:0 147:0 148:0 149:0.584906 150:0.415094 151:0 152:0 153:0 154:0 155:0 156:0 157:0 158:0 159:0 160:0 161:0 162:0 163:0 164:1 165:0 166:0 167:0 168:0 169:0 170:0 171:0 172:0 173:0 174:0.226415 175:0.773585 176:0 177:0 178:0 179:0 180:0 181:0 182:0 183:0 184:0.471698 185:0.528302 186:0 187:0 188:0 189:0 190:0 191:0 192:0 193:0 194:0 195:0 196:0 197:0 198:0 199:0.169811 200:0.257862 201:0.572327 202:0 203:0 204:0 205:0 206:0 207:0 208:0 209:0 210:0.679245 211:0.320755 212:0 213:0 214:0 215:0 216:0 217:0 218:0 219:0.0754717 220:0.207547 221:0.641509 222:0.0754717 223:0 224:0 225:0 226:0 227:0 228:0 229:0 230:0 231:0 232:0 233:0 234:0.0440252 235:0.0691824 236:0.106918 237:0.295597 238:0.484277 239:0 240:0 241:0 242:0 243:0 244:0 245:0.138365 246:0.861635 247:0 248:0 249:0 250:0 251:0 252:0 253:0 254:0 255:0.138365 256:0.119497 257:0.490566 258:0.251572 259:0 260:0 261:0 262:0 263:0 264:0 265:0 266:0 267:0 268:0 269:0 270:0.0251572 271:0.0754717 272:0.0943396 273:0.213836 274:0.534591 275:0.0566038 276:0 277:0 278:0 279:0 280:0 281:0.226415 282:0.767296 283:0.00628931 284:0 285:0 286:0 287:0 288:0 289:0 290:0 291:0 292:0 293:0 294:0 295:0.0754717 296:0.924528 297:0 298:0 299:0 300:0 301:0 302:0 303:0 304:0 305:0 306:0 307:0 308:0.987421 309:0.0125786 310:0 311:0 312:0 313:0 314:0 315:0 316:0 317:0 318:0 319:1 320:0 321:0 322:0 323:0 324:0 325:0 326:0 327:0 328:0 329:0 330:0 331:0 332:0.308176 333:0.691824 334:0 335:0 336:0 337:0 338:0 339:0 340:0 341:0 342:0 343:0.220126 344:0.238994 345:0.509434 346:0.0314465 347:0 348:0 349:0 350:0 351:0 352:0 353:0 354:0.327044 355:0.672956 356:0 357:0 358:0 359:0 360:0 361:0 362:0 363:0 364:0 365:0 366:0 367:0.0314465 368:0.522013 369:0.27044 370:0.176101 371:0 372:0 373:0 374:0 375:0 376:0 377:0 378:0 379:0.119497 380:0.132075 381:0.308176 382:0.383648 383:0.0566038 384:0 385:0 386:0 387:0 388:0 389:0.0251572 390:0.849057 391:0.125786 392:0 393:0 394:0 395:0 396:0 397:0 398:0 399:0 400:0 401:0 402:0 403:0.0754717 404:0.503145 405:0.201258 406:0.106918 407:0.113208 408:0 409:0 410:0 411:0 412:0 413:0 414:0 415:0.100629 416:0.113208 417:0.264151 418:0.352201 419:0.169811 420:0 421:0 422:0 423:0 424:0 425:0.169811 426:0.761006 427:0.0691824 428:0 429:0 430:0 431:0 432:0 433:0 434:0 435:0 436:0 437:0 438:1 439:0 440:0 441:0 442:0 443:0 444:0 445:0 446:0 447:0 448:0 449:0 450:1 451:0 452:0 453:0 454:0 455:0 456:0 457:0 458:0 459:0 460:0 461:0 462:1 463:0 464:0 465:0 466:0 467:0 468:0 469:0 470:0 471:0 472:0 473:0.0314465 474:0.968553 475:0 476:0 477:0 478:0 479:0 480:0 481:0 482:0 483:0.54717 484:0.45283 485:0 486:0 487:0 488:0 489:0 490:0 491:0 492:0 493:0 494:0 495:0 496:0 497:0 498:0.238994 499:0.761006 500:0 501:0 502:0 503:0 504:0 505:0 506:0 507:0 508:0 509:0.295597 510:0.704403 511:0 512:0 513:0 514:0 515:0 516:0 517:0.0188679 518:0.981132 519:0 520:0 521:0 522:0 523:0 524:0 525:0 526:0 527:0 528:0 529:0 530:0 531:0 532:0 533:0 534:0.201258 535:0.761006 536:0.0377358 537:0 538:0 539:0 540:0 541:0 542:0 543:0 544:0 545:0.138365 546:0.861635 547:0 548:0 549:0 550:0 551:0 552:0 553:0.213836 554:0.779874 555:0.00628931 556:0 557:0 558:0 559:0 560:0 561:0 562:0 563:0 564:0 565:0 566:0 567:0 568:0 569:0 570:0.559748 571:0.440252 572:0 573:0 574:0 575:0 576:0 577:0 578:0 579:0 580:0 581:0 582:0 583:1 584:0 585:0 586:0 587:0 588:0 589:0 590:0 591:0 592:0 593:0 594:1 595:0 596:0 597:0 598:0 599:0 600:0 601:0 602:0 603:0 604:0 605:0 606:0.666667 607:0.333333 608:0 609:0 610:0 611:0 612:0 613:0 614:0 615:0 616:0 617:0 618:0 619:1 620:0 621:0 622:0 623:0 624:0 625:0 626:0 627:0.377358 628:0.622642 629:0 630:0 631:0 632:0 633:0 634:0 635:0 636:0 637:0 638:0 639:0 640:0 641:0 642:0.320755 643:0.679245 644:0 645:0 646:0 647:0 648:0 649:0 650:0 651:0 652:0 653:0 654:0.0188679 655:0.704403 656:0.27673 657:0 658:0 659:0 660:0 661:0.176101 662:0.823899 663:0 664:0 665:0 666:0 667:0 668:0 669:0 670:0 671:0 672:0 673:0 674:0 675:0 676:0 677:0 678:0.358491 679:0.641509 680:0 681:0 682:0 683:0 684:0 685:0 686:0 687:0 688:0 689:0 690:0 691:0.830189 692:0.169811 693:0 694:0 695:0 696:0 697:0.238994 698:0.761006 699:0 700:0 701:0 702:0 703:0 704:0 705:0 706:0 707:0 708:0 709:0 710:0 711:0 712:0 713:0.113208 714:0.672956 715:0.213836 716:0 717:0 718:0 719:0 720:0 
1 1 1 1 1 1:0 2:0 3:0 4:0 5:0 6:0 7:1 8:0 9:0 10:0 11:0 12:0 13:0 14:0 15:0 16:0 17:0 18:0 19:1 20:0 21:0 22:0 23:0 24:0 25:0 26:0 27:0 28:0 29:0 30:0 31:1 32:0 33:0 34:0 35:0 36:0 37:0 38:0 39:0 40:0 41:0 42:0.866995 43:0.133005 44:0 45:0 46:0 47:0 48:0 49:0 50:0 51:0 52:0 53:0 54:0 55:1 56:0 57:0 58:0 59:0 60:0 61:0 62:0 63:0 64:0 65:0 66:0 67:1 68:0 69:0 70:0 71:0 72:0 73:0 74:0 75:0 76:0 77:0 78:0.738916 79:0.261084 80:0 81:0 82:0 83:0 84:0 85:0 86:0 87:0 88:0 89:0 90:0 91:0 92:1 93:0 94:0 95:0 96:0 97:0 98:0 99:0 100:0 101:0 102:0 103:0.118227 104:0.881773 105:0 106:0 107:0 108:0 109:0 110:0 111:0 112:0 113:0 114:0.0837438 115:0.916256 116:0 117:0 118:0 119:0 120:0 121:0 122:0 123:0 124:0 125:0 126:0 127:0 128:0 129:1 130:0 131:0 132:0 133:0 134:0 135:0 136:0 137:0 138:0 139:0 140:1 141:0 142:0 143:0 144:0 145:0 146:0 147:0 148:0 149:0 150:1 151:0 152:0 153:0 154:0 155:0 156:0 157:0 158:0 159:0 160:0 161:0 162:0 163:0.044335 164:0.955665 165:0 166:0 167:0 168:0 169:0 170:0 171:0 172:0 173:0 174:0 175:1 176:0 177:0 178:0 179:0 180:0 181:0 182:0 183:0 184:0.00985222 185:0.965517 186:0.0246305 187:0 188:0 189:0 190:0 191:0 192:0 193:0 194:0 195:0 196:0 197:0 198:0 199:0.192118 200:0.310345 201:0.497537 202:0 203:0 204:0 205:0 206:0 207:0 208:0 209:0 210:0.197044 211:0.783251 212:0.0197044 213:0 214:0 215:0 216:0 217:0 218:0 219:0 220:0.192118 221:0.73399 222:0.0738916 223:0 224:0 225:0 226:0 227:0 228:0 229:0 230:0 231:0 232:0 233:0 234:0.157635 235:0.0394089 236:0.0640394 237:0.216749 238:0.522168 239:0 240:0 241:0 242:0 243:0 244:0 245:0.0394089 246:0.359606 247:0.581281 248:0.0197044 249:0 250:0 251:0 252:0 253:0 254:0 255:0 256:0.320197 257:0.561576 258:0.118227 259:0 260:0 261:0 262:0 263:0 264:0 265:0 266:0 267:0 268:0 269:0 270:0.157635 271:0.0394089 272:0.0295567 273:0.118227 274:0.458128 275:0.197044 276:0 277:0 278:0 279:0 280:0 281:0.0541872 282:0.339901 283:0.517241 284:0.0886699 285:0 286:0 287:0 288:0 289:0 290:0 291:0 292:0 293:0 294:0 295:0.876847 296:0.123153 297:0 298:0 299:0 300:0 301:0 302:0 303:0 304:0 305:0 306:0 307:0.0344828 308:0.965517 309:0 310:0 311:0 312:0 313:0 314:0 315:0 316:0 317:0 318:0 319:0.985222 320:0.0147783 321:0 322:0 323:0 324:0 325:0 326:0 327:0 328:0 329:0 330:0 331:0.167488 332:0.679803 333:0.152709 334:0 335:0 336:0 337:0 338:0 339:0 340:0 341:0 342:0 343:0.211823 344:0.305419 345:0.482759 346:0 347:0 348:0 349:0 350:0 351:0 352:0 353:0 354:0.315271 355:0.684729 356:0 357:0 358:0 359:0 360:0 361:0 362:0 363:0 364:0 365:0 366:0 367:0 368:0.536946 369:0.458128 370:0.00492611 371:0 372:0 373:0 374:0 375:0 376:0 377:0 378:0 379:0.162562 380:0.0541872 381:0.275862 382:0.507389 383:0 384:0 385:0 386:0 387:0 388:0 389:0.0344828 390:0.26601 391:0.655172 392:0.044335 393:0 394:0 395:0 396:0 397:0 398:0 399:0 400:0 401:0 402:0 403:0.0197044 404:0.44335 405:0.522168 406:0.0147783 407:0 408:0 409:0 410:0 411:0 412:0 413:0 414:0 415:0.162562 416:0.0344828 417:0.275862 418:0.428571 419:0.0985222 420:0 421:0 422:0 423:0 424:0 425:0.044335 426:0.236453 427:0.527094 428:0.192118 429:0 430:0 431:0 432:0 433:0 434:0 435:0 436:0 437:0 438:1 439:0 440:0 441:0 442:0 443:0 444:0 445:0 446:0 447:0 448:0 449:0 450:1 451:0 452:0 453:0 454:0 455:0 456:0 457:0 458:0 459:0 460:0 461:0 462:1 463:0 464:0 465:0 466:0 467:0 468:0 469:0 470:0 471:0 472:0 473:0 474:1 475:0 476:0 477:0 478:0 479:0 480:0 481:0 482:0 483:0 484:0 485:0.211823 486:0.788177 487:0 488:0 489:0 490:0 491:0 492:0 493:0 494:0 495:0.364532 496:0.635468 497:0 498:0 499:0 500:0 501:0 502:0 503:0 504:0 505:0 506:0 507:0 508:0 509:0 510:1 511:0 512:0 513:0 514:0 515:0 516:0 517:0 518:0 519:0 520:1 521:0 522:0 523:0 524:0 525:0 526:0 527:0 528:0 529:0 530:0 531:1 532:0 533:0 534:0 535:0 536:0 537:0 538:0 539:0 540:0 541:0 542:0 543:0 544:0 545:0 546:1 547:0 548:0 549:0 550:0 551:0 552:0 553:0 554:0 555:0 556:1 557:0 558:0 559:0 560:0 561:0 562:0 563:0 564:0 565:0 566:0.142857 567:0.857143 568:0 569:0 570:0 571:0 572:0 573:0 574:0 575:0 576:0 577:0 578:0 579:0 580:0 581:0 582:0 583:1 584:0 585:0 586:0 587:0 588:0 589:0 590:0 591:0 592:0 593:0 594:1 595:0 596:0 597:0 598:0 599:0 600:0 601:0 602:0 603:0 604:0 605:0 606:1 607:0 608:0 609:0 610:0 611:0 612:0 613:0 614:0 615:0 616:0 617:0 618:0 619:0.167488 620:0.832512 621:0 622:0 623:0 624:0 625:0 626:0 627:0 628:0 629:0.187192 630:0.812808 631:0 632:0 633:0 634:0 635:0 636:0 637:0 638:0 639:0 640:1 641:0 642:0 643:0 644:0 645:0 646:0 647:0 648:0 649:0 650:0 651:0 652:0 653:0 654:0 655:0.0197044 656:0.980296 657:0 658:0 659:0 660:0 661:0 662:0 663:0 664:1 665:0 666:0 667:0 668:0 669:0 670:0 671:0 672:0 673:0 674:0 675:1 676:0 677:0 678:0 679:0 680:0 681:0 682:0 683:0 684:0 685:0 686:0 687:0 688:0 689:0 690:0 691:0 692:1 693:0 694:0 695:0 696:0 697:0 698:0 699:0 700:1 701:0 702:0 703:0 704:0 705:0 706:0 707:0 708:0 709:0 710:0 711:1 712:0 713:0 714:0 715:0 716:0 717:0 718:0 719:0 720:0 
1 1 1 1 1 1:0 2:0 3:0 4:0 5:0 6:0 7:1 8:0 9:0 10:0 11:0 12:0 13:0 14:0 15:0 16:0 17:0 18:0 19:1 20:0 21:0 22:0 23:0 24:0 25:0 26:0 27:0 28:0 29:0 30:0 31:1 32:0 33:0 34:0 35:0 36:0 37:0 38:0 39:0 40:0 41:0 42:0.494845 43:0.505155 44:0 45:0 46:0 47:0 48:0 49:0 50:0 51:0 52:0 53:0 54:0 55:1 56:0 57:0 58:0 59:0 60:0 61:0 62:0 63:0 64:0 65:0 66:0 67:1 68:0 69:0 70:0 71:0 72:0 73:0 74:0 75:0 76:0 77:0 78:0.319588 79:0.680412 80:0 81:0 82:0 83:0 84:0 85:0 86:0 87:0 88:0 89:0 90:0 91:0 92:0.474227 93:0.525773 94:0 95:0 96:0 97:0 98:0 99:0 100:0 101:0 102:0 103:1 104:0 105:0 106:0 107:0 108:0 109:0 110:0 111:0 112:0 113:0 114:0.103093 115:0.896907 116:0 117:0 118:0 119:0 120:0 121:0 122:0 123:0 124:0 125:0 126:0 127:0 128:0 129:0.0824742 130:0.917526 131:0 132:0 133:0 134:0 135:0 136:0 137:0 138:0 139:1 140:0 141:0 142:0 143:0 144:0 145:0 146:0 147:0 148:0 149:0.0721649 150:0.927835 151:0 152:0 153:0 154:0 155:0 156:0 157:0 158:0 159:0 160:0 161:0 162:0 163:0 164:1 165:0 166:0 167:0 168:0 169:0 170:0 171:0 172:0 173:0 174:0.0154639 175:0.850515 176:0.134021 177:0 178:0 179:0 180:0 181:0 182:0 183:0 184:0.0876289 185:0.845361 186:0.0670103 187:0 188:0 189:0 190:0 191:0 192:0 193:0 194:0 195:0 196:0 197:0 198:0 199:0.195876 200:0.0721649 201:0.613402 202:0.118557 203:0 204:0 205:0 206:0 207:0 208:0 209:0.0103093 210:0.5 211:0.365979 212:0.103093 213:0.0206186 214:0 215:0 216:0 217:0 218:0 219:0 220:0.314433 221:0.505155 222:0.175258 223:0.00515464 224:0 225:0 226:0 227:0 228:0 229:0 230:0 231:0 232:0 233:0 234:0.180412 235:0.00515464 236:0.00515464 237:0.0979381 238:0.618557 239:0.0927835 240:0 241:0 242:0 243:0 244:0.0103093 245:0.118557 246:0.551546 247:0.226804 248:0.0927835 249:0 250:0 251:0 252:0 253:0 254:0 255:0.0206186 256:0.427835 257:0.314433 258:0.206186 259:0.0309278 260:0 261:0 262:0 263:0 264:0 265:0 266:0 267:0 268:0 269:0.0927835 270:0.0876289 271:0.00515464 272:0.00515464 273:0.0773196 274:0.268041 275:0.463918 276:0 277:0 278:0 279:0 280:0.0103093 281:0.14433 282:0.515464 283:0.257732 284:0.0721649 285:0 286:0 287:0 288:0 289:0 290:0 291:0 292:0 293:0 294:0 295:0.860825 296:0.139175 297:0 298:0 299:0 300:0 301:0 302:0 303:0 304:0 305:0 306:0 307:0.0257732 308:0.974227 309:0 310:0 311:0 312:0 313:0 314:0 315:0 316:0 317:0 318:0.159794 319:0.840206 320:0 321:0 322:0 323:0 324:0 325:0 326:0 327:0 328:0 329:0 330:0 331:0.0515464 332:0.525773 333:0.42268 334:0 335:0 336:0 337:0 338:0 339:0 340:0 341:0 342:0 343:0.195876 344:0.103093 345:0.64433 346:0.056701 347:0 348:0 349:0 350:0 351:0 352:0 353:0.149485 354:0.293814 355:0.556701 356:0 357:0 358:0 359:0 360:0 361:0 362:0 363:0 364:0 365:0 366:0 367:0.0876289 368:0.453608 369:0.396907 370:0.0618557 371:0 372:0 373:0 374:0 375:0 376:0 377:0 378:0.180412 379:0.0103093 380:0.00515464 381:0.113402 382:0.654639 383:0.0360825 384:0 385:0 386:0 387:0 388:0.0515464 389:0.0670103 390:0.597938 391:0.283505 392:0 393:0 394:0 395:0 396:0 397:0 398:0 399:0 400:0 401:0 402:0.0103093 403:0.123711 404:0.417526 405:0.283505 406:0.164948 407:0 408:0 409:0 410:0 411:0 412:0 413:0.170103 414:0.0103093 415:0.00515464 416:0.00515464 417:0.0515464 418:0.515464 419:0.242268 420:0 421:0 422:0 423:0 424:0.0463918 425:0.0721649 426:0.587629 427:0.293814 428:0 429:0 430:0 431:0 432:0 433:0 434:0 435:0 436:0 437:0 438:1 439:0 440:0 441:0 442:0 443:0 444:0 445:0 446:0 447:0 448:0 449:0 450:1 451:0 452:0 453:0 454:0 455:0 456:0 457:0 458:0 459:0 460:0 461:0 462:0.824742 463:0.175258 464:0 465:0 466:0 467:0 468:0 469:0 470:0 471:0 472:0 473:0 474:1 475:0 476:0 477:0 478:0 479:0 480:0 481:0 482:0 483:0.335052 484:0.664948 485:0 486:0 487:0 488:0 489:0 490:0 491:0 492:0 493:0 494:0 495:0 496:0 497:0 498:0.917526 499:0.0824742 500:0 501:0 502:0 503:0 504:0 505:0 506:0 507:0 508:0 509:0 510:1 511:0 512:0 513:0 514:0 515:0 516:0 517:0.0412371 518:0.958763 519:0 520:0 521:0 522:0 523:0 524:0 525:0 526:0 527:0 528:0 529:0 530:0 531:0 532:0 533:0 534:0.938144 535:0.0618557 536:0 537:0 538:0 539:0 540:0 541:0 542:0 543:0 544:0 545:0.0979381 546:0.902062 547:0 548:0 549:0 550:0 551:0 552:0 553:0.206186 554:0.793814 555:0 556:0 557:0 558:0 559:0 560:0 561:0 562:0 563:0 564:0 565:0 566:0 567:0 568:0 569:0 570:0.984536 571:0.0154639 572:0 573:0 574:0 575:0 576:0 577:0 578:0 579:0 580:0 581:0 582:0 583:1 584:0 585:0 586:0 587:0 588:0 589:0 590:0 591:0 592:0 593:0 594:1 595:0 596:0 597:0 598:0 599:0 600:0 601:0 602:0 603:0 604:0 605:0 606:0.876289 607:0.123711 608:0 609:0 610:0 611:0 612:0 613:0 614:0 615:0 616:0 617:0 618:0 619:1 620:0 621:0 622:0 623:0 624:0 625:0 626:0 627:0.597938 628:0.402062 629:0 630:0 631:0 632:0 633:0 634:0 635:0 636:0 637:0 638:0 639:0 640:0 641:0 642:1 643:0 644:0 645:0 646:0 647:0 648:0 649:0 650:0 651:0 652:0 653:0 654:0 655:0.989691 656:0.0103093 657:0 658:0 659:0 660:0 661:0.0154639 662:0.984536 663:0 664:0 665:0 666:0 667:0 668:0 669:0 670:0 671:0 672:0 673:0 674:0 675:0 676:0 677:0 678:0.912371 679:0.0876289 680:0 681:0 682:0 683:0 684:0 685:0 686:0 687:0 688:0 689:0 690:0 691:1 692:0 693:0 694:0 695:0 696:0 697:0.350515 698:0.649485 699:0 700:0 701:0 702:0 703:0 704:0 705:0 706:0 707:0 708:0 709:0 710:0 711:0 712:0 713:0 714:0.902062 715:0.0979381 716:0 717:0 718:0 719:0 720:0 
-1 1 1 1 1 1:0 2:0 3:0 4:0 5:0 6:0 7:1 8:0 9:0 10:0 11:0 12:0 13:0 14:0 15:0 16:0 17:0 18:0 19:1 20:0 21:0 22:0 23:0 24:0 25:0 26:0 27:0 28:0 29:0 30:0 31:1 32:0 33:0 34:0 35:0 36:0 37:0 38:0 39:0 40:0 41:0 42:1 43:0 44:0 45:0 46:0 47:0 48:0 49:0 50:0 51:0 52:0 53:0 54:0 55:1 56:0 57:0 58:0 59:0 60:0 61:0 62:0 63:0 64:0 65:0 66:0 67:1 68:0 69:0 70:0 71:0 72:0 73:0 74:0 75:0 76:0 77:0 78:1 79:0 80:0 81:0 82:0 83:0 84:0 85:0 86:0 87:0 88:0 89:0 90:0 91:0 92:0 93:1 94:0 95:0 96:0 97:0 98:0 99:0 100:0 101:0 102:0 103:1 104:0 105:0 106:0 107:0 108:0 109:0 110:0 111:0 112:0 113:0 114:1 115:0 116:0 117:0 118:0 119:0 120:0 121:0 122:0 123:0 124:0 125:0 126:0 127:0 128:0 129:0 130:1 131:0 132:0 133:0 134:0 135:0 136:0 137:0 138:0.238095 139:0.761905 140:0 141:0 142:0 143:0 144:0 145:0 146:0 147:0 148:0 149:1 150:0 151:0 152:0 153:0 154:0 155:0 156:0 157:0 158:0 159:0 160:0 161:0 162:0 163:0 164:1 165:0 166:0 167:0 168:0 169:0 170:0 171:0 172:0 173:0 174:1 175:0 176:0 177:0 178:0 179:0 180:0 181:0 182:0 183:0 184:0 185:1 186:0 187:0 188:0 189:0 190:0 191:0 192:0 193:0 194:0 195:0 196:0 197:0 198:0.180952 199:0.819048 200:0 201:0 202:0 203:0 204:0 205:0 206:0 207:0 208:0 209:0 210:1 211:0 212:0 213:0 214:0 215:0 216:0 217:0 218:0 219:0 220:0 221:1 222:0 223:0 224:0 225:0 226:0 227:0 228:0 229:0 230:0 231:0 232:0 233:0.0571429 234:0.942857 235:0 236:0 237:0 238:0 239:0 240:0 241:0 242:0 243:0 244:0 245:1 246:0 247:0 248:0 249:0 250:0 251:0 252:0 253:0 254:0 255:0 256:0 257:0.714286 258:0.285714 259:0 260:0 261:0 262:0 263:0 264:0 265:0 266:0 267:0 268:0 269:0.333333 270:0.666667 271:0 272:0 273:0 274:0 275:0 276:0 277:0 278:0 279:0 280:0 281:1 282:0 283:0 284:0 285:0 286:0 287:0 288:0 289:0 290:0 291:0 292:0 293:0 294:0 295:1 296:0 297:0 298:0 299:0 300:0 301:0 302:0 303:0 304:0 305:0 306:0 307:0 308:1 309:0 310:0 311:0 312:0 313:0 314:0 315:0 316:0 317:0 318:0 319:1 320:0 321:0 322:0 323:0 324:0 325:0 326:0 327:0 328:0 329:0 330:0 331:0.390476 332:0.561905 333:0.047619 334:0 335:0 336:0 337:0 338:0 339:0 340:0 341:0 342:0.0761905 343:0.666667 344:0.0761905 345:0.180952 346:0 347:0 348:0 349:0 350:0 351:0 352:0 353:0 354:0.314286 355:0.685714 356:0 357:0 358:0 359:0 360:0 361:0 362:0 363:0 364:0 365:0 366:0 367:0.0380952 368:0.914286 369:0.047619 370:0 371:0 372:0 373:0 374:0 375:0 376:0 377:0.0190476 378:0.609524 379:0.0571429 380:0.0571429 381:0.0666667 382:0.171429 383:0.0190476 384:0 385:0 386:0 387:0 388:0 389:0.371429 390:0.628571 391:0 392:0 393:0 394:0 395:0 396:0 397:0 398:0 399:0 400:0 401:0 402:0 403:0.104762 404:0.866667 405:0.0285714 406:0 407:0 408:0 409:0 410:0 411:0 412:0 413:0.0285714 414:0.342857 415:0.295238 416:0.047619 417:0.0571429 418:0.171429 419:0.0571429 420:0 421:0 422:0 423:0 424:0 425:0.752381 426:0.247619 427:0 428:0 429:0 430:0 431:0 432:0 433:0 434:0 435:0 436:0 437:0 438:1 439:0 440:0 441:0 442:0 443:0 444:0 445:0 446:0 447:0 448:0 449:0 450:1 451:0 452:0 453:0 454:0 455:0 456:0 457:0 458:0 459:0 460:0 461:0 462:1 463:0 464:0 465:0 466:0 467:0 468:0 469:0 470:0 471:0 472:0 473:0 474:1 475:0 476:0 477:0 478:0 479:0 480:0 481:0 482:0 483:0 484:0 485:0.609524 486:0.390476 487:0 488:0 489:0 490:0 491:0 492:0 493:0 494:0 495:0 496:1 497:0 498:0 499:0 500:0 501:0 502:0 503:0 504:0 505:0 506:0 507:0 508:0 509:0.314286 510:0.685714 511:0 512:0 513:0 514:0 515:0 516:0 517:0 518:0 519:0 520:1 521:0 522:0 523:0 524:0 525:0 526:0 527:0 528:0 529:0 530:0 531:0 532:1 533:0 534:0 535:0 536:0 537:0 538:0 539:0 540:0 541:0 542:0 543:0 544:0 545:0 546:1 547:0 548:0 549:0 550:0 551:0 552:0 553:0 554:0 555:0.209524 556:0.790476 557:0 558:0 559:0 560:0 561:0 562:0 563:0 564:0 565:0 566:0 567:0.190476 568:0.809524 569:0 570:0 571:0 572:0 573:0 574:0 575:0 576:0 577:0 578:0 579:0 580:0 581:0 582:0 583:1 584:0 585:0 586:0 587:0 588:0 589:0 590:0 591:0 592:0 593:0 594:1 595:0 596:0 597:0 598:0 599:0 600:0 601:0 602:0 603:0 604:0 605:0 606:0 607:1 608:0 609:0 610:0 611:0 612:0 613:0 614:0 615:0 616:0 617:0 618:0 619:0 620:1 621:0 622:0 623:0 624:0 625:0 626:0 627:0 628:0 629:0.685714 630:0.314286 631:0 632:0 633:0 634:0 635:0 636:0 637:0 638:0 639:0 640:0 641:1 642:0 643:0 644:0 645:0 646:0 647:0 648:0 649:0 650:0 651:0 652:0 653:0 654:0 655:1 656:0 657:0 658:0 659:0 660:0 661:0 662:0 663:0 664:1 665:0 666:0 667:0 668:0 669:0 670:0 671:0 672:0 673:0 674:0 675:0 676:0 677:0 678:1 679:0 680:0 681:0 682:0 683:0 684:0 685:0 686:0 687:0 688:0 689:0 690:0 691:1 692:0 693:0 694:0 695:0 696:0 697:0 698:0 699:0 700:1 701:0 702:0 703:0 704:0 705:0 706:0 707:0 708:0 709:0 710:0 711:0 712:0 713:0.114286 714:0.885714 715:0 716:0 717:0 718:0 719:0 720:0 
-1 1 1 1 1 1:0 2:0 3:0 4:0 5:0 6:0 7:1 8:0 9:0 10:0 11:0 12:0 13:0 14:0 15:0 16:0 17:0 18:0 19:1 20:0 21:0 22:0 23:0 24:0 25:0 26:0 27:0 28:0 29:0 30:0 31:1 32:0 33:0 34:0 35:0 36:0 37:0 38:0 39:0 40:0 41:0 42:0 43:1 44:0 45:0 46:0 47:0 48:0 49:0 50:0 51:0 52:0 53:0 54:0 55:1 56:0 57:0 58:0 59:0 60:0 61:0 62:0 63:0 64:0 65:0 66:0 67:1 68:0 69:0 70:0 71:0 72:0 73:0 74:0 75:0 76:0 77:0 78:0.210526 79:0.778947 80:0.0105263 81:0 82:0 83:0 84:0 85:0 86:0 87:0 88:0 89:0 90:0 91:0 92:0.0105263 93:0.989474 94:0 95:0 96:0 97:0 98:0 99:0 100:0 101:0 102:0 103:0.421053 104:0.578947 105:0 106:0 107:0 108:0 109:0 110:0 111:0 112:0 113:0 114:0.442105 115:0.484211 116:0.0736842 117:0 118:0 119:0 120:0 121:0 122:0 123:0 124:0 125:0 126:0 127:0 128:0 129:0.0105263 130:0.989474 131:0 132:0 133:0 134:0 135:0 136:0 137:0 138:0 139:0 140:1 141:0 142:0 143:0 144:0 145:0 146:0 147:0 148:0 149:0 150:1 151:0 152:0 153:0 154:0 155:0 156:0 157:0 158:0 159:0 160:0 161:0 162:0 163:0 164:0.957895 165:0.0421053 166:0 167:0 168:0 169:0 170:0 171:0 172:0 173:0 174:0 175:0 176:1 177:0 178:0 179:0 180:0 181:0 182:0 183:0 184:0 185:0 186:1 187:0 188:0 189:0 190:0 191:0 192:0 193:0 194:0 195:0 196:0 197:0 198:0.178947 199:0.8 200:0.0210526 201:0 202:0 203:0 204:0 205:0 206:0 207:0 208:0 209:0 210:0 211:0 212:0.578947 213:0.421053 214:0 215:0 216:0 217:0 218:0 219:0 220:0 221:0.0421053 222:0.957895 223:0 224:0 225:0 226:0 227:0 228:0 229:0 230:0 231:0 232:0 233:0.431579 234:0.526316 235:0.0421053 236:0 237:0 238:0 239:0 240:0 241:0 242:0 243:0 244:0 245:0 246:0.126316 247:0.315789 248:0.0526316 249:0.505263 250:0 251:0 252:0 253:0 254:0 255:0 256:0 257:0.252632 258:0.747368 259:0 260:0 261:0 262:0 263:0 264:0 265:0 266:0 267:0 268:0 269:0.6 270:0.368421 271:0.0315789 272:0 273:0 274:0 275:0 276:0 277:0 278:0 279:0 280:0 281:0.0421053 282:0.221053 283:0.178947 284:0 285:0.378947 286:0.178947 287:0 288:0 289:0 290:0 291:0 292:0 293:0 294:0 295:0.842105 296:0.157895 297:0 298:0 299:0 300:0 301:0 302:0 303:0 304:0 305:0 306:0 307:0.0105263 308:0.989474 309:0 310:0 311:0 312:0 313:0 314:0 315:0 316:0 317:0 318:0.115789 319:0.884211 320:0 321:0 322:0 323:0 324:0 325:0 326:0 327:0 328:0 329:0 330:0.0947368 331:0.221053 332:0.684211 333:0 334:0 335:0 336:0 337:0 338:0 339:0 340:0 341:0 342:0.136842 343:0.568421 344:0.136842 345:0.157895 346:0 347:0 348:0 349:0 350:0 351:0 352:0 353:0.315789 354:0.431579 355:0.252632 356:0 357:0 358:0 359:0 360:0 361:0 362:0 363:0 364:0 365:0 366:0.157895 367:0.231579 368:0.610526 369:0 370:0 371:0 372:0 373:0 374:0 375:0 376:0 377:0.368421 378:0.136842 379:0.0421053 380:0.126316 381:0.115789 382:0.210526 383:0 384:0 385:0 386:0 387:0 388:0.0315789 389:0.4 390:0.473684 391:0.0947368 392:0 393:0 394:0 395:0 396:0 397:0 398:0 399:0 400:0 401:0 402:0.147368 403:0.242105 404:0.494737 405:0.115789 406:0 407:0 408:0 409:0 410:0 411:0 412:0.0631579 413:0.4 414:0.0526316 415:0.0210526 416:0.115789 417:0.0947368 418:0.178947 419:0.0736842 420:0 421:0 422:0 423:0 424:0.0947368 425:0.336842 426:0.473684 427:0.0947368 428:0 429:0 430:0 431:0 432:0 433:0 434:0 435:0 436:0 437:0 438:1 439:0 440:0 441:0 442:0 443:0 444:0 445:0 446:0 447:0 448:0 449:0 450:1 451:0 452:0 453:0 454:0 455:0 456:0 457:0 458:0 459:0 460:0 461:0 462:0.147368 463:0.852632 464:0 465:0 466:0 467:0 468:0 469:0 470:0 471:0 472:0 473:1 474:0 475:0 476:0 477:0 478:0 479:0 480:0 481:0 482:0 483:0 484:1 485:0 486:0 487:0 488:0 489:0 490:0 491:0 492:0 493:0 494:0 495:0 496:0 497:1 498:0 499:0 500:0 501:0 502:0 503:0 504:0 505:0 506:0 507:0 508:0.968421 509:0.0315789 510:0 511:0 512:0 513:0 514:0 515:0 516:0 517:0 518:1 519:0 520:0 521:0 522:0 523:0 524:0 525:0 526:0 527:0 528:0 529:0 530:0 531:0 532:1 533:0 534:0 535:0 536:0 537:0 538:0 539:0 540:0 541:0 542:0 543:0 544:0.936842 545:0.0631579 546:0 547:0 548:0 549:0 550:0 551:0 552:0 553:0.0105263 554:0.989474 555:0 556:0 557:0 558:0 559:0 560:0 561:0 562:0 563:0 564:0 565:0 566:0 567:0.789474 568:0.210526 569:0 570:0 571:0 572:0 573:0 574:0 575:0 576:0 577:0 578:0 579:0 580:0 581:0 582:0 583:1 584:0 585:0 586:0 587:0 588:0 589:0 590:0 591:0 592:0 593:0 594:1 595:0 596:0 597:0 598:0 599:0 600:0 601:0 602:0 603:0 604:0 605:0 606:1 607:0 608:0 609:0 610:0 611:0 612:0 613:0 614:0 615:0 616:0 617:0 618:0 619:1 620:0 621:0 622:0 623:0 624:0 625:0 626:0 627:0 628:1 629:0 630:0 631:0 632:0 633:0 634:0 635:0 636:0 637:0 638:0 639:0 640:0 641:1 642:0 643:0 644:0 645:0 646:0 647:0 648:0 649:0 650:0 651:0 652:0 653:0 654:0 655:1 656:0 657:0 658:0 659:0 660:0 661:0.284211 662:0.715789 663:0 664:0 665:0 666:0 667:0 668:0 669:0 670:0 671:0 672:0 673:0 674:0 675:0 676:0.789474 677:0.210526 678:0 679:0 680:0 681:0 682:0 683:0 684:0 685:0 686:0 687:0 688:0 689:0 690:0 691:1 692:0 693:0 694:0 695:0 696:0 697:0.610526 698:0.389474 699:0 700:0 701:0 702:0 703:0 704:0 705:0 706:0 707:0 708:0 709:0 710:0 711:0 712:1 713:0 714:0 715:0 716:0 717:0 718:0 719:0 720:0 
-1 1 1 1 1 1:0 2:0 3:0 4:0 5:0 6:0 7:1 8:0 9:0 10:0 11:0 12:0 13:0 14:0 15:0 16:0 17:0 18:0 19:1 20:0 21:0 22:0 23:0 24:0 25:0 26:0 27:0 28:0 29:0 30:0 31:1 32:0 33:0 34:0 35:0 36:0 37:0 38:0 39:0 40:0 41:0 42:1 43:0 44:0 45:0 46:0 47:0 48:0 49:0 50:0 51:0 52:0 53:0 54:0 55:1 56:0 57:0 58:0 59:0 60:0 61:0 62:0 63:0 64:0 65:0 66:0 67:1 68:0 69:0 70:0 71:0 72:0 73:0 74:0 75:0 76:0 77:0 78:1 79:0 80:0 81:0 82:0 83:0 84:0 85:0 86:0 87:0 88:0 89:0 90:0 91:0 92:1 93:0 94:0 95:0 96:0 97:0 98:0 99:0 100:0 101:0 102:0 103:1 104:0 105:0 106:0 107:0 108:0 109:0 110:0 111:0 112:0 113:0 114:1 115:0 116:0 117:0 118:0 119:0 120:0 121:0 122:0 123:0 124:0 125:0 126:0 127:0 128:0 129:1 130:0 131:0 132:0 133:0 134:0 135:0 136:0 137:0 138:0 139:1 140:0 141:0 142:0 143:0 144:0 145:0 146:0 147:0 148:0 149:1 150:0 151:0 152:0 153:0 154:0 155:0 156:0 157:0 158:0 159:0 160:0 161:0 162:0 163:0.333333 164:0.666667 165:0 166:0 167:0 168:0 169:0 170:0 171:0 172:0 173:0 174:0 175:1 176:0 177:0 178:0 179:0 180:0 181:0 182:0 183:0 184:0 185:1 186:0 187:0 188:0 189:0 190:0 191:0 192:0 193:0 194:0 195:0 196:0 197:0 198:1 199:0 200:0 201:0 202:0 203:0 204:0 205:0 206:0 207:0 208:0 209:0 210:0.0701754 211:0.929825 212:0 213:0 214:0 215:0 216:0 217:0 218:0 219:0 220:0.0526316 221:0.947368 222:0 223:0 224:0 225:0 226:0 227:0 228:0 229:0 230:0 231:0 232:0 233:0.122807 234:0.824561 235:0.0526316 236:0 237:0 238:0 239:0 240:0 241:0 242:0 243:0 244:0 245:0.245614 246:0.736842 247:0.0175439 248:0 249:0 250:0 251:0 252:0 253:0 254:0 255:0 256:0.0526316 257:0.894737 258:0.0526316 259:0 260:0 261:0 262:0 263:0 264:0 265:0 266:0 267:0 268:0.0350877 269:0.298246 270:0.614035 271:0 272:0.0526316 273:0 274:0 275:0 276:0 277:0 278:0 279:0 280:0 281:0.684211 282:0.315789 283:0 284:0 285:0 286:0 287:0 288:0 289:0 290:0 291:0 292:0 293:0 294:0 295:1 296:0 297:0 298:0 299:0 300:0 301:0 302:0 303:0 304:0 305:0 306:0 307:0 308:1 309:0 310:0 311:0 312:0 313:0 314:0 315:0 316:0 317:0 318:0 319:1 320:0 321:0 322:0 323:0 324:0 325:0 326:0 327:0 328:0 329:0 330:0 331:0 332:0.736842 333:0.263158 334:0 335:0 336:0 337:0 338:0 339:0 340:0 341:0 342:0 343:0 344:1 345:0 346:0 347:0 348:0 349:0 350:0 351:0 352:0 353:0 354:0.280702 355:0.719298 356:0 357:0 358:0 359:0 360:0 361:0 362:0 363:0 364:0 365:0 366:0 367:0.333333 368:0.578947 369:0.0877193 370:0 371:0 372:0 373:0 374:0 375:0 376:0 377:0 378:0 379:0 380:0 381:0.964912 382:0.0350877 383:0 384:0 385:0 386:0 387:0 388:0 389:0 390:0.473684 391:0.526316 392:0 393:0 394:0 395:0 396:0 397:0 398:0 399:0 400:0 401:0 402:0 403:0.45614 404:0.473684 405:0.0701754 406:0 407:0 408:0 409:0 410:0 411:0 412:0 413:0 414:0 415:0 416:0 417:0.877193 418:0.122807 419:0 420:0 421:0 422:0 423:0 424:0 425:0.0175439 426:0.122807 427:0.859649 428:0 429:0 430:0 431:0 432:0 433:0 434:0 435:0 436:0 437:0 438:1 439:0 440:0 441:0 442:0 443:0 444:0 445:0 446:0 447:0 448:0 449:0 450:1 451:0 452:0 453:0 454:0 455:0 456:0 457:0 458:0 459:0 460:0 461:0 462:1 463:0 464:0 465:0 466:0 467:0 468:0 469:0 470:0 471:0 472:0 473:0 474:1 475:0 476:0 477:0 478:0 479:0 480:0 481:0 482:0 483:0 484:0 485:1 486:0 487:0 488:0 489:0 490:0 491:0 492:0 493:0 494:0 495:0 496:1 497:0 498:0 499:0 500:0 501:0 502:0 503:0 504:0 505:0 506:0 507:0 508:0 509:0.54386 510:0.45614 511:0 512:0 513:0 514:0 515:0 516:0 517:0 518:0 519:0 520:1 521:0 522:0 523:0 524:0 525:0 526:0 527:0 528:0 529:0 530:0 531:0.964912 532:0.0350877 533:0 534:0 535:0 536:0 537:0 538:0 539:0 540:0 541:0 542:0 543:0 544:0 545:0.473684 546:0.526316 547:0 548:0 549:0 550:0 551:0 552:0 553:0 554:0 555:0 556:1 557:0 558:0 559:0 560:0 561:0 562:0 563:0 564:0 565:0 566:0.0350877 567:0.964912 568:0 569:0 570:0 571:0 572:0 573:0 574:0 575:0 576:0 577:0 578:0 579:0 580:0 581:0 582:0 583:1 584:0 585:0 586:0 587:0 588:0 589:0 590:0 591:0 592:0 593:0 594:1 595:0 596:0 597:0 598:0 599:0 600:0 601:0 602:0 603:0 604:0 605:0 606:0.877193 607:0.122807 608:0 609:0 610:0 611:0 612:0 613:0 614:0 615:0 616:0 617:0 618:0 619:1 620:0 621:0 622:0 623:0 624:0 625:0 626:0 627:0 628:0 629:1 630:0 631:0 632:0 633:0 634:0 635:0 636:0 637:0 638:0 639:0 640:1 641:0 642:0 643:0 644:0 645:0 646:0 647:0 648:0 649:0 650:0 651:0 652:0 653:0 654:0 655:0.438596 656:0.561404 657:0 658:0 659:0 660:0 661:0 662:0 663:0 664:1 665:0 666:0 667:0 668:0 669:0 670:0 671:0 672:0 673:0 674:0 675:1 676:0 677:0 678:0 679:0 680:0 681:0 682:0 683:0 684:0 685:0 686:0 687:0 688:0 689:0 690:0 691:0.649123 692:0.350877 693:0 694:0 695:0 696:0 697:0 698:0 699:0 700:0.701754 701:0.298246 702:0 703:0 704:0 705:0 706:0 707:0 708:0 709:0 710:0 711:1 712:0 713:0 714:0 715:0 716:0 717:0 718:0 719:0 720:0 
-1 1 1 1 1 1:0 2:0 3:0 4:0 5:0 6:0 7:1 8:0 9:0 10:0 11:0 12:0 13:0 14:0 15:0 16:0 17:0 18:0 19:1 20:0 21:0 22:0 23:0 24:0 25:0 26:0 27:0 28:0 29:0 30:0 31:1 32:0 33:0 34:0 35:0 36:0 37:0 38:0 39:0 40:0 41:0 42:0.352941 43:0.647059 44:0 45:0 46:0 47:0 48:0 49:0 50:0 51:0 52:0 53:0 54:0 55:1 56:0 57:0 58:0 59:0 60:0 61:0 62:0 63:0 64:0 65:0 66:0 67:1 68:0 69:0 70:0 71:0 72:0 73:0 74:0 75:0 76:0 77:0 78:0.0196078 79:0.980392 80:0 81:0 82:0 83:0 84:0 85:0 86:0 87:0 88:0 89:0 90:0 91:0 92:0 93:0.529412 94:0.470588 95:0 96:0 97:0 98:0 99:0 100:0 101:0 102:0.0196078 103:0.980392 104:0 105:0 106:0 107:0 108:0 109:0 110:0 111:0 112:0 113:0 114:0.509804 115:0.490196 116:0 117:0 118:0 119:0 120:0 121:0 122:0 123:0 124:0 125:0 126:0 127:0 128:0 129:0 130:0.862745 131:0.137255 132:0 133:0 134:0 135:0 136:0 137:0 138:0.0784314 139:0.686275 140:0.235294 141:0 142:0 143:0 144:0 145:0 146:0 147:0 148:0 149:0 150:0.627451 151:0.372549 152:0 153:0 154:0 155:0 156:0 157:0 158:0 159:0 160:0 161:0 162:0 163:0 164:0.490196 165:0.470588 166:0.0392157 167:0 168:0 169:0 170:0 171:0 172:0 173:0 174:0.490196 175:0.0392157 176:0.470588 177:0 178:0 179:0 180:0 181:0 182:0 183:0 184:0 185:0.117647 186:0.882353 187:0 188:0 189:0 190:0 191:0 192:0 193:0 194:0 195:0 196:0 197:0 198:0 199:0.607843 200:0.313726 201:0.0784314 202:0 203:0 204:0 205:0 206:0 207:0 208:0 209:0.411765 210:0.0196078 211:0.0784314 212:0.490196 213:0 214:0 215:0 216:0 217:0 218:0 219:0 220:0.137255 221:0.45098 222:0.411765 223:0 224:0 225:0 226:0 227:0 228:0 229:0 230:0 231:0 232:0 233:0.0980392 234:0.529412 235:0.254902 236:0.0588235 237:0.0588235 238:0 239:0 240:0 241:0 242:0 243:0 244:0.117647 245:0.196078 246:0.0980392 247:0.352941 248:0.235294 249:0 250:0 251:0 252:0 253:0 254:0 255:0.0784314 256:0.0588235 257:0.490196 258:0.372549 259:0 260:0 261:0 262:0 263:0 264:0 265:0 266:0 267:0 268:0 269:0.470588 270:0.313726 271:0.0980392 272:0.0392157 273:0.0784314 274:0 275:0 276:0 277:0 278:0 279:0 280:0.137255 281:0.176471 282:0.0980392 283:0.431373 284:0.156863 285:0 286:0 287:0 288:0 289:0 290:0 291:0 292:0 293:0 294:0 295:1 296:0 297:0 298:0 299:0 300:0 301:0 302:0 303:0 304:0 305:0 306:0 307:0 308:0.54902 309:0.45098 310:0 311:0 312:0 313:0 314:0 315:0 316:0 317:0.0196078 318:0.980392 319:0 320:0 321:0 322:0 323:0 324:0 325:0 326:0 327:0 328:0 329:0.0196078 330:0.235294 331:0.156863 332:0.588235 333:0 334:0 335:0 336:0 337:0 338:0 339:0 340:0 341:0 342:0 343:0.313726 344:0.117647 345:0.568627 346:0 347:0 348:0 349:0 350:0 351:0 352:0 353:0.72549 354:0.27451 355:0 356:0 357:0 358:0 359:0 360:0 361:0 362:0 363:0 364:0.117647 365:0.0784314 366:0.0784314 367:0.117647 368:0.45098 369:0.156863 370:0 371:0 372:0 373:0 374:0 375:0 376:0 377:0 378:0.333333 379:0.0392157 380:0.0588235 381:0.0588235 382:0.509804 383:0 384:0 385:0 386:0 387:0 388:0.137255 389:0.509804 390:0.352941 391:0 392:0 393:0 394:0 395:0 396:0 397:0 398:0 399:0.0196078 400:0.117647 401:0.0784314 402:0.0588235 403:0.137255 404:0.411765 405:0.176471 406:0 407:0 408:0 409:0 410:0 411:0 412:0 413:0.117647 414:0.215686 415:0.0392157 416:0.0588235 417:0.0392157 418:0.529412 419:0 420:0 421:0 422:0 423:0 424:0.137255 425:0.294118 426:0.568627 427:0 428:0 429:0 430:0 431:0 432:0 433:0 434:0 435:0 436:0 437:0 438:1 439:0 440:0 441:0 442:0 443:0 444:0 445:0 446:0 447:0 448:0 449:0 450:1 451:0 452:0 453:0 454:0 455:0 456:0 457:0 458:0 459:0 460:0 461:0 462:0 463:1 464:0 465:0 466:0 467:0 468:0 469:0 470:0 471:0 472:0 473:0 474:1 475:0 476:0 477:0 478:0 479:0 480:0 481:0 482:0 483:0.352941 484:0.607843 485:0.0392157 486:0 487:0 488:0 489:0 490:0 491:0 492:0 493:0 494:0 495:0 496:0 497:0 498:0 499:1 500:0 501:0 502:0 503:0 504:0 505:0 506:0 507:0 508:0 509:0 510:0.392157 511:0.607843 512:0 513:0 514:0 515:0 516:0 517:0 518:0.862745 519:0.137255 520:0 521:0 522:0 523:0 524:0 525:0 526:0 527:0 528:0 529:0 530:0 531:0 532:0 533:0 534:0.313726 535:0.686275 536:0 537:0 538:0 539:0 540:0 541:0 542:0 543:0 544:0 545:0 546:0.196078 547:0.803922 548:0 549:0 550:0 551:0 552:0 553:0 554:0.764706 555:0.235294 556:0 557:0 558:0 559:0 560:0 561:0 562:0 563:0 564:0 565:0 566:0 567:0 568:0 569:0.0196078 570:0.745098 571:0.235294 572:0 573:0 574:0 575:0 576:0 577:0 578:0 579:0 580:0 581:0 582:0 583:1 584:0 585:0 586:0 587:0 588:0 589:0 590:0 591:0 592:0 593:0 594:1 595:0 596:0 597:0 598:0 599:0 600:0 601:0 602:0 603:0 604:0 605:0 606:1 607:0 608:0 609:0 610:0 611:0 612:0 613:0 614:0 615:0 616:0 617:0 618:0 619:1 620:0 621:0 622:0 623:0 624:0 625:0 626:0 627:0 628:0.980392 629:0.0196078 630:0 631:0 632:0 633:0 634:0 635:0 636:0 637:0 638:0 639:0 640:0 641:0 642:1 643:0 644:0 645:0 646:0 647:0 648:0 649:0 650:0 651:0 652:0 653:0 654:0 655:0.921569 656:0.0784314 657:0 658:0 659:0 660:0 661:0 662:0.627451 663:0.372549 664:0 665:0 666:0 667:0 668:0 669:0 670:0 671:0 672:0 673:0 674:0 675:0 676:0 677:0.490196 678:0.509804 679:0 680:0 681:0 682:0 683:0 684:0 685:0 686:0 687:0 688:0 689:0 690:0.0196078 691:0.647059 692:0.333333 693:0 694:0 695:0 696:0 697:0 698:0.960784 699:0.0392157 700:0 701:0 702:0 703:0 704:0 705:0 706:0 707:0 708:0 709:0 710:0 711:0 712:0 713:0.882353 714:0.117647 715:0 716:0 717:0 718:0 719:0 720:0 
-1 1 1 1 1 1:0 2:0 3:0 4:0 5:0 6:0 7:1 8:0 9:0 10:0 11:0 12:0 13:0 14:0 15:0 16:0 17:0 18:0 19:1 20:0 21:0 22:0 23:0 24:0 25:0 26:0 27:0 28:0 29:0 30:0 31:1 32:0 33:0 34:0 35:0 36:0 37:0 38:0 39:0 40:0 41:0 42:0.104 43:0.896 44:0 45:0 46:0 47:0 48:0 49:0 50:0 51:0 52:0 53:0 54:0 55:1 56:0 57:0 58:0 59:0 60:0 61:0 62:0 63:0 64:0 65:0 66:0 67:1 68:0 69:0 70:0 71:0 72:0 73:0 74:0 75:0 76:0 77:0 78:0.656 79:0.344 80:0 81:0 82:0 83:0 84:0 85:0 86:0 87:0 88:0 89:0 90:0 91:0 92:1 93:0 94:0 95:0 96:0 97:0 98:0 99:0 100:0 101:0 102:0 103:1 104:0 105:0 106:0 107:0 108:0 109:0 110:0 111:0 112:0 113:0 114:0.76 115:0.24 116:0 117:0 118:0 119:0 120:0 121:0 122:0 123:0 124:0 125:0 126:0 127:0 128:0 129:1 130:0 131:0 132:0 133:0 134:0 135:0 136:0 137:0 138:0 139:1 140:0 141:0 142:0 143:0 144:0 145:0 146:0 147:0 148:0 149:0 150:1 151:0 152:0 153:0 154:0 155:0 156:0 157:0 158:0 159:0 160:0 161:0 162:0 163:0 164:1 165:0 166:0 167:0 168:0 169:0 170:0 171:0 172:0 173:0 174:0 175:1 176:0 177:0 178:0 179:0 180:0 181:0 182:0 183:0 184:0 185:0.928 186:0.072 187:0 188:0 189:0 190:0 191:0 192:0 193:0 194:0 195:0 196:0 197:0 198:0 199:1 200:0 201:0 202:0 203:0 204:0 205:0 206:0 207:0 208:0 209:0 210:0.28 211:0.72 212:0 213:0 214:0 215:0 216:0 217:0 218:0 219:0 220:0 221:0 222:1 223:0 224:0 225:0 226:0 227:0 228:0 229:0 230:0 231:0 232:0 233:0 234:1 235:0 236:0 237:0 238:0 239:0 240:0 241:0 242:0 243:0 244:0 245:0 246:1 247:0 248:0 249:0 250:0 251:0 252:0 253:0 254:0 255:0 256:0 257:0 258:1 259:0 260:0 261:0 262:0 263:0 264:0 265:0 266:0 267:0 268:0 269:0 270:1 271:0 272:0 273:0 274:0 275:0 276:0 277:0 278:0 279:0 280:0 281:0.256 282:0.744 283:0 284:0 285:0 286:0 287:0 288:0 289:0 290:0 291:0 292:0 293:0 294:0 295:0.896 296:0.104 297:0 298:0 299:0 300:0 301:0 302:0 303:0 304:0 305:0 306:0 307:0 308:1 309:0 310:0 311:0 312:0 313:0 314:0 315:0 316:0 317:0 318:0.272 319:0.728 320:0 321:0 322:0 323:0 324:0 325:0 326:0 327:0 328:0 329:0 330:0 331:0.296 332:0.704 333:0 334:0 335:0 336:0 337:0 338:0 339:0 340:0 341:0 342:0 343:0.936 344:0.064 345:0 346:0 347:0 348:0 349:0 350:0 351:0 352:0 353:0.144 354:0.64 355:0.216 356:0 357:0 358:0 359:0 360:0 361:0 362:0 363:0 364:0 365:0 366:0.04 367:0.632 368:0.328 369:0 370:0 371:0 372:0 373:0 374:0 375:0 376:0 377:0 378:0.336 379:0.096 380:0.52 381:0.048 382:0 383:0 384:0 385:0 386:0 387:0 388:0.032 389:0.312 390:0.624 391:0.032 392:0 393:0 394:0 395:0 396:0 397:0 398:0 399:0 400:0 401:0 402:0.08 403:0.576 404:0.344 405:0 406:0 407:0 408:0 409:0 410:0 411:0 412:0 413:0 414:0.32 415:0.08 416:0.528 417:0.072 418:0 419:0 420:0 421:0 422:0 423:0 424:0.04 425:0.56 426:0.4 427:0 428:0 429:0 430:0 431:0 432:0 433:0 434:0 435:0 436:0 437:0 438:1 439:0 440:0 441:0 442:0 443:0 444:0 445:0 446:0 447:0 448:0 449:0 450:1 451:0 452:0 453:0 454:0 455:0 456:0 457:0 458:0 459:0 460:0 461:0 462:0.56 463:0.44 464:0 465:0 466:0 467:0 468:0 469:0 470:0 471:0 472:0 473:0 474:0.696 475:0.304 476:0 477:0 478:0 479:0 480:0 481:0 482:0 483:0 484:0 485:1 486:0 487:0 488:0 489:0 490:0 491:0 492:0 493:0 494:0 495:0 496:1 497:0 498:0 499:0 500:0 501:0 502:0 503:0 504:0 505:0 506:0 507:0 508:0 509:0 510:0.296 511:0.704 512:0 513:0 514:0 515:0 516:0 517:0 518:0 519:0 520:1 521:0 522:0 523:0 524:0 525:0 526:0 527:0 528:0 529:0 530:0 531:0.008 532:0.992 533:0 534:0 535:0 536:0 537:0 538:0 539:0 540:0 541:0 542:0 543:0 544:0 545:0 546:0.024 547:0.976 548:0 549:0 550:0 551:0 552:0 553:0 554:0 555:0 556:1 557:0 558:0 559:0 560:0 561:0 562:0 563:0 564:0 565:0 566:0 567:0.32 568:0.68 569:0 570:0 571:0 572:0 573:0 574:0 575:0 576:0 577:0 578:0 579:0 580:0 581:0 582:0 583:1 584:0 585:0 586:0 587:0 588:0 589:0 590:0 591:0 592:0 593:0 594:1 595:0 596:0 597:0 598:0 599:0 600:0 601:0 602:0 603:0 604:0 605:0 606:1 607:0 608:0 609:0 610:0 611:0 612:0 613:0 614:0 615:0 616:0 617:0 618:0 619:1 620:0 621:0 622:0 623:0 624:0 625:0 626:0 627:0 628:0 629:1 630:0 631:0 632:0 633:0 634:0 635:0 636:0 637:0 638:0 639:0 640:0.688 641:0.312 642:0 643:0 644:0 645:0 646:0 647:0 648:0 649:0 650:0 651:0 652:0 653:0 654:0 655:1 656:0 657:0 658:0 659:0 660:0 661:0 662:0 663:0 664:1 665:0 666:0 667:0 668:0 669:0 670:0 671:0 672:0 673:0 674:0 675:0.344 676:0.656 677:0 678:0 679:0 680:0 681:0 682:0 683:0 684:0 685:0 686:0 687:0 688:0 689:0 690:0 691:0.976 692:0.024 693:0 694:0 695:0 696:0 697:0 698:0 699:0.32 700:0.68 701:0 702:0 703:0 704:0 705:0 706:0 707:0 708:0 709:0 710:0 711:0.8 712:0.2 713:0 714:0 715:0 716:0 717:0 718:0 719:0 720:0 
-1 1 1 1 1 1:0 2:0 3:0 4:0 5:0 6:0 7:1 8:0 9:0 10:0 11:0 12:0 13:0 14:0 15:0 16:0 17:0 18:0 19:1 20:0 21:0 22:0 23:0 24:0 25:0 26:0 27:0 28:0 29:0 30:0 31:1 32:0 33:0 34:0 35:0 36:0 37:0 38:0 39:0 40:0 41:0 42:1 43:0 44:0 45:0 46:0 47:0 48:0 49:0 50:0 51:0 52:0 53:0 54:0 55:1 56:0 57:0 58:0 59:0 60:0 61:0 62:0 63:0 64:0 65:0 66:0 67:1 68:0 69:0 70:0 71:0 72:0 73:0 74:0 75:0 76:0 77:0 78:1 79:0 80:0 81:0 82:0 83:0 84:0 85:0 86:0 87:0 88:0 89:0 90:0 91:0 92:0.112069 93:0.887931 94:0 95:0 96:0 97:0 98:0 99:0 100:0 101:0 102:0 103:1 104:0 105:0 106:0 107:0 108:0 109:0 110:0 111:0 112:0 113:0 114:0.568965 115:0.431034 116:0 117:0 118:0 119:0 120:0 121:0 122:0 123:0 124:0 125:0 126:0 127:0 128:0 129:0.146552 130:0.853448 131:0 132:0 133:0 134:0 135:0 136:0 137:0 138:0 139:1 140:0 141:0 142:0 143:0 144:0 145:0 146:0 147:0 148:0 149:0 150:1 151:0 152:0 153:0 154:0 155:0 156:0 157:0 158:0 159:0 160:0 161:0 162:0 163:0 164:1 165:0 166:0 167:0 168:0 169:0 170:0 171:0 172:0 173:0 174:0.482759 175:0.517241 176:0 177:0 178:0 179:0 180:0 181:0 182:0 183:0 184:0 185:1 186:0 187:0 188:0 189:0 190:0 191:0 192:0 193:0 194:0 195:0 196:0 197:0 198:0 199:1 200:0 201:0 202:0 203:0 204:0 205:0 206:0 207:0 208:0 209:0 210:1 211:0 212:0 213:0 214:0 215:0 216:0 217:0 218:0 219:0 220:0 221:1 222:0 223:0 224:0 225:0 226:0 227:0 228:0 229:0 230:0 231:0 232:0 233:0.155172 234:0.844828 235:0 236:0 237:0 238:0 239:0 240:0 241:0 242:0 243:0 244:0 245:0 246:1 247:0 248:0 249:0 250:0 251:0 252:0 253:0 254:0 255:0 256:0 257:0.87931 258:0.12069 259:0 260:0 261:0 262:0 263:0 264:0 265:0 266:0 267:0 268:0 269:1 270:0 271:0 272:0 273:0 274:0 275:0 276:0 277:0 278:0 279:0 280:0 281:0.0948276 282:0.905172 283:0 284:0 285:0 286:0 287:0 288:0 289:0 290:0 291:0 292:0 293:0 294:0 295:1 296:0 297:0 298:0 299:0 300:0 301:0 302:0 303:0 304:0 305:0 306:0 307:0 308:1 309:0 310:0 311:0 312:0 313:0 314:0 315:0 316:0 317:0 318:0 319:0.87931 320:0.12069 321:0 322:0 323:0 324:0 325:0 326:0 327:0 328:0 329:0 330:0 331:0.301724 332:0.637931 333:0.0603448 334:0 335:0 336:0 337:0 338:0 339:0 340:0 341:0 342:0 343:0.956897 344:0.0431034 345:0 346:0 347:0 348:0 349:0 350:0 351:0 352:0 353:0 354:0 355:0.956897 356:0.0431034 357:0 358:0 359:0 360:0 361:0 362:0 363:0 364:0 365:0 366:0 367:0.112069 368:0.767241 369:0.0862069 370:0.0344828 371:0 372:0 373:0 374:0 375:0 376:0 377:0.0689655 378:0.534483 379:0.0689655 380:0.301724 381:0.0258621 382:0 383:0 384:0 385:0 386:0 387:0 388:0 389:0 390:0.422414 391:0.577586 392:0 393:0 394:0 395:0 396:0 397:0 398:0 399:0 400:0 401:0 402:0 403:0.258621 404:0.586207 405:0.0948276 406:0.0603448 407:0 408:0 409:0 410:0 411:0 412:0 413:0.543103 414:0.0603448 415:0.0344828 416:0.215517 417:0.146552 418:0 419:0 420:0 421:0 422:0 423:0 424:0 425:0 426:0.439655 427:0.543103 428:0.0172414 429:0 430:0 431:0 432:0 433:0 434:0 435:0 436:0 437:0 438:1 439:0 440:0 441:0 442:0 443:0 444:0 445:0 446:0 447:0 448:0 449:0 450:1 451:0 452:0 453:0 454:0 455:0 456:0 457:0 458:0 459:0 460:0 461:0 462:1 463:0 464:0 465:0 466:0 467:0 468:0 469:0 470:0 471:0 472:0 473:0 474:1 475:0 476:0 477:0 478:0 479:0 480:0 481:0 482:0 483:0 484:1 485:0 486:0 487:0 488:0 489:0 490:0 491:0 492:0 493:0 494:0 495:0 496:0 497:0 498:0.491379 499:0.508621 500:0 501:0 502:0 503:0 504:0 505:0 506:0 507:0 508:0 509:0 510:1 511:0 512:0 513:0 514:0 515:0 516:0 517:0 518:1 519:0 520:0 521:0 522:0 523:0 524:0 525:0 526:0 527:0 528:0 529:0 530:0 531:0 532:0 533:0 534:0.0862069 535:0.913793 536:0 537:0 538:0 539:0 540:0 541:0 542:0 543:0 544:0 545:0 546:1 547:0 548:0 549:0 550:0 551:0 552:0 553:0 554:1 555:0 556:0 557:0 558:0 559:0 560:0 561:0 562:0 563:0 564:0 565:0 566:0 567:0 568:0 569:0 570:1 571:0 572:0 573:0 574:0 575:0 576:0 577:0 578:0 579:0 580:0 581:0 582:0 583:1 584:0 585:0 586:0 587:0 588:0 589:0 590:0 591:0 592:0 593:0 594:1 595:0 596:0 597:0 598:0 599:0 600:0 601:0 602:0 603:0 604:0 605:0 606:0.293103 607:0.706897 608:0 609:0 610:0 611:0 612:0 613:0 614:0 615:0 616:0 617:0 618:0 619:1 620:0 621:0 622:0 623:0 624:0 625:0 626:0 627:0 628:1 629:0 630:0 631:0 632:0 633:0 634:0 635:0 636:0 637:0 638:0 639:0 640:0 641:0 642:0 643:1 644:0 645:0 646:0 647:0 648:0 649:0 650:0 651:0 652:0 653:0 654:0 655:1 656:0 657:0 658:0 659:0 660:0 661:0 662:1 663:0 664:0 665:0 666:0 667:0 668:0 669:0 670:0 671:0 672:0 673:0 674:0 675:0 676:0 677:0 678:0.146552 679:0.853448 680:0 681:0 682:0 683:0 684:0 685:0 686:0 687:0 688:0 689:0 690:0 691:1 692:0 693:0 694:0 695:0 696:0 697:0 698:1 699:0 700:0 701:0 702:0 703:0 704:0 705:0 706:0 707:0 708:0 709:0 710:0 711:0 712:0 713:0 714:0.767241 715:0.232759 716:0 717:0 718:0 719:0 720:0 
-1 1 1 1 1 1:0 2:0 3:0 4:0 5:0 6:0 7:1 8:0 9:0 10:0 11:0 12:0 13:0 14:0 15:0 16:0 17:0 18:0 19:1 20:0 21:0 22:0 23:0 24:0 25:0 26:0 27:0 28:0 29:0 30:0 31:1 32:0 33:0 34:0 35:0 36:0 37:0 38:0 39:0 40:0 41:0 42:0.474138 43:0.525862 44:0 45:0 46:0 47:0 48:0 49:0 50:0 51:0 52:0 53:0 54:0 55:1 56:0 57:0 58:0 59:0 60:0 61:0 62:0 63:0 64:0 65:0 66:0 67:1 68:0 69:0 70:0 71:0 72:0 73:0 74:0 75:0 76:0 77:0 78:0 79:0.775862 80:0.224138 81:0 82:0 83:0 84:0 85:0 86:0 87:0 88:0 89:0 90:0 91:0 92:1 93:0 94:0 95:0 96:0 97:0 98:0 99:0 100:0 101:0 102:0 103:1 104:0 105:0 106:0 107:0 108:0 109:0 110:0 111:0 112:0 113:0 114:0 115:0.836207 116:0.163793 117:0 118:0 119:0 120:0 121:0 122:0 123:0 124:0 125:0 126:0 127:0 128:0 129:1 130:0 131:0 132:0 133:0 134:0 135:0 136:0 137:0 138:0 139:1 140:0 141:0 142:0 143:0 144:0 145:0 146:0 147:0 148:0 149:0 150:0.517241 151:0 152:0.482759 153:0 154:0 155:0 156:0 157:0 158:0 159:0 160:0 161:0 162:0 163:1 164:0 165:0 166:0 167:0 168:0 169:0 170:0 171:0 172:0 173:0 174:0.37069 175:0.62931 176:0 177:0 178:0 179:0 180:0 181:0 182:0 183:0 184:0.00862069 185:0.258621 186:0.267241 187:0.465517 188:0 189:0 190:0 191:0 192:0 193:0 194:0 195:0 196:0 197:0 198:0.62931 199:0.37069 200:0 201:0 202:0 203:0 204:0 205:0 206:0 207:0 208:0 209:0 210:0.715517 211:0.284483 212:0 213:0 214:0 215:0 216:0 217:0 218:0 219:0 220:0.172414 221:0.827586 222:0 223:0 224:0 225:0 226:0 227:0 228:0 229:0 230:0 231:0 232:0 233:0 234:0.474138 235:0.525862 236:0 237:0 238:0 239:0 240:0 241:0 242:0 243:0 244:0 245:0 246:0 247:0.931035 248:0.0689655 249:0 250:0 251:0 252:0 253:0 254:0 255:0 256:0.517241 257:0.482759 258:0 259:0 260:0 261:0 262:0 263:0 264:0 265:0 266:0 267:0 268:0 269:0 270:0.681035 271:0.318966 272:0 273:0 274:0 275:0 276:0 277:0 278:0 279:0 280:0 281:0 282:0 283:0.793103 284:0.206897 285:0 286:0 287:0 288:0 289:0 290:0 291:0 292:0 293:0 294:0 295:0 296:1 297:0 298:0 299:0 300:0 301:0 302:0 303:0 304:0 305:0 306:0 307:0.732759 308:0.267241 309:0 310:0 311:0 312:0 313:0 314:0 315:0 316:0 317:0 318:0 319:1 320:0 321:0 322:0 323:0 324:0 325:0 326:0 327:0 328:0 329:0 330:0 331:0 332:0.12069 333:0.87931 334:0 335:0 336:0 337:0 338:0 339:0 340:0 341:0 342:0.594828 343:0.137931 344:0.267241 345:0 346:0 347:0 348:0 349:0 350:0 351:0 352:0 353:0 354:0.991379 355:0.00862069 356:0 357:0 358:0 359:0 360:0 361:0 362:0 363:0 364:0 365:0 366:0 367:0.00862069 368:0.215517 369:0.62931 370:0.146552 371:0 372:0 373:0 374:0 375:0 376:0 377:0 378:0.560345 379:0.0689655 380:0.0948276 381:0.241379 382:0.0344828 383:0 384:0 385:0 386:0 387:0 388:0 389:0.758621 390:0.215517 391:0.0258621 392:0 393:0 394:0 395:0 396:0 397:0 398:0 399:0 400:0 401:0 402:0 403:0.0862069 404:0.155172 405:0.62069 406:0.137931 407:0 408:0 409:0 410:0 411:0 412:0 413:0.00862069 414:0.534483 415:0.0689655 416:0.0603448 417:0.189655 418:0.137931 419:0 420:0 421:0 422:0 423:0 424:0.353448 425:0.422414 426:0.155172 427:0.0689655 428:0 429:0 430:0 431:0 432:0 433:0 434:0 435:0 436:0 437:0 438:0.896552 439:0.103448 440:0 441:0 442:0 443:0 444:0 445:0 446:0 447:0 448:0 449:0 450:1 451:0 452:0 453:0 454:0 455:0 456:0 457:0 458:0 459:0 460:0 461:0 462:1 463:0 464:0 465:0 466:0 467:0 468:0 469:0 470:0 471:0 472:0 473:0 474:0.0172414 475:0.982759 476:0 477:0 478:0 479:0 480:0 481:0 482:0 483:0 484:0 485:0.189655 486:0.810345 487:0 488:0 489:0 490:0 491:0 492:0 493:0 494:0 495:0 496:1 497:0 498:0 499:0 500:0 501:0 502:0 503:0 504:0 505:0 506:0 507:0 508:0 509:0 510:0.00862069 511:0.991379 512:0 513:0 514:0 515:0 516:0 517:0 518:0 519:0 520:0.836207 521:0.163793 522:0 523:0 524:0 525:0 526:0 527:0 528:0 529:0 530:0 531:0.948276 532:0.0517241 533:0 534:0 535:0 536:0 537:0 538:0 539:0 540:0 541:0 542:0 543:0 544:0 545:0 546:0.0172414 547:0.982759 548:0 549:0 550:0 551:0 552:0 553:0 554:0 555:0 556:1 557:0 558:0 559:0 560:0 561:0 562:0 563:0 564:0 565:0 566:0.0603448 567:0.939655 568:0 569:0 570:0 571:0 572:0 573:0 574:0 575:0 576:0 577:0 578:0 579:0 580:0 581:0 582:0.482759 583:0.517241 584:0 585:0 586:0 587:0 588:0 589:0 590:0 591:0 592:0 593:0 594:1 595:0 596:0 597:0 598:0 599:0 600:0 601:0 602:0 603:0 604:0 605:0 606:0.603448 607:0.396552 608:0 609:0 610:0 611:0 612:0 613:0 614:0 615:0 616:0 617:0 618:0 619:0 620:1 621:0 622:0 623:0 624:0 625:0 626:0 627:0 628:0 629:0.0172414 630:0.982759 631:0 632:0 633:0 634:0 635:0 636:0 637:0 638:0 639:0 640:1 641:0 642:0 643:0 644:0 645:0 646:0 647:0 648:0 649:0 650:0 651:0 652:0 653:0 654:0 655:0 656:0.336207 657:0.663793 658:0 659:0 660:0 661:0 662:0 663:0 664:1 665:0 666:0 667:0 668:0 669:0 670:0 671:0 672:0 673:0 674:0 675:0.724138 676:0.275862 677:0 678:0 679:0 680:0 681:0 682:0 683:0 684:0 685:0 686:0 687:0 688:0 689:0 690:0 691:0 692:0.163793 693:0.836207 694:0 695:0 696:0 697:0 698:0 699:0 700:1 701:0 702:0 703:0 704:0 705:0 706:0 707:0 708:0 709:0 710:0.0258621 711:0.974138 712:0 713:0 714:0 715:0 716:0 717:0 718:0 719:0 720:0 
