svm_type c_svc
kernel_type rbf
gamma 0.00166667
nr_class 6
total_sv 72
rho 0.12342 -0.0689803 -0.0304563 -0.0883579 -0.079671 -0.197782 -0.16219 -0.211584 -0.211458 0.0209326 0.00540033 0.0269196 -0.0372521 -0.00214869 0.0145646
label 8 10 12 13 15 16
nr_sv 12 12 12 12 12 12
SV
1 1 1 1 1 1:0 2:0 3:0 4:0 5:0 6:1 7:0 8:0 9:0 10:0 11:0 12:0 13:0 14:0 15:0 16:1 17:0 18:0 19:0 20:0 21:0 22:0 23:0 24:0 25:0 26:1 27:0 28:0 29:0 30:0 31:0 32:0 33:0 34:0 35:0.990826 36:0.00917431 37:0 38:0 39:0 40:0 41:0 42:0 43:0 44:0 45:0 46:1 47:0 48:0 49:0 50:0 51:0 52:0 53:0 54:0 55:0 56:1 57:0 58:0 59:0 60:0 61:0 62:0 63:0 64:0 65:0.926606 66:0.0733945 67:0 68:0 69:0 70:0 71:0 72:0 73:0 74:0 75:0 76:0 77:0.669725 78:0.330275 79:0 80:0 81:0 82:0 83:0 84:0 85:0.211009 86:0.788991 87:0 88:0 89:0 90:0 91:0 92:0 93:0 94:0 95:0.458716 96:0.541284 97:0 98:0 99:0 100:0 101:0 102:0 103:0 104:0 105:0 106:0 107:0 108:0.669725 109:0.330275 110:0 111:0 112:0 113:0 114:0 115:0.0642202 116:0.93578 117:0 118:0 119:0 120:0 121:0 122:0 123:0 124:0.0366972 125:0.963303 126:0 127:0 128:0 129:0 130:0 131:0 132:0 133:0 134:0 135:0 136:0 137:1 138:0 139:0 140:0 141:0 142:0 143:0 144:0 145:0.385321 146:0.614679 147:0 148:0 149:0 150:0 151:0 152:0 153:0.0642202 154:0.889908 155:0.0458716 156:0 157:0 158:0 159:0 160:0 161:0 162:0 163:0 164:0 165:0 166:0.293578 167:0.110092 168:0.568807 169:0.0275229 170:0 171:0 172:0 173:0 174:0.0458716 175:0.908257 176:0.0458716 177:0 178:0 179:0 180:0 181:0 182:0 183:0.0183486 184:0.834862 185:0.146789 186:0 187:0 188:0 189:0 190:0 191:0 192:0 193:0 194:0 195:0.229358 196:0.0733945 197:0.0275229 198:0.100917 199:0.53211 200:0.0366972 201:0 202:0 203:0.0458716 204:0.385321 205:0.422018 206:0.146789 207:0 208:0 209:0 210:0 211:0 212:0 213:0.0366972 214:0.706422 215:0.256881 216:0 217:0 218:0 219:0 220:0 221:0 222:0 223:0 224:0 225:0.256881 226:0.0458716 227:0.0183486 228:0.0366972 229:0.357798 230:0.284404 231:0 232:0 233:0.0550459 234:0.385321 235:0.394495 236:0.165138 237:0 238:0 239:0 240:0 241:0 242:0 243:0 244:0 245:0 246:0.93578 247:0.0642202 248:0 249:0 250:0 251:0 252:0 253:0 254:0 255:0 256:0 257:1 258:0 259:0 260:0 261:0 262:0 263:0 264:0 265:0 266:1 267:0 268:0 269:0 270:0 271:0 272:0 273:0 274:0 275:0 276:0.238532 277:0.724771 278:0.0366972 279:0 280:0 281:0 282:0 283:0 284:0 285:0 286:0.311927 287:0.0642202 288:0.587156 289:0.0366972 290:0 291:0 292:0 293:0 294:0 295:0.40367 296:0.59633 297:0 298:0 299:0 300:0 301:0 302:0 303:0 304:0 305:0 306:0.110092 307:0.853211 308:0.0366972 309:0 310:0 311:0 312:0 313:0 314:0 315:0.220183 316:0.0825688 317:0.0366972 318:0.110092 319:0.458716 320:0.0917431 321:0 322:0 323:0 324:0.192661 325:0.256881 326:0.541284 327:0.00917431 328:0 329:0 330:0 331:0 332:0 333:0 334:0 335:0 336:0.366972 337:0.59633 338:0.0366972 339:0 340:0 341:0 342:0 343:0 344:0 345:0.266055 346:0.0366972 347:0.0275229 348:0.0275229 349:0.385321 350:0.256881 351:0 352:0 353:0.0550459 354:0.330275 355:0.0733945 356:0.522936 357:0.0183486 358:0 359:0 360:0 361:0 362:0 363:0 364:0 365:1 366:0 367:0 368:0 369:0 370:0 371:0 372:0 373:0 374:0 375:1 376:0 377:0 378:0 379:0 380:0 381:0 382:0 383:0 384:0 385:1 386:0 387:0 388:0 389:0 390:0 391:0 392:0 393:0 394:0 395:1 396:0 397:0 398:0 399:0 400:0 401:0 402:0 403:0 404:0.623853 405:0.376147 406:0 407:0 408:0 409:0 410:0 411:0 412:0 413:0.614679 414:0.385321 415:0 416:0 417:0 418:0 419:0 420:0 421:0 422:0 423:0 424:0 425:1 426:0 427:0 428:0 429:0 430:0 431:0 432:0.00917431 433:0.697248 434:0.293578 435:0 436:0 437:0 438:0 439:0 440:0 441:0 442:0.0642202 443:0.669725 444:0.266055 445:0 446:0 447:0 448:0 449:0 450:0 451:0 452:0 453:0 454:0 455:1 456:0 457:0 458:0 459:0 460:0 461:0 462:0.146789 463:0.788991 464:0.0642202 465:0 466:0 467:0 468:0 469:0 470:0 471:0 472:0.587156 473:0.412844 474:0 475:0 476:0 477:0 478:0 479:0 480:0 481:0 482:0 483:0 484:0 485:0 486:1 487:0 488:0 489:0 490:0 491:0 492:0 493:0 494:0 495:1 496:0 497:0 498:0 499:0 500:0 501:0 502:0 503:0 504:0 505:0.0275229 506:0.972477 507:0 508:0 509:0 510:0 511:0 512:0 513:0 514:0 515:0 516:0.981651 517:0.0183486 518:0 519:0 520:0 521:0 522:0 523:0 524:0.633027 525:0.366972 526:0 527:0 528:0 529:0 530:0 531:0 532:0 533:0.238532 534:0.761468 535:0 536:0 537:0 538:0 539:0 540:0 541:0 542:0 543:0 544:0 545:0 546:0.192661 547:0.807339 548:0 549:0 550:0 551:0 552:0 553:0.715596 554:0.284404 555:0 556:0 557:0 558:0 559:0 560:0 561:0 562:0 563:0.724771 564:0.275229 565:0 566:0 567:0 568:0 569:0 570:0 571:0 572:0 573:0 574:0 575:0 576:0 577:1 578:0 579:0 580:0 581:0 582:0.137615 583:0.761468 584:0.100917 585:0 586:0 587:0 588:0 589:0 590:0 591:0 592:0.458716 593:0.348624 594:0.192661 595:0 596:0 597:0 598:0 599:0 600:0 
1 1 1 1 1 1:0 2:0 3:0 4:0 5:0 6:1 7:0 8:0 9:0 10:0 11:0 12:0 13:0 14:0 15:0 16:1 17:0 18:0 19:0 20:0 21:0 22:0 23:0 24:0 25:0 26:1 27:0 28:0 29:0 30:0 31:0 32:0 33:0 34:0 35:0.732919 36:0.267081 37:0 38:0 39:0 40:0 41:0 42:0 43:0 44:0 45:0 46:1 47:0 48:0 49:0 50:0 51:0 52:0 53:0 54:0 55:0 56:1 57:0 58:0 59:0 60:0 61:0 62:0 63:0 64:0 65:0.590062 66:0.409938 67:0 68:0 69:0 70:0 71:0 72:0 73:0 74:0 75:0 76:0 77:0.627329 78:0.372671 79:0 80:0 81:0 82:0 83:0 84:0 85:0.173913 86:0.826087 87:0 88:0 89:0 90:0 91:0 92:0 93:0 94:0 95:0.223602 96:0.776398 97:0 98:0 99:0 100:0 101:0 102:0 103:0 104:0 105:0 106:0 107:0 108:0.714286 109:0.285714 110:0 111:0 112:0 113:0 114:0 115:0.440994 116:0.559006 117:0 118:0 119:0 120:0 121:0 122:0 123:0 124:0.124224 125:0.875776 126:0 127:0 128:0 129:0 130:0 131:0 132:0 133:0 134:0 135:0 136:0.0124224 137:0.931677 138:0.0559006 139:0 140:0 141:0 142:0 143:0 144:0 145:0.583851 146:0.279503 147:0.136646 148:0 149:0 150:0 151:0 152:0 153:0.00621118 154:0.813665 155:0.180124 156:0 157:0 158:0 159:0 160:0 161:0 162:0 163:0 164:0 165:0 166:0.360248 167:0.254658 168:0.385093 169:0 170:0 171:0 172:0 173:0 174:0.372671 175:0.378882 176:0.130435 177:0.10559 178:0.0124224 179:0 180:0 181:0 182:0 183:0.136646 184:0.459627 185:0.254658 186:0.149068 187:0 188:0 189:0 190:0 191:0 192:0 193:0 194:0 195:0.198758 196:0.124224 197:0.0807453 198:0.434783 199:0.149068 200:0.0124224 201:0 202:0 203:0.0559006 204:0.447205 205:0.304348 206:0.118012 207:0.0745342 208:0 209:0 210:0 211:0 212:0 213:0.149068 214:0.416149 215:0.26087 216:0.173913 217:0 218:0 219:0 220:0 221:0 222:0 223:0 224:0.136646 225:0.0745342 226:0.0931677 227:0.068323 228:0.378882 229:0.21118 230:0.0372671 231:0 232:0 233:0.130435 234:0.36646 235:0.31677 236:0.149068 237:0.0372671 238:0 239:0 240:0 241:0 242:0 243:0 244:0 245:0 246:0.881988 247:0.118012 248:0 249:0 250:0 251:0 252:0 253:0 254:0 255:0 256:0.0186335 257:0.968944 258:0.0124224 259:0 260:0 261:0 262:0 263:0 264:0 265:0.217391 266:0.708075 267:0.0745342 268:0 269:0 270:0 271:0 272:0 273:0 274:0 275:0 276:0.360248 277:0.583851 278:0.0559006 279:0 280:0 281:0 282:0 283:0 284:0 285:0 286:0.416149 287:0.378882 288:0.204969 289:0 290:0 291:0 292:0 293:0 294:0.198758 295:0.15528 296:0.409938 297:0.236025 298:0 299:0 300:0 301:0 302:0 303:0 304:0 305:0.0186335 306:0.217391 307:0.546584 308:0.217391 309:0 310:0 311:0 312:0 313:0 314:0.00621118 315:0.229814 316:0.0993789 317:0.142857 318:0.378882 319:0.142857 320:0 321:0 322:0 323:0.15528 324:0.180124 325:0.111801 326:0.434783 327:0.118012 328:0 329:0 330:0 331:0 332:0 333:0 334:0 335:0.0434783 336:0.223602 337:0.503106 338:0.186335 339:0.0434783 340:0 341:0 342:0 343:0 344:0.149068 345:0.0807453 346:0.068323 347:0.142857 348:0.335404 349:0.223602 350:0 351:0 352:0 353:0.161491 354:0.192547 355:0.142857 356:0.409938 357:0.0931677 358:0 359:0 360:0 361:0 362:0 363:0 364:0 365:1 366:0 367:0 368:0 369:0 370:0 371:0 372:0 373:0 374:0 375:1 376:0 377:0 378:0 379:0 380:0 381:0 382:0 383:0 384:0 385:0.795031 386:0.204969 387:0 388:0 389:0 390:0 391:0 392:0 393:0 394:0 395:1 396:0 397:0 398:0 399:0 400:0 401:0 402:0 403:1 404:0 405:0 406:0 407:0 408:0 409:0 410:0 411:0 412:0 413:0 414:0 415:0.795031 416:0.204969 417:0 418:0 419:0 420:0 421:0 422:0 423:0 424:0.689441 425:0.310559 426:0 427:0 428:0 429:0 430:0 431:0.770186 432:0.229814 433:0 434:0 435:0 436:0 437:0 438:0 439:0 440:0 441:0 442:0 443:0 444:0 445:0.708075 446:0.291925 447:0 448:0 449:0 450:0 451:0 452:0 453:0 454:0.453416 455:0.546584 456:0 457:0 458:0 459:0 460:0 461:0.881988 462:0.118012 463:0 464:0 465:0 466:0 467:0 468:0 469:0 470:0 471:0 472:0 473:0 474:0.068323 475:0.888199 476:0.0434783 477:0 478:0 479:0 480:0 481:0 482:0 483:0 484:0 485:0 486:1 487:0 488:0 489:0 490:0 491:0 492:0 493:0 494:0 495:1 496:0 497:0 498:0 499:0 500:0 501:0 502:0 503:0 504:0 505:0.254658 506:0.745342 507:0 508:0 509:0 510:0 511:0 512:0 513:0 514:0 515:0 516:1 517:0 518:0 519:0 520:0 521:0 522:0 523:1 524:0 525:0 526:0 527:0 528:0 529:0 530:0 531:0 532:0 533:0 534:0 535:0.52795 536:0.47205 537:0 538:0 539:0 540:0 541:0 542:0 543:0 544:0 545:0 546:0.726708 547:0.273292 548:0 549:0 550:0 551:0.801242 552:0.198758 553:0 554:0 555:0 556:0 557:0 558:0 559:0 560:0 561:0 562:0 563:0 564:0 565:0.453416 566:0.546584 567:0 568:0 569:0 570:0 571:0 572:0 573:0 574:0 575:0 576:0.484472 577:0.515528 578:0 579:0 580:0 581:0.937888 582:0.0621118 583:0 584:0 585:0 586:0 587:0 588:0 589:0 590:0 591:0 592:0 593:0 594:0.0310559 595:0.732919 596:0.236025 597:0 598:0 599:0 600:0 
1 1 1 1 1 1:0 2:0 3:0 4:0 5:0 6:1 7:0 8:0 9:0 10:0 11:0 12:0 13:0 14:0 15:0 16:1 17:0 18:0 19:0 20:0 21:0 22:0 23:0 24:0 25:0 26:1 27:0 28:0 29:0 30:0 31:0 32:0 33:0 34:0 35:1 36:0 37:0 38:0 39:0 40:0 41:0 42:0 43:0 44:0 45:0 46:1 47:0 48:0 49:0 50:0 51:0 52:0 53:0 54:0 55:0 56:1 57:0 58:0 59:0 60:0 61:0 62:0 63:0 64:0 65:0.548387 66:0.451613 67:0 68:0 69:0 70:0 71:0 72:0 73:0 74:0 75:0 76:0 77:1 78:0 79:0 80:0 81:0 82:0 83:0 84:0 85:0 86:1 87:0 88:0 89:0 90:0 91:0 92:0 93:0 94:0 95:0.612903 96:0.387097 97:0 98:0 99:0 100:0 101:0 102:0 103:0 104:0 105:0 106:0 107:0 108:1 109:0 110:0 111:0 112:0 113:0 114:0 115:0.172043 116:0.827957 117:0 118:0 119:0 120:0 121:0 122:0 123:0 124:0.0107527 125:0.989247 126:0 127:0 128:0 129:0 130:0 131:0 132:0 133:0 134:0 135:0 136:0.387097 137:0.612903 138:0 139:0 140:0 141:0 142:0 143:0 144:0 145:0 146:1 147:0 148:0 149:0 150:0 151:0 152:0 153:0.0107527 154:0.989247 155:0 156:0 157:0 158:0 159:0 160:0 161:0 162:0 163:0 164:0 165:0.0107527 166:0.16129 167:0.731183 168:0.0967742 169:0 170:0 171:0 172:0 173:0 174:0 175:1 176:0 177:0 178:0 179:0 180:0 181:0 182:0 183:0.0645161 184:0.784946 185:0.150538 186:0 187:0 188:0 189:0 190:0 191:0 192:0 193:0 194:0 195:0.139785 196:0.0215054 197:0.0430108 198:0.634409 199:0.16129 200:0 201:0 202:0 203:0 204:0.344086 205:0.612903 206:0.0430108 207:0 208:0 209:0 210:0 211:0 212:0 213:0.107527 214:0.666667 215:0.225806 216:0 217:0 218:0 219:0 220:0 221:0 222:0 223:0 224:0 225:0.129032 226:0.0215054 227:0.0215054 228:0.473118 229:0.354839 230:0 231:0 232:0 233:0.0107527 234:0.419355 235:0.462366 236:0.107527 237:0 238:0 239:0 240:0 241:0 242:0 243:0 244:0 245:0 246:0.83871 247:0.16129 248:0 249:0 250:0 251:0 252:0 253:0 254:0 255:0 256:0.204301 257:0.795699 258:0 259:0 260:0 261:0 262:0 263:0 264:0 265:0 266:1 267:0 268:0 269:0 270:0 271:0 272:0 273:0 274:0 275:0 276:0 277:0.795699 278:0.204301 279:0 280:0 281:0 282:0 283:0 284:0 285:0.129032 286:0.0322581 287:0.569892 288:0.268817 289:0 290:0 291:0 292:0 293:0 294:0 295:0 296:1 297:0 298:0 299:0 300:0 301:0 302:0 303:0 304:0 305:0 306:0 307:0.688172 308:0.311828 309:0 310:0 311:0 312:0 313:0 314:0 315:0.150538 316:0.0107527 317:0.0322581 318:0.569892 319:0.236559 320:0 321:0 322:0 323:0 324:0 325:0.473118 326:0.494624 327:0.0322581 328:0 329:0 330:0 331:0 332:0 333:0 334:0 335:0 336:0.107527 337:0.569892 338:0.322581 339:0 340:0 341:0 342:0 343:0 344:0.0537634 345:0.0967742 346:0.0107527 347:0.0215054 348:0.376344 349:0.44086 350:0 351:0 352:0 353:0 354:0 355:0.494624 356:0.451613 357:0.0537634 358:0 359:0 360:0 361:0 362:0 363:0 364:0 365:1 366:0 367:0 368:0 369:0 370:0 371:0 372:0 373:0 374:0 375:1 376:0 377:0 378:0 379:0 380:0 381:0 382:0 383:0 384:0 385:1 386:0 387:0 388:0 389:0 390:0 391:0 392:0 393:0 394:0 395:1 396:0 397:0 398:0 399:0 400:0 401:0 402:0 403:0 404:0.698925 405:0.301075 406:0 407:0 408:0 409:0 410:0 411:0 412:0 413:0.150538 414:0.849462 415:0 416:0 417:0 418:0 419:0 420:0 421:0 422:0 423:0 424:0 425:1 426:0 427:0 428:0 429:0 430:0 431:0 432:0 433:0.258065 434:0.741935 435:0 436:0 437:0 438:0 439:0 440:0 441:0 442:0.0537634 443:0.946237 444:0 445:0 446:0 447:0 448:0 449:0 450:0 451:0 452:0 453:0 454:0 455:1 456:0 457:0 458:0 459:0 460:0 461:0 462:0 463:0.752688 464:0.247312 465:0 466:0 467:0 468:0 469:0 470:0 471:0 472:0.311828 473:0.688172 474:0 475:0 476:0 477:0 478:0 479:0 480:0 481:0 482:0 483:0 484:0 485:0 486:1 487:0 488:0 489:0 490:0 491:0 492:0 493:0 494:0 495:1 496:0 497:0 498:0 499:0 500:0 501:0 502:0 503:0 504:0 505:0.913979 506:0.0860215 507:0 508:0 509:0 510:0 511:0 512:0 513:0 514:0 515:0 516:1 517:0 518:0 519:0 520:0 521:0 522:0 523:0 524:0.677419 525:0.322581 526:0 527:0 528:0 529:0 530:0 531:0 532:0 533:0.376344 534:0.623656 535:0 536:0 537:0 538:0 539:0 540:0 541:0 542:0 543:0 544:0 545:0 546:1 547:0 548:0 549:0 550:0 551:0 552:0 553:0.473118 554:0.526882 555:0 556:0 557:0 558:0 559:0 560:0 561:0 562:0.0645161 563:0.935484 564:0 565:0 566:0 567:0 568:0 569:0 570:0 571:0 572:0 573:0 574:0 575:0 576:0.924731 577:0.0752688 578:0 579:0 580:0 581:0 582:0 583:0.731183 584:0.268817 585:0 586:0 587:0 588:0 589:0 590:0 591:0 592:0.376344 593:0.623656 594:0 595:0 596:0 597:0 598:0 599:0 600:0 
1 1 1 1 1 1:0 2:0 3:0 4:0 5:0 6:1 7:0 8:0 9:0 10:0 11:0 12:0 13:0 14:0 15:0 16:1 17:0 18:0 19:0 20:0 21:0 22:0 23:0 24:0 25:0 26:1 27:0 28:0 29:0 30:0 31:0 32:0 33:0 34:0 35:0.535948 36:0.464052 37:0 38:0 39:0 40:0 41:0 42:0 43:0 44:0 45:0 46:1 47:0 48:0 49:0 50:0 51:0 52:0 53:0 54:0 55:0 56:1 57:0 58:0 59:0 60:0 61:0 62:0 63:0 64:0 65:0.398693 66:0.601307 67:0 68:0 69:0 70:0 71:0 72:0 73:0 74:0 75:0 76:0 77:1 78:0 79:0 80:0 81:0 82:0 83:0 84:0 85:0 86:1 87:0 88:0 89:0 90:0 91:0 92:0 93:0 94:0 95:0.594771 96:0.405229 97:0 98:0 99:0 100:0 101:0 102:0 103:0 104:0 105:0 106:0 107:0.0457516 108:0.954248 109:0 110:0 111:0 112:0 113:0 114:0 115:0.477124 116:0.522876 117:0 118:0 119:0 120:0 121:0 122:0 123:0 124:0.0980392 125:0.901961 126:0 127:0 128:0 129:0 130:0 131:0 132:0 133:0 134:0 135:0 136:0.0261438 137:0.973856 138:0 139:0 140:0 141:0 142:0 143:0 144:0 145:0.228758 146:0.745098 147:0.0261438 148:0 149:0 150:0 151:0 152:0 153:0.0261438 154:0.973856 155:0 156:0 157:0 158:0 159:0 160:0 161:0 162:0 163:0 164:0 165:0 166:0.143791 167:0.522876 168:0.333333 169:0 170:0 171:0 172:0 173:0 174:0.176471 175:0.470588 176:0.352941 177:0 178:0 179:0 180:0 181:0 182:0 183:0.0392157 184:0.745098 185:0.215686 186:0 187:0 188:0 189:0 190:0 191:0 192:0 193:0 194:0 195:0.111111 196:0.0196078 197:0.0196078 198:0.660131 199:0.189542 200:0 201:0 202:0 203:0 204:0.20915 205:0.575163 206:0.215686 207:0 208:0 209:0 210:0 211:0 212:0 213:0.0392157 214:0.581699 215:0.379085 216:0 217:0 218:0 219:0 220:0 221:0 222:0 223:0 224:0 225:0.111111 226:0.0130719 227:0.0130719 228:0.411765 229:0.45098 230:0 231:0 232:0 233:0.0130719 234:0.196078 235:0.607843 236:0.183007 237:0 238:0 239:0 240:0 241:0 242:0 243:0 244:0 245:0 246:0.575163 247:0.424837 248:0 249:0 250:0 251:0 252:0 253:0 254:0 255:0 256:0.0326797 257:0.96732 258:0 259:0 260:0 261:0 262:0 263:0 264:0 265:0.169935 266:0.830065 267:0 268:0 269:0 270:0 271:0 272:0 273:0 274:0 275:0 276:0.0784314 277:0.869281 278:0.0522876 279:0 280:0 281:0 282:0 283:0 284:0 285:0 286:0.137255 287:0.424837 288:0.437909 289:0 290:0 291:0 292:0 293:0 294:0.0980392 295:0.464052 296:0.437909 297:0 298:0 299:0 300:0 301:0 302:0 303:0 304:0 305:0.0130719 306:0.137255 307:0.777778 308:0.0718954 309:0 310:0 311:0 312:0 313:0 314:0 315:0.104575 316:0.0196078 317:0.0196078 318:0.562092 319:0.294118 320:0 321:0 322:0 323:0 324:0.183007 325:0.660131 326:0.156863 327:0 328:0 329:0 330:0 331:0 332:0 333:0 334:0 335:0.0261438 336:0.169935 337:0.732026 338:0.0718954 339:0 340:0 341:0 342:0 343:0 344:0.0522876 345:0.0588235 346:0.0130719 347:0.0130719 348:0.339869 349:0.522876 350:0 351:0 352:0 353:0 354:0.20915 355:0.640523 356:0.150327 357:0 358:0 359:0 360:0 361:0 362:0 363:0 364:0 365:1 366:0 367:0 368:0 369:0 370:0 371:0 372:0 373:0 374:0 375:1 376:0 377:0 378:0 379:0 380:0 381:0 382:0 383:0 384:0 385:0.732026 386:0.267974 387:0 388:0 389:0 390:0 391:0 392:0 393:0 394:0 395:1 396:0 397:0 398:0 399:0 400:0 401:0 402:0 403:1 404:0 405:0 406:0 407:0 408:0 409:0 410:0 411:0 412:0 413:0 414:0 415:0.816993 416:0.183007 417:0 418:0 419:0 420:0 421:0 422:0 423:0 424:0.0849673 425:0.915033 426:0 427:0 428:0 429:0 430:0 431:0.130719 432:0.869281 433:0 434:0 435:0 436:0 437:0 438:0 439:0 440:0 441:0 442:0 443:0 444:0 445:0.457516 446:0.542484 447:0 448:0 449:0 450:0 451:0 452:0 453:0 454:0.24183 455:0.75817 456:0 457:0 458:0 459:0 460:0 461:0.326797 462:0.673203 463:0 464:0 465:0 466:0 467:0 468:0 469:0 470:0 471:0 472:0 473:0 474:0 475:0.588235 476:0.411765 477:0 478:0 479:0 480:0 481:0 482:0 483:0 484:0 485:0 486:1 487:0 488:0 489:0 490:0 491:0 492:0 493:0 494:0 495:1 496:0 497:0 498:0 499:0 500:0 501:0 502:0 503:0 504:0 505:0.75817 506:0.24183 507:0 508:0 509:0 510:0 511:0 512:0 513:0 514:0 515:0 516:1 517:0 518:0 519:0 520:0 521:0 522:0 523:1 524:0 525:0 526:0 527:0 528:0 529:0 530:0 531:0 532:0 533:0 534:0 535:0.96732 536:0.0326797 537:0 538:0 539:0 540:0 541:0 542:0 543:0 544:0 545:0 546:0.954248 547:0.0457516 548:0 549:0 550:0 551:0.0653595 552:0.934641 553:0 554:0 555:0 556:0 557:0 558:0 559:0 560:0 561:0 562:0 563:0 564:0 565:0.777778 566:0.222222 567:0 568:0 569:0 570:0 571:0 572:0 573:0 574:0 575:0.0980392 576:0.849673 577:0.0522876 578:0 579:0 580:0 581:0.150327 582:0.849673 583:0 584:0 585:0 586:0 587:0 588:0 589:0 590:0 591:0 592:0 593:0 594:0.117647 595:0.875817 596:0.00653595 597:0 598:0 599:0 600:0 
1 1 1 1 1 1:0 2:0 3:0 4:0 5:0 6:1 7:0 8:0 9:0 10:0 11:0 12:0 13:0 14:0 15:0 16:1 17:0 18:0 19:0 20:0 21:0 22:0 23:0 24:0 25:0 26:1 27:0 28:0 29:0 30:0 31:0 32:0 33:0 34:0 35:0.851282 36:0.148718 37:0 38:0 39:0 40:0 41:0 42:0 43:0 44:0 45:0 46:1 47:0 48:0 49:0 50:0 51:0 52:0 53:0 54:0 55:0 56:1 57:0 58:0 59:0 60:0 61:0 62:0 63:0 64:0 65:0.964103 66:0.0358974 67:0 68:0 69:0 70:0 71:0 72:0 73:0 74:0 75:0 76:0 77:1 78:0 79:0 80:0 81:0 82:0 83:0 84:0 85:0 86:1 87:0 88:0 89:0 90:0 91:0 92:0 93:0 94:0 95:1 96:0 97:0 98:0 99:0 100:0 101:0 102:0 103:0 104:0 105:0 106:0 107:0.128205 108:0.871795 109:0 110:0 111:0 112:0 113:0 114:0 115:0 116:1 117:0 118:0 119:0 120:0 121:0 122:0 123:0 124:0 125:1 126:0 127:0 128:0 129:0 130:0 131:0 132:0 133:0 134:0 135:0 136:0.94359 137:0.0564103 138:0 139:0 140:0 141:0 142:0 143:0 144:0 145:0 146:1 147:0 148:0 149:0 150:0 151:0 152:0 153:0 154:0.789744 155:0.210256 156:0 157:0 158:0 159:0 160:0 161:0 162:0 163:0 164:0 165:0 166:0.697436 167:0.302564 168:0 169:0 170:0 171:0 172:0 173:0 174:0 175:0.651282 176:0.348718 177:0 178:0 179:0 180:0 181:0 182:0 183:0.133333 184:0.635897 185:0.230769 186:0 187:0 188:0 189:0 190:0 191:0 192:0 193:0 194:0 195:0.205128 196:0.0153846 197:0.523077 198:0.25641 199:0 200:0 201:0 202:0 203:0 204:0 205:0.825641 206:0.174359 207:0 208:0 209:0 210:0 211:0 212:0 213:0.189744 214:0.548718 215:0.261538 216:0 217:0 218:0 219:0 220:0 221:0 222:0 223:0 224:0 225:0.205128 226:0.0102564 227:0.430769 228:0.287179 229:0.0666667 230:0 231:0 232:0 233:0 234:0.0153846 235:0.697436 236:0.287179 237:0 238:0 239:0 240:0 241:0 242:0 243:0 244:0 245:0 246:1 247:0 248:0 249:0 250:0 251:0 252:0 253:0 254:0 255:0 256:0.979487 257:0.0205128 258:0 259:0 260:0 261:0 262:0 263:0 264:0 265:0 266:1 267:0 268:0 269:0 270:0 271:0 272:0 273:0 274:0 275:0 276:0.210256 277:0.789744 278:0 279:0 280:0 281:0 282:0 283:0 284:0 285:0.102564 286:0.610256 287:0.276923 288:0.0102564 289:0 290:0 291:0 292:0 293:0 294:0 295:0.54359 296:0.45641 297:0 298:0 299:0 300:0 301:0 302:0 303:0 304:0 305:0 306:0.389744 307:0.569231 308:0.0410256 309:0 310:0 311:0 312:0 313:0 314:0 315:0.225641 316:0.0923077 317:0.451282 318:0.230769 319:0 320:0 321:0 322:0 323:0 324:0 325:0.651282 326:0.348718 327:0 328:0 329:0 330:0 331:0 332:0 333:0 334:0 335:0 336:0.476923 337:0.466667 338:0.0564103 339:0 340:0 341:0 342:0 343:0 344:0.0153846 345:0.210256 346:0.0410256 347:0.451282 348:0.215385 349:0.0666667 350:0 351:0 352:0 353:0 354:0.0153846 355:0.605128 356:0.379487 357:0 358:0 359:0 360:0 361:0 362:0 363:0 364:0 365:1 366:0 367:0 368:0 369:0 370:0 371:0 372:0 373:0 374:0 375:1 376:0 377:0 378:0 379:0 380:0 381:0 382:0 383:0 384:0 385:1 386:0 387:0 388:0 389:0 390:0 391:0 392:0 393:0 394:0 395:0.102564 396:0.897436 397:0 398:0 399:0 400:0 401:0 402:0 403:0.0358974 404:0.964103 405:0 406:0 407:0 408:0 409:0 410:0 411:0 412:0 413:0 414:0.815385 415:0.153846 416:0.0307692 417:0 418:0 419:0 420:0 421:0 422:0 423:0 424:0 425:0.312821 426:0.68718 427:0 428:0 429:0 430:0 431:0 432:0.025641 433:0.897436 434:0.0769231 435:0 436:0 437:0 438:0 439:0 440:0 441:0 442:0 443:0.487179 444:0.512821 445:0 446:0 447:0 448:0 449:0 450:0 451:0 452:0 453:0 454:0 455:0.0974359 456:0.902564 457:0 458:0 459:0 460:0 461:0 462:0.0205128 463:0.938462 464:0.0410256 465:0 466:0 467:0 468:0 469:0 470:0 471:0 472:0 473:0.774359 474:0.225641 475:0 476:0 477:0 478:0 479:0 480:0 481:0 482:0 483:0 484:0 485:0 486:1 487:0 488:0 489:0 490:0 491:0 492:0 493:0 494:0 495:1 496:0 497:0 498:0 499:0 500:0 501:0 502:0 503:0 504:0 505:0.984615 506:0.0153846 507:0 508:0 509:0 510:0 511:0 512:0 513:0 514:0 515:0 516:0.989744 517:0.0102564 518:0 519:0 520:0 521:0 522:0 523:0 524:1 525:0 526:0 527:0 528:0 529:0 530:0 531:0 532:0 533:0 534:0.815385 535:0.164103 536:0.0205128 537:0 538:0 539:0 540:0 541:0 542:0 543:0 544:0 545:0.0461538 546:0.953846 547:0 548:0 549:0 550:0 551:0 552:0 553:1 554:0 555:0 556:0 557:0 558:0 559:0 560:0 561:0 562:0 563:0.564103 564:0.435897 565:0 566:0 567:0 568:0 569:0 570:0 571:0 572:0 573:0 574:0 575:0 576:1 577:0 578:0 579:0 580:0 581:0 582:0 583:1 584:0 585:0 586:0 587:0 588:0 589:0 590:0 591:0 592:0 593:0.697436 594:0.302564 595:0 596:0 597:0 598:0 599:0 600:0 
1 1 1 1 1 1:0 2:0 3:0 4:0 5:0 6:1 7:0 8:0 9:0 10:0 11:0 12:0 13:0 14:0 15:0 16:1 17:0 18:0 19:0 20:0 21:0 22:0 23:0 24:0 25:0 26:1 27:0 28:0 29:0 30:0 31:0 32:0 33:0 34:0 35:0.64486 36:0.35514 37:0 38:0 39:0 40:0 41:0 42:0 43:0 44:0 45:0 46:1 47:0 48:0 49:0 50:0 51:0 52:0 53:0 54:0 55:0 56:1 57:0 58:0 59:0 60:0 61:0 62:0 63:0 64:0 65:0.939252 66:0.0607477 67:0 68:0 69:0 70:0 71:0 72:0 73:0 74:0 75:0 76:0 77:0.257009 78:0.742991 79:0 80:0 81:0 82:0 83:0 84:0 85:0 86:1 87:0 88:0 89:0 90:0 91:0 92:0 93:0 94:0 95:0.766355 96:0.233645 97:0 98:0 99:0 100:0 101:0 102:0 103:0 104:0 105:0 106:0 107:0 108:1 109:0 110:0 111:0 112:0 113:0 114:0 115:0 116:1 117:0 118:0 119:0 120:0 121:0 122:0 123:0 124:0 125:1 126:0 127:0 128:0 129:0 130:0 131:0 132:0 133:0 134:0 135:0 136:0 137:1 138:0 139:0 140:0 141:0 142:0 143:0 144:0 145:0 146:1 147:0 148:0 149:0 150:0 151:0 152:0 153:0 154:0.897196 155:0.102804 156:0 157:0 158:0 159:0 160:0 161:0 162:0 163:0 164:0 165:0 166:0.742991 167:0.126168 168:0.130841 169:0 170:0 171:0 172:0 173:0 174:0 175:0.369159 176:0.630841 177:0 178:0 179:0 180:0 181:0 182:0 183:0.0747664 184:0.864486 185:0.0607477 186:0 187:0 188:0 189:0 190:0 191:0 192:0 193:0 194:0 195:0.359813 196:0.0841122 197:0.32243 198:0.126168 199:0.107477 200:0 201:0 202:0 203:0 204:0 205:0.831776 206:0.168224 207:0 208:0 209:0 210:0 211:0 212:0 213:0.0934579 214:0.850467 215:0.0560748 216:0 217:0 218:0 219:0 220:0 221:0 222:0 223:0 224:0 225:0.364486 226:0.0514019 227:0.285047 228:0.149533 229:0.149533 230:0 231:0 232:0 233:0 234:0.0140187 235:0.775701 236:0.21028 237:0 238:0 239:0 240:0 241:0 242:0 243:0 244:0 245:0 246:1 247:0 248:0 249:0 250:0 251:0 252:0 253:0 254:0 255:0 256:0 257:1 258:0 259:0 260:0 261:0 262:0 263:0 264:0 265:0.0607477 266:0.939252 267:0 268:0 269:0 270:0 271:0 272:0 273:0 274:0 275:0 276:0.285047 277:0.714953 278:0 279:0 280:0 281:0 282:0 283:0 284:0 285:0 286:0.696262 287:0.196262 288:0.107477 289:0 290:0 291:0 292:0 293:0 294:0 295:0.21028 296:0.78972 297:0 298:0 299:0 300:0 301:0 302:0 303:0 304:0 305:0 306:0.38785 307:0.593458 308:0.0186916 309:0 310:0 311:0 312:0 313:0 314:0 315:0.336449 316:0.102804 317:0.299065 318:0.196262 319:0.0654206 320:0 321:0 322:0 323:0 324:0.00934579 325:0.448598 326:0.542056 327:0 328:0 329:0 330:0 331:0 332:0 333:0 334:0 335:0 336:0.32243 337:0.640187 338:0.0373832 339:0 340:0 341:0 342:0 343:0 344:0 345:0.336449 346:0.0981308 347:0.242991 348:0.205607 349:0.116822 350:0 351:0 352:0 353:0 354:0.0233645 355:0.439252 356:0.537383 357:0 358:0 359:0 360:0 361:0 362:0 363:0 364:0 365:1 366:0 367:0 368:0 369:0 370:0 371:0 372:0 373:0 374:0 375:1 376:0 377:0 378:0 379:0 380:0 381:0 382:0 383:0 384:0 385:0.892523 386:0.107477 387:0 388:0 389:0 390:0 391:0 392:0 393:0 394:0 395:1 396:0 397:0 398:0 399:0 400:0 401:0 402:0 403:0.859813 404:0.140187 405:0 406:0 407:0 408:0 409:0 410:0 411:0 412:0 413:0 414:0 415:0.556075 416:0.443925 417:0 418:0 419:0 420:0 421:0 422:0 423:0 424:0.0046729 425:0.995327 426:0 427:0 428:0 429:0 430:0 431:0 432:1 433:0 434:0 435:0 436:0 437:0 438:0 439:0 440:0 441:0 442:0 443:0 444:0 445:0.434579 446:0.565421 447:0 448:0 449:0 450:0 451:0 452:0 453:0 454:0.00934579 455:0.990654 456:0 457:0 458:0 459:0 460:0 461:0 462:1 463:0 464:0 465:0 466:0 467:0 468:0 469:0 470:0 471:0 472:0 473:0 474:0.0233645 475:0.771028 476:0.205607 477:0 478:0 479:0 480:0 481:0 482:0 483:0 484:0 485:0 486:1 487:0 488:0 489:0 490:0 491:0 492:0 493:0 494:0 495:1 496:0 497:0 498:0 499:0 500:0 501:0 502:0 503:0 504:0 505:0.757009 506:0.242991 507:0 508:0 509:0 510:0 511:0 512:0 513:0 514:0 515:0 516:1 517:0 518:0 519:0 520:0 521:0 522:0 523:0.948598 524:0.0514019 525:0 526:0 527:0 528:0 529:0 530:0 531:0 532:0 533:0 534:0 535:0.457944 536:0.542056 537:0 538:0 539:0 540:0 541:0 542:0 543:0 544:0 545:0.0186916 546:0.971963 547:0.00934579 548:0 549:0 550:0 551:0 552:1 553:0 554:0 555:0 556:0 557:0 558:0 559:0 560:0 561:0 562:0 563:0 564:0 565:0.654206 566:0.345794 567:0 568:0 569:0 570:0 571:0 572:0 573:0 574:0 575:0.0233645 576:0.962617 577:0.0140187 578:0 579:0 580:0 581:0 582:0.985981 583:0.0140187 584:0 585:0 586:0 587:0 588:0 589:0 590:0 591:0 592:0 593:0 594:0.0327103 595:0.831776 596:0.135514 597:0 598:0 599:0 600:0 
1 1 1 1 1 1:0 2:0 3:0 4:0 5:0 6:1 7:0 8:0 9:0 10:0 11:0 12:0 13:0 14:0 15:0 16:1 17:0 18:0 19:0 20:0 21:0 22:0 23:0 24:0 25:0 26:1 27:0 28:0 29:0 30:0 31:0 32:0 33:0 34:0 35:0.412698 36:0.587302 37:0 38:0 39:0 40:0 41:0 42:0 43:0 44:0 45:0 46:1 47:0 48:0 49:0 50:0 51:0 52:0 53:0 54:0 55:0.137566 56:0.862434 57:0 58:0 59:0 60:0 61:0 62:0 63:0 64:0 65:0.380952 66:0.619048 67:0 68:0 69:0 70:0 71:0 72:0 73:0 74:0 75:0 76:0.026455 77:0.973545 78:0 79:0 80:0 81:0 82:0 83:0 84:0 85:0.328042 86:0.671958 87:0 88:0 89:0 90:0 91:0 92:0 93:0 94:0 95:0.42328 96:0.57672 97:0 98:0 99:0 100:0 101:0 102:0 103:0 104:0 105:0 106:0 107:0.042328 108:0.957672 109:0 110:0 111:0 112:0 113:0 114:0 115:0.619048 116:0.380952 117:0 118:0 119:0 120:0 121:0 122:0 123:0 124:0.042328 125:0.957672 126:0 127:0 128:0 129:0 130:0 131:0 132:0 133:0 134:0 135:0 136:0.169312 137:0.830688 138:0 139:0 140:0 141:0 142:0 143:0 144:0 145:0.121693 146:0.878307 147:0 148:0 149:0 150:0 151:0 152:0 153:0.021164 154:0.402116 155:0.57672 156:0 157:0 158:0 159:0 160:0 161:0 162:0 163:0 164:0 165:0.179894 166:0.650794 167:0.111111 168:0.0582011 169:0 170:0 171:0 172:0 173:0 174:0.047619 175:0.507937 176:0.444444 177:0 178:0 179:0 180:0 181:0 182:0 183:0 184:0.142857 185:0.693122 186:0.164021 187:0 188:0 189:0 190:0 191:0 192:0 193:0 194:0 195:0.328042 196:0.433862 197:0.0846561 198:0.116402 199:0.037037 200:0 201:0 202:0 203:0.015873 204:0.343915 205:0.634921 206:0.00529101 207:0 208:0 209:0 210:0 211:0 212:0 213:0 214:0.0899471 215:0.608466 216:0.301587 217:0 218:0 219:0 220:0 221:0 222:0 223:0 224:0 225:0.328042 226:0.391534 227:0.111111 228:0.10582 229:0.0634921 230:0 231:0 232:0 233:0.047619 234:0.645503 235:0.306878 236:0 237:0 238:0 239:0 240:0 241:0 242:0 243:0 244:0 245:0.00529101 246:0.888889 247:0.10582 248:0 249:0 250:0 251:0 252:0 253:0 254:0 255:0 256:0.216931 257:0.783069 258:0 259:0 260:0 261:0 262:0 263:0 264:0 265:0.26455 266:0.73545 267:0 268:0 269:0 270:0 271:0 272:0 273:0 274:0 275:0 276:0.259259 277:0.698413 278:0.042328 279:0 280:0 281:0 282:0 283:0 284:0 285:0.259259 286:0.375661 287:0.328042 288:0.037037 289:0 290:0 291:0 292:0 293:0 294:0.195767 295:0.275132 296:0.518519 297:0.010582 298:0 299:0 300:0 301:0 302:0 303:0 304:0 305:0.0793651 306:0.412698 307:0.460317 308:0.047619 309:0 310:0 311:0 312:0 313:0 314:0.026455 315:0.047619 316:0.507937 317:0.26455 318:0.111111 319:0.042328 320:0 321:0 322:0 323:0.190476 324:0.148148 325:0.417989 326:0.0793651 327:0.164021 328:0 329:0 330:0 331:0 332:0 333:0 334:0 335:0.0899471 336:0.433862 337:0.402116 338:0.0740741 339:0 340:0 341:0 342:0 343:0 344:0.037037 345:0.0582011 346:0.433862 347:0.137566 348:0.280423 349:0.0529101 350:0 351:0 352:0.179894 353:0.0687831 354:0.306878 355:0.206349 356:0.0634921 357:0.174603 358:0 359:0 360:0 361:0 362:0 363:0 364:0 365:1 366:0 367:0 368:0 369:0 370:0 371:0 372:0 373:0 374:0 375:1 376:0 377:0 378:0 379:0 380:0 381:0 382:0 383:0 384:0 385:0.693122 386:0.306878 387:0 388:0 389:0 390:0 391:0 392:0 393:0 394:0.00529101 395:0.994709 396:0 397:0 398:0 399:0 400:0 401:0 402:0 403:0 404:0.486772 405:0.513228 406:0 407:0 408:0 409:0 410:0 411:0 412:0 413:0.169312 414:0.830688 415:0 416:0 417:0 418:0 419:0 420:0 421:0 422:0 423:0 424:0.761905 425:0.126984 426:0.111111 427:0 428:0 429:0 430:0 431:0 432:0 433:0.42328 434:0.57672 435:0 436:0 437:0 438:0 439:0 440:0 441:0 442:0 443:0.164021 444:0.756614 445:0.0793651 446:0 447:0 448:0 449:0 450:0 451:0 452:0 453:0 454:0.21164 455:0.783069 456:0.00529101 457:0 458:0 459:0 460:0 461:0 462:0 463:0.465608 464:0.534392 465:0 466:0 467:0 468:0 469:0 470:0 471:0 472:0 473:0.216931 474:0.767196 475:0.015873 476:0 477:0 478:0 479:0 480:0 481:0 482:0 483:0 484:0 485:0 486:1 487:0 488:0 489:0 490:0 491:0 492:0 493:0 494:0 495:1 496:0 497:0 498:0 499:0 500:0 501:0 502:0 503:0 504:0 505:0.867725 506:0.132275 507:0 508:0 509:0 510:0 511:0 512:0 513:0 514:0 515:0 516:0.253968 517:0.746032 518:0 519:0 520:0 521:0 522:0 523:0 524:0.428571 525:0.571429 526:0 527:0 528:0 529:0 530:0 531:0 532:0 533:0 534:1 535:0 536:0 537:0 538:0 539:0 540:0 541:0 542:0 543:0 544:0 545:0.047619 546:0.470899 547:0.481481 548:0 549:0 550:0 551:0 552:0.0582011 553:0.708995 554:0.232804 555:0 556:0 557:0 558:0 559:0 560:0 561:0 562:0 563:0.285714 564:0.57672 565:0.137566 566:0 567:0 568:0 569:0 570:0 571:0 572:0 573:0 574:0 575:0 576:0.550265 577:0.449735 578:0 579:0 580:0 581:0 582:0.100529 583:0.708995 584:0.190476 585:0 586:0 587:0 588:0 589:0 590:0 591:0 592:0 593:0.587302 594:0.396825 595:0.015873 596:0 597:0 598:0 599:0 600:0 
1 1 1 1 1 1:0 2:0 3:0 4:0 5:0 6:1 7:0 8:0 9:0 10:0 11:0 12:0 13:0 14:0 15:0 16:1 17:0 18:0 19:0 20:0 21:0 22:0 23:0 24:0 25:0 26:1 27:0 28:0 29:0 30:0 31:0 32:0 33:0 34:0 35:0.984456 36:0.015544 37:0 38:0 39:0 40:0 41:0 42:0 43:0 44:0 45:0.196891 46:0.803109 47:0 48:0 49:0 50:0 51:0 52:0 53:0 54:0 55:0.450777 56:0.549223 57:0 58:0 59:0 60:0 61:0 62:0 63:0 64:0.00518135 65:0.766839 66:0.227979 67:0 68:0 69:0 70:0 71:0 72:0 73:0 74:0 75:0.196891 76:0 77:0.803109 78:0 79:0 80:0 81:0 82:0 83:0 84:0 85:0.274611 86:0.725389 87:0 88:0 89:0 90:0 91:0 92:0 93:0 94:0 95:0.492228 96:0.507772 97:0 98:0 99:0 100:0 101:0 102:0 103:0 104:0 105:0 106:0.196891 107:0.170984 108:0.632124 109:0 110:0 111:0 112:0 113:0 114:0.0725389 115:0.310881 116:0.61658 117:0 118:0 119:0 120:0 121:0 122:0 123:0 124:0.259067 125:0.740933 126:0 127:0 128:0 129:0 130:0 131:0 132:0 133:0 134:0.0466321 135:0.150259 136:0.196891 137:0.606218 138:0 139:0 140:0 141:0 142:0 143:0 144:0 145:0.569948 146:0.430052 147:0 148:0 149:0 150:0 151:0 152:0.00518135 153:0.0518135 154:0.766839 155:0.176166 156:0 157:0 158:0 159:0 160:0 161:0 162:0 163:0 164:0.0362694 165:0.119171 166:0.549223 167:0.274611 168:0.0207254 169:0 170:0 171:0 172:0 173:0 174:0.0932643 175:0.564767 176:0.341969 177:0 178:0 179:0 180:0 181:0.0207254 182:0.015544 183:0.0518135 184:0.393782 185:0.46114 186:0.0569948 187:0 188:0 189:0 190:0 191:0 192:0 193:0 194:0.0880829 195:0.295337 196:0.165803 197:0.165803 198:0.26943 199:0.015544 200:0 201:0 202:0 203:0 204:0.357513 205:0.492228 206:0.150259 207:0 208:0 209:0 210:0 211:0.0518135 212:0 213:0.0725389 214:0.321244 215:0.414508 216:0.139896 217:0 218:0 219:0 220:0 221:0 222:0 223:0.015544 224:0.160622 225:0.207254 226:0.15544 227:0.160622 228:0.243523 229:0.0569948 230:0 231:0 232:0 233:0.0414508 234:0.378238 235:0.440415 236:0.139896 237:0 238:0 239:0 240:0 241:0.0259067 242:0.0777202 243:0.124352 244:0.0829016 245:0.00518135 246:0.518135 247:0.165803 248:0 249:0 250:0 251:0.0673575 252:0.0518135 253:0.196891 254:0 255:0 256:0.00518135 257:0.678756 258:0 259:0 260:0 261:0 262:0 263:0 264:0 265:0.0777202 266:0.559586 267:0.362694 268:0 269:0 270:0 271:0 272:0.015544 273:0.124352 274:0.145078 275:0.0310881 276:0.295337 277:0.34715 278:0.0414508 279:0 280:0 281:0 282:0.103627 283:0.207254 284:0.00518135 285:0.0207254 286:0.357513 287:0.19171 288:0.11399 289:0 290:0 291:0 292:0 293:0 294:0 295:0.103627 296:0.523316 297:0.26943 298:0.103627 299:0 300:0 301:0 302:0 303:0 304:0.212435 305:0.15544 306:0.326425 307:0.248705 308:0.0569948 309:0 310:0 311:0 312:0.0259067 313:0.207254 314:0.119171 315:0.186529 316:0.150259 317:0.0569948 318:0.238342 319:0.015544 320:0 321:0 322:0 323:0 324:0.0932643 325:0.367876 326:0.284974 327:0.253886 328:0 329:0 330:0 331:0 332:0 333:0 334:0.0932643 335:0.150259 336:0.393782 337:0.284974 338:0.0777202 339:0 340:0 341:0 342:0.0207254 343:0.165803 344:0.145078 345:0.19171 346:0.139896 347:0.0569948 348:0.176166 349:0.103627 350:0 351:0 352:0 353:0.015544 354:0.165803 355:0.398964 356:0.26943 357:0.150259 358:0 359:0 360:0 361:0 362:0 363:0 364:0 365:0.683938 366:0.316062 367:0 368:0 369:0 370:0 371:0 372:0 373:0 374:0 375:0.803109 376:0.196891 377:0 378:0 379:0 380:0 381:0 382:0 383:0 384:0 385:0.906736 386:0.0932643 387:0 388:0 389:0 390:0 391:0 392:0 393:0 394:0 395:0.715026 396:0.212435 397:0.0725389 398:0 399:0 400:0 401:0 402:0.0259067 403:0.777202 404:0.196891 405:0 406:0 407:0 408:0 409:0 410:0 411:0 412:0 413:0 414:0.00518135 415:0.88601 416:0.108808 417:0 418:0 419:0 420:0 421:0 422:0 423:0 424:0.0362694 425:0.777202 426:0.129534 427:0.0569948 428:0 429:0 430:0 431:0.476684 432:0.38342 433:0.139896 434:0 435:0 436:0 437:0 438:0 439:0 440:0 441:0 442:0 443:0 444:0.0207254 445:0.683938 446:0.295337 447:0 448:0 449:0 450:0 451:0 452:0 453:0 454:0.0103627 455:0.818653 456:0.150259 457:0.0207254 458:0 459:0 460:0 461:0.606218 462:0.38342 463:0.0103627 464:0 465:0 466:0 467:0 468:0 469:0 470:0 471:0 472:0 473:0 474:0.0259067 475:0.84456 476:0.129534 477:0 478:0 479:0 480:0 481:0 482:0 483:0 484:0 485:0.119171 486:0.880829 487:0 488:0 489:0 490:0 491:0 492:0 493:0 494:0.119171 495:0.699482 496:0.181347 497:0 498:0 499:0 500:0 501:0 502:0 503:0 504:0 505:0.518135 506:0.481865 507:0 508:0 509:0 510:0 511:0 512:0 513:0 514:0 515:0.015544 516:0.782383 517:0.196891 518:0.00518135 519:0 520:0 521:0 522:0.0673575 523:0.715026 524:0.202073 525:0.0103627 526:0.00518135 527:0 528:0 529:0 530:0 531:0 532:0 533:0 534:0.0259067 535:0.398964 536:0.57513 537:0 538:0 539:0 540:0 541:0 542:0 543:0 544:0 545:0.00518135 546:0.735751 547:0.222798 548:0.0362694 549:0 550:0 551:0.124352 552:0.803109 553:0.0673575 554:0.00518135 555:0 556:0 557:0 558:0 559:0 560:0 561:0 562:0 563:0 564:0.00518135 565:0.248705 566:0.243523 567:0.502591 568:0 569:0 570:0 571:0 572:0 573:0 574:0 575:0 576:0.756477 577:0.212435 578:0.0310881 579:0 580:0 581:0.326425 582:0.658031 583:0.015544 584:0 585:0 586:0 587:0 588:0 589:0 590:0 591:0 592:0 593:0 594:0 595:0.274611 596:0.704663 597:0.0207254 598:0 599:0 600:0 
1 1 1 1 1 1:0 2:0 3:0 4:0 5:0 6:1 7:0 8:0 9:0 10:0 11:0 12:0 13:0 14:0 15:0 16:1 17:0 18:0 19:0 20:0 21:0 22:0 23:0 24:0 25:0 26:1 27:0 28:0 29:0 30:0 31:0 32:0 33:0 34:0 35:1 36:0 37:0 38:0 39:0 40:0 41:0 42:0 43:0 44:0 45:0 46:1 47:0 48:0 49:0 50:0 51:0 52:0 53:0 54:0 55:0.0517241 56:0.948276 57:0 58:0 59:0 60:0 61:0 62:0 63:0 64:0 65:0.568965 66:0.431034 67:0 68:0 69:0 70:0 71:0 72:0 73:0 74:0 75:0 76:0 77:1 78:0 79:0 80:0 81:0 82:0 83:0 84:0 85:0.155172 86:0.844828 87:0 88:0 89:0 90:0 91:0 92:0 93:0 94:0 95:0 96:1 97:0 98:0 99:0 100:0 101:0 102:0 103:0 104:0 105:0 106:0 107:0 108:1 109:0 110:0 111:0 112:0 113:0 114:0 115:0.491379 116:0.508621 117:0 118:0 119:0 120:0 121:0 122:0 123:0 124:0.0862069 125:0.913793 126:0 127:0 128:0 129:0 130:0 131:0 132:0 133:0 134:0 135:0 136:0.0689655 137:0.931035 138:0 139:0 140:0 141:0 142:0 143:0 144:0 145:0.724138 146:0.275862 147:0 148:0 149:0 150:0 151:0 152:0 153:0 154:0.87069 155:0.12931 156:0 157:0 158:0 159:0 160:0 161:0 162:0 163:0 164:0 165:0 166:0.456897 167:0.491379 168:0.0517241 169:0 170:0 171:0 172:0 173:0 174:0 175:1 176:0 177:0 178:0 179:0 180:0 181:0 182:0 183:0 184:0.551724 185:0.413793 186:0.0344828 187:0 188:0 189:0 190:0 191:0 192:0 193:0 194:0 195:0.318966 196:0.0948276 197:0.0603448 198:0.413793 199:0.112069 200:0 201:0 202:0 203:0 204:0.637931 205:0.362069 206:0 207:0 208:0 209:0 210:0 211:0 212:0 213:0 214:0.422414 215:0.5 216:0.0775862 217:0 218:0 219:0 220:0 221:0 222:0 223:0 224:0 225:0.318966 226:0.0775862 227:0.0517241 228:0.301724 229:0.25 230:0 231:0 232:0 233:0 234:0.663793 235:0.336207 236:0 237:0 238:0 239:0 240:0 241:0 242:0 243:0 244:0 245:0 246:0.827586 247:0.172414 248:0 249:0 250:0 251:0 252:0 253:0 254:0 255:0 256:0.0172414 257:0.982759 258:0 259:0 260:0 261:0 262:0 263:0 264:0 265:0.0603448 266:0.939655 267:0 268:0 269:0 270:0 271:0 272:0 273:0 274:0 275:0 276:0 277:0.991379 278:0.00862069 279:0 280:0 281:0 282:0 283:0 284:0 285:0 286:0.456897 287:0.362069 288:0.181034 289:0 290:0 291:0 292:0 293:0 294:0 295:0.75 296:0.25 297:0 298:0 299:0 300:0 301:0 302:0 303:0 304:0 305:0 306:0.224138 307:0.767241 308:0.00862069 309:0 310:0 311:0 312:0 313:0 314:0 315:0.137931 316:0.284483 317:0.0517241 318:0.344828 319:0.181034 320:0 321:0 322:0 323:0 324:0.362069 325:0.637931 326:0 327:0 328:0 329:0 330:0 331:0 332:0 333:0 334:0 335:0.0431034 336:0.267241 337:0.646552 338:0.0431034 339:0 340:0 341:0 342:0 343:0 344:0 345:0.146552 346:0.25 347:0.0603448 348:0.232759 349:0.310345 350:0 351:0 352:0 353:0 354:0.491379 355:0.508621 356:0 357:0 358:0 359:0 360:0 361:0 362:0 363:0 364:0 365:1 366:0 367:0 368:0 369:0 370:0 371:0 372:0 373:0 374:0 375:1 376:0 377:0 378:0 379:0 380:0 381:0 382:0 383:0 384:0 385:1 386:0 387:0 388:0 389:0 390:0 391:0 392:0 393:0 394:0.12931 395:0.87069 396:0 397:0 398:0 399:0 400:0 401:0 402:0 403:0 404:0.698276 405:0.301724 406:0 407:0 408:0 409:0 410:0 411:0 412:0 413:0 414:1 415:0 416:0 417:0 418:0 419:0 420:0 421:0 422:0 423:0 424:0.137931 425:0.862069 426:0 427:0 428:0 429:0 430:0 431:0 432:0.275862 433:0.724138 434:0 435:0 436:0 437:0 438:0 439:0 440:0 441:0 442:0 443:0.112069 444:0.887931 445:0 446:0 447:0 448:0 449:0 450:0 451:0 452:0 453:0 454:0 455:1 456:0 457:0 458:0 459:0 460:0 461:0 462:0.543103 463:0.336207 464:0.12069 465:0 466:0 467:0 468:0 469:0 470:0 471:0 472:0 473:0.741379 474:0.258621 475:0 476:0 477:0 478:0 479:0 480:0 481:0 482:0 483:0 484:0 485:0 486:1 487:0 488:0 489:0 490:0 491:0 492:0 493:0 494:0 495:1 496:0 497:0 498:0 499:0 500:0 501:0 502:0 503:0 504:0 505:0.0689655 506:0.931035 507:0 508:0 509:0 510:0 511:0 512:0 513:0 514:0 515:0 516:0 517:1 518:0 519:0 520:0 521:0 522:0 523:0 524:0.646552 525:0.353448 526:0 527:0 528:0 529:0 530:0 531:0 532:0 533:0 534:1 535:0 536:0 537:0 538:0 539:0 540:0 541:0 542:0 543:0 544:0 545:0 546:0 547:1 548:0 549:0 550:0 551:0 552:0.103448 553:0.698276 554:0.198276 555:0 556:0 557:0 558:0 559:0 560:0 561:0 562:0 563:0 564:1 565:0 566:0 567:0 568:0 569:0 570:0 571:0 572:0 573:0 574:0 575:0 576:0 577:1 578:0 579:0 580:0 581:0 582:0.543103 583:0.456897 584:0 585:0 586:0 587:0 588:0 589:0 590:0 591:0 592:0 593:0.62069 594:0.37931 595:0 596:0 597:0 598:0 599:0 600:0 
1 1 1 1 1 1:0 2:0 3:0 4:0 5:0 6:1 7:0 8:0 9:0 10:0 11:0 12:0 13:0 14:0 15:0 16:1 17:0 18:0 19:0 20:0 21:0 22:0 23:0 24:0 25:0 26:1 27:0 28:0 29:0 30:0 31:0 32:0 33:0 34:0 35:0.522013 36:0.477987 37:0 38:0 39:0 40:0 41:0 42:0 43:0 44:0 45:0 46:1 47:0 48:0 49:0 50:0 51:0 52:0 53:0 54:0 55:0 56:1 57:0 58:0 59:0 60:0 61:0 62:0 63:0 64:0 65:0.534591 66:0.465409 67:0 68:0 69:0 70:0 71:0 72:0 73:0 74:0 75:0 76:0 77:0.792453 78:0.207547 79:0 80:0 81:0 82:0 83:0 84:0 85:0 86:1 87:0 88:0 89:0 90:0 91:0 92:0 93:0 94:0 95:0.18239 96:0.81761 97:0 98:0 99:0 100:0 101:0 102:0 103:0 104:0 105:0 106:0 107:0 108:1 109:0 110:0 111:0 112:0 113:0 114:0 115:0.314465 116:0.685535 117:0 118:0 119:0 120:0 121:0 122:0 123:0 124:0.308176 125:0.691824 126:0 127:0 128:0 129:0 130:0 131:0 132:0 133:0 134:0 135:0 136:0 137:1 138:0 139:0 140:0 141:0 142:0 143:0 144:0 145:0.226415 146:0.773585 147:0 148:0 149:0 150:0 151:0 152:0 153:0.0188679 154:0.937107 155:0.0440252 156:0 157:0 158:0 159:0 160:0 161:0 162:0 163:0 164:0 165:0 166:0.238994 167:0.515723 168:0.245283 169:0 170:0 171:0 172:0 173:0 174:0 175:0.679245 176:0.320755 177:0 178:0 179:0 180:0 181:0 182:0 183:0.201258 184:0.534591 185:0.264151 186:0 187:0 188:0 189:0 190:0 191:0 192:0 193:0 194:0 195:0.0440252 196:0.0754717 197:0.188679 198:0.591195 199:0.100629 200:0 201:0 202:0 203:0 204:0.0440252 205:0.955975 206:0 207:0 208:0 209:0 210:0 211:0 212:0.0377358 213:0.169811 214:0.415094 215:0.377358 216:0 217:0 218:0 219:0 220:0 221:0 222:0 223:0 224:0 225:0.0251572 226:0.0754717 227:0.169811 228:0.427673 229:0.301887 230:0 231:0 232:0 233:0 234:0.132075 235:0.861635 236:0.00628931 237:0 238:0 239:0 240:0 241:0 242:0 243:0 244:0 245:0 246:0.433962 247:0.566038 248:0 249:0 250:0 251:0 252:0 253:0 254:0 255:0 256:0 257:1 258:0 259:0 260:0 261:0 262:0 263:0 264:0 265:0 266:1 267:0 268:0 269:0 270:0 271:0 272:0 273:0 274:0 275:0 276:0.00628931 277:0.81761 278:0.176101 279:0 280:0 281:0 282:0 283:0 284:0 285:0 286:0.27044 287:0.415094 288:0.314465 289:0 290:0 291:0 292:0 293:0 294:0 295:0.327044 296:0.672956 297:0 298:0 299:0 300:0 301:0 302:0 303:0 304:0 305:0 306:0.100629 307:0.616352 308:0.163522 309:0.119497 310:0 311:0 312:0 313:0 314:0 315:0 316:0.150943 317:0.194969 318:0.45283 319:0.201258 320:0 321:0 322:0 323:0 324:0 325:0.874214 326:0.125786 327:0 328:0 329:0 330:0 331:0 332:0 333:0 334:0 335:0 336:0.138365 337:0.578616 338:0.119497 339:0.163522 340:0 341:0 342:0 343:0 344:0 345:0 346:0.119497 347:0.163522 348:0.389937 349:0.327044 350:0 351:0 352:0 353:0 354:0.0440252 355:0.886792 356:0.0691824 357:0 358:0 359:0 360:0 361:0 362:0 363:0 364:0 365:1 366:0 367:0 368:0 369:0 370:0 371:0 372:0 373:0 374:0 375:1 376:0 377:0 378:0 379:0 380:0 381:0 382:0 383:0 384:0 385:1 386:0 387:0 388:0 389:0 390:0 391:0 392:0 393:0 394:0 395:1 396:0 397:0 398:0 399:0 400:0 401:0 402:0 403:1 404:0 405:0 406:0 407:0 408:0 409:0 410:0 411:0 412:0 413:0 414:0 415:0.238994 416:0.761006 417:0 418:0 419:0 420:0 421:0 422:0 423:0 424:0.0125786 425:0.987421 426:0 427:0 428:0 429:0 430:0 431:0.113208 432:0.886792 433:0 434:0 435:0 436:0 437:0 438:0 439:0 440:0 441:0 442:0 443:0 444:0 445:0.201258 446:0.798742 447:0 448:0 449:0 450:0 451:0 452:0 453:0 454:0 455:1 456:0 457:0 458:0 459:0 460:0 461:0.308176 462:0.691824 463:0 464:0 465:0 466:0 467:0 468:0 469:0 470:0 471:0 472:0 473:0 474:0 475:0.559748 476:0.440252 477:0 478:0 479:0 480:0 481:0 482:0 483:0 484:0 485:0 486:1 487:0 488:0 489:0 490:0 491:0 492:0 493:0 494:0 495:1 496:0 497:0 498:0 499:0 500:0 501:0 502:0 503:0 504:0 505:0.666667 506:0.333333 507:0 508:0 509:0 510:0 511:0 512:0 513:0 514:0 515:0 516:1 517:0 518:0 519:0 520:0 521:0 522:0 523:1 524:0 525:0 526:0 527:0 528:0 529:0 530:0 531:0 532:0 533:0 534:0 535:0.320755 536:0.679245 537:0 538:0 539:0 540:0 541:0 542:0 543:0 544:0 545:0.0188679 546:0.861635 547:0.119497 548:0 549:0 550:0 551:0.238994 552:0.761006 553:0 554:0 555:0 556:0 557:0 558:0 559:0 560:0 561:0 562:0 563:0 564:0 565:0.358491 566:0.641509 567:0 568:0 569:0 570:0 571:0 572:0 573:0 574:0 575:0 576:0.893082 577:0.106918 578:0 579:0 580:0 581:0.396226 582:0.603774 583:0 584:0 585:0 586:0 587:0 588:0 589:0 590:0 591:0 592:0 593:0 594:0.0125786 595:0.773585 596:0.213836 597:0 598:0 599:0 600:0 
1 1 1 1 1 1:0 2:0 3:0 4:0 5:0 6:1 7:0 8:0 9:0 10:0 11:0 12:0 13:0 14:0 15:0 16:1 17:0 18:0 19:0 20:0 21:0 22:0 23:0 24:0 25:0 26:1 27:0 28:0 29:0 30:0 31:0 32:0 33:0 34:0 35:0.866995 36:0.133005 37:0 38:0 39:0 40:0 41:0 42:0 43:0 44:0 45:0 46:1 47:0 48:0 49:0 50:0 51:0 52:0 53:0 54:0 55:0 56:1 57:0 58:0 59:0 60:0 61:0 62:0 63:0 64:0 65:0.738916 66:0.261084 67:0 68:0 69:0 70:0 71:0 72:0 73:0 74:0 75:0 76:0 77:1 78:0 79:0 80:0 81:0 82:0 83:0 84:0 85:0 86:0.896552 87:0.103448 88:0 89:0 90:0 91:0 92:0 93:0 94:0 95:0.0837438 96:0.916256 97:0 98:0 99:0 100:0 101:0 102:0 103:0 104:0 105:0 106:0 107:0.241379 108:0.758621 109:0 110:0 111:0 112:0 113:0 114:0 115:0 116:0.0788177 117:0.921182 118:0 119:0 120:0 121:0 122:0 123:0 124:0 125:1 126:0 127:0 128:0 129:0 130:0 131:0 132:0 133:0 134:0 135:0 136:0.807882 137:0.192118 138:0 139:0 140:0 141:0 142:0 143:0 144:0 145:0 146:1 147:0 148:0 149:0 150:0 151:0 152:0 153:0 154:0.950739 155:0.0492611 156:0 157:0 158:0 159:0 160:0 161:0 162:0 163:0 164:0 165:0 166:0.206897 167:0.714286 168:0.0788177 169:0 170:0 171:0 172:0 173:0 174:0 175:0.197044 176:0.788177 177:0.0147783 178:0 179:0 180:0 181:0 182:0 183:0.00985222 184:0.857143 185:0.133005 186:0 187:0 188:0 189:0 190:0 191:0 192:0 193:0 194:0 195:0.157635 196:0.044335 197:0.0788177 198:0.546798 199:0.172414 200:0 201:0 202:0 203:0 204:0.0197044 205:0.37931 206:0.600985 207:0 208:0 209:0 210:0 211:0 212:0 213:0.0738916 214:0.679803 215:0.246305 216:0 217:0 218:0 219:0 220:0 221:0 222:0 223:0 224:0 225:0.157635 226:0.0394089 227:0.0788177 228:0.226601 229:0.497537 230:0 231:0 232:0 233:0 234:0.0246305 235:0.369458 236:0.596059 237:0.00985222 238:0 239:0 240:0 241:0 242:0 243:0 244:0 245:0 246:0.921182 247:0.0788177 248:0 249:0 250:0 251:0 252:0 253:0 254:0 255:0 256:0.891626 257:0.108374 258:0 259:0 260:0 261:0 262:0 263:0 264:0 265:0 266:1 267:0 268:0 269:0 270:0 271:0 272:0 273:0 274:0 275:0 276:0.167488 277:0.807882 278:0.0246305 279:0 280:0 281:0 282:0 283:0 284:0 285:0 286:0.231527 287:0.73399 288:0.0344828 289:0 290:0 291:0 292:0 293:0 294:0 295:0.315271 296:0.684729 297:0 298:0 299:0 300:0 301:0 302:0 303:0 304:0 305:0 306:0.0197044 307:0.876847 308:0.103448 309:0 310:0 311:0 312:0 313:0 314:0 315:0 316:0.167488 317:0.142857 318:0.591133 319:0.0985222 320:0 321:0 322:0 323:0 324:0 325:0.300493 326:0.699507 327:0 328:0 329:0 330:0 331:0 332:0 333:0 334:0 335:0 336:0.0394089 337:0.807882 338:0.152709 339:0 340:0 341:0 342:0 343:0 344:0 345:0 346:0.162562 347:0.0837438 348:0.285714 349:0.46798 350:0 351:0 352:0 353:0 354:0.0147783 355:0.26601 356:0.719212 357:0 358:0 359:0 360:0 361:0 362:0 363:0 364:0 365:1 366:0 367:0 368:0 369:0 370:0 371:0 372:0 373:0 374:0 375:1 376:0 377:0 378:0 379:0 380:0 381:0 382:0 383:0 384:0 385:1 386:0 387:0 388:0 389:0 390:0 391:0 392:0 393:0 394:0 395:1 396:0 397:0 398:0 399:0 400:0 401:0 402:0 403:0 404:0 405:1 406:0 407:0 408:0 409:0 410:0 411:0 412:0 413:1 414:0 415:0 416:0 417:0 418:0 419:0 420:0 421:0 422:0 423:0 424:0 425:1 426:0 427:0 428:0 429:0 430:0 431:0 432:0 433:0.206897 434:0.793103 435:0 436:0 437:0 438:0 439:0 440:0 441:0 442:0.123153 443:0.876847 444:0 445:0 446:0 447:0 448:0 449:0 450:0 451:0 452:0 453:0 454:0 455:1 456:0 457:0 458:0 459:0 460:0 461:0 462:0 463:1 464:0 465:0 466:0 467:0 468:0 469:0 470:0 471:0 472:0.960591 473:0.0394089 474:0 475:0 476:0 477:0 478:0 479:0 480:0 481:0 482:0 483:0 484:0 485:0 486:1 487:0 488:0 489:0 490:0 491:0 492:0 493:0 494:0 495:1 496:0 497:0 498:0 499:0 500:0 501:0 502:0 503:0 504:0 505:1 506:0 507:0 508:0 509:0 510:0 511:0 512:0 513:0 514:0 515:0 516:0.881773 517:0.118227 518:0 519:0 520:0 521:0 522:0 523:0 524:0 525:1 526:0 527:0 528:0 529:0 530:0 531:0 532:0 533:1 534:0 535:0 536:0 537:0 538:0 539:0 540:0 541:0 542:0 543:0 544:0 545:0 546:0.694581 547:0.305419 548:0 549:0 550:0 551:0 552:0 553:0.152709 554:0.847291 555:0 556:0 557:0 558:0 559:0 560:0 561:0 562:0 563:1 564:0 565:0 566:0 567:0 568:0 569:0 570:0 571:0 572:0 573:0 574:0 575:0 576:0.669951 577:0.330049 578:0 579:0 580:0 581:0 582:0 583:0.91133 584:0.0886699 585:0 586:0 587:0 588:0 589:0 590:0 591:0 592:1 593:0 594:0 595:0 596:0 597:0 598:0 599:0 600:0 
1 1 1 1 1 1:0 2:0 3:0 4:0 5:0 6:1 7:0 8:0 9:0 10:0 11:0 12:0 13:0 14:0 15:0 16:1 17:0 18:0 19:0 20:0 21:0 22:0 23:0 24:0 25:0 26:1 27:0 28:0 29:0 30:0 31:0 32:0 33:0 34:0 35:0.494845 36:0.505155 37:0 38:0 39:0 40:0 41:0 42:0 43:0 44:0 45:0 46:1 47:0 48:0 49:0 50:0 51:0 52:0 53:0 54:0 55:0 56:1 57:0 58:0 59:0 60:0 61:0 62:0 63:0 64:0 65:0.319588 66:0.680412 67:0 68:0 69:0 70:0 71:0 72:0 73:0 74:0 75:0 76:0 77:1 78:0 79:0 80:0 81:0 82:0 83:0 84:0 85:0 86:1 87:0 88:0 89:0 90:0 91:0 92:0 93:0 94:0 95:0.103093 96:0.896907 97:0 98:0 99:0 100:0 101:0 102:0 103:0 104:0 105:0 106:0 107:0 108:1 109:0 110:0 111:0 112:0 113:0 114:0 115:0 116:1 117:0 118:0 119:0 120:0 121:0 122:0 123:0 124:0 125:1 126:0 127:0 128:0 129:0 130:0 131:0 132:0 133:0 134:0 135:0 136:0 137:1 138:0 139:0 140:0 141:0 142:0 143:0 144:0 145:0.0154639 146:0.876289 147:0.108247 148:0 149:0 150:0 151:0 152:0 153:0 154:0.814433 155:0.185567 156:0 157:0 158:0 159:0 160:0 161:0 162:0 163:0 164:0 165:0 166:0.195876 167:0.139175 168:0.664948 169:0 170:0 171:0 172:0 173:0 174:0 175:0.510309 176:0.376289 177:0.113402 178:0 179:0 180:0 181:0 182:0 183:0.0670103 184:0.675258 185:0.252577 186:0.00515464 187:0 188:0 189:0 190:0 191:0 192:0 193:0 194:0 195:0.180412 196:0.00515464 197:0.056701 198:0.226804 199:0.530928 200:0 201:0 202:0 203:0 204:0.0876289 205:0.592784 206:0.252577 207:0.0670103 208:0 209:0 210:0 211:0 212:0 213:0.0824742 214:0.608247 215:0.278351 216:0.0309278 217:0 218:0 219:0 220:0 221:0 222:0 223:0 224:0.0257732 225:0.154639 226:0.00515464 227:0.0103093 228:0.149485 229:0.654639 230:0 231:0 232:0 233:0.00515464 234:0.134021 235:0.530928 236:0.268041 237:0.0618557 238:0 239:0 240:0 241:0 242:0 243:0 244:0 245:0 246:1 247:0 248:0 249:0 250:0 251:0 252:0 253:0 254:0 255:0 256:0.0463918 257:0.953608 258:0 259:0 260:0 261:0 262:0 263:0 264:0 265:0.159794 266:0.840206 267:0 268:0 269:0 270:0 271:0 272:0 273:0 274:0 275:0 276:0.283505 277:0.716495 278:0 279:0 280:0 281:0 282:0 283:0 284:0 285:0 286:0.201031 287:0.309278 288:0.489691 289:0 290:0 291:0 292:0 293:0 294:0.128866 295:0.314433 296:0.556701 297:0 298:0 299:0 300:0 301:0 302:0 303:0 304:0 305:0 306:0.170103 307:0.556701 308:0.273196 309:0 310:0 311:0 312:0 313:0 314:0 315:0.180412 316:0.0103093 317:0.0309278 318:0.448454 319:0.329897 320:0 321:0 322:0 323:0 324:0.108247 325:0.608247 326:0.283505 327:0 328:0 329:0 330:0 331:0 332:0 333:0 334:0 335:0.0103093 336:0.185567 337:0.520619 338:0.283505 339:0 340:0 341:0 342:0 343:0 344:0 345:0.180412 346:0.0103093 347:0.00515464 348:0.340206 349:0.463918 350:0 351:0 352:0 353:0.0103093 354:0.0876289 355:0.608247 356:0.293814 357:0 358:0 359:0 360:0 361:0 362:0 363:0 364:0 365:1 366:0 367:0 368:0 369:0 370:0 371:0 372:0 373:0 374:0 375:1 376:0 377:0 378:0 379:0 380:0 381:0 382:0 383:0 384:0 385:0.824742 386:0.175258 387:0 388:0 389:0 390:0 391:0 392:0 393:0 394:0 395:1 396:0 397:0 398:0 399:0 400:0 401:0 402:0 403:1 404:0 405:0 406:0 407:0 408:0 409:0 410:0 411:0 412:0 413:0 414:0 415:0.917526 416:0.0824742 417:0 418:0 419:0 420:0 421:0 422:0 423:0 424:0 425:1 426:0 427:0 428:0 429:0 430:0 431:0.14433 432:0.85567 433:0 434:0 435:0 436:0 437:0 438:0 439:0 440:0 441:0 442:0 443:0 444:0 445:0.938144 446:0.0618557 447:0 448:0 449:0 450:0 451:0 452:0 453:0 454:0.0360825 455:0.963918 456:0 457:0 458:0 459:0 460:0 461:0.737113 462:0.262887 463:0 464:0 465:0 466:0 467:0 468:0 469:0 470:0 471:0 472:0 473:0 474:0 475:0.984536 476:0.0154639 477:0 478:0 479:0 480:0 481:0 482:0 483:0 484:0 485:0 486:1 487:0 488:0 489:0 490:0 491:0 492:0 493:0 494:0 495:1 496:0 497:0 498:0 499:0 500:0 501:0 502:0 503:0 504:0 505:0.876289 506:0.123711 507:0 508:0 509:0 510:0 511:0 512:0 513:0 514:0 515:0 516:1 517:0 518:0 519:0 520:0 521:0 522:0 523:1 524:0 525:0 526:0 527:0 528:0 529:0 530:0 531:0 532:0 533:0 534:0 535:1 536:0 537:0 538:0 539:0 540:0 541:0 542:0 543:0 544:0 545:0 546:1 547:0 548:0 549:0 550:0 551:0.128866 552:0.871134 553:0 554:0 555:0 556:0 557:0 558:0 559:0 560:0 561:0 562:0 563:0 564:0 565:0.912371 566:0.0876289 567:0 568:0 569:0 570:0 571:0 572:0 573:0 574:0 575:0 576:1 577:0 578:0 579:0 580:0 581:0.840206 582:0.159794 583:0 584:0 585:0 586:0 587:0 588:0 589:0 590:0 591:0 592:0 593:0 594:0 595:0.902062 596:0.0979381 597:0 598:0 599:0 600:0 
-1 1 1 1 1 1:0 2:0 3:0 4:0 5:0 6:1 7:0 8:0 9:0 10:0 11:0 12:0 13:0 14:0 15:0 16:1 17:0 18:0 19:0 20:0 21:0 22:0 23:0 24:0 25:0 26:1 27:0 28:0 29:0 30:0 31:0 32:0 33:0 34:0 35:1 36:0 37:0 38:0 39:0 40:0 41:0 42:0 43:0 44:0 45:0 46:1 47:0 48:0 49:0 50:0 51:0 52:0 53:0 54:0 55:0 56:1 57:0 58:0 59:0 60:0 61:0 62:0 63:0 64:0 65:1 66:0 67:0 68:0 69:0 70:0 71:0 72:0 73:0 74:0 75:0 76:0 77:1 78:0 79:0 80:0 81:0 82:0 83:0 84:0 85:0 86:1 87:0 88:0 89:0 90:0 91:0 92:0 93:0 94:0 95:1 96:0 97:0 98:0 99:0 100:0 101:0 102:0 103:0 104:0 105:0 106:0 107:0 108:1 109:0 110:0 111:0 112:0 113:0 114:0 115:0.238095 116:0.761905 117:0 118:0 119:0 120:0 121:0 122:0 123:0 124:0.228571 125:0.771429 126:0 127:0 128:0 129:0 130:0 131:0 132:0 133:0 134:0 135:0 136:0 137:1 138:0 139:0 140:0 141:0 142:0 143:0 144:0 145:1 146:0 147:0 148:0 149:0 150:0 151:0 152:0 153:0 154:1 155:0 156:0 157:0 158:0 159:0 160:0 161:0 162:0 163:0 164:0 165:0.180952 166:0.819048 167:0 168:0 169:0 170:0 171:0 172:0 173:0 174:0 175:1 176:0 177:0 178:0 179:0 180:0 181:0 182:0 183:0 184:0.4 185:0.6 186:0 187:0 188:0 189:0 190:0 191:0 192:0 193:0 194:0 195:1 196:0 197:0 198:0 199:0 200:0 201:0 202:0 203:0 204:1 205:0 206:0 207:0 208:0 209:0 210:0 211:0 212:0 213:0 214:0.152381 215:0.847619 216:0 217:0 218:0 219:0 220:0 221:0 222:0 223:0 224:0.12381 225:0.87619 226:0 227:0 228:0 229:0 230:0 231:0 232:0 233:0 234:1 235:0 236:0 237:0 238:0 239:0 240:0 241:0 242:0 243:0 244:0 245:0 246:1 247:0 248:0 249:0 250:0 251:0 252:0 253:0 254:0 255:0 256:0 257:1 258:0 259:0 260:0 261:0 262:0 263:0 264:0 265:0 266:1 267:0 268:0 269:0 270:0 271:0 272:0 273:0 274:0 275:0 276:0.666667 277:0.333333 278:0 279:0 280:0 281:0 282:0 283:0 284:0 285:0.0761905 286:0.67619 287:0.12381 288:0.12381 289:0 290:0 291:0 292:0 293:0 294:0 295:0.314286 296:0.685714 297:0 298:0 299:0 300:0 301:0 302:0 303:0 304:0 305:0 306:0.333333 307:0.666667 308:0 309:0 310:0 311:0 312:0 313:0 314:0 315:0.628571 316:0.0666667 317:0.0666667 318:0.171429 319:0.0666667 320:0 321:0 322:0 323:0 324:0.314286 325:0.685714 326:0 327:0 328:0 329:0 330:0 331:0 332:0 333:0 334:0 335:0 336:0.12381 337:0.87619 338:0 339:0 340:0 341:0 342:0 343:0 344:0.0190476 345:0.352381 346:0.304762 347:0.0571429 348:0.0857143 349:0.171429 350:0.00952381 351:0 352:0 353:0 354:0.571429 355:0.428571 356:0 357:0 358:0 359:0 360:0 361:0 362:0 363:0 364:0 365:1 366:0 367:0 368:0 369:0 370:0 371:0 372:0 373:0 374:0 375:1 376:0 377:0 378:0 379:0 380:0 381:0 382:0 383:0 384:0 385:1 386:0 387:0 388:0 389:0 390:0 391:0 392:0 393:0 394:0 395:1 396:0 397:0 398:0 399:0 400:0 401:0 402:0 403:0 404:0.114286 405:0.885714 406:0 407:0 408:0 409:0 410:0 411:0 412:0 413:0 414:1 415:0 416:0 417:0 418:0 419:0 420:0 421:0 422:0 423:0 424:0 425:1 426:0 427:0 428:0 429:0 430:0 431:0 432:0 433:1 434:0 435:0 436:0 437:0 438:0 439:0 440:0 441:0 442:0 443:0.838095 444:0.161905 445:0 446:0 447:0 448:0 449:0 450:0 451:0 452:0 453:0 454:0 455:1 456:0 457:0 458:0 459:0 460:0 461:0 462:0 463:1 464:0 465:0 466:0 467:0 468:0 469:0 470:0 471:0 472:0 473:1 474:0 475:0 476:0 477:0 478:0 479:0 480:0 481:0 482:0 483:0 484:0 485:0 486:1 487:0 488:0 489:0 490:0 491:0 492:0 493:0 494:0 495:1 496:0 497:0 498:0 499:0 500:0 501:0 502:0 503:0 504:0 505:0 506:1 507:0 508:0 509:0 510:0 511:0 512:0 513:0 514:0 515:0 516:0.542857 517:0.457143 518:0 519:0 520:0 521:0 522:0 523:0 524:0.266667 525:0.733333 526:0 527:0 528:0 529:0 530:0 531:0 532:0 533:0 534:1 535:0 536:0 537:0 538:0 539:0 540:0 541:0 542:0 543:0 544:0 545:0 546:1 547:0 548:0 549:0 550:0 551:0 552:0 553:0.12381 554:0.87619 555:0 556:0 557:0 558:0 559:0 560:0 561:0 562:0 563:0 564:0 565:1 566:0 567:0 568:0 569:0 570:0 571:0 572:0 573:0 574:0 575:0 576:1 577:0 578:0 579:0 580:0 581:0 582:0 583:0.152381 584:0.847619 585:0 586:0 587:0 588:0 589:0 590:0 591:0 592:0 593:0 594:0 595:1 596:0 597:0 598:0 599:0 600:0 
-1 1 1 1 1 1:0 2:0 3:0 4:0 5:0 6:1 7:0 8:0 9:0 10:0 11:0 12:0 13:0 14:0 15:0 16:1 17:0 18:0 19:0 20:0 21:0 22:0 23:0 24:0 25:0 26:1 27:0 28:0 29:0 30:0 31:0 32:0 33:0 34:0 35:0 36:1 37:0 38:0 39:0 40:0 41:0 42:0 43:0 44:0 45:0 46:1 47:0 48:0 49:0 50:0 51:0 52:0 53:0 54:0 55:0 56:1 57:0 58:0 59:0 60:0 61:0 62:0 63:0 64:0 65:0.210526 66:0.789474 67:0 68:0 69:0 70:0 71:0 72:0 73:0 74:0 75:0 76:0 77:0.505263 78:0.494737 79:0 80:0 81:0 82:0 83:0 84:0 85:0 86:0.936842 87:0.0631579 88:0 89:0 90:0 91:0 92:0 93:0 94:0 95:0.442105 96:0.494737 97:0.0631579 98:0 99:0 100:0 101:0 102:0 103:0 104:0 105:0 106:0 107:0 108:0.505263 109:0.494737 110:0 111:0 112:0 113:0 114:0 115:0 116:0.284211 117:0.715789 118:0 119:0 120:0 121:0 122:0 123:0 124:0 125:1 126:0 127:0 128:0 129:0 130:0 131:0 132:0 133:0 134:0 135:0 136:0 137:0.989474 138:0.0105263 139:0 140:0 141:0 142:0 143:0 144:0 145:0 146:0.147368 147:0.852632 148:0 149:0 150:0 151:0 152:0 153:0 154:0 155:1 156:0 157:0 158:0 159:0 160:0 161:0 162:0 163:0 164:0 165:0.178947 166:0.821053 167:0 168:0 169:0 170:0 171:0 172:0 173:0 174:0 175:0 176:0.0210526 177:0.978947 178:0 179:0 180:0 181:0 182:0 183:0 184:0 185:1 186:0 187:0 188:0 189:0 190:0 191:0 192:0 193:0 194:0 195:0.957895 196:0.0421053 197:0 198:0 199:0 200:0 201:0 202:0 203:0 204:0 205:0.126316 206:0.315789 207:0.0842105 208:0.473684 209:0 210:0 211:0 212:0 213:0 214:0.0105263 215:0.989474 216:0 217:0 218:0 219:0 220:0 221:0 222:0 223:0 224:0.463158 225:0.505263 226:0.0315789 227:0 228:0 229:0 230:0 231:0 232:0 233:0 234:0 235:0.263158 236:0.178947 237:0.0736842 238:0.484211 239:0 240:0 241:0 242:0 243:0 244:0 245:0 246:0.957895 247:0.0421053 248:0 249:0 250:0 251:0 252:0 253:0 254:0 255:0 256:0.0105263 257:0.989474 258:0 259:0 260:0 261:0 262:0 263:0 264:0 265:0.115789 266:0.884211 267:0 268:0 269:0 270:0 271:0 272:0 273:0 274:0 275:0.0947368 276:0.242105 277:0.663158 278:0 279:0 280:0 281:0 282:0 283:0 284:0 285:0.136842 286:0.6 287:0.2 288:0.0631579 289:0 290:0 291:0 292:0 293:0 294:0.168421 295:0.578947 296:0.252632 297:0 298:0 299:0 300:0 301:0 302:0 303:0 304:0 305:0.157895 306:0.284211 307:0.557895 308:0 309:0 310:0 311:0 312:0 313:0 314:0.210526 315:0.294737 316:0.0736842 317:0.126316 318:0.221053 319:0.0736842 320:0 321:0 322:0 323:0 324:0.315789 325:0.589474 326:0.0947368 327:0 328:0 329:0 330:0 331:0 332:0 333:0 334:0 335:0.147368 336:0.315789 337:0.536842 338:0 339:0 340:0 341:0 342:0 343:0 344:0.389474 345:0.126316 346:0.0210526 347:0.126316 348:0.189474 349:0.147368 350:0 351:0 352:0 353:0 354:0.252632 355:0.652632 356:0.0947368 357:0 358:0 359:0 360:0 361:0 362:0 363:0 364:0 365:1 366:0 367:0 368:0 369:0 370:0 371:0 372:0 373:0 374:0 375:1 376:0 377:0 378:0 379:0 380:0 381:0 382:0 383:0 384:0 385:0.147368 386:0.852632 387:0 388:0 389:0 390:0 391:0 392:0 393:0 394:1 395:0 396:0 397:0 398:0 399:0 400:0 401:0 402:0 403:0.852632 404:0.147368 405:0 406:0 407:0 408:0 409:0 410:0 411:0 412:0 413:0 414:1 415:0 416:0 417:0 418:0 419:0 420:0 421:0 422:0 423:0 424:1 425:0 426:0 427:0 428:0 429:0 430:0 431:0 432:1 433:0 434:0 435:0 436:0 437:0 438:0 439:0 440:0 441:0 442:0 443:0.968421 444:0.0315789 445:0 446:0 447:0 448:0 449:0 450:0 451:0 452:0 453:0.610526 454:0.389474 455:0 456:0 457:0 458:0 459:0 460:0 461:0.136842 462:0.863158 463:0 464:0 465:0 466:0 467:0 468:0 469:0 470:0 471:0 472:0 473:1 474:0 475:0 476:0 477:0 478:0 479:0 480:0 481:0 482:0 483:0 484:0 485:0 486:1 487:0 488:0 489:0 490:0 491:0 492:0 493:0 494:0 495:1 496:0 497:0 498:0 499:0 500:0 501:0 502:0 503:0 504:0 505:1 506:0 507:0 508:0 509:0 510:0 511:0 512:0 513:0 514:0 515:0 516:1 517:0 518:0 519:0 520:0 521:0 522:0 523:0.978947 524:0.0210526 525:0 526:0 527:0 528:0 529:0 530:0 531:0 532:0 533:0 534:1 535:0 536:0 537:0 538:0 539:0 540:0 541:0 542:0 543:0 544:0 545:0 546:1 547:0 548:0 549:0 550:0 551:0.547368 552:0.452632 553:0 554:0 555:0 556:0 557:0 558:0 559:0 560:0 561:0 562:0 563:0 564:1 565:0 566:0 567:0 568:0 569:0 570:0 571:0 572:0 573:0 574:0 575:0 576:1 577:0 578:0 579:0 580:0 581:1 582:0 583:0 584:0 585:0 586:0 587:0 588:0 589:0 590:0 591:0 592:0 593:0.8 594:0.2 595:0 596:0 597:0 598:0 599:0 600:0 
-1 1 1 1 1 1:0 2:0 3:0 4:0 5:0 6:1 7:0 8:0 9:0 10:0 11:0 12:0 13:0 14:0 15:0 16:1 17:0 18:0 19:0 20:0 21:0 22:0 23:0 24:0 25:0 26:1 27:0 28:0 29:0 30:0 31:0 32:0 33:0 34:0 35:1 36:0 37:0 38:0 39:0 40:0 41:0 42:0 43:0 44:0 45:0 46:1 47:0 48:0 49:0 50:0 51:0 52:0 53:0 54:0 55:0 56:1 57:0 58:0 59:0 60:0 61:0 62:0 63:0 64:0 65:1 66:0 67:0 68:0 69:0 70:0 71:0 72:0 73:0 74:0 75:0 76:0 77:1 78:0 79:0 80:0 81:0 82:0 83:0 84:0 85:0 86:1 87:0 88:0 89:0 90:0 91:0 92:0 93:0 94:0 95:1 96:0 97:0 98:0 99:0 100:0 101:0 102:0 103:0 104:0 105:0 106:0 107:0 108:1 109:0 110:0 111:0 112:0 113:0 114:0 115:0 116:1 117:0 118:0 119:0 120:0 121:0 122:0 123:0 124:0.842105 125:0.157895 126:0 127:0 128:0 129:0 130:0 131:0 132:0 133:0 134:0 135:0 136:1 137:0 138:0 139:0 140:0 141:0 142:0 143:0 144:0 145:0 146:1 147:0 148:0 149:0 150:0 151:0 152:0 153:0 154:1 155:0 156:0 157:0 158:0 159:0 160:0 161:0 162:0 163:0 164:0 165:1 166:0 167:0 168:0 169:0 170:0 171:0 172:0 173:0 174:0 175:0.0701754 176:0.929825 177:0 178:0 179:0 180:0 181:0 182:0 183:0 184:0.912281 185:0.0877193 186:0 187:0 188:0 189:0 190:0 191:0 192:0 193:0 194:0.0526316 195:0.894737 196:0.0526316 197:0 198:0 199:0 200:0 201:0 202:0 203:0 204:0 205:0.982456 206:0.0175439 207:0 208:0 209:0 210:0 211:0 212:0 213:0.0350877 214:0.473684 215:0.491228 216:0 217:0 218:0 219:0 220:0 221:0 222:0 223:0 224:0.210526 225:0.736842 226:0.0526316 227:0 228:0 229:0 230:0 231:0 232:0 233:0 234:0.526316 235:0.473684 236:0 237:0 238:0 239:0 240:0 241:0 242:0 243:0 244:0 245:0 246:1 247:0 248:0 249:0 250:0 251:0 252:0 253:0 254:0 255:0 256:0.105263 257:0.894737 258:0 259:0 260:0 261:0 262:0 263:0 264:0 265:0 266:1 267:0 268:0 269:0 270:0 271:0 272:0 273:0 274:0 275:0 276:0 277:1 278:0 279:0 280:0 281:0 282:0 283:0 284:0 285:0 286:0 287:1 288:0 289:0 290:0 291:0 292:0 293:0 294:0 295:0.280702 296:0.719298 297:0 298:0 299:0 300:0 301:0 302:0 303:0 304:0 305:0 306:0.421053 307:0.578947 308:0 309:0 310:0 311:0 312:0 313:0 314:0 315:0 316:0 317:0.736842 318:0.263158 319:0 320:0 321:0 322:0 323:0 324:0 325:0.473684 326:0.526316 327:0 328:0 329:0 330:0 331:0 332:0 333:0 334:0 335:0 336:0.596491 337:0.385965 338:0.0175439 339:0 340:0 341:0 342:0 343:0 344:0 345:0 346:0 347:0.0526316 348:0.947368 349:0 350:0 351:0 352:0 353:0 354:0 355:0.140351 356:0.859649 357:0 358:0 359:0 360:0 361:0 362:0 363:0 364:0 365:1 366:0 367:0 368:0 369:0 370:0 371:0 372:0 373:0 374:0 375:1 376:0 377:0 378:0 379:0 380:0 381:0 382:0 383:0 384:0 385:1 386:0 387:0 388:0 389:0 390:0 391:0 392:0 393:0 394:0 395:1 396:0 397:0 398:0 399:0 400:0 401:0 402:0 403:0 404:0 405:1 406:0 407:0 408:0 409:0 410:0 411:0 412:0 413:0.526316 414:0.473684 415:0 416:0 417:0 418:0 419:0 420:0 421:0 422:0 423:0 424:0.122807 425:0.877193 426:0 427:0 428:0 429:0 430:0 431:0 432:0 433:0.982456 434:0.0175439 435:0 436:0 437:0 438:0 439:0 440:0 441:0 442:0 443:1 444:0 445:0 446:0 447:0 448:0 449:0 450:0 451:0 452:0 453:0 454:0.0701754 455:0.929825 456:0 457:0 458:0 459:0 460:0 461:0 462:0 463:1 464:0 465:0 466:0 467:0 468:0 469:0 470:0 471:0 472:0.842105 473:0.157895 474:0 475:0 476:0 477:0 478:0 479:0 480:0 481:0 482:0 483:0 484:0 485:0 486:1 487:0 488:0 489:0 490:0 491:0 492:0 493:0 494:0 495:1 496:0 497:0 498:0 499:0 500:0 501:0 502:0 503:0 504:0 505:0.877193 506:0.122807 507:0 508:0 509:0 510:0 511:0 512:0 513:0 514:0 515:0 516:1 517:0 518:0 519:0 520:0 521:0 522:0 523:0 524:0.210526 525:0.789474 526:0 527:0 528:0 529:0 530:0 531:0 532:0 533:0.807018 534:0.192982 535:0 536:0 537:0 538:0 539:0 540:0 541:0 542:0 543:0 544:0 545:0 546:0.877193 547:0.122807 548:0 549:0 550:0 551:0 552:0 553:0 554:1 555:0 556:0 557:0 558:0 559:0 560:0 561:0 562:0 563:1 564:0 565:0 566:0 567:0 568:0 569:0 570:0 571:0 572:0 573:0 574:0 575:0 576:0.824561 577:0.175439 578:0 579:0 580:0 581:0 582:0 583:0.385965 584:0.614035 585:0 586:0 587:0 588:0 589:0 590:0 591:0 592:0.385965 593:0.614035 594:0 595:0 596:0 597:0 598:0 599:0 600:0 
-1 1 1 1 1 1:0 2:0 3:0 4:0 5:0 6:1 7:0 8:0 9:0 10:0 11:0 12:0 13:0 14:0 15:0 16:1 17:0 18:0 19:0 20:0 21:0 22:0 23:0 24:0 25:0 26:1 27:0 28:0 29:0 30:0 31:0 32:0 33:0 34:0 35:0.352941 36:0.647059 37:0 38:0 39:0 40:0 41:0 42:0 43:0 44:0 45:0 46:1 47:0 48:0 49:0 50:0 51:0 52:0 53:0 54:0 55:0 56:1 57:0 58:0 59:0 60:0 61:0 62:0 63:0 64:0 65:0.0196078 66:0.980392 67:0 68:0 69:0 70:0 71:0 72:0 73:0 74:0 75:0 76:0 77:0.0196078 78:0.980392 79:0 80:0 81:0 82:0 83:0 84:0 85:0.0196078 86:0.980392 87:0 88:0 89:0 90:0 91:0 92:0 93:0 94:0 95:0.509804 96:0.490196 97:0 98:0 99:0 100:0 101:0 102:0 103:0 104:0 105:0 106:0 107:0 108:0.156863 109:0.843137 110:0 111:0 112:0 113:0 114:0 115:0.0784314 116:0.803922 117:0.117647 118:0 119:0 120:0 121:0 122:0 123:0 124:0 125:0.627451 126:0.372549 127:0 128:0 129:0 130:0 131:0 132:0 133:0 134:0 135:0 136:0.0196078 137:0.745098 138:0.235294 139:0 140:0 141:0 142:0 143:0 144:0 145:0.490196 146:0.352941 147:0.156863 148:0 149:0 150:0 151:0 152:0 153:0 154:0.0784314 155:0.921569 156:0 157:0 158:0 159:0 160:0 161:0 162:0 163:0 164:0 165:0 166:0.686275 167:0.313726 168:0 169:0 170:0 171:0 172:0 173:0 174:0.372549 175:0.0588235 176:0.235294 177:0.333333 178:0 179:0 180:0 181:0 182:0 183:0.0784314 184:0.0980392 185:0.823529 186:0 187:0 188:0 189:0 190:0 191:0 192:0 193:0 194:0.0196078 195:0.607843 196:0.254902 197:0.0980392 198:0.0196078 199:0 200:0 201:0 202:0 203:0.0784314 204:0.235294 205:0.0980392 206:0.470588 207:0.117647 208:0 209:0 210:0 211:0 212:0 213:0.117647 214:0.0980392 215:0.784314 216:0 217:0 218:0 219:0 220:0 221:0 222:0 223:0 224:0.45098 225:0.333333 226:0.0980392 227:0.0588235 228:0.0588235 229:0 230:0 231:0 232:0 233:0.0980392 234:0.215686 235:0.0980392 236:0.490196 237:0.0980392 238:0 239:0 240:0 241:0 242:0 243:0 244:0 245:0 246:1 247:0 248:0 249:0 250:0 251:0 252:0 253:0 254:0 255:0 256:0 257:0.882353 258:0.117647 259:0 260:0 261:0 262:0 263:0 264:0 265:1 266:0 267:0 268:0 269:0 270:0 271:0 272:0 273:0 274:0 275:0.254902 276:0.196078 277:0.54902 278:0 279:0 280:0 281:0 282:0 283:0 284:0 285:0 286:0.333333 287:0.647059 288:0.0196078 289:0 290:0 291:0 292:0 293:0 294:0.607843 295:0.392157 296:0 297:0 298:0 299:0 300:0 301:0 302:0 303:0.0196078 304:0.156863 305:0.0980392 306:0.333333 307:0.313726 308:0.0784314 309:0 310:0 311:0 312:0 313:0 314:0 315:0.333333 316:0.0588235 317:0.0588235 318:0.529412 319:0.0196078 320:0 321:0 322:0 323:0 324:0.470588 325:0.529412 326:0 327:0 328:0 329:0 330:0 331:0 332:0 333:0.0980392 334:0.0980392 335:0.0784314 336:0.45098 337:0.137255 338:0.137255 339:0 340:0 341:0 342:0 343:0 344:0.0588235 345:0.27451 346:0.0588235 347:0.0588235 348:0.352941 349:0.196078 350:0 351:0 352:0 353:0 354:0.372549 355:0.627451 356:0 357:0 358:0 359:0 360:0 361:0 362:0 363:0 364:0 365:1 366:0 367:0 368:0 369:0 370:0 371:0 372:0 373:0 374:0 375:1 376:0 377:0 378:0 379:0 380:0 381:0 382:0 383:0 384:0 385:0 386:1 387:0 388:0 389:0 390:0 391:0 392:0 393:0 394:0 395:1 396:0 397:0 398:0 399:0 400:0 401:0 402:0 403:0.764706 404:0.235294 405:0 406:0 407:0 408:0 409:0 410:0 411:0 412:0 413:0 414:0 415:0 416:1 417:0 418:0 419:0 420:0 421:0 422:0 423:0 424:0 425:0.392157 426:0.607843 427:0 428:0 429:0 430:0 431:0 432:0.960784 433:0.0392157 434:0 435:0 436:0 437:0 438:0 439:0 440:0 441:0 442:0 443:0 444:0 445:0.313726 446:0.686275 447:0 448:0 449:0 450:0 451:0 452:0 453:0 454:0 455:0.196078 456:0.803922 457:0 458:0 459:0 460:0 461:0.137255 462:0.843137 463:0.0196078 464:0 465:0 466:0 467:0 468:0 469:0 470:0 471:0 472:0 473:0 474:0 475:0.764706 476:0.235294 477:0 478:0 479:0 480:0 481:0 482:0 483:0 484:0 485:0 486:1 487:0 488:0 489:0 490:0 491:0 492:0 493:0 494:0 495:1 496:0 497:0 498:0 499:0 500:0 501:0 502:0 503:0 504:0 505:1 506:0 507:0 508:0 509:0 510:0 511:0 512:0 513:0 514:0 515:0 516:1 517:0 518:0 519:0 520:0 521:0 522:0 523:0.392157 524:0.607843 525:0 526:0 527:0 528:0 529:0 530:0 531:0 532:0 533:0 534:0 535:1 536:0 537:0 538:0 539:0 540:0 541:0 542:0 543:0 544:0 545:0 546:1 547:0 548:0 549:0 550:0 551:0 552:1 553:0 554:0 555:0 556:0 557:0 558:0 559:0 560:0 561:0 562:0 563:0 564:0.176471 565:0.823529 566:0 567:0 568:0 569:0 570:0 571:0 572:0 573:0 574:0 575:0.0196078 576:0.745098 577:0.235294 578:0 579:0 580:0 581:0 582:1 583:0 584:0 585:0 586:0 587:0 588:0 589:0 590:0 591:0 592:0 593:0 594:0.372549 595:0.627451 596:0 597:0 598:0 599:0 600:0 
-1 1 1 1 1 1:0 2:0 3:0 4:0 5:0 6:1 7:0 8:0 9:0 10:0 11:0 12:0 13:0 14:0 15:0 16:1 17:0 18:0 19:0 20:0 21:0 22:0 23:0 24:0 25:0 26:1 27:0 28:0 29:0 30:0 31:0 32:0 33:0 34:0 35:0.104 36:0.896 37:0 38:0 39:0 40:0 41:0 42:0 43:0 44:0 45:0 46:1 47:0 48:0 49:0 50:0 51:0 52:0 53:0 54:0 55:0 56:1 57:0 58:0 59:0 60:0 61:0 62:0 63:0 64:0 65:0.656 66:0.344 67:0 68:0 69:0 70:0 71:0 72:0 73:0 74:0 75:0 76:0 77:1 78:0 79:0 80:0 81:0 82:0 83:0 84:0 85:0 86:1 87:0 88:0 89:0 90:0 91:0 92:0 93:0 94:0 95:0.76 96:0.24 97:0 98:0 99:0 100:0 101:0 102:0 103:0 104:0 105:0 106:0 107:0 108:1 109:0 110:0 111:0 112:0 113:0 114:0 115:0 116:1 117:0 118:0 119:0 120:0 121:0 122:0 123:0 124:0 125:1 126:0 127:0 128:0 129:0 130:0 131:0 132:0 133:0 134:0 135:0 136:0.056 137:0.944 138:0 139:0 140:0 141:0 142:0 143:0 144:0 145:0 146:1 147:0 148:0 149:0 150:0 151:0 152:0 153:0 154:0 155:1 156:0 157:0 158:0 159:0 160:0 161:0 162:0 163:0 164:0 165:0 166:1 167:0 168:0 169:0 170:0 171:0 172:0 173:0 174:0 175:0.28 176:0.72 177:0 178:0 179:0 180:0 181:0 182:0 183:0 184:0 185:1 186:0 187:0 188:0 189:0 190:0 191:0 192:0 193:0 194:0 195:1 196:0 197:0 198:0 199:0 200:0 201:0 202:0 203:0 204:0 205:1 206:0 207:0 208:0 209:0 210:0 211:0 212:0 213:0 214:0 215:1 216:0 217:0 218:0 219:0 220:0 221:0 222:0 223:0 224:0 225:1 226:0 227:0 228:0 229:0 230:0 231:0 232:0 233:0 234:0 235:1 236:0 237:0 238:0 239:0 240:0 241:0 242:0 243:0 244:0 245:0 246:1 247:0 248:0 249:0 250:0 251:0 252:0 253:0 254:0 255:0 256:0.08 257:0.92 258:0 259:0 260:0 261:0 262:0 263:0 264:0 265:0.272 266:0.728 267:0 268:0 269:0 270:0 271:0 272:0 273:0 274:0 275:0 276:0.872 277:0.128 278:0 279:0 280:0 281:0 282:0 283:0 284:0 285:0 286:0.984 287:0.016 288:0 289:0 290:0 291:0 292:0 293:0 294:0.064 295:0.72 296:0.216 297:0 298:0 299:0 300:0 301:0 302:0 303:0 304:0 305:0.04 306:0.664 307:0.296 308:0 309:0 310:0 311:0 312:0 313:0 314:0 315:0.336 316:0.248 317:0.408 318:0.008 319:0 320:0 321:0 322:0 323:0 324:0.192 325:0.776 326:0.032 327:0 328:0 329:0 330:0 331:0 332:0 333:0 334:0 335:0.08 336:0.76 337:0.16 338:0 339:0 340:0 341:0 342:0 343:0 344:0 345:0.32 346:0.088 347:0.576 348:0.016 349:0 350:0 351:0 352:0 353:0 354:0.472 355:0.528 356:0 357:0 358:0 359:0 360:0 361:0 362:0 363:0 364:0 365:1 366:0 367:0 368:0 369:0 370:0 371:0 372:0 373:0 374:0 375:1 376:0 377:0 378:0 379:0 380:0 381:0 382:0 383:0 384:0 385:0.56 386:0.44 387:0 388:0 389:0 390:0 391:0 392:0 393:0 394:0 395:0.696 396:0.304 397:0 398:0 399:0 400:0 401:0 402:0 403:0 404:0.872 405:0.128 406:0 407:0 408:0 409:0 410:0 411:0 412:0 413:0 414:1 415:0 416:0 417:0 418:0 419:0 420:0 421:0 422:0 423:0 424:0 425:0.296 426:0.704 427:0 428:0 429:0 430:0 431:0 432:0 433:1 434:0 435:0 436:0 437:0 438:0 439:0 440:0 441:0 442:0 443:1 444:0 445:0 446:0 447:0 448:0 449:0 450:0 451:0 452:0 453:0 454:0 455:0.024 456:0.976 457:0 458:0 459:0 460:0 461:0 462:0 463:1 464:0 465:0 466:0 467:0 468:0 469:0 470:0 471:0 472:0 473:1 474:0 475:0 476:0 477:0 478:0 479:0 480:0 481:0 482:0 483:0 484:0 485:0 486:1 487:0 488:0 489:0 490:0 491:0 492:0 493:0 494:0 495:1 496:0 497:0 498:0 499:0 500:0 501:0 502:0 503:0 504:0 505:1 506:0 507:0 508:0 509:0 510:0 511:0 512:0 513:0 514:0 515:0 516:1 517:0 518:0 519:0 520:0 521:0 522:0 523:0 524:0.912 525:0.088 526:0 527:0 528:0 529:0 530:0 531:0 532:0 533:0 534:1 535:0 536:0 537:0 538:0 539:0 540:0 541:0 542:0 543:0 544:0 545:0 546:1 547:0 548:0 549:0 550:0 551:0 552:0 553:0.912 554:0.088 555:0 556:0 557:0 558:0 559:0 560:0 561:0 562:0 563:1 564:0 565:0 566:0 567:0 568:0 569:0 570:0 571:0 572:0 573:0 574:0 575:0 576:1 577:0 578:0 579:0 580:0 581:0 582:0 583:0.912 584:0.088 585:0 586:0 587:0 588:0 589:0 590:0 591:0 592:0.024 593:0.976 594:0 595:0 596:0 597:0 598:0 599:0 600:0 
-1 1 1 1 1 1:0 2:0 3:0 4:0 5:0 6:1 7:0 8:0 9:0 10:0 11:0 12:0 13:0 14:0 15:0 16:1 17:0 18:0 19:0 20:0 21:0 22:0 23:0 24:0 25:0 26:1 27:0 28:0 29:0 30:0 31:0 32:0 33:0 34:0 35:1 36:0 37:0 38:0 39:0 40:0 41:0 42:0 43:0 44:0 45:0 46:1 47:0 48:0 49:0 50:0 51:0 52:0 53:0 54:0 55:0 56:1 57:0 58:0 59:0 60:0 61:0 62:0 63:0 64:0 65:1 66:0 67:0 68:0 69:0 70:0 71:0 72:0 73:0 74:0 75:0 76:0 77:1 78:0 79:0 80:0 81:0 82:0 83:0 84:0 85:0 86:1 87:0 88:0 89:0 90:0 91:0 92:0 93:0 94:0 95:0.568965 96:0.431034 97:0 98:0 99:0 100:0 101:0 102:0 103:0 104:0 105:0 106:0 107:0 108:1 109:0 110:0 111:0 112:0 113:0 114:0 115:0 116:1 117:0 118:0 119:0 120:0 121:0 122:0 123:0 124:0 125:1 126:0 127:0 128:0 129:0 130:0 131:0 132:0 133:0 134:0 135:0 136:0 137:1 138:0 139:0 140:0 141:0 142:0 143:0 144:0 145:0.482759 146:0.517241 147:0 148:0 149:0 150:0 151:0 152:0 153:0 154:0.594828 155:0.405172 156:0 157:0 158:0 159:0 160:0 161:0 162:0 163:0 164:0 165:0 166:1 167:0 168:0 169:0 170:0 171:0 172:0 173:0 174:0 175:1 176:0 177:0 178:0 179:0 180:0 181:0 182:0 183:0 184:0.0862069 185:0.913793 186:0 187:0 188:0 189:0 190:0 191:0 192:0 193:0 194:0 195:1 196:0 197:0 198:0 199:0 200:0 201:0 202:0 203:0 204:0 205:1 206:0 207:0 208:0 209:0 210:0 211:0 212:0 213:0 214:0.0172414 215:0.982759 216:0 217:0 218:0 219:0 220:0 221:0 222:0 223:0 224:1 225:0 226:0 227:0 228:0 229:0 230:0 231:0 232:0 233:0 234:0 235:1 236:0 237:0 238:0 239:0 240:0 241:0 242:0 243:0 244:0 245:0 246:1 247:0 248:0 249:0 250:0 251:0 252:0 253:0 254:0 255:0 256:0 257:1 258:0 259:0 260:0 261:0 262:0 263:0 264:0 265:0 266:1 267:0 268:0 269:0 270:0 271:0 272:0 273:0 274:0 275:0 276:0.560345 277:0.439655 278:0 279:0 280:0 281:0 282:0 283:0 284:0 285:0 286:1 287:0 288:0 289:0 290:0 291:0 292:0 293:0 294:0 295:0 296:1 297:0 298:0 299:0 300:0 301:0 302:0 303:0 304:0 305:0 306:0.491379 307:0.405172 308:0.103448 309:0 310:0 311:0 312:0 313:0 314:0 315:0.603448 316:0.0948276 317:0.301724 318:0 319:0 320:0 321:0 322:0 323:0 324:0 325:0.422414 326:0.577586 327:0 328:0 329:0 330:0 331:0 332:0 333:0 334:0 335:0 336:0.517241 337:0.37069 338:0.112069 339:0 340:0 341:0 342:0 343:0 344:0.327586 345:0.275862 346:0.0517241 347:0.336207 348:0.00862069 349:0 350:0 351:0 352:0 353:0 354:0 355:0.439655 356:0.560345 357:0 358:0 359:0 360:0 361:0 362:0 363:0 364:0 365:1 366:0 367:0 368:0 369:0 370:0 371:0 372:0 373:0 374:0 375:1 376:0 377:0 378:0 379:0 380:0 381:0 382:0 383:0 384:0 385:1 386:0 387:0 388:0 389:0 390:0 391:0 392:0 393:0 394:0 395:1 396:0 397:0 398:0 399:0 400:0 401:0 402:0 403:1 404:0 405:0 406:0 407:0 408:0 409:0 410:0 411:0 412:0 413:0 414:0 415:0.491379 416:0.508621 417:0 418:0 419:0 420:0 421:0 422:0 423:0 424:0 425:1 426:0 427:0 428:0 429:0 430:0 431:0 432:1 433:0 434:0 435:0 436:0 437:0 438:0 439:0 440:0 441:0 442:0 443:0 444:0 445:0.0862069 446:0.913793 447:0 448:0 449:0 450:0 451:0 452:0 453:0 454:0 455:1 456:0 457:0 458:0 459:0 460:0 461:0 462:1 463:0 464:0 465:0 466:0 467:0 468:0 469:0 470:0 471:0 472:0 473:0 474:0 475:1 476:0 477:0 478:0 479:0 480:0 481:0 482:0 483:0 484:0 485:0 486:1 487:0 488:0 489:0 490:0 491:0 492:0 493:0 494:0 495:1 496:0 497:0 498:0 499:0 500:0 501:0 502:0 503:0 504:0 505:0.293103 506:0.706897 507:0 508:0 509:0 510:0 511:0 512:0 513:0 514:0 515:0 516:1 517:0 518:0 519:0 520:0 521:0 522:0 523:1 524:0 525:0 526:0 527:0 528:0 529:0 530:0 531:0 532:0 533:0 534:0 535:0 536:1 537:0 538:0 539:0 540:0 541:0 542:0 543:0 544:0 545:0 546:1 547:0 548:0 549:0 550:0 551:0 552:1 553:0 554:0 555:0 556:0 557:0 558:0 559:0 560:0 561:0 562:0 563:0 564:0 565:0.146552 566:0.853448 567:0 568:0 569:0 570:0 571:0 572:0 573:0 574:0 575:0 576:1 577:0 578:0 579:0 580:0 581:0 582:1 583:0 584:0 585:0 586:0 587:0 588:0 589:0 590:0 591:0 592:0 593:0 594:0 595:0.767241 596:0.232759 597:0 598:0 599:0 600:0 
-1 1 1 1 1 1:0 2:0 3:0 4:0 5:0 6:1 7:0 8:0 9:0 10:0 11:0 12:0 13:0 14:0 15:0 16:1 17:0 18:0 19:0 20:0 21:0 22:0 23:0 24:0 25:0 26:1 27:0 28:0 29:0 30:0 31:0 32:0 33:0 34:0 35:0.474138 36:0.525862 37:0 38:0 39:0 40:0 41:0 42:0 43:0 44:0 45:0 46:1 47:0 48:0 49:0 50:0 51:0 52:0 53:0 54:0 55:0 56:1 57:0 58:0 59:0 60:0 61:0 62:0 63:0 64:0 65:0 66:1 67:0 68:0 69:0 70:0 71:0 72:0 73:0 74:0 75:0 76:0 77:1 78:0 79:0 80:0 81:0 82:0 83:0 84:0 85:0 86:1 87:0 88:0 89:0 90:0 91:0 92:0 93:0 94:0 95:0 96:1 97:0 98:0 99:0 100:0 101:0 102:0 103:0 104:0 105:0 106:0 107:0 108:1 109:0 110:0 111:0 112:0 113:0 114:0 115:0 116:1 117:0 118:0 119:0 120:0 121:0 122:0 123:0 124:0 125:0.517241 126:0 127:0.482759 128:0 129:0 130:0 131:0 132:0 133:0 134:0 135:0 136:1 137:0 138:0 139:0 140:0 141:0 142:0 143:0 144:0 145:0.37069 146:0.62931 147:0 148:0 149:0 150:0 151:0 152:0 153:0 154:0.232759 155:0.301724 156:0.465517 157:0 158:0 159:0 160:0 161:0 162:0 163:0 164:0 165:0.62931 166:0.37069 167:0 168:0 169:0 170:0 171:0 172:0 173:0 174:0 175:0.715517 176:0.284483 177:0 178:0 179:0 180:0 181:0 182:0 183:0.0258621 184:0.931035 185:0.0431034 186:0 187:0 188:0 189:0 190:0 191:0 192:0 193:0 194:0 195:0.474138 196:0.525862 197:0 198:0 199:0 200:0 201:0 202:0 203:0 204:0 205:0 206:0.982759 207:0.0172414 208:0 209:0 210:0 211:0 212:0 213:0.0344828 214:0.965517 215:0 216:0 217:0 218:0 219:0 220:0 221:0 222:0 223:0 224:0 225:0.681035 226:0.318966 227:0 228:0 229:0 230:0 231:0 232:0 233:0 234:0 235:0 236:0.87069 237:0.12931 238:0 239:0 240:0 241:0 242:0 243:0 244:0 245:0 246:0 247:1 248:0 249:0 250:0 251:0 252:0 253:0 254:0 255:0 256:1 257:0 258:0 259:0 260:0 261:0 262:0 263:0 264:0 265:0 266:1 267:0 268:0 269:0 270:0 271:0 272:0 273:0 274:0 275:0 276:0 277:0.517241 278:0.482759 279:0 280:0 281:0 282:0 283:0 284:0 285:0.594828 286:0.181034 287:0.224138 288:0 289:0 290:0 291:0 292:0 293:0 294:0 295:0.991379 296:0.00862069 297:0 298:0 299:0 300:0 301:0 302:0 303:0 304:0 305:0 306:0.0603448 307:0.560345 308:0.37931 309:0 310:0 311:0 312:0 313:0 314:0 315:0.560345 316:0.0775862 317:0.189655 318:0.172414 319:0 320:0 321:0 322:0 323:0 324:0.637931 325:0.336207 326:0.0258621 327:0 328:0 329:0 330:0 331:0 332:0 333:0 334:0 335:0 336:0.0862069 337:0.594828 338:0.318966 339:0 340:0 341:0 342:0 343:0 344:0 345:0.543103 346:0.0775862 347:0.112069 348:0.267241 349:0 350:0 351:0 352:0 353:0.0258621 354:0.715517 355:0.189655 356:0.0689655 357:0 358:0 359:0 360:0 361:0 362:0 363:0 364:0 365:0.896552 366:0.103448 367:0 368:0 369:0 370:0 371:0 372:0 373:0 374:0 375:1 376:0 377:0 378:0 379:0 380:0 381:0 382:0 383:0 384:0 385:1 386:0 387:0 388:0 389:0 390:0 391:0 392:0 393:0 394:0 395:0.0172414 396:0.982759 397:0 398:0 399:0 400:0 401:0 402:0 403:0 404:0 405:1 406:0 407:0 408:0 409:0 410:0 411:0 412:0 413:0.439655 414:0.560345 415:0 416:0 417:0 418:0 419:0 420:0 421:0 422:0 423:0 424:0 425:0.00862069 426:0.991379 427:0 428:0 429:0 430:0 431:0 432:0 433:0.103448 434:0.896552 435:0 436:0 437:0 438:0 439:0 440:0 441:0 442:0.267241 443:0.732759 444:0 445:0 446:0 447:0 448:0 449:0 450:0 451:0 452:0 453:0 454:0 455:0.0172414 456:0.982759 457:0 458:0 459:0 460:0 461:0 462:0 463:0.732759 464:0.267241 465:0 466:0 467:0 468:0 469:0 470:0 471:0 472:0.827586 473:0.172414 474:0 475:0 476:0 477:0 478:0 479:0 480:0 481:0 482:0 483:0 484:0 485:0.482759 486:0.517241 487:0 488:0 489:0 490:0 491:0 492:0 493:0 494:0 495:1 496:0 497:0 498:0 499:0 500:0 501:0 502:0 503:0 504:0 505:0.603448 506:0.396552 507:0 508:0 509:0 510:0 511:0 512:0 513:0 514:0 515:0 516:0 517:1 518:0 519:0 520:0 521:0 522:0 523:0 524:0 525:1 526:0 527:0 528:0 529:0 530:0 531:0 532:0 533:0.0431034 534:0.956897 535:0 536:0 537:0 538:0 539:0 540:0 541:0 542:0 543:0 544:0 545:0 546:0 547:0.965517 548:0.0344828 549:0 550:0 551:0 552:0 553:0.525862 554:0.474138 555:0 556:0 557:0 558:0 559:0 560:0 561:0 562:0.0431034 563:0.956897 564:0 565:0 566:0 567:0 568:0 569:0 570:0 571:0 572:0 573:0 574:0 575:0 576:0 577:0.758621 578:0.241379 579:0 580:0 581:0 582:0 583:0.758621 584:0.241379 585:0 586:0 587:0 588:0 589:0 590:0 591:0 592:0.689655 593:0.310345 594:0 595:0 596:0 597:0 598:0 599:0 600:0 
-1 1 1 1 1 1:0 2:0 3:0 4:0 5:0 6:1 7:0 8:0 9:0 10:0 11:0 12:0 13:0 14:0 15:0 16:1 17:0 18:0 19:0 20:0 21:0 22:0 23:0 24:0 25:0 26:1 27:0 28:0 29:0 30:0 31:0 32:0 33:0 34:0 35:1 36:0 37:0 38:0 39:0 40:0 41:0 42:0 43:0 44:0 45:0 46:1 47:0 48:0 49:0 50:0 51:0 52:0 53:0 54:0 55:0 56:1 57:0 58:0 59:0 60:0 61:0 62:0 63:0 64:0 65:1 66:0 67:0 68:0 69:0 70:0 71:0 72:0 73:0 74:0 75:0 76:0 77:1 78:0 79:0 80:0 81:0 82:0 83:0 84:0 85:0 86:1 87:0 88:0 89:0 90:0 91:0 92:0 93:0 94:0 95:0.728 96:0.272 97:0 98:0 99:0 100:0 101:0 102:0 103:0 104:0 105:0 106:0 107:0 108:1 109:0 110:0 111:0 112:0 113:0 114:0 115:0 116:1 117:0 118:0 119:0 120:0 121:0 122:0 123:0 124:0 125:1 126:0 127:0 128:0 129:0 130:0 131:0 132:0 133:0 134:0 135:0 136:0 137:1 138:0 139:0 140:0 141:0 142:0 143:0 144:0 145:0 146:1 147:0 148:0 149:0 150:0 151:0 152:0 153:0 154:1 155:0 156:0 157:0 158:0 159:0 160:0 161:0 162:0 163:0 164:0 165:0 166:1 167:0 168:0 169:0 170:0 171:0 172:0 173:0 174:0 175:0.136 176:0.864 177:0 178:0 179:0 180:0 181:0 182:0 183:0 184:1 185:0 186:0 187:0 188:0 189:0 190:0 191:0 192:0 193:0 194:0 195:1 196:0 197:0 198:0 199:0 200:0 201:0 202:0 203:0 204:0 205:1 206:0 207:0 208:0 209:0 210:0 211:0 212:0 213:0 214:0.64 215:0.36 216:0 217:0 218:0 219:0 220:0 221:0 222:0 223:0 224:0.992 225:0.008 226:0 227:0 228:0 229:0 230:0 231:0 232:0 233:0 234:0 235:1 236:0 237:0 238:0 239:0 240:0 241:0 242:0 243:0 244:0 245:0 246:1 247:0 248:0 249:0 250:0 251:0 252:0 253:0 254:0 255:0 256:0 257:1 258:0 259:0 260:0 261:0 262:0 263:0 264:0 265:0 266:1 267:0 268:0 269:0 270:0 271:0 272:0 273:0 274:0 275:0 276:0.088 277:0.912 278:0 279:0 280:0 281:0 282:0 283:0 284:0 285:0 286:1 287:0 288:0 289:0 290:0 291:0 292:0 293:0 294:0 295:0.048 296:0.952 297:0 298:0 299:0 300:0 301:0 302:0 303:0 304:0 305:0 306:0.2 307:0.76 308:0.04 309:0 310:0 311:0 312:0 313:0 314:0.128 315:0.632 316:0.24 317:0 318:0 319:0 320:0 321:0 322:0 323:0 324:0.048 325:0.752 326:0.2 327:0 328:0 329:0 330:0 331:0 332:0 333:0 334:0 335:0.008 336:0.192 337:0.736 338:0.064 339:0 340:0 341:0 342:0 343:0 344:0.16 345:0.608 346:0.232 347:0 348:0 349:0 350:0 351:0 352:0 353:0 354:0.248 355:0.632 356:0.12 357:0 358:0 359:0 360:0 361:0 362:0 363:0 364:0 365:1 366:0 367:0 368:0 369:0 370:0 371:0 372:0 373:0 374:0 375:1 376:0 377:0 378:0 379:0 380:0 381:0 382:0 383:0 384:0 385:1 386:0 387:0 388:0 389:0 390:0 391:0 392:0 393:0 394:0 395:1 396:0 397:0 398:0 399:0 400:0 401:0 402:0 403:1 404:0 405:0 406:0 407:0 408:0 409:0 410:0 411:0 412:0 413:0 414:0 415:1 416:0 417:0 418:0 419:0 420:0 421:0 422:0 423:0 424:0 425:1 426:0 427:0 428:0 429:0 430:0 431:0 432:1 433:0 434:0 435:0 436:0 437:0 438:0 439:0 440:0 441:0 442:0 443:0 444:0 445:0 446:1 447:0 448:0 449:0 450:0 451:0 452:0 453:0 454:0 455:1 456:0 457:0 458:0 459:0 460:0 461:1 462:0 463:0 464:0 465:0 466:0 467:0 468:0 469:0 470:0 471:0 472:0 473:0 474:0 475:1 476:0 477:0 478:0 479:0 480:0 481:0 482:0 483:0 484:0 485:0 486:1 487:0 488:0 489:0 490:0 491:0 492:0 493:0 494:0 495:1 496:0 497:0 498:0 499:0 500:0 501:0 502:0 503:0 504:0 505:0.944 506:0.056 507:0 508:0 509:0 510:0 511:0 512:0 513:0 514:0 515:0 516:1 517:0 518:0 519:0 520:0 521:0 522:0 523:1 524:0 525:0 526:0 527:0 528:0 529:0 530:0 531:0 532:0 533:0 534:0 535:0 536:1 537:0 538:0 539:0 540:0 541:0 542:0 543:0 544:0 545:0 546:1 547:0 548:0 549:0 550:0 551:0 552:1 553:0 554:0 555:0 556:0 557:0 558:0 559:0 560:0 561:0 562:0 563:0 564:0 565:0 566:1 567:0 568:0 569:0 570:0 571:0 572:0 573:0 574:0 575:0 576:1 577:0 578:0 579:0 580:0 581:1 582:0 583:0 584:0 585:0 586:0 587:0 588:0 589:0 590:0 591:0 592:0 593:0 594:0 595:1 596:0 597:0 598:0 599:0 600:0 
-1 1 1 1 1 1:0 2:0 3:0 4:0 5:0 6:1 7:0 8:0 9:0 10:0 11:0 12:0 13:0 14:0 15:0 16:1 17:0 18:0 19:0 20:0 21:0 22:0 23:0 24:0 25:0 26:1 27:0 28:0 29:0 30:0 31:0 32:0 33:0 34:0 35:0.0409836 36:0.959016 37:0 38:0 39:0 40:0 41:0 42:0 43:0 44:0 45:0 46:1 47:0 48:0 49:0 50:0 51:0 52:0 53:0 54:0 55:0 56:1 57:0 58:0 59:0 60:0 61:0 62:0 63:0 64:0 65:0 66:1 67:0 68:0 69:0 70:0 71:0 72:0 73:0 74:0 75:0 76:0 77:0.959016 78:0.0409836 79:0 80:0 81:0 82:0 83:0 84:0 85:0 86:1 87:0 88:0 89:0 90:0 91:0 92:0 93:0 94:0 95:0.196721 96:0.803279 97:0 98:0 99:0 100:0 101:0 102:0 103:0 104:0 105:0 106:0 107:0 108:0.991803 109:0.00819672 110:0 111:0 112:0 113:0 114:0 115:0.163934 116:0.745902 117:0.0901639 118:0 119:0 120:0 121:0 122:0 123:0 124:0 125:1 126:0 127:0 128:0 129:0 130:0 131:0 132:0 133:0 134:0 135:0 136:0 137:0.991803 138:0.00819672 139:0 140:0 141:0 142:0 143:0 144:0 145:0.0163934 146:0.983607 147:0 148:0 149:0 150:0 151:0 152:0 153:0 154:0.508197 155:0.491803 156:0 157:0 158:0 159:0 160:0 161:0 162:0 163:0 164:0 165:0 166:0.942623 167:0.057377 168:0 169:0 170:0 171:0 172:0 173:0 174:0 175:1 176:0 177:0 178:0 179:0 180:0 181:0 182:0 183:0 184:0 185:0.97541 186:0.0245902 187:0 188:0 189:0 190:0 191:0 192:0 193:0 194:0 195:0.295082 196:0.270492 197:0.434426 198:0 199:0 200:0 201:0 202:0 203:0 204:0.745902 205:0.254098 206:0 207:0 208:0 209:0 210:0 211:0 212:0 213:0 214:0 215:0.631148 216:0.368852 217:0 218:0 219:0 220:0 221:0 222:0 223:0 224:0 225:0.303279 226:0.213115 227:0.303279 228:0.180328 229:0 230:0 231:0 232:0 233:0.0327869 234:0.713115 235:0.254098 236:0 237:0 238:0 239:0 240:0 241:0 242:0 243:0 244:0 245:0 246:0.901639 247:0.0983607 248:0 249:0 250:0 251:0 252:0 253:0 254:0 255:0 256:0 257:1 258:0 259:0 260:0 261:0 262:0 263:0 264:0 265:0.336066 266:0.663934 267:0 268:0 269:0 270:0 271:0 272:0 273:0 274:0 275:0 276:0.295082 277:0.704918 278:0 279:0 280:0 281:0 282:0 283:0 284:0 285:0 286:0.631148 287:0.303279 288:0.0655738 289:0 290:0 291:0 292:0 293:0 294:0.286885 295:0.713115 296:0 297:0 298:0 299:0 300:0 301:0 302:0 303:0 304:0 305:0 306:1 307:0 308:0 309:0 310:0 311:0 312:0 313:0 314:0 315:0.409836 316:0.163934 317:0.0737705 318:0.278689 319:0.0737705 320:0 321:0 322:0 323:0.0655738 324:0.860656 325:0.0737705 326:0 327:0 328:0 329:0 330:0 331:0 332:0 333:0 334:0 335:0.0327869 336:0.967213 337:0 338:0 339:0 340:0 341:0 342:0 343:0 344:0 345:0.434426 346:0.122951 347:0.057377 348:0.295082 349:0.0491803 350:0.0409836 351:0 352:0 353:0.155738 354:0.770492 355:0.0737705 356:0 357:0 358:0 359:0 360:0 361:0 362:0 363:0 364:0 365:1 366:0 367:0 368:0 369:0 370:0 371:0 372:0 373:0 374:0 375:1 376:0 377:0 378:0 379:0 380:0 381:0 382:0 383:0 384:0 385:0.819672 386:0.180328 387:0 388:0 389:0 390:0 391:0 392:0 393:0 394:0 395:1 396:0 397:0 398:0 399:0 400:0 401:0 402:0 403:0 404:0.204918 405:0.795082 406:0 407:0 408:0 409:0 410:0 411:0 412:0 413:0 414:1 415:0 416:0 417:0 418:0 419:0 420:0 421:0 422:0 423:0 424:0 425:1 426:0 427:0 428:0 429:0 430:0 431:0 432:0 433:1 434:0 435:0 436:0 437:0 438:0 439:0 440:0 441:0 442:0 443:0.295082 444:0.704918 445:0 446:0 447:0 448:0 449:0 450:0 451:0 452:0 453:0 454:0 455:1 456:0 457:0 458:0 459:0 460:0 461:0 462:0 463:1 464:0 465:0 466:0 467:0 468:0 469:0 470:0 471:0 472:0 473:1 474:0 475:0 476:0 477:0 478:0 479:0 480:0 481:0 482:0 483:0 484:0 485:0 486:1 487:0 488:0 489:0 490:0 491:0 492:0 493:0 494:0 495:1 496:0 497:0 498:0 499:0 500:0 501:0 502:0 503:0 504:0 505:1 506:0 507:0 508:0 509:0 510:0 511:0 512:0 513:0 514:0 515:0 516:0.344262 517:0.655738 518:0 519:0 520:0 521:0 522:0 523:0 524:0.163934 525:0.836066 526:0 527:0 528:0 529:0 530:0 531:0 532:0 533:0 534:1 535:0 536:0 537:0 538:0 539:0 540:0 541:0 542:0 543:0 544:0 545:0 546:0 547:1 548:0 549:0 550:0 551:0 552:0 553:0.852459 554:0.147541 555:0 556:0 557:0 558:0 559:0 560:0 561:0 562:0 563:0.311475 564:0.688525 565:0 566:0 567:0 568:0 569:0 570:0 571:0 572:0 573:0 574:0 575:0 576:0.237705 577:0.762295 578:0 579:0 580:0 581:0 582:0 583:1 584:0 585:0 586:0 587:0 588:0 589:0 590:0 591:0 592:0 593:0.92623 594:0.0737705 595:0 596:0 597:0 598:0 599:0 600:0 
-1 1 1 1 1 1:0 2:0 3:0 4:0 5:0 6:1 7:0 8:0 9:0 10:0 11:0 12:0 13:0 14:0 15:0 16:1 17:0 18:0 19:0 20:0 21:0 22:0 23:0 24:0 25:0 26:1 27:0 28:0 29:0 30:0 31:0 32:0 33:0 34:0 35:0 36:1 37:0 38:0 39:0 40:0 41:0 42:0 43:0 44:0 45:0 46:1 47:0 48:0 49:0 50:0 51:0 52:0 53:0 54:0 55:0 56:1 57:0 58:0 59:0 60:0 61:0 62:0 63:0 64:0 65:0.178218 66:0.821782 67:0 68:0 69:0 70:0 71:0 72:0 73:0 74:0 75:0 76:0 77:0.019802 78:0.980198 79:0 80:0 81:0 82:0 83:0 84:0 85:0 86:1 87:0 88:0 89:0 90:0 91:0 92:0 93:0 94:0 95:0.633663 96:0.366337 97:0 98:0 99:0 100:0 101:0 102:0 103:0 104:0 105:0 106:0 107:0 108:0.237624 109:0.762376 110:0 111:0 112:0 113:0 114:0 115:0.138614 116:0.861386 117:0 118:0 119:0 120:0 121:0 122:0 123:0 124:0 125:1 126:0 127:0 128:0 129:0 130:0 131:0 132:0 133:0 134:0 135:0 136:0 137:1 138:0 139:0 140:0 141:0 142:0 143:0 144:0 145:0 146:1 147:0 148:0 149:0 150:0 151:0 152:0 153:0 154:0.049505 155:0.950495 156:0 157:0 158:0 159:0 160:0 161:0 162:0 163:0 164:0 165:0 166:1 167:0 168:0 169:0 170:0 171:0 172:0 173:0 174:0 175:0 176:0.980198 177:0.019802 178:0 179:0 180:0 181:0 182:0 183:0 184:0.257426 185:0.742574 186:0 187:0 188:0 189:0 190:0 191:0 192:0 193:0 194:0 195:0.0990099 196:0.623762 197:0.277228 198:0 199:0 200:0 201:0 202:0 203:0 204:0 205:0.772277 206:0.227723 207:0 208:0 209:0 210:0 211:0 212:0 213:0 214:0.584158 215:0.415842 216:0 217:0 218:0 219:0 220:0 221:0 222:0 223:0 224:0 225:0.227723 226:0.435644 227:0.336634 228:0 229:0 230:0 231:0 232:0 233:0 234:0.148515 235:0.782178 236:0.0693069 237:0 238:0 239:0 240:0 241:0 242:0 243:0 244:0 245:0 246:1 247:0 248:0 249:0 250:0 251:0 252:0 253:0 254:0 255:0 256:0 257:1 258:0 259:0 260:0 261:0 262:0 263:0 264:0 265:1 266:0 267:0 268:0 269:0 270:0 271:0 272:0 273:0 274:0 275:0.108911 276:0.376238 277:0.514852 278:0 279:0 280:0 281:0 282:0 283:0 284:0 285:0 286:0.752475 287:0.247525 288:0 289:0 290:0 291:0 292:0 293:0 294:0.366337 295:0.633663 296:0 297:0 298:0 299:0 300:0 301:0 302:0 303:0 304:0 305:0.435644 306:0.227723 307:0.336634 308:0 309:0 310:0 311:0 312:0 313:0 314:0.019802 315:0.564356 316:0.0594059 317:0.0891089 318:0.267327 319:0 320:0 321:0 322:0 323:0 324:0.475248 325:0.524752 326:0 327:0 328:0 329:0 330:0 331:0 332:0 333:0 334:0 335:0.475248 336:0.257426 337:0.267327 338:0 339:0 340:0 341:0 342:0 343:0 344:0.455446 345:0.128713 346:0.049505 347:0.0594059 348:0.277228 349:0.029703 350:0 351:0 352:0 353:0.019802 354:0.49505 355:0.485149 356:0 357:0 358:0 359:0 360:0 361:0 362:0 363:0 364:0 365:1 366:0 367:0 368:0 369:0 370:0 371:0 372:0 373:0 374:0 375:1 376:0 377:0 378:0 379:0 380:0 381:0 382:0 383:0 384:0 385:0 386:1 387:0 388:0 389:0 390:0 391:0 392:0 393:0 394:0 395:1 396:0 397:0 398:0 399:0 400:0 401:0 402:0 403:1 404:0 405:0 406:0 407:0 408:0 409:0 410:0 411:0 412:0 413:0 414:0 415:0 416:1 417:0 418:0 419:0 420:0 421:0 422:0 423:0 424:0 425:0.940594 426:0.0594059 427:0 428:0 429:0 430:0 431:0.217822 432:0.782178 433:0 434:0 435:0 436:0 437:0 438:0 439:0 440:0 441:0 442:0 443:0 444:0 445:0 446:1 447:0 448:0 449:0 450:0 451:0 452:0 453:0 454:0 455:1 456:0 457:0 458:0 459:0 460:0 461:1 462:0 463:0 464:0 465:0 466:0 467:0 468:0 469:0 470:0 471:0 472:0 473:0 474:0 475:0.267327 476:0.732673 477:0 478:0 479:0 480:0 481:0 482:0 483:0 484:0 485:0 486:1 487:0 488:0 489:0 490:0 491:0 492:0 493:0 494:0 495:1 496:0 497:0 498:0 499:0 500:0 501:0 502:0 503:0 504:0 505:1 506:0 507:0 508:0 509:0 510:0 511:0 512:0 513:0 514:0 515:0 516:1 517:0 518:0 519:0 520:0 521:0 522:0 523:1 524:0 525:0 526:0 527:0 528:0 529:0 530:0 531:0 532:0 533:0 534:0 535:0.366337 536:0.633663 537:0 538:0 539:0 540:0 541:0 542:0 543:0 544:0 545:0 546:0.841584 547:0.158416 548:0 549:0 550:0 551:0 552:1 553:0 554:0 555:0 556:0 557:0 558:0 559:0 560:0 561:0 562:0 563:0 564:0 565:0 566:1 567:0 568:0 569:0 570:0 571:0 572:0 573:0 574:0 575:0 576:0.871287 577:0.128713 578:0 579:0 580:0 581:0.950495 582:0.049505 583:0 584:0 585:0 586:0 587:0 588:0 589:0 590:0 591:0 592:0 593:0 594:0 595:0.217822 596:0.782178 597:0 598:0 599:0 600:0 
-1 1 1 1 1 1:0 2:0 3:0 4:0 5:0 6:1 7:0 8:0 9:0 10:0 11:0 12:0 13:0 14:0 15:0 16:1 17:0 18:0 19:0 20:0 21:0 22:0 23:0 24:0 25:0 26:1 27:0 28:0 29:0 30:0 31:0 32:0 33:0 34:0 35:0.841667 36:0.158333 37:0 38:0 39:0 40:0 41:0 42:0 43:0 44:0 45:0 46:1 47:0 48:0 49:0 50:0 51:0 52:0 53:0 54:0 55:1 56:0 57:0 58:0 59:0 60:0 61:0 62:0 63:0 64:0 65:0.841667 66:0.158333 67:0 68:0 69:0 70:0 71:0 72:0 73:0 74:0 75:0 76:0 77:1 78:0 79:0 80:0 81:0 82:0 83:0 84:0 85:1 86:0 87:0 88:0 89:0 90:0 91:0 92:0 93:0 94:0 95:0.241667 96:0.758333 97:0 98:0 99:0 100:0 101:0 102:0 103:0 104:0 105:0 106:0 107:0 108:1 109:0 110:0 111:0 112:0 113:0 114:0 115:1 116:0 117:0 118:0 119:0 120:0 121:0 122:0 123:0 124:0 125:1 126:0 127:0 128:0 129:0 130:0 131:0 132:0 133:0 134:0 135:0 136:0 137:1 138:0 139:0 140:0 141:0 142:0 143:0 144:0 145:1 146:0 147:0 148:0 149:0 150:0 151:0 152:0 153:0 154:0.0333333 155:0.966667 156:0 157:0 158:0 159:0 160:0 161:0 162:0 163:0 164:0 165:0 166:1 167:0 168:0 169:0 170:0 171:0 172:0 173:0 174:0 175:1 176:0 177:0 178:0 179:0 180:0 181:0 182:0 183:0 184:0.0166667 185:0.983333 186:0 187:0 188:0 189:0 190:0 191:0 192:0 193:0 194:0 195:1 196:0 197:0 198:0 199:0 200:0 201:0 202:0 203:0 204:1 205:0 206:0 207:0 208:0 209:0 210:0 211:0 212:0 213:0 214:0.00833333 215:0.991667 216:0 217:0 218:0 219:0 220:0 221:0 222:0 223:0 224:0 225:1 226:0 227:0 228:0 229:0 230:0 231:0 232:0 233:0 234:1 235:0 236:0 237:0 238:0 239:0 240:0 241:0 242:0 243:0 244:0 245:0 246:1 247:0 248:0 249:0 250:0 251:0 252:0 253:0 254:0 255:0 256:0 257:1 258:0 259:0 260:0 261:0 262:0 263:0 264:0 265:0 266:1 267:0 268:0 269:0 270:0 271:0 272:0 273:0 274:0 275:0 276:0.708333 277:0.291667 278:0 279:0 280:0 281:0 282:0 283:0 284:0 285:0.00833333 286:0.991667 287:0 288:0 289:0 290:0 291:0 292:0 293:0 294:0 295:0.3 296:0.7 297:0 298:0 299:0 300:0 301:0 302:0 303:0 304:0 305:0 306:0.616667 307:0.308333 308:0.075 309:0 310:0 311:0 312:0 313:0 314:0 315:0.816667 316:0.141667 317:0.0416667 318:0 319:0 320:0 321:0 322:0 323:0 324:0.325 325:0.675 326:0 327:0 328:0 329:0 330:0 331:0 332:0 333:0 334:0 335:0 336:0.608333 337:0.308333 338:0.0833333 339:0 340:0 341:0 342:0 343:0 344:0 345:0.866667 346:0.0916667 347:0.0416667 348:0 349:0 350:0 351:0 352:0 353:0.00833333 354:0.916667 355:0.075 356:0 357:0 358:0 359:0 360:0 361:0 362:0 363:0 364:0 365:1 366:0 367:0 368:0 369:0 370:0 371:0 372:0 373:0 374:0 375:1 376:0 377:0 378:0 379:0 380:0 381:0 382:0 383:0 384:0 385:1 386:0 387:0 388:0 389:0 390:0 391:0 392:0 393:0 394:0 395:1 396:0 397:0 398:0 399:0 400:0 401:0 402:0 403:0 404:0 405:1 406:0 407:0 408:0 409:0 410:0 411:0 412:0 413:0 414:1 415:0 416:0 417:0 418:0 419:0 420:0 421:0 422:0 423:0 424:0.1 425:0.9 426:0 427:0 428:0 429:0 430:0 431:0 432:0 433:0 434:1 435:0 436:0 437:0 438:0 439:0 440:0 441:0 442:0 443:0.741667 444:0.258333 445:0 446:0 447:0 448:0 449:0 450:0 451:0 452:0 453:0 454:0 455:1 456:0 457:0 458:0 459:0 460:0 461:0 462:0 463:0.216667 464:0.783333 465:0 466:0 467:0 468:0 469:0 470:0 471:0 472:0 473:0.15 474:0.85 475:0 476:0 477:0 478:0 479:0 480:0 481:0 482:0 483:0 484:0 485:0 486:1 487:0 488:0 489:0 490:0 491:0 492:0 493:0 494:0 495:1 496:0 497:0 498:0 499:0 500:0 501:0 502:0 503:0 504:0 505:0 506:1 507:0 508:0 509:0 510:0 511:0 512:0 513:0 514:0 515:0 516:0.333333 517:0.666667 518:0 519:0 520:0 521:0 522:0 523:0 524:0 525:1 526:0 527:0 528:0 529:0 530:0 531:0 532:0 533:0 534:1 535:0 536:0 537:0 538:0 539:0 540:0 541:0 542:0 543:0 544:0 545:0 546:0.583333 547:0.416667 548:0 549:0 550:0 551:0 552:0 553:0.358333 554:0.641667 555:0 556:0 557:0 558:0 559:0 560:0 561:0 562:0 563:0 564:1 565:0 566:0 567:0 568:0 569:0 570:0 571:0 572:0 573:0 574:0 575:0 576:0.275 577:0.725 578:0 579:0 580:0 581:0 582:0 583:0.2 584:0.8 585:0 586:0 587:0 588:0 589:0 590:0 591:0 592:0 593:0 594:1 595:0 596:0 597:0 598:0 599:0 600:0 
