svm_type c_svc
kernel_type rbf
gamma 0.000396825
nr_class 6
total_sv 72
rho 0.113741 -0.000239581 -0.0178962 -0.0498806 -0.000582397 -0.132009 -0.140069 -0.149428 -0.0975731 -0.00424677 -0.0622648 0.00435761 -0.0141422 -0.00643319 0.0406724
label 8 10 12 13 15 16
nr_sv 12 12 12 12 12 12
SV
1 1 1 1 1 1:0.0215815 2:0.417661 3:0.0223442 4:0.0830402 5:0.451256 6:0.00411706 7:0.274672 8:0.186385 9:0.249325 10:0.164838 11:0.067782 12:0.0569977 13:0.0310712 14:0.59426 15:0.0679307 16:0.0491146 17:0.242416 18:0.0152068 19:0.0155626 20:0.397994 21:0.0272146 22:0.0947399 23:0.464489 24:0 25:0.25611 26:0.268512 27:0.220121 28:0.158783 29:0.0490956 30:0.0473786 31:0.0267747 32:0.663322 33:0.0570764 34:0.0314576 35:0.20955 36:0.0118196 37:0.0125712 38:0.328405 39:0.147063 40:0.0144421 41:0.487057 42:0.0104613 43:0.325994 44:0.14753 45:0.312115 46:0.122986 47:0.0278745 48:0.0635 49:0.0988024 50:0.505467 51:0.127239 52:0.0711467 53:0.16896 54:0.0283841 55:0.0491711 56:0.278301 57:0.130449 58:0.150276 59:0.320825 60:0.0709773 61:0.316418 62:0.143755 63:0.292196 64:0.108261 65:0.062157 66:0.0772133 67:0.0740131 68:0.516928 69:0.164774 70:0.0271007 71:0.200568 72:0.0166153 73:0.0224982 74:0.410553 75:0.0300958 76:0.0747643 77:0.417478 78:0.0446113 79:0.41434 80:0.0266472 81:0.241097 82:0.246953 83:0.00351082 84:0.0674524 85:0.183926 86:0.302276 87:0.226433 88:0.108844 89:0.112598 90:0.065922 91:0.253869 92:0.194084 93:0.0643109 94:0.222932 95:0.24715 96:0.017654 97:0.126455 98:0.0202473 99:0.338021 100:0.161981 101:0.00944417 102:0.343852 103:0.167644 104:0.0829722 105:0.260807 106:0.195295 107:0.0427737 108:0.250508 109:0.0463095 110:0.397714 111:0.0697708 112:0.0143011 113:0.397417 114:0.0744871 115:0.117055 116:0.0300252 117:0.382744 118:0.0922138 119:0.0385086 120:0.339453 121:0.203831 122:0.24294 123:0.0899437 124:0.164092 125:0.212037 126:0.0871566 127:0.0306359 128:0.3336 129:0.145637 130:0.0185354 131:0.331719 132:0.139873 133:0.140718 134:0.0382011 135:0.362846 136:0.0955689 137:0.0904851 138:0.272181 139:0.18225 140:0.258075 141:0.0732952 142:0.229035 143:0.162162 144:0.095182 145:0.0158271 146:0.354923 147:0.126446 148:0.00190693 149:0.481796 150:0.0191005 151:0.325524 152:0.0155375 153:0.32322 154:0.178746 155:0.00491562 156:0.152056 157:0.240808 158:0.196029 159:0.270239 160:0.0874902 161:0.148977 162:0.0564563 163:0.0659181 164:0.330247 165:0.111333 166:0.0328842 167:0.40667 168:0.0529471 169:0.051355 170:0.0509409 171:0.380723 172:0.092891 173:0.00856083 174:0.41553 175:0.253185 176:0.150703 177:0.0933029 178:0.280372 179:0.100834 180:0.121603 181:0.0702308 182:0.392327 183:0.0421491 184:0.111399 185:0.334935 186:0.0489586 187:0.134641 188:0.0528451 189:0.356783 190:0.0994447 191:0.0371935 192:0.319092 193:0.134804 194:0.190333 195:0.210286 196:0.0920522 197:0.184261 198:0.188264 199:0.176713 200:0.247344 201:0.0816828 202:0.142476 203:0.310132 204:0.0416517 205:0.190314 206:0.0781131 207:0.317539 208:0.110105 209:0.0887532 210:0.215176 211:0.109951 212:0.210904 213:0.208767 214:0.0991533 215:0.144033 216:0.227192 217:0.0872681 218:0.347963 219:0.0361789 220:0.172477 221:0.336059 222:0.020054 223:0.253633 224:0.105236 225:0.306576 226:0.103368 227:0.127358 228:0.10383 229:0.0484607 230:0.408281 231:0.178466 232:0.056911 233:0.23645 234:0.0714318 235:0.0142139 236:0.239218 237:0.163684 238:0.14685 239:0.251307 240:0.184728 241:0.0672183 242:0.486398 243:0.0709752 244:0.0351547 245:0.310176 246:0.030078 247:0.123293 248:0.473165 249:0.00928811 250:0.0436018 251:0.348331 252:0.00232211 253:0.172684 254:0.119386 255:0.151316 256:0.159762 257:0.293864 258:0.102988 259:0.0501892 260:0.256816 261:0.169797 262:0.0591325 263:0.306202 264:0.157863 265:0.0772358 266:0.338318 267:0.0424405 268:0.0634003 269:0.450829 270:0.0277764 271:0.214915 272:0.0972404 273:0.148021 274:0.204791 275:0.289768 276:0.0452652 277:0.0420605 278:0.251873 279:0.175857 280:0.068048 281:0.301841 282:0.160321 283:0.0723474 284:0.341046 285:0.0441717 286:0.0766068 287:0.439312 288:0.0265157 289:0.0129666 290:0.43735 291:0.0308287 292:0.0104347 293:0.456392 294:0.0520282 295:0.311653 296:0.147593 297:0.213428 298:0.222327 299:0.040899 300:0.0640997 301:0.0504161 302:0.513678 303:0.085684 304:0.0386733 305:0.304691 306:0.00685816 307:0.136241 308:0.293353 309:0.0561574 310:0.169161 311:0.316912 312:0.0281759 313:0.328389 314:0.274707 315:0.161799 316:0.145081 317:0.0684513 318:0.0215726 319:0.123578 320:0.545486 321:0.0501294 322:0.146204 323:0.123622 324:0.0109807 325:0.149229 326:0.230216 327:0.127881 328:0.165407 329:0.244663 330:0.0826035 331:0.141501 332:0.147492 333:0.170708 334:0.158442 335:0.191978 336:0.189879 337:0.0750834 338:0.130708 339:0.256317 340:0.082656 341:0.379124 342:0.0761114 343:0.132975 344:0.244823 345:0.133698 346:0.182508 347:0.241198 348:0.0647979 349:0.146706 350:0.124739 351:0.189897 352:0.119552 353:0.233095 354:0.186012 355:0.0438877 356:0.133012 357:0.256712 358:0.083245 359:0.39022 360:0.0929228 361:0.0215815 362:0.417661 363:0.0223442 364:0.0830402 365:0.451256 366:0.00411706 367:0.274672 368:0.186385 369:0.249325 370:0.164838 371:0.067782 372:0.0569977 373:0.0310712 374:0.59426 375:0.0679307 376:0.0491146 377:0.242416 378:0.0152068 379:0.0155626 380:0.397994 381:0.0272146 382:0.0947399 383:0.464489 384:0 385:0.25611 386:0.268512 387:0.220121 388:0.158783 389:0.0490956 390:0.0473786 391:0.0267747 392:0.663322 393:0.0570764 394:0.0314576 395:0.20955 396:0.0118196 397:0.0125712 398:0.328405 399:0.147063 400:0.0144421 401:0.487057 402:0.0104613 403:0.325994 404:0.14753 405:0.312115 406:0.122986 407:0.0278745 408:0.0635 409:0.0988024 410:0.505467 411:0.127239 412:0.0711467 413:0.16896 414:0.0283841 415:0.0491711 416:0.278301 417:0.130449 418:0.150276 419:0.320825 420:0.0709773 421:0.316418 422:0.143755 423:0.292196 424:0.108261 425:0.062157 426:0.0772133 427:0.0740131 428:0.516928 429:0.164774 430:0.0271007 431:0.200568 432:0.0166153 433:0.0224982 434:0.410553 435:0.0300958 436:0.0747643 437:0.417478 438:0.0446113 439:0.41434 440:0.0266472 441:0.241097 442:0.246953 443:0.00351082 444:0.0674524 445:0.183926 446:0.302276 447:0.226433 448:0.108844 449:0.112598 450:0.065922 451:0.253869 452:0.194084 453:0.0643109 454:0.222932 455:0.24715 456:0.017654 457:0.126455 458:0.0202473 459:0.338021 460:0.161981 461:0.00944417 462:0.343852 463:0.167644 464:0.0829722 465:0.260807 466:0.195295 467:0.0427737 468:0.250508 469:0.0463095 470:0.397714 471:0.0697708 472:0.0143011 473:0.397417 474:0.0744871 475:0.117055 476:0.0300252 477:0.382744 478:0.0922138 479:0.0385086 480:0.339453 481:0.203831 482:0.24294 483:0.0899437 484:0.164092 485:0.212037 486:0.0871566 487:0.0306359 488:0.3336 489:0.145637 490:0.0185354 491:0.331719 492:0.139873 493:0.140718 494:0.0382011 495:0.362846 496:0.0955689 497:0.0904851 498:0.272181 499:0.18225 500:0.258075 501:0.0732952 502:0.229035 503:0.162162 504:0.095182 505:0.0158271 506:0.354923 507:0.126446 508:0.00190693 509:0.481796 510:0.0191005 511:0.325524 512:0.0155375 513:0.32322 514:0.178746 515:0.00491562 516:0.152056 517:0.240808 518:0.196029 519:0.270239 520:0.0874902 521:0.148977 522:0.0564563 523:0.0659181 524:0.330247 525:0.111333 526:0.0328842 527:0.40667 528:0.0529471 529:0.051355 530:0.0509409 531:0.380723 532:0.092891 533:0.00856083 534:0.41553 535:0.253185 536:0.150703 537:0.0933029 538:0.280372 539:0.100834 540:0.121603 541:0.0702308 542:0.392327 543:0.0421491 544:0.111399 545:0.334935 546:0.0489586 547:0.134641 548:0.0528451 549:0.356783 550:0.0994447 551:0.0371935 552:0.319092 553:0.134804 554:0.190333 555:0.210286 556:0.0920522 557:0.184261 558:0.188264 559:0.176713 560:0.247344 561:0.0816828 562:0.142476 563:0.310132 564:0.0416517 565:0.190314 566:0.0781131 567:0.317539 568:0.110105 569:0.0887532 570:0.215176 571:0.109951 572:0.210904 573:0.208767 574:0.0991533 575:0.144033 576:0.227192 577:0.0872681 578:0.347963 579:0.0361789 580:0.172477 581:0.336059 582:0.020054 583:0.253633 584:0.105236 585:0.306576 586:0.103368 587:0.127358 588:0.10383 589:0.0484607 590:0.408281 591:0.178466 592:0.056911 593:0.23645 594:0.0714318 595:0.0142139 596:0.239218 597:0.163684 598:0.14685 599:0.251307 600:0.184728 601:0.0672183 602:0.486398 603:0.0709752 604:0.0351547 605:0.310176 606:0.030078 607:0.123293 608:0.473165 609:0.00928811 610:0.0436018 611:0.348331 612:0.00232211 613:0.172684 614:0.119386 615:0.151316 616:0.159762 617:0.293864 618:0.102988 619:0.0501892 620:0.256816 621:0.169797 622:0.0591325 623:0.306202 624:0.157863 625:0.0772358 626:0.338318 627:0.0424405 628:0.0634003 629:0.450829 630:0.0277764 631:0.214915 632:0.0972404 633:0.148021 634:0.204791 635:0.289768 636:0.0452652 637:0.0420605 638:0.251873 639:0.175857 640:0.068048 641:0.301841 642:0.160321 643:0.0723474 644:0.341046 645:0.0441717 646:0.0766068 647:0.439312 648:0.0265157 649:0.0129666 650:0.43735 651:0.0308287 652:0.0104347 653:0.456392 654:0.0520282 655:0.311653 656:0.147593 657:0.213428 658:0.222327 659:0.040899 660:0.0640997 661:0.0504161 662:0.513678 663:0.085684 664:0.0386733 665:0.304691 666:0.00685816 667:0.136241 668:0.293353 669:0.0561574 670:0.169161 671:0.316912 672:0.0281759 673:0.328389 674:0.274707 675:0.161799 676:0.145081 677:0.0684513 678:0.0215726 679:0.123578 680:0.545486 681:0.0501294 682:0.146204 683:0.123622 684:0.0109807 685:0.149229 686:0.230216 687:0.127881 688:0.165407 689:0.244663 690:0.0826035 691:0.141501 692:0.147492 693:0.170708 694:0.158442 695:0.191978 696:0.189879 697:0.0750834 698:0.130708 699:0.256317 700:0.082656 701:0.379124 702:0.0761114 703:0.132975 704:0.244823 705:0.133698 706:0.182508 707:0.241198 708:0.0647979 709:0.146706 710:0.124739 711:0.189897 712:0.119552 713:0.233095 714:0.186012 715:0.0438877 716:0.133012 717:0.256712 718:0.083245 719:0.39022 720:0.0929228 721:0.0215815 722:0.417661 723:0.0223442 724:0.0830402 725:0.451256 726:0.00411706 727:0.274672 728:0.186385 729:0.249325 730:0.164838 731:0.067782 732:0.0569977 733:0.0310712 734:0.59426 735:0.0679307 736:0.0491146 737:0.242416 738:0.0152068 739:0.0155626 740:0.397994 741:0.0272146 742:0.0947399 743:0.464489 744:0 745:0.25611 746:0.268512 747:0.220121 748:0.158783 749:0.0490956 750:0.0473786 751:0.0267747 752:0.663322 753:0.0570764 754:0.0314576 755:0.20955 756:0.0118196 757:0.0125712 758:0.328405 759:0.147063 760:0.0144421 761:0.487057 762:0.0104613 763:0.325994 764:0.14753 765:0.312115 766:0.122986 767:0.0278745 768:0.0635 769:0.0988024 770:0.505467 771:0.127239 772:0.0711467 773:0.16896 774:0.0283841 775:0.0491711 776:0.278301 777:0.130449 778:0.150276 779:0.320825 780:0.0709773 781:0.316418 782:0.143755 783:0.292196 784:0.108261 785:0.062157 786:0.0772133 787:0.0740131 788:0.516928 789:0.164774 790:0.0271007 791:0.200568 792:0.0166153 793:0.0224982 794:0.410553 795:0.0300958 796:0.0747643 797:0.417478 798:0.0446113 799:0.41434 800:0.0266472 801:0.241097 802:0.246953 803:0.00351082 804:0.0674524 805:0.183926 806:0.302276 807:0.226433 808:0.108844 809:0.112598 810:0.065922 811:0.253869 812:0.194084 813:0.0643109 814:0.222932 815:0.24715 816:0.017654 817:0.126455 818:0.0202473 819:0.338021 820:0.161981 821:0.00944417 822:0.343852 823:0.167644 824:0.0829722 825:0.260807 826:0.195295 827:0.0427737 828:0.250508 829:0.0463095 830:0.397714 831:0.0697708 832:0.0143011 833:0.397417 834:0.0744871 835:0.117055 836:0.0300252 837:0.382744 838:0.0922138 839:0.0385086 840:0.339453 841:0.203831 842:0.24294 843:0.0899437 844:0.164092 845:0.212037 846:0.0871566 847:0.0306359 848:0.3336 849:0.145637 850:0.0185354 851:0.331719 852:0.139873 853:0.140718 854:0.0382011 855:0.362846 856:0.0955689 857:0.0904851 858:0.272181 859:0.18225 860:0.258075 861:0.0732952 862:0.229035 863:0.162162 864:0.095182 865:0.0158271 866:0.354923 867:0.126446 868:0.00190693 869:0.481796 870:0.0191005 871:0.325524 872:0.0155375 873:0.32322 874:0.178746 875:0.00491562 876:0.152056 877:0.240808 878:0.196029 879:0.270239 880:0.0874902 881:0.148977 882:0.0564563 883:0.0659181 884:0.330247 885:0.111333 886:0.0328842 887:0.40667 888:0.0529471 889:0.051355 890:0.0509409 891:0.380723 892:0.092891 893:0.00856083 894:0.41553 895:0.253185 896:0.150703 897:0.0933029 898:0.280372 899:0.100834 900:0.121603 901:0.0702308 902:0.392327 903:0.0421491 904:0.111399 905:0.334935 906:0.0489586 907:0.134641 908:0.0528451 909:0.356783 910:0.0994447 911:0.0371935 912:0.319092 913:0.134804 914:0.190333 915:0.210286 916:0.0920522 917:0.184261 918:0.188264 919:0.176713 920:0.247344 921:0.0816828 922:0.142476 923:0.310132 924:0.0416517 925:0.190314 926:0.0781131 927:0.317539 928:0.110105 929:0.0887532 930:0.215176 931:0.109951 932:0.210904 933:0.208767 934:0.0991533 935:0.144033 936:0.227192 937:0.0872681 938:0.347963 939:0.0361789 940:0.172477 941:0.336059 942:0.020054 943:0.253633 944:0.105236 945:0.306576 946:0.103368 947:0.127358 948:0.10383 949:0.0484607 950:0.408281 951:0.178466 952:0.056911 953:0.23645 954:0.0714318 955:0.0142139 956:0.239218 957:0.163684 958:0.14685 959:0.251307 960:0.184728 961:0.0672183 962:0.486398 963:0.0709752 964:0.0351547 965:0.310176 966:0.030078 967:0.123293 968:0.473165 969:0.00928811 970:0.0436018 971:0.348331 972:0.00232211 973:0.172684 974:0.119386 975:0.151316 976:0.159762 977:0.293864 978:0.102988 979:0.0501892 980:0.256816 981:0.169797 982:0.0591325 983:0.306202 984:0.157863 985:0.0772358 986:0.338318 987:0.0424405 988:0.0634003 989:0.450829 990:0.0277764 991:0.214915 992:0.0972404 993:0.148021 994:0.204791 995:0.289768 996:0.0452652 997:0.0420605 998:0.251873 999:0.175857 1000:0.068048 1001:0.301841 1002:0.160321 1003:0.0723474 1004:0.341046 1005:0.0441717 1006:0.0766068 1007:0.439312 1008:0.0265157 1009:0.0129666 1010:0.43735 1011:0.0308287 1012:0.0104347 1013:0.456392 1014:0.0520282 1015:0.311653 1016:0.147593 1017:0.213428 1018:0.222327 1019:0.040899 1020:0.0640997 1021:0.0504161 1022:0.513678 1023:0.085684 1024:0.0386733 1025:0.304691 1026:0.00685816 1027:0.136241 1028:0.293353 1029:0.0561574 1030:0.169161 1031:0.316912 1032:0.0281759 1033:0.328389 1034:0.274707 1035:0.161799 1036:0.145081 1037:0.0684513 1038:0.0215726 1039:0.123578 1040:0.545486 1041:0.0501294 1042:0.146204 1043:0.123622 1044:0.0109807 1045:0.149229 1046:0.230216 1047:0.127881 1048:0.165407 1049:0.244663 1050:0.0826035 1051:0.141501 1052:0.147492 1053:0.170708 1054:0.158442 1055:0.191978 1056:0.189879 1057:0.0750834 1058:0.130708 1059:0.256317 1060:0.082656 1061:0.379124 1062:0.0761114 1063:0.132975 1064:0.244823 1065:0.133698 1066:0.182508 1067:0.241198 1068:0.0647979 1069:0.146706 1070:0.124739 1071:0.189897 1072:0.119552 1073:0.233095 1074:0.186012 1075:0.0438877 1076:0.133012 1077:0.256712 1078:0.083245 1079:0.39022 1080:0.0929228 1081:0.0215815 1082:0.417661 1083:0.0223442 1084:0.0830402 1085:0.451256 1086:0.00411706 1087:0.274672 1088:0.186385 1089:0.249325 1090:0.164838 1091:0.067782 1092:0.0569977 1093:0.0310712 1094:0.59426 1095:0.0679307 1096:0.0491146 1097:0.242416 1098:0.0152068 1099:0.0155626 1100:0.397994 1101:0.0272146 1102:0.0947399 1103:0.464489 1104:0 1105:0.25611 1106:0.268512 1107:0.220121 1108:0.158783 1109:0.0490956 1110:0.0473786 1111:0.0267747 1112:0.663322 1113:0.0570764 1114:0.0314576 1115:0.20955 1116:0.0118196 1117:0.0125712 1118:0.328405 1119:0.147063 1120:0.0144421 1121:0.487057 1122:0.0104613 1123:0.325994 1124:0.14753 1125:0.312115 1126:0.122986 1127:0.0278745 1128:0.0635 1129:0.0988024 1130:0.505467 1131:0.127239 1132:0.0711467 1133:0.16896 1134:0.0283841 1135:0.0491711 1136:0.278301 1137:0.130449 1138:0.150276 1139:0.320825 1140:0.0709773 1141:0.316418 1142:0.143755 1143:0.292196 1144:0.108261 1145:0.062157 1146:0.0772133 1147:0.0740131 1148:0.516928 1149:0.164774 1150:0.0271007 1151:0.200568 1152:0.0166153 1153:0.0224982 1154:0.410553 1155:0.0300958 1156:0.0747643 1157:0.417478 1158:0.0446113 1159:0.41434 1160:0.0266472 1161:0.241097 1162:0.246953 1163:0.00351082 1164:0.0674524 1165:0.183926 1166:0.302276 1167:0.226433 1168:0.108844 1169:0.112598 1170:0.065922 1171:0.253869 1172:0.194084 1173:0.0643109 1174:0.222932 1175:0.24715 1176:0.017654 1177:0.126455 1178:0.0202473 1179:0.338021 1180:0.161981 1181:0.00944417 1182:0.343852 1183:0.167644 1184:0.0829722 1185:0.260807 1186:0.195295 1187:0.0427737 1188:0.250508 1189:0.0463095 1190:0.397714 1191:0.0697708 1192:0.0143011 1193:0.397417 1194:0.0744871 1195:0.117055 1196:0.0300252 1197:0.382744 1198:0.0922138 1199:0.0385086 1200:0.339453 1201:0.203831 1202:0.24294 1203:0.0899437 1204:0.164092 1205:0.212037 1206:0.0871566 1207:0.0306359 1208:0.3336 1209:0.145637 1210:0.0185354 1211:0.331719 1212:0.139873 1213:0.140718 1214:0.0382011 1215:0.362846 1216:0.0955689 1217:0.0904851 1218:0.272181 1219:0.18225 1220:0.258075 1221:0.0732952 1222:0.229035 1223:0.162162 1224:0.095182 1225:0.0158271 1226:0.354923 1227:0.126446 1228:0.00190693 1229:0.481796 1230:0.0191005 1231:0.325524 1232:0.0155375 1233:0.32322 1234:0.178746 1235:0.00491562 1236:0.152056 1237:0.240808 1238:0.196029 1239:0.270239 1240:0.0874902 1241:0.148977 1242:0.0564563 1243:0.0659181 1244:0.330247 1245:0.111333 1246:0.0328842 1247:0.40667 1248:0.0529471 1249:0.051355 1250:0.0509409 1251:0.380723 1252:0.092891 1253:0.00856083 1254:0.41553 1255:0.253185 1256:0.150703 1257:0.0933029 1258:0.280372 1259:0.100834 1260:0.121603 1261:0.0702308 1262:0.392327 1263:0.0421491 1264:0.111399 1265:0.334935 1266:0.0489586 1267:0.134641 1268:0.0528451 1269:0.356783 1270:0.0994447 1271:0.0371935 1272:0.319092 1273:0.134804 1274:0.190333 1275:0.210286 1276:0.0920522 1277:0.184261 1278:0.188264 1279:0.176713 1280:0.247344 1281:0.0816828 1282:0.142476 1283:0.310132 1284:0.0416517 1285:0.190314 1286:0.0781131 1287:0.317539 1288:0.110105 1289:0.0887532 1290:0.215176 1291:0.109951 1292:0.210904 1293:0.208767 1294:0.0991533 1295:0.144033 1296:0.227192 1297:0.0872681 1298:0.347963 1299:0.0361789 1300:0.172477 1301:0.336059 1302:0.020054 1303:0.253633 1304:0.105236 1305:0.306576 1306:0.103368 1307:0.127358 1308:0.10383 1309:0.0484607 1310:0.408281 1311:0.178466 1312:0.056911 1313:0.23645 1314:0.0714318 1315:0.0142139 1316:0.239218 1317:0.163684 1318:0.14685 1319:0.251307 1320:0.184728 1321:0.0672183 1322:0.486398 1323:0.0709752 1324:0.0351547 1325:0.310176 1326:0.030078 1327:0.123293 1328:0.473165 1329:0.00928811 1330:0.0436018 1331:0.348331 1332:0.00232211 1333:0.172684 1334:0.119386 1335:0.151316 1336:0.159762 1337:0.293864 1338:0.102988 1339:0.0501892 1340:0.256816 1341:0.169797 1342:0.0591325 1343:0.306202 1344:0.157863 1345:0.0772358 1346:0.338318 1347:0.0424405 1348:0.0634003 1349:0.450829 1350:0.0277764 1351:0.214915 1352:0.0972404 1353:0.148021 1354:0.204791 1355:0.289768 1356:0.0452652 1357:0.0420605 1358:0.251873 1359:0.175857 1360:0.068048 1361:0.301841 1362:0.160321 1363:0.0723474 1364:0.341046 1365:0.0441717 1366:0.0766068 1367:0.439312 1368:0.0265157 1369:0.0129666 1370:0.43735 1371:0.0308287 1372:0.0104347 1373:0.456392 1374:0.0520282 1375:0.311653 1376:0.147593 1377:0.213428 1378:0.222327 1379:0.040899 1380:0.0640997 1381:0.0504161 1382:0.513678 1383:0.085684 1384:0.0386733 1385:0.304691 1386:0.00685816 1387:0.136241 1388:0.293353 1389:0.0561574 1390:0.169161 1391:0.316912 1392:0.0281759 1393:0.328389 1394:0.274707 1395:0.161799 1396:0.145081 1397:0.0684513 1398:0.0215726 1399:0.123578 1400:0.545486 1401:0.0501294 1402:0.146204 1403:0.123622 1404:0.0109807 1405:0.149229 1406:0.230216 1407:0.127881 1408:0.165407 1409:0.244663 1410:0.0826035 1411:0.141501 1412:0.147492 1413:0.170708 1414:0.158442 1415:0.191978 1416:0.189879 1417:0.0750834 1418:0.130708 1419:0.256317 1420:0.082656 1421:0.379124 1422:0.0761114 1423:0.132975 1424:0.244823 1425:0.133698 1426:0.182508 1427:0.241198 1428:0.0647979 1429:0.146706 1430:0.124739 1431:0.189897 1432:0.119552 1433:0.233095 1434:0.186012 1435:0.0438877 1436:0.133012 1437:0.256712 1438:0.083245 1439:0.39022 1440:0.0929228 1441:0.0215815 1442:0.417661 1443:0.0223442 1444:0.0830402 1445:0.451256 1446:0.00411706 1447:0.274672 1448:0.186385 1449:0.249325 1450:0.164838 1451:0.067782 1452:0.0569977 1453:0.0310712 1454:0.59426 1455:0.0679307 1456:0.0491146 1457:0.242416 1458:0.0152068 1459:0.0155626 1460:0.397994 1461:0.0272146 1462:0.0947399 1463:0.464489 1464:0 1465:0.25611 1466:0.268512 1467:0.220121 1468:0.158783 1469:0.0490956 1470:0.0473786 1471:0.0267747 1472:0.663322 1473:0.0570764 1474:0.0314576 1475:0.20955 1476:0.0118196 1477:0.0125712 1478:0.328405 1479:0.147063 1480:0.0144421 1481:0.487057 1482:0.0104613 1483:0.325994 1484:0.14753 1485:0.312115 1486:0.122986 1487:0.0278745 1488:0.0635 1489:0.0988024 1490:0.505467 1491:0.127239 1492:0.0711467 1493:0.16896 1494:0.0283841 1495:0.0491711 1496:0.278301 1497:0.130449 1498:0.150276 1499:0.320825 1500:0.0709773 1501:0.316418 1502:0.143755 1503:0.292196 1504:0.108261 1505:0.062157 1506:0.0772133 1507:0.0740131 1508:0.516928 1509:0.164774 1510:0.0271007 1511:0.200568 1512:0.0166153 1513:0.0224982 1514:0.410553 1515:0.0300958 1516:0.0747643 1517:0.417478 1518:0.0446113 1519:0.41434 1520:0.0266472 1521:0.241097 1522:0.246953 1523:0.00351082 1524:0.0674524 1525:0.183926 1526:0.302276 1527:0.226433 1528:0.108844 1529:0.112598 1530:0.065922 1531:0.253869 1532:0.194084 1533:0.0643109 1534:0.222932 1535:0.24715 1536:0.017654 1537:0.126455 1538:0.0202473 1539:0.338021 1540:0.161981 1541:0.00944417 1542:0.343852 1543:0.167644 1544:0.0829722 1545:0.260807 1546:0.195295 1547:0.0427737 1548:0.250508 1549:0.0463095 1550:0.397714 1551:0.0697708 1552:0.0143011 1553:0.397417 1554:0.0744871 1555:0.117055 1556:0.0300252 1557:0.382744 1558:0.0922138 1559:0.0385086 1560:0.339453 1561:0.203831 1562:0.24294 1563:0.0899437 1564:0.164092 1565:0.212037 1566:0.0871566 1567:0.0306359 1568:0.3336 1569:0.145637 1570:0.0185354 1571:0.331719 1572:0.139873 1573:0.140718 1574:0.0382011 1575:0.362846 1576:0.0955689 1577:0.0904851 1578:0.272181 1579:0.18225 1580:0.258075 1581:0.0732952 1582:0.229035 1583:0.162162 1584:0.095182 1585:0.0158271 1586:0.354923 1587:0.126446 1588:0.00190693 1589:0.481796 1590:0.0191005 1591:0.325524 1592:0.0155375 1593:0.32322 1594:0.178746 1595:0.00491562 1596:0.152056 1597:0.240808 1598:0.196029 1599:0.270239 1600:0.0874902 1601:0.148977 1602:0.0564563 1603:0.0659181 1604:0.330247 1605:0.111333 1606:0.0328842 1607:0.40667 1608:0.0529471 1609:0.051355 1610:0.0509409 1611:0.380723 1612:0.092891 1613:0.00856083 1614:0.41553 1615:0.253185 1616:0.150703 1617:0.0933029 1618:0.280372 1619:0.100834 1620:0.121603 1621:0.0702308 1622:0.392327 1623:0.0421491 1624:0.111399 1625:0.334935 1626:0.0489586 1627:0.134641 1628:0.0528451 1629:0.356783 1630:0.0994447 1631:0.0371935 1632:0.319092 1633:0.134804 1634:0.190333 1635:0.210286 1636:0.0920522 1637:0.184261 1638:0.188264 1639:0.176713 1640:0.247344 1641:0.0816828 1642:0.142476 1643:0.310132 1644:0.0416517 1645:0.190314 1646:0.0781131 1647:0.317539 1648:0.110105 1649:0.0887532 1650:0.215176 1651:0.109951 1652:0.210904 1653:0.208767 1654:0.0991533 1655:0.144033 1656:0.227192 1657:0.0872681 1658:0.347963 1659:0.0361789 1660:0.172477 1661:0.336059 1662:0.020054 1663:0.253633 1664:0.105236 1665:0.306576 1666:0.103368 1667:0.127358 1668:0.10383 1669:0.0484607 1670:0.408281 1671:0.178466 1672:0.056911 1673:0.23645 1674:0.0714318 1675:0.0142139 1676:0.239218 1677:0.163684 1678:0.14685 1679:0.251307 1680:0.184728 1681:0.0672183 1682:0.486398 1683:0.0709752 1684:0.0351547 1685:0.310176 1686:0.030078 1687:0.123293 1688:0.473165 1689:0.00928811 1690:0.0436018 1691:0.348331 1692:0.00232211 1693:0.172684 1694:0.119386 1695:0.151316 1696:0.159762 1697:0.293864 1698:0.102988 1699:0.0501892 1700:0.256816 1701:0.169797 1702:0.0591325 1703:0.306202 1704:0.157863 1705:0.0772358 1706:0.338318 1707:0.0424405 1708:0.0634003 1709:0.450829 1710:0.0277764 1711:0.214915 1712:0.0972404 1713:0.148021 1714:0.204791 1715:0.289768 1716:0.0452652 1717:0.0420605 1718:0.251873 1719:0.175857 1720:0.068048 1721:0.301841 1722:0.160321 1723:0.0723474 1724:0.341046 1725:0.0441717 1726:0.0766068 1727:0.439312 1728:0.0265157 1729:0.0129666 1730:0.43735 1731:0.0308287 1732:0.0104347 1733:0.456392 1734:0.0520282 1735:0.311653 1736:0.147593 1737:0.213428 1738:0.222327 1739:0.040899 1740:0.0640997 1741:0.0504161 1742:0.513678 1743:0.085684 1744:0.0386733 1745:0.304691 1746:0.00685816 1747:0.136241 1748:0.293353 1749:0.0561574 1750:0.169161 1751:0.316912 1752:0.0281759 1753:0.328389 1754:0.274707 1755:0.161799 1756:0.145081 1757:0.0684513 1758:0.0215726 1759:0.123578 1760:0.545486 1761:0.0501294 1762:0.146204 1763:0.123622 1764:0.0109807 1765:0.149229 1766:0.230216 1767:0.127881 1768:0.165407 1769:0.244663 1770:0.0826035 1771:0.141501 1772:0.147492 1773:0.170708 1774:0.158442 1775:0.191978 1776:0.189879 1777:0.0750834 1778:0.130708 1779:0.256317 1780:0.082656 1781:0.379124 1782:0.0761114 1783:0.132975 1784:0.244823 1785:0.133698 1786:0.182508 1787:0.241198 1788:0.0647979 1789:0.146706 1790:0.124739 1791:0.189897 1792:0.119552 1793:0.233095 1794:0.186012 1795:0.0438877 1796:0.133012 1797:0.256712 1798:0.083245 1799:0.39022 1800:0.0929228 1801:0.0215815 1802:0.417661 1803:0.0223442 1804:0.0830402 1805:0.451256 1806:0.00411706 1807:0.274672 1808:0.186385 1809:0.249325 1810:0.164838 1811:0.067782 1812:0.0569977 1813:0.0310712 1814:0.59426 1815:0.0679307 1816:0.0491146 1817:0.242416 1818:0.0152068 1819:0.0155626 1820:0.397994 1821:0.0272146 1822:0.0947399 1823:0.464489 1824:0 1825:0.25611 1826:0.268512 1827:0.220121 1828:0.158783 1829:0.0490956 1830:0.0473786 1831:0.0267747 1832:0.663322 1833:0.0570764 1834:0.0314576 1835:0.20955 1836:0.0118196 1837:0.0125712 1838:0.328405 1839:0.147063 1840:0.0144421 1841:0.487057 1842:0.0104613 1843:0.325994 1844:0.14753 1845:0.312115 1846:0.122986 1847:0.0278745 1848:0.0635 1849:0.0988024 1850:0.505467 1851:0.127239 1852:0.0711467 1853:0.16896 1854:0.0283841 1855:0.0491711 1856:0.278301 1857:0.130449 1858:0.150276 1859:0.320825 1860:0.0709773 1861:0.316418 1862:0.143755 1863:0.292196 1864:0.108261 1865:0.062157 1866:0.0772133 1867:0.0740131 1868:0.516928 1869:0.164774 1870:0.0271007 1871:0.200568 1872:0.0166153 1873:0.0224982 1874:0.410553 1875:0.0300958 1876:0.0747643 1877:0.417478 1878:0.0446113 1879:0.41434 1880:0.0266472 1881:0.241097 1882:0.246953 1883:0.00351082 1884:0.0674524 1885:0.183926 1886:0.302276 1887:0.226433 1888:0.108844 1889:0.112598 1890:0.065922 1891:0.253869 1892:0.194084 1893:0.0643109 1894:0.222932 1895:0.24715 1896:0.017654 1897:0.126455 1898:0.0202473 1899:0.338021 1900:0.161981 1901:0.00944417 1902:0.343852 1903:0.167644 1904:0.0829722 1905:0.260807 1906:0.195295 1907:0.0427737 1908:0.250508 1909:0.0463095 1910:0.397714 1911:0.0697708 1912:0.0143011 1913:0.397417 1914:0.0744871 1915:0.117055 1916:0.0300252 1917:0.382744 1918:0.0922138 1919:0.0385086 1920:0.339453 1921:0.203831 1922:0.24294 1923:0.0899437 1924:0.164092 1925:0.212037 1926:0.0871566 1927:0.0306359 1928:0.3336 1929:0.145637 1930:0.0185354 1931:0.331719 1932:0.139873 1933:0.140718 1934:0.0382011 1935:0.362846 1936:0.0955689 1937:0.0904851 1938:0.272181 1939:0.18225 1940:0.258075 1941:0.0732952 1942:0.229035 1943:0.162162 1944:0.095182 1945:0.0158271 1946:0.354923 1947:0.126446 1948:0.00190693 1949:0.481796 1950:0.0191005 1951:0.325524 1952:0.0155375 1953:0.32322 1954:0.178746 1955:0.00491562 1956:0.152056 1957:0.240808 1958:0.196029 1959:0.270239 1960:0.0874902 1961:0.148977 1962:0.0564563 1963:0.0659181 1964:0.330247 1965:0.111333 1966:0.0328842 1967:0.40667 1968:0.0529471 1969:0.051355 1970:0.0509409 1971:0.380723 1972:0.092891 1973:0.00856083 1974:0.41553 1975:0.253185 1976:0.150703 1977:0.0933029 1978:0.280372 1979:0.100834 1980:0.121603 1981:0.0702308 1982:0.392327 1983:0.0421491 1984:0.111399 1985:0.334935 1986:0.0489586 1987:0.134641 1988:0.0528451 1989:0.356783 1990:0.0994447 1991:0.0371935 1992:0.319092 1993:0.134804 1994:0.190333 1995:0.210286 1996:0.0920522 1997:0.184261 1998:0.188264 1999:0.176713 2000:0.247344 2001:0.0816828 2002:0.142476 2003:0.310132 2004:0.0416517 2005:0.190314 2006:0.0781131 2007:0.317539 2008:0.110105 2009:0.0887532 2010:0.215176 2011:0.109951 2012:0.210904 2013:0.208767 2014:0.0991533 2015:0.144033 2016:0.227192 2017:0.0872681 2018:0.347963 2019:0.0361789 2020:0.172477 2021:0.336059 2022:0.020054 2023:0.253633 2024:0.105236 2025:0.306576 2026:0.103368 2027:0.127358 2028:0.10383 2029:0.0484607 2030:0.408281 2031:0.178466 2032:0.056911 2033:0.23645 2034:0.0714318 2035:0.0142139 2036:0.239218 2037:0.163684 2038:0.14685 2039:0.251307 2040:0.184728 2041:0.0672183 2042:0.486398 2043:0.0709752 2044:0.0351547 2045:0.310176 2046:0.030078 2047:0.123293 2048:0.473165 2049:0.00928811 2050:0.0436018 2051:0.348331 2052:0.00232211 2053:0.172684 2054:0.119386 2055:0.151316 2056:0.159762 2057:0.293864 2058:0.102988 2059:0.0501892 2060:0.256816 2061:0.169797 2062:0.0591325 2063:0.306202 2064:0.157863 2065:0.0772358 2066:0.338318 2067:0.0424405 2068:0.0634003 2069:0.450829 2070:0.0277764 2071:0.214915 2072:0.0972404 2073:0.148021 2074:0.204791 2075:0.289768 2076:0.0452652 2077:0.0420605 2078:0.251873 2079:0.175857 2080:0.068048 2081:0.301841 2082:0.160321 2083:0.0723474 2084:0.341046 2085:0.0441717 2086:0.0766068 2087:0.439312 2088:0.0265157 2089:0.0129666 2090:0.43735 2091:0.0308287 2092:0.0104347 2093:0.456392 2094:0.0520282 2095:0.311653 2096:0.147593 2097:0.213428 2098:0.222327 2099:0.040899 2100:0.0640997 2101:0.0504161 2102:0.513678 2103:0.085684 2104:0.0386733 2105:0.304691 2106:0.00685816 2107:0.136241 2108:0.293353 2109:0.0561574 2110:0.169161 2111:0.316912 2112:0.0281759 2113:0.328389 2114:0.274707 2115:0.161799 2116:0.145081 2117:0.0684513 2118:0.0215726 2119:0.123578 2120:0.545486 2121:0.0501294 2122:0.146204 2123:0.123622 2124:0.0109807 2125:0.149229 2126:0.230216 2127:0.127881 2128:0.165407 2129:0.244663 2130:0.0826035 2131:0.141501 2132:0.147492 2133:0.170708 2134:0.158442 2135:0.191978 2136:0.189879 2137:0.0750834 2138:0.130708 2139:0.256317 2140:0.082656 2141:0.379124 2142:0.0761114 2143:0.132975 2144:0.244823 2145:0.133698 2146:0.182508 2147:0.241198 2148:0.0647979 2149:0.146706 2150:0.124739 2151:0.189897 2152:0.119552 2153:0.233095 2154:0.186012 2155:0.0438877 2156:0.133012 2157:0.256712 2158:0.083245 2159:0.39022 2160:0.0929228 2161:0.0215815 2162:0.417661 2163:0.0223442 2164:0.0830402 2165:0.451256 2166:0.00411706 2167:0.274672 2168:0.186385 2169:0.249325 2170:0.164838 2171:0.067782 2172:0.0569977 2173:0.0310712 2174:0.59426 2175:0.0679307 2176:0.0491146 2177:0.242416 2178:0.0152068 2179:0.0155626 2180:0.397994 2181:0.0272146 2182:0.0947399 2183:0.464489 2184:0 2185:0.25611 2186:0.268512 2187:0.220121 2188:0.158783 2189:0.0490956 2190:0.0473786 2191:0.0267747 2192:0.663322 2193:0.0570764 2194:0.0314576 2195:0.20955 2196:0.0118196 2197:0.0125712 2198:0.328405 2199:0.147063 2200:0.0144421 2201:0.487057 2202:0.0104613 2203:0.325994 2204:0.14753 2205:0.312115 2206:0.122986 2207:0.0278745 2208:0.0635 2209:0.0988024 2210:0.505467 2211:0.127239 2212:0.0711467 2213:0.16896 2214:0.0283841 2215:0.0491711 2216:0.278301 2217:0.130449 2218:0.150276 2219:0.320825 2220:0.0709773 2221:0.316418 2222:0.143755 2223:0.292196 2224:0.108261 2225:0.062157 2226:0.0772133 2227:0.0740131 2228:0.516928 2229:0.164774 2230:0.0271007 2231:0.200568 2232:0.0166153 2233:0.0224982 2234:0.410553 2235:0.0300958 2236:0.0747643 2237:0.417478 2238:0.0446113 2239:0.41434 2240:0.0266472 2241:0.241097 2242:0.246953 2243:0.00351082 2244:0.0674524 2245:0.183926 2246:0.302276 2247:0.226433 2248:0.108844 2249:0.112598 2250:0.065922 2251:0.253869 2252:0.194084 2253:0.0643109 2254:0.222932 2255:0.24715 2256:0.017654 2257:0.126455 2258:0.0202473 2259:0.338021 2260:0.161981 2261:0.00944417 2262:0.343852 2263:0.167644 2264:0.0829722 2265:0.260807 2266:0.195295 2267:0.0427737 2268:0.250508 2269:0.0463095 2270:0.397714 2271:0.0697708 2272:0.0143011 2273:0.397417 2274:0.0744871 2275:0.117055 2276:0.0300252 2277:0.382744 2278:0.0922138 2279:0.0385086 2280:0.339453 2281:0.203831 2282:0.24294 2283:0.0899437 2284:0.164092 2285:0.212037 2286:0.0871566 2287:0.0306359 2288:0.3336 2289:0.145637 2290:0.0185354 2291:0.331719 2292:0.139873 2293:0.140718 2294:0.0382011 2295:0.362846 2296:0.0955689 2297:0.0904851 2298:0.272181 2299:0.18225 2300:0.258075 2301:0.0732952 2302:0.229035 2303:0.162162 2304:0.095182 2305:0.0158271 2306:0.354923 2307:0.126446 2308:0.00190693 2309:0.481796 2310:0.0191005 2311:0.325524 2312:0.0155375 2313:0.32322 2314:0.178746 2315:0.00491562 2316:0.152056 2317:0.240808 2318:0.196029 2319:0.270239 2320:0.0874902 2321:0.148977 2322:0.0564563 2323:0.0659181 2324:0.330247 2325:0.111333 2326:0.0328842 2327:0.40667 2328:0.0529471 2329:0.051355 2330:0.0509409 2331:0.380723 2332:0.092891 2333:0.00856083 2334:0.41553 2335:0.253185 2336:0.150703 2337:0.0933029 2338:0.280372 2339:0.100834 2340:0.121603 2341:0.0702308 2342:0.392327 2343:0.0421491 2344:0.111399 2345:0.334935 2346:0.0489586 2347:0.134641 2348:0.0528451 2349:0.356783 2350:0.0994447 2351:0.0371935 2352:0.319092 2353:0.134804 2354:0.190333 2355:0.210286 2356:0.0920522 2357:0.184261 2358:0.188264 2359:0.176713 2360:0.247344 2361:0.0816828 2362:0.142476 2363:0.310132 2364:0.0416517 2365:0.190314 2366:0.0781131 2367:0.317539 2368:0.110105 2369:0.0887532 2370:0.215176 2371:0.109951 2372:0.210904 2373:0.208767 2374:0.0991533 2375:0.144033 2376:0.227192 2377:0.0872681 2378:0.347963 2379:0.0361789 2380:0.172477 2381:0.336059 2382:0.020054 2383:0.253633 2384:0.105236 2385:0.306576 2386:0.103368 2387:0.127358 2388:0.10383 2389:0.0484607 2390:0.408281 2391:0.178466 2392:0.056911 2393:0.23645 2394:0.0714318 2395:0.0142139 2396:0.239218 2397:0.163684 2398:0.14685 2399:0.251307 2400:0.184728 2401:0.0672183 2402:0.486398 2403:0.0709752 2404:0.0351547 2405:0.310176 2406:0.030078 2407:0.123293 2408:0.473165 2409:0.00928811 2410:0.0436018 2411:0.348331 2412:0.00232211 2413:0.172684 2414:0.119386 2415:0.151316 2416:0.159762 2417:0.293864 2418:0.102988 2419:0.0501892 2420:0.256816 2421:0.169797 2422:0.0591325 2423:0.306202 2424:0.157863 2425:0.0772358 2426:0.338318 2427:0.0424405 2428:0.0634003 2429:0.450829 2430:0.0277764 2431:0.214915 2432:0.0972404 2433:0.148021 2434:0.204791 2435:0.289768 2436:0.0452652 2437:0.0420605 2438:0.251873 2439:0.175857 2440:0.068048 2441:0.301841 2442:0.160321 2443:0.0723474 2444:0.341046 2445:0.0441717 2446:0.0766068 2447:0.439312 2448:0.0265157 2449:0.0129666 2450:0.43735 2451:0.0308287 2452:0.0104347 2453:0.456392 2454:0.0520282 2455:0.311653 2456:0.147593 2457:0.213428 2458:0.222327 2459:0.040899 2460:0.0640997 2461:0.0504161 2462:0.513678 2463:0.085684 2464:0.0386733 2465:0.304691 2466:0.00685816 2467:0.136241 2468:0.293353 2469:0.0561574 2470:0.169161 2471:0.316912 2472:0.0281759 2473:0.328389 2474:0.274707 2475:0.161799 2476:0.145081 2477:0.0684513 2478:0.0215726 2479:0.123578 2480:0.545486 2481:0.0501294 2482:0.146204 2483:0.123622 2484:0.0109807 2485:0.149229 2486:0.230216 2487:0.127881 2488:0.165407 2489:0.244663 2490:0.0826035 2491:0.141501 2492:0.147492 2493:0.170708 2494:0.158442 2495:0.191978 2496:0.189879 2497:0.0750834 2498:0.130708 2499:0.256317 2500:0.082656 2501:0.379124 2502:0.0761114 2503:0.132975 2504:0.244823 2505:0.133698 2506:0.182508 2507:0.241198 2508:0.0647979 2509:0.146706 2510:0.124739 2511:0.189897 2512:0.119552 2513:0.233095 2514:0.186012 2515:0.0438877 2516:0.133012 2517:0.256712 2518:0.083245 2519:0.39022 2520:0.0929228 
1 1 1 1 1 1:0 2:0.462342 3:0.0315037 4:0.022013 5:0.474371 6:0.00976987 7:0.369273 8:0.00605572 9:0.0979714 10:0.394799 11:0.0133044 12:0.118597 13:0.132017 14:0.208691 15:0.112272 16:0.211461 17:0.266659 18:0.0689 19:0.00391113 20:0.475847 21:0.0215934 22:0.0181094 23:0.475756 24:0.00478366 25:0.377604 26:0.00154345 27:0.0740576 28:0.410365 29:0.0227481 30:0.113682 31:0.106754 32:0.217397 33:0.0828506 34:0.247127 35:0.219218 36:0.126653 37:0.0397087 38:0.45944 39:0.0239153 40:0.00351157 41:0.466442 42:0.00698264 43:0.264815 44:0.013166 45:0.184116 46:0.289811 47:0.0156296 48:0.232462 49:0.121708 50:0.177124 51:0.170249 52:0.159898 53:0.167243 54:0.203779 55:0.107881 56:0.2938 57:0.0817188 58:0.159461 59:0.260632 60:0.0965081 61:0.158711 62:0.0405245 63:0.243003 64:0.215496 65:0.0631948 66:0.279071 67:0.154946 68:0.0884482 69:0.248079 70:0.138152 71:0.166173 72:0.204202 73:0.0754349 74:0.355932 75:0.0677118 76:0.0616657 77:0.399921 78:0.0393348 79:0.294407 80:0.049661 81:0.0963864 82:0.349339 83:0.0442093 84:0.165998 85:0.061488 86:0.247891 87:0.115311 88:0.13048 89:0.2326 90:0.212229 91:0.105258 92:0.280894 93:0.130228 94:0.0748103 95:0.303006 96:0.105803 97:0.22064 98:0.0998832 99:0.162254 100:0.251982 101:0.0658512 102:0.199391 103:0.190268 104:0.103647 105:0.216413 106:0.177309 107:0.161134 108:0.15123 109:0.0730216 110:0.206163 111:0.22393 112:0.102353 113:0.167675 114:0.226857 115:0.224645 116:0.109063 117:0.163538 118:0.22604 119:0.0930309 120:0.183683 121:0.193208 122:0.0823997 123:0.230252 124:0.181257 125:0.137738 126:0.175144 127:0.0436326 128:0.227502 129:0.214086 130:0.108326 131:0.138495 132:0.267958 133:0.227022 134:0.112729 135:0.175982 136:0.193182 137:0.102159 138:0.188926 139:0.223437 140:0.0554766 141:0.256845 142:0.17729 143:0.137427 144:0.149524 145:0.0532861 146:0.393522 147:0.0560507 148:0.0385077 149:0.439276 150:0.0193573 151:0.254623 152:0.0249021 153:0.158606 154:0.321529 155:0.0262031 156:0.214138 157:0.162114 158:0.235808 159:0.060819 160:0.226325 161:0.224593 162:0.0903405 163:0.100835 164:0.327406 165:0.0729324 166:0.0987 167:0.342535 168:0.057592 169:0.136404 170:0.107816 171:0.236114 172:0.167042 173:0.0544596 174:0.298163 175:0.0873015 176:0.251144 177:0.163005 178:0.10845 179:0.23063 180:0.159469 181:0.22822 182:0.168544 183:0.100518 184:0.25194 185:0.131844 186:0.118933 187:0.182242 188:0.113997 189:0.189729 190:0.243982 191:0.0292691 192:0.240781 193:0.192569 194:0.0389527 195:0.275569 196:0.194962 197:0.0628526 198:0.235094 199:0.23589 200:0.171203 201:0.09414 202:0.262673 203:0.123214 204:0.11288 205:0.173143 206:0.103753 207:0.211546 208:0.216542 209:0.0642302 210:0.230786 211:0.178591 212:0.0415546 213:0.281772 214:0.162804 215:0.0887637 216:0.246515 217:0.00955333 218:0.459302 219:0.0445433 220:0.0153798 221:0.464221 222:0.00700074 223:0.343678 224:0.0206613 225:0.139409 226:0.331532 227:0.0490476 228:0.115671 229:0.068188 230:0.23654 231:0.183395 232:0.0768947 233:0.296219 234:0.138763 235:0.074684 236:0.37958 237:0.0446368 238:0.114273 239:0.320169 240:0.0666581 241:0.237601 242:0.0366771 243:0.146425 244:0.264419 245:0.118952 246:0.195926 247:0.143117 248:0.13288 249:0.167796 250:0.163158 251:0.239911 252:0.153139 253:0.154071 254:0.245279 255:0.0997478 256:0.173989 257:0.232785 258:0.0941279 259:0.125724 260:0.238392 261:0.0474885 262:0.168988 263:0.22975 264:0.189658 265:0.0814583 266:0.242456 267:0.127071 268:0.134571 269:0.319979 270:0.0944652 271:0.12103 272:0.213229 273:0.168074 274:0.173904 275:0.129619 276:0.194143 277:0.0842749 278:0.248035 279:0.141735 280:0.0876407 281:0.296749 282:0.141565 283:0.195438 284:0.146182 285:0.141264 286:0.185742 287:0.290841 288:0.0405335 289:0.0129328 290:0.451689 291:0.0362852 292:0.0616656 293:0.431035 294:0.00639273 295:0.279336 296:0.022258 297:0.083307 298:0.389465 299:0.022614 300:0.20302 301:0.0986468 302:0.277835 303:0.0487706 304:0.247399 305:0.219423 306:0.107926 307:0.0436247 308:0.390805 309:0.0668064 310:0.0248362 311:0.417852 312:0.0560755 313:0.271523 314:0.0911116 315:0.0995902 316:0.336107 317:0.0728269 318:0.128841 319:0.0594837 320:0.2651 321:0.0524135 322:0.219628 323:0.288641 324:0.114735 325:0.045107 326:0.388872 327:0.0614972 328:0.0621532 329:0.316173 330:0.126198 331:0.245861 332:0.210732 333:0.0395734 334:0.230038 335:0.230145 336:0.0436508 337:0.0840502 338:0.272937 339:0.102231 340:0.0501633 341:0.413395 342:0.0772233 343:0.192052 344:0.254776 345:0.0487333 346:0.247218 347:0.191362 348:0.0658591 349:0.11417 350:0.206933 351:0.148591 352:0.137657 353:0.253061 354:0.139588 355:0.0613563 356:0.161386 357:0.262352 358:0.037395 359:0.302043 360:0.175468 361:0 362:0.462342 363:0.0315037 364:0.022013 365:0.474371 366:0.00976987 367:0.369273 368:0.00605572 369:0.0979714 370:0.394799 371:0.0133044 372:0.118597 373:0.132017 374:0.208691 375:0.112272 376:0.211461 377:0.266659 378:0.0689 379:0.00391113 380:0.475847 381:0.0215934 382:0.0181094 383:0.475756 384:0.00478366 385:0.377604 386:0.00154345 387:0.0740576 388:0.410365 389:0.0227481 390:0.113682 391:0.106754 392:0.217397 393:0.0828506 394:0.247127 395:0.219218 396:0.126653 397:0.0397087 398:0.45944 399:0.0239153 400:0.00351157 401:0.466442 402:0.00698264 403:0.264815 404:0.013166 405:0.184116 406:0.289811 407:0.0156296 408:0.232462 409:0.121708 410:0.177124 411:0.170249 412:0.159898 413:0.167243 414:0.203779 415:0.107881 416:0.2938 417:0.0817188 418:0.159461 419:0.260632 420:0.0965081 421:0.158711 422:0.0405245 423:0.243003 424:0.215496 425:0.0631948 426:0.279071 427:0.154946 428:0.0884482 429:0.248079 430:0.138152 431:0.166173 432:0.204202 433:0.0754349 434:0.355932 435:0.0677118 436:0.0616657 437:0.399921 438:0.0393348 439:0.294407 440:0.049661 441:0.0963864 442:0.349339 443:0.0442093 444:0.165998 445:0.061488 446:0.247891 447:0.115311 448:0.13048 449:0.2326 450:0.212229 451:0.105258 452:0.280894 453:0.130228 454:0.0748103 455:0.303006 456:0.105803 457:0.22064 458:0.0998832 459:0.162254 460:0.251982 461:0.0658512 462:0.199391 463:0.190268 464:0.103647 465:0.216413 466:0.177309 467:0.161134 468:0.15123 469:0.0730216 470:0.206163 471:0.22393 472:0.102353 473:0.167675 474:0.226857 475:0.224645 476:0.109063 477:0.163538 478:0.22604 479:0.0930309 480:0.183683 481:0.193208 482:0.0823997 483:0.230252 484:0.181257 485:0.137738 486:0.175144 487:0.0436326 488:0.227502 489:0.214086 490:0.108326 491:0.138495 492:0.267958 493:0.227022 494:0.112729 495:0.175982 496:0.193182 497:0.102159 498:0.188926 499:0.223437 500:0.0554766 501:0.256845 502:0.17729 503:0.137427 504:0.149524 505:0.0532861 506:0.393522 507:0.0560507 508:0.0385077 509:0.439276 510:0.0193573 511:0.254623 512:0.0249021 513:0.158606 514:0.321529 515:0.0262031 516:0.214138 517:0.162114 518:0.235808 519:0.060819 520:0.226325 521:0.224593 522:0.0903405 523:0.100835 524:0.327406 525:0.0729324 526:0.0987 527:0.342535 528:0.057592 529:0.136404 530:0.107816 531:0.236114 532:0.167042 533:0.0544596 534:0.298163 535:0.0873015 536:0.251144 537:0.163005 538:0.10845 539:0.23063 540:0.159469 541:0.22822 542:0.168544 543:0.100518 544:0.25194 545:0.131844 546:0.118933 547:0.182242 548:0.113997 549:0.189729 550:0.243982 551:0.0292691 552:0.240781 553:0.192569 554:0.0389527 555:0.275569 556:0.194962 557:0.0628526 558:0.235094 559:0.23589 560:0.171203 561:0.09414 562:0.262673 563:0.123214 564:0.11288 565:0.173143 566:0.103753 567:0.211546 568:0.216542 569:0.0642302 570:0.230786 571:0.178591 572:0.0415546 573:0.281772 574:0.162804 575:0.0887637 576:0.246515 577:0.00955333 578:0.459302 579:0.0445433 580:0.0153798 581:0.464221 582:0.00700074 583:0.343678 584:0.0206613 585:0.139409 586:0.331532 587:0.0490476 588:0.115671 589:0.068188 590:0.23654 591:0.183395 592:0.0768947 593:0.296219 594:0.138763 595:0.074684 596:0.37958 597:0.0446368 598:0.114273 599:0.320169 600:0.0666581 601:0.237601 602:0.0366771 603:0.146425 604:0.264419 605:0.118952 606:0.195926 607:0.143117 608:0.13288 609:0.167796 610:0.163158 611:0.239911 612:0.153139 613:0.154071 614:0.245279 615:0.0997478 616:0.173989 617:0.232785 618:0.0941279 619:0.125724 620:0.238392 621:0.0474885 622:0.168988 623:0.22975 624:0.189658 625:0.0814583 626:0.242456 627:0.127071 628:0.134571 629:0.319979 630:0.0944652 631:0.12103 632:0.213229 633:0.168074 634:0.173904 635:0.129619 636:0.194143 637:0.0842749 638:0.248035 639:0.141735 640:0.0876407 641:0.296749 642:0.141565 643:0.195438 644:0.146182 645:0.141264 646:0.185742 647:0.290841 648:0.0405335 649:0.0129328 650:0.451689 651:0.0362852 652:0.0616656 653:0.431035 654:0.00639273 655:0.279336 656:0.022258 657:0.083307 658:0.389465 659:0.022614 660:0.20302 661:0.0986468 662:0.277835 663:0.0487706 664:0.247399 665:0.219423 666:0.107926 667:0.0436247 668:0.390805 669:0.0668064 670:0.0248362 671:0.417852 672:0.0560755 673:0.271523 674:0.0911116 675:0.0995902 676:0.336107 677:0.0728269 678:0.128841 679:0.0594837 680:0.2651 681:0.0524135 682:0.219628 683:0.288641 684:0.114735 685:0.045107 686:0.388872 687:0.0614972 688:0.0621532 689:0.316173 690:0.126198 691:0.245861 692:0.210732 693:0.0395734 694:0.230038 695:0.230145 696:0.0436508 697:0.0840502 698:0.272937 699:0.102231 700:0.0501633 701:0.413395 702:0.0772233 703:0.192052 704:0.254776 705:0.0487333 706:0.247218 707:0.191362 708:0.0658591 709:0.11417 710:0.206933 711:0.148591 712:0.137657 713:0.253061 714:0.139588 715:0.0613563 716:0.161386 717:0.262352 718:0.037395 719:0.302043 720:0.175468 721:0 722:0.462342 723:0.0315037 724:0.022013 725:0.474371 726:0.00976987 727:0.369273 728:0.00605572 729:0.0979714 730:0.394799 731:0.0133044 732:0.118597 733:0.132017 734:0.208691 735:0.112272 736:0.211461 737:0.266659 738:0.0689 739:0.00391113 740:0.475847 741:0.0215934 742:0.0181094 743:0.475756 744:0.00478366 745:0.377604 746:0.00154345 747:0.0740576 748:0.410365 749:0.0227481 750:0.113682 751:0.106754 752:0.217397 753:0.0828506 754:0.247127 755:0.219218 756:0.126653 757:0.0397087 758:0.45944 759:0.0239153 760:0.00351157 761:0.466442 762:0.00698264 763:0.264815 764:0.013166 765:0.184116 766:0.289811 767:0.0156296 768:0.232462 769:0.121708 770:0.177124 771:0.170249 772:0.159898 773:0.167243 774:0.203779 775:0.107881 776:0.2938 777:0.0817188 778:0.159461 779:0.260632 780:0.0965081 781:0.158711 782:0.0405245 783:0.243003 784:0.215496 785:0.0631948 786:0.279071 787:0.154946 788:0.0884482 789:0.248079 790:0.138152 791:0.166173 792:0.204202 793:0.0754349 794:0.355932 795:0.0677118 796:0.0616657 797:0.399921 798:0.0393348 799:0.294407 800:0.049661 801:0.0963864 802:0.349339 803:0.0442093 804:0.165998 805:0.061488 806:0.247891 807:0.115311 808:0.13048 809:0.2326 810:0.212229 811:0.105258 812:0.280894 813:0.130228 814:0.0748103 815:0.303006 816:0.105803 817:0.22064 818:0.0998832 819:0.162254 820:0.251982 821:0.0658512 822:0.199391 823:0.190268 824:0.103647 825:0.216413 826:0.177309 827:0.161134 828:0.15123 829:0.0730216 830:0.206163 831:0.22393 832:0.102353 833:0.167675 834:0.226857 835:0.224645 836:0.109063 837:0.163538 838:0.22604 839:0.0930309 840:0.183683 841:0.193208 842:0.0823997 843:0.230252 844:0.181257 845:0.137738 846:0.175144 847:0.0436326 848:0.227502 849:0.214086 850:0.108326 851:0.138495 852:0.267958 853:0.227022 854:0.112729 855:0.175982 856:0.193182 857:0.102159 858:0.188926 859:0.223437 860:0.0554766 861:0.256845 862:0.17729 863:0.137427 864:0.149524 865:0.0532861 866:0.393522 867:0.0560507 868:0.0385077 869:0.439276 870:0.0193573 871:0.254623 872:0.0249021 873:0.158606 874:0.321529 875:0.0262031 876:0.214138 877:0.162114 878:0.235808 879:0.060819 880:0.226325 881:0.224593 882:0.0903405 883:0.100835 884:0.327406 885:0.0729324 886:0.0987 887:0.342535 888:0.057592 889:0.136404 890:0.107816 891:0.236114 892:0.167042 893:0.0544596 894:0.298163 895:0.0873015 896:0.251144 897:0.163005 898:0.10845 899:0.23063 900:0.159469 901:0.22822 902:0.168544 903:0.100518 904:0.25194 905:0.131844 906:0.118933 907:0.182242 908:0.113997 909:0.189729 910:0.243982 911:0.0292691 912:0.240781 913:0.192569 914:0.0389527 915:0.275569 916:0.194962 917:0.0628526 918:0.235094 919:0.23589 920:0.171203 921:0.09414 922:0.262673 923:0.123214 924:0.11288 925:0.173143 926:0.103753 927:0.211546 928:0.216542 929:0.0642302 930:0.230786 931:0.178591 932:0.0415546 933:0.281772 934:0.162804 935:0.0887637 936:0.246515 937:0.00955333 938:0.459302 939:0.0445433 940:0.0153798 941:0.464221 942:0.00700074 943:0.343678 944:0.0206613 945:0.139409 946:0.331532 947:0.0490476 948:0.115671 949:0.068188 950:0.23654 951:0.183395 952:0.0768947 953:0.296219 954:0.138763 955:0.074684 956:0.37958 957:0.0446368 958:0.114273 959:0.320169 960:0.0666581 961:0.237601 962:0.0366771 963:0.146425 964:0.264419 965:0.118952 966:0.195926 967:0.143117 968:0.13288 969:0.167796 970:0.163158 971:0.239911 972:0.153139 973:0.154071 974:0.245279 975:0.0997478 976:0.173989 977:0.232785 978:0.0941279 979:0.125724 980:0.238392 981:0.0474885 982:0.168988 983:0.22975 984:0.189658 985:0.0814583 986:0.242456 987:0.127071 988:0.134571 989:0.319979 990:0.0944652 991:0.12103 992:0.213229 993:0.168074 994:0.173904 995:0.129619 996:0.194143 997:0.0842749 998:0.248035 999:0.141735 1000:0.0876407 1001:0.296749 1002:0.141565 1003:0.195438 1004:0.146182 1005:0.141264 1006:0.185742 1007:0.290841 1008:0.0405335 1009:0.0129328 1010:0.451689 1011:0.0362852 1012:0.0616656 1013:0.431035 1014:0.00639273 1015:0.279336 1016:0.022258 1017:0.083307 1018:0.389465 1019:0.022614 1020:0.20302 1021:0.0986468 1022:0.277835 1023:0.0487706 1024:0.247399 1025:0.219423 1026:0.107926 1027:0.0436247 1028:0.390805 1029:0.0668064 1030:0.0248362 1031:0.417852 1032:0.0560755 1033:0.271523 1034:0.0911116 1035:0.0995902 1036:0.336107 1037:0.0728269 1038:0.128841 1039:0.0594837 1040:0.2651 1041:0.0524135 1042:0.219628 1043:0.288641 1044:0.114735 1045:0.045107 1046:0.388872 1047:0.0614972 1048:0.0621532 1049:0.316173 1050:0.126198 1051:0.245861 1052:0.210732 1053:0.0395734 1054:0.230038 1055:0.230145 1056:0.0436508 1057:0.0840502 1058:0.272937 1059:0.102231 1060:0.0501633 1061:0.413395 1062:0.0772233 1063:0.192052 1064:0.254776 1065:0.0487333 1066:0.247218 1067:0.191362 1068:0.0658591 1069:0.11417 1070:0.206933 1071:0.148591 1072:0.137657 1073:0.253061 1074:0.139588 1075:0.0613563 1076:0.161386 1077:0.262352 1078:0.037395 1079:0.302043 1080:0.175468 1081:0 1082:0.462342 1083:0.0315037 1084:0.022013 1085:0.474371 1086:0.00976987 1087:0.369273 1088:0.00605572 1089:0.0979714 1090:0.394799 1091:0.0133044 1092:0.118597 1093:0.132017 1094:0.208691 1095:0.112272 1096:0.211461 1097:0.266659 1098:0.0689 1099:0.00391113 1100:0.475847 1101:0.0215934 1102:0.0181094 1103:0.475756 1104:0.00478366 1105:0.377604 1106:0.00154345 1107:0.0740576 1108:0.410365 1109:0.0227481 1110:0.113682 1111:0.106754 1112:0.217397 1113:0.0828506 1114:0.247127 1115:0.219218 1116:0.126653 1117:0.0397087 1118:0.45944 1119:0.0239153 1120:0.00351157 1121:0.466442 1122:0.00698264 1123:0.264815 1124:0.013166 1125:0.184116 1126:0.289811 1127:0.0156296 1128:0.232462 1129:0.121708 1130:0.177124 1131:0.170249 1132:0.159898 1133:0.167243 1134:0.203779 1135:0.107881 1136:0.2938 1137:0.0817188 1138:0.159461 1139:0.260632 1140:0.0965081 1141:0.158711 1142:0.0405245 1143:0.243003 1144:0.215496 1145:0.0631948 1146:0.279071 1147:0.154946 1148:0.0884482 1149:0.248079 1150:0.138152 1151:0.166173 1152:0.204202 1153:0.0754349 1154:0.355932 1155:0.0677118 1156:0.0616657 1157:0.399921 1158:0.0393348 1159:0.294407 1160:0.049661 1161:0.0963864 1162:0.349339 1163:0.0442093 1164:0.165998 1165:0.061488 1166:0.247891 1167:0.115311 1168:0.13048 1169:0.2326 1170:0.212229 1171:0.105258 1172:0.280894 1173:0.130228 1174:0.0748103 1175:0.303006 1176:0.105803 1177:0.22064 1178:0.0998832 1179:0.162254 1180:0.251982 1181:0.0658512 1182:0.199391 1183:0.190268 1184:0.103647 1185:0.216413 1186:0.177309 1187:0.161134 1188:0.15123 1189:0.0730216 1190:0.206163 1191:0.22393 1192:0.102353 1193:0.167675 1194:0.226857 1195:0.224645 1196:0.109063 1197:0.163538 1198:0.22604 1199:0.0930309 1200:0.183683 1201:0.193208 1202:0.0823997 1203:0.230252 1204:0.181257 1205:0.137738 1206:0.175144 1207:0.0436326 1208:0.227502 1209:0.214086 1210:0.108326 1211:0.138495 1212:0.267958 1213:0.227022 1214:0.112729 1215:0.175982 1216:0.193182 1217:0.102159 1218:0.188926 1219:0.223437 1220:0.0554766 1221:0.256845 1222:0.17729 1223:0.137427 1224:0.149524 1225:0.0532861 1226:0.393522 1227:0.0560507 1228:0.0385077 1229:0.439276 1230:0.0193573 1231:0.254623 1232:0.0249021 1233:0.158606 1234:0.321529 1235:0.0262031 1236:0.214138 1237:0.162114 1238:0.235808 1239:0.060819 1240:0.226325 1241:0.224593 1242:0.0903405 1243:0.100835 1244:0.327406 1245:0.0729324 1246:0.0987 1247:0.342535 1248:0.057592 1249:0.136404 1250:0.107816 1251:0.236114 1252:0.167042 1253:0.0544596 1254:0.298163 1255:0.0873015 1256:0.251144 1257:0.163005 1258:0.10845 1259:0.23063 1260:0.159469 1261:0.22822 1262:0.168544 1263:0.100518 1264:0.25194 1265:0.131844 1266:0.118933 1267:0.182242 1268:0.113997 1269:0.189729 1270:0.243982 1271:0.0292691 1272:0.240781 1273:0.192569 1274:0.0389527 1275:0.275569 1276:0.194962 1277:0.0628526 1278:0.235094 1279:0.23589 1280:0.171203 1281:0.09414 1282:0.262673 1283:0.123214 1284:0.11288 1285:0.173143 1286:0.103753 1287:0.211546 1288:0.216542 1289:0.0642302 1290:0.230786 1291:0.178591 1292:0.0415546 1293:0.281772 1294:0.162804 1295:0.0887637 1296:0.246515 1297:0.00955333 1298:0.459302 1299:0.0445433 1300:0.0153798 1301:0.464221 1302:0.00700074 1303:0.343678 1304:0.0206613 1305:0.139409 1306:0.331532 1307:0.0490476 1308:0.115671 1309:0.068188 1310:0.23654 1311:0.183395 1312:0.0768947 1313:0.296219 1314:0.138763 1315:0.074684 1316:0.37958 1317:0.0446368 1318:0.114273 1319:0.320169 1320:0.0666581 1321:0.237601 1322:0.0366771 1323:0.146425 1324:0.264419 1325:0.118952 1326:0.195926 1327:0.143117 1328:0.13288 1329:0.167796 1330:0.163158 1331:0.239911 1332:0.153139 1333:0.154071 1334:0.245279 1335:0.0997478 1336:0.173989 1337:0.232785 1338:0.0941279 1339:0.125724 1340:0.238392 1341:0.0474885 1342:0.168988 1343:0.22975 1344:0.189658 1345:0.0814583 1346:0.242456 1347:0.127071 1348:0.134571 1349:0.319979 1350:0.0944652 1351:0.12103 1352:0.213229 1353:0.168074 1354:0.173904 1355:0.129619 1356:0.194143 1357:0.0842749 1358:0.248035 1359:0.141735 1360:0.0876407 1361:0.296749 1362:0.141565 1363:0.195438 1364:0.146182 1365:0.141264 1366:0.185742 1367:0.290841 1368:0.0405335 1369:0.0129328 1370:0.451689 1371:0.0362852 1372:0.0616656 1373:0.431035 1374:0.00639273 1375:0.279336 1376:0.022258 1377:0.083307 1378:0.389465 1379:0.022614 1380:0.20302 1381:0.0986468 1382:0.277835 1383:0.0487706 1384:0.247399 1385:0.219423 1386:0.107926 1387:0.0436247 1388:0.390805 1389:0.0668064 1390:0.0248362 1391:0.417852 1392:0.0560755 1393:0.271523 1394:0.0911116 1395:0.0995902 1396:0.336107 1397:0.0728269 1398:0.128841 1399:0.0594837 1400:0.2651 1401:0.0524135 1402:0.219628 1403:0.288641 1404:0.114735 1405:0.045107 1406:0.388872 1407:0.0614972 1408:0.0621532 1409:0.316173 1410:0.126198 1411:0.245861 1412:0.210732 1413:0.0395734 1414:0.230038 1415:0.230145 1416:0.0436508 1417:0.0840502 1418:0.272937 1419:0.102231 1420:0.0501633 1421:0.413395 1422:0.0772233 1423:0.192052 1424:0.254776 1425:0.0487333 1426:0.247218 1427:0.191362 1428:0.0658591 1429:0.11417 1430:0.206933 1431:0.148591 1432:0.137657 1433:0.253061 1434:0.139588 1435:0.0613563 1436:0.161386 1437:0.262352 1438:0.037395 1439:0.302043 1440:0.175468 1441:0 1442:0.462342 1443:0.0315037 1444:0.022013 1445:0.474371 1446:0.00976987 1447:0.369273 1448:0.00605572 1449:0.0979714 1450:0.394799 1451:0.0133044 1452:0.118597 1453:0.132017 1454:0.208691 1455:0.112272 1456:0.211461 1457:0.266659 1458:0.0689 1459:0.00391113 1460:0.475847 1461:0.0215934 1462:0.0181094 1463:0.475756 1464:0.00478366 1465:0.377604 1466:0.00154345 1467:0.0740576 1468:0.410365 1469:0.0227481 1470:0.113682 1471:0.106754 1472:0.217397 1473:0.0828506 1474:0.247127 1475:0.219218 1476:0.126653 1477:0.0397087 1478:0.45944 1479:0.0239153 1480:0.00351157 1481:0.466442 1482:0.00698264 1483:0.264815 1484:0.013166 1485:0.184116 1486:0.289811 1487:0.0156296 1488:0.232462 1489:0.121708 1490:0.177124 1491:0.170249 1492:0.159898 1493:0.167243 1494:0.203779 1495:0.107881 1496:0.2938 1497:0.0817188 1498:0.159461 1499:0.260632 1500:0.0965081 1501:0.158711 1502:0.0405245 1503:0.243003 1504:0.215496 1505:0.0631948 1506:0.279071 1507:0.154946 1508:0.0884482 1509:0.248079 1510:0.138152 1511:0.166173 1512:0.204202 1513:0.0754349 1514:0.355932 1515:0.0677118 1516:0.0616657 1517:0.399921 1518:0.0393348 1519:0.294407 1520:0.049661 1521:0.0963864 1522:0.349339 1523:0.0442093 1524:0.165998 1525:0.061488 1526:0.247891 1527:0.115311 1528:0.13048 1529:0.2326 1530:0.212229 1531:0.105258 1532:0.280894 1533:0.130228 1534:0.0748103 1535:0.303006 1536:0.105803 1537:0.22064 1538:0.0998832 1539:0.162254 1540:0.251982 1541:0.0658512 1542:0.199391 1543:0.190268 1544:0.103647 1545:0.216413 1546:0.177309 1547:0.161134 1548:0.15123 1549:0.0730216 1550:0.206163 1551:0.22393 1552:0.102353 1553:0.167675 1554:0.226857 1555:0.224645 1556:0.109063 1557:0.163538 1558:0.22604 1559:0.0930309 1560:0.183683 1561:0.193208 1562:0.0823997 1563:0.230252 1564:0.181257 1565:0.137738 1566:0.175144 1567:0.0436326 1568:0.227502 1569:0.214086 1570:0.108326 1571:0.138495 1572:0.267958 1573:0.227022 1574:0.112729 1575:0.175982 1576:0.193182 1577:0.102159 1578:0.188926 1579:0.223437 1580:0.0554766 1581:0.256845 1582:0.17729 1583:0.137427 1584:0.149524 1585:0.0532861 1586:0.393522 1587:0.0560507 1588:0.0385077 1589:0.439276 1590:0.0193573 1591:0.254623 1592:0.0249021 1593:0.158606 1594:0.321529 1595:0.0262031 1596:0.214138 1597:0.162114 1598:0.235808 1599:0.060819 1600:0.226325 1601:0.224593 1602:0.0903405 1603:0.100835 1604:0.327406 1605:0.0729324 1606:0.0987 1607:0.342535 1608:0.057592 1609:0.136404 1610:0.107816 1611:0.236114 1612:0.167042 1613:0.0544596 1614:0.298163 1615:0.0873015 1616:0.251144 1617:0.163005 1618:0.10845 1619:0.23063 1620:0.159469 1621:0.22822 1622:0.168544 1623:0.100518 1624:0.25194 1625:0.131844 1626:0.118933 1627:0.182242 1628:0.113997 1629:0.189729 1630:0.243982 1631:0.0292691 1632:0.240781 1633:0.192569 1634:0.0389527 1635:0.275569 1636:0.194962 1637:0.0628526 1638:0.235094 1639:0.23589 1640:0.171203 1641:0.09414 1642:0.262673 1643:0.123214 1644:0.11288 1645:0.173143 1646:0.103753 1647:0.211546 1648:0.216542 1649:0.0642302 1650:0.230786 1651:0.178591 1652:0.0415546 1653:0.281772 1654:0.162804 1655:0.0887637 1656:0.246515 1657:0.00955333 1658:0.459302 1659:0.0445433 1660:0.0153798 1661:0.464221 1662:0.00700074 1663:0.343678 1664:0.0206613 1665:0.139409 1666:0.331532 1667:0.0490476 1668:0.115671 1669:0.068188 1670:0.23654 1671:0.183395 1672:0.0768947 1673:0.296219 1674:0.138763 1675:0.074684 1676:0.37958 1677:0.0446368 1678:0.114273 1679:0.320169 1680:0.0666581 1681:0.237601 1682:0.0366771 1683:0.146425 1684:0.264419 1685:0.118952 1686:0.195926 1687:0.143117 1688:0.13288 1689:0.167796 1690:0.163158 1691:0.239911 1692:0.153139 1693:0.154071 1694:0.245279 1695:0.0997478 1696:0.173989 1697:0.232785 1698:0.0941279 1699:0.125724 1700:0.238392 1701:0.0474885 1702:0.168988 1703:0.22975 1704:0.189658 1705:0.0814583 1706:0.242456 1707:0.127071 1708:0.134571 1709:0.319979 1710:0.0944652 1711:0.12103 1712:0.213229 1713:0.168074 1714:0.173904 1715:0.129619 1716:0.194143 1717:0.0842749 1718:0.248035 1719:0.141735 1720:0.0876407 1721:0.296749 1722:0.141565 1723:0.195438 1724:0.146182 1725:0.141264 1726:0.185742 1727:0.290841 1728:0.0405335 1729:0.0129328 1730:0.451689 1731:0.0362852 1732:0.0616656 1733:0.431035 1734:0.00639273 1735:0.279336 1736:0.022258 1737:0.083307 1738:0.389465 1739:0.022614 1740:0.20302 1741:0.0986468 1742:0.277835 1743:0.0487706 1744:0.247399 1745:0.219423 1746:0.107926 1747:0.0436247 1748:0.390805 1749:0.0668064 1750:0.0248362 1751:0.417852 1752:0.0560755 1753:0.271523 1754:0.0911116 1755:0.0995902 1756:0.336107 1757:0.0728269 1758:0.128841 1759:0.0594837 1760:0.2651 1761:0.0524135 1762:0.219628 1763:0.288641 1764:0.114735 1765:0.045107 1766:0.388872 1767:0.0614972 1768:0.0621532 1769:0.316173 1770:0.126198 1771:0.245861 1772:0.210732 1773:0.0395734 1774:0.230038 1775:0.230145 1776:0.0436508 1777:0.0840502 1778:0.272937 1779:0.102231 1780:0.0501633 1781:0.413395 1782:0.0772233 1783:0.192052 1784:0.254776 1785:0.0487333 1786:0.247218 1787:0.191362 1788:0.0658591 1789:0.11417 1790:0.206933 1791:0.148591 1792:0.137657 1793:0.253061 1794:0.139588 1795:0.0613563 1796:0.161386 1797:0.262352 1798:0.037395 1799:0.302043 1800:0.175468 1801:0 1802:0.462342 1803:0.0315037 1804:0.022013 1805:0.474371 1806:0.00976987 1807:0.369273 1808:0.00605572 1809:0.0979714 1810:0.394799 1811:0.0133044 1812:0.118597 1813:0.132017 1814:0.208691 1815:0.112272 1816:0.211461 1817:0.266659 1818:0.0689 1819:0.00391113 1820:0.475847 1821:0.0215934 1822:0.0181094 1823:0.475756 1824:0.00478366 1825:0.377604 1826:0.00154345 1827:0.0740576 1828:0.410365 1829:0.0227481 1830:0.113682 1831:0.106754 1832:0.217397 1833:0.0828506 1834:0.247127 1835:0.219218 1836:0.126653 1837:0.0397087 1838:0.45944 1839:0.0239153 1840:0.00351157 1841:0.466442 1842:0.00698264 1843:0.264815 1844:0.013166 1845:0.184116 1846:0.289811 1847:0.0156296 1848:0.232462 1849:0.121708 1850:0.177124 1851:0.170249 1852:0.159898 1853:0.167243 1854:0.203779 1855:0.107881 1856:0.2938 1857:0.0817188 1858:0.159461 1859:0.260632 1860:0.0965081 1861:0.158711 1862:0.0405245 1863:0.243003 1864:0.215496 1865:0.0631948 1866:0.279071 1867:0.154946 1868:0.0884482 1869:0.248079 1870:0.138152 1871:0.166173 1872:0.204202 1873:0.0754349 1874:0.355932 1875:0.0677118 1876:0.0616657 1877:0.399921 1878:0.0393348 1879:0.294407 1880:0.049661 1881:0.0963864 1882:0.349339 1883:0.0442093 1884:0.165998 1885:0.061488 1886:0.247891 1887:0.115311 1888:0.13048 1889:0.2326 1890:0.212229 1891:0.105258 1892:0.280894 1893:0.130228 1894:0.0748103 1895:0.303006 1896:0.105803 1897:0.22064 1898:0.0998832 1899:0.162254 1900:0.251982 1901:0.0658512 1902:0.199391 1903:0.190268 1904:0.103647 1905:0.216413 1906:0.177309 1907:0.161134 1908:0.15123 1909:0.0730216 1910:0.206163 1911:0.22393 1912:0.102353 1913:0.167675 1914:0.226857 1915:0.224645 1916:0.109063 1917:0.163538 1918:0.22604 1919:0.0930309 1920:0.183683 1921:0.193208 1922:0.0823997 1923:0.230252 1924:0.181257 1925:0.137738 1926:0.175144 1927:0.0436326 1928:0.227502 1929:0.214086 1930:0.108326 1931:0.138495 1932:0.267958 1933:0.227022 1934:0.112729 1935:0.175982 1936:0.193182 1937:0.102159 1938:0.188926 1939:0.223437 1940:0.0554766 1941:0.256845 1942:0.17729 1943:0.137427 1944:0.149524 1945:0.0532861 1946:0.393522 1947:0.0560507 1948:0.0385077 1949:0.439276 1950:0.0193573 1951:0.254623 1952:0.0249021 1953:0.158606 1954:0.321529 1955:0.0262031 1956:0.214138 1957:0.162114 1958:0.235808 1959:0.060819 1960:0.226325 1961:0.224593 1962:0.0903405 1963:0.100835 1964:0.327406 1965:0.0729324 1966:0.0987 1967:0.342535 1968:0.057592 1969:0.136404 1970:0.107816 1971:0.236114 1972:0.167042 1973:0.0544596 1974:0.298163 1975:0.0873015 1976:0.251144 1977:0.163005 1978:0.10845 1979:0.23063 1980:0.159469 1981:0.22822 1982:0.168544 1983:0.100518 1984:0.25194 1985:0.131844 1986:0.118933 1987:0.182242 1988:0.113997 1989:0.189729 1990:0.243982 1991:0.0292691 1992:0.240781 1993:0.192569 1994:0.0389527 1995:0.275569 1996:0.194962 1997:0.0628526 1998:0.235094 1999:0.23589 2000:0.171203 2001:0.09414 2002:0.262673 2003:0.123214 2004:0.11288 2005:0.173143 2006:0.103753 2007:0.211546 2008:0.216542 2009:0.0642302 2010:0.230786 2011:0.178591 2012:0.0415546 2013:0.281772 2014:0.162804 2015:0.0887637 2016:0.246515 2017:0.00955333 2018:0.459302 2019:0.0445433 2020:0.0153798 2021:0.464221 2022:0.00700074 2023:0.343678 2024:0.0206613 2025:0.139409 2026:0.331532 2027:0.0490476 2028:0.115671 2029:0.068188 2030:0.23654 2031:0.183395 2032:0.0768947 2033:0.296219 2034:0.138763 2035:0.074684 2036:0.37958 2037:0.0446368 2038:0.114273 2039:0.320169 2040:0.0666581 2041:0.237601 2042:0.0366771 2043:0.146425 2044:0.264419 2045:0.118952 2046:0.195926 2047:0.143117 2048:0.13288 2049:0.167796 2050:0.163158 2051:0.239911 2052:0.153139 2053:0.154071 2054:0.245279 2055:0.0997478 2056:0.173989 2057:0.232785 2058:0.0941279 2059:0.125724 2060:0.238392 2061:0.0474885 2062:0.168988 2063:0.22975 2064:0.189658 2065:0.0814583 2066:0.242456 2067:0.127071 2068:0.134571 2069:0.319979 2070:0.0944652 2071:0.12103 2072:0.213229 2073:0.168074 2074:0.173904 2075:0.129619 2076:0.194143 2077:0.0842749 2078:0.248035 2079:0.141735 2080:0.0876407 2081:0.296749 2082:0.141565 2083:0.195438 2084:0.146182 2085:0.141264 2086:0.185742 2087:0.290841 2088:0.0405335 2089:0.0129328 2090:0.451689 2091:0.0362852 2092:0.0616656 2093:0.431035 2094:0.00639273 2095:0.279336 2096:0.022258 2097:0.083307 2098:0.389465 2099:0.022614 2100:0.20302 2101:0.0986468 2102:0.277835 2103:0.0487706 2104:0.247399 2105:0.219423 2106:0.107926 2107:0.0436247 2108:0.390805 2109:0.0668064 2110:0.0248362 2111:0.417852 2112:0.0560755 2113:0.271523 2114:0.0911116 2115:0.0995902 2116:0.336107 2117:0.0728269 2118:0.128841 2119:0.0594837 2120:0.2651 2121:0.0524135 2122:0.219628 2123:0.288641 2124:0.114735 2125:0.045107 2126:0.388872 2127:0.0614972 2128:0.0621532 2129:0.316173 2130:0.126198 2131:0.245861 2132:0.210732 2133:0.0395734 2134:0.230038 2135:0.230145 2136:0.0436508 2137:0.0840502 2138:0.272937 2139:0.102231 2140:0.0501633 2141:0.413395 2142:0.0772233 2143:0.192052 2144:0.254776 2145:0.0487333 2146:0.247218 2147:0.191362 2148:0.0658591 2149:0.11417 2150:0.206933 2151:0.148591 2152:0.137657 2153:0.253061 2154:0.139588 2155:0.0613563 2156:0.161386 2157:0.262352 2158:0.037395 2159:0.302043 2160:0.175468 2161:0 2162:0.462342 2163:0.0315037 2164:0.022013 2165:0.474371 2166:0.00976987 2167:0.369273 2168:0.00605572 2169:0.0979714 2170:0.394799 2171:0.0133044 2172:0.118597 2173:0.132017 2174:0.208691 2175:0.112272 2176:0.211461 2177:0.266659 2178:0.0689 2179:0.00391113 2180:0.475847 2181:0.0215934 2182:0.0181094 2183:0.475756 2184:0.00478366 2185:0.377604 2186:0.00154345 2187:0.0740576 2188:0.410365 2189:0.0227481 2190:0.113682 2191:0.106754 2192:0.217397 2193:0.0828506 2194:0.247127 2195:0.219218 2196:0.126653 2197:0.0397087 2198:0.45944 2199:0.0239153 2200:0.00351157 2201:0.466442 2202:0.00698264 2203:0.264815 2204:0.013166 2205:0.184116 2206:0.289811 2207:0.0156296 2208:0.232462 2209:0.121708 2210:0.177124 2211:0.170249 2212:0.159898 2213:0.167243 2214:0.203779 2215:0.107881 2216:0.2938 2217:0.0817188 2218:0.159461 2219:0.260632 2220:0.0965081 2221:0.158711 2222:0.0405245 2223:0.243003 2224:0.215496 2225:0.0631948 2226:0.279071 2227:0.154946 2228:0.0884482 2229:0.248079 2230:0.138152 2231:0.166173 2232:0.204202 2233:0.0754349 2234:0.355932 2235:0.0677118 2236:0.0616657 2237:0.399921 2238:0.0393348 2239:0.294407 2240:0.049661 2241:0.0963864 2242:0.349339 2243:0.0442093 2244:0.165998 2245:0.061488 2246:0.247891 2247:0.115311 2248:0.13048 2249:0.2326 2250:0.212229 2251:0.105258 2252:0.280894 2253:0.130228 2254:0.0748103 2255:0.303006 2256:0.105803 2257:0.22064 2258:0.0998832 2259:0.162254 2260:0.251982 2261:0.0658512 2262:0.199391 2263:0.190268 2264:0.103647 2265:0.216413 2266:0.177309 2267:0.161134 2268:0.15123 2269:0.0730216 2270:0.206163 2271:0.22393 2272:0.102353 2273:0.167675 2274:0.226857 2275:0.224645 2276:0.109063 2277:0.163538 2278:0.22604 2279:0.0930309 2280:0.183683 2281:0.193208 2282:0.0823997 2283:0.230252 2284:0.181257 2285:0.137738 2286:0.175144 2287:0.0436326 2288:0.227502 2289:0.214086 2290:0.108326 2291:0.138495 2292:0.267958 2293:0.227022 2294:0.112729 2295:0.175982 2296:0.193182 2297:0.102159 2298:0.188926 2299:0.223437 2300:0.0554766 2301:0.256845 2302:0.17729 2303:0.137427 2304:0.149524 2305:0.0532861 2306:0.393522 2307:0.0560507 2308:0.0385077 2309:0.439276 2310:0.0193573 2311:0.254623 2312:0.0249021 2313:0.158606 2314:0.321529 2315:0.0262031 2316:0.214138 2317:0.162114 2318:0.235808 2319:0.060819 2320:0.226325 2321:0.224593 2322:0.0903405 2323:0.100835 2324:0.327406 2325:0.0729324 2326:0.0987 2327:0.342535 2328:0.057592 2329:0.136404 2330:0.107816 2331:0.236114 2332:0.167042 2333:0.0544596 2334:0.298163 2335:0.0873015 2336:0.251144 2337:0.163005 2338:0.10845 2339:0.23063 2340:0.159469 2341:0.22822 2342:0.168544 2343:0.100518 2344:0.25194 2345:0.131844 2346:0.118933 2347:0.182242 2348:0.113997 2349:0.189729 2350:0.243982 2351:0.0292691 2352:0.240781 2353:0.192569 2354:0.0389527 2355:0.275569 2356:0.194962 2357:0.0628526 2358:0.235094 2359:0.23589 2360:0.171203 2361:0.09414 2362:0.262673 2363:0.123214 2364:0.11288 2365:0.173143 2366:0.103753 2367:0.211546 2368:0.216542 2369:0.0642302 2370:0.230786 2371:0.178591 2372:0.0415546 2373:0.281772 2374:0.162804 2375:0.0887637 2376:0.246515 2377:0.00955333 2378:0.459302 2379:0.0445433 2380:0.0153798 2381:0.464221 2382:0.00700074 2383:0.343678 2384:0.0206613 2385:0.139409 2386:0.331532 2387:0.0490476 2388:0.115671 2389:0.068188 2390:0.23654 2391:0.183395 2392:0.0768947 2393:0.296219 2394:0.138763 2395:0.074684 2396:0.37958 2397:0.0446368 2398:0.114273 2399:0.320169 2400:0.0666581 2401:0.237601 2402:0.0366771 2403:0.146425 2404:0.264419 2405:0.118952 2406:0.195926 2407:0.143117 2408:0.13288 2409:0.167796 2410:0.163158 2411:0.239911 2412:0.153139 2413:0.154071 2414:0.245279 2415:0.0997478 2416:0.173989 2417:0.232785 2418:0.0941279 2419:0.125724 2420:0.238392 2421:0.0474885 2422:0.168988 2423:0.22975 2424:0.189658 2425:0.0814583 2426:0.242456 2427:0.127071 2428:0.134571 2429:0.319979 2430:0.0944652 2431:0.12103 2432:0.213229 2433:0.168074 2434:0.173904 2435:0.129619 2436:0.194143 2437:0.0842749 2438:0.248035 2439:0.141735 2440:0.0876407 2441:0.296749 2442:0.141565 2443:0.195438 2444:0.146182 2445:0.141264 2446:0.185742 2447:0.290841 2448:0.0405335 2449:0.0129328 2450:0.451689 2451:0.0362852 2452:0.0616656 2453:0.431035 2454:0.00639273 2455:0.279336 2456:0.022258 2457:0.083307 2458:0.389465 2459:0.022614 2460:0.20302 2461:0.0986468 2462:0.277835 2463:0.0487706 2464:0.247399 2465:0.219423 2466:0.107926 2467:0.0436247 2468:0.390805 2469:0.0668064 2470:0.0248362 2471:0.417852 2472:0.0560755 2473:0.271523 2474:0.0911116 2475:0.0995902 2476:0.336107 2477:0.0728269 2478:0.128841 2479:0.0594837 2480:0.2651 2481:0.0524135 2482:0.219628 2483:0.288641 2484:0.114735 2485:0.045107 2486:0.388872 2487:0.0614972 2488:0.0621532 2489:0.316173 2490:0.126198 2491:0.245861 2492:0.210732 2493:0.0395734 2494:0.230038 2495:0.230145 2496:0.0436508 2497:0.0840502 2498:0.272937 2499:0.102231 2500:0.0501633 2501:0.413395 2502:0.0772233 2503:0.192052 2504:0.254776 2505:0.0487333 2506:0.247218 2507:0.191362 2508:0.0658591 2509:0.11417 2510:0.206933 2511:0.148591 2512:0.137657 2513:0.253061 2514:0.139588 2515:0.0613563 2516:0.161386 2517:0.262352 2518:0.037395 2519:0.302043 2520:0.175468 
1 1 1 1 1 1:0.23648 2:0.327093 3:0.085554 4:0.153643 5:0.189911 6:0.00731928 7:0.0933864 8:0.05246 9:0.16795 10:0.138095 11:0.084108 12:0.464 13:0.163835 14:0.117654 15:0.179131 16:0.143393 17:0.284973 18:0.111015 19:0.198095 20:0.399058 21:0.0717622 22:0.137529 23:0.193556 24:0 25:0.0809082 26:0.070968 27:0.14676 28:0.130918 29:0.140744 30:0.429702 31:0.144304 32:0.13862 33:0.14386 34:0.136142 35:0.372537 36:0.0645372 37:0.183742 38:0.409281 39:0.0450646 40:0.0380472 41:0.270345 42:0.0535202 43:0.0437812 44:0.100422 45:0.0418702 46:0.180727 47:0.322988 48:0.310212 49:0.00324295 50:0.164076 51:0.0347697 52:0.0825242 53:0.608728 54:0.106658 55:0.237543 56:0.346594 57:0.079215 58:0.118241 59:0.165679 60:0.0527281 61:0.0643594 62:0.122858 63:0.0943881 64:0.065059 65:0.463674 66:0.189662 67:0.020104 68:0.156805 69:0.0503921 70:0.0517637 71:0.684756 72:0.0361787 73:0.0342066 74:0.554341 75:0 76:0.0254299 77:0.352828 78:0.0331941 79:0.328739 80:0.0192237 81:0.0565101 82:0.284369 83:0.0966652 84:0.214493 85:0.0108509 86:0.199994 87:0.109242 88:0.0217027 89:0.598776 90:0.0594345 91:0.0894178 92:0.437538 93:0.0622832 94:0.156396 95:0.21941 96:0.0349548 97:0.0524978 98:0.00564099 99:0.221497 100:0.168423 101:0.0236238 102:0.528318 103:0.0458101 104:0.0158589 105:0.32697 106:0.182418 107:0.100511 108:0.328433 109:0.0483951 110:0.299937 111:0.256628 112:0.0278248 113:0.199628 114:0.167587 115:0.0989813 116:0.142573 117:0.265083 118:0.0170964 119:0.154244 120:0.322022 121:0.201876 122:0.232181 123:0.0700885 124:0.213682 125:0.255804 126:0.0263679 127:0.0278413 128:0.27243 129:0.281136 130:0.0448014 131:0.150519 132:0.223272 133:0.0886929 134:0.204386 135:0.196533 136:0.0253188 137:0.157897 138:0.327172 139:0.222647 140:0.239842 141:0.0398214 142:0.272532 143:0.208037 144:0.0171219 145:0.134565 146:0.435571 147:0.0521372 148:0.00891584 149:0.34938 150:0.0194317 151:0.351063 152:0.00742924 153:0.0139812 154:0.348036 155:0.0676656 156:0.211826 157:0.122726 158:0.0822019 159:0.106979 160:0.164086 161:0.37894 162:0.145067 163:0.0156148 164:0.553292 165:0.0388885 166:0.0163366 167:0.260968 168:0.1149 169:0.146973 170:0.00222298 171:0.248412 172:0.141381 173:0.0106828 174:0.450329 175:0.331007 176:0.0706029 177:0.042604 178:0.278252 179:0.119185 180:0.158348 181:0.286195 182:0.265325 183:0.0626774 184:0.207379 185:0.162253 186:0.0161702 187:0.164787 188:0.0982771 189:0.219878 190:0.100483 191:0.0428631 192:0.373711 193:0.0630334 194:0.0795356 195:0.337418 196:0.0551528 197:0.0639233 198:0.400937 199:0.339814 200:0.212611 201:0.0384611 202:0.283123 203:0.103547 204:0.022443 205:0.169592 206:0.120013 207:0.205975 208:0.098058 209:0.058658 210:0.347704 211:0.0668757 212:0.0355692 213:0.39305 214:0.0496367 215:0.050274 216:0.404594 217:0.180659 218:0.275602 219:0.112322 220:0.203226 221:0.16767 222:0.0605215 223:0.101267 224:0.106251 225:0.148243 226:0.120699 227:0.146276 228:0.377265 229:0.175327 230:0.165328 231:0.174317 232:0.134138 233:0.278785 234:0.0721054 235:0.0589133 236:0.317888 237:0.0404503 238:0.032911 239:0.483646 240:0.0661914 241:0.205071 242:0.159321 243:0.00730148 244:0.40399 245:0.206466 246:0.0178516 247:0.0244015 248:0.309025 249:0.0421809 250:0.0190051 251:0.582563 252:0.0228245 253:0.0447211 254:0.110213 255:0.314205 256:0.0304632 257:0.248207 258:0.252191 259:0.170877 260:0.0792388 261:0.288779 262:0.168962 263:0.176543 264:0.1156 265:0.32606 266:0.121569 267:0.0314531 268:0.351904 269:0.0817624 270:0.0872506 271:0.162735 272:0.0542349 273:0.311602 274:0.0458098 275:0.0430747 276:0.382544 277:0.0781877 278:0.334596 279:0.129412 280:0.0283423 281:0.392618 282:0.0368439 283:0.261024 284:0.2641 285:0.0247833 286:0.176507 287:0.235213 288:0.0383723 289:0.259843 290:0.280961 291:0.0785152 292:0.183848 293:0.193956 294:0.00287622 295:0.17066 296:0.0382685 297:0.189487 298:0.153182 299:0.140747 300:0.307655 301:0.196235 302:0.0660478 303:0.177383 304:0.236634 305:0.186722 306:0.136978 307:0.00523457 308:0.444847 309:0.0265103 310:0.028341 311:0.472858 312:0.0222086 313:0.375792 314:0.0662774 315:0.00590566 316:0.477844 317:0.0412194 318:0.0329616 319:0.0187349 320:0.390555 321:0 322:0.0676224 323:0.496593 324:0.0264951 325:0.262367 326:0.142042 327:0.0893947 328:0.121046 329:0.263553 330:0.121597 331:0.413243 332:0.0477196 333:0.23717 334:0.199053 335:0.0369407 336:0.0658739 337:0.177889 338:0.170822 339:0.233346 340:0.093627 341:0.07058 342:0.253736 343:0.222416 344:0.227079 345:0.0893216 346:0.158292 347:0.27108 348:0.0318106 349:0.178908 350:0.198779 351:0.141859 352:0.170403 353:0.178309 354:0.131742 355:0.118847 356:0.115294 357:0.248351 358:0.174784 359:0.0750971 360:0.267626 361:0.23648 362:0.327093 363:0.085554 364:0.153643 365:0.189911 366:0.00731928 367:0.0933864 368:0.05246 369:0.16795 370:0.138095 371:0.084108 372:0.464 373:0.163835 374:0.117654 375:0.179131 376:0.143393 377:0.284973 378:0.111015 379:0.198095 380:0.399058 381:0.0717622 382:0.137529 383:0.193556 384:0 385:0.0809082 386:0.070968 387:0.14676 388:0.130918 389:0.140744 390:0.429702 391:0.144304 392:0.13862 393:0.14386 394:0.136142 395:0.372537 396:0.0645372 397:0.183742 398:0.409281 399:0.0450646 400:0.0380472 401:0.270345 402:0.0535202 403:0.0437812 404:0.100422 405:0.0418702 406:0.180727 407:0.322988 408:0.310212 409:0.00324295 410:0.164076 411:0.0347697 412:0.0825242 413:0.608728 414:0.106658 415:0.237543 416:0.346594 417:0.079215 418:0.118241 419:0.165679 420:0.0527281 421:0.0643594 422:0.122858 423:0.0943881 424:0.065059 425:0.463674 426:0.189662 427:0.020104 428:0.156805 429:0.0503921 430:0.0517637 431:0.684756 432:0.0361787 433:0.0342066 434:0.554341 435:0 436:0.0254299 437:0.352828 438:0.0331941 439:0.328739 440:0.0192237 441:0.0565101 442:0.284369 443:0.0966652 444:0.214493 445:0.0108509 446:0.199994 447:0.109242 448:0.0217027 449:0.598776 450:0.0594345 451:0.0894178 452:0.437538 453:0.0622832 454:0.156396 455:0.21941 456:0.0349548 457:0.0524978 458:0.00564099 459:0.221497 460:0.168423 461:0.0236238 462:0.528318 463:0.0458101 464:0.0158589 465:0.32697 466:0.182418 467:0.100511 468:0.328433 469:0.0483951 470:0.299937 471:0.256628 472:0.0278248 473:0.199628 474:0.167587 475:0.0989813 476:0.142573 477:0.265083 478:0.0170964 479:0.154244 480:0.322022 481:0.201876 482:0.232181 483:0.0700885 484:0.213682 485:0.255804 486:0.0263679 487:0.0278413 488:0.27243 489:0.281136 490:0.0448014 491:0.150519 492:0.223272 493:0.0886929 494:0.204386 495:0.196533 496:0.0253188 497:0.157897 498:0.327172 499:0.222647 500:0.239842 501:0.0398214 502:0.272532 503:0.208037 504:0.0171219 505:0.134565 506:0.435571 507:0.0521372 508:0.00891584 509:0.34938 510:0.0194317 511:0.351063 512:0.00742924 513:0.0139812 514:0.348036 515:0.0676656 516:0.211826 517:0.122726 518:0.0822019 519:0.106979 520:0.164086 521:0.37894 522:0.145067 523:0.0156148 524:0.553292 525:0.0388885 526:0.0163366 527:0.260968 528:0.1149 529:0.146973 530:0.00222298 531:0.248412 532:0.141381 533:0.0106828 534:0.450329 535:0.331007 536:0.0706029 537:0.042604 538:0.278252 539:0.119185 540:0.158348 541:0.286195 542:0.265325 543:0.0626774 544:0.207379 545:0.162253 546:0.0161702 547:0.164787 548:0.0982771 549:0.219878 550:0.100483 551:0.0428631 552:0.373711 553:0.0630334 554:0.0795356 555:0.337418 556:0.0551528 557:0.0639233 558:0.400937 559:0.339814 560:0.212611 561:0.0384611 562:0.283123 563:0.103547 564:0.022443 565:0.169592 566:0.120013 567:0.205975 568:0.098058 569:0.058658 570:0.347704 571:0.0668757 572:0.0355692 573:0.39305 574:0.0496367 575:0.050274 576:0.404594 577:0.180659 578:0.275602 579:0.112322 580:0.203226 581:0.16767 582:0.0605215 583:0.101267 584:0.106251 585:0.148243 586:0.120699 587:0.146276 588:0.377265 589:0.175327 590:0.165328 591:0.174317 592:0.134138 593:0.278785 594:0.0721054 595:0.0589133 596:0.317888 597:0.0404503 598:0.032911 599:0.483646 600:0.0661914 601:0.205071 602:0.159321 603:0.00730148 604:0.40399 605:0.206466 606:0.0178516 607:0.0244015 608:0.309025 609:0.0421809 610:0.0190051 611:0.582563 612:0.0228245 613:0.0447211 614:0.110213 615:0.314205 616:0.0304632 617:0.248207 618:0.252191 619:0.170877 620:0.0792388 621:0.288779 622:0.168962 623:0.176543 624:0.1156 625:0.32606 626:0.121569 627:0.0314531 628:0.351904 629:0.0817624 630:0.0872506 631:0.162735 632:0.0542349 633:0.311602 634:0.0458098 635:0.0430747 636:0.382544 637:0.0781877 638:0.334596 639:0.129412 640:0.0283423 641:0.392618 642:0.0368439 643:0.261024 644:0.2641 645:0.0247833 646:0.176507 647:0.235213 648:0.0383723 649:0.259843 650:0.280961 651:0.0785152 652:0.183848 653:0.193956 654:0.00287622 655:0.17066 656:0.0382685 657:0.189487 658:0.153182 659:0.140747 660:0.307655 661:0.196235 662:0.0660478 663:0.177383 664:0.236634 665:0.186722 666:0.136978 667:0.00523457 668:0.444847 669:0.0265103 670:0.028341 671:0.472858 672:0.0222086 673:0.375792 674:0.0662774 675:0.00590566 676:0.477844 677:0.0412194 678:0.0329616 679:0.0187349 680:0.390555 681:0 682:0.0676224 683:0.496593 684:0.0264951 685:0.262367 686:0.142042 687:0.0893947 688:0.121046 689:0.263553 690:0.121597 691:0.413243 692:0.0477196 693:0.23717 694:0.199053 695:0.0369407 696:0.0658739 697:0.177889 698:0.170822 699:0.233346 700:0.093627 701:0.07058 702:0.253736 703:0.222416 704:0.227079 705:0.0893216 706:0.158292 707:0.27108 708:0.0318106 709:0.178908 710:0.198779 711:0.141859 712:0.170403 713:0.178309 714:0.131742 715:0.118847 716:0.115294 717:0.248351 718:0.174784 719:0.0750971 720:0.267626 721:0.23648 722:0.327093 723:0.085554 724:0.153643 725:0.189911 726:0.00731928 727:0.0933864 728:0.05246 729:0.16795 730:0.138095 731:0.084108 732:0.464 733:0.163835 734:0.117654 735:0.179131 736:0.143393 737:0.284973 738:0.111015 739:0.198095 740:0.399058 741:0.0717622 742:0.137529 743:0.193556 744:0 745:0.0809082 746:0.070968 747:0.14676 748:0.130918 749:0.140744 750:0.429702 751:0.144304 752:0.13862 753:0.14386 754:0.136142 755:0.372537 756:0.0645372 757:0.183742 758:0.409281 759:0.0450646 760:0.0380472 761:0.270345 762:0.0535202 763:0.0437812 764:0.100422 765:0.0418702 766:0.180727 767:0.322988 768:0.310212 769:0.00324295 770:0.164076 771:0.0347697 772:0.0825242 773:0.608728 774:0.106658 775:0.237543 776:0.346594 777:0.079215 778:0.118241 779:0.165679 780:0.0527281 781:0.0643594 782:0.122858 783:0.0943881 784:0.065059 785:0.463674 786:0.189662 787:0.020104 788:0.156805 789:0.0503921 790:0.0517637 791:0.684756 792:0.0361787 793:0.0342066 794:0.554341 795:0 796:0.0254299 797:0.352828 798:0.0331941 799:0.328739 800:0.0192237 801:0.0565101 802:0.284369 803:0.0966652 804:0.214493 805:0.0108509 806:0.199994 807:0.109242 808:0.0217027 809:0.598776 810:0.0594345 811:0.0894178 812:0.437538 813:0.0622832 814:0.156396 815:0.21941 816:0.0349548 817:0.0524978 818:0.00564099 819:0.221497 820:0.168423 821:0.0236238 822:0.528318 823:0.0458101 824:0.0158589 825:0.32697 826:0.182418 827:0.100511 828:0.328433 829:0.0483951 830:0.299937 831:0.256628 832:0.0278248 833:0.199628 834:0.167587 835:0.0989813 836:0.142573 837:0.265083 838:0.0170964 839:0.154244 840:0.322022 841:0.201876 842:0.232181 843:0.0700885 844:0.213682 845:0.255804 846:0.0263679 847:0.0278413 848:0.27243 849:0.281136 850:0.0448014 851:0.150519 852:0.223272 853:0.0886929 854:0.204386 855:0.196533 856:0.0253188 857:0.157897 858:0.327172 859:0.222647 860:0.239842 861:0.0398214 862:0.272532 863:0.208037 864:0.0171219 865:0.134565 866:0.435571 867:0.0521372 868:0.00891584 869:0.34938 870:0.0194317 871:0.351063 872:0.00742924 873:0.0139812 874:0.348036 875:0.0676656 876:0.211826 877:0.122726 878:0.0822019 879:0.106979 880:0.164086 881:0.37894 882:0.145067 883:0.0156148 884:0.553292 885:0.0388885 886:0.0163366 887:0.260968 888:0.1149 889:0.146973 890:0.00222298 891:0.248412 892:0.141381 893:0.0106828 894:0.450329 895:0.331007 896:0.0706029 897:0.042604 898:0.278252 899:0.119185 900:0.158348 901:0.286195 902:0.265325 903:0.0626774 904:0.207379 905:0.162253 906:0.0161702 907:0.164787 908:0.0982771 909:0.219878 910:0.100483 911:0.0428631 912:0.373711 913:0.0630334 914:0.0795356 915:0.337418 916:0.0551528 917:0.0639233 918:0.400937 919:0.339814 920:0.212611 921:0.0384611 922:0.283123 923:0.103547 924:0.022443 925:0.169592 926:0.120013 927:0.205975 928:0.098058 929:0.058658 930:0.347704 931:0.0668757 932:0.0355692 933:0.39305 934:0.0496367 935:0.050274 936:0.404594 937:0.180659 938:0.275602 939:0.112322 940:0.203226 941:0.16767 942:0.0605215 943:0.101267 944:0.106251 945:0.148243 946:0.120699 947:0.146276 948:0.377265 949:0.175327 950:0.165328 951:0.174317 952:0.134138 953:0.278785 954:0.0721054 955:0.0589133 956:0.317888 957:0.0404503 958:0.032911 959:0.483646 960:0.0661914 961:0.205071 962:0.159321 963:0.00730148 964:0.40399 965:0.206466 966:0.0178516 967:0.0244015 968:0.309025 969:0.0421809 970:0.0190051 971:0.582563 972:0.0228245 973:0.0447211 974:0.110213 975:0.314205 976:0.0304632 977:0.248207 978:0.252191 979:0.170877 980:0.0792388 981:0.288779 982:0.168962 983:0.176543 984:0.1156 985:0.32606 986:0.121569 987:0.0314531 988:0.351904 989:0.0817624 990:0.0872506 991:0.162735 992:0.0542349 993:0.311602 994:0.0458098 995:0.0430747 996:0.382544 997:0.0781877 998:0.334596 999:0.129412 1000:0.0283423 1001:0.392618 1002:0.0368439 1003:0.261024 1004:0.2641 1005:0.0247833 1006:0.176507 1007:0.235213 1008:0.0383723 1009:0.259843 1010:0.280961 1011:0.0785152 1012:0.183848 1013:0.193956 1014:0.00287622 1015:0.17066 1016:0.0382685 1017:0.189487 1018:0.153182 1019:0.140747 1020:0.307655 1021:0.196235 1022:0.0660478 1023:0.177383 1024:0.236634 1025:0.186722 1026:0.136978 1027:0.00523457 1028:0.444847 1029:0.0265103 1030:0.028341 1031:0.472858 1032:0.0222086 1033:0.375792 1034:0.0662774 1035:0.00590566 1036:0.477844 1037:0.0412194 1038:0.0329616 1039:0.0187349 1040:0.390555 1041:0 1042:0.0676224 1043:0.496593 1044:0.0264951 1045:0.262367 1046:0.142042 1047:0.0893947 1048:0.121046 1049:0.263553 1050:0.121597 1051:0.413243 1052:0.0477196 1053:0.23717 1054:0.199053 1055:0.0369407 1056:0.0658739 1057:0.177889 1058:0.170822 1059:0.233346 1060:0.093627 1061:0.07058 1062:0.253736 1063:0.222416 1064:0.227079 1065:0.0893216 1066:0.158292 1067:0.27108 1068:0.0318106 1069:0.178908 1070:0.198779 1071:0.141859 1072:0.170403 1073:0.178309 1074:0.131742 1075:0.118847 1076:0.115294 1077:0.248351 1078:0.174784 1079:0.0750971 1080:0.267626 1081:0.23648 1082:0.327093 1083:0.085554 1084:0.153643 1085:0.189911 1086:0.00731928 1087:0.0933864 1088:0.05246 1089:0.16795 1090:0.138095 1091:0.084108 1092:0.464 1093:0.163835 1094:0.117654 1095:0.179131 1096:0.143393 1097:0.284973 1098:0.111015 1099:0.198095 1100:0.399058 1101:0.0717622 1102:0.137529 1103:0.193556 1104:0 1105:0.0809082 1106:0.070968 1107:0.14676 1108:0.130918 1109:0.140744 1110:0.429702 1111:0.144304 1112:0.13862 1113:0.14386 1114:0.136142 1115:0.372537 1116:0.0645372 1117:0.183742 1118:0.409281 1119:0.0450646 1120:0.0380472 1121:0.270345 1122:0.0535202 1123:0.0437812 1124:0.100422 1125:0.0418702 1126:0.180727 1127:0.322988 1128:0.310212 1129:0.00324295 1130:0.164076 1131:0.0347697 1132:0.0825242 1133:0.608728 1134:0.106658 1135:0.237543 1136:0.346594 1137:0.079215 1138:0.118241 1139:0.165679 1140:0.0527281 1141:0.0643594 1142:0.122858 1143:0.0943881 1144:0.065059 1145:0.463674 1146:0.189662 1147:0.020104 1148:0.156805 1149:0.0503921 1150:0.0517637 1151:0.684756 1152:0.0361787 1153:0.0342066 1154:0.554341 1155:0 1156:0.0254299 1157:0.352828 1158:0.0331941 1159:0.328739 1160:0.0192237 1161:0.0565101 1162:0.284369 1163:0.0966652 1164:0.214493 1165:0.0108509 1166:0.199994 1167:0.109242 1168:0.0217027 1169:0.598776 1170:0.0594345 1171:0.0894178 1172:0.437538 1173:0.0622832 1174:0.156396 1175:0.21941 1176:0.0349548 1177:0.0524978 1178:0.00564099 1179:0.221497 1180:0.168423 1181:0.0236238 1182:0.528318 1183:0.0458101 1184:0.0158589 1185:0.32697 1186:0.182418 1187:0.100511 1188:0.328433 1189:0.0483951 1190:0.299937 1191:0.256628 1192:0.0278248 1193:0.199628 1194:0.167587 1195:0.0989813 1196:0.142573 1197:0.265083 1198:0.0170964 1199:0.154244 1200:0.322022 1201:0.201876 1202:0.232181 1203:0.0700885 1204:0.213682 1205:0.255804 1206:0.0263679 1207:0.0278413 1208:0.27243 1209:0.281136 1210:0.0448014 1211:0.150519 1212:0.223272 1213:0.0886929 1214:0.204386 1215:0.196533 1216:0.0253188 1217:0.157897 1218:0.327172 1219:0.222647 1220:0.239842 1221:0.0398214 1222:0.272532 1223:0.208037 1224:0.0171219 1225:0.134565 1226:0.435571 1227:0.0521372 1228:0.00891584 1229:0.34938 1230:0.0194317 1231:0.351063 1232:0.00742924 1233:0.0139812 1234:0.348036 1235:0.0676656 1236:0.211826 1237:0.122726 1238:0.0822019 1239:0.106979 1240:0.164086 1241:0.37894 1242:0.145067 1243:0.0156148 1244:0.553292 1245:0.0388885 1246:0.0163366 1247:0.260968 1248:0.1149 1249:0.146973 1250:0.00222298 1251:0.248412 1252:0.141381 1253:0.0106828 1254:0.450329 1255:0.331007 1256:0.0706029 1257:0.042604 1258:0.278252 1259:0.119185 1260:0.158348 1261:0.286195 1262:0.265325 1263:0.0626774 1264:0.207379 1265:0.162253 1266:0.0161702 1267:0.164787 1268:0.0982771 1269:0.219878 1270:0.100483 1271:0.0428631 1272:0.373711 1273:0.0630334 1274:0.0795356 1275:0.337418 1276:0.0551528 1277:0.0639233 1278:0.400937 1279:0.339814 1280:0.212611 1281:0.0384611 1282:0.283123 1283:0.103547 1284:0.022443 1285:0.169592 1286:0.120013 1287:0.205975 1288:0.098058 1289:0.058658 1290:0.347704 1291:0.0668757 1292:0.0355692 1293:0.39305 1294:0.0496367 1295:0.050274 1296:0.404594 1297:0.180659 1298:0.275602 1299:0.112322 1300:0.203226 1301:0.16767 1302:0.0605215 1303:0.101267 1304:0.106251 1305:0.148243 1306:0.120699 1307:0.146276 1308:0.377265 1309:0.175327 1310:0.165328 1311:0.174317 1312:0.134138 1313:0.278785 1314:0.0721054 1315:0.0589133 1316:0.317888 1317:0.0404503 1318:0.032911 1319:0.483646 1320:0.0661914 1321:0.205071 1322:0.159321 1323:0.00730148 1324:0.40399 1325:0.206466 1326:0.0178516 1327:0.0244015 1328:0.309025 1329:0.0421809 1330:0.0190051 1331:0.582563 1332:0.0228245 1333:0.0447211 1334:0.110213 1335:0.314205 1336:0.0304632 1337:0.248207 1338:0.252191 1339:0.170877 1340:0.0792388 1341:0.288779 1342:0.168962 1343:0.176543 1344:0.1156 1345:0.32606 1346:0.121569 1347:0.0314531 1348:0.351904 1349:0.0817624 1350:0.0872506 1351:0.162735 1352:0.0542349 1353:0.311602 1354:0.0458098 1355:0.0430747 1356:0.382544 1357:0.0781877 1358:0.334596 1359:0.129412 1360:0.0283423 1361:0.392618 1362:0.0368439 1363:0.261024 1364:0.2641 1365:0.0247833 1366:0.176507 1367:0.235213 1368:0.0383723 1369:0.259843 1370:0.280961 1371:0.0785152 1372:0.183848 1373:0.193956 1374:0.00287622 1375:0.17066 1376:0.0382685 1377:0.189487 1378:0.153182 1379:0.140747 1380:0.307655 1381:0.196235 1382:0.0660478 1383:0.177383 1384:0.236634 1385:0.186722 1386:0.136978 1387:0.00523457 1388:0.444847 1389:0.0265103 1390:0.028341 1391:0.472858 1392:0.0222086 1393:0.375792 1394:0.0662774 1395:0.00590566 1396:0.477844 1397:0.0412194 1398:0.0329616 1399:0.0187349 1400:0.390555 1401:0 1402:0.0676224 1403:0.496593 1404:0.0264951 1405:0.262367 1406:0.142042 1407:0.0893947 1408:0.121046 1409:0.263553 1410:0.121597 1411:0.413243 1412:0.0477196 1413:0.23717 1414:0.199053 1415:0.0369407 1416:0.0658739 1417:0.177889 1418:0.170822 1419:0.233346 1420:0.093627 1421:0.07058 1422:0.253736 1423:0.222416 1424:0.227079 1425:0.0893216 1426:0.158292 1427:0.27108 1428:0.0318106 1429:0.178908 1430:0.198779 1431:0.141859 1432:0.170403 1433:0.178309 1434:0.131742 1435:0.118847 1436:0.115294 1437:0.248351 1438:0.174784 1439:0.0750971 1440:0.267626 1441:0.23648 1442:0.327093 1443:0.085554 1444:0.153643 1445:0.189911 1446:0.00731928 1447:0.0933864 1448:0.05246 1449:0.16795 1450:0.138095 1451:0.084108 1452:0.464 1453:0.163835 1454:0.117654 1455:0.179131 1456:0.143393 1457:0.284973 1458:0.111015 1459:0.198095 1460:0.399058 1461:0.0717622 1462:0.137529 1463:0.193556 1464:0 1465:0.0809082 1466:0.070968 1467:0.14676 1468:0.130918 1469:0.140744 1470:0.429702 1471:0.144304 1472:0.13862 1473:0.14386 1474:0.136142 1475:0.372537 1476:0.0645372 1477:0.183742 1478:0.409281 1479:0.0450646 1480:0.0380472 1481:0.270345 1482:0.0535202 1483:0.0437812 1484:0.100422 1485:0.0418702 1486:0.180727 1487:0.322988 1488:0.310212 1489:0.00324295 1490:0.164076 1491:0.0347697 1492:0.0825242 1493:0.608728 1494:0.106658 1495:0.237543 1496:0.346594 1497:0.079215 1498:0.118241 1499:0.165679 1500:0.0527281 1501:0.0643594 1502:0.122858 1503:0.0943881 1504:0.065059 1505:0.463674 1506:0.189662 1507:0.020104 1508:0.156805 1509:0.0503921 1510:0.0517637 1511:0.684756 1512:0.0361787 1513:0.0342066 1514:0.554341 1515:0 1516:0.0254299 1517:0.352828 1518:0.0331941 1519:0.328739 1520:0.0192237 1521:0.0565101 1522:0.284369 1523:0.0966652 1524:0.214493 1525:0.0108509 1526:0.199994 1527:0.109242 1528:0.0217027 1529:0.598776 1530:0.0594345 1531:0.0894178 1532:0.437538 1533:0.0622832 1534:0.156396 1535:0.21941 1536:0.0349548 1537:0.0524978 1538:0.00564099 1539:0.221497 1540:0.168423 1541:0.0236238 1542:0.528318 1543:0.0458101 1544:0.0158589 1545:0.32697 1546:0.182418 1547:0.100511 1548:0.328433 1549:0.0483951 1550:0.299937 1551:0.256628 1552:0.0278248 1553:0.199628 1554:0.167587 1555:0.0989813 1556:0.142573 1557:0.265083 1558:0.0170964 1559:0.154244 1560:0.322022 1561:0.201876 1562:0.232181 1563:0.0700885 1564:0.213682 1565:0.255804 1566:0.0263679 1567:0.0278413 1568:0.27243 1569:0.281136 1570:0.0448014 1571:0.150519 1572:0.223272 1573:0.0886929 1574:0.204386 1575:0.196533 1576:0.0253188 1577:0.157897 1578:0.327172 1579:0.222647 1580:0.239842 1581:0.0398214 1582:0.272532 1583:0.208037 1584:0.0171219 1585:0.134565 1586:0.435571 1587:0.0521372 1588:0.00891584 1589:0.34938 1590:0.0194317 1591:0.351063 1592:0.00742924 1593:0.0139812 1594:0.348036 1595:0.0676656 1596:0.211826 1597:0.122726 1598:0.0822019 1599:0.106979 1600:0.164086 1601:0.37894 1602:0.145067 1603:0.0156148 1604:0.553292 1605:0.0388885 1606:0.0163366 1607:0.260968 1608:0.1149 1609:0.146973 1610:0.00222298 1611:0.248412 1612:0.141381 1613:0.0106828 1614:0.450329 1615:0.331007 1616:0.0706029 1617:0.042604 1618:0.278252 1619:0.119185 1620:0.158348 1621:0.286195 1622:0.265325 1623:0.0626774 1624:0.207379 1625:0.162253 1626:0.0161702 1627:0.164787 1628:0.0982771 1629:0.219878 1630:0.100483 1631:0.0428631 1632:0.373711 1633:0.0630334 1634:0.0795356 1635:0.337418 1636:0.0551528 1637:0.0639233 1638:0.400937 1639:0.339814 1640:0.212611 1641:0.0384611 1642:0.283123 1643:0.103547 1644:0.022443 1645:0.169592 1646:0.120013 1647:0.205975 1648:0.098058 1649:0.058658 1650:0.347704 1651:0.0668757 1652:0.0355692 1653:0.39305 1654:0.0496367 1655:0.050274 1656:0.404594 1657:0.180659 1658:0.275602 1659:0.112322 1660:0.203226 1661:0.16767 1662:0.0605215 1663:0.101267 1664:0.106251 1665:0.148243 1666:0.120699 1667:0.146276 1668:0.377265 1669:0.175327 1670:0.165328 1671:0.174317 1672:0.134138 1673:0.278785 1674:0.0721054 1675:0.0589133 1676:0.317888 1677:0.0404503 1678:0.032911 1679:0.483646 1680:0.0661914 1681:0.205071 1682:0.159321 1683:0.00730148 1684:0.40399 1685:0.206466 1686:0.0178516 1687:0.0244015 1688:0.309025 1689:0.0421809 1690:0.0190051 1691:0.582563 1692:0.0228245 1693:0.0447211 1694:0.110213 1695:0.314205 1696:0.0304632 1697:0.248207 1698:0.252191 1699:0.170877 1700:0.0792388 1701:0.288779 1702:0.168962 1703:0.176543 1704:0.1156 1705:0.32606 1706:0.121569 1707:0.0314531 1708:0.351904 1709:0.0817624 1710:0.0872506 1711:0.162735 1712:0.0542349 1713:0.311602 1714:0.0458098 1715:0.0430747 1716:0.382544 1717:0.0781877 1718:0.334596 1719:0.129412 1720:0.0283423 1721:0.392618 1722:0.0368439 1723:0.261024 1724:0.2641 1725:0.0247833 1726:0.176507 1727:0.235213 1728:0.0383723 1729:0.259843 1730:0.280961 1731:0.0785152 1732:0.183848 1733:0.193956 1734:0.00287622 1735:0.17066 1736:0.0382685 1737:0.189487 1738:0.153182 1739:0.140747 1740:0.307655 1741:0.196235 1742:0.0660478 1743:0.177383 1744:0.236634 1745:0.186722 1746:0.136978 1747:0.00523457 1748:0.444847 1749:0.0265103 1750:0.028341 1751:0.472858 1752:0.0222086 1753:0.375792 1754:0.0662774 1755:0.00590566 1756:0.477844 1757:0.0412194 1758:0.0329616 1759:0.0187349 1760:0.390555 1761:0 1762:0.0676224 1763:0.496593 1764:0.0264951 1765:0.262367 1766:0.142042 1767:0.0893947 1768:0.121046 1769:0.263553 1770:0.121597 1771:0.413243 1772:0.0477196 1773:0.23717 1774:0.199053 1775:0.0369407 1776:0.0658739 1777:0.177889 1778:0.170822 1779:0.233346 1780:0.093627 1781:0.07058 1782:0.253736 1783:0.222416 1784:0.227079 1785:0.0893216 1786:0.158292 1787:0.27108 1788:0.0318106 1789:0.178908 1790:0.198779 1791:0.141859 1792:0.170403 1793:0.178309 1794:0.131742 1795:0.118847 1796:0.115294 1797:0.248351 1798:0.174784 1799:0.0750971 1800:0.267626 1801:0.23648 1802:0.327093 1803:0.085554 1804:0.153643 1805:0.189911 1806:0.00731928 1807:0.0933864 1808:0.05246 1809:0.16795 1810:0.138095 1811:0.084108 1812:0.464 1813:0.163835 1814:0.117654 1815:0.179131 1816:0.143393 1817:0.284973 1818:0.111015 1819:0.198095 1820:0.399058 1821:0.0717622 1822:0.137529 1823:0.193556 1824:0 1825:0.0809082 1826:0.070968 1827:0.14676 1828:0.130918 1829:0.140744 1830:0.429702 1831:0.144304 1832:0.13862 1833:0.14386 1834:0.136142 1835:0.372537 1836:0.0645372 1837:0.183742 1838:0.409281 1839:0.0450646 1840:0.0380472 1841:0.270345 1842:0.0535202 1843:0.0437812 1844:0.100422 1845:0.0418702 1846:0.180727 1847:0.322988 1848:0.310212 1849:0.00324295 1850:0.164076 1851:0.0347697 1852:0.0825242 1853:0.608728 1854:0.106658 1855:0.237543 1856:0.346594 1857:0.079215 1858:0.118241 1859:0.165679 1860:0.0527281 1861:0.0643594 1862:0.122858 1863:0.0943881 1864:0.065059 1865:0.463674 1866:0.189662 1867:0.020104 1868:0.156805 1869:0.0503921 1870:0.0517637 1871:0.684756 1872:0.0361787 1873:0.0342066 1874:0.554341 1875:0 1876:0.0254299 1877:0.352828 1878:0.0331941 1879:0.328739 1880:0.0192237 1881:0.0565101 1882:0.284369 1883:0.0966652 1884:0.214493 1885:0.0108509 1886:0.199994 1887:0.109242 1888:0.0217027 1889:0.598776 1890:0.0594345 1891:0.0894178 1892:0.437538 1893:0.0622832 1894:0.156396 1895:0.21941 1896:0.0349548 1897:0.0524978 1898:0.00564099 1899:0.221497 1900:0.168423 1901:0.0236238 1902:0.528318 1903:0.0458101 1904:0.0158589 1905:0.32697 1906:0.182418 1907:0.100511 1908:0.328433 1909:0.0483951 1910:0.299937 1911:0.256628 1912:0.0278248 1913:0.199628 1914:0.167587 1915:0.0989813 1916:0.142573 1917:0.265083 1918:0.0170964 1919:0.154244 1920:0.322022 1921:0.201876 1922:0.232181 1923:0.0700885 1924:0.213682 1925:0.255804 1926:0.0263679 1927:0.0278413 1928:0.27243 1929:0.281136 1930:0.0448014 1931:0.150519 1932:0.223272 1933:0.0886929 1934:0.204386 1935:0.196533 1936:0.0253188 1937:0.157897 1938:0.327172 1939:0.222647 1940:0.239842 1941:0.0398214 1942:0.272532 1943:0.208037 1944:0.0171219 1945:0.134565 1946:0.435571 1947:0.0521372 1948:0.00891584 1949:0.34938 1950:0.0194317 1951:0.351063 1952:0.00742924 1953:0.0139812 1954:0.348036 1955:0.0676656 1956:0.211826 1957:0.122726 1958:0.0822019 1959:0.106979 1960:0.164086 1961:0.37894 1962:0.145067 1963:0.0156148 1964:0.553292 1965:0.0388885 1966:0.0163366 1967:0.260968 1968:0.1149 1969:0.146973 1970:0.00222298 1971:0.248412 1972:0.141381 1973:0.0106828 1974:0.450329 1975:0.331007 1976:0.0706029 1977:0.042604 1978:0.278252 1979:0.119185 1980:0.158348 1981:0.286195 1982:0.265325 1983:0.0626774 1984:0.207379 1985:0.162253 1986:0.0161702 1987:0.164787 1988:0.0982771 1989:0.219878 1990:0.100483 1991:0.0428631 1992:0.373711 1993:0.0630334 1994:0.0795356 1995:0.337418 1996:0.0551528 1997:0.0639233 1998:0.400937 1999:0.339814 2000:0.212611 2001:0.0384611 2002:0.283123 2003:0.103547 2004:0.022443 2005:0.169592 2006:0.120013 2007:0.205975 2008:0.098058 2009:0.058658 2010:0.347704 2011:0.0668757 2012:0.0355692 2013:0.39305 2014:0.0496367 2015:0.050274 2016:0.404594 2017:0.180659 2018:0.275602 2019:0.112322 2020:0.203226 2021:0.16767 2022:0.0605215 2023:0.101267 2024:0.106251 2025:0.148243 2026:0.120699 2027:0.146276 2028:0.377265 2029:0.175327 2030:0.165328 2031:0.174317 2032:0.134138 2033:0.278785 2034:0.0721054 2035:0.0589133 2036:0.317888 2037:0.0404503 2038:0.032911 2039:0.483646 2040:0.0661914 2041:0.205071 2042:0.159321 2043:0.00730148 2044:0.40399 2045:0.206466 2046:0.0178516 2047:0.0244015 2048:0.309025 2049:0.0421809 2050:0.0190051 2051:0.582563 2052:0.0228245 2053:0.0447211 2054:0.110213 2055:0.314205 2056:0.0304632 2057:0.248207 2058:0.252191 2059:0.170877 2060:0.0792388 2061:0.288779 2062:0.168962 2063:0.176543 2064:0.1156 2065:0.32606 2066:0.121569 2067:0.0314531 2068:0.351904 2069:0.0817624 2070:0.0872506 2071:0.162735 2072:0.0542349 2073:0.311602 2074:0.0458098 2075:0.0430747 2076:0.382544 2077:0.0781877 2078:0.334596 2079:0.129412 2080:0.0283423 2081:0.392618 2082:0.0368439 2083:0.261024 2084:0.2641 2085:0.0247833 2086:0.176507 2087:0.235213 2088:0.0383723 2089:0.259843 2090:0.280961 2091:0.0785152 2092:0.183848 2093:0.193956 2094:0.00287622 2095:0.17066 2096:0.0382685 2097:0.189487 2098:0.153182 2099:0.140747 2100:0.307655 2101:0.196235 2102:0.0660478 2103:0.177383 2104:0.236634 2105:0.186722 2106:0.136978 2107:0.00523457 2108:0.444847 2109:0.0265103 2110:0.028341 2111:0.472858 2112:0.0222086 2113:0.375792 2114:0.0662774 2115:0.00590566 2116:0.477844 2117:0.0412194 2118:0.0329616 2119:0.0187349 2120:0.390555 2121:0 2122:0.0676224 2123:0.496593 2124:0.0264951 2125:0.262367 2126:0.142042 2127:0.0893947 2128:0.121046 2129:0.263553 2130:0.121597 2131:0.413243 2132:0.0477196 2133:0.23717 2134:0.199053 2135:0.0369407 2136:0.0658739 2137:0.177889 2138:0.170822 2139:0.233346 2140:0.093627 2141:0.07058 2142:0.253736 2143:0.222416 2144:0.227079 2145:0.0893216 2146:0.158292 2147:0.27108 2148:0.0318106 2149:0.178908 2150:0.198779 2151:0.141859 2152:0.170403 2153:0.178309 2154:0.131742 2155:0.118847 2156:0.115294 2157:0.248351 2158:0.174784 2159:0.0750971 2160:0.267626 2161:0.23648 2162:0.327093 2163:0.085554 2164:0.153643 2165:0.189911 2166:0.00731928 2167:0.0933864 2168:0.05246 2169:0.16795 2170:0.138095 2171:0.084108 2172:0.464 2173:0.163835 2174:0.117654 2175:0.179131 2176:0.143393 2177:0.284973 2178:0.111015 2179:0.198095 2180:0.399058 2181:0.0717622 2182:0.137529 2183:0.193556 2184:0 2185:0.0809082 2186:0.070968 2187:0.14676 2188:0.130918 2189:0.140744 2190:0.429702 2191:0.144304 2192:0.13862 2193:0.14386 2194:0.136142 2195:0.372537 