svm_type c_svc
kernel_type rbf
gamma 0.00588235
nr_class 6
total_sv 72
rho 0.329528 0.250893 0.113574 -0.116211 0.0101371 -0.103271 -0.204174 -0.355331 -0.248005 0.112093 -0.224009 -0.0401903 -0.389043 -0.207248 0.105572
label 8 10 12 13 15 16
nr_sv 12 12 12 12 12 12
SV
1 1 1 1 1 1:-1 2:-1 3:-1 4:-1 5:-1 6:-1 7:-1 8:-1 9:-1 10:-0.963303 11:-1 12:-1 13:-1 14:-1 15:-1 16:-0.651376 17:-1 18:-1 19:-0.981651 20:-0.045872 21:-1 22:-1 23:-1 24:-1 25:-1 26:-0.21101 27:-0.908257 28:1 29:-0.889908 30:-0.816514 31:-1 32:-1 33:-1 34:-1 35:-0.944954 36:-0.834862 37:-0.59633 38:-1 39:-0.633028 40:-0.87156 41:-1 42:-0.669724 43:-1 44:-1 45:-0.633028 46:-0.963303 47:-0.944954 48:-1 49:-0.926606 50:-0.944954 51:-1 52:-0.761468 53:-1 54:-1 55:-0.981651 56:-0.963303 57:-0.963303 58:-1 59:-0.981651 60:-0.981651 61:-1 62:-0.981651 63:-1 64:-1 65:-0.944954 66:-0.963303 67:-0.981651 68:-1 69:-0.963303 70:-0.963303 71:-0.779816 72:-0.963303 73:-1 74:-1 75:-0.87156 76:-0.981651 77:-0.963303 78:-1 79:-0.981651 80:-0.981651 81:0.06422 82:-0.963303 83:-1 84:-1 85:-0.963303 86:-0.963303 87:-0.981651 88:-1 89:-0.963303 90:-0.963303 91:-0.908257 92:-0.981651 93:-0.633028 94:-0.651376 95:-0.981651 96:-0.908257 97:-0.963303 98:-1 99:-0.963303 100:-0.577982 101:-0.376146 102:-0.87156 103:-0.981651 104:-0.963303 105:-0.87156 106:-0.651376 107:-0.853211 108:-1 109:-0.889908 110:-0.908257 111:-1 112:-0.779816 113:-0.963303 114:-0.87156 115:-0.761468 116:-0.908257 117:-0.669724 118:-1 119:-0.926606 120:-0.981651 121:-1 122:-0.853211 123:-0.706422 124:-0.889908 125:-0.816514 126:-1 127:-0.3211 128:-1 129:-0.174312 130:-1 131:-1 132:-0.74312 133:-0.614678 134:-0.633028 135:-0.74312 136:-1 137:-0.853211 138:-1 139:-0.72477 140:-1 141:-1 142:-0.706422 143:-0.100918 144:0.00917399 145:-0.761468 146:-1 147:-1 148:-1 149:-1 150:-1 151:-1 152:-0.834862 153:-1 154:-1 155:-0.74312 156:-1 157:-1 158:-1 159:-1 160:-1 161:-1 162:-0.889908 163:-1 164:-1 165:-0.981651 166:-1 167:-1 168:-1 169:-1 170:-1 
1 1 1 1 1 1:-1 2:-1 3:-1 4:-1 5:-1 6:-0.970588 7:-1 8:-1 9:-1 10:-0.985294 11:-1 12:-1 13:-1 14:-1 15:-1 16:-0.67647 17:-1 18:-0.838235 19:-1 20:-0.794118 21:-1 22:-0.941176 23:-1 24:-1 25:-0.955882 26:-0.5 27:-1 28:1 29:-1 30:-0.602941 31:-1 32:-0.941176 33:-1 34:-1 35:-0.808824 36:-0.661765 37:-0.705881 38:-0.794118 39:-0.661765 40:-0.617646 41:-1 42:-0.602941 43:-1 44:-1 45:-0.647059 46:-0.661765 47:-0.941176 48:-1 49:-0.941176 50:-0.735295 51:-1 52:-0.911765 53:-1 54:-1 55:-0.926471 56:-0.897059 57:-0.970588 58:-1 59:-0.941176 60:-0.75 61:-0.941176 62:-0.867647 63:-1 64:-1 65:-0.911765 66:-0.911765 67:-0.955882 68:-1 69:-0.926471 70:-0.838235 71:-0.602941 72:-0.75 73:-1 74:-1 75:-0.882353 76:-0.882353 77:-0.926471 78:-1 79:-0.970588 80:-0.882353 81:-0.0588219 82:-0.808824 83:-1 84:-1 85:-0.867647 86:-0.926471 87:-0.955882 88:-1 89:-0.941176 90:-0.955882 91:-0.264705 92:-0.735295 93:-1 94:-1 95:-0.794118 96:-0.970588 97:-0.911765 98:-1 99:-0.941176 100:-0.970588 101:-0.764706 102:-0.735295 103:-1 104:-1 105:-0.779412 106:-0.970588 107:-0.852941 108:-1 109:-0.764706 110:-0.926471 111:-1 112:-0.970588 113:-1 114:-1 115:-0.823529 116:-0.941176 117:-0.779412 118:-1 119:-0.617646 120:-0.941176 121:-1 122:-0.867647 123:-0.970588 124:-0.985294 125:-0.75 126:-0.941176 127:-0.544116 128:-1 129:-0.57353 130:-0.926471 131:-1 132:-0.867647 133:-0.75 134:-0.926471 135:-0.75 136:-0.720589 137:-0.588235 138:-1 139:-0.617646 140:-0.705881 141:-1 142:-0.852941 143:-0.57353 144:-0.558824 145:-0.823529 146:-1 147:-0.617646 148:-1 149:-0.794118 150:-1 151:-1 152:-0.897059 153:-0.0294109 154:-0.0294109 155:-0.926471 156:-1 157:-0.941176 158:-1 159:-0.941176 160:-1 161:-1 162:-0.882353 163:-0.308824 164:-0.132352 165:-0.985294 166:-1 167:-0.941176 168:-1 169:-1 170:-1 
1 1 1 1 1 1:-1 2:-1 3:-1 4:-1 5:-1 6:-1 7:-1 8:-0.973684 9:-1 10:-1 11:-1 12:-1 13:-1 14:-1 15:-1 16:-0.789474 17:-0.710525 18:1 19:-1 20:-0.815789 21:-1 22:-1 23:-1 24:-1 25:-1 26:-0.105264 27:-0.973684 28:-0.578947 29:-1 30:0.0263165 31:-1 32:-0.657894 33:-1 34:-1 35:-1 36:-0.236842 37:-0.973684 38:-1 39:-1 40:-0.394736 41:-1 42:-1 43:-1 44:-1 45:-0.973684 46:-0.894737 47:-0.973684 48:-1 49:-0.921053 50:-0.842105 51:-1 52:-0.973684 53:-1 54:-1 55:-0.684211 56:-0.973684 57:-0.973684 58:-1 59:-0.815789 60:-0.973684 61:0.5 62:-0.973684 63:-1 64:-1 65:-0.973684 66:-0.947368 67:-0.973684 68:-1 69:-0.894737 70:-0.973684 71:-0.0526307 72:-0.815789 73:-1 74:-1 75:-0.921053 76:-0.973684 77:-0.947368 78:-1 79:-0.973684 80:-0.973684 81:-1 82:-0.763158 83:-1 84:-1 85:-0.789474 86:-0.973684 87:-0.973684 88:-1 89:-0.973684 90:-0.973684 91:-1 92:-0.684211 93:-1 94:-1 95:-0.736842 96:-0.973684 97:-0.868421 98:-1 99:-0.921053 100:-1 101:-1 102:-0.710525 103:-0.552631 104:-0.947368 105:-0.631578 106:-1 107:-0.210525 108:-1 109:-0.526317 110:-0.973684 111:-1 112:-0.684211 113:0.526317 114:0.447369 115:-0.815789 116:-0.710525 117:-0.36842 118:-1 119:-0.315789 120:-0.921053 121:-1 122:-0.684211 123:-0.526317 124:-0.0526307 125:-0.684211 126:-0.973684 127:-0.631578 128:-1 129:-0.394736 130:-0.736842 131:-1 132:-0.631578 133:-1 134:-1 135:-0.552631 136:-1 137:-0.973684 138:-1 139:-0.815789 140:-1 141:-1 142:-0.973684 143:-1 144:-1 145:-0.842105 146:-1 147:-1 148:-1 149:-1 150:-1 151:-1 152:-1 153:-1 154:-1 155:-0.947368 156:-1 157:-1 158:-1 159:-1 160:-1 161:-1 162:-1 163:-1 164:-1 165:-1 166:-1 167:-1 168:-1 169:-1 170:-1 
1 0.8739409443418924 0.2192427679567949 0.8615980778382254 1 1:-1 2:-1 3:-1 4:-1 5:-1 6:-1 7:-1 8:-0.87234 9:-1 10:-1 11:-1 12:-1 13:-1 14:-1 15:-1 16:-0.340427 17:-1 18:0.553191 19:-1 20:-0.595745 21:-1 22:-1 23:-1 24:-1 25:-1 26:0.489361 27:-1 28:0.510638 29:-1 30:1 31:-1 32:-0.914894 33:-1 34:-1 35:-0.680851 36:-0.404254 37:-1 38:-0.93617 39:-0.702128 40:-0.659575 41:-1 42:-0.744681 43:-1 44:-1 45:-0.978723 46:-0.957447 47:-0.829787 48:-1 49:-0.978723 50:-0.957447 51:-0.829787 52:-0.978723 53:-1 54:-1 55:-0.978723 56:-0.978723 57:-0.851064 58:-1 59:-1 60:-0.957447 61:-0.87234 62:-1 63:-1 64:-1 65:-0.978723 66:-0.957447 67:-0.978723 68:-1 69:-0.978723 70:-0.978723 71:0.234043 72:-0.93617 73:-1 74:-1 75:-0.93617 76:-0.978723 77:-0.978723 78:-1 79:-0.978723 80:-0.978723 81:0.723405 82:-0.829787 83:-1 84:-1 85:-0.851064 86:-0.978723 87:-0.978723 88:-1 89:-0.978723 90:-0.978723 91:-1 92:-0.297873 93:-1 94:-1 95:-0.489361 96:-0.978723 97:-0.978723 98:-1 99:-0.978723 100:-0.978723 101:-1 102:-0.276596 103:-1 104:-0.829787 105:-0.276596 106:-0.978723 107:-0.978723 108:-1 109:-0.978723 110:-1 111:-1 112:-0.25532 113:-0.31915 114:-0.191489 115:-0.38298 116:-0.978723 117:-0.957447 118:-1 119:-0.978723 120:-0.978723 121:-1 122:-0.553191 123:0.148936 124:0.404257 125:-0.531914 126:-0.702128 127:-0.744681 128:-1 129:-0.723404 130:-0.978723 131:-1 132:-0.957447 133:-0.25532 134:-0.489361 135:-0.659575 136:-1 137:-0.234043 138:-1 139:-0.42553 140:-0.702128 141:-1 142:-1 143:-0.38298 144:-0.851064 145:-1 146:-1 147:0.425534 148:-1 149:-0.0638286 150:-1 151:-1 152:-1 153:-0.978723 154:-0.87234 155:-1 156:-1 157:-0.659575 158:-1 159:-0.0212752 160:-1 161:-1 162:-1 163:-0.957447 164:-0.914894 165:-1 166:-1 167:-1 168:-1 169:-0.957447 170:-1 
1 1 1 1 1 1:-1 2:-1 3:-1 4:-1 5:-0.952663 6:-1 7:-1 8:1 9:-1 10:-1 11:-1 12:-1 13:-1 14:-1 15:-0.976331 16:-0.952663 17:-1 18:-0.704142 19:-1 20:-1 21:-1 22:-0.964497 23:-1 24:-1 25:-0.976331 26:-0.822485 27:-1 28:-0.988166 29:-0.763314 30:-0.72781 31:-1 32:-0.550296 33:-1 34:-1 35:-0.420119 36:0.278106 37:-0.91716 38:-1 39:-0.786982 40:-0.0177519 41:-1 42:-0.905326 43:-1 44:-1 45:-0.656805 46:-0.72781 47:-0.609467 48:-1 49:-0.988166 50:-0.798817 51:-0.609467 52:-0.644971 53:-1 54:-1 55:-0.692309 56:-0.964497 57:-1 58:-1 59:-0.952663 60:-0.739644 61:0.917159 62:-0.644971 63:-0.988166 64:-1 65:-0.739644 66:-0.988166 67:-0.988166 68:-1 69:-0.976331 70:-0.988166 71:-1 72:-0.72781 73:-0.976331 74:-1 75:-0.893491 76:-1 77:-1 78:-1 79:-0.964497 80:-0.976331 81:-1 82:-0.893491 83:-0.928994 84:-1 85:-0.83432 86:-0.988166 87:-0.988166 88:-1 89:-0.988166 90:-0.964497 91:-1 92:-0.893491 93:-0.715976 94:-0.786982 95:-0.763314 96:-1 97:-0.988166 98:-1 99:-0.988166 100:-0.988166 101:-1 102:-0.846154 103:0.171596 104:0.692306 105:-0.893491 106:-0.988166 107:-0.952663 108:-1 109:-0.893491 110:-1 111:-1 112:-0.810651 113:-0.443786 114:-0.656805 115:-0.940829 116:-0.988166 117:-0.72781 118:-1 119:-0.633137 120:-0.976331 121:-1 122:-0.810651 123:-0.810651 124:-0.940829 125:-0.952663 126:-0.550296 127:-0.147929 128:-1 129:-0.00591803 130:-0.585799 131:-1 132:-1 133:-1 134:-1 135:-1 136:-1 137:-0.443786 138:-1 139:-0.75148 140:-0.940829 141:-1 142:-1 143:-1 144:-1 145:-1 146:-1 147:-0.928994 148:-1 149:-1 150:-0.988166 151:-1 152:-1 153:-1 154:-1 155:-1 156:-1 157:-1 158:-1 159:-1 160:-1 161:-1 162:-1 163:-1 164:-1 165:-1 166:-1 167:-1 168:-1 169:-1 170:-1 
1 1 1 1 1 1:-1 2:-1 3:-1 4:-1 5:-1 6:-1 7:-1 8:-0.976471 9:-1 10:-1 11:-1 12:-1 13:-1 14:-1 15:-1 16:-0.917647 17:-1 18:1 19:-1 20:-0.952941 21:-1 22:-1 23:-1 24:-1 25:-0.964706 26:-0.294118 27:-1 28:-0.505882 29:-1 30:-0.235295 31:-1 32:-0.129413 33:-1 34:-1 35:-0.258823 36:-0.576472 37:-1 38:-1 39:-1 40:-0.599999 41:-1 42:-0.847059 43:-1 44:-1 45:-0.835294 46:-0.811765 47:-0.458825 48:-1 49:-0.42353 50:-0.870588 51:-1 52:-0.894118 53:-1 54:-1 55:-0.647059 56:-0.929412 57:-0.705884 58:-1 59:-0.917647 60:-0.917647 61:-1 62:-0.517647 63:-1 64:-1 65:-0.717646 66:-0.952941 67:-0.964706 68:-1 69:-0.870588 70:-0.929412 71:-1 72:-0.8 73:-1 74:-1 75:-0.647059 76:-0.952941 77:-0.952941 78:-1 79:-0.941176 80:-0.917647 81:-0.211765 82:-0.894118 83:-1 84:-1 85:-0.882353 86:-0.976471 87:-0.964706 88:-1 89:-0.941176 90:-0.905882 91:0.729411 92:-0.835294 93:-1 94:-0.870588 95:-0.858824 96:-0.964706 97:-0.976471 98:-1 99:-0.894118 100:-0.941176 101:-1 102:-0.941176 103:-0.458825 104:-0.917647 105:-0.917647 106:-0.964706 107:-0.952941 108:-1 109:-0.941176 110:-0.941176 111:-1 112:-0.929412 113:0.811763 114:0.235293 115:-0.929412 116:-0.941176 117:-0.917647 118:-1 119:-0.894118 120:-0.894118 121:-1 122:-0.870588 123:-0.835294 124:0.0705885 125:-0.823529 126:-0.2 127:-0.8 128:-1 129:-0.894118 130:-0.37647 131:-1 132:-0.835294 133:-1 134:-1 135:-1 136:-1 137:-0.599999 138:-1 139:-0.37647 140:-1 141:-1 142:-0.988235 143:-1 144:-1 145:-1 146:-1 147:-0.188236 148:-1 149:-0.599999 150:-1 151:-1 152:-1 153:-1 154:-1 155:-1 156:-1 157:-1 158:-1 159:-0.788235 160:-1 161:-1 162:-1 163:-1 164:-1 165:-1 166:-1 167:-1 168:-1 169:-1 170:-1 
1 1 1 1 1 1:-1 2:-1 3:-1 4:-1 5:-0.986842 6:-0.986842 7:-1 8:-1 9:-1 10:-0.986842 11:-1 12:-0.855263 13:-1 14:-1 15:-0.947369 16:-0.868421 17:-0.802632 18:-0.868421 19:-1 20:-0.960526 21:-1 22:-0.473685 23:-1 24:-1 25:-0.894737 26:-0.802632 27:-0.894737 28:-0.105264 29:-1 30:-0.710527 31:-1 32:-0.736842 33:-1 34:-1 35:-0.631579 36:-0.921053 37:-0.986842 38:0.249998 39:-1 40:-0.934211 41:-1 42:-0.210527 43:-1 44:-1 45:-0.881579 46:-0.815789 47:-0.657895 48:-0.802632 49:-1 50:-0.500001 51:-0.868421 52:-0.855263 53:-1 54:-1 55:-0.789474 56:-0.618422 57:-0.736842 58:-0.986842 59:-0.973684 60:-0.710527 61:-0.644737 62:-0.907895 63:-1 64:-1 65:-0.881579 66:-0.473685 67:-0.75 68:-1 69:-0.500001 70:-0.0394749 71:1 72:-0.934211 73:-0.223685 74:-0.828947 75:-0.539474 76:-0.815789 77:-0.355264 78:-1 79:-0.618422 80:-0.907895 81:-1 82:-0.815789 83:-0.105264 84:-0.776316 85:-0.855263 86:-0.763158 87:-0.894737 88:-1 89:-0.644737 90:-1 91:-1 92:-0.921053 93:-0.657895 94:-0.736842 95:-0.815789 96:-0.842105 97:-0.868421 98:-1 99:-0.460527 100:-0.934211 101:-1 102:-0.921053 103:-0.526316 104:-0.144738 105:-0.947369 106:-0.894737 107:-0.855263 108:-1 109:-0.973684 110:-0.986842 111:-1 112:-0.947369 113:-1 114:-0.447369 115:-0.894737 116:-1 117:-0.815789 118:-1 119:-0.789474 120:-0.973684 121:-1 122:-0.934211 123:-1 124:-0.671053 125:-0.736842 126:-0.710527 127:-0.934211 128:-1 129:-0.592106 130:-0.947369 131:-1 132:-1 133:-1 134:-0.947369 135:-0.723685 136:-1 137:-0.973684 138:-1 139:-0.960526 140:-0.921053 141:-1 142:-1 143:-1 144:-0.960526 145:-0.986842 146:-1 147:-0.986842 148:-1 149:-1 150:-1 151:-1 152:-1 153:-1 154:-1 155:-1 156:-1 157:-1 158:-1 159:-1 160:-1 161:-1 162:-1 163:-1 164:-1 165:-1 166:-1 167:-1 168:-1 169:-1 170:-1 
1 1 1 1 1 1:-0.669292 2:-1 3:-1 4:-1 5:-1 6:-1 7:-1 8:-0.952756 9:-1 10:-0.874016 11:-0.732283 12:-1 13:-1 14:-1 15:-1 16:-0.984252 17:-1 18:-0.259843 19:-0.952756 20:-0.952756 21:-1 22:-0.543307 23:-1 24:-1 25:-0.574804 26:-0.559054 27:-1 28:1 29:-0.905512 30:-0.622048 31:-1 32:-0.700787 33:-1 34:-1 35:-0.858268 36:-0.669292 37:-1 38:-0.748031 39:-0.606298 40:-0.637795 41:-1 42:-0.559054 43:-1 44:-1 45:-0.748031 46:-0.76378 47:-0.84252 48:-1 49:-0.700787 50:-0.952756 51:-0.574804 52:-0.700787 53:-1 54:-1 55:-0.401575 56:-0.685039 57:-0.385825 58:-1 59:-0.590551 60:-0.716535 61:-0.496063 62:-0.795276 63:-1 64:-1 65:-0.84252 66:-0.622048 67:-0.858268 68:-1 69:-0.811023 70:-0.795276 71:-0.401575 72:-0.685039 73:-1 74:-1 75:-0.84252 76:-0.795276 77:-0.84252 78:-1 79:-0.968504 80:-0.874016 81:-0.0866144 82:-0.84252 83:-1 84:-0.984252 85:-0.76378 86:-0.858268 87:-0.716535 88:-1 89:-0.905512 90:-0.937008 91:-1 92:-0.874016 93:-0.92126 94:-0.984252 95:-0.622048 96:-0.92126 97:-0.874016 98:-1 99:-0.795276 100:-0.937008 101:-1 102:-0.716535 103:-0.417322 104:-0.92126 105:-0.716535 106:-0.874016 107:-0.874016 108:-1 109:-0.84252 110:-0.952756 111:-1 112:-0.858268 113:-0.858268 114:-0.779527 115:-0.826772 116:-0.51181 117:-0.937008 118:-1 119:-0.826772 120:-0.968504 121:-1 122:-0.874016 123:-0.937008 124:-0.322834 125:-0.811023 126:-0.779527 127:-0.811023 128:-1 129:-0.92126 130:-0.51181 131:-1 132:-0.968504 133:-0.574804 134:0.448819 135:-0.952756 136:-0.937008 137:-0.244093 138:-1 139:-0.732283 140:-0.811023 141:-1 142:-0.968504 143:0.0551175 144:-0.795276 145:-1 146:-1 147:-0.590551 148:-1 149:-0.496063 150:-0.84252 151:-1 152:-0.952756 153:-0.51181 154:-0.826772 155:-1 156:-1 157:-0.984252 158:-1 159:-0.905512 160:-0.685039 161:-1 162:-0.92126 163:-0.795276 164:-0.795276 165:-1 166:-1 167:-1 168:-1 169:-1 170:-0.889764 
1 1 1 1 1 1:-1 2:-1 3:-1 4:-1 5:-1 6:-1 7:-1 8:-1 9:-1 10:-1 11:-1 12:-1 13:-1 14:-1 15:-1 16:-1 17:-1 18:-1 19:-1 20:-0.938461 21:-1 22:-1 23:-1 24:-1 25:-1 26:-0.0153852 27:-1 28:1 29:-0.753846 30:0.63077 31:-1 32:-0.723077 33:-1 34:-1 35:-0.938461 36:-0.0769222 37:0.046152 38:0.138463 39:-0.815385 40:-0.723077 41:-1 42:-0.292307 43:-1 44:-1 45:-0.261537 46:-0.846154 47:-0.938461 48:-0.56923 49:-0.876923 50:-0.876923 51:-1 52:-0.476922 53:-1 54:-1 55:-0.353848 56:-0.938461 57:-0.969231 58:-1 59:-0.384615 60:-0.815385 61:0.907693 62:-0.907692 63:-1 64:-1 65:-0.846154 66:-0.907692 67:-0.907692 68:-1 69:-0.907692 70:-0.907692 71:-0.2 72:-0.815385 73:-0.753846 74:-1 75:-0.938461 76:-0.815385 77:-0.846154 78:-1 79:-0.938461 80:-0.353848 81:-0.138463 82:-0.63077 83:-0.784616 84:-1 85:-0.753846 86:-0.969231 87:-0.907692 88:-1 89:-0.815385 90:-0.938461 91:-1 92:-0.723077 93:-0.969231 94:-0.507693 95:-0.661538 96:-0.476922 97:-0.907692 98:-1 99:-0.907692 100:-0.907692 101:-1 102:-0.692308 103:-0.23077 104:-0.507693 105:-0.815385 106:-0.446155 107:-0.753846 108:-1 109:-0.692308 110:-0.6 111:-1 112:-0.692308 113:-0.692308 114:-0.476922 115:-0.661538 116:-0.938461 117:-0.0769222 118:-1 119:0.2 120:-1 121:-1 122:-0.692308 123:-0.0461555 124:-0.723077 125:-0.661538 126:-1 127:-0.16923 128:-1 129:-0.538463 130:-1 131:-1 132:-0.784616 133:0.046152 134:0.784615 135:-0.538463 136:-1 137:-1 138:-1 139:-1 140:-1 141:-1 142:-1 143:-1 144:-1 145:-1 146:-1 147:-1 148:-1 149:-1 150:-1 151:-1 152:-1 153:-1 154:-1 155:-1 156:-1 157:-1 158:-1 159:-1 160:-1 161:-1 162:-1 163:-1 164:-1 165:-1 166:-1 167:-1 168:-1 169:-1 170:-1 
1 1 1 1 1 1:-1 2:-1 3:-1 4:-1 5:-1 6:-1 7:-1 8:-1 9:-1 10:-1 11:-1 12:-0.850467 13:-1 14:-1 15:-0.906542 16:-0.962617 17:-1 18:1 19:-1 20:-0.66355 21:-1 22:-0.887851 23:-1 24:-1 25:-0.981308 26:0.214953 27:-1 28:-0.0841125 29:-1 30:-0.140187 31:-1 32:-0.943925 33:-1 34:-1 35:-0.943925 36:-0.233644 37:-1 38:-0.943925 39:-1 40:-0.289719 41:-1 42:-0.906542 43:-1 44:-1 45:-0.757009 46:-0.570094 47:-1 48:-1 49:-1 50:-0.532709 51:-1 52:-0.757009 53:-1 54:-1 55:-0.850467 56:-0.738318 57:-1 58:-1 59:-1 60:-0.700934 61:-1 62:-0.775701 63:-1 64:-1 65:-0.757009 66:-0.925234 67:-1 68:-1 69:-1 70:-0.943925 71:0.66355 72:-0.813084 73:-1 74:-1 75:-0.813084 76:-0.981308 77:-0.962617 78:-1 79:-1 80:-0.794392 81:0.0280375 82:-0.719626 83:-1 84:-1 85:-0.775701 86:-0.906542 87:-0.906542 88:-1 89:-1 90:-0.962617 91:-0.719626 92:-0.719626 93:-1 94:-1 95:-0.813084 96:-0.925234 97:-0.962617 98:-1 99:-0.794392 100:-1 101:-1 102:-0.794392 103:-0.981308 104:-1 105:-0.831776 106:-1 107:-0.925234 108:-1 109:-0.869159 110:-1 111:-1 112:-0.719626 113:-0.514019 114:-0.850467 115:-0.738318 116:-1 117:-0.794392 118:-1 119:-0.607478 120:-1 121:-1 122:-0.607478 123:0.214953 124:-0.0841125 125:-0.813084 126:-1 127:-0.700934 128:-1 129:-0.420559 130:-1 131:-1 132:-0.607478 133:-0.401869 134:0.102803 135:-0.551403 136:-1 137:-0.158878 138:-1 139:-0.308412 140:-1 141:-1 142:-0.981308 143:-0.626169 144:-0.719626 145:-0.682244 146:-1 147:0.0841125 148:-1 149:-0.233644 150:-1 151:-1 152:-0.943925 153:-0.719626 154:-0.476634 155:-0.813084 156:-1 157:-0.700934 158:-1 159:-0.794392 160:-1 161:-1 162:-1 163:-1 164:-1 165:-1 166:-1 167:-1 168:-1 169:-1 170:-1 
1 1 0.9530032709423039 1 1 1:-1 2:-0.979487 3:-1 4:-1 5:-1 6:-1 7:-1 8:-1 9:-1 10:-1 11:-1 12:-0.989744 13:-1 14:-1 15:-1 16:-0.969231 17:-1 18:-0.917949 19:-1 20:-0.958974 21:-1 22:-0.682052 23:-1 24:-1 25:-1 26:-0.6 27:-1 28:1 29:-1 30:-0.0666662 31:-1 32:-0.938461 33:-1 34:-1 35:-1 36:-0.353846 37:-0.979487 38:-1 39:-1 40:-0.682052 41:-1 42:-0.969231 43:-1 44:-1 45:-0.651281 46:-0.497437 47:-1 48:-1 49:-1 50:-0.723077 51:-1 52:-0.928205 53:-1 54:-1 55:-0.989744 56:-0.917949 57:-0.794872 58:-1 59:-1 60:-0.507693 61:-0.210257 62:-0.928205 63:-1 64:-1 65:-0.887179 66:-0.979487 67:-0.897436 68:-1 69:-1 70:-1 71:0.292309 72:-0.887179 73:-1 74:-1 75:-0.876923 76:-0.979487 77:-0.938461 78:-1 79:-1 80:-0.979487 81:-1 82:-0.907692 83:-1 84:-1 85:-0.815385 86:-0.979487 87:-0.969231 88:-1 89:-0.938461 90:-1 91:-1 92:-0.815385 93:-1 94:-1 95:-0.835897 96:-0.969231 97:-0.887179 98:-1 99:-0.764104 100:-1 101:-1 102:-0.897436 103:-1 104:-1 105:-0.897436 106:-0.969231 107:-0.846154 108:-1 109:-0.302565 110:-1 111:-1 112:-0.743589 113:-0.948718 114:-1 115:-0.743589 116:-0.723077 117:-0.610257 118:-1 119:-0.558974 120:-1 121:-1 122:-0.333333 123:0.364102 124:-0.271794 125:-0.425641 126:-0.979487 127:-0.271794 128:-1 129:-0.415385 130:-1 131:-1 132:-0.938461 133:-0.333333 134:0.353846 135:-0.835897 136:-1 137:-0.85641 138:-1 139:-0.938461 140:-1 141:-1 142:-0.979487 143:-1 144:-1 145:-0.958974 146:-1 147:-0.866667 148:-1 149:-1 150:-1 151:-1 152:-1 153:-1 154:-1 155:-1 156:-1 157:-1 158:-1 159:-1 160:-1 161:-1 162:-1 163:-1 164:-1 165:-1 166:-1 167:-1 168:-1 169:-1 170:-1 
1 1 1 1 1 1:-1 2:-1 3:-1 4:-1 5:-1 6:-0.865979 7:-1 8:-1 9:-1 10:-1 11:-1 12:-1 13:-1 14:-1 15:-1 16:-0.762886 17:-1 18:1 19:-1 20:-0.835052 21:-1 22:-0.927835 23:-1 24:-1 25:-1 26:-0.628866 27:-1 28:-1 29:-1 30:-0.525774 31:-1 32:-0.845361 33:-1 34:-1 35:-0.752578 36:-0.226804 37:-0.886598 38:-1 39:-1 40:-0.340206 41:-1 42:-0.938144 43:-1 44:-1 45:-0.876289 46:-0.907216 47:-0.917526 48:-1 49:-0.70103 50:-0.690722 51:-0.989691 52:-0.917526 53:-1 54:-1 55:-0.989691 56:-0.979381 57:-0.927835 58:-1 59:-0.948454 60:-0.989691 61:-0.927835 62:-0.927835 63:-1 64:-1 65:-0.979381 66:-1 67:-0.907216 68:-1 69:-0.989691 70:-0.989691 71:-0.608248 72:-0.907216 73:-1 74:-1 75:-0.958763 76:-0.989691 77:-1 78:-1 79:-1 80:-1 81:0.525774 82:-0.979381 83:-1 84:-1 85:-0.896907 86:-1 87:-1 88:-1 89:-0.989691 90:-0.989691 91:-1 92:-0.865979 93:-1 94:-1 95:-0.835052 96:-1 97:-0.989691 98:-1 99:-1 100:-1 101:-1 102:-0.824742 103:-1 104:-1 105:-0.742268 106:-0.927835 107:-1 108:-1 109:-0.989691 110:-0.989691 111:-1 112:-0.876289 113:-1 114:-1 115:-0.886598 116:-0.927835 117:-0.989691 118:-1 119:-1 120:-1 121:-1 122:-0.690722 123:-0.969072 124:-1 125:-0.742268 126:-0.917526 127:-0.969072 128:-1 129:-0.752578 130:-0.680412 131:-1 132:-0.381444 133:0.412372 134:0.29897 135:-0.463918 136:-0.917526 137:-0.525774 138:-1 139:-0.42268 140:-0.969072 141:-1 142:-0.927835 143:-0.515464 144:-0.371134 145:-0.876289 146:-0.948454 147:-0.340206 148:-1 149:-0.494846 150:-1 151:-1 152:-0.989691 153:-0.927835 154:-0.938144 155:-1 156:-1 157:-0.680412 158:-1 159:-0.71134 160:-1 161:-1 162:-1 163:-1 164:-0.989691 165:-1 166:-1 167:-0.865979 168:-1 169:-1 170:-1 
-1 1 1 1 1 1:-1 2:-1 3:-1 4:-1 5:-1 6:-1 7:-1 8:-1 9:-1 10:-1 11:-1 12:-1 13:-1 14:-1 15:-1 16:-1 17:-0.916667 18:-1 19:-1 20:-1 21:-1 22:-1 23:-1 24:-1 25:-1 26:-1 27:1 28:-0.5625 29:-0.979167 30:-0.708334 31:-1 32:-1 33:-1 34:-1 35:-1 36:-1 37:-0.895833 38:0.749999 39:-0.9375 40:-0.8125 41:-1 42:-0.125 43:-1 44:-1 45:0.125 46:-1 47:-1 48:-1 49:-0.375001 50:-0.875 51:-1 52:0.3125 53:-1 54:-0.166668 55:-0.645833 56:-1 57:-1 58:-1 59:-0.9375 60:-0.9375 61:-1 62:-1 63:-1 64:0.333333 65:-0.916667 66:-1 67:-1 68:-1 69:-0.375001 70:-0.9375 71:-1 72:-1 73:-1 74:-0.979167 75:-0.958333 76:-1 77:-1 78:-1 79:-0.958333 80:-0.958333 81:-0.770833 82:-1 83:-1 84:-1 85:-0.958333 86:-1 87:-1 88:-1 89:-0.958333 90:-0.416666 91:0.958332 92:-1 93:-1 94:-1 95:-0.770833 96:-1 97:-1 98:-1 99:-0.958333 100:-0.895833 101:-1 102:-1 103:-1 104:-1 105:-0.854167 106:-0.666667 107:-1 108:-1 109:-0.958333 110:-0.479167 111:-1 112:-1 113:0.958332 114:-1 115:-0.958333 116:0.541666 117:-1 118:-1 119:-0.9375 120:-0.854167 121:-1 122:-1 123:-0.770833 124:-1 125:-0.979167 126:-0.6875 127:-1 128:-1 129:-0.875 130:-0.9375 131:-1 132:-1 133:-1 134:-1 135:-0.9375 136:-1 137:-1 138:-1 139:-0.708334 140:-1 141:-1 142:-1 143:-1 144:-1 145:-0.958333 146:-1 147:-1 148:-1 149:-0.854167 150:-1 151:-1 152:-1 153:-1 154:-1 155:-1 156:-1 157:-1 158:-1 159:-1 160:-1 161:-1 162:-1 163:-1 164:-1 165:-1 166:-1 167:-1 168:-1 169:-1 170:-1 
-1 1 1 1 1 1:-1 2:-0.894737 3:-1 4:-1 5:-1 6:-1 7:-0.936842 8:-1 9:-1 10:-1 11:-1 12:-0.831579 13:-1 14:-1 15:-1 16:-1 17:-0.957895 18:-1 19:-1 20:-1 21:-1 22:-0.536842 23:-1 24:-1 25:-1 26:-1 27:-0.705264 28:1 29:-1 30:-1 31:-1 32:-0.852632 33:-1 34:-1 35:-1 36:-1 37:-0.936842 38:-1 39:-1 40:-0.536842 41:-1 42:-1 43:-1 44:-1 45:-0.894737 46:-1 47:-0.642106 48:-1 49:-0.073684 50:-0.621052 51:-1 52:-0.852632 53:-1 54:-1 55:-0.6 56:-1 57:-0.978947 58:-1 59:-0.936842 60:-0.957895 61:-1 62:-0.978947 63:-1 64:-1 65:-0.326316 66:-1 67:-0.978947 68:-1 69:-0.957895 70:-0.978947 71:-0.978947 72:-1 73:-1 74:-1 75:-0.789474 76:-0.978947 77:-0.978947 78:-1 79:-0.978947 80:-0.978947 81:-1 82:-0.052632 83:-1 84:-1 85:-0.831579 86:-0.852632 87:-0.978947 88:-1 89:-0.978947 90:-0.978947 91:-0.28421 92:-1 93:-1 94:-1 95:-0.831579 96:-0.010526 97:0.094736 98:-1 99:-0.978947 100:-0.978947 101:0.0105259 102:-1 103:-1 104:-1 105:-0.873684 106:-0.978947 107:-1 108:-1 109:-0.978947 110:-0.978947 111:-0.789474 112:-1 113:-1 114:-1 115:-0.915789 116:-0.978947 117:-1 118:-1 119:-0.957895 120:-0.936842 121:-0.957895 122:-1 123:-1 124:-1 125:-0.936842 126:-0.642106 127:-1 128:-1 129:-0.831579 130:-0.726316 131:-1 132:-1 133:-1 134:-1 135:-1 136:-0.747368 137:-1 138:-1 139:-0.621052 140:-0.326316 141:-1 142:-1 143:-1 144:-0.936842 145:-1 146:-0.894737 147:-1 148:-1 149:-0.705264 150:-1 151:-1 152:-1 153:-0.936842 154:0.052632 155:-1 156:-0.915789 157:-1 158:-1 159:-1 160:-1 161:-1 162:-1 163:0.936842 164:-0.11579 165:-1 166:-1 167:-1 168:-1 169:-1 170:-1 
-1 1 1 1 1 1:-1 2:-1 3:-1 4:-1 5:-1 6:-1 7:-1 8:-1 9:-1 10:-1 11:-1 12:-1 13:-1 14:-1 15:-1 16:-1 17:-1 18:-0.814815 19:-1 20:-0.962963 21:-1 22:-0.888889 23:-1 24:-1 25:-1 26:-1 27:0.0370374 28:0.925927 29:-1 30:0.222222 31:-1 32:-0.407407 33:-1 34:-1 35:-1 36:-0.888889 37:-0.407407 38:-1 39:-1 40:-0.333334 41:-1 42:-0.148147 43:-1 44:-1 45:-1 46:-1 47:-0.740741 48:-1 49:-1 50:-0.814815 51:-1 52:-0.555556 53:-1 54:-1 55:-1 56:-1 57:-0.888889 58:-1 59:-1 60:-1 61:-0.888889 62:-1 63:-1 64:-1 65:-0.259259 66:-1 67:-1 68:-1 69:-1 70:-1 71:1 72:-0.962963 73:-1 74:-1 75:0.0740747 76:-1 77:-1 78:-1 79:-1 80:-1 81:-1 82:-0.925926 83:-1 84:-1 85:-0.925926 86:-1 87:-1 88:-1 89:-1 90:-1 91:-1 92:-1 93:-1 94:-1 95:-0.962963 96:-1 97:-0.888889 98:-1 99:-0.925926 100:-1 101:-1 102:-1 103:-1 104:-0.259259 105:-0.925926 106:-0.629629 107:-1 108:-1 109:-0.777778 110:-1 111:-1 112:-1 113:-0.851852 114:-0.407407 115:-0.888889 116:0 117:-1 118:-1 119:-0.148147 120:-1 121:-1 122:-1 123:-0.740741 124:-0.777778 125:-1 126:-0.370369 127:-1 128:-1 129:-0.0370374 130:-1 131:-1 132:-1 133:0.703705 134:-0.444444 135:-1 136:-1 137:-1 138:-1 139:-1 140:-1 141:-1 142:-1 143:-1 144:-1 145:-1 146:-1 147:-1 148:-1 149:-1 150:-1 151:-1 152:-1 153:-1 154:-1 155:-1 156:-1 157:-1 158:-1 159:-1 160:-1 161:-1 162:-1 163:-1 164:-1 165:-1 166:-1 167:-1 168:-1 169:-1 170:-1 
-1 1 1 1 1 1:-1 2:-0.818182 3:-1 4:-1 5:-1 6:-1 7:-1 8:0.333334 9:-1 10:-1 11:-1 12:-0.69697 13:-1 14:-1 15:-1 16:-1 17:-1 18:0.212121 19:-1 20:-0.818182 21:-1 22:-0.878788 23:-1 24:-1 25:-1 26:-1 27:-1 28:-0.454544 29:-0.939394 30:-0.0303017 31:-1 32:-0.515151 33:-1 34:-1 35:-1 36:-1 37:-1 38:-1 39:-0.878788 40:-0.636364 41:-1 42:0.151515 43:-1 44:-1 45:-0.757576 46:-0.939394 47:0.272728 48:-1 49:-0.757576 50:-0.939394 51:-1 52:-0.575757 53:-1 54:-1 55:-0.69697 56:-0.939394 57:-0.878788 58:-1 59:-0.575757 60:-0.939394 61:-1 62:-1 63:-1 64:-1 65:-0.454544 66:-0.818182 67:-0.575757 68:-1 69:-0.878788 70:-0.939394 71:-1 72:-1 73:-1 74:-1 75:-1 76:-0.757576 77:-0.636364 78:-1 79:-0.939394 80:-0.818182 81:-1 82:-1 83:-0.939394 84:-1 85:-0.939394 86:-0.757576 87:-0.878788 88:-1 89:-0.939394 90:-0.878788 91:0.212121 92:-1 93:-0.878788 94:-1 95:-0.272728 96:-0.878788 97:-0.878788 98:-1 99:-0.939394 100:-0.939394 101:0.272728 102:-0.878788 103:-0.69697 104:-1 105:-0.272728 106:-0.757576 107:-0.878788 108:-1 109:-0.818182 110:-0.575757 111:-0.636364 112:-0.939394 113:0.878787 114:-0.515151 115:-0.515151 116:-0.212121 117:-0.636364 118:-1 119:-0.939394 120:-0.757576 121:-0.757576 122:-0.878788 123:-0.878788 124:1 125:-1 126:0.151515 127:-0.878788 128:-1 129:-0.878788 130:-0.878788 131:-1 132:-0.878788 133:-0.393941 134:-0.393941 135:-1 136:-1 137:-0.939394 138:-1 139:-0.69697 140:-0.878788 141:-1 142:-1 143:-1 144:-1 145:-1 146:-1 147:-1 148:-1 149:0.272728 150:-0.878788 151:-1 152:-1 153:-1 154:-1 155:-1 156:-1 157:-1 158:-1 159:-1 160:-1 161:-1 162:-1 163:-1 164:-1 165:-1 166:-1 167:-1 168:-1 169:-1 170:-1 
-1 1 1 1 1 1:-1 2:-1 3:-1 4:-1 5:-1 6:-1 7:-1 8:1 9:-0.936 10:-1 11:-1 12:-0.664 13:-1 14:-1 15:-1 16:-1 17:-1 18:-1 19:-0.504 20:-1 21:-1 22:0.648 23:-1 24:-1 25:-0.728 26:-1 27:-0.52 28:-1 29:-0.952 30:-1 31:-1 32:-0.984 33:-1 34:-1 35:-0.392 36:-1 37:0.024 38:-1 39:-0.984 40:-0.6 41:-1 42:-1 43:-1 44:-1 45:-0.248 46:-1 47:-0.504 48:-1 49:-0.92 50:-0.504 51:-1 52:-1 53:-1 54:-1 55:-0.776 56:-1 57:-1 58:-1 59:-1 60:-0.744 61:-0.056 62:-1 63:-1 64:-1 65:-0.936 66:-1 67:-1 68:-1 69:-0.952 70:-0.92 71:0.056 72:-1 73:-1 74:-1 75:-0.952 76:-1 77:-1 78:-1 79:-0.936 80:-0.968 81:-1 82:-1 83:-1 84:-1 85:-0.968 86:-1 87:-1 88:-1 89:-0.696 90:-0.936 91:-1 92:-1 93:-0.792 94:-0.808 95:-1 96:-1 97:-1 98:-1 99:-0.712 100:-0.952 101:-1 102:-1 103:0.392 104:-0.808 105:-1 106:-1 107:-1 108:-1 109:-0.504 110:-1 111:-1 112:-1 113:-0.6 114:-0.28 115:-1 116:-1 117:-1 118:-1 119:-0.904 120:-0.952 121:-1 122:-1 123:-1 124:-0.104 125:-1 126:0.76 127:-1 128:-1 129:-1 130:-0.504 131:-1 132:-1 133:-1 134:-1 135:-1 136:-0.76 137:-1 138:-1 139:-1 140:-0.92 141:-1 142:-1 143:-1 144:-1 145:-1 146:-1 147:-1 148:-1 149:-1 150:-1 151:-1 152:-1 153:-1 154:-1 155:-1 156:-1 157:-1 158:-1 159:-1 160:-1 161:-1 162:-1 163:-1 164:-1 165:-1 166:-1 167:-1 168:-1 169:-1 170:-1 
-1 1 1 1 1 1:-1 2:-1 3:-1 4:-1 5:-1 6:-1 7:-1 8:-0.836364 9:-1 10:-1 11:-1 12:-1 13:-1 14:-1 15:-1 16:-1 17:-1 18:0.945455 19:-1 20:-1 21:-1 22:-1 23:-1 24:-1 25:-0.636363 26:-1 27:-1 28:-1 29:-1 30:-0.6 31:-1 32:-0.0909103 33:-1 34:-1 35:-0.163636 36:-1 37:1 38:-1 39:0.109091 40:-0.909091 41:-1 42:0.199999 43:-1 44:-1 45:-0.945454 46:-1 47:-0.890909 48:-1 49:-0.945454 50:-0.945454 51:-1 52:-1 53:-1 54:-1 55:-0.6 56:-1 57:-1 58:-1 59:-0.981818 60:-0.927273 61:-1 62:-1 63:-1 64:-1 65:-0.781819 66:-1 67:-1 68:-1 69:-0.945454 70:-0.836364 71:-0.618183 72:-1 73:-1 74:-1 75:-0.963636 76:-1 77:-1 78:-1 79:-0.963636 80:-0.963636 81:0.727271 82:-1 83:-1 84:-1 85:-0.909091 86:-1 87:-1 88:-1 89:-0.963636 90:-0.963636 91:-1 92:-1 93:-1 94:-1 95:-0.945454 96:-1 97:-1 98:-1 99:-0.963636 100:-0.981818 101:-1 102:-1 103:-1 104:-1 105:-0.945454 106:-1 107:-1 108:-1 109:-0.818182 110:-0.963636 111:-1 112:-1 113:0.4 114:-0.254546 115:-1 116:-1 117:-1 118:-1 119:-0.963636 120:-0.945454 121:-1 122:-1 123:-0.290909 124:0.272726 125:-1 126:-1 127:-1 128:-1 129:-0.945454 130:-0.690909 131:-1 132:-1 133:-1 134:-0.909091 135:-1 136:0.236364 137:-1 138:-1 139:-0.909091 140:-0.163636 141:-1 142:-1 143:-1 144:-1 145:-1 146:-0.127273 147:-1 148:-1 149:-0.6 150:-1 151:-1 152:-1 153:-1 154:-1 155:-1 156:-1 157:-1 158:-1 159:-1 160:-1 161:-1 162:-1 163:-1 164:-1 165:-1 166:-1 167:-1 168:-1 169:-1 170:-1 
-1 1 1 1 1 1:-1 2:-1 3:-1 4:-1 5:-1 6:-1 7:-1 8:-1 9:-0.977273 10:-1 11:-1 12:-1 13:-1 14:-1 15:-1 16:-1 17:-1 18:0.749999 19:-0.613636 20:-1 21:-1 22:-0.545454 23:-1 24:-1 25:-1 26:-1 27:-1 28:-0.113636 29:-0.227274 30:-0.75 31:-1 32:-0.409091 33:-1 34:-1 35:-0.795455 36:-1 37:-1 38:-1 39:-0.659092 40:-0.454544 41:-1 42:-0.681817 43:-1 44:-1 45:-0.977273 46:-1 47:-1 48:-1 49:-0.909091 50:-0.840909 51:-1 52:-0.181818 53:-1 54:-1 55:-0.909091 56:-1 57:-1 58:-1 59:-0.954545 60:-0.954545 61:0.340909 62:-0.613636 63:-1 64:-1 65:-0.795455 66:-1 67:-1 68:-1 69:-0.909091 70:-0.909091 71:0.295453 72:-0.954545 73:-1 74:-1 75:-0.136365 76:-1 77:-1 78:-1 79:-0.75 80:-0.704545 81:-1 82:-0.977273 83:-1 84:-1 85:-0.454544 86:-0.931818 87:-1 88:-1 89:-0.59091 90:-0.295456 91:-1 92:-1 93:-1 94:-1 95:-0.772727 96:-0.522729 97:-0.909091 98:-1 99:-0.772727 100:-0.772727 101:-1 102:-1 103:-1 104:-1 105:-0.931818 106:0.727271 107:-0.136365 108:-1 109:-1 110:-0.772727 111:-1 112:-1 113:-0.409091 114:-0.409091 115:-0.931818 116:-0.636364 117:0.590908 118:-1 119:-1 120:-0.909091 121:-1 122:-1 123:1 124:-0.840909 125:-0.772727 126:-1 127:-0.909091 128:-1 129:-1 130:-1 131:-1 132:-1 133:-0.954545 134:-0.818182 135:-0.931818 136:-1 137:-1 138:-1 139:-1 140:-1 141:-1 142:-1 143:-1 144:0.590908 145:-0.954545 146:-1 147:-1 148:-1 149:-1 150:-1 151:-1 152:-1 153:-1 154:-0.886364 155:-1 156:-1 157:-1 158:-1 159:-1 160:-1 161:-1 162:-1 163:-1 164:-1 165:-1 166:-1 167:-1 168:-1 169:-1 170:-1 
-1 1 1 1 1 1:-1 2:-1 3:-1 4:-1 5:-1 6:-1 7:-1 8:-1 9:-1 10:-1 11:-1 12:-1 13:-1 14:-1 15:-1 16:-1 17:-1 18:1 19:-1 20:-1 21:-1 22:-1 23:-1 24:-1 25:-0.872 26:-1 27:-0.68 28:-1 29:-1 30:-1 31:-1 32:-0.824 33:-1 34:-1 35:-0.616 36:-1 37:0.6 38:-1 39:-0.696 40:-1 41:-1 42:0.824 43:-1 44:-1 45:-0.456 46:-1 47:-0.92 48:-1 49:-0.952 50:-1 51:-1 52:-1 53:-1 54:-1 55:-0.248 56:-1 57:-1 58:-1 59:-0.952 60:-0.952 61:-1 62:-1 63:-1 64:-1 65:-0.888 66:-1 67:-1 68:-1 69:-0.408 70:-0.952 71:-1 72:-1 73:-1 74:-1 75:-0.92 76:-1 77:-1 78:-1 79:-0.456 80:-0.952 81:1 82:-1 83:-1 84:-1 85:-1 86:-1 87:-1 88:-1 89:-0.872 90:-0.776 91:-1 92:-1 93:-1 94:-1 95:-1 96:-1 97:-1 98:-1 99:-0.792 100:-0.392 101:-1 102:-1 103:-1 104:-1 105:-1 106:-1 107:-1 108:-1 109:-0.952 110:-0.392 111:-1 112:-1 113:-1 114:-1 115:-1 116:-1 117:-1 118:-1 119:-0.952 120:-0.936 121:-1 122:-1 123:-1 124:-1 125:-1 126:-0.264 127:-1 128:-1 129:-0.968 130:-0.952 131:-1 132:-1 133:1 134:1 135:-1 136:0.264 137:-1 138:-1 139:-1 140:-0.712 141:-1 142:-1 143:-1 144:-1 145:-1 146:-1 147:-1 148:-1 149:-1 150:-0.984 151:-1 152:-1 153:-1 154:-1 155:-1 156:-1 157:-1 158:-1 159:-1 160:-1 161:-1 162:-1 163:-1 164:-1 165:-1 166:-1 167:-1 168:-1 169:-1 170:-1 
-1 1 1 1 1 1:-1 2:-1 3:-1 4:-1 5:-1 6:-1 7:-1 8:-1 9:-1 10:-1 11:-1 12:-1 13:-1 14:-1 15:-1 16:-1 17:-1 18:-1 19:-1 20:-1 21:-1 22:-0.980952 23:-1 24:-1 25:-1 26:-0.790476 27:-1 28:0.0285711 29:-0.847619 30:-0.695237 31:-1 32:-0.885714 33:-1 34:-1 35:-1 36:-0.600001 37:-0.619049 38:0.295238 39:-0.447619 40:-0.904762 41:-1 42:-0.847619 43:-1 44:-1 45:-0.447619 46:-0.714285 47:-0.695237 48:-1 49:-0.657143 50:-0.695237 51:-1 52:0.12381 53:-1 54:-1 55:-0.390477 56:-0.771429 57:-0.961905 58:-1 59:-0.847619 60:-0.752382 61:-1 62:-0.257143 63:-1 64:-1 65:-0.904762 66:-0.771429 67:-0.790476 68:-1 69:-0.885714 70:-0.885714 71:-0.92381 72:-0.828571 73:-1 74:-1 75:-0.92381 76:-0.790476 77:-0.695237 78:-1 79:-0.92381 80:-0.942857 81:1 82:-1 83:-1 84:-1 85:-0.809524 86:-0.980952 87:-0.695237 88:-1 89:-0.904762 90:-0.809524 91:-0.752382 92:-1 93:-1 94:-0.828571 95:-0.714285 96:-0.942857 97:-0.847619 98:-1 99:-0.866667 100:-0.733334 101:-1 102:-1 103:-0.714285 104:-0.866667 105:-0.695237 106:-0.676191 107:-0.885714 108:-1 109:-0.600001 110:-0.790476 111:-1 112:-1 113:0.333332 114:0.371428 115:-0.942857 116:-0.638095 117:-0.752382 118:-1 119:-0.771429 120:-0.466667 121:-1 122:-1 123:-0.485716 124:-0.542858 125:-0.980952 126:-1 127:-0.733334 128:-1 129:-0.92381 130:-1 131:-1 132:-1 133:-0.809524 134:-0.809524 135:-0.961905 136:-1 137:-1 138:-1 139:-1 140:-1 141:-1 142:-1 143:-1 144:-1 145:-0.942857 146:-1 147:-1 148:-1 149:-1 150:-1 151:-1 152:-1 153:-1 154:-1 155:-0.961905 156:-1 157:-1 158:-1 159:-1 160:-1 161:-1 162:-1 163:-1 164:-1 165:-1 166:-1 167:-1 168:-1 169:-1 170:-1 
-1 1 1 1 1 1:-1 2:-1 3:-1 4:-1 5:-1 6:-1 7:-1 8:-1 9:-1 10:-1 11:-1 12:-1 13:-1 14:-1 15:-1 16:-1 17:-1 18:1 19:-1 20:-1 21:-1 22:-0.586956 23:-1 24:-1 25:-0.804348 26:-1 27:-1 28:-0.804348 29:-1 30:-1 31:-1 32:-0.0652163 33:-1 34:-1 35:-0.934783 36:-0.913043 37:-1 38:-1 39:-0.73913 40:-0.673913 41:-1 42:-0.652174 43:-1 44:-1 45:-0.21739 46:-0.499999 47:-0.913043 48:-1 49:-0.260869 50:-0.695652 51:-1 52:-0.608695 53:-1 54:-1 55:-0.717391 56:-0.630434 57:-0.913043 58:-1 59:-0.913043 60:-0.869565 61:-1 62:-0.891304 63:-1 64:-1 65:-0.913043 66:-0.565217 67:-0.956522 68:-1 69:-0.891304 70:-0.956522 71:-1 72:-1 73:-1 74:-1 75:-0.934783 76:-0.73913 77:-0.782609 78:-1 79:-0.956522 80:-0.934783 81:-1 82:-1 83:-1 84:-1 85:-0.630434 86:-0.782609 87:-0.869565 88:-1 89:-0.978261 90:-0.978261 91:0.521739 92:-1 93:-1 94:-1 95:-0.913043 96:-0.891304 97:-0.826087 98:-1 99:-0.934783 100:-0.956522 101:-0.326086 102:-1 103:-1 104:-1 105:-0.847826 106:-0.956522 107:-0.630434 108:-1 109:-0.956522 110:-0.934783 111:-1 112:-1 113:-1 114:-1 115:-0.891304 116:-0.913043 117:-0.608695 118:-1 119:-0.978261 120:-0.956522 121:-1 122:-1 123:-1 124:-0.956522 125:-1 126:-0.913043 127:-0.804348 128:-1 129:-0.913043 130:-0.717391 131:-1 132:-1 133:0.695652 134:0.369565 135:-1 136:-1 137:-0.499999 138:-1 139:-0.934783 140:-0.21739 141:-1 142:-1 143:-0.499999 144:-0.21739 145:-1 146:-1 147:-1 148:-1 149:-0.673913 150:-0.913043 151:-1 152:-1 153:-1 154:-1 155:-1 156:-1 157:-1 158:-1 159:-0.673913 160:-1 161:-1 162:-1 163:-1 164:-1 165:-1 166:-1 167:-1 168:-1 169:-1 170:-1 
-1 1 1 1 1 1:-1 2:-1 3:-1 4:-1 5:-1 6:-1 7:-1 8:-1 9:-0.983333 10:-1 11:-1 12:-1 13:-1 14:-1 15:-1 16:-1 17:0.533334 18:-1 19:-0.683334 20:-1 21:-1 22:-1 23:-1 24:-1 25:-0.966667 26:-1 27:-0.533334 28:-1 29:-0.6 30:-1 31:-1 32:-1 33:-1 34:-1 35:-0.433334 36:-1 37:-1 38:-0.183334 39:-0.05 40:-1 41:-1 42:-0.833333 43:-1 44:-1 45:-0.116666 46:-1 47:-1 48:0.183334 49:-0.95 50:-1 51:-1 52:0.833334 53:-1 54:-1 55:-0.733334 56:-1 57:-1 58:-1 59:-0.883333 60:-1 61:-1 62:-1 63:-1 64:-1 65:-0.933333 66:-1 67:-1 68:-1 69:-0.85 70:-0.866667 71:1 72:-1 73:-0.933333 74:-0.416666 75:-0.983333 76:-1 77:-1 78:-1 79:-1 80:-0.883333 81:-1 82:-1 83:0.483334 84:0.05 85:-0.966667 86:-1 87:-1 88:-1 89:-1 90:-0.583334 91:-1 92:-1 93:-0.55 94:-0.633334 95:-0.983333 96:-0.8 97:-1 98:-1 99:-1 100:-0.3 101:-1 102:-1 103:-1 104:-1 105:-0.95 106:0.35 107:-1 108:-1 109:-1 110:-0.4 111:-1 112:-1 113:-1 114:-1 115:-0.933333 116:-0.55 117:-1 118:-1 119:-1 120:-0.966667 121:-1 122:-1 123:-1 124:-1 125:-1 126:-1 127:-1 128:-1 129:-1 130:-1 131:-1 132:-1 133:-1 134:-1 135:-1 136:-1 137:-1 138:-1 139:-1 140:-1 141:-1 142:-1 143:-1 144:-1 145:-1 146:-1 147:-1 148:-1 149:-1 150:-1 151:-1 152:-1 153:-1 154:-1 155:-1 156:-1 157:-1 158:-1 159:-1 160:-1 161:-1 162:-1 163:-1 164:-1 165:-1 166:-1 167:-1 168:-1 169:-1 170:-1 
-1 1 1 1 1 1:-1 2:-1 3:-1 4:-1 5:-1 6:-1 7:-1 8:-0.974522 9:-1 10:-1 11:-1 12:-1 13:-1 14:-1 15:-1 16:-1 17:-1 18:1 19:-1 20:-1 21:-1 22:-0.987261 23:-1 24:-1 25:-0.796178 26:-1 27:-1 28:-1 29:-0.974522 30:-1 31:-1 32:0.235669 33:-1 34:-1 35:0.401275 36:-1 37:0.210191 38:-1 39:-0.299363 40:-1 41:-1 42:-0.643311 43:-1 44:-1 45:-0.821656 46:-1 47:-0.605094 48:-1 49:-0.235669 50:-1 51:-1 52:-0.579618 53:-1 54:-1 55:-0.923567 56:-1 57:-0.898089 58:-1 59:-0.910828 60:-1 61:-1 62:-1 63:-1 64:-1 65:-0.987261 66:-1 67:-0.987261 68:-1 69:-0.936306 70:-0.923567 71:-1 72:-1 73:-1 74:-1 75:-0.974522 76:-1 77:-0.694268 78:-1 79:-0.949045 80:-0.821656 81:-0.273884 82:-1 83:-1 84:-1 85:-0.987261 86:-1 87:-1 88:-1 89:-0.88535 90:-0.936306 91:0.299363 92:-1 93:-1 94:-1 95:-0.974522 96:-1 97:-1 98:-1 99:-0.872611 100:-0.949045 101:-1 102:-1 103:-1 104:-1 105:-0.974522 106:-0.694268 107:-1 108:-1 109:-0.910828 110:-0.923567 111:-1 112:-1 113:-1 114:-1 115:-0.974522 116:-0.974522 117:-1 118:-1 119:-1 120:-0.898089 121:-1 122:-1 123:-0.732485 124:-0.605094 125:-0.961783 126:-0.847134 127:-1 128:-1 129:-1 130:-0.0828026 131:-1 132:-1 133:0.312103 134:0.630573 135:-1 136:0.363058 137:-1 138:-1 139:-1 140:-0.439489 141:-1 142:-1 143:-0.554139 144:-1 145:-1 146:-0.821656 147:-1 148:-1 149:-1 150:-1 151:-1 152:-1 153:-1 154:-1 155:-1 156:-1 157:-1 158:-1 159:-1 160:-1 161:-1 162:-1 163:-1 164:-1 165:-1 166:-1 167:-1 168:-1 169:-1 170:-1 
-1 -1 1 1 1 1:-1 2:-0.745763 3:-1 4:-1 5:-1 6:-1 7:-0.915254 8:-0.288137 9:-1 10:-1 11:-1 12:-0.813559 13:-1 14:-1 15:-0.983051 16:-1 17:-0.966102 18:-0.338983 19:-0.915254 20:-1 21:-1 22:-0.813559 23:-1 24:-1 25:-0.118646 26:-1 27:-0.932203 28:1 29:-0.644067 30:-1 31:-1 32:-0.559323 33:-1 34:-1 35:-0.474576 36:-1 37:-0.0338991 38:-0.966102 39:0.0508479 40:-1 41:-0.983051 42:-0.101694 43:-1 44:-1 45:-0.79661 46:-1 47:-0.864407 48:-1 49:-0.847458 50:-1 51:-0.949152 52:-0.152544 53:-1 54:-1 55:-0.0169504 56:-1 57:-0.847458 58:-1 59:-0.59322 60:-1 61:-0.644067 62:-0.440679 63:-1 64:-1 65:-0.694916 66:-0.864407 67:-0.915254 68:-1 69:-0.322034 70:-1 71:0.322034 72:-0.966102 73:-1 74:-1 75:-0.728814 76:-0.745763 77:-0.677966 78:-1 79:-0.491525 80:-0.949152 81:0.542371 82:-1 83:-1 84:-0.881356 85:-0.898305 86:-0.20339 87:-0.542374 88:-1 89:-0.932203 90:-0.830509 91:-0.932203 92:-1 93:-1 94:-0.271188 95:-0.966102 96:0.0508479 97:-0.101694 98:-1 99:-0.915254 100:0.457627 101:-0.949152 102:-1 103:-0.745763 104:-0.525426 105:-0.932203 106:-0.576272 107:-0.898305 108:-1 109:-0.983051 110:0.016947 111:-1 112:-1 113:0.37288 114:0.389829 115:-0.983051 116:-0.694916 117:-0.898305 118:-1 119:-1 120:-0.542374 121:-1 122:-1 123:-0.440679 124:-0.915254 125:-1 126:-0.932203 127:-1 128:-1 129:-1 130:-0.830509 131:-1 132:-1 133:-0.457627 134:-0.864407 135:-1 136:-0.864407 137:-1 138:-1 139:-1 140:-0.915254 141:-1 142:-1 143:-0.42373 144:-0.830509 145:-1 146:-0.779661 147:-1 148:-1 149:-1 150:-1 151:-1 152:-1 153:-0.898305 154:-0.79661 155:-1 156:-0.983051 157:-1 158:-1 159:-1 160:-1 161:-1 162:-1 163:-1 164:-0.898305 165:-1 166:-1 167:-1 168:-1 169:-1 170:-1 
-1 -1 1 1 1 1:-0.968 2:-1 3:-1 4:-1 5:-1 6:-1 7:-1 8:-0.792 9:-1 10:-1 11:-0.952 12:-1 13:-1 14:-1 15:-1 16:-1 17:-0.984 18:1 19:-0.984 20:-1 21:-0.84 22:-0.984 23:-1 24:-1 25:-0.84 26:-0.968 27:-0.76 28:-0.504 29:-0.936 30:-1 31:-0.936 32:-0.856 33:-1 34:-1 35:-0.504 36:-0.439999 37:0.327999 38:-0.824 39:0.504 40:-1 41:-0.968 42:0.584 43:-1 44:-1 45:0.0399988 46:-0.984 47:-0.808 48:-0.888 49:-0.327999 50:-1 51:-0.856 52:-0.84 53:-0.936 54:-1 55:-0.824 56:-1 57:-0.712 58:-0.984 59:-0.488 60:-0.952 61:-0.568001 62:-0.808 63:-0.776 64:-0.968 65:-0.952 66:-0.808 67:-0.904 68:-0.984 69:-0.92 70:-0.952 71:-0.535999 72:-0.856 73:-0.984 74:-0.904 75:-0.968 76:-0.824 77:-0.968 78:-1 79:-0.968 80:-0.952 81:-0.504 82:-0.968 83:-0.984 84:-0.952 85:-0.968 86:-0.888 87:-0.968 88:-0.984 89:-1 90:-0.904 91:-0.648002 92:-0.984 93:-0.968 94:-0.856 95:-0.984 96:-0.888 97:-0.936 98:-1 99:-0.984 100:-0.728 101:-0.184001 102:-0.84 103:-0.84 104:-0.535999 105:-0.952 106:-0.519999 107:-0.904 108:-1 109:-0.968 110:-0.631999 111:-1 112:-0.568001 113:-0.792 114:-0.616 115:-0.952 116:-0.680001 117:-0.936 118:-1 119:-0.952 120:-0.696 121:-1 122:-0.84 123:-0.808 124:-0.6 125:-0.904 126:-0.84 127:-1 128:-1 129:-0.936 130:-0.344002 131:-1 132:-1 133:-0.680001 134:-0.728 135:-0.616 136:-0.119999 137:-0.664001 138:-1 139:-1 140:-0.2 141:-1 142:-1 143:-0.392 144:-0.84 145:-0.728 146:-1 147:-0.744 148:-1 149:-1 150:-0.664001 151:-1 152:-1 153:-0.264001 154:-0.0560014 155:-0.824 156:-1 157:-1 158:-1 159:-1 160:-0.984 161:-1 162:-1 163:-0.535999 164:-0.904 165:-0.984 166:-1 167:-1 168:-1 169:-1 170:-0.952 
-1 -1 1 1 1 1:-1 2:-0.967213 3:-1 4:-1 5:-1 6:-1 7:-1 8:-0.868853 9:-0.934426 10:-1 11:-1 12:-0.934426 13:-1 14:-1 15:-0.90164 16:-0.836066 17:0.803278 18:-0.672131 19:0.147541 20:-1 21:-1 22:-0.573771 23:-1 24:-1 25:-0.311478 26:-0.934426 27:-0.606558 28:0.409834 29:0.180327 30:-0.967213 31:-0.377049 32:-0.573771 33:-1 34:-1 35:-0.442624 36:-0.934426 37:-0.147541 38:0.0819659 39:-0.573771 40:-0.90164 41:0.180327 42:0.114752 43:-1 44:-1 45:-0.147541 46:-0.836066 47:-0.934426 48:-0.114756 49:-0.639344 50:-1 51:-0.540985 52:-0.704918 53:-1 54:-1 55:-1 56:-0.770492 57:-0.803279 58:-0.704918 59:-0.90164 60:-0.967213 61:1 62:0.803278 63:-0.967213 64:-1 65:-0.836066 66:-0.934426 67:-0.836066 68:-0.868853 69:-0.639344 70:-0.90164 71:-1 72:-0.90164 73:0.573771 74:-0.934426 75:-0.47541 76:-0.737705 77:-0.90164 78:-1 79:-0.704918 80:-0.868853 81:-1 82:-1 83:-0.868853 84:-0.836066 85:-0.278688 86:-0.803279 87:-0.803279 88:-1 89:-0.868853 90:-0.770492 91:-1 92:-1 93:-0.737705 94:-0.934426 95:-0.672131 96:-0.868853 97:-0.737705 98:-1 99:-1 100:-0.573771 101:-1 102:-1 103:-0.540985 104:-0.770492 105:-0.836066 106:0.639342 107:-0.803279 108:-1 109:-0.967213 110:-0.409834 111:-1 112:-1 113:-0.442624 114:0.180327 115:-0.836066 116:-0.016395 117:-0.967213 118:-1 119:-1 120:-0.245902 121:-1 122:-1 123:0.245902 124:-0.508195 125:-1 126:-0.704918 127:-1 128:-1 129:-0.967213 130:0.114752 131:-1 132:-1 133:-1 134:0.0819659 135:-1 136:-1 137:-1 138:-1 139:-0.934426 140:-0.409834 141:-1 142:-1 143:-1 144:-0.0491805 145:-1 146:-1 147:-1 148:-1 149:-0.934426 150:-0.934426 151:-1 152:-1 153:-1 154:-0.967213 155:-1 156:-1 157:-1 158:-1 159:-1 160:-0.90164 161:-1 162:-1 163:-1 164:-1 165:-1 166:-1 167:-1 168:-1 169:-1 170:-1 
-1 -1 1 1 1 1:-0.894736 2:-0.929825 3:-1 4:-1 5:-0.964912 6:-1 7:-0.964912 8:-0.894736 9:-0.473684 10:-1 11:-0.508771 12:-0.508771 13:-1 14:-0.403508 15:-0.929825 16:-1 17:-0.859649 18:0.263157 19:-0.438596 20:-0.964912 21:-0.929825 22:-0.614035 23:-1 24:-0.0526291 25:-0.754386 26:-1 27:0.859654 28:0.0526351 29:-0.368421 30:0.263157 31:-0.649123 32:-0.122805 33:-1 34:-0.333333 35:-0.68421 36:-1 37:1 38:-0.298245 39:-0.719298 40:0.263157 41:-0.614035 42:0.017547 43:-1 44:-0.543859 45:-0.298245 46:-1 47:-0.68421 48:-0.859649 49:-0.192981 50:-0.578947 51:-0.473684 52:-0.333333 53:-1 54:-0.789474 55:0.929824 56:-0.894736 57:-0.68421 58:-0.859649 59:-0.719298 60:-0.789474 61:-0.157893 62:-0.122805 63:-1 64:-0.824561 65:-0.192981 66:-0.929825 67:-0.473684 68:-0.894736 69:-0.192981 70:-0.719298 71:0.0877231 72:-0.228069 73:-0.964912 74:-0.789474 75:-0.473684 76:-0.824561 77:-0.649123 78:-0.964912 79:-0.438596 80:-0.614035 81:0.614038 82:-0.438596 83:-0.859649 84:-0.824561 85:-0.192981 86:-0.719298 87:-0.719298 88:-0.894736 89:-0.649123 90:-0.68421 91:-0.473684 92:-0.859649 93:-0.719298 94:-0.894736 95:-0.438596 96:-0.614035 97:-0.964912 98:-0.964912 99:-0.754386 100:-0.789474 101:-0.964912 102:-0.894736 103:-0.228069 104:-0.649123 105:-1 106:0.192981 107:-0.894736 108:-0.929825 109:-0.578947 110:-0.929825 111:-1 112:-1 113:-0.263157 114:-0.228069 115:-1 116:-0.614035 117:-0.929825 118:-0.929825 119:-0.789474 120:-0.543859 121:-1 122:-0.964912 123:0.333333 124:0.228069 125:-0.964912 126:-0.368421 127:-1 128:-0.964912 129:-0.68421 130:0.0877231 131:-1 132:-1 133:-0.228069 134:-0.929825 135:-1 136:0.614038 137:-1 138:-0.929825 139:-0.964912 140:-0.964912 141:-1 142:-0.964912 143:-0.68421 144:-0.929825 145:-1 146:-0.403508 147:-1 148:-0.68421 149:-1 150:-1 151:-1 152:-1 153:-0.508771 154:-1 155:-1 156:-0.403508 157:-1 158:0.122811 159:-1 160:-1 161:-1 162:-1 163:0.157893 164:-1 165:-1 166:-1 167:-1 168:-0.333333 169:-1 170:-1 
-1 -1 1 1 1 1:-1 2:-0.90625 3:-1 4:-1 5:-1 6:-1 7:-1 8:0.71875 9:-1 10:-1 11:-1 12:-0.90625 13:-1 14:-1 15:-1 16:-1 17:-0.9375 18:0.593753 19:-1 20:-1 21:-0.9375 22:-0.312498 23:-1 24:-1 25:-1 26:-1 27:-0.71875 28:-0.187497 29:-1 30:-0.84375 31:-0.875 32:0.437499 33:-1 34:-1 35:-0.187497 36:-1 37:-0.21875 38:-0.625 39:-0.59375 40:-0.406251 41:0.156249 42:0.312503 43:-0.9375 44:-1 45:0.28125 46:-1 47:-0.031248 48:-1 49:-0.625 50:0.28125 51:1 52:-0.28125 53:-0.625 54:-1 55:0.156249 56:-1 57:-0.156249 58:-1 59:-0.84375 60:-0.8125 61:0.156249 62:-0.84375 63:-0.8125 64:-1 65:-0.28125 66:-1 67:-0.374999 68:-1 69:-0.406251 70:-0.96875 71:-1 72:-1 73:-0.9375 74:-0.6875 75:-0.71875 76:-1 77:-0.374999 78:-1 79:-0.6875 80:-1 81:-1 82:-1 83:-0.9375 84:-0.437499 85:-0.75 86:-0.59375 87:-0.6875 88:-1 89:-0.8125 90:-0.96875 91:-1 92:-1 93:-0.71875 94:-0.374999 95:-1 96:0.312503 97:-1 98:-1 99:-1 100:-0.031248 101:-1 102:-1 103:-0.875 104:-0.21875 105:-1 106:-0.0937486 107:-1 108:-1 109:-0.875 110:-0.531248 111:-1 112:-1 113:-0.78125 114:-0.125001 115:-1 116:-0.312498 117:-1 118:-1 119:-0.468747 120:-0.9375 121:-1 122:-1 123:0.375003 124:0.21875 125:-1 126:-0.249998 127:-1 128:-1 129:-0.125001 130:-0.96875 131:-1 132:-1 133:-0.312498 134:-0.875 135:-1 136:-0.5625 137:-1 138:-1 139:-0.531248 140:-0.312498 141:-1 142:-1 143:-0.531248 144:-1 145:-1 146:-1 147:-1 148:-1 149:-0.531248 150:-1 151:-1 152:-1 153:-0.875 154:-1 155:-1 156:-1 157:-1 158:-1 159:-1 160:-1 161:-1 162:-1 163:-0.531248 164:-1 165:-1 166:-1 167:-1 168:-1 169:-1 170:-1 
-1 -1 1 1 1 1:-0.950617 2:-1 3:-1 4:-1 5:-1 6:-1 7:-1 8:-0.160495 9:-1 10:-1 11:-0.851852 12:-0.950617 13:-1 14:-1 15:-1 16:-1 17:-1 18:0.432101 19:-1 20:-1 21:-0.753086 22:-0.407409 23:-1 24:-1 25:-0.901235 26:-1 27:-1 28:-0.0864202 29:-1 30:-0.950617 31:-0.827161 32:1 33:-1 34:-1 35:0.0370371 36:-1 37:-0.481479 38:-0.25926 39:-0.802469 40:-0.654321 41:-0.876543 42:-0.160495 43:-0.975309 44:-1 45:-0.506171 46:-0.901235 47:0.283952 48:-0.753086 49:0.0617287 50:-0.0864202 51:-0.703704 52:-0.679012 53:-0.975309 54:-1 55:-0.160495 56:-0.876543 57:-0.432101 58:-0.851852 59:-0.481479 60:-0.654321 61:-0.506171 62:-0.580247 63:-0.901235 64:-0.950617 65:-0.555554 66:-0.901235 67:-0.604938 68:-0.950617 69:-0.777778 70:-0.901235 71:0.234569 72:-0.876543 73:-0.703704 74:-0.827161 75:-0.530862 76:-0.876543 77:-0.209877 78:-0.975309 79:-0.703704 80:-0.901235 81:0.0617287 82:-0.950617 83:-0.802469 84:-0.851852 85:-0.580247 86:-0.654321 87:-0.629629 88:-1 89:-0.160495 90:-0.604938 91:-0.432101 92:-1 93:-0.876543 94:-0.555554 95:-0.703704 96:-0.25926 97:-0.876543 98:-1 99:-0.234569 100:-0.530862 101:-1 102:-1 103:-0.802469 104:-0.283952 105:-0.753086 106:0.0864201 107:-0.901235 108:-1 109:-0.679012 110:-0.679012 111:-1 112:-1 113:-0.160495 114:-0.234569 115:-0.950617 116:-0.407409 117:-0.901235 118:-1 119:-0.851852 120:-0.580247 121:-1 122:-1 123:0.604941 124:0.481483 125:-1 126:-0.555554 127:-0.975309 128:-1 129:-0.975309 130:-0.629629 131:-1 132:-1 133:-0.456788 134:-0.604938 135:-1 136:-0.283952 137:-0.876543 138:-1 139:-1 140:-0.432101 141:-1 142:-1 143:-0.629629 144:-0.827161 145:-1 146:-1 147:-1 148:-1 149:-1 150:-1 151:-1 152:-1 153:-0.950617 154:-0.975309 155:-1 156:-1 157:-1 158:-1 159:-1 160:-1 161:-1 162:-1 163:-0.975309 164:-0.975309 165:-1 166:-0.975309 167:-1 168:-1 169:-1 170:-1 
-1 -1 1 1 1 1:-1 2:-1 3:-1 4:-1 5:-0.795455 6:-1 7:-1 8:-1 9:-0.977273 10:-1 11:-1 12:-1 13:-1 14:-1 15:-0.977273 16:-1 17:-0.545454 18:-1 19:-0.840909 20:-1 21:-1 22:-1 23:-1 24:-0.977273 25:-0.931818 26:-1 27:-0.613636 28:1 29:-0.34091 30:-1 31:-0.477271 32:-0.386363 33:-1 34:-0.931818 35:-0.818182 36:-0.954545 37:-0.75 38:-0.454546 39:-0.727273 40:-1 41:-0.249998 42:-0.181819 43:-0.795455 44:-0.863636 45:-0.522729 46:-0.545454 47:-0.75 48:-0.886363 49:-0.863636 50:-1 51:-0.0227289 52:-0.522729 53:-0.5 54:-0.75 55:-0.613636 56:-0.34091 57:-0.659091 58:-0.977273 59:-0.568183 60:-0.818182 61:-0.659091 62:0.363639 63:-0.409092 64:-0.613636 65:0.0454538 66:-0.477271 67:-0.954545 68:-0.863636 69:-0.363635 70:-0.522729 71:0.295456 72:-0.590908 73:-0.477271 74:-0.772727 75:-0.704545 76:-0.409092 77:-0.681818 78:-0.727273 79:-0.613636 80:-0.545454 81:-0.818182 82:-0.636363 83:-0.772727 84:-0.318181 85:-0.409092 86:-0.727273 87:-0.681818 88:-0.795455 89:-0.431817 90:-0.431817 91:-1 92:-0.977273 93:-0.318181 94:-0.477271 95:-0.477271 96:-0.863636 97:-0.15909 98:-0.795455 99:-0.568183 100:-0.34091 101:-1 102:-1 103:-0.249998 104:-0.0227289 105:-0.772727 106:-0.886363 107:-0.409092 108:-0.886363 109:-0.704545 110:-0.34091 111:-1 112:-1 113:-0.431817 114:-0.772727 115:-0.954545 116:-0.5 117:-0.75 118:-0.886363 119:-0.931818 120:-0.272727 121:-1 122:-1 123:-0.977273 124:-0.931818 125:-1 126:-0.227273 127:-0.977273 128:-0.75 129:-1 130:-0.75 131:-1 132:-1 133:-1 134:-0.909091 135:-1 136:-1 137:-1 138:-0.909091 139:-1 140:-0.954545 141:-1 142:-1 143:-1 144:-0.704545 145:-1 146:-1 147:-1 148:-1 149:-1 150:-0.954545 151:-1 152:-1 153:-1 154:-0.886363 155:-1 156:-1 157:-1 158:-1 159:-1 160:-1 161:-1 162:-1 163:-1 164:-1 165:-1 166:-1 167:-1 168:-1 169:-1 170:-1 
-1 -1 1 1 1 1:-0.777778 2:-0.82716 3:-1 4:-1 5:-0.975309 6:-1 7:-1 8:-1 9:-1 10:-1 11:-0.333333 12:-0.679012 13:-1 14:-1 15:-0.802469 16:-0.975309 17:-1 18:0.111113 19:-1 20:-1 21:-0.456791 22:-0.580247 23:-1 24:-1 25:-0.703704 26:-0.753086 27:-0.925926 28:0.308644 29:-0.925926 30:-0.777778 31:-0.703704 32:0.333333 33:-1 34:-1 35:-0.703704 36:-0.62963 37:0.185186 38:-0.925926 39:0.209876 40:-0.728395 41:-0.851852 42:-0.753086 43:-1 44:-1 45:1 46:-0.530864 47:-0.530864 48:-0.925926 49:-0.185186 50:-0.802469 51:-0.901234 52:-0.432101 53:-1 54:-1 55:0.0123447 56:-0.333333 57:-0.432101 58:-0.62963 59:-0.432101 60:-0.506173 61:-0.679012 62:-0.506173 63:-0.975309 64:-1 65:-0.530864 66:-0.530864 67:-0.160492 68:-0.851852 69:-0.358023 70:-0.580247 71:-0.432101 72:-0.728395 73:-0.753086 74:-0.876543 75:-0.703704 76:-0.407407 77:-0.0370393 78:-0.703704 79:-0.604938 80:-0.333333 81:-0.0123447 82:-0.654321 83:-0.62963 84:-0.62963 85:-0.802469 86:-0.82716 87:-0.48148 88:-0.580247 89:-0.851852 90:-0.382717 91:0.135802 92:-0.580247 93:-0.382717 94:-0.333333 95:-0.802469 96:-0.753086 97:-0.728395 98:-0.580247 99:-0.82716 100:-0.753086 101:-0.901234 102:-0.777778 103:0.111113 104:-0.530864 105:-0.950617 106:-0.753086 107:-0.901234 108:-0.333333 109:-0.703704 110:-0.802469 111:-1 112:-0.82716 113:-0.25926 114:-0.407407 115:-0.950617 116:-0.802469 117:-0.925926 118:-0.802469 119:-0.407407 120:-0.654321 121:-1 122:-0.901234 123:-0.48148 124:0.530864 125:-1 126:-0.62963 127:-1 128:-1 129:-0.876543 130:-0.555556 131:-1 132:-1 133:0.333333 134:-0.0123447 135:-1 136:-0.160492 137:-0.975309 138:-1 139:-0.950617 140:-0.0617288 141:-1 142:-1 143:-0.950617 144:-0.679012 145:-1 146:-0.925926 147:-1 148:-1 149:-1 150:-0.975309 151:-1 152:-1 153:-0.925926 154:-0.975309 155:-1 156:-0.925926 157:-1 158:-1 159:-1 160:-1 161:-1 162:-1 163:-1 164:-1 165:-1 166:-0.975309 167:-1 168:-1 169:-1 170:-1 
-1 -1 1 1 1 1:-0.976471 2:-0.623529 3:-1 4:-1 5:-0.905882 6:-1 7:-0.858824 8:0.31765 9:-0.341177 10:-1 11:-0.952941 12:-0.717647 13:-1 14:-1 15:-0.388233 16:-1 17:-0.623529 18:-0.176471 19:0.741178 20:-1 21:-0.905882 22:-0.129411 23:-1 24:-1 25:-0.152939 26:-1 27:0.364709 28:1 29:-0.270586 30:-1 31:-0.552939 32:0.247058 33:-1 34:-1 35:-0.341177 36:-0.976471 37:-0.717647 38:-0.835294 39:-0.6 40:-1 41:-0.835294 42:-0.529412 43:-1 44:-1 45:-0.764705 46:-0.858824 47:-0.6 48:-1 49:-0.858824 50:-1 51:-0.717647 52:-0.694117 53:-1 54:-1 55:0.0823555 56:-0.952941 57:-0.694117 58:-0.952941 59:-0.552939 60:-1 61:0.22353 62:-0.882353 63:-1 64:-1 65:-0.835294 66:-0.929412 67:-0.788235 68:-1 69:-0.952941 70:-1 71:0.741178 72:-0.929412 73:-1 74:-0.952941 75:-0.717647 76:-0.788235 77:-0.647058 78:-1 79:-0.858824 80:-1 81:-0.764705 82:-0.976471 83:-0.952941 84:-0.929412 85:-0.811765 86:-0.764705 87:-0.858824 88:-1 89:-0.952941 90:-0.976471 91:-0.905882 92:-1 93:-0.811765 94:-0.976471 95:-0.858824 96:-0.50588 97:-0.929412 98:-1 99:-1 100:-0.905882 101:-1 102:-1 103:-0.152939 104:-0.199998 105:-0.952941 106:-0.552939 107:-0.858824 108:-1 109:-1 110:-0.364705 111:-1 112:-0.976471 113:0.388237 114:-0.317645 115:-1 116:-0.647058 117:-0.50588 118:-1 119:-1 120:-0.341177 121:-1 122:-0.552939 123:-0.364705 124:-0.435292 125:-1 126:-0.741176 127:-1 128:-1 129:-1 130:-0.0352915 131:-1 132:-0.882353 133:-0.552939 134:0.623531 135:-1 136:0.129411 137:-0.929412 138:-1 139:-1 140:-0.458824 141:-1 142:-1 143:-0.458824 144:-0.717647 145:-1 146:-0.388233 147:-1 148:-1 149:-1 150:-0.388233 151:-1 152:-1 153:-0.858824 154:-0.811765 155:-1 156:-0.741176 157:-1 158:-1 159:-1 160:-0.247058 161:-1 162:-1 163:-0.882353 164:-0.929412 165:-1 166:-0.929412 167:-1 168:-1 169:-1 170:-0.929412 
-1 -1 1 1 1 1:-1 2:-1 3:-0.933333 4:-1 5:-0.955556 6:-1 7:-0.888889 8:-0.622222 9:-0.933333 10:-0.955556 11:-1 12:-1 13:-0.666666 14:-1 15:-0.422222 16:-1 17:-0.644444 18:0.866667 19:-0.955556 20:-0.866667 21:-1 22:0.0222223 23:-0.822222 24:-1 25:-0.0888889 26:-1 27:-0.688888 28:-0.377778 29:-0.866667 30:-0.911111 31:-0.955556 32:0.711111 33:-0.933333 34:-1 35:0.2 36:-1 37:0.111111 38:-0.555556 39:-0.511111 40:-0.911111 41:-0.822222 42:-0.355556 43:-0.866667 44:-1 45:-0.2 46:-0.977778 47:0.288889 48:-0.955556 49:-0.555556 50:-0.822222 51:-0.866667 52:-0.511111 53:-0.911111 54:-1 55:-0.888889 56:-0.955556 57:-0.422222 58:-0.888889 59:-0.0888889 60:-0.688888 61:-0.533333 62:-0.866667 63:-0.866667 64:-1 65:-0.911111 66:-0.6 67:-0.644444 68:-0.777777 69:-0.688888 70:-0.733333 71:-0.311111 72:-0.8 73:-0.8 74:-1 75:-0.8 76:-0.355556 77:-0.955556 78:-0.8 79:-0.755555 80:-0.844444 81:0.4 82:-1 83:-0.977778 84:-1 85:-0.822222 86:-0.444444 87:-1 88:-0.866667 89:-0.755555 90:-0.644444 91:-0.311111 92:-1 93:-0.955556 94:-0.866667 95:-0.933333 96:-0.666666 97:-0.977778 98:-0.866667 99:-0.688888 100:-0.822222 101:-0.422222 102:-1 103:-0.822222 104:-0.711111 105:-0.977778 106:-0.555556 107:-0.977778 108:-0.955556 109:-0.911111 110:-0.755555 111:-0.977778 112:-1 113:-0.822222 114:-0.333333 115:-1 116:-0.933333 117:-1 118:-1 119:-0.8 120:-0.488889 121:-1 122:-1 123:-0.377778 124:-0.377778 125:-1 126:-0.311111 127:-1 128:-1 129:-0.666666 130:-0.133333 131:-1 132:-1 133:0.577778 134:1 135:-1 136:-0.0666667 137:-1 138:-1 139:-0.866667 140:-0.488889 141:-1 142:-1 143:-0.933333 144:-0.511111 145:-1 146:-0.933333 147:-1 148:-1 149:-0.755555 150:-0.911111 151:-1 152:-1 153:-0.955556 154:-1 155:-1 156:-1 157:-1 158:-1 159:-1 160:-0.822222 161:-1 162:-1 163:-0.733333 164:-1 165:-1 166:-1 167:-1 168:-1 169:-1 170:-1 
-0.8739409443418924 -1 1 1 1 1:-1 2:-0.884058 3:-1 4:-1 5:-1 6:-1 7:-1 8:-0.652174 9:-0.913044 10:-1 11:-1 12:-0.942029 13:-1 14:-1 15:-0.942029 16:-1 17:-1 18:-0.188405 19:-0.768116 20:-1 21:-0.826087 22:-0.768116 23:-1 24:-0.855073 25:-0.826087 26:-1 27:-0.246379 28:0.826085 29:0.768117 30:-1 31:-0.101451 32:-0.942029 33:-1 34:-0.768116 35:-0.594203 36:-0.971014 37:-0.710145 38:-0.710145 39:0.27536 40:-1 41:0.536229 42:0.623189 43:-1 44:0.27536 45:0.246379 46:-0.420288 47:-0.884058 48:-0.478261 49:-0.739131 50:-1 51:-0.391307 52:1 53:-0.942029 54:0.072464 55:-0.130437 56:0.768117 57:-0.884058 58:-0.304347 59:-0.739131 60:-1 61:0.884059 62:-0.391307 63:-0.942029 64:-0.913044 65:-0.27536 66:-0.27536 67:-0.826087 68:-0.188405 69:-0.681159 70:-1 71:-0.884058 72:-0.565218 73:-0.942029 74:-0.913044 75:-0.565218 76:-0.797101 77:-0.420288 78:-0.971014 79:-0.623188 80:-1 81:-0.884058 82:-0.797101 83:-0.884058 84:-0.913044 85:-0.652174 86:-0.652174 87:-0.710145 88:-1 89:-0.565218 90:-1 91:-1 92:-1 93:-0.130437 94:-0.0144907 95:-0.449275 96:-0.797101 97:0.246379 98:-1 99:-0.768116 100:-1 101:-1 102:-1 103:0.710144 104:-0.130437 105:-0.623188 106:-0.391307 107:0.623189 108:-1 109:-0.913044 110:0.478261 111:-1 112:-1 113:0.478261 114:-0.768116 115:-0.855073 116:-0.246379 117:-0.855073 118:-1 119:-1 120:-0.217392 121:-1 122:-1 123:-0.478261 124:-0.855073 125:-1 126:-0.942029 127:-1 128:-1 129:-1 130:0.623189 131:-1 132:-1 133:-0.826087 134:-0.884058 135:-1 136:-0.942029 137:-1 138:-1 139:-1 140:-0.130437 141:-1 142:-1 143:-0.884058 144:-1 145:-1 146:-1 147:-1 148:-1 149:-1 150:-0.449275 151:-1 152:-1 153:-0.855073 154:-1 155:-1 156:-1 157:-1 158:-1 159:-1 160:-0.971014 161:-1 162:-1 163:-0.971014 164:-1 165:-1 166:-1 167:-1 168:-1 169:-1 170:-1 
-1 -1 1 1 1 1:-0.854167 2:-1 3:-1 4:-1 5:-0.979167 6:-1 7:-1 8:-0.395833 9:-0.9375 10:-1 11:-0.75 12:-1 13:-1 14:-1 15:-0.895834 16:-1 17:-1 18:0.437499 19:-0.416668 20:-0.9375 21:-0.770833 22:-0.9375 23:-1 24:-1 25:-0.458334 26:-1 27:-1 28:0.124998 29:-0.604165 30:-0.916667 31:-0.6875 32:0.0625 33:-1 34:-1 35:1 36:-0.979167 37:-0.270833 38:-0.583334 39:0.479166 40:-0.895834 41:-0.833334 42:-0.875 43:-1 44:-1 45:-0.666667 46:-0.979167 47:-0.083335 48:-0.9375 49:-0.416668 50:-0.833334 51:-0.708333 52:-0.437499 53:-0.875 54:-0.9375 55:-0.854167 56:-0.854167 57:-0.833334 58:-0.958333 59:-0.729167 60:-0.875 61:-0.645834 62:-0.625 63:-0.729167 64:-0.875 65:-0.625 66:-0.791667 67:-0.729167 68:-0.9375 69:-0.770833 70:-0.791667 71:-0.604165 72:-0.645834 73:-0.645834 74:-0.854167 75:-0.875 76:-0.75 77:-0.729167 78:-0.979167 79:-0.958333 80:-0.541667 81:0.229166 82:-0.604165 83:-0.604165 84:-0.541667 85:-0.958333 86:-0.645834 87:-0.6875 88:-1 89:-0.895834 90:-0.6875 91:-0.645834 92:-0.666667 93:-0.645834 94:-0.562499 95:-0.9375 96:-0.729167 97:-0.520832 98:-0.979167 99:-1 100:-0.625 101:-0.979167 102:-0.6875 103:-0.729167 104:-0.479166 105:-0.979167 106:-0.458334 107:-0.666667 108:-1 109:-1 110:-0.8125 111:-0.958333 112:-0.875 113:-0.6875 114:-0.416668 115:-0.979167 116:-0.6875 117:-0.875 118:-1 119:-1 120:-0.6875 121:-1 122:-0.958333 123:0.354166 124:0.354166 125:-1 126:-0.75 127:-0.875 128:-1 129:-0.958333 130:-0.500001 131:-1 132:-0.958333 133:-0.916667 134:-0.916667 135:-1 136:0.208331 137:-0.979167 138:-1 139:-1 140:-0.104166 141:-1 142:-1 143:-0.875 144:-0.979167 145:-1 146:-0.875 147:-0.979167 148:-1 149:-1 150:-1 151:-1 152:-1 153:-0.958333 154:-1 155:-1 156:-0.958333 157:-0.979167 158:-1 159:-1 160:-1 161:-1 162:-1 163:-0.895834 164:-1 165:-1 166:-0.958333 167:-1 168:-1 169:-1 170:-1 
-1 -1 -1 1 1 1:-1 2:-0.970149 3:-1 4:-1 5:-1 6:-0.925373 7:-1 8:-0.791045 9:-1 10:-1 11:-1 12:-0.940299 13:-1 14:-1 15:-0.970149 16:-0.910448 17:-1 18:1 19:-1 20:-1 21:-1 22:-0.955224 23:-1 24:-1 25:-0.835821 26:-0.940299 27:-0.835821 28:0.373135 29:-0.925373 30:-1 31:-1 32:-0.611942 33:-1 34:-1 35:-0.716418 36:-0.940299 37:-0.35821 38:-0.761194 39:0.119403 40:-1 41:-1 42:0.223879 43:-1 44:-1 45:-0.298509 46:-1 47:-0.343285 48:-0.985075 49:-0.22388 50:-1 51:-0.985075 52:-0.194029 53:-1 54:-1 55:0.313431 56:-0.970149 57:-0.417911 58:-1 59:-0.447761 60:-1 61:-0.940299 62:-0.268659 63:-1 64:-1 65:-0.0597026 66:-1 67:-0.35821 68:-1 69:-0.313434 70:-0.895522 71:-0.119403 72:-0.597016 73:-0.955224 74:-0.970149 75:-0.611942 76:-0.910448 77:-0.522387 78:-1 79:-0.656716 80:-0.925373 81:-0.597016 82:-0.880597 83:-0.925373 84:-0.955224 85:-0.985075 86:-0.611942 87:-0.776119 88:-1 89:-0.910448 90:-0.955224 91:-0.0149271 92:-0.970149 93:-0.985075 94:-1 95:-1 96:-0.671642 97:-0.865672 98:-1 99:-0.880597 100:-0.477611 101:0.134328 102:-1 103:-0.970149 104:-0.955224 105:-1 106:-0.611942 107:-1 108:-1 109:-0.925373 110:-0.582091 111:-0.641791 112:-1 113:-0.925373 114:-0.955224 115:-1 116:-0.597016 117:-1 118:-1 119:-1 120:-0.537312 121:-1 122:-1 123:-0.955224 124:-0.820896 125:-1 126:-0.492536 127:-1 128:-1 129:-1 130:-1.96695e-06 131:-1 132:-1 133:-0.80597 134:-0.38806 135:-1 136:0.0597026 137:-0.955224 138:-1 139:-1 140:0.134328 141:-1 142:-1 143:0.761193 144:0.179104 145:-1 146:-0.671642 147:-0.925373 148:-1 149:-1 150:-0.925373 151:-1 152:-1 153:0.223879 154:0.25373 155:-1 156:-0.970149 157:-0.895522 158:-1 159:-1 160:-1 161:-1 162:-1 163:-0.626866 164:-0.552237 165:-1 166:-1 167:-0.910448 168:-1 169:-1 170:-1 
-1 -1 -1 1 1 1:-1 2:-1 3:-1 4:-1 5:-1 6:-1 7:-0.834483 8:-0.751724 9:-0.875862 10:-1 11:-1 12:-1 13:-1 14:-0.95862 15:-1 16:-1 17:-0.627586 18:-0.310344 19:-0.448275 20:-1 21:-1 22:-1 23:-1 24:-0.82069 25:-1 26:-1 27:-0.682759 28:-0.29655 29:-0.227587 30:-1 31:-1 32:-1 33:-0.834483 34:-0.903448 35:-0.972414 36:-1 37:-0.448275 38:-0.213793 39:-0.337929 40:-1 41:-1 42:-0.572415 43:-0.268966 44:-0.862069 45:-0.834483 46:-1 47:-0.641379 48:-0.668965 49:-0.655172 50:-1 51:-1 52:-0.365517 53:-0.131035 54:-0.586205 55:-0.103447 56:-1 57:-0.517242 58:-0.765517 59:-0.696552 60:-1 61:-1 62:0.296554 63:-0.29655 64:-0.131035 65:0.544826 66:-1 67:-0.531036 68:-0.806896 69:-0.641379 70:-1 71:-0.862069 72:-0.0206893 73:-0.682759 74:-0.241377 75:-0.172414 76:-0.889655 77:-0.29655 78:-0.517242 79:-0.751724 80:-0.875862 81:1 82:-0.503448 83:-0.862069 84:-0.462069 85:-0.737931 86:-0.641379 87:-0.613793 88:-0.862069 89:-0.77931 90:-0.875862 91:0.696551 92:-0.95862 93:-0.503448 94:-0.365517 95:-0.903448 96:-0.572415 97:-0.972414 98:-0.95862 99:-0.848276 100:-0.55862 101:-0.95862 102:-1 103:-0.986207 104:-0.834483 105:-0.95862 106:-0.724138 107:-0.972414 108:-0.972414 109:-0.862069 110:-0.668965 111:-1 112:-1 113:-0.903448 114:-1 115:-0.986207 116:0.0344836 117:-0.986207 118:-1 119:-1 120:-0.448275 121:-1 122:-1 123:-0.751724 124:-0.986207 125:-1 126:-0.434484 127:-1 128:-1 129:-1 130:-0.351723 131:-1 132:-1 133:-0.917241 134:-0.972414 135:-1 136:-0.186208 137:-1 138:-1 139:-1 140:0.117241 141:-1 142:-1 143:-1 144:-1 145:-1 146:-0.710345 147:-1 148:-1 149:-1 150:-0.489653 151:-1 152:-1 153:-0.986207 154:-1 155:-1 156:-1 157:-1 158:-1 159:-1 160:-0.972414 161:-1 162:-1 163:-1 164:-1 165:-1 166:-1 167:-1 168:-1 169:-1 170:-1 
-1 -1 -1 1 1 1:-1 2:-1 3:-1 4:-1 5:-0.915151 6:-1 7:-1 8:0.127273 9:-1 10:-0.927273 11:-1 12:-0.818182 13:-1 14:-1 15:-0.733333 16:-1 17:-0.951515 18:-0.212122 19:-0.951515 20:-0.987879 21:-1 22:-0.636364 23:-1 24:-1 25:-0.939394 26:-1 27:-0.648486 28:-0.0787869 29:-0.709091 30:-0.987879 31:-1 32:-0.80606 33:-1 34:-1 35:-0.612122 36:-1 37:-0.345455 38:-0.927273 39:-0.672727 40:-0.890909 41:-0.890909 42:-0.466668 43:-1 44:-1 45:-0.660605 46:-1 47:-0.454545 48:-1 49:-0.587878 50:-1 51:-1 52:-0.127273 53:-1 54:-1 55:-0.418182 56:-1 57:-0.357577 58:-1 59:-0.660605 60:-1 61:-0.539395 62:-0.369696 63:-0.975758 64:-1 65:-0.793939 66:-1 67:-0.709091 68:-1 69:-0.466668 70:-0.975758 71:1 72:-0.866667 73:-0.987879 74:-1 75:-0.563636 76:-1 77:-0.80606 78:-1 79:-0.757576 80:-0.890909 81:-0.660605 82:-1 83:-0.963636 84:-0.927273 85:-0.478787 86:-0.878788 87:-0.975758 88:-1 89:-0.757576 90:-0.733333 91:-1 92:-1 93:-0.757576 94:-0.769697 95:-0.975758 96:-0.854545 97:-0.963636 98:-1 99:-0.818182 100:-0.854545 101:-1 102:-1 103:-0.442423 104:-0.527273 105:-1 106:-0.660605 107:-0.915151 108:-1 109:-0.915151 110:-0.733333 111:-1 112:-1 113:-0.490909 114:-0.454545 115:-1 116:-0.381818 117:-0.963636 118:-1 119:-0.987879 120:-0.503031 121:-1 122:-1 123:-0.515151 124:-0.357577 125:-1 126:-0.527273 127:-1 128:-1 129:-0.963636 130:-0.236364 131:-1 132:-1 133:-0.236364 134:-0.248486 135:-1 136:-0.369696 137:-1 138:-1 139:-0.975758 140:-0.745455 141:-1 142:-1 143:-0.866667 144:-0.80606 145:-1 146:-0.551514 147:-1 148:-1 149:-0.975758 150:-0.636364 151:-1 152:-1 153:-0.90303 154:-1 155:-1 156:-0.866667 157:-1 158:-1 159:-0.915151 160:-1 161:-1 162:-1 163:-0.951515 164:-1 165:-1 166:-1 167:-1 168:-1 169:-0.975758 170:-0.987879 
-1 -1 -1 1 1 1:-1 2:-0.899371 3:-1 4:-1 5:-0.899371 6:-1 7:-0.962264 8:-0.169811 9:-0.849057 10:-1 11:-1 12:-0.874214 13:-1 14:-1 15:-0.597484 16:-1 17:-0.823899 18:-0.685535 19:-0.685535 20:-1 21:-1 22:-0.861635 23:-1 24:-0.974843 25:-0.836478 26:-1 27:-0.44654 28:-0.899371 29:-0.333335 30:-1 31:-1 32:-0.433963 33:-1 34:-0.962264 35:-0.408806 36:-1 37:0.00628817 38:-0.949685 39:-0.572327 40:-1 41:-1 42:0.899372 43:-0.987421 44:-0.91195 45:-0.723271 46:-1 47:-0.0314452 48:-0.874214 49:-0.283021 50:-1 51:-1 52:0.00628817 53:-0.937107 54:-0.761006 55:-0.144654 56:-0.987421 57:-0.509434 58:-0.672956 59:-0.572327 60:-0.962264 61:-0.622641 62:-0.622641 63:-0.974843 64:-0.685535 65:0.00628817 66:-0.949685 67:-0.622641 68:-0.798742 69:-0.748428 70:-0.660377 71:1 72:-0.773585 73:-0.974843 74:-0.308178 75:-0.0817594 76:-0.811321 77:-0.584906 78:-0.295597 79:-0.660377 80:-0.194969 81:0.182388 82:-0.962264 83:-0.949685 84:0.132074 85:-0.823899 86:-0.836478 87:-0.622641 88:-0.157231 89:-0.723271 90:-0.333335 91:-0.0566023 92:-0.974843 93:-0.924528 94:-0.45912 95:-0.974843 96:-0.396225 97:-0.937107 98:-0.333335 99:-0.874214 100:-0.63522 101:-0.987421 102:-0.987421 103:-0.886793 104:-0.597484 105:-1 106:-0.283021 107:-0.987421 108:-0.874214 109:-0.773585 110:-0.710692 111:-1 112:-1 113:-0.522011 114:-0.748428 115:-1 116:-0.408806 117:-0.962264 118:-0.91195 119:-0.761006 120:-0.672956 121:-1 122:-1 123:-0.0943402 124:-0.849057 125:-1 126:-0.396225 127:-1 128:-0.899371 129:-0.949685 130:-0.685535 131:-1 132:-1 133:0.446539 134:-0.823899 135:-1 136:-0.257864 137:-1 138:-0.974843 139:-0.786163 140:-0.572327 141:-1 142:-1 143:-0.257864 144:-0.698113 145:-1 146:-0.245283 147:-1 148:-0.987421 149:-0.91195 150:-0.572327 151:-1 152:-1 153:-0.735849 154:-0.836478 155:-1 156:-0.937107 157:-1 158:-1 159:-1 160:-0.584906 161:-1 162:-1 163:-0.685535 164:-1 165:-1 166:-0.974843 167:-1 168:-1 169:-1 170:-0.899371 
-1 -1 -1 1 1 1:-1 2:-1 3:-1 4:-1 5:-1 6:-1 7:-1 8:0.0888873 9:-1 10:-1 11:-1 12:-1 13:-1 14:-1 15:-1 16:-1 17:-1 18:0.0333318 19:-1 20:-1 21:-1 22:-0.500001 23:-1 24:-1 25:-0.866667 26:-1 27:-0.988889 28:-0.233334 29:-1 30:-1 31:-1 32:0.8 33:-1 34:-1 35:0.577779 36:-1 37:-0.144446 38:-0.888889 39:-0.733333 40:-1 41:-1 42:-0.466667 43:-1 44:-1 45:0.199998 46:-1 47:-0.111112 48:-0.966667 49:0.244443 50:-1 51:-1 52:-0.8 53:-1 54:-1 55:-0.877778 56:-1 57:-0.366668 58:-1 59:-0.522223 60:-1 61:-1 62:-1 63:-1 64:-1 65:-1 66:-1 67:-0.611112 68:-1 69:-0.277779 70:-1 71:-0.777778 72:-1 73:-1 74:-1 75:-1 76:-1 77:-0.744444 78:-1 79:-0.677778 80:-1 81:1 82:-1 83:-0.877778 84:-0.9 85:-1 86:-1 87:-1 88:-1 89:-1 90:-1 91:-0.233334 92:-1 93:-0.444445 94:-0.655556 95:-1 96:-1 97:-1 98:-1 99:-1 100:-1 101:-0.955556 102:-1 103:-0.811111 104:-0.355556 105:-1 106:-0.811111 107:-1 108:-1 109:-1 110:-0.811111 111:-1 112:-1 113:0.211109 114:-0.255557 115:-1 116:-0.677778 117:-1 118:-1 119:-1 120:-0.100001 121:-1 122:-1 123:-0.38889 124:-0.28889 125:-1 126:-0.133335 127:-1 128:-1 129:-1 130:0.22222 131:-1 132:-1 133:-0.655556 134:-0.577778 135:-1 136:0.611112 137:-1 138:-1 139:-1 140:-0.277779 141:-1 142:-1 143:-1 144:-0.933333 145:-1 146:-0.955556 147:-1 148:-1 149:-1 150:-1 151:-1 152:-1 153:-1 154:-1 155:-1 156:-1 157:-1 158:-1 159:-1 160:-1 161:-1 162:-1 163:-1 164:-1 165:-1 166:-1 167:-1 168:-1 169:-1 170:-1 
-1 -1 -1 1 1 1:-1 2:-1 3:-1 4:-1 5:-1 6:-1 7:-0.901234 8:-0.91358 9:-0.802469 10:-1 11:-1 12:-1 13:-0.901234 14:-0.888889 15:-1 16:-1 17:-0.283949 18:-0.716049 19:-0.185186 20:-1 21:-1 22:-0.901234 23:-0.555555 24:-0.950617 25:-0.740741 26:-1 27:-0.246912 28:-0.382715 29:-0.382715 30:-1 31:-1 32:0.370372 33:-0.740741 34:-1 35:-0.0123431 36:-1 37:-0.567901 38:-0.160493 39:-0.296296 40:-1 41:-1 42:0.456792 43:-0.358025 44:-1 45:0.802471 46:-1 47:-0.814815 48:0.234569 49:-0.518518 50:-1 51:0.419755 52:-0.555555 53:-0.901234 54:-0.876543 55:-0.617285 56:-1 57:-0.839506 58:-0.753086 59:-0.506172 60:-1 61:1 62:-0.91358 63:-0.777778 64:-0.518518 65:-0.962963 66:-1 67:-0.851852 68:-0.962963 69:-0.901234 70:-1 71:-0.950617 72:-0.987654 73:-0.358025 74:0.543212 75:-1 76:-1 77:-0.679012 78:-0.950617 79:-0.975309 80:-1 81:-1 82:-1 83:-0.703703 84:-0.740741 85:-1 86:-1 87:-0.839506 88:-0.925926 89:-0.962963 90:-1 91:-1 92:-1 93:-0.839506 94:-0.716049 95:-1 96:-0.802469 97:-0.888889 98:-1 99:-1 100:-1 101:-1 102:-1 103:-0.802469 104:-0.790123 105:-1 106:-0.308642 107:-0.728395 108:-1 109:-1 110:-0.950617 111:-1 112:-1 113:-0.728395 114:-0.728395 115:-1 116:-0.888889 117:-0.888889 118:-1 119:-1 120:-0.790123 121:-1 122:-1 123:-0.925926 124:-0.864197 125:-1 126:-0.333332 127:-1 128:-1 129:-1 130:-0.580248 131:-1 132:-1 133:-0.962963 134:-1 135:-1 136:-0.135803 137:-1 138:-1 139:-1 140:0.308642 141:-1 142:-1 143:-0.975309 144:-1 145:-1 146:-0.382715 147:-1 148:-1 149:-1 150:0.209876 151:-1 152:-1 153:-1 154:-1 155:-1 156:-0.679012 157:-1 158:-1 159:-1 160:-0.765432 161:-1 162:-1 163:-1 164:-1 165:-1 166:-1 167:-1 168:-1 169:-1 170:-0.962963 
-1 -1 -1 1 1 1:-1 2:-1 3:-1 4:-1 5:-0.958042 6:-0.958042 7:-1 8:-0.468532 9:-1 10:-1 11:-1 12:-1 13:-1 14:-1 15:-0.804196 16:-0.944056 17:-1 18:1 19:-1 20:-1 21:-1 22:-0.650348 23:-1 24:-1 25:-0.72028 26:-0.174826 27:-1 28:-0.384616 29:-0.93007 30:-0.93007 31:-1 32:-0.636363 33:-1 34:-1 35:-0.132868 36:-0.272727 37:-0.678322 38:-0.916084 39:-0.594405 40:-0.398601 41:-1 42:0.188811 43:-1 44:-1 45:-0.762238 46:-0.734265 47:-0.804196 48:-0.986014 49:-0.958042 50:-0.468532 51:-1 52:-0.440558 53:-1 54:-1 55:-0.174826 56:-0.650348 57:-0.972028 58:-1 59:-0.916084 60:-0.972028 61:-1 62:-0.594405 63:-1 64:-1 65:-0.594405 66:-0.93007 67:-0.986014 68:-1 69:-0.874126 70:-0.902098 71:-0.86014 72:-0.734265 73:-1 74:-1 75:-0.762238 76:-0.986014 77:-0.986014 78:-1 79:-0.762238 80:-0.804196 81:-0.650348 82:-0.902098 83:-1 84:-1 85:-0.846154 86:-0.888112 87:-0.888112 88:-1 89:-0.496505 90:-0.412589 91:0.734267 92:-0.986014 93:-0.972028 94:-1 95:-1 96:-0.832168 97:-0.818182 98:-1 99:-0.58042 100:-0.636363 101:-0.062937 102:-1 103:-0.776224 104:-0.51049 105:-1 106:-0.944056 107:-0.902098 108:-1 109:-0.93007 110:-0.804196 111:-0.916084 112:-1 113:0.258742 114:-0.58042 115:-1 116:-0.986014 117:-0.874126 118:-1 119:-0.944056 120:-0.93007 121:-1 122:-1 123:-0.11888 124:0.566436 125:-1 126:-0.93007 127:-0.762238 128:-1 129:-0.72028 130:-0.944056 131:-1 132:-1 133:-0.160838 134:-0.342658 135:-1 136:-0.524474 137:-0.0349639 138:-1 139:-0.342658 140:-0.552447 141:-1 142:-1 143:-0.986014 144:-0.888112 145:-1 146:-1 147:-0.32867 148:-1 149:-0.804196 150:-1 151:-1 152:-1 153:-1 154:-1 155:-1 156:-1 157:-0.72028 158:-1 159:-0.93007 160:-1 161:-1 162:-1 163:-1 164:-1 165:-1 166:-1 167:-1 168:-1 169:-0.972028 170:-1 
-1 -1 -1 1 1 1:-1 2:-1 3:-1 4:-0.534482 5:-1 6:-1 7:-1 8:-0.689655 9:-1 10:-1 11:-1 12:-0.827586 13:-0.706897 14:0.74138 15:-0.965517 16:-1 17:-1 18:-0.586207 19:-1 20:-0.982759 21:-1 22:-0.293104 23:0.0689632 24:0.0689632 25:-0.689655 26:-1 27:-0.948276 28:-0.637931 29:-0.87931 30:-0.913793 31:-1 32:0.620691 33:0.310346 34:-0.413793 35:-0.0862051 36:-0.568965 37:-0.931035 38:-0.465518 39:-0.741379 40:-0.603448 41:-1 42:0.0517257 43:-0.344829 44:-0.724138 45:0.48276 46:-0.327588 47:-0.913793 48:-0.465518 49:-0.413793 50:-0.224136 51:-0.982759 52:-0.396551 53:-0.793104 54:-0.758621 55:0 56:-0.0344839 57:-0.87931 58:-0.51724 59:-0.465518 60:-0.413793 61:-0.293104 62:-0.706897 63:-1 64:-0.896552 65:-0.344829 66:-0.103447 67:-0.982759 68:-0.137931 69:-0.465518 70:-0.551724 71:1 72:-0.948276 73:-0.758621 74:-0.948276 75:-0.913793 76:-0.189657 77:-0.931035 78:-0.241378 79:-0.396551 80:-0.137931 81:-0.51724 82:-0.948276 83:-0.48276 84:-0.982759 85:-0.931035 86:-0.775862 87:-0.758621 88:-0.862069 89:-0.413793 90:-0.155173 91:0.34483 92:-1 93:-0.741379 94:-1 95:-1 96:-0.810345 97:-0.637931 98:-0.931035 99:-0.448277 100:-0.706897 101:-1 102:-1 103:-1 104:-1 105:-1 106:-0.965517 107:-0.0517258 108:-0.913793 109:-0.913793 110:-0.827586 111:-1 112:-1 113:-1 114:-1 115:-1 116:-0.931035 117:-0.48276 118:-1 119:-0.741379 120:-0.931035 121:-1 122:-1 123:-1 124:-1 125:-1 126:-0.827586 127:-0.155173 128:-1 129:-0.844828 130:-1 131:-1 132:-1 133:-1 134:-1 135:-1 136:-0.913793 137:-0.362067 138:-1 139:-0.793104 140:-1 141:-1 142:-1 143:-1 144:-1 145:-1 146:-1 147:-0.551724 148:-1 149:-0.948276 150:-1 151:-1 152:-1 153:-1 154:-1 155:-1 156:-1 157:-0.896552 158:-1 159:-0.982759 160:-1 161:-1 162:-1 163:-1 164:-1 165:-1 166:-1 167:-0.965517 168:-1 169:-1 170:-1 
-1 -1 -1 1 1 1:-1 2:-0.904762 3:-1 4:-1 5:-0.492064 6:-0.936508 7:-1 8:-0.0952392 9:-0.984127 10:-1 11:-1 12:-0.190474 13:-1 14:-1 15:0.0476172 16:-0.984127 17:-1 18:1 19:-0.920635 20:-1 21:-1 22:0.190479 23:-1 24:-1 25:-0.36508 26:-0.968254 27:-0.968254 28:0.317463 29:-0.698413 30:-1 31:-0.968254 32:0.460319 33:-1 34:-1 35:0.412697 36:-0.984127 37:-0.460319 38:-0.285713 39:-0.285713 40:-1 41:-0.952381 42:0.0634946 43:-1 44:-1 45:-0.158729 46:-0.952381 47:0.36508 48:-0.984127 49:0.174601 50:-0.873016 51:-0.857143 52:-0.682539 53:-1 54:-1 55:-0.666667 56:-0.888889 57:-0.190474 58:-1 59:-0.476191 60:-0.746031 61:-0.777778 62:-0.984127 63:-0.904762 64:-1 65:-0.904762 66:-0.746031 67:0.0793669 68:-1 69:-0.333335 70:-0.746031 71:0.507936 72:-1 73:-0.825397 74:-0.904762 75:-0.920635 76:-0.888889 77:-0.619047 78:-1 79:-0.460319 80:-0.571428 81:0.0952393 82:-1 83:-0.968254 84:-0.666667 85:-1 86:-0.84127 87:-0.857143 88:-1 89:-0.746031 90:-0.873016 91:-0.428569 92:-1 93:-0.952381 94:-0.84127 95:-1 96:-0.698413 97:-0.777778 98:-1 99:-0.730159 100:-0.619047 101:-0.698413 102:-1 103:-0.777778 104:-0.603174 105:-1 106:-0.507936 107:-0.857143 108:-1 109:-0.793651 110:-0.36508 111:0.0317448 112:-1 113:-0.571428 114:-0.650794 115:-1 116:0.523809 117:-0.968254 118:-1 119:-0.809524 120:0.0476172 121:-1 122:-1 123:0.206351 124:0.349207 125:-1 126:-0.111112 127:-1 128:-1 129:-0.984127 130:-0.190474 131:-1 132:-1 133:0.984128 134:0.841271 135:-1 136:-0.0952392 137:-0.873016 138:-1 139:-1 140:-0.349207 141:-1 142:-1 143:-0.444447 144:-0.603174 145:-1 146:-0.984127 147:-0.952381 148:-1 149:-1 150:-0.809524 151:-1 152:-1 153:-0.793651 154:-0.968254 155:-1 156:-0.984127 157:-1 158:-1 159:-1 160:-0.952381 161:-1 162:-1 163:-1 164:-1 165:-1 166:-1 167:-0.968254 168:-1 169:-1 170:-1 
-0.1722460388990989 -1 -1 1 1 1:-1 2:-0.946429 3:-1 4:-1 5:-1 6:-1 7:-0.696428 8:-0.535714 9:-0.964286 10:-1 11:-1 12:-0.660714 13:-1 14:-1 15:-1 16:-1 17:-0.517857 18:-0.267855 19:-0.857143 20:-1 21:-1 22:0.160717 23:-1 24:-0.946429 25:-0.660714 26:-1 27:0.0714287 28:0.625003 29:-0.303569 30:-1 31:-1 32:0.857143 33:-1 34:-0.267855 35:0.857143 36:-1 37:-0.357143 38:0.196431 39:-0.214286 40:-1 41:-1 42:0.125003 43:-1 44:-0.374997 45:0.142857 46:-1 47:0.0892882 48:-0.285714 49:0.0357143 50:-1 51:-1 52:-0.607142 53:-0.928571 54:-0.678571 55:0.0714287 56:-1 57:-0.25 58:-0.714285 59:-0.160712 60:-1 61:-0.392857 62:-0.928571 63:-0.875 64:-0.803571 65:-0.374997 66:-1 67:-0.428571 68:-0.910714 69:-0.714285 70:-1 71:-0.160712 72:-0.946429 73:-0.678571 74:-0.464286 75:-0.928571 76:-1 77:-0.892857 78:-1 79:-0.303569 80:-1 81:1 82:-0.964286 83:-0.857143 84:-0.410712 85:-1 86:-0.946429 87:-0.910714 88:-1 89:-0.589285 90:-1 91:0.571429 92:-0.982143 93:-1 94:-0.303569 95:-1 96:-0.875 97:-1 98:-1 99:-0.892857 100:-0.964286 101:-0.910714 102:-1 103:-0.892857 104:0.0714287 105:-1 106:-0.839286 107:-1 108:-1 109:-0.928571 110:-0.785714 111:-1 112:-1 113:0.464286 114:-0.910714 115:-1 116:-0.48214 117:-1 118:-1 119:-1 120:-0.517857 121:-1 122:-1 123:0.714286 124:-0.946429 125:-1 126:0.25 127:-1 128:-1 129:-1 130:-0.107143 131:-1 132:-1 133:-0.142857 134:-0.946429 135:-1 136:0.26786 137:-1 138:-1 139:-1 140:0.321429 141:-1 142:-1 143:-0.803571 144:-0.946429 145:-1 146:0.303574 147:-1 148:-1 149:-1 150:0.535714 151:-1 152:-1 153:-0.928571 154:-0.964286 155:-1 156:-0.660714 157:-1 158:-1 159:-1 160:-0.392857 161:-1 162:-1 163:-0.964286 164:-1 165:-1 166:-0.910714 167:-1 168:-1 169:-1 170:-0.982143 
-1 -1 -1 1 1 1:-0.962264 2:-0.509434 3:-1 4:-1 5:-0.735849 6:-1 7:-1 8:-0.0188679 9:-0.886792 10:-1 11:-0.962264 12:-0.509434 13:-1 14:-1 15:-1 16:-0.886792 17:-1 18:0.54717 19:-0.811321 20:-0.924528 21:-1 22:0.471698 23:-1 24:-1 25:-0.622642 26:-1 27:-0.735849 28:0.773585 29:-0.811321 30:-0.962264 31:-0.962264 32:0.396226 33:-1 34:-1 35:0.169811 36:-0.924528 37:0.207547 38:-0.584906 39:0.169811 40:-1 41:-0.924528 42:-0.471698 43:-1 44:-1 45:0.433962 46:-1 47:0.396226 48:-1 49:-0.54717 50:-1 51:-0.924528 52:-0.773585 53:-1 54:-1 55:-0.245283 56:-0.924528 57:-0.245283 58:-1 59:-0.169811 60:-1 61:-0.924528 62:-1 63:-1 64:-1 65:-0.471698 66:-0.924528 67:-0.509434 68:-1 69:0.0943396 70:-0.962264 71:-0.849057 72:-1 73:-1 74:-1 75:-1 76:-1 77:-0.811321 78:-1 79:-0.54717 80:-1 81:-0.433962 82:-1 83:-1 84:-0.886792 85:-1 86:-0.849057 87:-0.811321 88:-1 89:-0.811321 90:-1 91:0.018868 92:-1 93:-0.962264 94:-0.849057 95:-0.962264 96:-0.811321 97:-1 98:-1 99:-1 100:-0.622642 101:1 102:-1 103:-0.735849 104:-0.54717 105:-0.962264 106:-0.962264 107:-0.962264 108:-1 109:-1 110:-0.320755 111:-0.471698 112:-1 113:0.735849 114:0.207547 115:-1 116:-0.471698 117:-0.886792 118:-1 119:-0.962264 120:-0.0943396 121:-1 122:-1 123:0.773585 124:0.509434 125:-1 126:0.509434 127:-1 128:-1 129:-1 130:-0.245283 131:-1 132:-1 133:-0.0943396 134:-0.0566037 135:-1 136:0.283019 137:-0.924528 138:-1 139:-1 140:0.018868 141:-1 142:-1 143:-1 144:-0.660377 145:-1 146:-0.396226 147:-1 148:-1 149:-1 150:-0.509434 151:-1 152:-1 153:-1 154:-1 155:-1 156:-0.924528 157:-1 158:-1 159:-1 160:-0.924528 161:-0.886792 162:-0.886792 163:-1 164:-1 165:-0.886792 166:-1 167:-1 168:-1 169:-1 170:-0.735849 
-1 -1 -1 1 1 1:-1 2:-0.434782 3:-1 4:-1 5:-1 6:-1 7:-1 8:0.608696 9:-1 10:-1 11:-1 12:-0.73913 13:-1 14:-0.956522 15:-0.0869569 16:-1 17:-1 18:-0.73913 19:-0.130434 20:-1 21:-1 22:-0.608695 23:-1 24:-0.956522 25:0.739132 26:-1 27:-0.913043 28:-0.434782 29:-0.130434 30:-1 31:-1 32:-0.130434 33:-1 34:-0.826087 35:-1 36:-1 37:-0.956522 38:-0.869565 39:-0.782609 40:-1 41:-1 42:-0.608695 43:-1 44:-0.869565 45:-1 46:-1 47:-0.913043 48:-0.956522 49:-0.695652 50:-1 51:-1 52:-0.826087 53:-1 54:-0.826087 55:-1 56:-1 57:-0.652173 58:-0.956522 59:-0.73913 60:-1 61:-1 62:-1 63:-1 64:-1 65:-1 66:-1 67:-0.304348 68:-1 69:-0.913043 70:-1 71:-1 72:-1 73:-0.913043 74:-0.73913 75:-1 76:-1 77:0.0869569 78:-1 79:-0.956522 80:-1 81:0.652175 82:-1 83:-0.826087 84:-0.173914 85:-1 86:-1 87:-0.695652 88:-1 89:-1 90:-1 91:0 92:-1 93:-0.956522 94:-0.173914 95:-1 96:-1 97:-1 98:-1 99:-1 100:-1 101:-1 102:-1 103:-1 104:-0.826087 105:-1 106:-0.608695 107:-1 108:-1 109:-1 110:-1 111:-1 112:-1 113:-0.73913 114:-1 115:-1 116:-0.304348 117:-1 118:-1 119:-1 120:-1 121:-1 122:-1 123:1 124:-1 125:-1 126:0.260871 127:-1 128:-1 129:-1 130:-0.956522 131:-1 132:-1 133:-0.913043 134:-1 135:-1 136:-0.956522 137:-1 138:-1 139:-1 140:0 141:-1 142:-1 143:-1 144:-1 145:-1 146:-0.826087 147:-1 148:-1 149:-1 150:-0.173914 151:-1 152:-1 153:-1 154:-1 155:-1 156:-0.913043 157:-1 158:-1 159:-1 160:-0.217391 161:-1 162:-1 163:-1 164:-1 165:-1 166:-1 167:-1 168:-1 169:-1 170:-1 
-1 -1 -1 -1 1 1:-1 2:-1 3:-1 4:-1 5:-1 6:-1 7:-1 8:-1 9:-1 10:-1 11:-1 12:-1 13:-1 14:-1 15:-0.315069 16:-1 17:-1 18:0.178083 19:-0.945205 20:-1 21:-1 22:-0.945205 23:-1 24:-1 25:-1 26:-1 27:-0.589042 28:0.479451 29:0.0410955 30:-1 31:-1 32:-0.863014 33:-1 34:-1 35:-0.972603 36:-1 37:0.972603 38:-0.972603 39:0.369863 40:-1 41:-1 42:0.342466 43:-1 44:-1 45:0.260275 46:-1 47:-0.69863 48:-1 49:-0.780822 50:-1 51:-1 52:0.150684 53:-1 54:-1 55:-0.287672 56:-1 57:-1 58:-1 59:-1 60:-1 61:-1 62:-1 63:-1 64:-1 65:-1 66:-1 67:-1 68:-1 69:-1 70:-1 71:-0.863014 72:-1 73:-1 74:-1 75:-1 76:-1 77:-1 78:-1 79:-1 80:-1 81:-0.452054 82:-1 83:-0.890411 84:-0.917808 85:-1 86:-1 87:-1 88:-1 89:-1 90:-1 91:1 92:-1 93:-0.863014 94:-0.808219 95:-1 96:-0.972603 97:-1 98:-1 99:-1 100:-1 101:-1 102:-1 103:-0.890411 104:-0.835616 105:-1 106:-0.945205 107:-1 108:-1 109:-1 110:-0.808219 111:-1 112:-1 113:-0.0136985 114:-0.150684 115:-1 116:-0.0136985 117:-1 118:-1 119:-1 120:-0.616439 121:-1 122:-1 123:-0.890411 124:-0.863014 125:-1 126:-0.260275 127:-1 128:-1 129:-1 130:-0.424657 131:-1 132:-1 133:-0.890411 134:-0.890411 135:-1 136:-0.424657 137:-1 138:-1 139:-1 140:-0.150684 141:-1 142:-1 143:0.123287 144:0.123287 145:-1 146:-0.69863 147:-1 148:-1 149:-1 150:-1 151:-1 152:-1 153:-1 154:-0.972603 155:-1 156:-1 157:-1 158:-1 159:-1 160:-1 161:-1 162:-1 163:-1 164:-1 165:-1 166:-1 167:-1 168:-1 169:-1 170:-0.315069 
-1 -1 -1 -1 1 1:-1 2:-0.946667 3:-1 4:-1 5:-1 6:-1 7:-0.546668 8:-1 9:-1 10:-1 11:-1 12:-0.946667 13:-1 14:-1 15:-1 16:-1 17:-0.653333 18:0.173334 19:-0.92 20:-1 21:-1 22:-0.306665 23:-1 24:-1 25:-1 26:-1 27:-0.76 28:-0.0933328 29:0.226668 30:-1 31:-1 32:-0.333332 33:-1 34:-1 35:-0.786667 36:-1 37:0.12 38:-0.146667 39:0.146667 40:-1 41:-1 42:-0.12 43:-1 44:-1 45:-0.226668 46:-1 47:-0.306665 48:-1 49:-0.520001 50:-1 51:-1 52:-0.413333 53:-1 54:-1 55:-0.599999 56:-1 57:-0.946667 58:-1 59:-1 60:-1 61:-1 62:-1 63:-1 64:-1 65:0.333332 66:-1 67:-1 68:-1 69:-1 70:-1 71:-0.706667 72:-1 73:-1 74:-0.946667 75:-0.84 76:-0.786667 77:-0.973333 78:-1 79:-1 80:-0.546668 81:1 82:-1 83:-0.866667 84:-0.946667 85:-0.946667 86:-0.893333 87:-1 88:-1 89:-1 90:-0.626666 91:-0.359999 92:-1 93:-0.173334 94:-0.413333 95:-1 96:-0.946667 97:-1 98:-1 99:-1 100:-0.573332 101:-1 102:-1 103:-0.626666 104:-0.333332 105:-1 106:-0.68 107:-1 108:-1 109:-1 110:-0.786667 111:-1 112:-1 113:-0.893333 114:-0.786667 115:-1 116:-0.44 117:-1 118:-1 119:-1 120:-0.84 121:-1 122:-1 123:-0.866667 124:-0.893333 125:-1 126:-0.68 127:-1 128:-1 129:-1 130:-0.866667 131:-1 132:-1 133:-0.84 134:-0.866667 135:-1 136:-0.013332 137:-1 138:-1 139:-1 140:-0.466667 141:-1 142:-1 143:-0.013332 144:-0.0933328 145:-1 146:-0.706667 147:-1 148:-1 149:-1 150:-0.359999 151:-1 152:-1 153:-0.786667 154:-0.786667 155:-1 156:-0.946667 157:-1 158:-1 159:-1 160:-1 161:-1 162:-1 163:-1 164:-1 165:-1 166:-0.973333 167:-1 168:-1 169:-1 170:-1 
-1 -1 -1 -1 1 1:-1 2:-1 3:-1 4:-1 5:-1 6:-1 7:-1 8:-1 9:-1 10:-1 11:-1 12:-1 13:-1 14:-1 15:-1 16:-1 17:-0.981982 18:0.477477 19:-0.90991 20:-1 21:-1 22:-0.963964 23:-1 24:-1 25:-1 26:-1 27:-0.621621 28:-0.603603 29:-0.387387 30:-1 31:-1 32:-0.369371 33:-1 34:-1 35:-0.963964 36:-1 37:0.693693 38:-0.315315 39:0.351352 40:-1 41:-1 42:0.135136 43:-1 44:-1 45:0.729731 46:-1 47:-0.423424 48:-0.891892 49:-0.441443 50:-1 51:-1 52:-0.135136 53:-1 54:-1 55:-0.135136 56:-1 57:-1 58:-1 59:-0.945946 60:-1 61:-1 62:-1 63:-0.963964 64:-0.981982 65:-0.963964 66:-1 67:-1 68:-1 69:-1 70:-1 71:1 72:-1 73:-0.927928 74:-0.927928 75:-1 76:-1 77:-1 78:-1 79:-1 80:-1 81:-0.333333 82:-1 83:-0.90991 84:-0.981982 85:-1 86:-1 87:-1 88:-1 89:-1 90:-1 91:-1 92:-1 93:-0.441443 94:-0.837838 95:-1 96:-1 97:-1 98:-1 99:-1 100:-0.873874 101:-1 102:-1 103:-1 104:-0.441443 105:-1 106:-0.27928 107:-1 108:-1 109:-1 110:-0.513515 111:-1 112:-1 113:-0.90991 114:-0.873874 115:-1 116:-0.783784 117:-1 118:-1 119:-1 120:-0.747748 121:-1 122:-1 123:-0.891892 124:-0.225224 125:-1 126:-0.531531 127:-1 128:-1 129:-1 130:-0.495496 131:-1 132:-1 133:0.711712 134:-0.063064 135:-1 136:0.153152 137:-1 138:-1 139:-1 140:-0.261261 141:-1 142:-1 143:-1 144:-1 145:-1 146:-0.891892 147:-1 148:-1 149:-1 150:-0.441443 151:-1 152:-1 153:-1 154:-1 155:-1 156:-1 157:-1 158:-1 159:-1 160:-1 161:-1 162:-1 163:-1 164:-1 165:-1 166:-1 167:-1 168:-1 169:-1 170:-1 
-1 -1 -1 -1 1 1:-1 2:-0.939394 3:-1 4:-1 5:-1 6:-1 7:-1 8:-0.954545 9:-1 10:-1 11:-1 12:-0.939394 13:-1 14:-1 15:-1 16:-1 17:-0.787879 18:0.0909095 19:-1 20:-1 21:-1 22:-0.969697 23:-1 24:-1 25:-0.954545 26:-1 27:-0.833333 28:0.0151514 29:-0.909091 30:-1 31:-1 32:-0.818182 33:-0.954545 34:-1 35:-0.69697 36:-1 37:0.151515 38:-0.954545 39:0.530303 40:-1 41:-1 42:0.272726 43:-0.954545 44:-1 45:0.757575 46:-1 47:-0.69697 48:-1 49:-0.530303 50:-1 51:-1 52:-0.590909 53:-0.969697 54:-1 55:-0.909091 56:-1 57:-0.787879 58:-1 59:-0.893939 60:-1 61:-0.984848 62:-0.893939 63:-0.954545 64:-0.984848 65:-1 66:-0.909091 67:-0.954545 68:-1 69:-1 70:-1 71:-0.833333 72:-0.924242 73:-0.969697 74:-0.909091 75:-1 76:-0.863636 77:-0.893939 78:-1 79:-1 80:-0.984848 81:1 82:-1 83:-0.984848 84:-0.954545 85:-1 86:-0.969697 87:-1 88:-1 89:-1 90:-0.924242 91:-0.984848 92:-1 93:-0.984848 94:-0.954545 95:-1 96:-0.969697 97:-1 98:-1 99:-1 100:-0.924242 101:-1 102:-1 103:-0.924242 104:-0.772728 105:-1 106:-0.878788 107:-1 108:-1 109:-1 110:-0.863636 111:-1 112:-1 113:-0.742425 114:0.348484 115:-1 116:-0.69697 117:-1 118:-1 119:-1 120:-0.69697 121:-1 122:-1 123:0.469698 124:-0.666667 125:-1 126:-0.0606067 127:-1 128:-1 129:-1 130:-0.818182 131:-1 132:-1 133:-0.833333 134:-0.909091 135:-1 136:-0.454545 137:-1 138:-1 139:-1 140:0.40909 141:-1 142:-1 143:-1 144:-1 145:-1 146:-1 147:-1 148:-1 149:-1 150:-1 151:-1 152:-1 153:-1 154:-1 155:-1 156:-1 157:-1 158:-1 159:-1 160:-1 161:-1 162:-1 163:-1 164:-1 165:-1 166:-1 167:-1 168:-1 169:-1 170:-1 
-1 -1 -1 -1 1 1:-1 2:-1 3:-1 4:-1 5:-1 6:-1 7:-0.940594 8:0.00990033 9:-1 10:-1 11:-1 12:-0.90099 13:-1 14:-1 15:-1 16:-1 17:-0.940594 18:-0.148514 19:-1 20:-1 21:-1 22:-0.920792 23:-1 24:-1 25:-0.980198 26:-1 27:-0.980198 28:-0.643565 29:-0.861386 30:-1 31:-1 32:0.643563 33:-1 34:-1 35:1 36:-1 37:0.0297033 38:-1 39:-0.18812 40:-1 41:-1 42:-0.603961 43:-1 44:-1 45:-0.80198 46:-1 47:-0.0693069 48:-1 49:-0.247524 50:-1 51:-1 52:-1 53:-1 54:-1 55:-1 56:-1 57:-0.881188 58:-1 59:-0.603961 60:-1 61:-1 62:-1 63:-0.821782 64:-0.841584 65:-1 66:-1 67:-1 68:-1 69:-0.881188 70:-1 71:0.742573 72:-1 73:-0.980198 74:-0.960396 75:-1 76:-1 77:-1 78:-1 79:-1 80:-1 81:-0.524752 82:-1 83:-0.960396 84:-0.881188 85:-1 86:-1 87:-1 88:-1 89:-1 90:-1 91:-1 92:-1 93:-0.980198 94:-0.306931 95:-1 96:-1 97:-1 98:-1 99:-1 100:-1 101:-1 102:-1 103:-0.861386 104:-0.821782 105:-1 106:-0.940594 107:-1 108:-1 109:-1 110:-1 111:-1 112:-1 113:0.405941 114:-0.722772 115:-1 116:0.247524 117:-1 118:-1 119:-1 120:-1 121:-1 122:-1 123:-0.584159 124:-0.267327 125:-1 126:-0.485148 127:-1 128:-1 129:-1 130:0.742573 131:-1 132:-1 133:-1 134:-0.980198 135:-1 136:-0.603961 137:-1 138:-1 139:-1 140:-0.524752 141:-1 142:-1 143:-1 144:-1 145:-1 146:-1 147:-1 148:-1 149:-1 150:-1 151:-1 152:-1 153:-1 154:-1 155:-1 156:-1 157:-1 158:-1 159:-1 160:-1 161:-1 162:-1 163:-1 164:-1 165:-1 166:-1 167:-1 168:-1 169:-1 170:-1 
-1 -1 -1 -1 1 1:-1 2:-1 3:-1 4:-1 5:-1 6:-1 7:-1 8:-0.276596 9:-1 10:-1 11:-1 12:-1 13:-1 14:-1 15:-1 16:-1 17:-0.886525 18:-0.248228 19:-1 20:-1 21:-1 22:-1 23:-1 24:-1 25:-1 26:-1 27:-0.51773 28:-0.489362 29:-1 30:-1 31:-1 32:0.64539 33:-1 34:-1 35:-0.418439 36:-1 37:-0.276596 38:-0.929078 39:-0.971631 40:-1 41:-1 42:-0.602838 43:-1 44:-1 45:0.475176 46:-1 47:-0.418439 48:-1 49:0.304965 50:-1 51:-1 52:-0.985816 53:-1 54:-1 55:-1 56:-1 57:-0.843972 58:-1 59:-0.347519 60:-1 61:-0.943262 62:-1 63:-0.971631 64:-0.929078 65:-1 66:-1 67:-1 68:-1 69:-0.971631 70:-1 71:1 72:-1 73:-0.985816 74:-0.929078 75:-1 76:-1 77:-1 78:-1 79:-0.957447 80:-1 81:-1 82:-1 83:-0.985816 84:-0.943262 85:-1 86:-1 87:-1 88:-1 89:-1 90:-1 91:-1 92:-1 93:-0.929078 94:-0.957447 95:-1 96:-0.971631 97:-1 98:-1 99:-1 100:-0.957447 101:-1 102:-1 103:-0.815603 104:-0.914894 105:-1 106:-0.900709 107:-1 108:-1 109:-1 110:-0.730497 111:-1 112:-1 113:-0.631207 114:0.276596 115:-1 116:-0.744681 117:-1 118:-1 119:-1 120:-0.39007 121:-1 122:-1 123:0.347517 124:-0.574467 125:-1 126:-0.219859 127:-1 128:-1 129:-1 130:-0.333333 131:-1 132:-1 133:-0.971631 134:-0.971631 135:-1 136:-0.106383 137:-1 138:-1 139:-1 140:-0.531915 141:-1 142:-1 143:-1 144:-1 145:-1 146:-1 147:-1 148:-1 149:-1 150:-1 151:-1 152:-1 153:-1 154:-1 155:-1 156:-1 157:-1 158:-1 159:-1 160:-1 161:-1 162:-1 163:-1 164:-1 165:-1 166:-1 167:-1 168:-1 169:-1 170:-1 
-1 -1 -1 -1 1 1:-1 2:-1 3:-1 4:-1 5:-1 6:-1 7:-1 8:-0.975309 9:-1 10:-1 11:-1 12:-1 13:-1 14:-1 15:-1 16:-1 17:-1 18:0.0617282 19:-1 20:-1 21:-1 22:-1 23:-1 24:-1 25:-1 26:-1 27:-0.0617283 28:0.45679 29:-0.901235 30:-1 31:-1 32:-0.62963 33:-1 34:-1 35:-0.901235 36:-1 37:-0.308641 38:-0.950617 39:1 40:-1 41:-1 42:0.209877 43:-1 44:-1 45:-0.0864202 46:-1 47:-0.604938 48:-1 49:-0.506174 50:-1 51:-1 52:-0.0617283 53:-1 54:-1 55:0.234566 56:-1 57:-0.679011 58:-1 59:-1 60:-1 61:-1 62:-0.925926 63:-1 64:-1 65:-0.777778 66:-1 67:-0.753087 68:-1 69:-1 70:-1 71:0.407406 72:-1 73:-1 74:-0.950617 75:-0.876543 76:-0.901235 77:-1 78:-1 79:-1 80:-1 81:0.185185 82:-1 83:-0.925926 84:-0.851852 85:-1 86:-0.876543 87:-1 88:-1 89:-1 90:-0.753087 91:-1 92:-1 93:-0.777778 94:-0.950617 95:-1 96:-0.851852 97:-1 98:-1 99:-1 100:-0.851852 101:-1 102:-1 103:-0.0864202 104:-0.25926 105:-1 106:-0.753087 107:-1 108:-1 109:-1 110:-0.753087 111:-1 112:-1 113:-0.703703 114:-0.901235 115:-1 116:-0.160493 117:-1 118:-1 119:-1 120:-0.506174 121:-1 122:-1 123:-0.481482 124:-0.506174 125:-1 126:-0.358025 127:-1 128:-1 129:-1 130:-0.802469 131:-1 132:-1 133:-0.82716 134:-0.555555 135:-1 136:-0.555555 137:-1 138:-1 139:-1 140:0.259258 141:-1 142:-1 143:-0.703703 144:-0.654322 145:-1 146:-0.950617 147:-1 148:-1 149:-1 150:-1 151:-1 152:-1 153:-0.901235 154:-0.777778 155:-1 156:-1 157:-1 158:-1 159:-1 160:-1 161:-1 162:-1 163:-1 164:-1 165:-1 166:-1 167:-1 168:-1 169:-1 170:-1 
-1 -1 -1 -1 1 1:-1 2:-1 3:-1 4:-1 5:-1 6:-1 7:-0.982456 8:-0.789474 9:-1 10:-1 11:-1 12:-0.947369 13:-1 14:-1 15:-1 16:-1 17:-0.877193 18:-0.333334 19:-1 20:-1 21:-1 22:-0.912281 23:-1 24:-1 25:-0.754386 26:-1 27:-0.350877 28:1 29:-0.877193 30:-1 31:-1 32:-0.701755 33:-1 34:-1 35:-0.789474 36:-1 37:-0.561403 38:-0.719298 39:-0.298247 40:-1 41:-1 42:-0.192984 43:-1 44:-1 45:-0.280701 46:-1 47:-0.666666 48:-0.964912 49:-0.385964 50:-1 51:-1 52:-0.438597 53:-1 54:-1 55:0.0526299 56:-1 57:-0.45614 58:-1 59:-0.438597 60:-1 61:-0.649123 62:-0.666666 63:-1 64:-1 65:-0.77193 66:-0.54386 67:-0.877193 68:-1 69:-0.350877 70:-1 71:0.0350877 72:-0.77193 73:-1 74:-0.982456 75:-0.526315 76:-0.666666 77:-0.842105 78:-1 79:-0.473685 80:-0.77193 81:-0.649123 82:-0.77193 83:-0.842105 84:-0.982456 85:-0.894737 86:-0.894737 87:-0.894737 88:-1 89:-0.982456 90:-0.491227 91:0.438594 92:-0.859649 93:-0.842105 94:-0.824561 95:-0.912281 96:-0.0877208 97:-0.982456 98:-1 99:-1 100:-0.54386 101:-0.982456 102:-0.578948 103:-0.859649 104:-0.666666 105:-0.929825 106:-0.684211 107:-0.526315 108:-1 109:-1 110:-0.684211 111:-1 112:-0.964912 113:-0.684211 114:-0.298247 115:-1 116:-0.807018 117:-0.824561 118:-1 119:-1 120:-0.526315 121:-1 122:-1 123:0.315789 124:0.192981 125:-1 126:-0.859649 127:-0.964912 128:-1 129:-1 130:-0.052633 131:-1 132:-1 133:0.105263 134:-0.245614 135:-1 136:-0.754386 137:-1 138:-1 139:-1 140:-0.842105 141:-1 142:-1 143:-1 144:-1 145:-1 146:-0.649123 147:-1 148:-1 149:-1 150:-0.894737 151:-1 152:-1 153:-1 154:-1 155:-1 156:-0.894737 157:-1 158:-1 159:-1 160:-1 161:-1 162:-1 163:-1 164:-1 165:-1 166:-0.964912 167:-1 168:-1 169:-1 170:-1 
-0.9090618197813721 -1 -1 -1 1 1:-1 2:-1 3:-1 4:-1 5:-1 6:-1 7:-1 8:-1 9:-1 10:-1 11:-1 12:-1 13:-1 14:-1 15:-1 16:-1 17:-1 18:-0.184211 19:-1 20:-1 21:-1 22:-1 23:-1 24:-1 25:-1 26:-1 27:-0.394737 28:-0.236841 29:-1 30:-1 31:-1 32:-0.5 33:-1 34:-1 35:-0.81579 36:-1 37:0.973682 38:-0.81579 39:0.55263 40:-1 41:-1 42:1 43:-1 44:-1 45:0.763156 46:-1 47:-0.736842 48:0.078948 49:0.184211 50:-1 51:-1 52:-0.657896 53:-1 54:-1 55:-0.105263 56:-1 57:-1 58:-1 59:-0.894737 60:-1 61:-1 62:-1 63:-1 64:-1 65:-1 66:-1 67:-1 68:-1 69:-1 70:-1 71:0.710526 72:-1 73:-1 74:-1 75:-1 76:-1 77:-1 78:-1 79:-1 80:-0.973684 81:0.131578 82:-1 83:-1 84:-0.894737 85:-1 86:-0.81579 87:-1 88:-1 89:-1 90:-0.81579 91:-1 92:-1 93:-0.44737 94:0.105263 95:-1 96:-0.894737 97:-1 98:-1 99:-1 100:-0.894737 101:-1 102:-1 103:-0.342107 104:-0.578948 105:-1 106:0 107:-1 108:-1 109:-1 110:-0.026315 111:-1 112:-1 113:-0.552633 114:-0.605263 115:-1 116:-0.947369 117:-1 118:-1 119:-1 120:-0.921053 121:-1 122:-1 123:-0.263159 124:-0.473685 125:-1 126:-0.947369 127:-1 128:-1 129:-1 130:-0.473685 131:-1 132:-1 133:-0.710526 134:-0.842105 135:-1 136:0.315789 137:-1 138:-1 139:-1 140:-0.052633 141:-1 142:-1 143:-0.842105 144:-0.868421 145:-1 146:-0.868421 147:-1 148:-1 149:-1 150:-1 151:-1 152:-1 153:-1 154:-1 155:-1 156:-1 157:-1 158:-1 159:-1 160:-1 161:-1 162:-1 163:-1 164:-1 165:-1 166:-1 167:-1 168:-1 169:-1 170:-1 
-0.9525362580568533 -1 -1 -1 1 1:-1 2:-1 3:-1 4:-1 5:-1 6:-1 7:-1 8:-1 9:-0.771429 10:-1 11:-1 12:-0.942857 13:-1 14:-1 15:-1 16:-1 17:-0.457143 18:-0.4 19:-0.371429 20:-1 21:-1 22:-0.942857 23:-1 24:-1 25:-0.828571 26:-1 27:-0.914286 28:0.6 29:-0.485714 30:-1 31:-1 32:-0.6 33:-1 34:-1 35:0.742857 36:-1 37:0.885714 38:0.371429 39:0.257143 40:-1 41:-1 42:1 43:-1 44:-1 45:0.142857 46:-1 47:-0.142857 48:-1 49:-0.228571 50:-1 51:-1 52:0.0285714 53:-1 54:-1 55:-0.514286 56:-1 57:-0.8 58:-1 59:-0.828571 60:-1 61:-1 62:-0.971429 63:-1 64:-1 65:-0.971429 66:-1 67:-1 68:-1 69:-1 70:-1 71:0.657143 72:-1 73:-1 74:-0.942857 75:-1 76:-1 77:-1 78:-1 79:-1 80:-1 81:0.914286 82:-1 83:-0.771429 84:-0.971429 85:-1 86:-0.971429 87:-1 88:-1 89:-1 90:-0.857143 91:-1 92:-1 93:-0.914286 94:-0.914286 95:-1 96:-0.8 97:-1 98:-1 99:-1 100:-0.542857 101:-1 102:-1 103:-0.857143 104:-0.8 105:-1 106:-0.342857 107:-1 108:-1 109:-1 110:-0.628571 111:-1 112:-1 113:0.4 114:-0.0571429 115:-1 116:-0.771429 117:-1 118:-1 119:-1 120:-0.342857 121:-1 122:-1 123:-0.371429 124:-0.171429 125:-1 126:0.114286 127:-1 128:-1 129:-1 130:-0.342857 131:-1 132:-1 133:-0.342857 134:-0.0285714 135:-1 136:0.257143 137:-1 138:-1 139:-1 140:0.257143 141:-1 142:-1 143:-0.628571 144:-0.542857 145:-1 146:-0.914286 147:-1 148:-1 149:-1 150:-0.971429 151:-1 152:-1 153:-0.942857 154:-1 155:-1 156:-1 157:-1 158:-1 159:-1 160:-1 161:-1 162:-1 163:-1 164:-1 165:-1 166:-1 167:-1 168:-1 169:-1 170:-1 
-1 -1 -1 -1 1 1:-1 2:-1 3:-1 4:-1 5:-1 6:-1 7:-0.956044 8:-1 9:-1 10:-1 11:-1 12:-1 13:-1 14:-1 15:-1 16:-1 17:-0.78022 18:-0.0989001 19:-0.758243 20:-1 21:-1 22:-0.868132 23:-1 24:-1 25:-0.868132 26:-1 27:-0.78022 28:-0.670329 29:-0.89011 30:-1 31:-1 32:-0.252746 33:-1 34:-1 35:-0.362637 36:-1 37:0.0989026 38:-0.0549456 39:-0.428571 40:-1 41:-1 42:-0.450549 43:-1 44:-1 45:-0.252746 46:-1 47:-0.428571 48:-0.802198 49:0.142857 50:-1 51:-1 52:-0.78022 53:-0.978022 54:-0.978022 55:-0.692308 56:-1 57:-0.758243 58:-0.978022 59:-0.912088 60:-1 61:-1 62:-0.296703 63:-0.956044 64:-0.824176 65:-0.428571 66:-1 67:-1 68:-1 69:-0.78022 70:-0.978022 71:-0.604394 72:-0.956044 73:-0.934066 74:-0.758243 75:-1 76:-1 77:-1 78:-1 79:-0.978022 80:-0.846154 81:1 82:-1 83:-0.186812 84:-0.362637 85:-1 86:-0.230769 87:-1 88:-1 89:-1 90:-0.0989001 91:-1 92:-1 93:-0.868132 94:-0.978022 95:-1 96:-0.758243 97:-1 98:-1 99:-1 100:-0.956044 101:-1 102:-1 103:-0.868132 104:-0.978022 105:-1 106:-0.934066 107:-1 108:-1 109:-1 110:-0.956044 111:-1 112:-1 113:-0.89011 114:-0.846154 115:-1 116:-0.626374 117:-1 118:-1 119:-1 120:-0.934066 121:-1 122:-1 123:-0.89011 124:-0.89011 125:-1 126:-0.692308 127:-1 128:-1 129:-1 130:-0.296703 131:-1 132:-1 133:-0.406594 134:-0.164834 135:-1 136:-0.362637 137:-1 138:-1 139:-1 140:-0.53846 141:-1 142:-1 143:-0.626374 144:-0.824176 145:-1 146:-1 147:-1 148:-1 149:-1 150:-1 151:-1 152:-1 153:-1 154:-1 155:-1 156:-1 157:-1 158:-1 159:-1 160:-1 161:-1 162:-1 163:-1 164:-1 165:-1 166:-1 167:-1 168:-1 169:-1 170:-1 
-1 -1 -1 -1 1 1:-1 2:-1 3:-1 4:-1 5:-1 6:-1 7:-1 8:-1 9:-1 10:-1 11:-1 12:-1 13:-1 14:-1 15:-0.978261 16:-1 17:-0.869565 18:1 19:-0.826087 20:-1 21:-1 22:-0.717391 23:-1 24:-1 25:-0.73913 26:-1 27:0.369563 28:0.108694 29:-0.500001 30:-1 31:-1 32:-0.347827 33:-1 34:-1 35:-0.28261 36:-1 37:0.347824 38:-1 39:0.217389 40:-1 41:-1 42:-0.565218 43:-1 44:-1 45:0.19565 46:-1 47:-0.73913 48:-1 49:-0.0217407 50:-1 51:-1 52:-0.52174 53:-0.869565 54:-1 55:-0.28261 56:-1 57:-1 58:-1 59:-0.978261 60:-1 61:-0.913044 62:-0.891304 63:-0.913044 64:-0.913044 65:-0.913044 66:-1 67:-1 68:-1 69:-0.956522 70:-1 71:0.869565 72:-0.956522 73:-0.804348 74:-0.956522 75:-0.891304 76:-1 77:-1 78:-1 79:-0.826087 80:-1 81:-0.0652188 82:0.108694 83:-0.782609 84:-0.869565 85:-1 86:-0.695652 87:-1 88:-1 89:-1 90:-0.847826 91:-0.782609 92:-1 93:0.217389 94:-0.608696 95:-1 96:-0.586957 97:-1 98:-1 99:-1 100:-0.608696 101:-1 102:-1 103:-0.913044 104:-0.413044 105:-1 106:-0.52174 107:-1 108:-1 109:-1 110:-1.49012e-06 111:-1 112:-1 113:-0.695652 114:-0.0217407 115:-1 116:-0.478262 117:-1 118:-1 119:-1 120:-0.565218 121:-1 122:-1 123:-0.913044 124:-0.891304 125:-1 126:-0.434784 127:-1 128:-1 129:-1 130:-0.239132 131:-1 132:-1 133:-0.847826 134:-0.652174 135:-1 136:-0.260871 137:-1 138:-1 139:-1 140:-0.76087 141:-1 142:-1 143:-0.369566 144:-0.565218 145:-1 146:-0.913044 147:-1 148:-1 149:-1 150:-0.869565 151:-1 152:-1 153:-1 154:-1 155:-1 156:-1 157:-1 158:-1 159:-1 160:-1 161:-1 162:-1 163:-1 164:-1 165:-1 166:-1 167:-1 168:-1 169:-1 170:-1 
-1 -1 -1 -1 -1 1:-1 2:-1 3:-1 4:-1 5:-1 6:-1 7:-1 8:-0.96 9:-1 10:-1 11:-1 12:-1 13:-1 14:-1 15:-1 16:-1 17:-1 18:1 19:-1 20:-1 21:-1 22:-1 23:-1 24:-1 25:-1 26:-1 27:-0.98 28:0.0799998 29:-0.9 30:-1 31:-1 32:-0.22 33:-1 34:-1 35:-1 36:-1 37:-0.24 38:-1 39:0.0799998 40:-1 41:-1 42:-0.479999 43:-1 44:-1 45:0.0600007 46:-1 47:-0.280001 48:-1 49:-0.78 50:-1 51:-1 52:0.119998 53:-1 54:-1 55:-0.24 56:-1 57:0.0799998 58:-1 59:-0.82 60:-1 61:-1 62:-0.7 63:-1 64:-1 65:-0.46 66:-1 67:-0.660001 68:-1 69:-0.62 70:-1 71:-1 72:-0.96 73:-1 74:-1 75:-0.78 76:-0.88 77:-0.9 78:-1 79:-0.440001 80:-0.660001 81:-0.24 82:-0.88 83:-1 84:-1 85:-0.86 86:-0.86 87:-0.9 88:-1 89:-0.46 90:-0.179999 91:0.259999 92:-0.92 93:-0.98 94:-1 95:-0.96 96:-0.92 97:-1 98:-1 99:-0.94 100:-0.3 101:0.0999991 102:-0.92 103:-0.88 104:-0.96 105:-0.86 106:-0.78 107:-1 108:-1 109:-1 110:-0.94 111:-1 112:-0.92 113:0 114:-0.280001 115:-0.84 116:-0.54 117:-1 118:-1 119:-1 120:-0.8 121:-1 122:-1 123:-0.479999 124:-0.479999 125:-0.94 126:0.0799998 127:-1 128:-1 129:-1 130:-0.9 131:-1 132:-1 133:-0.580001 134:-0.399999 135:-1 136:-0.0199992 137:-1 138:-1 139:-1 140:-0.0999991 141:-1 142:-1 143:-0.660001 144:0.16 145:-1 146:-0.96 147:-1 148:-1 149:-1 150:-1 151:-1 152:-1 153:-0.3 154:-0.92 155:-1 156:-1 157:-1 158:-1 159:-1 160:-1 161:-1 162:-1 163:-1 164:-1 165:-1 166:-1 167:-1 168:-1 169:-1 170:-1 
-1 -1 -1 -1 -1 1:-1 2:-1 3:-1 4:-1 5:-1 6:-1 7:-1 8:-1 9:-1 10:-1 11:-1 12:-1 13:-1 14:-1 15:-1 16:-1 17:-1 18:0.586207 19:-1 20:-1 21:-1 22:-0.816092 23:-1 24:-1 25:-1 26:-1 27:-0.747127 28:-0.310346 29:-0.724138 30:-1 31:-1 32:-0.356323 33:-1 34:-1 35:-1 36:-1 37:0.609196 38:-1 39:1 40:-1 41:-1 42:-0.379311 43:-1 44:-1 45:0.333334 46:-1 47:-0.678161 48:-1 49:-1 50:-1 51:-1 52:-0.609196 53:-1 54:-1 55:-0.0574723 56:-1 57:-1 58:-1 59:-1 60:-1 61:-1 62:-0.678161 63:-1 64:-1 65:-1 66:-1 67:-0.977012 68:-1 69:-1 70:-1 71:-1 72:-0.885058 73:-1 74:-1 75:-1 76:-0.931035 77:-0.977012 78:-1 79:-1 80:-1 81:0.333334 82:-1 83:-1 84:-1 85:-1 86:-0.977012 87:-0.954023 88:-1 89:-1 90:-0.908046 91:-0.0574723 92:-1 93:-0.885058 94:-0.977012 95:-1 96:-0.816092 97:-1 98:-1 99:-1 100:-0.83908 101:-1 102:-1 103:-0.885058 104:-0.70115 105:-1 106:-0.24138 107:-1 108:-1 109:-1 110:-0.632184 111:-1 112:-1 113:-0.517242 114:-0.724138 115:-1 116:-0.678161 117:-1 118:-1 119:-1 120:-0.218392 121:-1 122:-1 123:-0.655173 124:-0.149426 125:-1 126:-0.724138 127:-1 128:-1 129:-1 130:-0.747127 131:-1 132:-1 133:-0.678161 134:-0.885058 135:-1 136:-0.356323 137:-1 138:-1 139:-1 140:-0.379311 141:-1 142:-1 143:-0.655173 144:-0.287357 145:-1 146:-1 147:-1 148:-1 149:-1 150:-1 151:-1 152:-1 153:-0.448277 154:-1 155:-1 156:-1 157:-1 158:-1 159:-1 160:-1 161:-1 162:-1 163:-1 164:-1 165:-1 166:-1 167:-1 168:-1 169:-1 170:-1 
