svm_type c_svc
kernel_type rbf
gamma 0.00909091
nr_class 6
total_sv 72
rho 0.16691 -0.0342335 -0.00696194 -0.0159095 -0.00657451 -0.233958 -0.180831 -0.200827 -0.171417 0.0404406 0.031855 0.0666009 -0.0055429 0.00342938 0.0131434
label 8 10 12 13 15 16
nr_sv 12 12 12 12 12 12
SV
1 1 1 1 1 1:0 2:0 3:0 4:0 5:0 6:0.0275229 7:0 8:0 9:0 10:0.165138 11:0 12:0 13:0 14:0 15:0 16:0.559633 17:0.0550459 18:1 19:0.0642202 20:0.422018 21:0 22:0.0366972 23:0 24:0 25:0.201835 26:0.0825688 27:0.220183 28:0 29:0.201835 30:0.0733945 31:0 32:0.247706 33:0 34:0 35:0.0275229 36:0.0183486 37:0.0183486 38:0 39:0.0275229 40:0.0275229 41:0.0275229 42:0.0275229 43:0 44:0 45:0.0550459 46:0.0275229 47:0.0275229 48:0 49:0.0275229 50:0.0183486 51:0.633027 52:0.0183486 53:0 54:0 55:0.0458716 56:0.0183486 57:0.00917431 58:0 59:0.0183486 60:0.0275229 61:0.33945 62:0.0183486 63:0.192661 64:0.192661 65:0.0733945 66:0.211009 67:0.0550459 68:0 69:0.0733945 70:0.247706 71:0 72:0.192661 73:0.0917431 74:0.100917 75:0.155963 76:0.0550459 77:0.321101 78:0 79:0.174312 80:0.0183486 81:0 82:0.155963 83:0.247706 84:0.146789 85:0.155963 86:0 87:0.293578 88:0 89:0.394495 90:0 91:0 92:0.229358 93:0.46789 94:0.559633 95:0.220183 96:0 97:0 98:0 99:0.0183486 100:0 101:0 102:0.0733945 103:0 104:0 105:0.0642202 106:0 107:0 108:0 109:0 110:0 
1 1 1 1 1 1:0 2:0 3:0 4:0 5:0 6:0.0745342 7:0 8:0 9:0 10:0.0124224 11:0 12:0.0248447 13:0 14:0 15:0.0186335 16:0.298137 17:0 18:0.950311 19:0 20:0.26087 21:0 22:0.180124 23:0 24:0 25:0.21118 26:0.236025 27:0.136646 28:0.0496894 29:0.167702 30:0.217391 31:0 32:0.0496894 33:0 34:0 35:0.068323 36:0.0869565 37:0.0310559 38:0 39:0.0310559 40:0.15528 41:0.111801 42:0.142857 43:0 44:0 45:0.0559006 46:0.068323 47:0.0372671 48:0 49:0.0310559 50:0.10559 51:0.583851 52:0.130435 53:0 54:0 55:0.0931677 56:0.0434783 57:0.0310559 58:0 59:0.0372671 60:0.0310559 61:0.304348 62:0.167702 63:0 64:0 65:0.142857 66:0.0248447 67:0.0745342 68:0 69:0.10559 70:0.0310559 71:0 72:0.0621118 73:0 74:0 75:0.111801 76:0.0310559 77:0.173913 78:0 79:0.236025 80:0.0434783 81:0 82:0.0869565 83:0.111801 84:0.0248447 85:0.186335 86:0.136646 87:0.291925 88:0 89:0.248447 90:0.142857 91:0 92:0.0869565 93:0.335404 94:0.372671 95:0.0869565 96:0 97:0.180124 98:0 99:0.130435 100:0 101:0 102:0.068323 103:0.552795 104:0.602484 105:0.0248447 106:0 107:0.0434783 108:0 109:0.0124224 110:0 
1 1 1 1 1 1:0 2:0 3:0 4:0 5:0 6:0 7:0 8:0.27957 9:0 10:0 11:0 12:0 13:0 14:0 15:0 16:0.505376 17:0.129032 18:0.72043 19:0 20:0.526882 21:0 22:0.139785 23:0 24:0 25:0.0107527 26:0.290323 27:0.0107527 28:0 29:0 30:0.268817 31:0 32:0.0107527 33:0 34:0 35:0.129032 36:0.0322581 37:0.0215054 38:0 39:0.11828 40:0.0322581 41:1 42:0.0430108 43:0 44:0 45:0.0430108 46:0.0215054 47:0.0215054 48:0 49:0.0430108 50:0.0107527 51:0 52:0.182796 53:0 54:0 55:0.11828 56:0.0107527 57:0.0215054 58:0 59:0.0322581 60:0.0107527 61:0 62:0.182796 63:0.0322581 64:0 65:0.193548 66:0.0107527 67:0.322581 68:0 69:0.172043 70:0.0107527 71:0 72:0.215054 73:0.860215 74:0.795699 75:0.16129 76:0.11828 77:0.430108 78:0 79:0.430108 80:0.0537634 81:0 82:0.204301 83:0.107527 84:0.204301 85:0.236559 86:0.0107527 87:0.0430108 88:0 89:0.204301 90:0.0860215 91:0 92:0.0215054 93:0 94:0 95:0.107527 96:0 97:0 98:0 99:0 100:0 101:0 102:0 103:0 104:0 105:0 106:0 107:0 108:0 109:0 110:0 
1 1 1 1 1 1:0 2:0 3:0 4:0 5:0 6:0.0522876 7:0 8:0.196078 9:0 10:0.0261438 11:0 12:0 13:0 14:0 15:0 16:0.647059 17:0 18:0.79085 19:0 20:0.745098 21:0 22:0.0980392 23:0 24:0 25:0.104575 26:0.156863 27:0.0392157 28:0.0130719 29:0.0915033 30:0.0849673 31:0.0588235 32:0.0130719 33:0 34:0 35:0.00653595 36:0.0130719 37:0.0588235 38:0 39:0.0130719 40:0.0130719 41:0.202614 42:0.00653595 43:0 44:0 45:0.0130719 46:0.00653595 47:0.0130719 48:0 49:0.00653595 50:0.00653595 51:0.738562 52:0.104575 53:0 54:0 55:0.111111 56:0.0130719 57:0.00653595 58:0 59:0.00653595 60:0.0130719 61:0 62:0.346405 63:0 64:0.0326797 65:0.287582 66:0.00653595 67:0.0130719 68:0 69:0.0130719 70:0.00653595 71:0 72:0.366013 73:0.359477 74:0.503268 75:0.30719 76:0.0653595 77:0.0261438 78:0 79:0.0196078 80:0.00653595 81:0 82:0.0653595 83:0.398693 84:0.339869 85:0.169935 86:0.0392157 87:0.294118 88:0 89:0.215686 90:0.0980392 91:0 92:0 93:0.222222 94:0.0718954 95:0 96:0 97:0.542484 98:0 99:0.555556 100:0 101:0 102:0 103:0.0196078 104:0.0522876 105:0 106:0 107:0.00653595 108:0 109:0.0784314 110:0 
1 1 1 1 1 1:0 2:0 3:0 4:0 5:0.0205128 6:0 7:0 8:0.989744 9:0 10:0 11:0 12:0.0153846 13:0 14:0 15:0.0307692 16:0.174359 17:0 18:0.0102564 19:0.123077 20:0.148718 21:0 22:0.210256 23:0 24:0 25:0.312821 26:0.553846 27:0.2 28:0 29:0.0717949 30:0.446154 31:0.328205 32:0.225641 33:0 34:0 35:0.225641 36:0.0615385 37:0.0102564 38:0 39:0.0307692 40:0.148718 41:0.671795 42:0.2 43:0.0102564 44:0 45:0.133333 46:0 47:0 48:0 49:0.0205128 50:0.0153846 51:0 52:0.0820513 53:0.0512821 54:0 55:0.102564 56:0.00512821 57:0.00512821 58:0 59:0.0102564 60:0.0153846 61:0 62:0.0923077 63:0.574359 64:0.661538 65:0.117949 66:0.00512821 67:0.0102564 68:0 69:0.025641 70:0.00512821 71:0 72:0.123077 73:0.34359 74:0.328205 75:0.0564103 76:0.0102564 77:0.251282 78:0 79:0.276923 80:0.0102564 81:0 82:0.0512821 83:0.0205128 84:0.0102564 85:0 86:0.189744 87:0.482051 88:0 89:0.441026 90:0.194872 91:0 92:0 93:0 94:0 95:0 96:0 97:0.0410256 98:0 99:0 100:0.0153846 101:0 102:0 103:0 104:0 105:0 106:0 107:0 108:0 109:0 110:0 
1 1 1 1 1 1:0 2:0 3:0 4:0 5:0 6:0 7:0 8:0.588785 9:0 10:0 11:0 12:0 13:0 14:0 15:0.126168 16:0.345794 17:0 18:0.411215 19:0 20:0.35514 21:0 22:0.397196 23:0 24:0 25:0.228972 26:0.200935 27:0.0934579 28:0 29:0.196262 30:0.158879 31:0 32:0.0700935 33:0 34:0 35:0.191589 36:0.0420561 37:0.247664 38:0 39:0.0747664 40:0.0514019 41:0 42:0.242991 43:0 44:0 45:0.200935 46:0.0280374 47:0.0186916 48:0 49:0.0654206 50:0.046729 51:0.724299 52:0.0747664 53:0 54:0 55:0.0841122 56:0.0186916 57:0.0186916 58:0 59:0.0280374 60:0.0514019 61:0.275701 62:0.0654206 63:0.126168 64:0.0841122 65:0.0654206 66:0.0186916 67:0.0280374 68:0 69:0.0607477 70:0.0420561 71:0 72:0.046729 73:0.873832 74:0.836449 75:0.0560748 76:0.0934579 77:0.046729 78:0 79:0.046729 80:0.0700935 81:0 82:0.0934579 83:0 84:0.0794393 85:0.046729 86:0.252336 87:0.214953 88:0 89:0.228972 90:0.224299 91:0 92:0.00934579 93:0 94:0 95:0 96:0 97:0.331776 98:0 99:0.247664 100:0 101:0 102:0 103:0 104:0 105:0 106:0 107:0 108:0 109:0.0514019 110:0 
1 1 1 1 1 1:0 2:0 3:0 4:0 5:0.021164 6:0.021164 7:0 8:0 9:0 10:0.010582 11:0 12:0.285714 13:0 14:0 15:0.047619 16:0.121693 17:0.121693 18:0.439153 19:0 20:0.132275 21:0 22:0.365079 23:0 24:0 25:0.174603 26:0.0529101 27:0.111111 28:0.550265 29:0 30:0.037037 31:0.111111 32:0.10582 33:0 34:0 35:0.111111 36:0.291005 37:0.142857 38:0.010582 39:0.026455 40:0.349206 41:0.687831 42:0.0582011 43:0.227513 44:0.042328 45:0.216931 46:0.190476 47:0.301587 48:0 49:0.312169 50:0.375661 51:0.201058 52:0.0846561 53:0.502645 54:0.142857 55:0.0899471 56:0.10582 57:0.111111 58:0 59:0.216931 60:0.00529101 61:0 62:0.047619 63:0.153439 64:0.328042 65:0.0687831 66:0.0952381 67:0.0793651 68:0 69:0.179894 70:0.026455 71:0 72:0.031746 73:0.116402 74:0.375661 75:0.0740741 76:0.00529101 77:0.111111 78:0 79:0.137566 80:0.026455 81:0 82:0.021164 83:0 84:0.0952381 85:0.179894 86:0.116402 87:0.010582 88:0 89:0.121693 90:0.037037 91:0 92:0 93:0 94:0.015873 95:0.015873 96:0 97:0.010582 98:0 99:0.00529101 100:0 101:0 102:0 103:0 104:0 105:0 106:0 107:0 108:0 109:0 110:0 
1 1 1 1 1 1:0.186529 2:0 3:0 4:0 5:0 6:0 7:0 8:0.0984456 9:0.0103627 10:0.0518135 11:0.0103627 12:0.150259 13:0 14:0 15:0.145078 16:0.160622 17:0 18:0.834197 19:0.0414508 20:0.134715 21:0 22:0.181347 23:0 24:0 25:0.108808 26:0.150259 27:0.00518135 28:0.0673575 29:0.19171 30:0.119171 31:0.207254 32:0.196891 33:0 34:0 35:0.217617 36:0.186529 37:0.264249 38:0 39:0.170984 40:0.119171 41:0.279793 42:0.0880829 43:0 44:0 45:0.0777202 46:0.11399 47:0.0466321 48:0 49:0.0673575 50:0.0829016 51:0.316062 52:0.103627 53:0 54:0.00518135 55:0.129534 56:0.0829016 57:0.145078 58:0 59:0.0362694 60:0.0362694 61:0 62:0.0984456 63:0.181347 64:0.0259067 65:0.170984 66:0.0310881 67:0.0518135 68:0 69:0.0984456 70:0.0259067 71:0 72:0.0984456 73:0.103627 74:0.129534 75:0.0984456 76:0.212435 77:0.0518135 78:0 79:0.0880829 80:0.0310881 81:0 82:0.0310881 83:0.139896 84:0.632124 85:0.0518135 86:0.0621762 87:0.284974 88:0 89:0.0880829 90:0.196891 91:0 92:0.0259067 93:0.455959 94:0.0984456 95:0 96:0 97:0.150259 98:0 99:0.207254 100:0.11399 101:0 102:0.0259067 103:0.119171 104:0.108808 105:0 106:0 107:0 108:0 109:0 110:0.0880829 
1 1 1 1 1 1:0 2:0 3:0 4:0 5:0 6:0 7:0 8:0 9:0 10:0 11:0 12:0 13:0 14:0 15:0 16:0.336207 17:0 18:0.594828 19:0.0689655 20:0.508621 21:0 22:0.206897 23:0 24:0 25:0.198276 26:0.232759 27:0.310345 28:0.37931 29:0.0775862 30:0.0603448 31:0 32:0.215517 33:0 34:0 35:0.224138 36:0.0258621 37:0.0172414 38:0.0258621 39:0.189655 40:0.0689655 41:0.577586 42:0.0431034 43:0 44:0 45:0.0431034 46:0.0603448 47:0.0517241 48:0 49:0.0258621 50:0.206897 51:0.422414 52:0.155172 53:0.12931 54:0 55:0.0862069 56:0.0344828 57:0.0431034 58:0 59:0.0603448 60:0.0172414 61:0 62:0.12069 63:0.189655 64:0.232759 65:0.12069 66:0.284483 67:0.0517241 68:0 69:0.0603448 70:0.12069 71:0 72:0.12931 73:0.146552 74:0.206897 75:0.146552 76:0.0258621 77:0.387931 78:0 79:0.508621 80:0.0172414 81:0 82:0.12931 83:0.534483 84:0.560345 85:0.181034 86:0 87:0.137931 88:0 89:0.00862069 90:0 91:0 92:0 93:0 94:0 95:0 96:0 97:0 98:0 99:0 100:0 101:0 102:0 103:0 104:0 105:0 106:0 107:0 108:0 109:0 110:0 
1 1 1 1 1 1:0 2:0.0251572 3:0 4:0 5:0 6:0 7:0 8:0.371069 9:0 10:0.0251572 11:0 12:0.0628931 13:0 14:0 15:0.0377358 16:0.459119 17:0 18:0.610063 19:0 20:0.383648 21:0 22:0.0377358 23:0 24:0 25:0.0754717 26:0.308176 27:0 28:0.0188679 29:0 30:0.339623 31:0 32:0.113208 33:0 34:0 35:0.081761 36:0.144654 37:0 38:0 39:0 40:0.150943 41:0.371069 42:0.100629 43:0 44:0 45:0.113208 46:0.0314465 47:0 48:0 49:0 50:0.0628931 51:0.572327 52:0.150943 53:0 54:0 55:0.113208 56:0.0377358 57:0.0566038 58:0 59:0.0125786 60:0.0377358 61:0.0566038 62:0.113208 63:0.00628931 64:0 65:0.106918 66:0.0188679 67:0.0188679 68:0 69:0.0943396 70:0 71:0 72:0.144654 73:0.194969 74:0.0943396 75:0.0943396 76:0 77:0.106918 78:0 79:0.226415 80:0 81:0 82:0.226415 83:0.572327 84:0.616352 85:0.194969 86:0 87:0.333333 88:0 89:0.314465 90:0 91:0 92:0.0125786 93:0.207547 94:0.27044 95:0.150943 96:0 97:0.465409 98:0 99:0.352201 100:0 101:0 102:0.0125786 103:0.0188679 104:0.0188679 105:0.0314465 106:0 107:0.0188679 108:0 109:0 110:0 
1 1 1 1 1 1:0 2:0.00985222 3:0 4:0 5:0 6:0 7:0 8:0 9:0 10:0 11:0 12:0.157635 13:0 14:0 15:0 16:0.216749 17:0 18:1 19:0 20:0.487685 21:0 22:0.0394089 23:0 24:0 25:0.167488 26:0.453202 27:0.00985222 28:0 29:0 30:0.226601 31:0 32:0.0394089 33:0 34:0 35:0.00492611 36:0.128079 37:0.103448 38:0 39:0 40:0.275862 41:0.960591 42:0.0689655 43:0 44:0 45:0.0985222 46:0.00985222 47:0.0640394 48:0 49:0 50:0.00492611 51:0.0394089 52:0.0788177 53:0 54:0 55:0.1133 56:0.0295567 57:0.0246305 58:0 59:0.0985222 60:0.00492611 61:0 62:0.0985222 63:0 64:0 65:0.118227 66:0.0147783 67:0.0985222 68:0 69:0.344828 70:0 71:0 72:0.339901 73:0.197044 74:0 75:0.241379 76:0.147783 77:0.399015 78:0 79:0.487685 80:0 81:0 82:0.157635 83:0.802956 84:1 85:0.231527 86:0 87:0.231527 88:0 89:0.0689655 90:0 91:0 92:0.00985222 93:0 94:0 95:0.0246305 96:0 97:0.0689655 98:0 99:0 100:0 101:0 102:0 103:0 104:0 105:0 106:0 107:0 108:0 109:0 110:0 
1 1 1 1 1 1:0 2:0 3:0 4:0 5:0 6:0.118557 7:0 8:0.654639 9:0 10:0.0103093 11:0 12:0.0360825 13:0 14:0 15:0 16:0.268041 17:0 18:0.345361 19:0 20:0.345361 21:0 22:0.0979381 23:0 24:0 25:0.185567 26:0.417526 27:0.0824742 28:0 29:0.118557 30:0.443299 31:0.0103093 32:0.0515464 33:0 34:0 35:0.00515464 36:0.0103093 37:0.056701 38:0 39:0.056701 40:0.0154639 41:0.103093 42:0.0773196 43:0 44:0 45:0.0257732 46:0.00515464 47:0.0412371 48:0 49:0.00515464 50:0 51:0.886598 52:0.0257732 53:0 54:0 55:0.0824742 56:0 57:0 58:0 59:0.00515464 60:0.00515464 61:0 62:0.123711 63:0 64:0 65:0.149485 66:0.0257732 67:0.00515464 68:0 69:0 70:0.00515464 71:0 72:0.0824742 73:0 74:0 75:0.108247 76:0.0618557 77:0.0103093 78:0 79:0.0103093 80:0.0463918 81:0 82:0.427835 83:0.695876 84:0.634021 85:0.340206 86:0.0670103 87:0.149485 88:0 89:0.319588 90:0.128866 91:0 92:0.0721649 93:0.298969 94:0.340206 95:0.103093 96:0.0257732 97:0.484536 98:0 99:0.479381 100:0 101:0 102:0.00515464 103:0.00515464 104:0.0257732 105:0 106:0 107:0.170103 108:0 109:0.00515464 110:0 
-1 1 1 1 1 1:0 2:0 3:0 4:0 5:0 6:0 7:0 8:0 9:0 10:0 11:0 12:0 13:0 14:0 15:0 16:0 17:0.971429 18:0.285714 19:0.00952381 20:0.133333 21:0 22:0.219048 23:0 24:0 25:0.314286 26:0 27:0.0285714 28:0.714286 29:0.0666667 30:0.133333 31:0 32:0.780952 33:0 34:0.542857 35:0.361905 36:0 37:0 38:0 39:0.295238 40:0.0380952 41:0 42:0 43:0 44:0.457143 45:0.047619 46:0 47:0 48:0 49:0.27619 50:0.0380952 51:0.180952 52:0 53:0 54:0 55:0.0380952 56:0 57:0 58:0 59:0.0285714 60:0.32381 61:0.819048 62:0 63:0 64:0 65:0.161905 66:0.0761905 67:0 68:0 69:0.0380952 70:0.219048 71:0 72:0 73:1 74:0 75:0.0285714 76:0.92381 77:0 78:0 79:0.047619 80:0.0952381 81:0 82:0 83:0 84:0 85:0.0190476 86:0 87:0 88:0 89:0.161905 90:0.0190476 91:0 92:0 93:0 94:0 95:0.0285714 96:0 97:0 98:0 99:0.0761905 100:0 101:0 102:0 103:0 104:0 105:0 106:0 107:0 108:0 109:0 110:0 
-1 1 1 1 1 1:0 2:0.0631579 3:0 4:0 5:0 6:0 7:0.0421053 8:0 9:0 10:0 11:0 12:0.305263 13:0 14:0 15:0 16:0 17:0.157895 18:1 19:0 20:0 21:0 22:0.0736842 23:0 24:0 25:0 26:0 27:0.2 28:0 29:0.273684 30:0.389474 31:0 32:0.0736842 33:0 34:0 35:0.336842 36:0 37:0.0210526 38:0 39:0.221053 40:0.0526316 41:0.0105263 42:0.0105263 43:0 44:0 45:0.336842 46:0 47:0.0105263 48:0 49:0.0315789 50:0.0105263 51:0 52:0.473684 53:0 54:0 55:0.115789 56:0.126316 57:0.0736842 58:0 59:0.0210526 60:0.0210526 61:0.778947 62:0 63:0 64:0 65:0.136842 66:0.463158 67:0.494737 68:0 69:0.0105263 70:0.0210526 71:0.2 72:0 73:0 74:0 75:0.0526316 76:0.0315789 77:0 78:0 79:0.0210526 80:0.0315789 81:0.0105263 82:0 83:0 84:0 85:0.0210526 86:0.263158 87:0 88:0 89:0.252632 90:0.473684 91:0 92:0 93:0 94:0.105263 95:0 96:0.105263 97:0 98:0 99:0.168421 100:0 101:0 102:0 103:1 104:0.894737 105:0 106:0.0105263 107:0 108:0 109:0 110:0 
-1 1 1 1 1 1:0 2:0 3:0 4:0 5:0 6:0 7:0 8:0 9:0 10:0 11:0 12:0.0526316 13:0 14:0 15:0 16:0 17:0.54386 18:1 19:0 20:0.807018 21:0 22:0.631579 23:0 24:0 25:0 26:0.0526316 27:0.350877 28:0 29:0 30:0.157895 31:0 32:0.263158 33:0 34:0 35:0.0526316 36:0 37:0.0526316 38:0 39:0 40:0.0350877 41:1 42:0.0175439 43:0 44:0 45:0.754386 46:0 47:0 48:0 49:0 50:0 51:0 52:0.0350877 53:0 54:0 55:0.0877193 56:0 57:0 58:0 59:0 60:0 61:0 62:0 63:0 64:0.315789 65:0.0526316 66:0.0526316 67:0.0526316 68:0 69:0.105263 70:0 71:0 72:0 73:0.140351 74:0.350877 75:0.0526316 76:0.894737 77:0 78:0 79:0.491228 80:0 81:0 82:0 83:0.859649 84:0.333333 85:0 86:0 87:0 88:0 89:0.403509 90:0 91:0 92:0 93:0 94:0 95:0 96:0 97:0 98:0 99:0 100:0 101:0 102:0 103:0 104:0 105:0 106:0 107:0 108:0 109:0 110:0 
-1 1 1 1 1 1:0 2:0.137255 3:0 4:0 5:0 6:0 7:0 8:0.705882 9:0 10:0 11:0 12:0.0588235 13:0 14:0 15:0 16:0 17:0 18:0.294118 19:0.0196078 20:0.392157 21:0 22:0.470588 23:0 24:0 25:0.0392157 26:0.0196078 27:0.254902 28:0 29:0.0588235 30:0.0980392 31:0 32:0.196078 33:0 34:0 35:0.137255 36:0.0196078 37:0.215686 38:0 39:0.235294 40:0.0392157 41:0 42:0 43:0 44:0 45:0.176471 46:0.137255 47:0.196078 48:0 49:0.0196078 50:0.0588235 51:0.0196078 52:0 53:0.0196078 54:0 55:0.0196078 56:0.0784314 57:0.0784314 58:0 59:0.0196078 60:0.0588235 61:0.686275 62:0.0392157 63:0.0980392 64:0 65:0.470588 66:0.0784314 67:0.0784314 68:0 69:0.0392157 70:0.117647 71:0.235294 72:0.0196078 73:0.666667 74:0.607843 75:0.156863 76:0.352941 77:0.117647 78:0 79:0.0784314 80:0.117647 81:0.0588235 82:0.0784314 83:0.215686 84:0.392157 85:0 86:0.313726 87:0.0588235 88:0 89:0.117647 90:0.0784314 91:0 92:0 93:0 94:0 95:0 96:0 97:0 98:0 99:0.411765 100:0.0392157 101:0 102:0 103:0 104:0 105:0 106:0 107:0 108:0 109:0 110:0 
-1 1 1 1 1 1:0 2:0 3:0 4:0 5:0 6:0 7:0 8:1 9:0.168 10:0 11:0 12:1 13:0 14:0 15:0.2 16:0 17:0.312 18:0 19:0.144 20:0 21:0 22:0 23:0 24:0 25:0.472 26:0 27:0.68 28:0 29:0.024 30:0.264 31:0 32:0 33:0 34:0 35:0.264 36:0 37:0.008 38:0 39:0.032 40:0.344 41:1 42:0 43:0 44:0 45:0.048 46:0 47:0 48:0 49:0.024 50:0.024 51:0 52:0 53:0 54:0.048 55:0.016 56:0 57:0 58:0 59:0.176 60:0.04 61:0 62:0 63:0.72 64:0.144 65:0 66:0 67:0 68:0 69:0.352 70:0.016 71:0 72:0 73:0.28 74:0.712 75:0 76:0.24 77:0 78:0 79:0.08 80:0.04 81:0 82:0 83:0 84:0.096 85:0 86:0.76 87:0 88:0 89:0 90:0.272 91:0 92:0 93:0 94:0 95:0 96:0 97:0 98:0 99:0 100:0 101:0 102:0 103:0 104:0 105:0 106:0 107:0 108:0 109:0 110:0 
-1 1 1 1 1 1:0 2:0 3:0 4:0 5:0 6:0 7:0 8:1 9:0 10:0 11:0 12:0 13:0 14:0 15:0.181034 16:0 17:0 18:0 19:0.0172414 20:0.198276 21:0 22:0.87931 23:0 24:0 25:0.413793 26:0 27:1 28:0 29:0.517241 30:0.0517241 31:0 32:0.12069 33:0 34:0 35:0.206897 36:0 37:0 38:0 39:0.0344828 40:0.0948276 41:0.155172 42:0 43:0 44:0 45:0.103448 46:0 47:0 48:0 49:0.0258621 50:0.0431034 51:0.844828 52:0 53:0 54:0 55:0.0431034 56:0 57:0 58:0 59:0.0258621 60:0.0172414 61:0 62:0 63:0 64:0 65:0.0344828 66:0 67:0 68:0 69:0.0948276 70:0.0258621 71:0 72:0 73:0.844828 74:0.75 75:0.0172414 76:0 77:0 78:0 79:0.0344828 80:0.0258621 81:0 82:0 83:0.155172 84:0.25 85:0 86:0.5 87:0 88:0 89:0.0603448 90:0.543103 91:0 92:0 93:0 94:0 95:0 96:0.5 97:0 98:0 99:0.189655 100:0 101:0 102:0 103:0 104:0 105:0 106:0 107:0 108:0 109:0 110:0 
-1 1 1 1 1 1:0 2:0 3:0 4:0 5:0 6:0 7:0 8:0 9:0.12069 10:0 11:0 12:0.198276 13:0 14:0 15:0 16:0 17:0 18:1 19:0.344828 20:0.0948276 21:0 22:0.258621 23:0 24:0 25:0.0862069 26:0 27:0 28:0 29:0.137931 30:0.25 31:0 32:0.439655 33:0 34:0 35:0.0431034 36:0 37:0 38:0 39:0.0344828 40:0.0431034 41:1 42:0.0862069 43:0 44:0 45:0.267241 46:0 47:0 48:0 49:0.0603448 50:0.0862069 51:0 52:0.0172414 53:0 54:0 55:0.362069 56:0.0431034 57:0 58:0 59:0.224138 60:0.336207 61:0 62:0 63:0 64:0 65:0.0862069 66:0.568965 67:0.206897 68:0 69:0.0775862 70:0.12069 71:0 72:0 73:0.568965 74:0.267241 75:0.0775862 76:0.387931 77:0.767241 78:0 79:0 80:0.0689655 81:0 82:0 83:0.431034 84:0.0775862 85:0.0603448 86:0 87:0.0258621 88:0 89:0 90:0 91:0 92:0 93:0 94:0.655172 95:0.0172414 96:0 97:0 98:0 99:0 100:0 101:0 102:0 103:0 104:0 105:0 106:0 107:0 108:0 109:0 110:0 
-1 1 1 1 1 1:0 2:0 3:0 4:0 5:0 6:0 7:0 8:0 9:0 10:0 11:0 12:0 13:0 14:0 15:0.08 16:0 17:0.352 18:1 19:0.008 20:0 21:0 22:1 23:0 24:0 25:0.32 26:0 27:0.648 28:0 29:0.152 30:0 31:0 32:0 33:0 34:0 35:0.528 36:0 37:0 38:0 39:0.08 40:0.024 41:0 42:0 43:0 44:0 45:0.072 46:0 47:0 48:0 49:0.496 50:0.04 51:1 52:0 53:0 54:0 55:0 56:0 57:0 58:0 59:0.176 60:0.136 61:0 62:0 63:0 64:0 65:0 66:0 67:0 68:0 69:0.048 70:0.568 71:0 72:0 73:0 74:0 75:0 76:0 77:0 78:0 79:0.032 80:0.064 81:0 82:0 83:1 84:0.656 85:0 86:0.832 87:0 88:0 89:0.008 90:0.144 91:0 92:0 93:0 94:0.344 95:0 96:0.168 97:0 98:0 99:0 100:0.024 101:0 102:0 103:0 104:0 105:0 106:0 107:0 108:0 109:0 110:0 
-1 1 1 1 1 1:0 2:0 3:0 4:0 5:0 6:0 7:0 8:0 9:0 10:0 11:0 12:0.00819672 13:0 14:0 15:0 16:0.106557 17:0 18:0.696721 19:0.0819672 20:0.131148 21:0 22:0.0819672 23:0 24:0 25:0.057377 26:0.262295 27:0.286885 28:0.303279 29:0.360656 30:0.122951 31:0 32:0.54918 33:0 34:0 35:0.45082 36:0.114754 37:0.0245902 38:0 39:0.0737705 40:0.155738 41:0 42:0.360656 43:0 44:0 45:0.0491803 46:0.180328 47:0.196721 48:0 49:0.0737705 50:0.0737705 51:0.918033 52:0 53:0 54:0 55:0.114754 56:0.0245902 57:0.180328 58:0 59:0.0655738 60:0.114754 61:0.0819672 62:0 63:0 64:0.122951 65:0.188525 66:0.114754 67:0.0901639 68:0 69:0.196721 70:0.155738 71:0 72:0 73:0.778689 74:0.704918 75:0.0737705 76:0.196721 77:0.221311 78:0 79:0.147541 80:0.245902 81:0 82:0 83:0.221311 84:0.172131 85:0.0245902 86:0 87:0 88:0 89:0 90:0 91:0 92:0 93:0 94:0 95:0.0409836 96:0 97:0 98:0 99:0 100:0 101:0 102:0 103:0 104:0 105:0 106:0 107:0 108:0 109:0 110:0 
-1 1 1 1 1 1:0 2:0 3:0 4:0 5:0 6:0 7:0 8:0.049505 9:0 10:0 11:0 12:0.237624 13:0 14:0 15:0.0891089 16:0 17:0 18:0.950495 19:0 20:0 21:0 22:0.475248 23:0 24:0 25:0.277228 26:0.217822 27:0.019802 28:0 29:0.405941 30:0.247525 31:0 32:0.267327 33:0 34:0 35:0.247525 36:0.277228 37:0.0594059 38:0 39:0.0990099 40:0.0990099 41:0 42:0.019802 43:0 44:0 45:0.049505 46:0.247525 47:0.0792079 48:0 49:0.049505 50:0.039604 51:0.158416 52:0 53:0 54:0 55:0.188119 56:0.118812 57:0.108911 58:0 59:0.029703 60:0.019802 61:0.772277 62:0 63:0 64:0 65:0.0990099 66:0.049505 67:0.207921 68:0 69:0.029703 70:0.029703 71:0.0693069 72:0 73:0 74:0 75:0.049505 76:0.0792079 77:0.247525 78:0 79:0.039604 80:0.0594059 81:0 82:0 83:0.742574 84:0.485149 85:0 86:0.00990099 87:0.257426 88:0 89:0.039604 90:0.425743 91:0 92:0 93:0.257426 94:0.514852 95:0 96:0 97:0.019802 98:0 99:0.19802 100:0.0792079 101:0 102:0 103:0 104:0 105:0 106:0 107:0 108:0 109:0.108911 110:0 
-1 1 1 1 1 1:0 2:0 3:0 4:0 5:0 6:0 7:0.691667 8:0 9:0.0833333 10:0 11:0 12:0 13:0 14:0 15:0.0166667 16:0 17:0.308333 18:0 19:0.408333 20:0 21:0 22:0.025 23:0 24:0 25:0.475 26:0 27:0 28:1 29:0.366667 30:0 31:0 32:0.975 33:0 34:0 35:0.391667 36:0 37:0 38:0 39:0.1 40:0.00833333 41:1 42:0 43:0 44:0.05 45:0.0333333 46:0 47:0 48:0 49:0.0416667 50:0.1 51:0 52:0 53:0.791667 54:0.808333 55:0.0166667 56:0.0333333 57:0 58:0 59:0 60:0.325 61:0 62:0 63:0.208333 64:0.141667 65:0.0333333 66:0.358333 67:0 68:0 69:0 70:0.55 71:0 72:0 73:0 74:0 75:0.0333333 76:0.608333 77:0 78:0 79:0 80:0.0166667 81:0 82:0 83:0 84:0 85:0 86:0 87:0 88:0 89:0 90:0 91:0 92:0 93:0 94:0 95:0 96:0 97:0 98:0 99:0 100:0 101:0 102:0 103:0 104:0 105:0 106:0 107:0 108:0 109:0 110:0 
-1 1 1 1 1 1:0 2:0 3:0 4:0 5:0 6:0 7:0 8:0.314465 9:0 10:0 11:0 12:0.0125786 13:0 14:0 15:0.119497 16:0 17:0.00628931 18:0.685535 19:0.0125786 20:0 21:0 22:0.761006 23:0 24:0 25:0.72956 26:0 27:0.761006 28:0 29:0.654088 30:0 31:0 32:0.226415 33:0 34:0 35:0.0691824 36:0 37:0.0754717 38:0 39:0.113208 40:0 41:0 42:0 43:0 44:0 45:0.0188679 46:0 47:0.157233 48:0 49:0.0503145 50:0.0754717 51:0.987421 52:0 53:0 54:0 55:0.0125786 56:0 57:0 58:0 59:0.0943396 60:0.0880503 61:0.0125786 62:0 63:0 64:0 65:0.0125786 66:0.150943 67:0 68:0 69:0.0691824 70:0.0566038 71:0 72:0 73:0 74:0 75:0.0377358 76:0.0314465 77:0 78:0 79:0.00628931 80:0.138365 81:0 82:0 83:0.761006 84:1 85:0 86:0.685535 87:0 88:0 89:0 90:0.63522 91:0 92:0 93:0.238994 94:0 95:0 96:0.132075 97:0 98:0 99:0 100:0.00628931 101:0 102:0 103:0 104:0 105:0 106:0 107:0 108:0 109:0 110:0 
-1 -1 1 1 1 1:0 2:0.109453 3:0 4:0 5:0 6:0 7:0.0248756 8:0.268657 9:0 10:0 11:0 12:0.0746269 13:0 14:0 15:0.283582 16:0 17:0.0348259 18:0.721393 19:0.129353 20:0 21:0.00497512 22:0.338308 23:0 24:0 25:0.18408 26:0 27:0.313433 28:0.00995025 29:0.338308 30:0 31:0.0248756 32:0.308458 33:0 34:0 35:0.323383 36:0.00497512 37:0.0547264 38:0 39:0.144279 40:0 41:0.308458 42:0.159204 43:0 44:0 45:0.124378 46:0.0895522 47:0.0945274 48:0 49:0.303483 50:0.00995025 51:0.636816 52:0.00995025 53:0 54:0.0497512 55:0.0497512 56:0.303483 57:0.248756 58:0 59:0.0597015 60:0.0646766 61:0.0248756 62:0 63:0.039801 64:0.323383 65:0.0199005 66:0.363184 67:0.199005 68:0 69:0.0248756 70:0.656716 71:0 72:0 73:0.537313 74:0.437811 75:0.0149254 76:0.114428 77:0.0298507 78:0 79:0 80:0.218905 81:0 82:0 83:0.20398 84:0.0447761 85:0 86:0.039801 87:0 88:0 89:0 90:0.0497512 91:0 92:0 93:0.21393 94:0.0995025 95:0 96:0.0845771 97:0 98:0 99:0 100:0 101:0 102:0 103:0.00497512 104:0.0447761 105:0 106:0 107:0 108:0 109:0 110:0 
-1 -1 1 1 1 1:0.0210526 2:0 3:0 4:0 5:0 6:0 7:0 8:0.510526 9:0 10:0 11:0.0631579 12:0.00526316 13:0 14:0 15:0.0578947 16:0.0368421 17:0.0947368 18:0.389474 19:0.147368 20:0 21:0.0263158 22:0.510526 23:0 24:0 25:0.484211 26:0.157895 27:0.447368 28:0.0684211 29:0.484211 30:0 31:0.0842105 32:0.115789 33:0.0210526 34:0 35:0.0736842 36:0.0210526 37:0.142105 38:0.0263158 39:0.289474 40:0.0157895 41:0.205263 42:0.0947368 43:0.0789474 44:0.0263158 45:0.0210526 46:0.0894737 47:0.0368421 48:0 49:0.0263158 50:0.0263158 51:0.221053 52:0.0210526 53:0.00526316 54:0.0421053 55:0.0210526 56:0.0736842 57:0.0157895 58:0.00526316 59:0.00526316 60:0.0736842 61:0.378947 62:0.0578947 63:0.0578947 64:0.152632 65:0.0157895 66:0.147368 67:0.0210526 68:0 69:0.00526316 70:0.136842 71:0 72:0.168421 73:0.0947368 74:0.205263 75:0.0210526 76:0.157895 77:0.0473684 78:0 79:0.0263158 80:0.163158 81:0 82:0.0263158 83:0.136842 84:0.173684 85:0.142105 86:0.315789 87:0.0736842 88:0 89:0.0157895 90:0.294737 91:0 92:0 93:0.363158 94:0.368421 95:0.136842 96:0 97:0.121053 98:0 99:0 100:0.268421 101:0 102:0 103:0.242105 104:0.0315789 105:0.0263158 106:0 107:0 108:0 109:0 110:0.0210526 
-1 -1 1 1 1 1:0 2:0.0230769 3:0 4:0 5:0 6:0 7:0.292308 8:0.0615385 9:0.0615385 10:0 11:0 12:0.115385 13:0 14:0 15:0.223077 16:0.0538462 17:0.330769 18:0.430769 19:0.523077 20:0.0153846 21:0.423077 22:0.169231 23:0 24:0 25:0.292308 26:0.0538462 27:0.1 28:0.346154 29:0.138462 30:0.0153846 31:0.153846 32:0.3 33:0 34:0 35:0 36:0.0615385 37:0.0538462 38:0.138462 39:0.0615385 40:0.00769231 41:0.423077 42:0.392308 43:0.346154 44:0 45:0.115385 46:0.0461538 47:0.0615385 48:0.0230769 49:0.107692 50:0.0461538 51:0 52:0 53:0.0692308 54:0.0615385 55:0.246154 56:0.0692308 57:0.0615385 58:0 59:0.0615385 60:0.0692308 61:0 62:0 63:0.130769 64:0.0384615 65:0.0769231 66:0.415385 67:0.0769231 68:0 69:0.00769231 70:0.207692 71:0 72:0 73:0.392308 74:0.330769 75:0.0461538 76:0.3 77:0.0230769 78:0 79:0.00769231 80:0.338462 81:0 82:0 83:0.0615385 84:0.307692 85:0 86:0 87:0 88:0 89:0.00769231 90:0.261538 91:0 92:0 93:0 94:0.261538 95:0 96:0 97:0 98:0 99:0.0230769 100:0.0307692 101:0 102:0 103:0 104:0 105:0 106:0 107:0 108:0 109:0 110:0.00769231 
-1 -1 1 1 1 1:0.0755814 2:0.0406977 3:0 4:0.0348837 5:0.0116279 6:0 7:0.00581395 8:0.0988372 9:0.122093 10:0 11:0.0406977 12:0.122093 13:0 14:0.22093 15:0.0581395 16:0 17:0.377907 18:0.337209 19:0.162791 20:0.25 21:0.0813954 22:0.267442 23:0 24:0.151163 25:0.0930233 26:0 27:0.331395 28:0.0930233 29:0.151163 30:0.226744 31:0.186047 32:0.186047 33:0 34:0.0930233 35:0.401163 36:0.0290698 37:0.0755814 38:0.0348837 39:0.0872093 40:0.0581395 41:0.162791 42:0.19186 43:0.00581395 44:0.0406977 45:0.203488 46:0.0232558 47:0.127907 48:0.0232558 49:0.19186 50:0.0813954 51:0.44186 52:0.145349 53:0.0348837 54:0.0290698 55:0.168605 56:0.0581395 57:0.0465116 58:0.0232558 59:0.0988372 60:0.0813954 61:0.0116279 62:0.0348837 63:0.156977 64:0.0697674 65:0.0581395 66:0.232558 67:0.0232558 68:0 69:0.0872093 70:0.0406977 71:0 72:0 73:0.22093 74:0.244186 75:0.00581395 76:0.110465 77:0.0116279 78:0.0232558 79:0.0523256 80:0.232558 81:0 82:0.00581395 83:0.255814 84:0.104651 85:0 86:0.343023 87:0 88:0.0174419 89:0.0465116 90:0.0290698 91:0 92:0.00581395 93:0.0988372 94:0.0116279 95:0 96:0.133721 97:0 98:0.162791 99:0 100:0 101:0 102:0 103:0.226744 104:0 105:0 106:0.0697674 107:0 108:0.186047 109:0 110:0 
-1 -1 1 1 1 1:0 2:0.0277778 3:0 4:0 5:0 6:0 7:0.00694444 8:0.576389 9:0 10:0 11:0.0138889 12:0.173611 13:0 14:0 15:0 16:0 17:0.0833333 18:0.375 19:0 20:0.0416667 21:0.145833 22:0.472222 23:0.00694444 24:0 25:0.340278 26:0 27:0.263889 28:0.0486111 29:0.166667 30:0.284722 31:0.618056 32:0.3125 33:0.0972222 34:0 35:0.416667 36:0 37:0.319444 38:0 39:0.0486111 40:0.166667 41:0.222222 42:0.0138889 43:0.0486111 44:0.0416667 45:0.1875 46:0 47:0.229167 48:0 49:0.180556 50:0.00694444 51:0 52:0 53:0.0208333 54:0.194444 55:0.0555556 56:0.159722 57:0.0972222 58:0 59:0.0555556 60:0.111111 61:0 62:0 63:0.0763889 64:0.25 65:0 66:0.409722 67:0 68:0 69:0.00694444 70:0.208333 71:0 72:0 73:0.0833333 74:0.229167 75:0 76:0.208333 77:0 78:0 79:0.1875 80:0.0208333 81:0 82:0 83:0.430556 84:0.284722 85:0 86:0.222222 87:0 88:0 89:0.229167 90:0.159722 91:0 92:0 93:0.125 94:0 95:0 96:0 97:0 98:0 99:0.125 100:0 101:0 102:0 103:0.111111 104:0 105:0 106:0 107:0 108:0 109:0 110:0 
-1 -1 1 1 1 1:0.0224719 2:0.00561798 3:0 4:0 5:0 6:0 7:0 8:0.477528 9:0 10:0 11:0.0898876 12:0.207865 13:0 14:0 15:0.0337079 16:0 17:0 18:0.269663 19:0 20:0.0168539 21:0.0505618 22:0.505618 23:0 24:0 25:0.303371 26:0.00561798 27:0.376404 28:0.191011 29:0.241573 30:0.241573 31:0.101124 32:0.174157 33:0.0168539 34:0 35:0.269663 36:0.0561798 37:0.174157 38:0.0449438 39:0.174157 40:0.129213 41:0.286517 42:0.0955056 43:0.0674157 44:0.0505618 45:0.11236 46:0.0337079 47:0.213483 48:0.0168539 49:0.0898876 50:0.0337079 51:0.376404 52:0.011236 53:0.0674157 54:0.0449438 55:0.174157 56:0.106742 57:0.146067 58:0 59:0.280899 60:0.129213 61:0.0730337 62:0 63:0.0449438 64:0.235955 65:0.0898876 66:0.353933 67:0.0337079 68:0 69:0.157303 70:0.134831 71:0 72:0 73:0.432584 74:0.38764 75:0.0168539 76:0.207865 77:0.0224719 78:0 79:0.0561798 80:0.134831 81:0 82:0 83:0.264045 84:0.230337 85:0 86:0.230337 87:0.0280899 88:0 89:0 90:0.179775 91:0 92:0 93:0.0955056 94:0.0449438 95:0 96:0 97:0.00561798 98:0 99:0 100:0 101:0 102:0 103:0.011236 104:0.00561798 105:0 106:0.00561798 107:0 108:0 109:0 110:0 
-1 -1 1 1 1 1:0 2:0 3:0 4:0 5:0.0502793 6:0 7:0 8:0 9:0.00558659 10:0 11:0 12:0 13:0 14:0.00558659 15:0.027933 16:0 17:0.21229 18:0.50838 19:0.217877 20:0 21:0.240223 22:0.346369 23:0.0111732 24:0.0446927 25:0.122905 26:0.0837989 27:0.0949721 28:0.145251 29:0.0670391 30:0 31:0.368715 32:0.139665 33:0.189944 34:0.0949721 35:0.156425 36:0.201117 37:0.106145 38:0.00558659 39:0.134078 40:0.0502793 41:0.189944 42:0.413408 43:0.21229 44:0.100559 45:0.301676 46:0.24581 47:0.0782123 48:0.0837989 49:0.234637 50:0.189944 51:0.201117 52:0.0949721 53:0.106145 54:0.223464 55:0.189944 56:0.117318 57:0.122905 58:0.0949721 59:0.167598 60:0.217877 61:0 62:0.00558659 63:0.312849 64:0.329609 65:0.134078 66:0.0223464 67:0.301676 68:0.0446927 69:0.156425 70:0.26257 71:0 72:0 73:0.167598 74:0.0614525 75:0.0167598 76:0.312849 77:0.0837989 78:0.0391061 79:0.0167598 80:0.223464 81:0 82:0 83:0 84:0.0335196 85:0 86:0.0167598 87:0 88:0.0782123 89:0 90:0.0446927 91:0 92:0 93:0 94:0.106145 95:0 96:0 97:0 98:0 99:0 100:0.0111732 101:0 102:0 103:0 104:0 105:0 106:0 107:0 108:0 109:0 110:0 
-1 -1 1 1 1 1:0.106796 2:0.0825243 3:0 4:0 5:0.00970874 6:0 7:0 8:0.126214 9:0 10:0 11:0.174757 12:0.116505 13:0 14:0 15:0.092233 16:0.0582524 17:0.0145631 18:0.349515 19:0.0145631 20:0.0485437 21:0.0825243 22:0.262136 23:0 24:0 25:0.296117 26:0.106796 27:0.300971 28:0.0194175 29:0.34466 30:0.0631068 31:0.0242718 32:0.15534 33:0 34:0 35:0.407767 36:0.208738 37:0.179612 38:0.0873786 39:0.194175 40:0.121359 41:0.11165 42:0.121359 43:0.0339806 44:0.0242718 45:0.0728155 46:0.165049 47:0.276699 48:0.0582524 49:0.160194 50:0.179612 51:0.354369 52:0.116505 53:0.121359 54:0.106796 55:0.0728155 56:0.0631068 57:0.15534 58:0.126214 59:0.0533981 60:0.174757 61:0.145631 62:0.0873786 63:0.247573 64:0.174757 65:0.038835 66:0.0776699 67:0.0485437 68:0.179612 69:0.0582524 70:0.0533981 71:0 72:0.0533981 73:0.247573 74:0.184466 75:0.00970874 76:0.0631068 77:0.0194175 78:0.0533981 79:0.150485 80:0.101942 81:0 82:0.00485437 83:0.300971 84:0.427184 85:0 86:0.223301 87:0.00485437 88:0 89:0.0242718 90:0.23301 91:0 92:0 93:0.0485437 94:0.0825243 95:0 96:0.0242718 97:0 98:0 99:0 100:0.0242718 101:0 102:0 103:0 104:0 105:0 106:0.00970874 107:0 108:0 109:0 110:0 
-1 -1 1 1 1 1:0.0108108 2:0.118919 3:0 4:0 5:0.0648649 6:0 7:0.0756757 8:0.427027 9:0.259459 10:0 11:0.027027 12:0.313514 13:0 14:0 15:0.297297 16:0 17:0.378378 18:0.535135 19:0.464865 20:0 21:0.135135 22:0.275676 23:0 24:0 25:0.183784 26:0.0324324 27:0.102703 28:0.027027 29:0.108108 30:0 31:0.0864865 32:0.108108 33:0 34:0 35:0.27027 36:0.0162162 37:0.113514 38:0.0108108 39:0.118919 40:0 41:0.432432 42:0.0378378 43:0 44:0.00540541 45:0.0864865 46:0.0594595 47:0.0972973 48:0 49:0.0216216 50:0 51:0.302703 52:0.0108108 53:0.0162162 54:0.0216216 55:0.0702703 56:0.0864865 57:0.0540541 58:0 59:0.027027 60:0.0108108 61:0.00540541 62:0 63:0.210811 64:0.145946 65:0.0162162 66:0.172973 67:0.0378378 68:0 69:0 70:0.135135 71:0 72:0.0540541 73:0.421622 74:0.254054 75:0.0108108 76:0.113514 77:0.124324 78:0 79:0 80:0.335135 81:0 82:0.0810811 83:0.156757 84:0.443243 85:0 86:0.286486 87:0.0162162 88:0 89:0 90:0.178378 91:0 92:0 93:0.151351 94:0.0918919 95:0 96:0.172973 97:0 98:0 99:0 100:0.216216 101:0 102:0 103:0.0432432 104:0.0378378 105:0 106:0.0594595 107:0 108:0 109:0 110:0.124324 
-1 -1 1 1 1 1:0 2:0 3:0.0582011 4:0 5:0.0740741 6:0 7:0.0634921 8:0.354497 9:0.021164 10:0.037037 11:0 12:0.259259 13:0.0793651 14:0 15:0.306878 16:0 17:0.132275 18:0.328042 19:0.037037 20:0.026455 21:0.021164 22:0.497355 23:0.037037 24:0 25:0.417989 26:0 27:0.492063 28:0.116402 29:0.195767 30:0.042328 31:0.0687831 32:0.169312 33:0.037037 34:0 35:0.0740741 36:0.021164 37:0.206349 38:0.042328 39:0.259259 40:0.116402 41:0.227513 42:0.0740741 43:0.0582011 44:0 45:0.0634921 46:0.185185 47:0.0952381 48:0.0687831 49:0.10582 50:0.0740741 51:0.47619 52:0 53:0.026455 54:0 55:0.042328 56:0.21164 57:0 58:0.0529101 59:0.0740741 60:0.0899471 61:0.10582 62:0 63:0.031746 64:0.0952381 65:0.021164 66:0.164021 67:0.00529101 68:0.037037 69:0.0899471 70:0.0846561 71:0.100529 72:0 73:0.0846561 74:0.232804 75:0 76:0.021164 77:0.00529101 78:0 79:0.0582011 80:0.238095 81:0 82:0 83:0.465608 84:0.513228 85:0 86:0.380952 87:0 88:0 89:0.0952381 90:0.216931 91:0 92:0 93:0.0529101 94:0.15873 95:0 96:0.015873 97:0 98:0 99:0.0634921 100:0.0529101 101:0 102:0 103:0.0687831 104:0 105:0 106:0 107:0 108:0 109:0 110:0.021164 
-1 -1 1 1 1 1:0 2:0.0217391 3:0 4:0 5:0.00543478 6:0 7:0 8:0.157609 9:0.0271739 10:0 11:0.0326087 12:0.0543478 13:0 14:0.0271739 15:0.0434783 16:0 17:0.163043 18:0.413043 19:0.423913 20:0 21:0.347826 22:0.0978261 23:0 24:0.119565 25:0.141304 26:0.048913 27:0.0434783 28:0.076087 29:0.222826 30:0 31:0.23913 32:0.630435 33:0.0108696 34:0.369565 35:0.347826 36:0.445652 37:0.0326087 38:0.244565 39:0.0597826 40:0 41:0.358696 42:0.125 43:0.0163043 44:0.0271739 45:0.173913 46:0.119565 47:0.125 48:0.108696 49:0.103261 50:0 51:0.0217391 52:0.0706522 53:0.0597826 54:0.0163043 55:0.0869565 56:0.0815217 57:0.130435 58:0 59:0.125 60:0 61:0 62:0 63:0.38587 64:0.315217 65:0.173913 66:0.103261 67:0.429348 68:0 69:0.0380435 70:0.25 71:0 72:0 73:0.38587 74:0.0978261 75:0.0271739 76:0.190217 77:0.076087 78:0 79:0 80:0.25 81:0 82:0 83:0.0869565 84:0.0271739 85:0 86:0.0108696 87:0 88:0 89:0 90:0.38587 91:0 92:0 93:0.0326087 94:0 95:0 96:0 97:0 98:0 99:0 100:0.108696 101:0 102:0 103:0.0217391 104:0 105:0 106:0 107:0 108:0 109:0 110:0.00543478 
-1 -1 1 1 1 1:0.0659341 2:0 3:0 4:0 5:0.010989 6:0 7:0 8:0.450549 9:0.0989011 10:0.010989 11:0.104396 12:0.032967 13:0 14:0 15:0.197802 16:0 17:0 18:0.401099 19:0.192308 20:0.032967 21:0.0989011 22:0.285714 23:0 24:0 25:0.543956 26:0.010989 27:0.412088 28:0.104396 29:0.489011 30:0.0549451 31:0.10989 32:0.186813 33:0.0494506 34:0.0164835 35:0.0879121 36:0.0549451 37:0.0824176 38:0.021978 39:0.126374 40:0.0549451 41:0.159341 42:0.137363 43:0.137363 44:0.0494506 45:0.10989 46:0.0714286 47:0.10989 48:0.010989 49:0.0549451 50:0.131868 51:0.395604 52:0.153846 53:0.142857 54:0.164835 55:0.0274725 56:0.159341 57:0.115385 58:0.010989 59:0.0274725 60:0.153846 61:0.0549451 62:0.131868 63:0.126374 64:0.197802 65:0.0164835 66:0.126374 67:0.186813 68:0 69:0 70:0.104396 71:0.010989 72:0.0604396 73:0.120879 74:0.247253 75:0.00549451 76:0.159341 77:0.0494506 78:0 79:0.00549451 80:0.104396 81:0 82:0.010989 83:0.351648 84:0.318681 85:0 86:0.362637 87:0.032967 88:0 89:0.00549451 90:0.351648 91:0 92:0 93:0.0384615 94:0.00549451 95:0 96:0.0384615 97:0.010989 98:0 99:0 100:0 101:0 102:0 103:0.032967 104:0 105:0 106:0.0164835 107:0 108:0 109:0 110:0 
-1 -1 -1 1 1 1:0 2:0.0077821 3:0 4:0 5:0 6:0.0311284 7:0 8:0.315175 9:0 10:0 11:0 12:0.0389105 13:0 14:0 15:0.0505837 16:0.0350195 17:0.0428016 18:0.622568 19:0.0311284 20:0 21:0 22:0.249027 23:0 24:0 25:0.206226 26:0.0077821 27:0.284047 28:0.0622568 29:0.392996 30:0 31:0.00389105 32:0.400778 33:0 34:0 35:0.447471 36:0.0077821 37:0.217899 38:0 39:0.252918 40:0 41:0.14786 42:0.241245 43:0.0077821 44:0.00389105 45:0.264591 46:0 47:0.245136 48:0 49:0.245136 50:0.0428016 51:0.233463 52:0.0583658 53:0.0272374 54:0.0155642 55:0.0311284 56:0.14786 57:0.105058 58:0 59:0.0466926 60:0.0350195 61:0.478599 62:0.00389105 63:0.0077821 64:0.0116732 65:0 66:0.14786 67:0.0233463 68:0 69:0.0311284 70:0.198444 71:0.136187 72:0 73:0.0233463 74:0.0194553 75:0 76:0.151751 77:0 78:0 79:0 80:0.18677 81:0 82:0 83:0.0544747 84:0.190661 85:0 86:0.361868 87:0.0116732 88:0 89:0 90:0.513619 91:0 92:0 93:0.677043 94:0.486381 95:0 96:0.105058 97:0.0272374 98:0 99:0 100:0.0233463 101:0 102:0 103:0.202335 104:0.272374 105:0 106:0.00389105 107:0.0428016 108:0 109:0 110:0 
-1 -1 -1 1 1 1:0 2:0 3:0 4:0.00355872 5:0 6:0 7:0.0996441 8:0.145907 9:0.117438 10:0 11:0 12:0 13:0 14:0.0569395 15:0 16:0 17:0.120996 18:0.291815 19:0.259786 20:0 21:0 22:0.0391459 23:0.142349 24:0.0391459 25:0.0320285 26:0 27:0.206406 28:0.252669 29:0.234875 30:0 31:0 32:0.309609 33:0.362989 34:0.153025 35:0.345196 36:0 37:0.177936 38:0.088968 39:0.128114 40:0 41:0 42:0.434164 43:0.209964 44:0.352313 45:0.483986 46:0.0106762 47:0.227758 48:0.13879 49:0.117438 50:0.0213523 51:0.768683 52:0.213523 53:0.088968 54:0.19573 55:0.106762 56:0.142349 57:0.149466 58:0.0640569 59:0.0782918 60:0.0569395 61:0.231317 62:0.00355872 63:0.0818505 64:0.181495 65:0.0284698 66:0.131673 67:0.0142349 68:0.0177936 69:0.0604982 70:0.181495 71:0 72:0 73:0.0462633 74:0.0106762 75:0.00355872 76:0.384342 77:0.00355872 78:0 79:0.00355872 80:0.19573 81:0 82:0 83:0.0640569 84:0.00711744 85:0 86:0.231317 87:0 88:0 89:0 90:0.373665 91:0 92:0 93:0.00355872 94:0 95:0 96:0.0996441 97:0 98:0 99:0 100:0.170819 101:0 102:0 103:0 104:0 105:0 106:0 107:0 108:0 109:0 110:0 
-1 -1 -1 1 1 1:0 2:0.0458333 3:0 4:0 5:0.0916667 6:0 7:0.00833333 8:0.495833 9:0.00416667 10:0.0291667 11:0 12:0.141667 13:0 14:0 15:0.0583333 16:0 17:0.154167 18:0.483333 19:0.1125 20:0.00416667 21:0.0375 22:0.175 23:0 24:0 25:0.208333 26:0 27:0.275 28:0.0208333 29:0.191667 30:0.0375 31:0 32:0.420833 33:0.00416667 34:0 35:0.2625 36:0 37:0.3625 38:0 39:0.225 40:0 41:0.675 42:0.216667 43:0.00833333 44:0 45:0.145833 46:0 47:0.129167 48:0 49:0.1875 50:0.0291667 51:0.2875 52:0 53:0.0416667 54:0.0333333 55:0.233333 56:0.05 57:0.0208333 58:0 59:0.1375 60:0.125 61:0 62:0 63:0.195833 64:0.2125 65:0 66:0.141667 67:0.0375 68:0 69:0.0708333 70:0.0916667 71:0 72:0 73:0.266667 74:0.25 75:0 76:0.291667 77:0.0125 78:0 79:0.00833333 80:0.35 81:0 82:0 83:0.3875 84:0.433333 85:0 86:0.3 87:0 88:0 89:0.0166667 90:0.204167 91:0 92:0 93:0.0583333 94:0.0708333 95:0 96:0.191667 97:0 98:0 99:0.0166667 100:0.125 101:0 102:0 103:0.0375 104:0 105:0 106:0.025 107:0 108:0 109:0.0291667 110:0.00416667 
-1 -1 -1 1 1 1:0 2:0.0389972 3:0 4:0 5:0.0640668 6:0 7:0.0250696 8:0.225627 9:0.0668524 10:0 11:0 12:0.0473538 13:0 14:0.00557103 15:0.0835655 16:0 17:0.16156 18:0.0529248 19:0.192201 20:0 21:0 22:0.401114 23:0 24:0.0194986 25:0.158774 26:0 27:0.325905 28:0.0167131 29:0.13649 30:0 31:0 32:0.376045 33:0.0167131 34:0.0668524 35:0.281337 36:0.00278552 37:0.231198 38:0.097493 39:0.206128 40:0.0111421 41:0.311978 42:0.114206 43:0.00835655 44:0.169916 45:0.309192 46:0.0445682 47:0.122563 48:0.133705 49:0.100279 50:0.197772 51:0.554318 52:0.0139276 53:0.0194986 54:0.32312 55:0.103064 56:0.0696379 57:0.119777 58:0.32312 59:0.0891365 60:0.245125 61:0.133705 62:0.00835655 63:0.0250696 64:0.169916 65:0 66:0.231198 67:0.00557103 68:0.100279 69:0.0724234 70:0.0947075 71:0 72:0 73:0.197772 74:0.0807799 75:0 76:0.220056 77:0.00835655 78:0.0306407 79:0.0640668 80:0.0891365 81:0 82:0 83:0.412256 84:0.0584958 85:0 86:0.220056 87:0 88:0.0167131 89:0.0501393 90:0.142061 91:0 92:0 93:0.220056 94:0.091922 95:0 96:0.203343 97:0 98:0.00278552 99:0.0222841 100:0.139276 101:0 102:0 103:0.100279 104:0.0139276 105:0 106:0.00835655 107:0 108:0 109:0 110:0.0807799 
-1 -1 -1 1 1 1:0 2:0 3:0 4:0 5:0 6:0 7:0 8:0.589744 9:0 10:0 11:0 12:0.208791 13:0 14:0 15:0.0586081 16:0 17:0.018315 18:0.3663 19:0 20:0 21:0 22:0.692308 23:0 24:0 25:0.875458 26:0 27:0.428571 28:0.043956 29:0.395604 30:0 31:0 32:0.0989011 33:0 34:0 35:0.0659341 36:0 37:0.347985 38:0 39:0.307692 40:0 41:0.025641 42:0 43:0 44:0 45:0 46:0 47:0.205128 48:0 49:0.285714 50:0 51:0.831502 52:0 53:0.10989 54:0.0879121 55:0 56:0 57:0 58:0 59:0.010989 60:0 61:0.142857 62:0 63:0.153846 64:0.241758 65:0 66:0.0512821 67:0 68:0 69:0 70:0.029304 71:0 72:0 73:0.527473 74:0.380952 75:0 76:0.249084 77:0 78:0 79:0 80:0.472527 81:0 82:0 83:0.208791 84:0.267399 85:0 86:0.67033 87:0 88:0 89:0 90:0.498168 91:0 92:0 93:0 94:0.021978 95:0 96:0.029304 97:0 98:0 99:0 100:0 101:0 102:0 103:0 104:0 105:0 106:0 107:0 108:0 109:0 110:0 
-1 -1 -1 1 1 1:0 2:0 3:0 4:0 5:0 6:0 7:0.117438 8:0.0569395 9:0.0960854 10:0 11:0 12:0.0391459 13:0.160142 14:0.0462633 15:0.0925267 16:0 17:0.348754 18:0.245552 19:0.398576 20:0 21:0 22:0.658363 23:0.220641 24:0 25:0.697509 26:0 27:0.153025 28:0.398576 29:0.256228 30:0 31:0.565836 32:0.27758 33:0.0711744 34:0.0498221 35:0.199288 36:0 37:0.0747331 38:0.256228 39:0.213523 40:0 41:0.434164 42:0.024911 43:0.170819 44:0.487544 45:0.0106762 46:0 47:0.0711744 48:0.0142349 49:0.024911 50:0 51:0 52:0 53:0.174377 54:0.199288 55:0 56:0 57:0.103203 58:0.0284698 59:0.0106762 60:0 61:0 62:0 63:0.0569395 64:0.0925267 65:0 66:0.238434 67:0.0604982 68:0 69:0 70:0.0106762 71:0 72:0 73:0.120996 74:0.0996441 75:0 76:0.0747331 77:0.0711744 78:0 79:0 80:0.117438 81:0 82:0 83:0.0177936 84:0.024911 85:0 86:0.373665 87:0 88:0 89:0 90:0.405694 91:0 92:0 93:0.00711744 94:0 95:0 96:0.27758 97:0 98:0 99:0 100:0.44484 101:0 102:0 103:0 104:0 105:0 106:0.0355872 107:0 108:0 109:0 110:0.0213523 
-1 -1 -1 1 1 1:0 2:0 3:0 4:0 5:0.0258621 6:0.0215517 7:0 8:0.362069 9:0 10:0 11:0 12:0.125 13:0 14:0 15:0.142241 16:0.306034 17:0 18:0.616379 19:0.0344828 20:0.0215517 21:0 22:0.306034 23:0 24:0 25:0.318966 26:0.241379 27:0.146552 28:0.0215517 29:0.116379 30:0.349138 31:0 32:0.37069 33:0 34:0 35:0.275862 36:0.12931 37:0.0215517 38:0 39:0.0387931 40:0.00862069 41:0.0258621 42:0.146552 43:0 44:0 45:0.176724 46:0.0258621 47:0.00862069 48:0 49:0.0948276 50:0.0646552 51:0.206897 52:0.0517241 53:0 54:0 55:0.0603448 56:0.0646552 57:0.0431034 58:0 59:0.189655 60:0.24569 61:0.732759 62:0 63:0.0517241 64:0.112069 65:0 66:0.0387931 67:0.0775862 68:0 69:0.12931 70:0.125 71:0.0344828 72:0 73:0.50431 74:0.280172 75:0 76:0.00862069 77:0.0603448 78:0 79:0.0215517 80:0.0344828 81:0 82:0 83:0.439655 84:0.568965 85:0 86:0.163793 87:0.336207 88:0 89:0.275862 90:0.150862 91:0 92:0 93:0.00431034 94:0.0387931 95:0 96:0 97:0.262931 98:0 99:0.0818966 100:0 101:0 102:0 103:0 104:0 105:0 106:0 107:0.0431034 108:0 109:0.0172414 110:0 
-1 -1 -1 1 1 1:0 2:0.0151515 3:0.00378788 4:0.32197 5:0 6:0 7:0 8:0.121212 9:0 10:0 11:0 12:0.189394 13:0.310606 14:0.424242 15:0.0871212 16:0 17:0.0113636 18:0.125 19:0.0265152 20:0.0416667 21:0 22:0.484848 23:0.367424 24:0.128788 25:0.367424 26:0.208333 27:0.0227273 28:0.170455 29:0.147727 30:0.162879 31:0.00378788 32:0.242424 33:0.094697 34:0.0871212 35:0.390152 36:0.272727 37:0.0378788 38:0.208333 39:0.185606 40:0.231061 41:0.469697 42:0.0530303 43:0.0151515 44:0.0340909 45:0.136364 46:0.25 47:0.0113636 48:0.265152 49:0.162879 50:0.181818 51:0.30303 52:0.0151515 53:0.159091 54:0.00378788 55:0.0189394 56:0.170455 57:0.0681818 58:0.0757576 59:0.227273 60:0.284091 61:0.223485 62:0 63:0.0492424 64:0 65:0 66:0.0265152 67:0.242424 68:0.0340909 69:0.0984849 70:0.0795455 71:0 72:0 73:0 74:0 75:0 76:0.0227273 77:0.208333 78:0 79:0.0757576 80:0.0189394 81:0 82:0 83:0 84:0 85:0 86:0.0454545 87:0.253788 88:0 89:0.0568182 90:0 91:0 92:0 93:0 94:0 95:0 96:0.00378788 97:0.125 98:0 99:0.0189394 100:0 101:0 102:0 103:0 104:0 105:0 106:0 107:0.0189394 108:0 109:0 110:0 
-1 -1 -1 1 1 1:0 2:0.0865385 3:0 4:0 5:0.246795 6:0.0160256 7:0 8:0.362179 9:0.00961538 10:0 11:0 12:0.371795 13:0 14:0 15:0.208333 16:0.00641026 17:0.0128205 18:0.50641 19:0.0769231 20:0 21:0.00961538 22:0.410256 23:0 24:0 25:0.378205 26:0.00961538 27:0.233974 28:0.13141 29:0.278846 30:0.00961538 31:0.0416667 32:0.13141 33:0 34:0 35:0.13141 36:0.0320513 37:0.346154 38:0 39:0.230769 40:0.0833333 41:0.221154 42:0 43:0.0480769 44:0.00961538 45:0.025641 46:0.0544872 47:0.233974 48:0 49:0.195513 50:0.105769 51:0.362179 52:0 53:0.0160256 54:0.0897436 55:0.00961538 56:0.0480769 57:0.0576923 58:0 59:0.0897436 60:0.0512821 61:0.141026 62:0 63:0.0320513 64:0.0897436 65:0 66:0.13141 67:0.0673077 68:0 69:0.073718 70:0.173077 71:0.224359 72:0 73:0.160256 74:0.141026 75:0 76:0.403846 77:0.00641026 78:0 79:0.0448718 80:0.282051 81:0 82:0 83:0.560897 84:0.567308 85:0 86:0.291667 87:0.0224359 88:0 89:0 90:0.246795 91:0 92:0 93:0.179487 94:0.102564 95:0 96:0.00641026 97:0.0128205 98:0 99:0 100:0.0480769 101:0 102:0 103:0.00320513 104:0 105:0 106:0 107:0.00641026 108:0 109:0 110:0 
-1 -1 -1 1 1 1:0 2:0.0314685 3:0 4:0 5:0 6:0 7:0.111888 8:0.164336 9:0.020979 10:0 11:0 12:0.300699 13:0 14:0.013986 15:0.0734266 16:0 17:0.283217 18:0.423077 19:0.164336 20:0 21:0 22:0.517483 23:0 24:0.223776 25:0.496504 26:0 27:0.265734 28:0.307692 29:0.265734 30:0 31:0 32:0.118881 33:0.0174825 34:0.104895 35:0.339161 36:0 37:0.22028 38:0.0874126 39:0.244755 40:0 41:0.195804 42:0.020979 43:0.0804196 44:0.0909091 45:0.0874126 46:0 47:0.0979021 48:0.0174825 49:0.160839 50:0 51:0.608392 52:0.00699301 53:0.0314685 54:0.192308 55:0.0034965 56:0.020979 57:0.020979 58:0 59:0.115385 60:0 61:0.195804 62:0.0034965 63:0.0034965 64:0.227273 65:0 66:0.0384615 67:0 68:0 69:0.027972 70:0.041958 71:0 72:0 73:0.475524 74:0.108392 75:0 76:0.185315 77:0 78:0 79:0 80:0.171329 81:0 82:0 83:0.332168 84:0.020979 85:0 86:0.395105 87:0 88:0 89:0 90:0.342657 91:0 92:0 93:0.048951 94:0.0174825 95:0 96:0.300699 97:0 98:0 99:0 100:0.409091 101:0 102:0 103:0.0104895 104:0 105:0 106:0.0594406 107:0 108:0 109:0 110:0.034965 
-1 -1 -1 1 1 1:0.008 2:0.184 3:0 4:0 5:0.056 6:0.024 7:0 8:0.384 9:0.064 10:0 11:0.008 12:0.36 13:0 14:0 15:0.104 16:0 17:0.064 18:0.536 19:0.048 20:0.024 21:0.024 22:0.336 23:0 24:0 25:0.432 26:0.016 27:0.488 28:0.08 29:0.272 30:0 31:0.016 32:0.096 33:0 34:0 35:0.264 36:0.016 37:0.232 38:0 39:0.272 40:0 41:0.032 42:0 43:0 44:0 45:0.104 46:0.016 47:0.112 48:0 49:0.288 50:0.008 51:0.192 52:0 53:0 54:0.024 55:0.008 56:0.04 57:0.056 58:0 59:0.048 60:0.016 61:0.56 62:0 63:0.048 64:0.12 65:0.008 66:0.04 67:0.008 68:0 69:0 70:0.152 71:0.136 72:0 73:0.496 74:0.368 75:0 76:0.232 77:0.024 78:0 79:0.008 80:0.32 81:0 82:0 83:0.448 84:0.392 85:0 86:0.464 87:0.016 88:0 89:0 90:0.264 91:0 92:0 93:0.008 94:0.096 95:0 96:0.136 97:0 98:0 99:0 100:0.152 101:0.024 102:0.024 103:0 104:0 105:0.024 106:0.016 107:0 108:0 109:0 110:0.064 
-1 -1 -1 1 1 1:0 2:0.295082 3:0 4:0 5:0.163934 6:0 7:0 8:0.622951 9:0.0491803 10:0 11:0 12:0.163934 13:0 14:0.0327869 15:0.836066 16:0 17:0.0327869 18:0.311475 19:0.606557 20:0 21:0 22:0.459016 23:0 24:0.0819672 25:0 26:0 27:0.0327869 28:0.0327869 29:0.147541 30:0 31:0 32:0.0819672 33:0 34:0.0983607 35:0 36:0 37:0.147541 38:0.0327869 39:0.163934 40:0 41:0 42:0 43:0.0327869 44:0.0819672 45:0 46:0 47:0.672131 48:0 49:0.0327869 50:0 51:0.721311 52:0 53:0.0655738 54:0.639344 55:0 56:0 57:0.114754 58:0 59:0 60:0 61:0.278689 62:0 63:0.0163934 64:0.0655738 65:0 66:0.0327869 67:0 68:0 69:0 70:0 71:0 72:0 73:0.639344 74:0 75:0 76:0.786885 77:0 78:0 79:0 80:0 81:0 82:0 83:0.245902 84:0 85:0 86:0.0819672 87:0 88:0 89:0 90:0.377049 91:0 92:0 93:0 94:0 95:0 96:0.0983607 97:0 98:0 99:0 100:0.508197 101:0 102:0 103:0 104:0 105:0 106:0 107:0 108:0 109:0 110:0.114754 
-1 -1 -1 -1 1 1:0 2:0 3:0 4:0 5:0 6:0 7:0 8:0 9:0 10:0 11:0 12:0.0204082 13:0 14:0 15:0.255102 16:0 17:0.285714 18:1 19:0.479592 20:0 21:0 22:0.326531 23:0 24:0 25:0.173469 26:0 27:0.663265 28:0 29:0.520408 30:0 31:0 32:0.653061 33:0 34:0 35:0.571429 36:0 37:0.0510204 38:0 39:0 40:0 41:0 42:0 43:0 44:0 45:0 46:0 47:0 48:0 49:0 50:0 51:0.571429 52:0 53:0.0612245 54:0.0510204 55:0 56:0 57:0 58:0 59:0 60:0 61:0.428571 62:0 63:0.0714286 64:0.0918367 65:0 66:0.0306122 67:0 68:0 69:0 70:0.0714286 71:0 72:0 73:0.387755 74:0.346939 75:0 76:0.418367 77:0 78:0 79:0 80:0.153061 81:0 82:0 83:0.0612245 84:0.0816327 85:0 86:0.397959 87:0 88:0 89:0 90:0.479592 91:0 92:0 93:0.418367 94:0.428571 95:0 96:0.153061 97:0 98:0 99:0 100:0.0408163 101:0 102:0 103:0 104:0 105:0 106:0 107:0 108:0 109:0 110:0.255102 
-1 -1 -1 -1 1 1:0 2:0.0363636 3:0 4:0 5:0 6:0 7:0.245455 8:0.245455 9:0.0181818 10:0 11:0 12:0.290909 13:0 14:0 15:0 16:0 17:0.136364 18:0.481818 19:0.518182 20:0 21:0 22:0.427273 23:0 24:0 25:0.236364 26:0 27:0.563636 28:0.272727 29:0.427273 30:0 31:0 32:0.245455 33:0 34:0 35:0.236364 36:0 37:0.0454545 38:0 39:0.0363636 40:0 41:0.0636364 42:0 43:0 44:0.0181818 45:0.490909 46:0.0636364 47:0.00909091 48:0 49:0 50:0.0818182 51:0.854545 52:0 53:0.0727273 54:0.0363636 55:0.0363636 56:0.0454545 57:0 58:0 59:0 60:0.218182 61:0.0818182 62:0 63:0.363636 64:0.390909 65:0 66:0.0818182 67:0 68:0 69:0 70:0.2 71:0 72:0 73:0.0636364 74:0.1 75:0 76:0.290909 77:0 78:0 79:0 80:0.0727273 81:0 82:0 83:0.0909091 84:0.0545455 85:0 86:0.318182 87:0 88:0 89:0 90:0.1 91:0 92:0 93:0.390909 94:0.4 95:0 96:0.181818 97:0 98:0 99:0 100:0.327273 101:0 102:0 103:0.0181818 104:0 105:0 106:0.0181818 107:0 108:0 109:0 110:0 
-1 -1 -1 -1 1 1:0 2:0 3:0 4:0 5:0 6:0 7:0 8:0.351351 9:0 10:0 11:0 12:0.0202703 13:0 14:0 15:0 16:0 17:0.195946 18:0.351351 19:0.290541 20:0 21:0 22:0.587838 23:0 24:0 25:0.486486 26:0 27:0.763514 28:0.297297 29:0.689189 30:0 31:0 32:0.391892 33:0 34:0 35:0.513514 36:0 37:0.0405405 38:0 39:0.0202703 40:0 41:0.466216 42:0 43:0.027027 44:0.027027 45:0 46:0 47:0 48:0 49:0 50:0 51:0.533784 52:0 53:0.243243 54:0.0135135 55:0 56:0 57:0 58:0 59:0 60:0 61:0 62:0 63:0.0135135 64:0.25 65:0 66:0.22973 67:0 68:0 69:0 70:0.209459 71:0 72:0 73:0.0540541 74:0.0743243 75:0 76:0.216216 77:0 78:0 79:0 80:0.202703 81:0 82:0 83:0.641892 84:0.635135 85:0 86:0.513514 87:0 88:0 89:0 90:0.155405 91:0 92:0 93:0.0202703 94:0 95:0 96:0.0405405 97:0 98:0 99:0 100:0.432432 101:0 102:0 103:0 104:0 105:0 106:0 107:0 108:0 109:0 110:0 
-1 -1 -1 -1 1 1:0 2:0.0413793 3:0 4:0 5:0 6:0 7:0.0551724 8:0.2 9:0 10:0 11:0 12:0.0344828 13:0 14:0 15:0.0413793 16:0 17:0.137931 18:0.786207 19:0.0758621 20:0 21:0 22:0.551724 23:0.0413793 24:0 25:0.827586 26:0 27:0.593103 28:0.0137931 29:0.855172 30:0 31:0 32:0.296552 33:0.0206897 34:0 35:0.131034 36:0 37:0.144828 38:0 39:0.0689655 40:0 41:0.0551724 42:0.0758621 43:0.0206897 44:0.0344828 45:0 46:0.0827586 47:0.0482759 48:0 49:0 50:0 51:0.944828 52:0 53:0.0206897 54:0.0413793 55:0 56:0.0413793 57:0.0206897 58:0 59:0 60:0.0413793 61:0 62:0 63:0.0275862 64:0.0758621 65:0 66:0.0344828 67:0 68:0 69:0 70:0.062069 71:0 72:0 73:0.482759 74:0.737931 75:0 76:0.296552 77:0 78:0 79:0 80:0.2 81:0 82:0 83:0.386207 84:0.110345 85:0 86:0.544828 87:0 88:0 89:0 90:0.696552 91:0 92:0 93:0 94:0 95:0 96:0 97:0 98:0 99:0 100:0 101:0 102:0 103:0 104:0 105:0 106:0 107:0 108:0 109:0 110:0 
-1 -1 -1 -1 1 1:0 2:0.0267857 3:0 4:0 5:0 6:0 7:0.0446429 8:0.6875 9:0 10:0 11:0 12:0.0625 13:0 14:0 15:0.0267857 16:0 17:0.0267857 18:0.3125 19:0.0714286 20:0 21:0 22:0.910714 23:0 24:0 25:0.973214 26:0 27:0.776786 28:0 29:0.580357 30:0 31:0 32:0 33:0 34:0 35:0 36:0 37:0.151786 38:0 39:0.294643 40:0 41:0.205357 42:0 43:0.0892857 44:0.0892857 45:0 46:0 47:0 48:0 49:0.0535714 50:0 51:0.794643 52:0 53:0.0178571 54:0.0625 55:0 56:0 57:0 58:0 59:0 60:0 61:0 62:0 63:0.0535714 64:0.375 65:0 66:0 67:0 68:0 69:0 70:0 71:0 72:0 73:0.803571 74:0.294643 75:0 76:0.633929 77:0 78:0 79:0 80:0.223214 81:0 82:0 83:0.0357143 84:0.178571 85:0 86:0.366071 87:0 88:0 89:0 90:0.776786 91:0 92:0 93:0 94:0 95:0 96:0 97:0 98:0 99:0 100:0 101:0 102:0 103:0 104:0 105:0 106:0 107:0 108:0 109:0 110:0 
-1 -1 -1 -1 1 1:0 2:0 3:0 4:0 5:0 6:0 7:0.0275862 8:0.503448 9:0 10:0 11:0 12:0 13:0 14:0 15:0 16:0 17:0.275862 18:0.482759 19:0 20:0 21:0 22:0.993103 23:0 24:0 25:0.82069 26:0 27:0.503448 28:0.0137931 29:0.324138 30:0 31:0 32:0.00689655 33:0 34:0 35:0.17931 36:0 37:0.193103 38:0 39:0.641379 40:0 41:0.924138 42:0 43:0.0137931 44:0.062069 45:0 46:0 47:0 48:0 49:0.0275862 50:0 51:0.0758621 52:0 53:0.0137931 54:0.0344828 55:0 56:0 57:0 58:0 59:0.00689655 60:0 61:0 62:0 63:0.117241 64:0.0482759 65:0 66:0.0551724 67:0 68:0 69:0 70:0.124138 71:0 72:0 73:0.455172 74:0.751724 75:0 76:0.255172 77:0 78:0 79:0 80:0.37931 81:0 82:0 83:0.4 84:0.103448 85:0 86:0.689655 87:0 88:0 89:0 90:0.496552 91:0 92:0 93:0 94:0 95:0 96:0 97:0 98:0 99:0 100:0 101:0 102:0 103:0 104:0 105:0 106:0 107:0 108:0 109:0 110:0 
-1 -1 -1 -1 1 1:0 2:0 3:0 4:0 5:0 6:0 7:0 8:0.2 9:0 10:0 11:0 12:0 13:0 14:0 15:0 16:0 17:0.380952 18:0.790476 19:0.0380952 20:0 21:0 22:0.314286 23:0 24:0 25:0.190476 26:0 27:0.380952 28:0.00952381 29:0.961905 30:0 31:0 32:0.685714 33:0 34:0 35:0.685714 36:0 37:0.152381 38:0 39:0 40:0 41:0.314286 42:0 43:0 44:0 45:0.12381 46:0.0190476 47:0.0857143 48:0 49:0 50:0 51:0.685714 52:0 53:0.0666667 54:0.0761905 55:0 56:0.0857143 57:0 58:0 59:0 60:0.114286 61:0 62:0 63:0.371429 64:0.0666667 65:0 66:0.0761905 67:0 68:0 69:0 70:0.104762 71:0 72:0 73:0.180952 74:0.314286 75:0 76:0.485714 77:0 78:0 79:0 80:0.238095 81:0 82:0 83:0.219048 84:0.32381 85:0 86:0.314286 87:0 88:0 89:0 90:0.409524 91:0 92:0 93:0.161905 94:0.219048 95:0 96:0.0190476 97:0 98:0 99:0 100:0.133333 101:0 102:0 103:0 104:0 105:0 106:0 107:0 108:0 109:0 110:0 
-1 -1 -1 -1 1 1:0 2:0 3:0 4:0 5:0 6:0 7:0.021978 8:0.137363 9:0 10:0 11:0 12:0.043956 13:0 14:0 15:0.0769231 16:0 17:0.241758 18:0.78022 19:0.043956 20:0 21:0 22:0.203297 23:0 24:0 25:0.208791 26:0 27:0.192308 28:0.0824176 29:0.395604 30:0 31:0 32:0.324176 33:0 34:0 35:0.43956 36:0 37:0.208791 38:0 39:0.21978 40:0 41:0.384615 42:0.159341 43:0 44:0 45:0.0989011 46:0.236264 47:0.0604396 48:0 49:0.32967 50:0.0494506 51:0.340659 52:0.0989011 53:0.0769231 54:0.032967 55:0.131868 56:0.0989011 57:0.0604396 58:0 59:0.010989 60:0.225275 61:0.274725 62:0.153846 63:0.0384615 64:0.115385 65:0.043956 66:0.32967 67:0.148352 68:0 69:0 70:0.153846 71:0 72:0.0164835 73:0.263736 74:0.307692 75:0 76:0.0714286 77:0.0659341 78:0 79:0 80:0.274725 81:0 82:0 83:0.620879 84:0.543956 85:0 86:0.104396 87:0 88:0 89:0 90:0.258242 91:0 92:0 93:0 94:0 95:0 96:0.126374 97:0 98:0 99:0 100:0.0384615 101:0 102:0 103:0 104:0 105:0 106:0.032967 107:0 108:0 109:0 110:0 
-1 -1 -1 -1 1 1:0 2:0 3:0 4:0 5:0 6:0 7:0 8:0.111111 9:0 10:0 11:0 12:0 13:0 14:0 15:0 16:0 17:0.222222 18:0.462963 19:0 20:0 21:0 22:0.814815 23:0 24:0 25:0.509259 26:0 27:0.759259 28:0.425926 29:0.925926 30:0 31:0 32:0.185185 33:0 34:0 35:0.490741 36:0 37:0.0185185 38:0 39:0.0740741 40:0 41:0.537037 42:0 43:0 44:0 45:0 46:0 47:0 48:0 49:0 50:0 51:0.462963 52:0 53:0.0185185 54:0.0648148 55:0 56:0.0740741 57:0 58:0 59:0 60:0.0833333 61:0 62:0 63:0.398148 64:0.472222 65:0 66:0.268519 67:0 68:0 69:0 70:0.37037 71:0 72:0 73:0.416667 74:0.277778 75:0 76:0.138889 77:0 78:0 79:0 80:0.111111 81:0 82:0 83:0.0740741 84:0.12037 85:0 86:0.462963 87:0 88:0 89:0 90:0.435185 91:0 92:0 93:0.0925926 94:0.0648148 95:0 96:0.0555556 97:0 98:0 99:0 100:0 101:0 102:0 103:0 104:0 105:0 106:0 107:0 108:0 109:0 110:0 
-1 -1 -1 -1 1 1:0 2:0 3:0 4:0 5:0 6:0 7:0 8:0.04 9:0.208 10:0 11:0 12:0.032 13:0 14:0 15:0.104 16:0 17:0.176 18:0.6 19:0.2 20:0 21:0 22:0.536 23:0 24:0 25:0.656 26:0 27:0.744 28:0.36 29:0.504 30:0 31:0 32:0.432 33:0 34:0 35:0.24 36:0 37:0.08 38:0 39:0.088 40:0 41:0.456 42:0 43:0 44:0.016 45:0 46:0 47:0 48:0 49:0 50:0 51:0.544 52:0 53:0.064 54:0.008 55:0 56:0.008 57:0 58:0 59:0 60:0.072 61:0 62:0 63:0.056 64:0.08 65:0 66:0.208 67:0 68:0 69:0 70:0.192 71:0 72:0 73:0.424 74:0.384 75:0 76:0.304 77:0 78:0 79:0 80:0.208 81:0 82:0 83:0.32 84:0.376 85:0 86:0.432 87:0 88:0 89:0 90:0.52 91:0 92:0 93:0.136 94:0.136 95:0 96:0.048 97:0 98:0 99:0 100:0.008 101:0 102:0 103:0 104:0 105:0 106:0 107:0 108:0 109:0 110:0 
-1 -1 -1 -1 1 1:0 2:0 3:0 4:0 5:0 6:0 7:0.0642202 8:0.220183 9:0.00917431 10:0 11:0 12:0.0642202 13:0 14:0 15:0.0917431 16:0 17:0.146789 18:0.348624 19:0.137615 20:0 21:0 22:0.440367 23:0 24:0 25:0.504587 26:0 27:0.669725 28:0.385321 29:0.706422 30:0 31:0 32:0.183486 33:0.00917431 34:0.0183486 35:0.174312 36:0 37:0.119266 38:0.0458716 39:0.0733945 40:0 41:0.119266 42:0.311927 43:0.0458716 44:0.119266 45:0.229358 46:0 47:0 48:0 49:0.0733945 50:0.0550459 51:0.880734 52:0 53:0.348624 54:0.311927 55:0 56:0.385321 57:0 58:0 59:0 60:0.40367 61:0 62:0 63:0.0825688 64:0.00917431 65:0 66:0.0642202 67:0 68:0 69:0 70:0.0275229 71:0 72:0 73:0.0825688 74:0.0917431 75:0 76:0.192661 77:0 78:0 79:0 80:0.0366972 81:0 82:0 83:0.275229 84:0.366972 85:0 86:0.357798 87:0 88:0 89:0 90:0.477064 91:0 92:0 93:0.155963 94:0.0825688 95:0 96:0 97:0 98:0 99:0 100:0 101:0 102:0 103:0 104:0 105:0 106:0 107:0 108:0 109:0 110:0 
-1 -1 -1 -1 1 1:0 2:0 3:0 4:0 5:0 6:0 7:0 8:0.223776 9:0.041958 10:0 11:0 12:0.0909091 13:0 14:0 15:0.104895 16:0 17:0.496504 18:0.776224 19:0.188811 20:0 21:0 22:0.286713 23:0 24:0 25:0.482517 26:0 27:0.496504 28:0 29:0.608392 30:0 31:0 32:0.230769 33:0.048951 34:0 35:0.356643 36:0 37:0.00699301 38:0 39:0.0979021 40:0 41:0.517483 42:0.027972 43:0.0559441 44:0.041958 45:0.041958 46:0 47:0 48:0 49:0.020979 50:0 51:0.482517 52:0.363636 53:0.167832 54:0.0699301 55:0.013986 56:0.111888 57:0 58:0 59:0.041958 60:0.104895 61:0 62:0 63:0.342657 64:0.20979 65:0 66:0.244755 67:0 68:0 69:0 70:0.384615 71:0 72:0 73:0.111888 74:0.398601 75:0 76:0.237762 77:0 78:0 79:0 80:0.258741 81:0 82:0 83:0.0559441 84:0.111888 85:0 86:0.335664 87:0 88:0 89:0 90:0.20979 91:0 92:0 93:0.216783 94:0.167832 95:0 96:0.0699301 97:0 98:0 99:0 100:0.041958 101:0 102:0 103:0 104:0 105:0 106:0 107:0 108:0 109:0 110:0 
-1 -1 -1 -1 -1 1:0 2:0 3:0 4:0 5:0 6:0 7:0 8:0.0512821 9:0 10:0 11:0 12:0 13:0 14:0 15:0 16:0 17:0.0320513 18:0.948718 19:0.0512821 20:0 21:0 22:0.358974 23:0 24:0 25:0.307692 26:0 27:0.403846 28:0 29:0.371795 30:0 31:0 32:0.455128 33:0 34:0 35:0.294872 36:0 37:0.391026 38:0 39:0.0961538 40:0 41:0 42:0.0705128 43:0 44:0 45:0.211538 46:0.0320513 47:0.128205 48:0 49:0.237179 50:0.0641026 51:0.429487 52:0.0448718 53:0 54:0 55:0.0641026 56:0.0576923 57:0.0448718 58:0 59:0.24359 60:0.378205 61:0.570513 62:0.0384615 63:0.025641 64:0.00641026 65:0.0384615 66:0.0705128 67:0 68:0 69:0 70:0.173077 71:0 72:0.0320513 73:0.416667 74:0.301282 75:0.0833333 76:0.403846 77:0 78:0 79:0 80:0.0705128 81:0 82:0 83:0.224359 84:0.269231 85:0 86:0.423077 87:0 88:0 89:0 90:0.314103 91:0 92:0 93:0.326923 94:0.403846 95:0 96:0.0128205 97:0 98:0 99:0 100:0 101:0 102:0 103:0.00641026 104:0.0192308 105:0 106:0 107:0 108:0 109:0 110:0 
-1 -1 -1 -1 -1 1:0 2:0 3:0 4:0 5:0 6:0 7:0 8:0.393939 9:0 10:0 11:0 12:0.0808081 13:0 14:0 15:0 16:0 17:0.151515 18:0.606061 19:0.242424 20:0 21:0 22:0.444444 23:0 24:0 25:0.40404 26:0 27:0.79798 28:0 29:0.757576 30:0 31:0 32:0.313131 33:0 34:0 35:0.59596 36:0 37:0.010101 38:0 39:0 40:0 41:0 42:0.161616 43:0 44:0 45:0 46:0.030303 47:0.020202 48:0 49:0 50:0 51:0.616162 52:0 53:0 54:0 55:0 56:0.030303 57:0.020202 58:0 59:0 60:0.0606061 61:0.383838 62:0 63:0.10101 64:0.121212 65:0 66:0.343434 67:0 68:0 69:0 70:0.131313 71:0 72:0 73:0.252525 74:0.262626 75:0 76:0.212121 77:0 78:0 79:0 80:0.515152 81:0 82:0 83:0.232323 84:0.30303 85:0 86:0.383838 87:0 88:0 89:0 90:0.292929 91:0 92:0 93:0.222222 94:0.313131 95:0 96:0 97:0 98:0 99:0 100:0 101:0 102:0 103:0.191919 104:0 105:0 106:0 107:0 108:0 109:0 110:0 
-1 -1 -1 -1 -1 1:0 2:0 3:0 4:0 5:0 6:0 7:0 8:0 9:0 10:0 11:0 12:0 13:0 14:0 15:0 16:0 17:0.0648148 18:1 19:0.0555556 20:0 21:0 22:0.222222 23:0 24:0 25:0.398148 26:0 27:0.833333 28:0 29:0.888889 30:0 31:0 32:0.759259 33:0 34:0 35:0.601852 36:0 37:0.101852 38:0 39:0.0555556 40:0 41:0.0462963 42:0.0185185 43:0.0277778 44:0.00925926 45:0 46:0 47:0 48:0 49:0 50:0 51:0.611111 52:0 53:0.0185185 54:0.0833333 55:0 56:0.0555556 57:0 58:0 59:0 60:0 61:0.342593 62:0 63:0.527778 64:0.462963 65:0 66:0.564815 67:0 68:0 69:0 70:0.601852 71:0 72:0 73:0.037037 74:0.157407 75:0 76:0.138889 77:0 78:0 79:0 80:0.0648148 81:0 82:0 83:0.388889 84:0.287037 85:0 86:0.240741 87:0 88:0 89:0 90:0.333333 91:0 92:0 93:0 94:0 95:0 96:0 97:0 98:0 99:0 100:0 101:0 102:0 103:0 104:0 105:0 106:0 107:0 108:0 109:0 110:0 
-1 -1 -1 -1 -1 1:0 2:0 3:0 4:0 5:0 6:0 7:0 8:0.319588 9:0 10:0 11:0 12:0 13:0 14:0 15:0 16:0 17:0.0103093 18:0.680412 19:0.515464 20:0 21:0 22:0.835052 23:0 24:0 25:0.71134 26:0 27:0.958763 28:0 29:0.484536 30:0 31:0 32:0.164948 33:0 34:0 35:0.28866 36:0 37:0.0309278 38:0 39:0 40:0 41:0.164948 42:0 43:0.0309278 44:0.0103093 45:0 46:0 47:0 48:0 49:0 50:0 51:0.556701 52:0 53:0.0412371 54:0.0618557 55:0 56:0 57:0 58:0 59:0 60:0 61:0.278351 62:0 63:0.350515 64:0.123711 65:0 66:0.618557 67:0 68:0 69:0 70:0.103093 71:0 72:0 73:0.226804 74:0.505155 75:0 76:0.0721649 77:0 78:0 79:0 80:0.649485 81:0 82:0 83:0.350515 84:0.298969 85:0 86:0.309278 87:0 88:0 89:0 90:0.247423 91:0 92:0 93:0 94:0 95:0 96:0 97:0 98:0 99:0 100:0 101:0 102:0 103:0 104:0 105:0 106:0 107:0 108:0 109:0 110:0 
-1 -1 -1 -1 -1 1:0 2:0 3:0 4:0 5:0 6:0 7:0.0172414 8:0.905172 9:0.12069 10:0 11:0 12:0.0603448 13:0 14:0 15:0.181034 16:0 17:0.0344828 18:0.0948276 19:0.215517 20:0 21:0 22:0.939655 23:0 24:0 25:0.818965 26:0 27:0.560345 28:0 29:0.465517 30:0 31:0 32:0 33:0 34:0 35:0 36:0 37:0.362069 38:0 39:0.198276 40:0 41:0.439655 42:0 43:0 44:0 45:0 46:0 47:0.0258621 48:0 49:0 50:0 51:0.560345 52:0 53:0.0172414 54:0 55:0 56:0 57:0 58:0 59:0 60:0 61:0 62:0 63:0.198276 64:0.224138 65:0 66:0 67:0 68:0 69:0 70:0 71:0 72:0 73:0.75 74:0.508621 75:0 76:0.284483 77:0 78:0 79:0 80:0.224138 81:0 82:0 83:0.0344828 84:0.267241 85:0 86:0.715517 87:0 88:0 89:0 90:0.775862 91:0 92:0 93:0 94:0 95:0 96:0 97:0 98:0 99:0 100:0 101:0 102:0 103:0 104:0 105:0 106:0 107:0 108:0 109:0 110:0 
-1 -1 -1 -1 -1 1:0 2:0 3:0 4:0 5:0 6:0 7:0.0333333 8:0.872222 9:0.0444444 10:0 11:0 12:0.0888889 13:0 14:0 15:0.111111 16:0 17:0.0333333 18:0.127778 19:0.1 20:0 21:0 22:0.844444 23:0 24:0 25:0.794444 26:0 27:0.366667 28:0 29:0.255556 30:0 31:0 32:0.0666667 33:0 34:0 35:0.0277778 36:0 37:0.522222 38:0 39:0.522222 40:0 41:0.35 42:0 43:0 44:0 45:0.0666667 46:0 47:0.0444444 48:0 49:0 50:0 51:0.372222 52:0 53:0 54:0 55:0 56:0 57:0 58:0 59:0.00555556 60:0.0333333 61:0.277778 62:0 63:0.0777778 64:0.0888889 65:0 66:0.0277778 67:0 68:0 69:0.05 70:0.0388889 71:0 72:0 73:0.65 74:0.605556 75:0 76:0.122222 77:0 78:0 79:0.0222222 80:0.15 81:0 82:0 83:0.272222 84:0.305556 85:0 86:0.85 87:0 88:0 89:0 90:0.677778 91:0 92:0 93:0 94:0 95:0 96:0 97:0 98:0 99:0 100:0.1 101:0 102:0 103:0 104:0 105:0 106:0 107:0 108:0 109:0 110:0 
-1 -1 -1 -1 -1 1:0 2:0.151163 3:0 4:0 5:0.104651 6:0 7:0.180233 8:0.30814 9:0.0290698 10:0 11:0 12:0.436047 13:0 14:0 15:0.267442 16:0 17:0.273256 18:0.656977 19:0.401163 20:0 21:0.00581395 22:0.337209 23:0 24:0 25:0.232558 26:0 27:0.0697674 28:0.0348837 29:0.162791 30:0 31:0.0988372 32:0.0523256 33:0 34:0 35:0.174419 36:0 37:0.203488 38:0 39:0.215116 40:0 41:0.389535 42:0.0232558 43:0 44:0 45:0.0290698 46:0.00581395 47:0.127907 48:0 49:0.0755814 50:0.00581395 51:0.162791 52:0 53:0.0116279 54:0.00581395 55:0.19186 56:0.244186 57:0.110465 58:0 59:0.0813954 60:0.127907 61:0.343023 62:0 63:0.0639535 64:0.0988372 65:0 66:0.162791 67:0.0348837 68:0 69:0.0348837 70:0.255814 71:0 72:0 73:0.47093 74:0.389535 75:0 76:0.313953 77:0 78:0 79:0 80:0.325581 81:0 82:0 83:0.424419 84:0.47093 85:0 86:0.104651 87:0 88:0 89:0 90:0.273256 91:0 92:0 93:0.0290698 94:0.0348837 95:0 96:0.162791 97:0 98:0 99:0 100:0.0116279 101:0 102:0 103:0 104:0 105:0 106:0.00581395 107:0 108:0 109:0 110:0 
-1 -1 -1 -1 -1 1:0 2:0 3:0 4:0 5:0 6:0 7:0 8:0.210227 9:0 10:0.181818 11:0 12:0.153409 13:0 14:0 15:0.113636 16:0 17:0.159091 18:0.789773 19:0.0170455 20:0.0511364 21:0 22:0.5625 23:0 24:0 25:0.193182 26:0.113636 27:0.164773 28:0 29:0.227273 30:0.215909 31:0.0397727 32:0.284091 33:0 34:0 35:0.539773 36:0.346591 37:0.0909091 38:0 39:0.102273 40:0 41:0.369318 42:0 43:0.0113636 44:0.00568182 45:0.0909091 46:0 47:0.0681818 48:0 49:0.181818 50:0.0227273 51:0.0568182 52:0 53:0.0113636 54:0.00568182 55:0.0625 56:0.00568182 57:0.0511364 58:0 59:0.0170455 60:0.0227273 61:0.363636 62:0 63:0.0965909 64:0.0340909 65:0 66:0.0113636 67:0.00568182 68:0 69:0.00568182 70:0.142045 71:0.170455 72:0 73:0.460227 74:0.454545 75:0 76:0.1875 77:0.0340909 78:0 79:0.0227273 80:0.284091 81:0 82:0 83:0.363636 84:0.375 85:0 86:0.198864 87:0.284091 88:0 89:0.130682 90:0.0795455 91:0 92:0 93:0.0568182 94:0.0909091 95:0 96:0.136364 97:0.142045 98:0 99:0.113636 100:0 101:0 102:0 103:0 104:0.0340909 105:0 106:0 107:0 108:0 109:0.181818 110:0 
-1 -1 -1 -1 -1 1:0 2:0.0895522 3:0 4:0 5:0 6:0 7:0.0373134 8:0.343284 9:0 10:0 11:0 12:0.358209 13:0 14:0 15:0.574627 16:0 17:0.0970149 18:0.529851 19:0.0373134 20:0 21:0 22:0.425373 23:0 24:0 25:0.0746269 26:0.0447761 27:0.477612 28:0.126866 29:0.537313 30:0 31:0 32:0.0746269 33:0 34:0 35:0.328358 36:0.0746269 37:0.201493 38:0 39:0.268657 40:0 41:0.0223881 42:0.0522388 43:0 44:0 45:0.0223881 46:0.0447761 47:0.0970149 48:0 49:0.156716 50:0 51:0.835821 52:0 53:0 54:0 55:0 56:0.0820896 57:0.0895522 58:0 59:0 60:0.0597015 61:0.141791 62:0 63:0.0522388 64:0.0149254 65:0 66:0.0298507 67:0 68:0 69:0 70:0.141791 71:0 72:0 73:0.425373 74:0.149254 75:0 76:0.328358 77:0 78:0 79:0 80:0.395522 81:0 82:0 83:0.328358 84:0.589552 85:0 86:0.261194 87:0 88:0 89:0 90:0.402985 91:0 92:0 93:0.19403 94:0.246269 95:0 96:0.0820896 97:0 98:0 99:0 100:0 101:0 102:0 103:0 104:0 105:0 106:0.0522388 107:0 108:0 109:0 110:0 
-1 -1 -1 -1 -1 1:0 2:0 3:0 4:0 5:0 6:0 7:0.00714286 8:0.357143 9:0 10:0 11:0 12:0.257143 13:0 14:0 15:0.271429 16:0 17:0.2 18:0.642857 19:0.0571429 20:0 21:0 22:0.685714 23:0 24:0 25:0.692857 26:0 27:0.657143 28:0 29:0.664286 30:0 31:0 32:0.0571429 33:0 34:0 35:0.0357143 36:0 37:0.135714 38:0 39:0.278571 40:0 41:0.307143 42:0 43:0 44:0 45:0 46:0 47:0 48:0 49:0 50:0 51:0.342857 52:0 53:0 54:0 55:0 56:0.0142857 57:0 58:0 59:0 60:0.0142857 61:0.35 62:0 63:0 64:0.0642857 65:0 66:0.05 67:0 68:0 69:0 70:0.0714286 71:0 72:0 73:0.0928571 74:0.385714 75:0 76:0.257143 77:0 78:0 79:0 80:0.314286 81:0 82:0 83:0.778571 84:0.392857 85:0 86:0.664286 87:0 88:0 89:0 90:0.592857 91:0 92:0 93:0.128571 94:0.157143 95:0 96:0.0142857 97:0 98:0 99:0 100:0.00714286 101:0 102:0 103:0 104:0 105:0 106:0 107:0 108:0 109:0 110:0 
-1 -1 -1 -1 -1 1:0 2:0 3:0 4:0 5:0 6:0 7:0 8:0.492308 9:0 10:0 11:0 12:0.169231 13:0 14:0 15:0 16:0 17:0.169231 18:0.361538 19:0.207692 20:0 21:0 22:0.446154 23:0 24:0 25:0.7 26:0 27:0.830769 28:0.146154 29:0.669231 30:0 31:0 32:0.376923 33:0 34:0 35:0.253846 36:0 37:0 38:0 39:0.123077 40:0 41:0 42:0.00769231 43:0.0153846 44:0 45:0.0461538 46:0 47:0 48:0 49:0 50:0 51:1 52:0 53:0.292308 54:0.315385 55:0 56:0.153846 57:0 58:0 59:0 60:0.138462 61:0 62:0 63:0.0923077 64:0.0846154 65:0 66:0.269231 67:0 68:0 69:0 70:0.261538 71:0 72:0 73:0.230769 74:0.276923 75:0 76:0.0307692 77:0 78:0 79:0 80:0.107692 81:0 82:0 83:0.346154 84:0.323077 85:0 86:0.546154 87:0 88:0 89:0 90:0.430769 91:0 92:0 93:0.0230769 94:0 95:0 96:0 97:0 98:0 99:0 100:0.0615385 101:0 102:0 103:0 104:0 105:0 106:0 107:0 108:0 109:0 110:0 
-1 -1 -1 -1 -1 1:0 2:0 3:0 4:0 5:0 6:0 7:0 8:0.362416 9:0.033557 10:0 11:0 12:0.0872483 13:0 14:0 15:0.0805369 16:0 17:0.167785 18:0.503356 19:0.174497 20:0 21:0 22:0.33557 23:0 24:0 25:0.42953 26:0 27:0.651007 28:0.134228 29:0.597315 30:0 31:0 32:0.0268456 33:0 34:0 35:0.0268456 36:0 37:0.120805 38:0 39:0.181208 40:0 41:0.0201342 42:0.550336 43:0.0201342 44:0.0536913 45:0.442953 46:0.0402685 47:0.0604027 48:0 49:0.0134228 50:0.0939597 51:0.973154 52:0 53:0.302013 54:0.308725 55:0.0201342 56:0.422819 57:0 58:0 59:0 60:0.375839 61:0.00671141 62:0 63:0.114094 64:0.0469799 65:0 66:0.0536913 67:0 68:0 69:0 70:0.0201342 71:0 72:0 73:0.201342 74:0.241611 75:0 76:0.120805 77:0 78:0 79:0 80:0.0604027 81:0 82:0 83:0.362416 84:0.348993 85:0 86:0.255034 87:0 88:0 89:0 90:0.38255 91:0 92:0 93:0 94:0 95:0 96:0.107383 97:0 98:0 99:0 100:0.0604027 101:0 102:0 103:0 104:0 105:0 106:0 107:0 108:0 109:0 110:0.00671141 
