svm_type c_svc
kernel_type rbf
gamma 0.00555556
nr_class 6
total_sv 72
rho 0.382263 0.348089 0.131079 -0.0181969 0.0581352 -0.0883966 -0.134676 -0.323994 -0.155117 0.073744 -0.278272 -0.116925 -0.354611 -0.150627 0.099803
label 8 10 12 13 15 16
nr_sv 12 12 12 12 12 12
SV
1 1 1 1 1 1:-1 2:-1 3:-1 4:-1 5:-1 6:-1 7:-1 8:-1 9:-1 10:-0.955056 11:-1 12:-1 13:-1 14:-1 15:-1 16:-0.685394 17:-1 18:-1 19:-0.977528 20:-0.0112355 21:-1 22:-1 23:-1 24:-1 25:-1 26:0.0112356 27:-0.932584 28:1 29:-0.88764 30:-0.595505 31:-1 32:-1 33:-1 34:-1 35:-1 36:-0.730337 37:-0.505618 38:-0.550563 39:-0.955056 40:-0.865169 41:-1 42:-0.865169 43:-1 44:-1 45:-0.505618 46:-0.955056 47:-0.88764 48:-1 49:-0.505618 50:-0.955056 51:-1 52:-0.505618 53:-1 54:-1 55:-0.955056 56:-0.977528 57:-0.955056 58:-1 59:-0.955056 60:-0.932584 61:-1 62:-0.910113 63:-1 64:-1 65:-0.932584 66:-0.955056 67:-0.977528 68:-1 69:-0.977528 70:-0.977528 71:-1 72:-0.955056 73:-1 74:-1 75:-0.977528 76:-0.977528 77:-0.955056 78:-1 79:-0.977528 80:-0.977528 81:0.370786 82:-0.955056 83:-1 84:-1 85:-0.820225 86:-0.955056 87:-1 88:-1 89:-0.977528 90:-0.955056 91:-0.730337 92:-1 93:-1 94:-1 95:-1 96:-0.977528 97:-0.955056 98:-1 99:-0.932584 100:-0.977528 101:-0.415731 102:-0.977528 103:-0.550563 104:-0.550563 105:-0.977528 106:-0.483147 107:-0.955056 108:-1 109:-0.88764 110:-0.39326 111:-0.775281 112:-0.775281 113:-0.955056 114:-0.977528 115:-0.730337 116:-0.955056 117:-0.842697 118:-1 119:-0.932584 120:-0.977528 121:-1 122:-0.730337 123:-0.797753 124:-0.797753 125:-0.730337 126:-0.910113 127:-0.370786 128:-1 129:-0.662921 130:-0.977528 131:-1 132:-0.797753 133:-0.775281 134:-0.865169 135:-0.797753 136:-1 137:-0.280899 138:-1 139:-0.123596 140:-1 141:-1 142:-0.730337 143:-0.30337 144:-0.191012 145:-0.685394 146:-1 147:-0.932584 148:-1 149:-0.797753 150:-1 151:-1 152:-0.64045 153:-0.168538 154:-0.168538 155:-0.707865 156:-1 157:-1 158:-1 159:-1 160:-1 161:-1 162:-0.842697 163:-1 164:-1 165:-0.75281 166:-1 167:-1 168:-1 169:-1 170:-1 171:-1 172:-0.865169 173:-1 174:-1 175:-0.977528 176:-1 177:-1 178:-1 179:-1 180:-1 
1 1 1 1 1 1:-1 2:-1 3:-1 4:-1 5:-1 6:-0.983471 7:-1 8:-1 9:-1 10:-0.983471 11:-1 12:-1 13:-1 14:-1 15:-1 16:-0.719009 17:-1 18:-0.900826 19:-1 20:-0.884297 21:-1 22:-0.950413 23:-1 24:-1 25:-0.950413 26:-0.504133 27:-1 28:1 29:-1 30:-0.504133 31:-1 32:-0.950413 33:-1 34:-1 35:-0.966942 36:-0.570247 37:-0.834711 38:-0.438017 39:-0.652892 40:-0.53719 41:-1 42:-0.53719 43:-1 44:-1 45:-0.471074 46:-0.586776 47:-0.801653 48:-1 49:-0.900826 50:-0.768595 51:-1 52:-0.950413 53:-1 54:-1 55:-0.884297 56:-0.85124 57:-0.950413 58:-1 59:-0.933884 60:-0.70248 61:-0.983471 62:-0.867769 63:-1 64:-1 65:-0.917355 66:-0.933884 67:-0.950413 68:-1 69:-0.950413 70:-0.834711 71:-0.768595 72:-0.719009 73:-1 74:-1 75:-0.884297 76:-0.834711 77:-0.966942 78:-1 79:-0.950413 80:-0.801653 81:-0.272727 82:-0.867769 83:-1 84:-1 85:-0.85124 86:-0.917355 87:-0.933884 88:-1 89:-0.950413 90:-0.950413 91:-0.0743806 92:-0.685952 93:-1 94:-1 95:-0.834711 96:-0.950413 97:-0.917355 98:-1 99:-0.950413 100:-0.950413 101:-0.338844 102:-0.719009 103:-1 104:-1 105:-0.801653 106:-0.966942 107:-0.867769 108:-1 109:-0.884297 110:-0.950413 111:-0.900826 112:-0.834711 113:-1 114:-1 115:-0.785124 116:-0.950413 117:-0.867769 118:-1 119:-0.685952 120:-0.933884 121:-1 122:-0.900826 123:-1 124:-1 125:-0.785124 126:-0.933884 127:-0.66942 128:-1 129:-0.53719 130:-0.917355 131:-1 132:-0.867769 133:-0.884297 134:-0.966942 135:-0.70248 136:-0.801653 137:-0.487602 138:-1 139:-0.619835 140:-0.719009 141:-1 142:-0.867769 143:-0.752066 144:-0.768595 145:-0.752066 146:-0.834711 147:-0.570247 148:-1 149:-0.553719 150:-0.900826 151:-1 152:-0.867769 153:-0.40496 154:-0.619835 155:-0.85124 156:-1 157:-0.652892 158:-1 159:-0.834711 160:-1 161:-1 162:-0.884297 163:-0.00826418 164:0.107437 165:-0.917355 166:-1 167:-0.917355 168:-1 169:-0.933884 170:-1 171:-1 172:-0.867769 173:-0.289256 174:-0.0909091 175:-0.983471 176:-1 177:-0.950413 178:-1 179:-1 180:-1 
1 1 1 1 1 1:-1 2:-1 3:-1 4:-1 5:-1 6:-1 7:-1 8:-1 9:-1 10:-1 11:-1 12:-1 13:-1 14:-1 15:-1 16:-0.884058 17:-0.710144 18:1 19:-1 20:-0.971014 21:-1 22:-1 23:-1 24:-1 25:-1 26:-0.0434769 27:-0.942029 28:-0.333332 29:-1 30:0.159422 31:-1 32:-0.73913 33:-1 34:-1 35:-1 36:-0.275362 37:-0.971014 38:-0.971014 39:-1 40:-0.275362 41:-1 42:-0.884058 43:-1 44:-1 45:-0.971014 46:-0.623188 47:-1 48:-1 49:-1 50:-0.73913 51:-1 52:-0.971014 53:-1 54:-1 55:-0.797101 56:-0.971014 57:-0.971014 58:-1 59:-0.710144 60:-0.971014 61:-0.623188 62:-1 63:-1 64:-1 65:-0.826087 66:-0.971014 67:-0.971014 68:-1 69:-0.913043 70:-0.971014 71:0.971016 72:-0.884058 73:-1 74:-1 75:-0.942029 76:-0.942029 77:-0.942029 78:-1 79:-0.942029 80:-0.971014 81:-0.652174 82:-0.73913 83:-1 84:-1 85:-0.884058 86:-0.971014 87:-0.971014 88:-1 89:-0.971014 90:-1 91:-1 92:-0.710144 93:-1 94:-1 95:-0.710144 96:-1 97:-0.942029 98:-1 99:-0.942029 100:-0.971014 101:-1 102:-0.710144 103:-1 104:-1 105:-0.710144 106:-0.971014 107:-0.420289 108:-1 109:-0.913043 110:-1 111:-1 112:-0.681158 113:0.0724632 114:-0.652174 115:-0.710144 116:-1 117:-0.333332 118:-1 119:-0.304346 120:-0.971014 121:-1 122:-0.594202 123:0.333335 124:0.739131 125:-0.681158 126:-0.681158 127:-0.333332 128:-1 129:-0.21739 130:-0.884058 131:-1 132:-0.73913 133:-0.710144 134:-0.391305 135:-0.710144 136:-0.971014 137:-0.797101 138:-1 139:-0.565218 140:-0.73913 141:-1 142:-0.652174 143:-1 144:-1 145:-0.536232 146:-1 147:-1 148:-1 149:-0.826087 150:-1 151:-1 152:-1 153:-1 154:-1 155:-0.855072 156:-1 157:-1 158:-1 159:-1 160:-1 161:-1 162:-1 163:-1 164:-1 165:-0.971014 166:-1 167:-1 168:-1 169:-1 170:-1 171:-1 172:-1 173:-1 174:-1 175:-1 176:-1 177:-1 178:-1 179:-1 180:-1 
1 1 0.5056460074390939 1 1 1:-1 2:-1 3:-1 4:-1 5:-1 6:-1 7:-1 8:-0.920635 9:-1 10:-1 11:-1 12:-1 13:-1 14:-1 15:-1 16:-0.603174 17:-1 18:-0.0317451 19:-1 20:-0.777778 21:-1 22:-1 23:-1 24:-1 25:-1 26:0.111111 27:-1 28:0.285715 29:-1 30:0.396825 31:-1 32:-1 33:-1 34:-1 35:-0.873016 36:-0.52381 37:-1 38:-0.904762 39:-0.84127 40:-0.587301 41:-1 42:-0.761905 43:-1 44:-1 45:-0.873016 46:-0.904762 47:-0.904762 48:-1 49:-0.920635 50:-0.952381 51:-0.904762 52:-0.984127 53:-1 54:-1 55:-0.984127 56:-0.984127 57:-0.857143 58:-1 59:-1 60:-0.984127 61:-0.904762 62:-0.984127 63:-1 64:-1 65:-0.984127 66:-0.984127 67:-0.984127 68:-1 69:-0.984127 70:-0.984127 71:-0.761905 72:-0.984127 73:-1 74:-1 75:-0.984127 76:-0.984127 77:-0.984127 78:-1 79:-0.984127 80:-0.984127 81:1 82:-0.888889 83:-1 84:-1 85:-0.936508 86:-0.984127 87:-1 88:-1 89:-1 90:-0.984127 91:-1 92:-0.761905 93:-1 94:-1 95:-0.761905 96:-0.984127 97:-0.984127 98:-1 99:-0.984127 100:-0.984127 101:-1 102:-0.428571 103:-1 104:-1 105:-0.587301 106:-0.984127 107:-0.984127 108:-1 109:-0.984127 110:-0.984127 111:-1 112:-0.507937 113:-0.952381 114:-0.682539 115:-0.539683 116:-0.984127 117:-0.984127 118:-1 119:-0.984127 120:-0.984127 121:-1 122:-0.492064 123:-0.26984 124:-0.15873 125:-0.460318 126:-0.873016 127:-0.952381 128:-1 129:-0.968254 130:-1 131:-1 132:-0.793651 133:-0.20635 134:-0.222223 135:-0.698413 136:-0.888889 137:-0.682539 138:-1 139:-0.730159 140:-0.984127 141:-1 142:-0.984127 143:-0.507937 144:-0.730159 145:-0.888889 146:-1 147:-0.412698 148:-1 149:-0.492064 150:-0.777778 151:-1 152:-1 153:-0.682539 154:-0.920635 155:-1 156:-1 157:1.19209e-06 158:-1 159:-0.222223 160:-1 161:-1 162:-1 163:-0.968254 164:-0.920635 165:-1 166:-1 167:-0.84127 168:-1 169:-0.492064 170:-1 171:-1 172:-1 173:-0.984127 174:-0.936508 175:-1 176:-1 177:-1 178:-1 179:-0.984127 180:-1 
1 1 1 1 1 1:-1 2:-1 3:-1 4:-1 5:-0.952381 6:-1 7:-1 8:1 9:-1 10:-1 11:-1 12:-1 13:-1 14:-1 15:-0.976191 16:-0.976191 17:-1 18:-0.690477 19:-1 20:-1 21:-1 22:-0.988095 23:-1 24:-1 25:-0.988095 26:-0.880952 27:-1 28:-0.988095 29:-0.773809 30:-0.869047 31:-1 32:-0.52381 33:-1 34:-1 35:-0.428571 36:0.285715 37:-1 38:-1 39:-0.773809 40:0 41:-1 42:-0.940476 43:-1 44:-1 45:-0.773809 46:-0.72619 47:-0.535714 48:-1 49:-1 50:-0.738094 51:-0.750001 52:-0.750001 53:-1 54:-1 55:-0.607142 56:-0.892857 57:-0.988095 58:-1 59:-0.988095 60:-0.666666 61:0.964287 62:-0.547618 63:-0.988095 64:-1 65:-0.809524 66:-0.976191 67:-0.988095 68:-1 69:-0.928571 70:-1 71:-0.892857 72:-0.761905 73:-0.988095 74:-1 75:-0.821428 76:-1 77:-1 78:-1 79:-0.976191 80:-0.976191 81:-1 82:-0.869047 83:-0.964286 84:-1 85:-0.869047 86:-1 87:-0.988095 88:-1 89:-0.988095 90:-0.988095 91:-1 92:-0.892857 93:-0.857143 94:-1 95:-0.821428 96:-0.988095 97:-1 98:-1 99:-0.976191 100:-0.964286 101:-1 102:-0.857143 103:-0.583333 104:-0.166667 105:-0.797619 106:-1 107:-0.988095 108:-1 109:-0.988095 110:-0.988095 111:-1 112:-0.880952 113:0.130952 114:0.357143 115:-0.940476 116:-0.988095 117:-0.892857 118:-1 119:-0.845238 120:-0.988095 121:-1 122:-0.821428 123:-0.488095 124:-0.892857 125:-0.892857 126:-0.976191 127:-0.571429 128:-1 129:-0.499999 130:-0.988095 131:-1 132:-0.845238 133:-0.940476 134:-0.976191 135:-1 136:-0.559523 137:-0.130952 138:-1 139:-0.0357128 140:-0.559523 141:-1 142:-1 143:-1 144:-1 145:-1 146:-1 147:-0.630953 148:-1 149:-0.904762 150:-0.952381 151:-1 152:-1 153:-1 154:-1 155:-1 156:-1 157:-0.964286 158:-1 159:-1 160:-1 161:-1 162:-1 163:-1 164:-1 165:-1 166:-1 167:-1 168:-1 169:-1 170:-1 171:-1 172:-1 173:-1 174:-1 175:-1 176:-1 177:-1 178:-1 179:-1 180:-1 
1 1 1 1 1 1:-1 2:-1 3:-1 4:-1 5:-1 6:-1 7:-1 8:-1 9:-1 10:-1 11:-1 12:-1 13:-1 14:-1 15:-1 16:-0.947368 17:-1 18:0.694737 19:-1 20:-0.978947 21:-1 22:-1 23:-1 24:-1 25:-0.978947 26:-0.48421 27:-1 28:-0.442104 29:-1 30:-0.494737 31:-1 32:-0.263157 33:-1 34:-1 35:-0.389473 36:-0.536843 37:-1 38:-1 39:-1 40:-0.452631 41:-1 42:-0.842105 43:-1 44:-1 45:-0.831579 46:-0.789474 47:-0.663157 48:-1 49:-0.51579 50:-0.905263 51:-1 52:-0.915789 53:-1 54:-1 55:-0.8 56:-0.936842 57:-0.589473 58:-1 59:-0.915789 60:-0.915789 61:-1 62:-0.673684 63:-1 64:-1 65:-0.68421 66:-0.957895 67:-0.968421 68:-1 69:-0.915789 70:-0.957895 71:-1 72:-0.736843 73:-1 74:-1 75:-0.68421 76:-0.957895 77:-0.968421 78:-1 79:-0.926316 80:-0.926316 81:-0.88421 82:-0.894737 83:-1 84:-1 85:-0.863158 86:-0.978947 87:-0.968421 88:-1 89:-0.947368 90:-0.894737 91:1 92:-0.894737 93:-1 94:-0.978947 95:-0.852631 96:-0.968421 97:-0.978947 98:-1 99:-0.926316 100:-0.978947 101:-0.863158 102:-0.894737 103:-1 104:-0.842105 105:-0.936842 106:-0.989474 107:-0.968421 108:-1 109:-0.915789 110:-0.936842 111:-1 112:-0.936842 113:0.136843 114:-0.747367 115:-0.947368 116:-0.957895 117:-0.968421 118:-1 119:-0.947368 120:-0.915789 121:-1 122:-0.936842 123:0.0947367 124:0.494737 125:-0.894737 126:-0.894737 127:-0.905263 128:-1 129:-0.926316 130:-0.905263 131:-1 132:-0.88421 133:-0.978947 134:-0.673684 135:-0.88421 136:-0.347367 137:-0.789474 138:-1 139:-0.873684 140:-0.48421 141:-1 142:-0.88421 143:-1 144:-1 145:-1 146:-1 147:-0.6 148:-1 149:-0.347367 150:-1 151:-1 152:-0.989474 153:-1 154:-1 155:-1 156:-1 157:-0.378947 158:-1 159:-0.757894 160:-1 161:-1 162:-1 163:-1 164:-1 165:-1 166:-1 167:-1 168:-1 169:-0.831579 170:-1 171:-1 172:-1 173:-1 174:-1 175:-1 176:-1 177:-1 178:-1 179:-1 180:-1 
1 1 1 1 1 1:-1 2:-1 3:-1 4:-1 5:-1 6:-0.980952 7:-1 8:-1 9:-1 10:-0.980952 11:-1 12:-0.828572 13:-1 14:-1 15:-0.904762 16:-0.904762 17:-1 18:-0.847619 19:-1 20:-0.961905 21:-1 22:-0.314287 23:-1 24:-1 25:-0.904762 26:-0.657143 27:-0.561906 28:-0.0476208 29:-1 30:-0.619048 31:-1 32:-0.695238 33:-1 34:-1 35:-0.466668 36:-0.847619 37:-1 38:0.619045 39:-1 40:-0.866667 41:-1 42:0.199998 43:-1 44:-1 45:-0.828572 46:-0.847619 47:-0.580953 48:-0.161906 49:-1 50:-0.904762 51:-0.904762 52:-0.695238 53:-1 54:-1 55:-0.714286 56:-0.600001 57:-0.619048 58:-0.961905 59:-1 60:-0.142859 61:-0.580953 62:-0.885714 63:-1 64:-1 65:-0.828572 66:-0.123811 67:-0.657143 68:-1 69:-0.733333 70:0.447616 71:0.0857123 72:-0.904762 73:-0.352382 74:-0.92381 75:-0.52381 76:-0.657143 77:-0.295239 78:-1 79:-0.104764 80:-0.714286 81:1 82:-0.866667 83:0.18095 84:-0.714286 85:-0.619048 86:-0.619048 87:-0.580953 88:-1 89:-0.561906 90:-1 91:-1 92:-0.771429 93:-0.142859 94:-0.638096 95:-0.733333 96:-0.942857 97:-0.828572 98:-1 99:-0.485715 100:-0.980952 101:-1 102:-0.885714 103:-0.714286 104:-0.180954 105:-0.885714 106:-0.657143 107:-0.809524 108:-1 109:-0.504763 110:-0.904762 111:-1 112:-0.904762 113:-0.37143 114:0.161903 115:-0.885714 116:-0.980952 117:-0.847619 118:-1 119:-0.904762 120:-1 121:-1 122:-0.92381 123:-1 124:-0.600001 125:-0.828572 126:-1 127:-0.695238 128:-1 129:-0.657143 130:-0.942857 131:-1 132:-0.92381 133:-1 134:-0.580953 135:-0.466668 136:-0.580953 137:-0.961905 138:-1 139:-0.504763 140:-0.904762 141:-1 142:-1 143:-1 144:-0.980952 145:-0.828572 146:-1 147:-0.961905 148:-1 149:-0.942857 150:-0.92381 151:-1 152:-1 153:-1 154:-0.942857 155:-0.980952 156:-1 157:-1 158:-1 159:-1 160:-1 161:-1 162:-1 163:-1 164:-1 165:-1 166:-1 167:-1 168:-1 169:-1 170:-1 171:-1 172:-1 173:-1 174:-1 175:-1 176:-1 177:-1 178:-1 179:-1 180:-1 
1 1 1 1 1 1:-0.716418 2:-1 3:-1 4:-1 5:-1 6:-1 7:-1 8:-0.955224 9:-1 10:-0.910448 11:-0.716418 12:-1 13:-1 14:-1 15:-1 16:-0.985075 17:-1 18:-0.477613 19:-0.955224 20:-0.925373 21:-1 22:-0.611941 23:-1 24:-1 25:-0.895523 26:-0.701493 27:-1 28:1 29:-0.940298 30:-0.77612 31:-1 32:-0.761194 33:-1 34:-1 35:-0.656717 36:-0.597016 37:-1 38:-0.686568 39:-0.671641 40:-0.537313 41:-1 42:-0.611941 43:-1 44:-1 45:-0.701493 46:-0.80597 47:-0.970149 48:-1 49:-0.716418 50:-0.970149 51:-0.746269 52:-0.716418 53:-1 54:-1 55:-0.686568 56:-0.895523 57:-0.611941 58:-1 59:-0.582089 60:-0.895523 61:-0.537313 62:-0.746269 63:-1 64:-1 65:-0.641792 66:-0.447761 67:-0.597016 68:-1 69:-0.850746 70:-0.626865 71:-0.313433 72:-0.820896 73:-1 74:-1 75:-0.850746 76:-0.850746 77:-0.925373 78:-1 79:-0.895523 80:-0.910448 81:-0.656717 82:-0.731343 83:-1 84:-1 85:-0.835821 86:-0.865672 87:-0.791045 88:-1 89:-0.970149 90:-0.940298 91:-0.432837 92:-0.910448 93:-1 94:-0.985075 95:-0.746269 96:-0.835821 97:-0.761194 98:-1 99:-0.910448 100:-0.925373 101:-1 102:-0.791045 103:-0.641792 104:-0.985075 105:-0.611941 106:-0.925373 107:-0.910448 108:-1 109:-0.791045 110:-0.955224 111:-1 112:-0.80597 113:-0.671641 114:-0.865672 115:-0.820896 116:-0.910448 117:-0.880597 118:-1 119:-0.820896 120:-0.955224 121:-1 122:-0.850746 123:-0.865672 124:-0.746269 125:-0.850746 126:-0.492537 127:-0.925373 128:-1 129:-0.865672 130:-0.955224 131:-1 132:-0.910448 133:-0.925373 134:0.149254 135:-0.820896 136:-0.835821 137:-0.686568 138:-1 139:-0.925373 140:-0.537313 141:-1 142:-0.985075 143:-0.582089 144:-0.179105 145:-1 146:-0.970149 147:-0.358209 148:-1 149:-0.671641 150:-0.850746 151:-1 152:-0.985075 153:-0.0746261 154:-0.850746 155:-1 156:-1 157:-0.716418 158:-1 159:-0.582089 160:-0.77612 161:-1 162:-0.955224 163:-0.522389 164:-0.835821 165:-1 166:-1 167:-0.985075 168:-1 169:-0.970149 170:-0.77612 171:-1 172:-0.925373 173:-0.835821 174:-0.820896 175:-1 176:-1 177:-1 178:-1 179:-1 180:-0.895523 
1 1 1 1 1 1:-1 2:-1 3:-1 4:-1 5:-1 6:-1 7:-1 8:-1 9:-1 10:-1 11:-1 12:-1 13:-1 14:-1 15:-1 16:-1 17:-1 18:-1 19:-1 20:-1 21:-1 22:-1 23:-1 24:-1 25:-1 26:-0.504951 27:-1 28:-1 29:-0.841584 30:-0.148514 31:-1 32:-1 33:-1 34:-1 35:-0.980198 36:-0.287129 37:-0.504951 38:1 39:-0.90099 40:-0.58416 41:-1 42:-0.485149 43:-1 44:-1 45:-0.564357 46:-0.90099 47:-0.782178 48:-0.702971 49:-0.920792 50:-0.960396 51:-1 52:-0.58416 53:-1 54:-1 55:-0.762377 56:-0.940594 57:-0.980198 58:-1 59:-0.742574 60:-0.861386 61:-0.782178 62:-0.940594 63:-1 64:-1 65:-0.663366 66:-0.960396 67:-0.980198 68:-1 69:-0.821782 70:-0.940594 71:0.069306 72:-0.920792 73:-1 74:-1 75:-0.960396 76:-0.920792 77:-0.881188 78:-1 79:-0.940594 80:-0.960396 81:0.00990021 82:-0.841584 83:-0.722772 84:-1 85:-0.920792 86:-0.920792 87:-0.940594 88:-1 89:-0.90099 90:-0.58416 91:-1 92:-0.742574 93:-0.960396 94:-0.980198 95:-0.861386 96:-0.980198 97:-0.960396 98:-1 99:-0.940594 100:-0.980198 101:-1 102:-0.821782 103:-1 104:-0.60396 105:-0.782178 106:-0.445545 107:-0.940594 108:-1 109:-0.920792 110:-0.80198 111:-1 112:-0.881188 113:-0.38614 114:-0.643565 115:-0.821782 116:-0.841584 117:-0.742574 118:-1 119:-0.683169 120:-0.881188 121:-1 122:-0.782178 123:-0.90099 124:-0.782178 125:-0.881188 126:-1 127:-0.346534 128:-1 129:-0.148514 130:-1 131:-1 132:-0.762377 133:0.00990021 134:-0.58416 135:-0.782178 136:-1 137:-0.643565 138:-1 139:-0.940594 140:-1 141:-1 142:-0.940594 143:-0.742574 144:-0.108911 145:-0.722772 146:-1 147:-1 148:-1 149:-1 150:-1 151:-1 152:-1 153:-1 154:-1 155:-1 156:-1 157:-1 158:-1 159:-1 160:-1 161:-1 162:-1 163:-1 164:-1 165:-1 166:-1 167:-1 168:-1 169:-1 170:-1 171:-1 172:-1 173:-1 174:-1 175:-1 176:-1 177:-1 178:-1 179:-1 180:-1 
1 1 1 1 1 1:-1 2:-1 3:-1 4:-1 5:-1 6:-1 7:-1 8:-1 9:-1 10:-1 11:-1 12:-0.86 13:-1 14:-1 15:-0.94 16:-0.98 17:-1 18:1 19:-1 20:-0.8 21:-1 22:-0.9 23:-1 24:-1 25:-0.94 26:-1.60933e-06 27:-1 28:0.0800009 29:-1 30:-0.0200006 31:-1 32:-0.92 33:-1 34:-1 35:-0.96 36:0.0599986 37:-1 38:-0.9 39:-1 40:-0.379999 41:-1 42:-0.92 43:-1 44:-1 45:-0.76 46:-0.559999 47:-1 48:-1 49:-1 50:-0.379999 51:-1 52:-0.76 53:-1 54:-1 55:-0.88 56:-0.639999 57:-1 58:-1 59:-1 60:-0.600001 61:-1 62:-0.82 63:-1 64:-1 65:-0.78 66:-0.96 67:-1 68:-1 69:-1 70:-0.9 71:-0.260001 72:-0.76 73:-1 74:-1 75:-0.8 76:-0.92 77:-1 78:-1 79:-1 80:-0.92 81:0.660001 82:-0.76 83:-1 84:-1 85:-0.82 86:-0.94 87:-0.9 88:-1 89:-1 90:-0.82 91:-0.22 92:-0.7 93:-1 94:-1 95:-0.74 96:-0.9 97:-0.92 98:-1 99:-0.88 100:-1 101:-1 102:-0.78 103:-1 104:-1 105:-0.8 106:-0.98 107:-0.98 108:-1 109:-0.86 110:-1 111:-1 112:-0.72 113:-0.72 114:-1 115:-0.8 116:-1 117:-0.92 118:-1 119:-0.8 120:-1 121:-1 122:-0.76 123:-0.660001 124:-0.76 125:-0.8 126:-1 127:-0.74 128:-1 129:-0.400001 130:-1 131:-1 132:-0.559999 133:0.439999 134:0.22 135:-0.74 136:-1 137:-0.68 138:-1 139:-0.559999 140:-1 141:-1 142:-0.68 143:-0.499999 144:-0.0399996 145:-0.559999 146:-1 147:0.0399997 148:-1 149:-0.320002 150:-1 151:-1 152:-0.98 153:-0.639999 154:-0.580002 155:-0.660001 156:-1 157:0.0399997 158:-1 159:-0.0600019 160:-1 161:-1 162:-0.94 163:-0.74 164:-0.660001 165:-0.84 166:-1 167:-0.76 168:-1 169:-0.94 170:-1 171:-1 172:-1 173:-1 174:-1 175:-1 176:-1 177:-1 178:-1 179:-1 180:-1 
1 1 1 1 1 1:-1 2:-0.990148 3:-1 4:-1 5:-1 6:-1 7:-1 8:-1 9:-1 10:-1 11:-1 12:-0.990148 13:-1 14:-1 15:-1 16:-0.980296 17:-1 18:-1 19:-1 20:-0.980296 21:-1 22:-0.714286 23:-1 24:-1 25:-1 26:-0.655172 27:-1 28:1 29:-1 30:-0.37931 31:-1 32:-0.921182 33:-1 34:-1 35:-1 36:-0.438424 37:-0.980296 38:-1 39:-1 40:-0.517242 41:-1 42:-0.970443 43:-1 44:-1 45:-0.665024 46:-0.566502 47:-1 48:-1 49:-1 50:-0.674876 51:-1 52:-0.940887 53:-1 54:-1 55:-1 56:-0.763546 57:-0.852217 58:-1 59:-1 60:-0.46798 61:-0.73399 62:-0.91133 63:-1 64:-1 65:-0.931034 66:-1 67:-0.852217 68:-1 69:-1 70:-1 71:0.20197 72:-0.970443 73:-1 74:-1 75:-0.891626 76:-0.980296 77:-0.960591 78:-1 79:-1 80:-0.990148 81:-0.46798 82:-0.891626 83:-1 84:-1 85:-0.82266 86:-0.970443 87:-0.960591 88:-1 89:-0.990148 90:-0.990148 91:-1 92:-0.82266 93:-1 94:-1 95:-0.901478 96:-0.960591 97:-0.990148 98:-1 99:-0.802956 100:-1 101:-1 102:-0.921182 103:-1 104:-1 105:-0.832512 106:-1 107:-0.812808 108:-1 109:-0.82266 110:-1 111:-1 112:-0.91133 113:-1 114:-1 115:-0.940887 116:-0.871921 117:-0.852217 118:-1 119:-0.349754 120:-1 121:-1 122:-0.438424 123:-0.625616 124:-1 125:-0.59606 126:-0.812808 127:-0.438424 128:-1 129:-0.211822 130:-1 131:-1 132:-0.665024 133:0.270936 134:0.231528 135:-0.55665 136:-1 137:-0.536946 138:-1 139:-0.852217 140:-1 141:-1 142:-0.960591 143:-0.64532 144:-0.231528 145:-0.862069 146:-1 147:-0.852217 148:-1 149:-0.970443 150:-1 151:-1 152:-0.980296 153:-1 154:-1 155:-1 156:-1 157:-0.91133 158:-1 159:-1 160:-1 161:-1 162:-1 163:-1 164:-1 165:-1 166:-1 167:-1 168:-1 169:-1 170:-1 171:-1 172:-1 173:-1 174:-1 175:-1 176:-1 177:-1 178:-1 179:-1 180:-1 
1 1 1 1 1 1:-1 2:-1 3:-1 4:-1 5:-1 6:-0.892473 7:-1 8:-1 9:-1 10:-1 11:-1 12:-1 13:-1 14:-1 15:-1 16:-0.741936 17:-1 18:1 19:-1 20:-0.88172 21:-1 22:-0.935484 23:-1 24:-1 25:-1 26:-0.645162 27:-1 28:-0.913979 29:-1 30:-0.591398 31:-1 32:-0.860215 33:-1 34:-1 35:-0.774194 36:-0.322581 37:-0.924731 38:-1 39:-1 40:-0.408603 41:-1 42:-0.924731 43:-1 44:-1 45:-0.83871 46:-0.720429 47:-0.892473 48:-1 49:-0.741936 50:-0.440861 51:-1 52:-0.913979 53:-1 54:-1 55:-0.989247 56:-0.978495 57:-0.924731 58:-1 59:-0.892473 60:-0.989247 61:-0.946237 62:-0.935484 63:-1 64:-1 65:-1 66:-1 67:-0.892473 68:-1 69:-0.989247 70:-0.989247 71:-0.903226 72:-0.913979 73:-1 74:-1 75:-0.946237 76:-1 77:-0.989247 78:-1 79:-1 80:-1 81:0.408602 82:-0.935484 83:-1 84:-1 85:-0.967742 86:-0.989247 87:-1 88:-1 89:-1 90:-0.989247 91:-0.473119 92:-0.978495 93:-1 94:-1 95:-0.827957 96:-1 97:-1 98:-1 99:-0.989247 100:-1 101:-1 102:-0.849463 103:-1 104:-1 105:-0.827957 106:-1 107:-0.989247 108:-1 109:-1 110:-1 111:-1 112:-0.827957 113:-1 114:-1 115:-0.774194 116:-0.892473 117:-1 118:-1 119:-0.989247 120:-0.989247 121:-1 122:-0.892473 123:-1 124:-1 125:-0.892473 126:-0.924731 127:-0.978495 128:-1 129:-0.989247 130:-0.924731 131:-1 132:-0.537635 133:-0.806452 134:-0.763441 135:-0.634408 136:-0.935484 137:-0.946237 138:-1 139:-0.526882 140:-0.709678 141:-1 142:-0.462366 143:0.55914 144:0.16129 145:-0.516129 146:-0.903226 147:-0.258065 148:-1 149:-0.440861 150:-1 151:-1 152:-0.956989 153:-0.720429 154:-0.387098 155:-0.924731 156:-0.967742 157:-0.55914 158:-1 159:-0.569892 160:-1 161:-1 162:-0.989247 163:-0.946237 164:-0.935484 165:-1 166:-1 167:-0.666666 168:-1 169:-0.784946 170:-1 171:-1 172:-1 173:-1 174:-0.989247 175:-1 176:-1 177:-0.892473 178:-1 179:-1 180:-1 
-1 1 1 1 1 1:-1 2:-1 3:-1 4:-1 5:-1 6:-1 7:-1 8:-1 9:-1 10:-1 11:-1 12:-1 13:-1 14:-1 15:-1 16:-1 17:-0.959596 18:-1 19:-1 20:-1 21:-1 22:-1 23:-1 24:-1 25:-1 26:-1 27:0.454545 28:-0.818182 29:-1 30:-0.737373 31:-1 32:-1 33:-1 34:-1 35:-1 36:-1 37:-0.373738 38:0.939395 39:-0.939394 40:-0.858586 41:-1 42:-0.434343 43:-1 44:-1 45:-0.151515 46:-1 47:-1 48:-1 49:-0.858586 50:-0.838384 51:-1 52:0.555555 53:-1 54:-1 55:-0.49495 56:-1 57:-1 58:-1 59:-0.49495 60:-0.939394 61:-1 62:-1 63:-1 64:0.838385 65:-0.878788 66:-1 67:-1 68:-1 69:-0.39394 70:-0.959596 71:-1 72:-1 73:-1 74:-0.717172 75:-0.959596 76:-1 77:-1 78:-1 79:-0.939394 80:-0.939394 81:-0.89899 82:-1 83:-1 84:-1 85:-0.959596 86:-1 87:-1 88:-1 89:-0.959596 90:-0.959596 91:1 92:-1 93:-1 94:-1 95:-0.939394 96:-1 97:-1 98:-1 99:-0.979798 100:-0.353535 101:-0.979798 102:-1 103:-1 104:-1 105:-0.656565 106:-1 107:-1 108:-1 109:-0.939394 110:-1 111:-1 112:-1 113:-0.333333 114:-1 115:-0.979798 116:-0.0101002 117:-1 118:-1 119:-0.939394 120:-0.373738 121:-1 122:-1 123:0.434343 124:-1 125:-0.959596 126:0.131313 127:-1 128:-1 129:-0.939394 130:-0.979798 131:-1 132:-1 133:-0.979798 134:-1 135:-1 136:-1 137:-1 138:-1 139:-0.838384 140:-0.939394 141:-1 142:-1 143:-1 144:-1 145:-0.939394 146:-1 147:-1 148:-1 149:-0.737373 150:-1 151:-1 152:-1 153:-1 154:-1 155:-0.959596 156:-1 157:-1 158:-1 159:-0.919192 160:-1 161:-1 162:-1 163:-1 164:-1 165:-1 166:-1 167:-1 168:-1 169:-1 170:-1 171:-1 172:-1 173:-1 174:-1 175:-1 176:-1 177:-1 178:-1 179:-1 180:-1 
-1 1 1 1 1 1:-1 2:-0.892473 3:-1 4:-1 5:-1 6:-1 7:-0.935484 8:-1 9:-1 10:-1 11:-1 12:-0.849462 13:-1 14:-1 15:-1 16:-1 17:-0.978495 18:-1 19:-1 20:-1 21:-1 22:-0.548386 23:-1 24:-1 25:-1 26:-1 27:-0.72043 28:1 29:-1 30:-1 31:-1 32:-0.827957 33:-1 34:-1 35:-1 36:-1 37:-0.913978 38:-0.956989 39:-1 40:-0.72043 41:-1 42:-0.978495 43:-1 44:-1 45:-0.956989 46:-1 47:-0.612902 48:-1 49:-0.311828 50:-0.44086 51:-1 52:-1 53:-1 54:-1 55:-0.784946 56:-1 57:-0.978495 58:-1 59:-0.698925 60:-0.956989 61:-1 62:-0.849462 63:-1 64:-1 65:-0.268816 66:-1 67:-0.978495 68:-1 69:-0.935484 70:-0.978495 71:-0.978495 72:-0.978495 73:-1 74:-1 75:-0.612902 76:-1 77:-1 78:-1 79:-0.978495 80:-0.978495 81:-1 82:-0.612902 83:-1 84:-1 85:-0.827957 86:-0.978495 87:-0.978495 88:-1 89:-0.978495 90:-0.978495 91:-1 92:-0.419354 93:-1 94:-1 95:-0.913978 96:-0.462365 97:-0.0322581 98:-1 99:-0.978495 100:-0.978495 101:0.161291 102:-1 103:-1 104:-1 105:-0.827957 106:-0.376344 107:-0.827957 108:-1 109:-0.978495 110:-0.978495 111:-0.247312 112:-1 113:-1 114:-1 115:-0.892473 116:-0.978495 117:-1 118:-1 119:-0.978495 120:-0.956989 121:-0.913978 122:-1 123:-1 124:-1 125:-0.913978 126:-0.978495 127:-1 128:-1 129:-0.978495 130:-0.956989 131:-0.978495 132:-1 133:-1 134:-1 135:-0.956989 136:-0.612902 137:-1 138:-1 139:-0.784946 140:-0.569893 141:-1 142:-1 143:-1 144:-1 145:-1 146:-0.741935 147:-1 148:-1 149:-0.548386 150:-0.462365 151:-1 152:-1 153:-1 154:-0.935484 155:-1 156:-0.892473 157:-1 158:-1 159:-0.806452 160:-1 161:-1 162:-1 163:-0.935484 164:0.118279 165:-1 166:-0.935484 167:-1 168:-1 169:-1 170:-1 171:-1 172:-1 173:0.978495 174:-0.139784 175:-1 176:-1 177:-1 178:-1 179:-1 180:-1 
-1 1 1 1 1 1:-1 2:-1 3:-1 4:-1 5:-1 6:-1 7:-1 8:-1 9:-1 10:-1 11:-1 12:-1 13:-1 14:-1 15:-1 16:-1 17:-1 18:-0.894737 19:-1 20:-1 21:-1 22:-0.964912 23:-1 24:-1 25:-1 26:-1 27:-0.22807 28:0.719298 29:-1 30:-0.122808 31:-1 32:-0.789474 33:-1 34:-1 35:-1 36:-0.964912 37:-0.333334 38:-0.824561 39:-1 40:-0.08772 41:-1 42:0.122808 43:-1 44:-1 45:-1 46:-0.929825 47:-0.649122 48:-1 49:-1 50:-0.824561 51:-1 52:-0.473684 53:-1 54:-1 55:-1 56:-1 57:-0.894737 58:-1 59:-1 60:-0.964912 61:-1 62:-1 63:-1 64:-1 65:-0.754386 66:-1 67:-1 68:-1 69:-1 70:-1 71:1 72:-0.964912 73:-1 74:-1 75:0.333334 76:-1 77:-1 78:-1 79:-1 80:-1 81:-1 82:-0.929825 83:-1 84:-1 85:-0.859649 86:-1 87:-1 88:-1 89:-1 90:-1 91:-1 92:-1 93:-1 94:-1 95:-0.929825 96:-1 97:-1 98:-1 99:-1 100:-1 101:-1 102:-1 103:-1 104:-0.824561 105:-0.894737 106:-1 107:-0.894737 108:-1 109:-0.824561 110:-1 111:-1 112:-1 113:-0.964912 114:-0.333334 115:-0.929825 116:0.157894 117:-1 118:-1 119:-0.649122 120:-1 121:-1 122:-1 123:-0.789474 124:-0.508772 125:-0.964912 126:-0.333334 127:-1 128:-1 129:-0.368422 130:-1 131:-1 132:-1 133:-0.473684 134:-0.754386 135:-1 136:-0.929825 137:-1 138:-1 139:-0.157894 140:-1 141:-1 142:-1 143:0.22807 144:-0.578948 145:-1 146:-1 147:-1 148:-1 149:-1 150:-1 151:-1 152:-1 153:-1 154:-1 155:-1 156:-1 157:-1 158:-1 159:-1 160:-1 161:-1 162:-1 163:-1 164:-1 165:-1 166:-1 167:-1 168:-1 169:-1 170:-1 171:-1 172:-1 173:-1 174:-1 175:-1 176:-1 177:-1 178:-1 179:-1 180:-1 
-1 1 1 1 1 1:-1 2:-0.777778 3:-1 4:-1 5:-1 6:-1 7:-1 8:0.185187 9:-1 10:-1 11:-1 12:-0.62963 13:-1 14:-1 15:-1 16:-1 17:-1 18:0.925925 19:-1 20:-0.777778 21:-1 22:-0.851852 23:-1 24:-1 25:-1 26:-1 27:-1 28:-0.333332 29:-0.925926 30:-0.259261 31:-1 32:-0.777778 33:-1 34:-1 35:-1 36:-1 37:-1 38:-1 39:-0.925926 40:-0.111112 41:-1 42:0.555556 43:-1 44:-1 45:-0.851852 46:-0.925926 47:0.111112 48:-1 49:-0.851852 50:-1 51:-1 52:-0.259261 53:-1 54:-1 55:-0.555556 56:-0.925926 57:-0.555556 58:-1 59:-0.481481 60:-0.851852 61:-1 62:-1 63:-1 64:-1 65:-0.62963 66:-0.925926 67:-0.703704 68:-1 69:-0.62963 70:-0.925926 71:-1 72:-1 73:-1 74:-1 75:-0.62963 76:-0.777778 77:-0.333332 78:-1 79:-0.925926 80:-0.925926 81:-1 82:-1 83:-1 84:-1 85:-0.925926 86:-0.777778 87:-0.851852 88:-1 89:-1 90:-0.777778 91:-0.703704 92:-1 93:-0.925926 94:-1 95:-0.925926 96:-0.62963 97:-0.703704 98:-1 99:-0.925926 100:-0.925926 101:0.629631 102:-1 103:-0.703704 104:-1 105:0.259257 106:-0.925926 107:-0.925926 108:-1 109:-0.851852 110:-0.777778 111:0.407407 112:-0.851852 113:0.777776 114:-0.925926 115:-0.407407 116:-0.481481 117:-0.925926 118:-1 119:-0.851852 120:-0.62963 121:-0.851852 122:-0.925926 123:-0.185187 124:1 125:-0.555556 126:-0.0370373 127:-0.555556 128:-1 129:-0.851852 130:-0.703704 131:-0.703704 132:-0.703704 133:-0.777778 134:0.555556 135:-1 136:0.185187 137:-0.777778 138:-1 139:-0.925926 140:-0.703704 141:-1 142:-1 143:-0.407407 144:-0.851852 145:-1 146:-1 147:-1 148:-1 149:-0.407407 150:-0.851852 151:-1 152:-1 153:-1 154:-1 155:-1 156:-1 157:-1 158:-1 159:0.333332 160:-1 161:-1 162:-1 163:-1 164:-1 165:-1 166:-1 167:-1 168:-1 169:-1 170:-1 171:-1 172:-1 173:-1 174:-1 175:-1 176:-1 177:-1 178:-1 179:-1 180:-1 
-1 1 1 1 1 1:-1 2:-1 3:-1 4:-1 5:-1 6:-1 7:-1 8:1 9:-0.936 10:-1 11:-1 12:-0.712 13:-1 14:-1 15:-1 16:-1 17:-1 18:-1 19:-0.52 20:-1 21:-1 22:0.488 23:-1 24:-1 25:-0.84 26:-1 27:-0.744 28:-1 29:-0.936 30:-1 31:-1 32:-0.776 33:-1 34:-1 35:-0.392 36:-1 37:0.104 38:-1 39:-0.984 40:-0.712 41:-1 42:-1 43:-1 44:-1 45:-0.216 46:-1 47:-0.376 48:-1 49:-0.952 50:-0.664 51:-1 52:-1 53:-1 54:-1 55:-0.744 56:-1 57:-0.984 58:-1 59:-0.968 60:-0.504 61:-1 62:-1 63:-1 64:-1 65:-0.92 66:-1 67:-1 68:-1 69:-0.952 70:-0.904 71:1 72:-1 73:-1 74:-1 75:-0.936 76:-1 77:-1 78:-1 79:-0.968 80:-0.952 81:-1 82:-1 83:-1 84:-1 85:-0.968 86:-1 87:-1 88:-1 89:-0.696 90:-0.968 91:-1 92:-1 93:-1 94:-0.872 95:-0.984 96:-1 97:-1 98:-1 99:-0.92 100:-0.952 101:-1 102:-1 103:-0.296 104:-0.84 105:-1 106:-1 107:-1 108:-1 109:-0.568 110:-0.968 111:-1 112:-1 113:0.184 114:-0.856 115:-1 116:-1 117:-1 118:-1 119:-0.6 120:-1 121:-1 122:-1 123:-0.888 124:0.296 125:-1 126:-0.664 127:-1 128:-1 129:-1 130:-0.952 131:-1 132:-1 133:-1 134:-0.728 135:-1 136:0.536 137:-1 138:-1 139:-1 140:-0.424 141:-1 142:-1 143:-1 144:-1 145:-1 146:-0.872 147:-1 148:-1 149:-1 150:-1 151:-1 152:-1 153:-1 154:-1 155:-1 156:-1 157:-1 158:-1 159:-1 160:-1 161:-1 162:-1 163:-1 164:-1 165:-1 166:-1 167:-1 168:-1 169:-1 170:-1 171:-1 172:-1 173:-1 174:-1 175:-1 176:-1 177:-1 178:-1 179:-1 180:-1 
-1 1 1 1 1 1:-1 2:-1 3:-1 4:-1 5:-1 6:-1 7:-1 8:-0.87156 9:-1 10:-1 11:-1 12:-1 13:-1 14:-1 15:-1 16:-1 17:-1 18:1 19:-1 20:-1 21:-1 22:-1 23:-1 24:-1 25:-0.724771 26:-1 27:-1 28:-1 29:-1 30:-0.651376 31:-1 32:-0.44954 33:-1 34:-1 35:-0.541285 36:-1 37:-0.00917464 38:-1 39:-0.486239 40:-0.853211 41:-1 42:0.376148 43:-1 44:-1 45:-0.46789 46:-1 47:0.137615 48:-1 49:-0.357798 50:-0.963303 51:-1 52:-0.798165 53:-1 54:-1 55:-0.633027 56:-1 57:-1 58:-1 59:-0.963303 60:-0.944954 61:-1 62:-1 63:-1 64:-1 65:-0.816514 66:-1 67:-1 68:-1 69:-0.963303 70:-0.834862 71:-0.706422 72:-1 73:-1 74:-1 75:-0.889908 76:-1 77:-1 78:-1 79:-0.981651 80:-0.963303 81:0.651376 82:-1 83:-1 84:-1 85:-0.944954 86:-1 87:-1 88:-1 89:-0.963303 90:-0.963303 91:-0.816514 92:-1 93:-1 94:-1 95:-0.963303 96:-1 97:-1 98:-1 99:-0.963303 100:-0.963303 101:-1 102:-1 103:-1 104:-1 105:-0.926605 106:-1 107:-1 108:-1 109:-0.926605 110:-0.963303 111:-1 112:-1 113:-1 114:-1 115:-0.963303 116:-1 117:-1 118:-1 119:-0.853211 120:-0.963303 121:-1 122:-1 123:0.779817 124:0.486239 125:-1 126:-1 127:-1 128:-1 129:-0.944954 130:-0.963303 131:-1 132:-1 133:-0.651376 134:-0.357798 135:-1 136:-1 137:-1 138:-1 139:-0.944954 140:-0.577981 141:-1 142:-1 143:-1 144:-1 145:-1 146:0.889909 147:-1 148:-1 149:-0.834862 150:-0.266054 151:-1 152:-1 153:-1 154:-1 155:-1 156:-0.761468 157:-1 158:-1 159:-0.688073 160:-1 161:-1 162:-1 163:-1 164:-1 165:-1 166:-1 167:-1 168:-1 169:-1 170:-1 171:-1 172:-1 173:-1 174:-1 175:-1 176:-1 177:-1 178:-1 179:-1 180:-1 
-1 1 1 1 1 1:-1 2:-1 3:-1 4:-1 5:-1 6:-1 7:-1 8:-1 9:-0.978022 10:-1 11:-1 12:-1 13:-1 14:-1 15:-1 16:-1 17:-1 18:-0.0769233 19:-0.648352 20:-1 21:-1 22:-0.758242 23:-1 24:-1 25:-1 26:-1 27:-1 28:0.626373 29:-0.318682 30:-0.78022 31:-1 32:-0.274725 33:-1 34:-1 35:-0.824176 36:-1 37:-1 38:-1 39:-0.626373 40:-0.604397 41:-1 42:-0.78022 43:-1 44:-1 45:-0.956044 46:-1 47:-1 48:-1 49:-0.868132 50:-0.736265 51:-1 52:-0.23077 53:-1 54:-1 55:-0.978022 56:-1 57:-1 58:-1 59:-0.956044 60:-0.912088 61:-1 62:-0.516484 63:-1 64:-1 65:-0.824176 66:-1 67:-1 68:-1 69:-0.956044 70:-0.956044 71:1 72:-0.934066 73:-1 74:-1 75:-0.538463 76:-1 77:-1 78:-1 79:-0.868132 80:-0.846154 81:-0.45055 82:-0.956044 83:-1 84:-1 85:-0.252749 86:-1 87:-1 88:-1 89:-0.538463 90:-0.45055 91:-1 92:-1 93:-1 94:-1 95:-0.604397 96:-0.802198 97:-1 98:-1 99:-0.89011 100:-0.582418 101:-1 102:-1 103:-1 104:-1 105:-0.912088 106:-0.142857 107:-0.89011 108:-1 109:-0.802198 110:-0.824176 111:-1 112:-1 113:-1 114:-0.956044 115:-0.934066 116:0.472526 117:0.494505 118:-1 119:-1 120:-0.802198 121:-1 122:-1 123:0.406593 124:-0.428571 125:-0.868132 126:-0.978022 127:-0.120878 128:-1 129:-1 130:-0.956044 131:-1 132:-1 133:0.0988995 134:-0.89011 135:-0.868132 136:-1 137:-0.934066 138:-1 139:-1 140:-1 141:-1 142:-1 143:-0.956044 144:-0.824176 145:-0.89011 146:-1 147:-1 148:-1 149:-1 150:-1 151:-1 152:-1 153:-1 154:0.582418 155:-1 156:-1 157:-1 158:-1 159:-1 160:-1 161:-1 162:-1 163:-1 164:-0.934066 165:-1 166:-1 167:-1 168:-1 169:-1 170:-1 171:-1 172:-1 173:-1 174:-1 175:-1 176:-1 177:-1 178:-1 179:-1 180:-1 
-1 1 1 1 1 1:-1 2:-1 3:-1 4:-1 5:-1 6:-1 7:-1 8:-1 9:-1 10:-1 11:-1 12:-1 13:-1 14:-1 15:-1 16:-1 17:-1 18:-0.28 19:-1 20:-1 21:-1 22:-1 23:-1 24:-1 25:-0.968 26:-1 27:-1 28:0.28 29:-1 30:-1 31:-1 32:-1 33:-1 34:-1 35:-0.584 36:-1 37:0.184 38:-1 39:-0.712 40:-1 41:-1 42:1 43:-1 44:-1 45:-0.536 46:-1 47:-0.184 48:-1 49:-0.952 50:-1 51:-1 52:-1 53:-1 54:-1 55:-0.344 56:-1 57:-1 58:-1 59:-0.952 60:-0.984 61:-1 62:-1 63:-1 64:-1 65:-0.664 66:-1 67:-1 68:-1 69:-0.712 70:-0.936 71:-1 72:-1 73:-1 74:-1 75:-0.92 76:-1 77:-1 78:-1 79:-0.232 80:-0.952 81:-1 82:-1 83:-1 84:-1 85:-0.984 86:-1 87:-1 88:-1 89:-0.808 90:-0.792 91:1 92:-1 93:-1 94:-1 95:-1 96:-1 97:-1 98:-1 99:-0.792 100:-0.808 101:-1 102:-1 103:-1 104:-1 105:-1 106:-1 107:-1 108:-1 109:-0.952 110:-0.184 111:-1 112:-1 113:-1 114:-1 115:-1 116:-1 117:-1 118:-1 119:-0.968 120:-0.728 121:-1 122:-1 123:-1 124:-1 125:-1 126:-1 127:-1 128:-1 129:-0.936 130:-0.952 131:-1 132:-1 133:-1 134:-1 135:-1 136:-0.04 137:-1 138:-1 139:-0.984 140:-0.968 141:-1 142:-1 143:1 144:1 145:-1 146:0.04 147:-1 148:-1 149:-1 150:-0.696 151:-1 152:-1 153:-1 154:-1 155:-1 156:-1 157:-1 158:-1 159:-1 160:-1 161:-1 162:-1 163:-1 164:-1 165:-1 166:-1 167:-1 168:-1 169:-1 170:-1 171:-1 172:-1 173:-1 174:-1 175:-1 176:-1 177:-1 178:-1 179:-1 180:-1 
-1 1 1 1 1 1:-1 2:-1 3:-1 4:-1 5:-1 6:-1 7:-1 8:-1 9:-1 10:-1 11:-1 12:-1 13:-1 14:-1 15:-1 16:-1 17:-1 18:-1 19:-1 20:-1 21:-1 22:-0.980952 23:-1 24:-1 25:-1 26:-0.904762 27:-1 28:-0.676191 29:-0.866667 30:-0.771429 31:-1 32:-0.980952 33:-1 34:-1 35:-1 36:-0.561904 37:-0.866667 38:1 39:-0.580952 40:-0.847619 41:-1 42:-0.809524 43:-1 44:-1 45:-0.809524 46:-0.676191 47:-0.466667 48:-1 49:-0.52381 50:-0.752382 51:-1 52:-0.161904 53:-1 54:-1 55:-0.0666677 56:-0.809524 57:-0.942857 58:-1 59:-0.847619 60:-0.714285 61:-1 62:-0.390477 63:-1 64:-1 65:-0.904762 66:-0.771429 67:-0.847619 68:-1 69:-0.92381 70:-0.885714 71:-1 72:-0.35238 73:-1 74:-1 75:-0.942857 76:-0.733334 77:-0.752382 78:-1 79:-0.885714 80:-0.942857 81:0.600001 82:-1 83:-1 84:-1 85:-0.885714 86:-0.961905 87:-0.752382 88:-1 89:-0.942857 90:-0.809524 91:-0.409525 92:-1 93:-1 94:-0.961905 95:-0.714285 96:-0.980952 97:-0.771429 98:-1 99:-0.866667 100:-0.790476 101:-0.866667 102:-1 103:-1 104:-0.828571 105:-0.771429 106:-0.942857 107:-0.866667 108:-1 109:-0.828571 110:-0.904762 111:-1 112:-1 113:-0.00952297 114:-0.714285 115:-0.752382 116:-0.333334 117:-0.828571 118:-1 119:-0.714285 120:-0.371428 121:-1 122:-1 123:-0.238095 124:0.390477 125:-0.980952 126:-1 127:-0.580952 128:-1 129:-0.695237 130:-0.885714 131:-1 132:-1 133:-0.466667 134:-0.561904 135:-0.980952 136:-1 137:-1 138:-1 139:-1 140:-1 141:-1 142:-1 143:-0.961905 144:-1 145:-0.942857 146:-1 147:-1 148:-1 149:-1 150:-1 151:-1 152:-1 153:-1 154:-1 155:-0.961905 156:-1 157:-1 158:-1 159:-1 160:-1 161:-1 162:-1 163:-1 164:-1 165:-0.961905 166:-1 167:-1 168:-1 169:-1 170:-1 171:-1 172:-1 173:-1 174:-1 175:-1 176:-1 177:-1 178:-1 179:-1 180:-1 
-1 1 1 1 1 1:-1 2:-1 3:-1 4:-1 5:-1 6:-1 7:-1 8:-1 9:-1 10:-1 11:-1 12:-1 13:-1 14:-1 15:-1 16:-1 17:-1 18:1 19:-1 20:-1 21:-1 22:-0.775281 23:-1 24:-1 25:-0.797753 26:-1 27:-1 28:-0.730337 29:-1 30:-1 31:-1 32:0.033709 33:-1 34:-1 35:-0.932584 36:-0.955056 37:-1 38:-1 39:-0.842697 40:-0.707865 41:-1 42:-0.617977 43:-1 44:-1 45:-0.370786 46:-0.550561 47:-0.955056 48:-1 49:-0.146066 50:-0.685393 51:-1 52:-0.528089 53:-1 54:-1 55:-0.640449 56:-0.707865 57:-0.88764 58:-1 59:-0.955056 60:-0.865169 61:-1 62:-0.842697 63:-1 64:-1 65:-0.820225 66:-0.573033 67:-0.932584 68:-1 69:-0.842697 70:-0.910112 71:-1 72:-1 73:-1 74:-1 75:-0.932584 76:-0.550561 77:-0.955056 78:-1 79:-0.955056 80:-0.977528 81:-1 82:-1 83:-1 84:-1 85:-0.662921 86:-0.730337 87:-0.707865 88:-1 89:-0.955056 90:-0.955056 91:-0.483145 92:-1 93:-1 94:-1 95:-0.88764 96:-0.977528 97:-0.955056 98:-1 99:-0.955056 100:-0.932584 101:0.258426 102:-1 103:-1 104:-1 105:-0.820225 106:-0.910112 107:-0.685393 108:-1 109:-0.977528 110:-0.977528 111:-0.505617 112:-1 113:-1 114:-1 115:-0.955056 116:-0.955056 117:-0.550561 118:-1 119:-0.955056 120:-0.955056 121:-1 122:-1 123:-1 124:-1 125:-0.910112 126:-0.842697 127:-0.752809 128:-1 129:-0.932584 130:-0.910112 131:-1 132:-1 133:-1 134:-0.932584 135:-1 136:-0.977528 137:-0.865169 138:-1 139:-0.955056 140:-0.707865 141:-1 142:-1 143:0.820225 144:0.707865 145:-1 146:-1 147:-0.483145 148:-1 149:-0.910112 150:-0.19101 151:-1 152:-1 153:-0.550561 154:-0.505617 155:-1 156:-1 157:-1 158:-1 159:-0.662921 160:-0.955056 161:-1 162:-1 163:-1 164:-1 165:-1 166:-1 167:-1 168:-1 169:-0.685393 170:-1 171:-1 172:-1 173:-1 174:-1 175:-1 176:-1 177:-1 178:-1 179:-1 180:-1 
-1 1 1 1 1 1:-1 2:-1 3:-1 4:-1 5:-1 6:-1 7:-1 8:-1 9:-0.983333 10:-1 11:-1 12:-1 13:-1 14:-1 15:-1 16:-1 17:0.533334 18:-1 19:-0.733334 20:-1 21:-1 22:-1 23:-1 24:-1 25:-1 26:-1 27:-0.6 28:-1 29:-0.616666 30:-1 31:-1 32:-1 33:-1 34:-1 35:-0.483334 36:-1 37:-0.933333 38:-0.9 39:0 40:-1 41:-1 42:-0.933333 43:-1 44:-1 45:-0.35 46:-1 47:-1 48:0.9 49:-0.933333 50:-1 51:-1 52:0.933334 53:-1 54:-1 55:-0.416666 56:-1 57:-1 58:-1 59:-0.933333 60:-1 61:-1 62:-1 63:-1 64:-1 65:-0.95 66:-1 67:-1 68:-1 69:-0.833333 70:-0.9 71:1 72:-1 73:-1 74:-1 75:-0.966667 76:-1 77:-1 78:-1 79:-0.966667 80:-0.916667 81:-1 82:-1 83:0.5 84:0.6 85:-0.983333 86:-1 87:-1 88:-1 89:-1 90:-0.9 91:-1 92:-1 93:-0.733334 94:-0.733334 95:-0.983333 96:-0.9 97:-1 98:-1 99:-1 100:-0.25 101:-1 102:-1 103:-0.766666 104:-0.866667 105:-0.966667 106:-0.783334 107:-1 108:-1 109:-1 110:-0.4 111:-1 112:-1 113:-1 114:-1 115:-0.95 116:0.683334 117:-1 118:-1 119:-1 120:-0.65 121:-1 122:-1 123:-1 124:-1 125:-0.95 126:-1 127:-1 128:-1 129:-1 130:-0.983333 131:-1 132:-1 133:-1 134:-1 135:-1 136:-1 137:-1 138:-1 139:-1 140:-1 141:-1 142:-1 143:-1 144:-1 145:-1 146:-1 147:-1 148:-1 149:-1 150:-1 151:-1 152:-1 153:-1 154:-1 155:-1 156:-1 157:-1 158:-1 159:-1 160:-1 161:-1 162:-1 163:-1 164:-1 165:-1 166:-1 167:-1 168:-1 169:-1 170:-1 171:-1 172:-1 173:-1 174:-1 175:-1 176:-1 177:-1 178:-1 179:-1 180:-1 
-1 1 1 1 1 1:-1 2:-1 3:-1 4:-1 5:-1 6:-1 7:-1 8:-0.974843 9:-1 10:-1 11:-1 12:-1 13:-1 14:-1 15:-1 16:-1 17:-1 18:0.962264 19:-1 20:-1 21:-1 22:-1 23:-1 24:-1 25:-0.823899 26:-1 27:-1 28:-0.987421 29:-1 30:-1 31:-1 32:-0.031446 33:-1 34:-1 35:0.245284 36:-1 37:-0.245284 38:-1 39:-0.496856 40:-1 41:-1 42:-0.421384 43:-1 44:-1 45:-0.710692 46:-1 47:-0.207548 48:-1 49:-0.144654 50:-1 51:-1 52:-0.849057 53:-1 54:-1 55:-0.886792 56:-1 57:-0.874214 58:-1 59:-0.811321 60:-1 61:-1 62:-0.698114 63:-1 64:-1 65:-0.974843 66:-1 67:-0.974843 68:-1 69:-0.949686 70:-0.949686 71:-1 72:-1 73:-1 74:-1 75:-0.974843 76:-1 77:-0.886792 78:-1 79:-0.937107 80:-0.949686 81:-1 82:-1 83:-1 84:-1 85:-0.987421 86:-1 87:-0.811321 88:-1 89:-0.949686 90:-0.811321 91:1 92:-1 93:-1 94:-1 95:-0.987421 96:-1 97:-1 98:-1 99:-0.849057 100:-0.962264 101:-1 102:-1 103:-1 104:-1 105:-0.974843 106:-0.698114 107:-1 108:-1 109:-0.924528 110:-0.949686 111:-1 112:-1 113:-1 114:-1 115:-0.987421 116:-0.987421 117:-1 118:-1 119:-0.937107 120:-0.91195 121:-1 122:-1 123:-1 124:-1 125:-0.937107 126:-0.974843 127:-1 128:-1 129:-1 130:-0.786164 131:-1 132:-1 133:-0.63522 134:0.207548 135:-1 136:-0.698114 137:-1 138:-1 139:-1 140:0.132076 141:-1 142:-1 143:0.295598 144:-0.207548 145:-1 146:0.27044 147:-1 148:-1 149:-1 150:-0.811321 151:-1 152:-1 153:-0.660378 154:-1 155:-1 156:-0.91195 157:-1 158:-1 159:-1 160:-1 161:-1 162:-1 163:-1 164:-1 165:-1 166:-1 167:-1 168:-1 169:-1 170:-1 171:-1 172:-1 173:-1 174:-1 175:-1 176:-1 177:-1 178:-1 179:-1 180:-1 
-1 -1 1 1 1 1:-1 2:-0.772727 3:-1 4:-1 5:-1 6:-1 7:-0.939394 8:-0.363637 9:-1 10:-1 11:-1 12:-0.848485 13:-1 14:-1 15:-0.984848 16:-1 17:-0.954545 18:-0.621212 19:-0.939394 20:-1 21:-1 22:-0.818182 23:-1 24:-1 25:-0.363637 26:-1 27:-0.969697 28:1 29:-0.742424 30:-1 31:-1 32:-0.772727 33:-1 34:-1 35:-0.469698 36:-1 37:-0.69697 38:-0.969697 39:-0.151514 40:-1 41:-0.984848 42:-0.0909099 43:-1 44:-1 45:-0.742424 46:-1 47:-0.287878 48:-1 49:-0.742424 50:-1 51:-0.969697 52:-0.818182 53:-1 54:-1 55:-0.787879 56:-1 57:-0.909091 58:-1 59:-0.712121 60:-1 61:-0.878788 62:-0.0606046 63:-1 64:-1 65:-0.136363 66:-0.939394 67:-0.909091 68:-1 69:-0.530302 70:-1 71:-0.40909 72:-0.80303 73:-1 74:-1 75:-0.787879 76:-0.818182 77:-0.818182 78:-1 79:-0.469698 80:-0.984848 81:0.409093 82:-0.969697 83:-1 84:-0.939394 85:-0.80303 86:-0.5 87:-0.772727 88:-1 89:-0.80303 90:-0.893939 91:-0.196968 92:-1 93:-1 94:-0.80303 95:-0.969697 96:-0.454547 97:-0.212122 98:-1 99:-0.909091 100:-0.848485 101:-0.939394 102:-1 103:-0.984848 104:-0.272727 105:-0.984848 106:-0.242424 107:-0.636363 108:-1 109:-0.954545 110:0.5 111:-0.984848 112:-1 113:-0.727273 114:-0.712121 115:-0.924242 116:-0.454547 117:-0.893939 118:-1 119:-1 120:-0.181817 121:-1 122:-1 123:0.454547 124:0.18182 125:-1 126:-0.924242 127:-0.954545 128:-1 129:-1 130:-0.69697 131:-1 132:-1 133:-0.757576 134:-0.954545 135:-1 136:-0.939394 137:-1 138:-1 139:-1 140:-0.863636 141:-1 142:-1 143:-0.424241 144:-0.863636 145:-1 146:-0.833333 147:-1 148:-1 149:-1 150:-0.984848 151:-1 152:-1 153:-0.59091 154:-0.848485 155:-1 156:-0.848485 157:-1 158:-1 159:-1 160:-1 161:-1 162:-1 163:-0.924242 164:-0.818182 165:-1 166:-1 167:-1 168:-1 169:-1 170:-1 171:-1 172:-1 173:-1 174:-0.924242 175:-1 176:-1 177:-1 178:-1 179:-1 180:-1 
-1 -1 1 1 1 1:-0.984252 2:-1 3:-1 4:-1 5:-1 6:-1 7:-1 8:-0.874016 9:-1 10:-1 11:-0.937008 12:-1 13:-1 14:-1 15:-1 16:-1 17:-0.984252 18:1 19:-1 20:-1 21:-0.874016 22:-0.984252 23:-1 24:-1 25:-0.874016 26:-1 27:-0.826772 28:-0.669292 29:-0.968504 30:-1 31:-0.937008 32:-0.889764 33:-1 34:-1 35:-0.700787 36:-0.464568 37:0.0551195 38:-0.637794 39:0.385827 40:-1 41:-0.937008 42:0.480316 43:-1 44:-1 45:0.228346 46:-0.937008 47:-0.590551 48:-0.92126 49:-0.464568 50:-1 51:-0.905512 52:-0.795275 53:-1 54:-1 55:-0.92126 56:-1 57:-0.700787 58:-0.937008 59:-0.385827 60:-0.984252 61:-0.637794 62:-0.858268 63:-0.748032 64:-1 65:-0.874016 66:-0.826772 67:-0.889764 68:-0.984252 69:-0.795275 70:-0.937008 71:-0.700787 72:-0.84252 73:-0.952756 74:-0.937008 75:-0.952756 76:-0.858268 77:-0.905512 78:-1 79:-0.937008 80:-0.952756 81:-0.37008 82:-0.874016 83:-1 84:-0.889764 85:-0.968504 86:-0.889764 87:-0.984252 88:-0.984252 89:-1 90:-0.968504 91:-0.700787 92:-1 93:-0.984252 94:-0.952756 95:-0.968504 96:-0.874016 97:-0.952756 98:-1 99:-0.984252 100:-0.779528 101:-0.448817 102:-0.952756 103:-0.92126 104:-0.795275 105:-0.984252 106:-0.84252 107:-0.968504 108:-1 109:-1 110:-0.795275 111:-0.574804 112:-0.763779 113:-0.811024 114:-0.480316 115:-0.952756 116:-0.574804 117:-0.84252 118:-1 119:-0.968504 120:-0.527558 121:-1 122:-0.653545 123:-0.826772 124:-0.68504 125:-0.952756 126:-0.700787 127:-1 128:-1 129:-0.937008 130:-0.826772 131:-1 132:-0.874016 133:-0.795275 134:-0.669292 135:-0.826772 136:-0.889764 137:-1 138:-1 139:-0.952756 140:-0.259844 141:-1 142:-1 143:-0.716536 144:-0.779528 145:-0.68504 146:-0.149605 147:-0.543306 148:-1 149:-1 150:-0.0551194 151:-1 152:-1 153:-0.338582 154:-0.795275 155:-0.716536 156:-1 157:-0.874016 158:-1 159:-1 160:-0.984252 161:-1 162:-1 163:-0.354332 164:-0.11811 165:-0.874016 166:-1 167:-1 168:-1 169:-1 170:-0.984252 171:-1 172:-1 173:-0.559056 174:-0.905512 175:-0.984252 176:-1 177:-1 178:-1 179:-1 180:-0.952756 
-1 -1 1 1 1 1:-1 2:-0.960784 3:-1 4:-1 5:-1 6:-1 7:-1 8:-0.843138 9:-0.921569 10:-1 11:-1 12:-0.921569 13:-1 14:-1 15:-0.921569 16:-0.882353 17:1 18:-0.607843 19:0.176468 20:-1 21:-1 22:-0.647059 23:-1 24:-1 25:-0.372549 26:-0.882353 27:-0.529412 28:0.568625 29:0.411763 30:-0.960784 31:-0.607843 32:-0.411763 33:-1 34:-1 35:-0.372549 36:-0.921569 37:0.176468 38:-0.0588262 39:-0.411763 40:-0.921569 41:0.764705 42:-0.490196 43:-1 44:-1 45:0.294116 46:-0.764706 47:-0.960784 48:0.372549 49:-0.529412 50:-0.960784 51:-0.607843 52:0.0980403 53:-1 54:-1 55:-1 56:-0.803922 57:-0.764706 58:-0.568628 59:-0.803922 60:-1 61:-0.0980403 62:0.411763 63:-1 64:-1 65:-0.882353 66:-0.843138 67:-0.803922 68:-0.764706 69:-0.647059 70:-0.882353 71:0.647058 72:0.0196071 73:0.215688 74:-1 75:-0.72549 76:-0.843138 77:-0.843138 78:-1 79:-0.72549 80:-0.843138 81:-1 82:-1 83:-0.254902 84:-0.882353 85:-0.215688 86:-0.72549 87:-0.843138 88:-1 89:-0.72549 90:-0.882353 91:-1 92:-1 93:-0.803922 94:-0.803922 95:-0.294116 96:-0.882353 97:-0.764706 98:-1 99:-0.960784 100:-0.686275 101:-1 102:-1 103:-0.647059 104:-0.921569 105:-0.686275 106:0.137254 107:-0.803922 108:-1 109:-1 110:-0.294116 111:-1 112:-1 113:-0.137254 114:0.294116 115:-0.72549 116:0.529411 117:-0.764706 118:-1 119:-0.960784 120:-0.450982 121:-1 122:-1 123:-0.333335 124:-0.490196 125:-1 126:-0.0196071 127:-1 128:-1 129:-0.960784 130:0.294116 131:-1 132:-1 133:0.0588211 134:-0.137254 135:-1 136:-1 137:-1 138:-1 139:-1 140:-0.0980403 141:-1 142:-1 143:-1 144:0.0980403 145:-1 146:-1 147:-1 148:-1 149:-0.882353 150:-0.411763 151:-1 152:-1 153:-1 154:-0.0980403 155:-1 156:-1 157:-1 158:-1 159:-0.960784 160:-0.921569 161:-1 162:-1 163:-1 164:-0.960784 165:-1 166:-1 167:-1 168:-1 169:-1 170:-0.882353 171:-1 172:-1 173:-1 174:-1 175:-1 176:-1 177:-1 178:-1 179:-1 180:-1 
-1 -1 1 1 1 1:-0.901639 2:-0.934426 3:-1 4:-1 5:-1 6:-1 7:-0.967213 8:-0.901639 9:-0.508197 10:-1 11:-0.540983 12:-0.606557 13:-1 14:-0.639344 15:-0.901639 16:-1 17:-0.934426 18:-0.0491779 19:-0.672131 20:-1 21:-0.934426 22:-0.639344 23:-1 24:0.0163964 25:-0.868852 26:-1 27:0.409837 28:0.0163964 29:-0.278688 30:-0.114752 31:-0.868852 32:-0.409837 33:-1 34:-0.442623 35:-0.737705 36:-1 37:1 38:-0.278688 39:-0.704918 40:0.37705 41:-0.57377 42:0.0819651 43:-1 44:-0.639344 45:-0.508197 46:-1 47:-0.475409 48:-0.803279 49:-0.344262 50:-0.57377 51:-0.540983 52:-0.409837 53:-1 54:-0.704918 55:0.639347 56:-0.967213 57:-0.803279 58:-0.836065 59:-0.737705 60:-0.836065 61:-0.147539 62:-0.37705 63:-1 64:-0.737705 65:-0.0491779 66:-0.868852 67:-0.57377 68:-0.901639 69:-0.311475 70:-0.704918 71:-0.508197 72:-0.147539 73:-1 74:-0.803279 75:-0.311475 76:-0.934426 77:-0.540983 78:-0.967213 79:-0.475409 80:-0.737705 81:0.0819651 82:-0.409837 83:-0.934426 84:-0.836065 85:-0.639344 86:-0.868852 87:-0.803279 88:-0.901639 89:-0.672131 90:-0.540983 91:0.508198 92:-0.672131 93:-0.770492 94:-1 95:-0.147539 96:-0.737705 97:-0.868852 98:-0.934426 99:-0.672131 100:-0.868852 101:-0.967213 102:-0.967213 103:-0.540983 104:-0.836065 105:-0.868852 106:-0.114752 107:-0.901639 108:-1 109:-0.704918 110:-0.868852 111:-0.967213 112:-0.934426 113:-0.475409 114:-0.606557 115:-1 116:-0.278688 117:-0.901639 118:-0.868852 119:-0.672131 120:-0.934426 121:-1 122:-1 123:-0.114752 124:0.147539 125:-0.967213 126:-0.672131 127:-1 128:-1 129:-0.901639 130:0.0163964 131:-1 132:-0.967213 133:0.147539 134:-0.409837 135:-1 136:-0.180327 137:-1 138:-0.934426 139:-0.737705 140:-0.57377 141:-1 142:-1 143:-0.442623 144:-0.901639 145:-1 146:0.213114 147:-1 148:-0.967213 149:-0.967213 150:-1 151:-1 152:-0.967213 153:-0.737705 154:-0.967213 155:-1 156:-0.508197 157:-1 158:-0.475409 159:-1 160:-1 161:-1 162:-1 163:-0.57377 164:-1 165:-1 166:-0.442623 167:-1 168:-0.147539 169:-1 170:-1 171:-1 172:-1 173:0.0819651 174:-1 175:-1 176:-1 177:-1 178:-0.409837 179:-1 180:-1 
-1 -1 1 1 1 1:-1 2:-0.915493 3:-1 4:-1 5:-1 6:-1 7:-1 8:0.43662 9:-1 10:-1 11:-1 12:-0.915493 13:-1 14:-1 15:-1 16:-1 17:-0.943662 18:0.380281 19:-1 20:-1 21:-0.943662 22:-0.408453 23:-1 24:-1 25:-1 26:-1 27:-0.774648 28:-0.21127 29:-1 30:-1 31:-0.943662 32:-0.154932 33:-1 34:-1 35:-0.943662 36:-1 37:-0.323943 38:-0.549297 39:-1 40:-0.492958 41:-0.352114 42:0.183099 43:-0.943662 44:-1 45:0.43662 46:-1 47:-0.380281 48:-1 49:-0.323943 50:-0.0140836 51:1 52:-0.070422 53:-0.915493 54:-1 55:0.239437 56:-1 57:-0.295776 58:-1 59:-0.915493 60:-0.492958 61:0.295772 62:-0.661972 63:-0.577464 64:-1 65:-0.295776 66:-1 67:-0.408453 68:-1 69:-0.577464 70:-0.971831 71:-1 72:-1 73:-0.943662 74:-0.915493 75:-0.605634 76:-1 77:-0.267604 78:-1 79:-0.577464 80:-1 81:-1 82:-1 83:-0.971831 84:-0.549297 85:-0.915493 86:-0.943662 87:-0.549297 88:-1 89:-0.830986 90:-1 91:-1 92:-1 93:-0.943662 94:-0.464791 95:-0.859155 96:-0.239437 97:-1 98:-1 99:-0.943662 100:-0.408453 101:-1 102:-1 103:-0.71831 104:-0.408453 105:-1 106:-0.0422548 107:-1 108:-1 109:-0.971831 110:-0.549297 111:-1 112:-1 113:-0.943662 114:-0.380281 115:-1 116:-0.183099 117:-1 118:-1 119:-0.802817 120:-0.690141 121:-1 122:-1 123:-0.71831 124:-0.380281 125:-1 126:-0.464791 127:-1 128:-1 129:-0.464791 130:-0.971831 131:-1 132:-1 133:0.211266 134:0.0985892 135:-1 136:-0.295776 137:-1 138:-1 139:-0.239437 140:-0.71831 141:-1 142:-1 143:-0.352114 144:-0.943662 145:-1 146:-0.774648 147:-1 148:-1 149:-0.549297 150:-0.633803 151:-1 152:-1 153:-0.661972 154:-1 155:-1 156:-1 157:-1 158:-1 159:-0.746479 160:-1 161:-1 162:-1 163:-0.887324 164:-1 165:-1 166:-1 167:-1 168:-1 169:-1 170:-1 171:-1 172:-1 173:-0.577464 174:-1 175:-1 176:-1 177:-1 178:-1 179:-1 180:-1 
-1 -1 1 1 1 1:-0.942029 2:-1 3:-1 4:-1 5:-1 6:-1 7:-1 8:-0.130435 9:-1 10:-1 11:-0.855072 12:-0.942029 13:-1 14:-1 15:-1 16:-1 17:-1 18:0.76812 19:-1 20:-1 21:-0.73913 22:-0.536232 23:-1 24:-1 25:-0.913044 26:-1 27:-1 28:-0.188407 29:-1 30:-0.942029 31:-0.768116 32:0.652177 33:-1 34:-1 35:0.0144929 36:-1 37:-0.594202 38:0.0434785 39:-0.913044 40:-0.826087 41:-0.855072 42:0.652177 43:-1 44:-1 45:-0.275364 46:-0.942029 47:0.536235 48:-0.623188 49:0.217392 50:0.159421 51:-0.710144 52:-0.507246 53:-0.971014 54:-1 55:-0.565217 56:-0.855072 57:-0.275364 58:-0.855072 59:-0.420287 60:-0.507246 61:-0.478258 62:-0.449273 63:-0.884058 64:-1 65:0.0144929 66:-0.884058 67:-0.594202 68:-0.942029 69:-0.652174 70:-0.855072 71:-0.0724642 72:-0.768116 73:-0.826087 74:-0.768116 75:-0.623188 76:-0.855072 77:-0.246378 78:-0.942029 79:-0.681159 80:-0.884058 81:0.56522 82:-0.942029 83:-0.710144 84:-0.913044 85:-0.565217 86:-0.826087 87:-0.449273 88:-0.971014 89:-0.594202 90:-0.942029 91:-0.130435 92:-1 93:-0.826087 94:-0.710144 95:-0.420287 96:-0.449273 97:-0.681159 98:-1 99:0.333335 100:-0.217392 101:-0.855072 102:-1 103:-0.884058 104:-0.507246 105:-0.797101 106:0.217392 107:-0.884058 108:-1 109:-0.594202 110:-0.681159 111:-1 112:-1 113:-0.710144 114:0.159421 115:-0.73913 116:-0.159421 117:-0.826087 118:-1 119:-0.681159 120:-0.507246 121:-1 122:-1 123:1 124:-0.10145 125:-0.971014 126:-0.333335 127:-1 128:-1 129:-0.855072 130:-0.623188 131:-1 132:-1 133:-0.0144929 134:0.362321 135:-1 136:0.188407 137:-0.942029 138:-1 139:-1 140:-0.0724642 141:-1 142:-1 143:-0.507246 144:-0.594202 145:-1 146:-0.971014 147:-0.884058 148:-1 149:-1 150:-0.942029 151:-1 152:-1 153:-0.594202 154:-0.826087 155:-1 156:-1 157:-1 158:-1 159:-1 160:-1 161:-1 162:-1 163:-0.942029 164:-0.971014 165:-1 166:-0.971014 167:-1 168:-1 169:-1 170:-1 171:-1 172:-1 173:-0.971014 174:-0.971014 175:-1 176:-1 177:-1 178:-1 179:-1 180:-1 
-1 -1 1 1 1 1:-1 2:-1 3:-1 4:-1 5:-0.756757 6:-1 7:-1 8:-1 9:-0.972973 10:-1 11:-1 12:-1 13:-1 14:-1 15:-0.972973 16:-1 17:-0.972973 18:-1 19:-0.891892 20:-1 21:-1 22:-1 23:-1 24:-0.972973 25:-0.918919 26:-1 27:-0.135135 28:1 29:-0.351353 30:-1 31:-0.405406 32:-0.405406 33:-1 34:-0.945946 35:-0.864865 36:-1 37:-0.648649 38:-0.0540532 39:-0.486488 40:-1 41:-0.378377 42:0.0810821 43:-0.864865 44:-0.810811 45:-0.486488 46:-0.567568 47:-0.702703 48:-0.783784 49:-0.864865 50:-1 51:0.0270241 52:-0.540541 53:-0.513512 54:-0.945946 55:-0.594595 56:-0.108106 57:-0.594595 58:-0.972973 59:-0.621622 60:-0.972973 61:-0.216217 62:-0.0810822 63:-0.324324 64:-0.486488 65:-0.189188 66:-0.675676 67:-0.918919 68:-0.918919 69:-0.486488 70:-0.324324 71:-0.405406 72:0.243242 73:-0.567568 74:-0.702703 75:-0.0540532 76:-0.270271 77:-0.702703 78:-0.702703 79:-0.243242 80:-0.621622 81:0.216217 82:-0.648649 83:-0.2973 84:-0.378377 85:-0.864865 86:-0.459459 87:-0.783784 88:-0.702703 89:-0.621622 90:-0.2973 91:-1 92:-0.810811 93:-0.756757 94:-0.432435 95:-0.0810822 96:-0.783784 97:-0.513512 98:-0.810811 99:-0.378377 100:-0.432435 101:-1 102:-1 103:-0.162164 104:0.27027 105:-0.513512 106:-0.918919 107:0.0270241 108:-0.864865 109:-0.594595 110:-0.162164 111:-1 112:-1 113:-0.189188 114:-0.621622 115:-0.864865 116:-0.837838 117:-0.459459 118:-0.891892 119:-0.675676 120:-0.324324 121:-1 122:-1 123:-0.486488 124:-0.810811 125:-1 126:0.297295 127:-0.756757 128:-0.837838 129:-0.972973 130:-0.324324 131:-1 132:-1 133:-1 134:-0.918919 135:-1 136:-0.837838 137:-1 138:-0.72973 139:-1 140:-0.783784 141:-1 142:-1 143:-1 144:-0.837838 145:-1 146:-1 147:-1 148:-0.891892 149:-1 150:-0.972973 151:-1 152:-1 153:-1 154:-0.675676 155:-1 156:-1 157:-1 158:-1 159:-1 160:-0.945946 161:-1 162:-1 163:-1 164:-0.891892 165:-1 166:-1 167:-1 168:-1 169:-1 170:-1 171:-1 172:-1 173:-1 174:-1 175:-1 176:-1 177:-1 178:-1 179:-1 180:-1 
-1 -1 1 1 1 1:-0.735294 2:-0.911765 3:-1 4:-1 5:-0.970588 6:-1 7:-1 8:-1 9:-1 10:-1 11:-0.205882 12:-0.558824 13:-1 14:-1 15:-0.794117 16:-1 17:-1 18:0.264707 19:-1 20:-1 21:-0.382351 22:-0.588235 23:-1 24:-1 25:-0.647059 26:-0.794117 27:-0.911765 28:0.588236 29:-0.970588 30:-0.882353 31:-0.794117 32:0.558827 33:-1 34:-1 35:-0.794117 36:-0.5 37:-0.205882 38:-0.882353 39:0.294117 40:-0.558824 41:-0.67647 42:-0.67647 43:-1 44:-1 45:0.85294 46:-0.647059 47:0.0588222 48:-0.941176 49:0.0294126 50:-0.823529 51:-0.911765 52:-0.411764 53:-1 54:-1 55:0.441176 56:-0.235291 57:-0.470588 58:-0.67647 59:-0.411764 60:-0.5 61:-0.911765 62:-0.470588 63:-1 64:-1 65:-0.0588221 66:-0.294117 67:-0.147057 68:-0.705882 69:-0.323532 70:-0.764706 71:-0.411764 72:-0.5 73:-0.823529 74:-0.852941 75:-0.735294 76:-0.588235 77:0.117647 78:-0.823529 79:-0.352942 80:-0.235291 81:3.09944e-06 82:-0.705882 83:-0.647059 84:-0.823529 85:-0.705882 86:-0.470588 87:-0.294117 88:-0.529412 89:-0.764706 90:-0.0882377 91:0.529411 92:-0.529412 93:-0.5 94:-0.294117 95:-0.764706 96:-0.764706 97:-0.411764 98:-0.647059 99:-0.823529 100:-0.558824 101:-0.441176 102:-0.558824 103:-0.205882 104:-0.558824 105:-0.852941 106:-0.647059 107:-0.911765 108:-0.176472 109:-0.823529 110:-0.794117 111:-1 112:-0.911765 113:0.294117 114:-0.382351 115:-0.941176 116:-0.794117 117:-0.823529 118:-0.470588 119:-0.470588 120:-0.67647 121:-1 122:-0.735294 123:-0.264707 124:-0.205882 125:-0.970588 126:-0.794117 127:-0.970588 128:-0.941176 129:-0.5 130:-0.647059 131:-1 132:-0.941176 133:0.294117 134:1 135:-1 136:-0.411764 137:-1 138:-1 139:-0.882353 140:-0.5 141:-1 142:-1 143:-0.235291 144:-0.176472 145:-1 146:-0.205882 147:-0.970588 148:-1 149:-0.941176 150:0.0588222 151:-1 152:-1 153:-0.911765 154:-0.647059 155:-1 156:-0.911765 157:-1 158:-1 159:-1 160:-0.970588 161:-1 162:-1 163:-0.941176 164:-1 165:-1 166:-0.911765 167:-1 168:-1 169:-1 170:-1 171:-1 172:-1 173:-1 174:-1 175:-1 176:-0.970588 177:-1 178:-1 179:-1 180:-1 
-1 -1 1 1 1 1:-1 2:-0.549296 3:-1 4:-1 5:-0.887324 6:-1 7:-0.830986 8:0.239437 9:-0.323943 10:-1 11:-0.915493 12:-0.746479 13:-1 14:-1 15:-0.380282 16:-1 17:-0.690141 18:0.323943 19:1 20:-1 21:-0.887324 22:-0.295776 23:-1 24:-1 25:-0.014086 26:-1 27:0.492954 28:0.859155 29:-0.070425 30:-1 31:-0.690141 32:0.830983 33:-1 34:-1 35:-0.21127 36:-1 37:-0.436621 38:-0.295776 39:-0.549296 40:-1 41:-0.605634 42:-0.408449 43:-1 44:-1 45:-0.605634 46:-0.830986 47:-0.549296 48:-0.971831 49:-0.690141 50:-1 51:-0.915493 52:-0.661972 53:-1 54:-1 55:0.323943 56:-0.915493 57:-0.661972 58:-0.943662 59:-0.633803 60:-1 61:-0.014086 62:-0.802817 63:-1 64:-1 65:-0.830986 66:-1 67:-0.71831 68:-1 69:-0.746479 70:-1 71:0.436621 72:-0.915493 73:-1 74:-1 75:-0.802817 76:-0.746479 77:-0.690141 78:-1 79:-0.971831 80:-1 81:0.549293 82:-0.971831 83:-1 84:-0.887324 85:-0.774648 86:-0.830986 87:-0.690141 88:-1 89:-0.830986 90:-1 91:-0.746479 92:-0.971831 93:-0.859155 94:-0.971831 95:-0.746479 96:-0.549296 97:-0.915493 98:-1 99:-0.971831 100:-0.943662 101:-1 102:-1 103:-0.464787 104:-0.774648 105:-0.915493 106:-0.464787 107:-0.915493 108:-1 109:-1 110:-0.633803 111:-1 112:-1 113:0.183098 114:-0.014086 115:-0.943662 116:-0.464787 117:-0.380282 118:-1 119:-1 120:-0.464787 121:-1 122:-0.774648 123:0.436621 124:-0.21127 125:-1 126:-0.690141 127:-0.887324 128:-1 129:-1 130:0.492954 131:-1 132:-0.605634 133:-0.521127 134:0.014086 135:-1 136:-0.492958 137:-1 138:-1 139:-1 140:-0.408449 141:-1 142:-0.915493 143:-0.323943 144:0.436621 145:-1 146:0.239437 147:-0.915493 148:-1 149:-1 150:-0.464787 151:-1 152:-1 153:-0.549296 154:-0.633803 155:-1 156:-0.408449 157:-1 158:-1 159:-1 160:-0.21127 161:-1 162:-1 163:-0.830986 164:-0.830986 165:-1 166:-0.71831 167:-1 168:-1 169:-1 170:-0.21127 171:-1 172:-1 173:-0.859155 174:-0.915493 175:-1 176:-0.915493 177:-1 178:-1 179:-1 180:-0.943662 
-1 -1 1 1 1 1:-1 2:-1 3:-0.926829 4:-1 5:-0.97561 6:-1 7:-0.878049 8:-0.658536 9:-0.951219 10:-0.951219 11:-1 12:-1 13:-0.634146 14:-1 15:-0.390244 16:-1 17:-0.682926 18:1 19:-0.926829 20:-0.853659 21:-1 22:-0.195122 23:-0.878049 24:-1 25:-0.146341 26:-1 27:-0.585365 28:-0.268293 29:-0.853659 30:-0.926829 31:-0.97561 32:0.243902 33:-0.878049 34:-1 35:0.146341 36:-1 37:-0.292683 38:-0.439024 39:-0.634146 40:-0.926829 41:-0.902439 42:0.487805 43:-0.878049 44:-1 45:0.170732 46:-1 47:0.658537 48:-0.951219 49:-0.463415 50:-0.829268 51:-0.756097 52:-0.390244 53:-0.902439 54:-1 55:-0.804878 56:-0.951219 57:-0.292683 58:-0.902439 59:-0.121951 60:-0.878049 61:-0.780488 62:-0.780488 63:-0.829268 64:-1 65:-0.951219 66:-0.804878 67:-0.585365 68:-0.804878 69:-0.463415 70:-0.512195 71:-0.341463 72:-0.756097 73:-0.878049 74:-1 75:-0.829268 76:-0.463415 77:-0.780488 78:-0.804878 79:-0.756097 80:-0.780488 81:-0.268293 82:-1 83:-0.853659 84:-1 85:-0.780488 86:-0.341463 87:-1 88:-0.829268 89:-0.829268 90:-0.804878 91:0.878049 92:-1 93:-0.97561 94:-0.97561 95:-0.878049 96:-0.487805 97:-1 98:-0.853659 99:-0.682926 100:-0.707317 101:-0.853659 102:-1 103:-0.951219 104:-0.853659 105:-0.97561 106:-0.536585 107:-0.97561 108:-0.926829 109:-0.804878 110:-0.731707 111:-0.390244 112:-1 113:-0.756097 114:-0.585365 115:-0.97561 116:-0.707317 117:-0.97561 118:-0.951219 119:-0.780488 120:-0.731707 121:-1 122:-1 123:-0.853659 124:-0.170732 125:-1 126:-0.926829 127:-1 128:-1 129:-0.878049 130:-0.243902 131:-1 132:-1 133:-0.219512 134:-0.170732 135:-1 136:-0.0487805 137:-1 138:-1 139:-0.609756 140:-0.268293 141:-1 142:-1 143:0.634146 144:1 145:-1 146:-0.121951 147:-1 148:-1 149:-0.829268 150:-0.536585 151:-1 152:-1 153:-0.951219 154:-0.634146 155:-1 156:-1 157:-1 158:-1 159:-0.804878 160:-0.878049 161:-1 162:-1 163:-0.951219 164:-1 165:-1 166:-1 167:-1 168:-1 169:-1 170:-0.829268 171:-1 172:-1 173:-0.707317 174:-1 175:-1 176:-1 177:-1 178:-1 179:-1 180:-1 
-1 -1 1 1 1 1:-1 2:-0.911111 3:-1 4:-1 5:-1 6:-1 7:-1 8:-0.755555 9:-0.933333 10:-1 11:-1 12:-0.977778 13:-1 14:-1 15:-0.977778 16:-1 17:-1 18:-0.422223 19:-0.866667 20:-1 21:-0.911111 22:-0.8 23:-1 24:-0.911111 25:-0.866667 26:-1 27:-0.488888 28:-0.133331 29:-0.244442 30:-1 31:-0.488888 32:-0.955555 33:-1 34:-0.866667 35:-0.733333 36:-0.977778 37:-0.733333 38:-0.244442 39:0.422223 40:-1 41:0.133335 42:-0.577777 43:-1 44:-0.511112 45:-0.355554 46:-0.777778 47:-0.911111 48:-0.755555 49:-0.622222 50:-1 51:-0.466665 52:1 53:-1 54:0.2 55:-0.133331 56:0.111112 57:-0.933333 58:-0.466665 59:-0.844444 60:-1 61:-0.377777 62:-0.266665 63:-0.933333 64:-0.755555 65:-0.466665 66:-0.0666653 67:-0.888889 68:-0.311112 69:-0.844444 70:-1 71:0.0666695 72:-0.733333 73:-0.977778 74:-0.933333 75:-0.577777 76:-0.777778 77:-0.555554 78:-0.822222 79:-0.666667 80:-1 81:-0.888889 82:-0.688888 83:-0.933333 84:-0.977778 85:-0.777778 86:-0.866667 87:-0.844444 88:-1 89:-0.733333 90:-1 91:-0.977778 92:-1 93:-0.666667 94:-0.955555 95:-0.8 96:-0.777778 97:-0.511112 98:-1 99:-0.711111 100:-1 101:-1 102:-1 103:-0.177777 104:0.111112 105:-0.422223 106:-0.8 107:0 108:-1 109:-0.888889 110:-0.955555 111:-1 112:-1 113:0.377781 114:-0.622222 115:-0.822222 116:-0.111112 117:-0.0666653 118:-1 119:-0.977778 120:0.177777 121:-1 122:-1 123:-0.222223 124:-0.822222 125:-0.977778 126:-0.911111 127:-0.977778 128:-1 129:-1 130:-0.311112 131:-1 132:-1 133:-0.688888 134:-0.933333 135:-1 136:-0.977778 137:-1 138:-1 139:-1 140:0.244446 141:-1 142:-1 143:-0.911111 144:-0.933333 145:-1 146:-0.977778 147:-1 148:-1 149:-1 150:-0.444442 151:-1 152:-1 153:-0.888889 154:-1 155:-1 156:-1 157:-1 158:-1 159:-1 160:-0.644444 161:-1 162:-1 163:-0.911111 164:-1 165:-1 166:-1 167:-1 168:-1 169:-1 170:-0.977778 171:-1 172:-1 173:-0.977778 174:-1 175:-1 176:-1 177:-1 178:-1 179:-1 180:-1 
-1 -1 1 1 1 1:-0.863014 2:-1 3:-1 4:-1 5:-0.972603 6:-1 7:-1 8:-0.534247 9:-0.945206 10:-1 11:-0.671233 12:-1 13:-1 14:-1 15:-0.890411 16:-1 17:-1 18:0.945205 19:-0.315067 20:-0.945206 21:-0.671233 22:-0.972603 23:-1 24:-1 25:-0.397261 26:-1 27:-1 28:0.534245 29:-0.534247 30:-0.890411 31:-0.671233 32:0.0136999 33:-1 34:-1 35:1 36:-1 37:-0.589041 38:-0.315067 39:0.835617 40:-0.863014 41:-0.753424 42:-0.452055 43:-1 44:-1 45:0.0958891 46:-0.945206 47:0.671233 48:-0.863014 49:-0.123289 50:-0.808219 51:-0.589041 52:-0.342467 53:-1 54:-1 55:-0.69863 56:-0.890411 57:-0.780822 58:-0.917808 59:-0.561644 60:-0.835617 61:-0.780822 62:-0.561644 63:-0.616438 64:-0.808219 65:-0.69863 66:-0.780822 67:-0.671233 68:-0.917808 69:-0.69863 70:-0.780822 71:-0.397261 72:-0.506849 73:-0.534247 74:-0.890411 75:-0.726027 76:-0.69863 77:-0.69863 78:-1 79:-0.863014 80:-0.534247 81:-0.205478 82:-0.561644 83:-0.616438 84:-0.47945 85:-0.917808 86:-0.643836 87:-0.726027 88:-0.972603 89:-0.890411 90:-0.589041 91:0.50685 92:-0.561644 93:-0.534247 94:-0.671233 95:-0.917808 96:-0.534247 97:-0.534247 98:-0.972603 99:-0.972603 100:-0.452055 101:-1 102:-0.561644 103:-0.589041 104:-0.287672 105:-0.917808 106:-0.671233 107:-0.287672 108:-1 109:-1 110:-0.726027 111:-0.917808 112:-0.753424 113:-0.643836 114:-0.369861 115:-1 116:-0.205478 117:-0.69863 118:-1 119:-1 120:-0.726027 121:-1 122:-0.808219 123:-0.643836 124:-0.260272 125:-0.972603 126:-0.780822 127:-0.917808 128:-1 129:-0.972603 130:-0.616438 131:-1 132:-0.972603 133:0.726028 134:0.726028 135:-1 136:-0.232878 137:-0.863014 138:-1 139:-0.972603 140:-0.178083 141:-1 142:-0.972603 143:-0.890411 144:-1 145:-1 146:0.123289 147:-0.972603 148:-1 149:-1 150:-0.0684943 151:-1 152:-1 153:-0.863014 154:-0.972603 155:-1 156:-0.835617 157:-0.972603 158:-1 159:-1 160:-1 161:-1 162:-1 163:-0.945206 164:-1 165:-1 166:-0.972603 167:-0.972603 168:-1 169:-1 170:-1 171:-1 172:-1 173:-0.863014 174:-1 175:-1 176:-0.945206 177:-1 178:-1 179:-1 180:-1 
-1 -1 -1 1 1 1:-1 2:-0.971223 3:-1 4:-1 5:-1 6:-0.942446 7:-1 8:-0.827338 9:-1 10:-1 11:-1 12:-0.956834 13:-1 14:-1 15:-1 16:-0.89928 17:-1 18:0.654677 19:-1 20:-1 21:-1 22:-0.956834 23:-1 24:-1 25:-0.827338 26:-0.956834 27:-0.942446 28:0.553955 29:-0.971223 30:-1 31:-1 32:-0.697842 33:-1 34:-1 35:-0.769784 36:-0.942446 37:-0.568344 38:-0.726619 39:-0.165467 40:-1 41:-1 42:-0.179856 43:-1 44:-1 45:-0.438849 46:-0.985611 47:-0.266185 48:-0.956834 49:-0.237409 50:-1 51:-0.985611 52:-0.0359727 53:-1 54:-1 55:-0.00719601 56:-0.971223 57:-0.381296 58:-1 59:-0.294966 60:-1 61:-1 62:-0.323742 63:-1 64:-1 65:0.151079 66:-1 67:-0.453237 68:-1 69:-0.453237 70:-0.942446 71:-0.6259 72:-0.467625 73:-0.985611 74:-0.985611 75:-0.597124 76:-1 77:-0.553955 78:-1 79:-0.467625 80:-0.89928 81:-0.136691 82:-0.769784 83:-0.913669 84:-0.971223 85:-0.812949 86:-0.654676 87:-0.683453 88:-1 89:-0.942446 90:-0.956834 91:-0.669065 92:-0.942446 93:-0.971223 94:-0.971223 95:-1 96:-0.769784 97:-0.784173 98:-1 99:-0.870503 100:-0.798561 101:0.395684 102:-1 103:-1 104:-0.985611 105:-1 106:-0.669065 107:-0.971223 108:-1 109:-0.89928 110:-0.553955 111:-0.352519 112:-1 113:-0.928057 114:-0.971223 115:-1 116:-0.654676 117:-1 118:-1 119:-1 120:-0.553955 121:-0.928057 122:-1 123:-0.956834 124:-0.942446 125:-1 126:-0.6259 127:-1 128:-1 129:-1 130:-0.597124 131:-1 132:-1 133:-0.928057 134:-0.582736 135:-1 136:-0.496402 137:-0.985611 138:-1 139:-1 140:0.136691 141:-1 142:-1 143:-0.741007 144:-0.582736 145:-1 146:-0.0215843 147:-0.956834 148:-1 149:-1 150:-0.151079 151:-1 152:-1 153:1 154:0.194244 155:-1 156:-0.741007 157:-0.942446 158:-1 159:-1 160:-0.985611 161:-1 162:-1 163:-0.151079 164:0.151079 165:-1 166:-0.971223 167:-0.89928 168:-1 169:-1 170:-1 171:-1 172:-1 173:-0.726619 174:-0.654676 175:-1 176:-1 177:-0.913669 178:-1 179:-1 180:-1 
-1 -1 -1 1 1 1:-1 2:-1 3:-1 4:-1 5:-1 6:-1 7:-0.887755 8:-0.826531 9:-0.908163 10:-1 11:-1 12:-1 13:-1 14:-0.989796 15:-1 16:-1 17:-0.734694 18:-0.520408 19:-0.622448 20:-1 21:-1 22:-1 23:-1 24:-0.887755 25:-1 26:-1 27:-0.795918 28:-0.561224 29:-0.459184 30:-1 31:-1 32:-1 33:-0.938776 34:-0.887755 35:-1 36:-1 37:-0.693876 38:-0.367346 39:-0.551019 40:-1 41:-1 42:-0.877551 43:-0.581634 44:-0.918367 45:-0.877551 46:-1 47:-0.622448 48:-0.734694 49:-0.704081 50:-1 51:-1 52:-0.489796 53:-0.377551 54:-0.836735 55:-0.663265 56:-1 57:-0.785714 58:-0.806122 59:-0.795918 60:-1 61:-1 62:-0.336734 63:-0.428572 64:-0.428572 65:0.0918368 66:-1 67:-0.591836 68:-0.887755 69:-0.744898 70:-1 71:-1 72:-0.15306 73:-0.683674 74:-0.428572 75:-0.15306 76:-0.979592 77:-0.581634 78:-0.704081 79:-0.785714 80:-0.959184 81:-0.438774 82:-0.418367 83:-0.877551 84:-0.551019 85:-0.72449 86:-0.77551 87:-0.561224 88:-0.836735 89:-0.846939 90:-0.897959 91:1 92:-0.857143 93:-0.632653 94:-0.765306 95:-0.887755 96:-0.744898 97:-0.928572 98:-0.928572 99:-0.867347 100:-0.836735 101:-0.693876 102:-1 103:-0.94898 104:-0.530612 105:-0.94898 106:-0.77551 107:-0.969388 108:-0.969388 109:-0.877551 110:-0.653063 111:-1 112:-1 113:-0.989796 114:-0.938776 115:-0.969388 116:-0.704081 117:-0.979592 118:-0.989796 119:-0.969388 120:-0.663265 121:-1 122:-1 123:-0.877551 124:-1 125:-1 126:-0.183672 127:-1 128:-1 129:-1 130:-0.704081 131:-1 132:-1 133:-0.836735 134:-0.989796 135:-1 136:-0.734694 137:-1 138:-1 139:-1 140:-0.561224 141:-1 142:-1 143:-0.969388 144:-0.979592 145:-1 146:-0.377551 147:-1 148:-1 149:-1 150:-0.132653 151:-1 152:-1 153:-0.989796 154:-1 155:-1 156:-0.857143 157:-1 158:-1 159:-1 160:-0.72449 161:-1 162:-1 163:-1 164:-1 165:-1 166:-1 167:-1 168:-1 169:-1 170:-1 171:-1 172:-1 173:-1 174:-1 175:-1 176:-1 177:-1 178:-1 179:-1 180:-1 
-1 -1 -1 1 1 1:-1 2:-1 3:-1 4:-1 5:-0.903448 6:-1 7:-1 8:0.213794 9:-1 10:-0.931035 11:-1 12:-0.834483 13:-1 14:-1 15:-0.696552 16:-1 17:-0.958621 18:-0.199999 19:-0.958621 20:-0.972414 21:-1 22:-0.627586 23:-1 24:-1 25:-0.958621 26:-1 27:-0.696552 28:0.117241 29:-0.682759 30:-0.986207 31:-1 32:-0.751724 33:-1 34:-1 35:-0.655172 36:-1 37:-0.310346 38:-0.82069 39:-0.737931 40:-0.875862 41:-0.875862 42:-0.531034 43:-1 44:-1 45:-0.586207 46:-1 47:-0.544828 48:-1 49:-0.544828 50:-1 51:-1 52:-0.213794 53:-1 54:-1 55:-0.393105 56:-1 57:-0.0758615 58:-1 59:-0.558622 60:-1 61:-0.986207 62:-0.117241 63:-0.972414 64:-1 65:-0.710345 66:-1 67:-0.586207 68:-1 69:-0.600001 70:-0.986207 71:1 72:-0.668966 73:-0.986207 74:-1 75:-0.655172 76:-1 77:-0.834483 78:-1 79:-0.544828 80:-0.931035 81:-0.00689703 82:-0.944827 83:-1 84:-1 85:-0.503448 86:-1 87:-0.862069 88:-1 89:-0.682759 90:-0.751724 91:-0.82069 92:-1 93:-0.834483 94:-0.875862 95:-0.627586 96:-0.82069 97:-0.986207 98:-1 99:-0.82069 100:-0.806897 101:-1 102:-1 103:-0.668966 104:-0.517243 105:-1 106:-0.724138 107:-0.917241 108:-1 109:-0.806897 110:-0.834483 111:-1 112:-1 113:-0.255173 114:-0.503448 115:-1 116:-0.572413 117:-0.944827 118:-1 119:-0.986207 120:-0.600001 121:-1 122:-1 123:-0.613792 124:-0.558622 125:-1 126:-0.310346 127:-0.972414 128:-1 129:-0.972414 130:-0.199999 131:-1 132:-1 133:-0.172414 134:0.0758615 135:-1 136:-0.517243 137:-1 138:-1 139:-0.972414 140:-0.434484 141:-1 142:-1 143:-0.462069 144:-0.503448 145:-1 146:-0.268967 147:-1 148:-1 149:-0.972414 150:-0.696552 151:-1 152:-1 153:-0.889655 154:-0.806897 155:-1 156:-0.586207 157:-1 158:-1 159:-0.972414 160:-0.696552 161:-1 162:-1 163:-0.862069 164:-1 165:-1 166:-0.889655 167:-1 168:-1 169:-0.903448 170:-0.986207 171:-1 172:-1 173:-0.972414 174:-1 175:-1 176:-1 177:-1 178:-1 179:-0.972414 180:-1 
-1 -1 -1 1 1 1:-1 2:-0.894737 3:-1 4:-1 5:-0.907895 6:-1 7:-0.960526 8:-0.157894 9:-0.855263 10:-1 11:-1 12:-0.881579 13:-1 14:-1 15:-0.605263 16:-1 17:-0.894737 18:-0.657894 19:-0.723684 20:-1 21:-1 22:-0.842105 23:-1 24:-0.973684 25:-0.815789 26:-1 27:-0.513158 28:-0.907895 29:-0.421051 30:-1 31:-1 32:-0.618421 33:-1 34:-0.973684 35:-0.499998 36:-1 37:-0.0657868 38:-0.921053 39:-0.434211 40:-1 41:-1 42:0.631581 43:-0.986842 44:-0.93421 45:-0.68421 46:-1 47:-0.0263156 48:-0.960526 49:-0.552631 50:-1 51:-1 52:0.39474 53:-0.960526 54:-0.802632 55:-0.421051 56:-0.986842 57:-0.263157 58:-0.657894 59:-0.302632 60:-0.973684 61:-0.894737 62:-0.526313 63:-0.973684 64:-0.789474 65:0.223686 66:-1 67:-0.605263 68:-0.763158 69:-0.763158 70:-0.868421 71:0.0921072 72:-0.657894 73:-0.960526 74:-0.434211 75:-0.118418 76:-0.802632 77:-0.671052 78:-0.605263 79:-0.697368 80:-0.342104 81:1 82:-0.947368 83:-0.986842 84:0.0657916 85:-0.526313 86:-0.868421 87:-0.539473 88:-0.250001 89:-0.631579 90:-0.18421 91:0.144739 92:-0.973684 93:-0.907895 94:-0.328948 95:-0.921053 96:-0.68421 97:-0.789474 98:-0.0131555 99:-0.881579 100:-0.407895 101:-0.618421 102:-0.960526 103:-0.947368 104:-0.421051 105:-1 106:-0.328948 107:-0.986842 108:-0.644737 109:-0.75 110:-0.855263 111:-1 112:-1 113:-0.789474 114:-0.644737 115:-1 116:-0.328948 117:-0.986842 118:-0.947368 119:-0.802632 120:-0.631579 121:-1 122:-1 123:-0.355264 124:-0.815789 125:-1 126:-0.394735 127:-0.973684 128:-0.894737 129:-0.815789 130:-0.723684 131:-1 132:-1 133:0.0263157 134:-0.815789 135:-1 136:-0.407895 137:-1 138:-0.93421 139:-0.960526 140:-0.657894 141:-1 142:-1 143:0.328948 144:-0.828947 145:-1 146:-0.144738 147:-1 148:-0.973684 149:-0.75 150:-0.578947 151:-1 152:-1 153:-0.355264 154:-0.710526 155:-1 156:-0.38158 157:-1 158:-0.986842 159:-0.93421 160:-0.526313 161:-1 162:-1 163:-0.68421 164:-0.868421 165:-1 166:-0.973684 167:-1 168:-1 169:-1 170:-0.618421 171:-1 172:-1 173:-0.723684 174:-1 175:-1 176:-0.973684 177:-1 178:-1 179:-1 180:-0.907895 
-1 -1 -1 1 1 1:-1 2:-1 3:-1 4:-1 5:-1 6:-1 7:-1 8:0.127271 9:-1 10:-1 11:-1 12:-1 13:-1 14:-1 15:-1 16:-1 17:-1 18:0.0909073 19:-1 20:-1 21:-1 22:-0.769697 23:-1 24:-1 25:-0.915152 26:-1 27:-1 28:-0.139395 29:-1 30:-1 31:-1 32:1 33:-1 34:-1 35:0.0909073 36:-1 37:-0.454546 38:-0.818182 39:-0.915152 40:-1 41:-1 42:-0.200001 43:-1 44:-1 45:0.951515 46:-1 47:0.0424225 48:-0.951515 49:0.393937 50:-1 51:-1 52:-0.721212 53:-1 54:-1 55:-0.818182 56:-1 57:-0.127274 58:-1 59:-0.478789 60:-1 61:-1 62:-1 63:-1 64:-1 65:-1 66:-1 67:-0.563637 68:-1 69:-0.321213 70:-1 71:-0.975758 72:-1 73:-1 74:-1 75:-1 76:-1 77:-0.612122 78:-1 79:-0.442425 80:-1 81:0.369695 82:-1 83:-1 84:-0.987879 85:-1 86:-1 87:-0.975758 88:-1 89:-0.927273 90:-1 91:0.551513 92:-1 93:-0.515152 94:-0.648485 95:-1 96:-1 97:-1 98:-1 99:-1 100:-1 101:-0.636364 102:-1 103:-0.69697 104:-0.624243 105:-1 106:-0.915152 107:-1 108:-1 109:-1 110:-0.951515 111:-1 112:-1 113:-0.478789 114:-0.381819 115:-1 116:-0.842425 117:-1 118:-1 119:-1 120:-0.515152 121:-1 122:-1 123:0.236362 124:-0.0666682 125:-1 126:-0.345456 127:-1 128:-1 129:-1 130:0.0909073 131:-1 132:-1 133:-0.515152 134:-0.224244 135:-1 136:-0.115153 137:-1 138:-1 139:-1 140:0.284846 141:-1 142:-1 143:-0.721212 144:-0.793939 145:-1 146:0.503028 147:-1 148:-1 149:-1 150:-0.600001 151:-1 152:-1 153:-1 154:-0.963636 155:-1 156:-0.975758 157:-1 158:-1 159:-1 160:-1 161:-1 162:-1 163:-1 164:-1 165:-1 166:-1 167:-1 168:-1 169:-1 170:-1 171:-1 172:-1 173:-1 174:-1 175:-1 176:-1 177:-1 178:-1 179:-1 180:-1 
-1 -1 -1 1 1 1:-1 2:-1 3:-1 4:-1 5:-1 6:-1 7:-0.931707 8:-0.931707 9:-0.853658 10:-1 11:-1 12:-1 13:-0.970732 14:-0.912195 15:-1 16:-1 17:-0.47317 18:-0.82439 19:-0.453659 20:-1 21:-1 22:-0.980488 23:-0.658537 24:-0.960976 25:-0.892683 26:-1 27:-0.424391 28:-0.521952 29:-0.453659 30:-1 31:-1 32:-0.12195 33:-0.785366 34:-1 35:-0.336585 36:-1 37:-0.629269 38:-0.482927 39:-0.512195 40:-1 41:-1 42:0.131707 43:-0.521952 44:-1 45:0.482927 46:-1 47:-0.834146 48:-0.199999 49:-0.639023 50:-1 51:-0.785366 52:-0.404877 53:-0.873171 54:-0.951219 55:-0.551219 56:-1 57:-0.873171 58:-0.482927 59:-0.590244 60:-1 61:1 62:-0.931707 63:-0.921951 64:-0.697562 65:-0.980488 66:-1 67:-0.902439 68:-0.921951 69:-0.804878 70:-1 71:-0.47317 72:-0.951219 73:-0.756097 74:-0.131707 75:-0.980488 76:-1 77:-0.873171 78:-0.980488 79:-0.990244 80:-1 81:-1 82:-1 83:-0.385366 84:-0.424391 85:-1 86:-1 87:-0.765853 88:-0.941463 89:-0.970732 90:-1 91:-1 92:-1 93:-0.931707 94:-0.756097 95:-1 96:-1 97:-0.882927 98:-0.970732 99:-0.990244 100:-1 101:-1 102:-1 103:-0.921951 104:-0.882927 105:-1 106:-0.560976 107:-0.951219 108:-1 109:-1 110:-1 111:-1 112:-1 113:-0.746341 114:-0.863414 115:-1 116:-0.736585 117:-0.726829 118:-1 119:-1 120:-0.941463 121:-1 122:-1 123:-0.853658 124:-0.746341 125:-1 126:-0.873171 127:-0.990244 128:-1 129:-1 130:-0.756097 131:-1 132:-1 133:-0.970732 134:-0.931707 135:-1 136:-0.356098 137:-1 138:-1 139:-1 140:-0.658537 141:-1 142:-1 143:-0.970732 144:-1 145:-1 146:-0.317074 147:-1 148:-1 149:-1 150:0.190245 151:-1 152:-1 153:-0.990244 154:-1 155:-1 156:-0.64878 157:-1 158:-1 159:-1 160:-0.278049 161:-1 162:-1 163:-1 164:-1 165:-1 166:-0.765853 167:-1 168:-1 169:-1 170:-0.843902 171:-1 172:-1 173:-1 174:-1 175:-1 176:-1 177:-1 178:-1 179:-1 180:-0.970732 
-1 -1 -1 1 1 1:-1 2:-1 3:-1 4:-1 5:-0.952756 6:-0.952756 7:-1 8:-0.433073 9:-1 10:-1 11:-1 12:-1 13:-1 14:-1 15:-0.795276 16:-0.937008 17:-1 18:1 19:-1 20:-1 21:-1 22:-0.68504 23:-1 24:-1 25:-0.68504 26:-0.338585 27:-1 28:-0.0393706 29:-1 30:-0.92126 31:-1 32:-0.559054 33:-1 34:-1 35:-0.307087 36:0.0236201 37:-0.874016 38:-0.889764 39:-0.464566 40:-0.700787 41:-1 42:-0.118112 43:-1 44:-1 45:-0.464566 46:-0.700787 47:-0.590551 48:-0.984252 49:-0.968504 50:-0.0236238 51:-1 52:-0.0708677 53:-1 54:-1 55:-0.480317 56:-0.653543 57:-0.937008 58:-1 59:-0.92126 60:-0.968504 61:-1 62:-0.51181 63:-1 64:-1 65:-0.338585 66:-0.858268 67:-0.984252 68:-1 69:-0.889764 70:-0.984252 71:-0.92126 72:-0.68504 73:-1 74:-1 75:-0.574804 76:-0.952756 77:-0.968504 78:-1 79:-0.779528 80:-0.858268 81:-0.748032 82:-0.779528 83:-1 84:-1 85:-0.748032 86:-0.984252 87:-0.92126 88:-1 89:-0.732283 90:-0.417322 91:-0.259844 92:-0.937008 93:-1 94:-1 95:-1 96:-0.748032 97:-0.874016 98:-1 99:-0.338585 100:-0.51181 101:0.937006 102:-1 103:-0.968504 104:-0.905512 105:-1 106:-0.874016 107:-0.826772 108:-1 109:-0.700787 110:-0.716536 111:-0.354331 112:-1 113:-0.27559 114:-0.401575 115:-1 116:-0.984252 117:-0.889764 118:-1 119:-1 120:-0.858268 121:-1 122:-1 123:0.228346 124:-0.51181 125:-1 126:-0.984252 127:-0.826772 128:-1 129:-0.92126 130:-0.952756 131:-1 132:-1 133:0.118108 134:0.921259 135:-1 136:-0.811024 137:-0.669292 138:-1 139:-0.417322 140:-0.937008 141:-1 142:-1 143:-0.448819 144:-0.52756 145:-1 146:-0.590551 147:-0.00787342 148:-1 149:-0.464566 150:-0.496063 151:-1 152:-1 153:-1 154:-0.92126 155:-1 156:-1 157:-0.244093 158:-1 159:-0.858268 160:-1 161:-1 162:-1 163:-1 164:-1 165:-1 166:-1 167:-0.732283 168:-1 169:-0.92126 170:-1 171:-1 172:-1 173:-1 174:-1 175:-1 176:-1 177:-1 178:-1 179:-0.968504 180:-1 
-1 -1 -1 1 1 1:-1 2:-1 3:-1 4:-0.5 5:-1 6:-1 7:-1 8:-0.68 9:-1 10:-1 11:-1 12:-0.84 13:-0.82 14:0.860001 15:-0.96 16:-1 17:-1 18:-0.52 19:-1 20:-0.98 21:-1 22:-0.16 23:0 24:0.0999979 25:-0.76 26:-1 27:-0.96 28:-0.62 29:-0.88 30:-0.96 31:-1 32:0.32 33:0.520001 34:-0.0200006 35:-0.0800025 36:-0.58 37:-0.92 38:-0.380001 39:-0.7 40:-0.56 41:-1 42:0.439998 43:-0.0200006 44:-0.8 45:0.299999 46:-0.299999 47:-0.92 48:-0.54 49:-0.420003 50:-0.360001 51:-1 52:-0.200001 53:-0.68 54:-0.64 55:0.520001 56:-0.0600019 57:-0.82 58:-0.54 59:-0.400002 60:-0.220002 61:-0.62 62:-0.420003 63:-0.9 64:-0.86 65:-0.0200006 66:-0.18 67:-0.98 68:-0.0999979 69:-0.420003 70:-0.459999 71:1 72:-0.94 73:-0.98 74:-0.88 75:-0.82 76:-0.0999979 77:-0.98 78:-0.0999979 79:-0.54 80:-0.439998 81:-0.0200006 82:-0.92 83:-0.64 84:-0.98 85:-0.92 86:-0.259998 87:-0.82 88:-0.459999 89:-0.259998 90:0.400002 91:0.119998 92:-1 93:-0.400002 94:-1 95:-0.98 96:-0.7 97:-0.72 98:-0.92 99:-0.299999 100:-0.62 101:-0.200001 102:-1 103:-0.8 104:-1 105:-1 106:-0.92 107:-0.439998 108:-0.92 109:-0.7 110:-0.74 111:-1 112:-1 113:-1 114:-1 115:-1 116:-0.98 117:0.139999 118:-0.94 119:-0.8 120:-0.84 121:-1 122:-1 123:-1 124:-1 125:-1 126:-0.92 127:-0.420003 128:-1 129:-0.72 130:-0.94 131:-1 132:-1 133:-1 134:-1 135:-1 136:-0.8 137:-0.0200006 138:-1 139:-0.82 140:-1 141:-1 142:-1 143:-1 144:-1 145:-1 146:-0.92 147:-0.439998 148:-1 149:-0.8 150:-1 151:-1 152:-1 153:-1 154:-1 155:-1 156:-1 157:-0.54 158:-1 159:-0.98 160:-1 161:-1 162:-1 163:-1 164:-1 165:-1 166:-1 167:-0.92 168:-1 169:-0.98 170:-1 171:-1 172:-1 173:-1 174:-1 175:-1 176:-1 177:-0.96 178:-1 179:-1 180:-1 
-1 -1 -1 1 1 1:-1 2:-0.893805 3:-1 4:-1 5:-0.451327 6:-0.929204 7:-1 8:-0.0973414 9:-0.982301 10:-1 11:-1 12:-0.203537 13:-1 14:-1 15:0.0442516 16:-0.982301 17:-1 18:0.911508 19:-0.911505 20:-1 21:-1 22:0.221241 23:-1 24:-1 25:-0.238934 26:-0.964602 27:-0.982301 28:0.734518 29:-0.769911 30:-1 31:-0.982301 32:0.46903 33:-1 34:-1 35:0.132744 36:-0.982301 37:-0.522123 38:-0.150442 39:-0.327432 40:-1 41:-0.964602 42:0.274337 43:-1 44:-1 45:0.150442 46:-0.964602 47:0.00884926 48:-0.876106 49:0.150442 50:-0.911505 51:-0.876106 52:-0.504424 53:-1 54:-1 55:-0.433628 56:-0.929204 57:0.185845 58:-1 59:-0.185839 60:-0.752212 61:-0.840707 62:-0.840707 63:-0.946903 64:-1 65:-0.840707 66:-0.716814 67:0.132744 68:-1 69:-0.398231 70:-0.663717 71:-0.168141 72:-1 73:-0.80531 74:-1 75:-0.911505 76:-0.893805 77:-0.327432 78:-1 79:-0.292035 80:-0.734513 81:1 82:-1 83:-0.929204 84:-0.699115 85:-0.929204 86:-0.876106 87:-0.699115 88:-1 89:-0.681416 90:-0.646017 91:-0.539823 92:-1 93:-0.964602 94:-0.716814 95:-1 96:-0.823009 97:-0.876106 98:-1 99:-0.699115 100:-0.893805 101:-0.469026 102:-1 103:-0.929204 104:-0.823009 105:-1 106:-0.504424 107:-0.716814 108:-1 109:-0.716814 110:-0.292035 111:-0.345131 112:-1 113:-0.59292 114:-0.504424 115:-1 116:-0.203537 117:-0.929204 118:-1 119:-0.840707 120:-0.309734 121:-0.292035 122:-1 123:-0.451327 124:-0.59292 125:-1 126:0.592925 127:-0.982301 128:-1 129:-0.823009 130:0.0265476 131:-1 132:-1 133:0.522126 134:0.769915 135:-1 136:-0.0088492 137:-0.929204 138:-1 139:-1 140:0.0442516 141:-1 142:-1 143:0.946905 144:0.82301 145:-1 146:-0.327432 147:-0.929204 148:-1 149:-1 150:-0.557522 151:-1 152:-1 153:-0.433628 154:-0.769911 155:-1 156:-0.982301 157:-0.946903 158:-1 159:-1 160:-0.840707 161:-1 162:-1 163:-0.893805 164:-0.964602 165:-1 166:-0.982301 167:-1 168:-1 169:-1 170:-0.946903 171:-1 172:-1 173:-1 174:-1 175:-1 176:-1 177:-0.964602 178:-1 179:-1 180:-1 
-0.5056460074390939 -1 -1 1 1 1:-1 2:-0.943925 3:-1 4:-1 5:-1 6:-1 7:-0.719626 8:-0.551402 9:-0.962617 10:-1 11:-1 12:-0.682243 13:-1 14:-1 15:-1 16:-1 17:-0.495327 18:-0.308409 19:-0.869159 20:-1 21:-1 22:0.00934446 23:-1 24:-0.962617 25:-0.869159 26:-1 27:-0.19626 28:0.345793 29:-0.476636 30:-1 31:-1 32:0.738318 33:-1 34:-0.457942 35:0.887851 36:-1 37:-0.0467275 38:0.570091 39:-0.19626 40:-1 41:-1 42:0.495325 43:-1 44:-0.252337 45:0.140188 46:-1 47:0.102805 48:-0.252337 49:-0.0093444 50:-1 51:-1 52:-0.53271 53:-0.981308 54:-0.626168 55:0.102805 56:-1 57:-0.271026 58:-0.663551 59:0.102805 60:-1 61:-0.981308 62:-0.906542 63:-0.887851 64:-0.775701 65:-0.0841106 66:-1 67:-0.383176 68:-0.869159 69:-0.738318 70:-1 71:-0.0280387 72:-0.906542 73:-0.700934 74:-0.663551 75:-0.869159 76:-1 77:-0.75701 78:-0.925234 79:-0.40187 80:-1 81:0.607475 82:-0.962617 83:-0.794393 84:-0.40187 85:-0.962617 86:-1 87:-0.962617 88:-1 89:-0.420559 90:-1 91:1 92:-0.962617 93:-0.943925 94:-0.383176 95:-1 96:-0.887851 97:-0.925234 98:-1 99:-0.794393 100:-1 101:-0.252337 102:-1 103:-1 104:-0.439253 105:-1 106:-0.831776 107:-1 108:-1 109:-0.925234 110:-0.962617 111:-1 112:-1 113:-0.476636 114:0.0654218 115:-1 116:-0.869159 117:-1 118:-1 119:-0.962617 120:-0.570094 121:-1 122:-1 123:0.813084 124:-0.962617 125:-1 126:-0.214954 127:-1 128:-1 129:-1 130:-0.420559 131:-1 132:-1 133:0.532708 134:-0.925234 135:-1 136:0.40187 137:-1 138:-1 139:-1 140:-0.140188 141:-1 142:-1 143:-0.457942 144:-0.962617 145:-1 146:0.00934446 147:-1 148:-1 149:-1 150:0.457942 151:-1 152:-1 153:-0.850468 154:-0.906542 155:-1 156:0.345793 157:-1 158:-1 159:-1 160:0.457942 161:-1 162:-1 163:-0.925234 164:-1 165:-1 166:-0.682243 167:-1 168:-1 169:-1 170:-0.495327 171:-1 172:-1 173:-0.981308 174:-1 175:-1 176:-0.925234 177:-1 178:-1 179:-1 180:-0.981308 
-1 -1 -1 1 1 1:-0.96 2:-0.56 3:-1 4:-1 5:-0.76 6:-1 7:-1 8:-0.04 9:-0.88 10:-1 11:-0.96 12:-0.48 13:-1 14:-1 15:-0.96 16:-0.88 17:-1 18:0.6 19:-0.8 20:-1 21:-1 22:0.52 23:-1 24:-1 25:-0.6 26:-1 27:-0.92 28:0.84 29:-0.84 30:-0.88 31:-1 32:0.44 33:-1 34:-1 35:-0.2 36:-0.92 37:0.12 38:-0.4 39:-0.2 40:-1 41:-0.88 42:-0.44 43:-1 44:-1 45:0.56 46:-1 47:0.6 48:-1 49:-0.28 50:-1 51:-0.92 52:-0.6 53:-1 54:-1 55:-0.04 56:-1 57:-0.16 58:-1 59:-0.2 60:-1 61:-1 62:-1 63:-1 64:-1 65:-0.56 66:-0.92 67:-0.28 68:-1 69:-0.08 70:-0.96 71:-0.88 72:-1 73:-1 74:-1 75:-0.64 76:-0.92 77:-0.88 78:-1 79:-0.08 80:-1 81:-0.64 82:-1 83:-1 84:-0.96 85:-1 86:-0.96 87:-0.8 88:-1 89:-0.68 90:-1 91:-0.04 92:-1 93:-1 94:-0.92 95:-0.96 96:-0.8 97:-0.92 98:-1 99:-1 100:-0.88 101:0.48 102:-1 103:-0.96 104:-0.68 105:-0.96 106:-0.84 107:-1 108:-1 109:-1 110:-0.52 111:0.4 112:-1 113:0 114:-0.4 115:-1 116:-1 117:-0.88 118:-1 119:-1 120:-0.12 121:-0.72 122:-1 123:0.48 124:0.36 125:-1 126:-0.08 127:-0.96 128:-1 129:-0.96 130:-0.2 131:-1 132:-1 133:1 134:0.52 135:-1 136:0.36 137:-1 138:-1 139:-1 140:-0.24 141:-1 142:-1 143:-0.52 144:0 145:-1 146:0.52 147:-0.92 148:-1 149:-1 150:0.28 151:-1 152:-1 153:-1 154:-0.92 155:-1 156:-0.64 157:-1 158:-1 159:-1 160:-0.8 161:-1 162:-1 163:-1 164:-1 165:-1 166:-0.92 167:-1 168:-1 169:-1 170:-0.96 171:-0.88 172:-0.88 173:-1 174:-1 175:-0.88 176:-1 177:-1 178:-1 179:-1 180:-0.72 
-1 -1 -1 1 1 1:-1 2:-0.45 3:-1 4:-1 5:-1 6:-1 7:-1 8:0.799999 9:-1 10:-1 11:-1 12:-0.599999 13:-1 14:-1 15:0 16:-1 17:-1 18:-0.7 19:-0.149999 20:-1 21:-1 22:-0.55 23:-1 24:-0.9 25:1 26:-1 27:-0.9 28:-0.400001 29:0.0499986 30:-1 31:-1 32:-0.35 33:-1 34:-0.9 35:-0.95 36:-1 37:-0.95 38:-0.75 39:-0.7 40:-1 41:-1 42:-0.249999 43:-1 44:-0.85 45:-1 46:-1 47:-0.9 48:-0.95 49:-0.65 50:-1 51:-1 52:-0.9 53:-1 54:-0.75 55:-1 56:-1 57:-0.85 58:-0.95 59:-0.75 60:-1 61:-1 62:-0.85 63:-1 64:-0.95 65:-1 66:-1 67:-0.35 68:-1 69:-0.85 70:-1 71:-1 72:-1 73:-0.9 74:-0.75 75:-1 76:-1 77:0.499998 78:-1 79:-0.9 80:-1 81:-0.0500016 82:-1 83:-0.9 84:-0.75 85:-1 86:-1 87:-0.8 88:-1 89:-1 90:-1 91:0.499998 92:-1 93:-0.9 94:0.699999 95:-1 96:-1 97:-0.7 98:-1 99:-1 100:-1 101:-0.400001 102:-1 103:-0.95 104:-0.9 105:-1 106:-1 107:-1 108:-1 109:-1 110:-1 111:-1 112:-1 113:-0.9 114:-0.9 115:-1 116:-0.400001 117:-1 118:-1 119:-1 120:-1 121:-1 122:-1 123:0.249999 124:-1 125:-1 126:0.849998 127:-1 128:-1 129:-1 130:-1 131:-1 132:-1 133:0.249999 134:-1 135:-1 136:-0.7 137:-1 138:-1 139:-1 140:-0.8 141:-1 142:-1 143:-0.9 144:-1 145:-1 146:-1 147:-1 148:-1 149:-1 150:0.200001 151:-1 152:-1 153:-1 154:-1 155:-1 156:-0.75 157:-1 158:-1 159:-1 160:-0.149999 161:-1 162:-1 163:-1 164:-1 165:-1 166:-0.95 167:-1 168:-1 169:-1 170:-0.200001 171:-1 172:-1 173:-1 174:-1 175:-1 176:-1 177:-1 178:-1 179:-1 180:-1 
-1 -1 -1 -1 1 1:-1 2:-1 3:-1 4:-1 5:-1 6:-1 7:-1 8:-1 9:-1 10:-1 11:-1 12:-1 13:-1 14:-1 15:-0.285715 16:-1 17:-1 18:0.199998 19:-0.971429 20:-1 21:-1 22:-0.971429 23:-1 24:-1 25:-1 26:-1 27:-0.628572 28:0.485713 29:-0.514287 30:-1 31:-1 32:-0.942857 33:-1 34:-1 35:-0.971429 36:-1 37:0.771428 38:-0.885714 39:1 40:-1 41:-1 42:0 43:-1 44:-1 45:-0.542858 46:-1 47:-0.428571 48:-1 49:-0.714285 50:-1 51:-1 52:0.114285 53:-1 54:-1 55:0.428571 56:-1 57:-0.914286 58:-1 59:-1 60:-1 61:-1 62:-0.399999 63:-1 64:-1 65:-0.828571 66:-1 67:-1 68:-1 69:-1 70:-1 71:-1 72:-1 73:-1 74:-1 75:-1 76:-1 77:-1 78:-1 79:-1 80:-1 81:-0.657143 82:-1 83:-1 84:-1 85:-1 86:-1 87:-1 88:-1 89:-1 90:-1 91:0.514284 92:-1 93:-0.8 94:-0.8 95:-1 96:-1 97:-1 98:-1 99:-1 100:-1 101:-0.0571424 102:-1 103:-0.885714 104:-0.857143 105:-1 106:-0.971429 107:-1 108:-1 109:-1 110:-0.942857 111:-1 112:-1 113:-0.828571 114:-0.0285712 115:-1 116:-0.8 117:-1 118:-1 119:-1 120:-0.628572 121:-1 122:-1 123:-0.0571424 124:-0.971429 125:-1 126:-0.0571424 127:-1 128:-1 129:-1 130:-0.8 131:-1 132:-1 133:-0.857143 134:-0.8 135:-1 136:-0.257144 137:-1 138:-1 139:-1 140:-0.371428 141:-1 142:-1 143:-0.628572 144:-0.914286 145:-1 146:-0.114285 147:-1 148:-1 149:-1 150:-0.17143 151:-1 152:-1 153:-0.142859 154:0.142856 155:-1 156:-1 157:-1 158:-1 159:-1 160:-1 161:-1 162:-1 163:-1 164:-0.971429 165:-1 166:-1 167:-1 168:-1 169:-1 170:-1 171:-1 172:-1 173:-1 174:-1 175:-1 176:-1 177:-1 178:-1 179:-1 180:-0.285715 
-1 -1 -1 -1 1 1:-1 2:-0.946667 3:-1 4:-1 5:-1 6:-1 7:-0.626666 8:-1 9:-1 10:-1 11:-1 12:-0.946667 13:-1 14:-1 15:-1 16:-1 17:-0.573332 18:0.146667 19:-0.92 20:-1 21:-1 22:-0.546668 23:-1 24:-1 25:-1 26:-1 27:-0.84 28:-0.333332 29:-0.0933328 30:-1 31:-1 32:-0.173334 33:-1 34:-1 35:-0.813333 36:-1 37:0.0666659 38:0.12 39:0.413333 40:-1 41:-1 42:-0.12 43:-1 44:-1 45:-0.386666 46:-1 47:-0.253334 48:-1 49:-0.520001 50:-1 51:-1 52:-0.386666 53:-1 54:-1 55:-0.413333 56:-1 57:-0.866667 58:-1 59:-0.946667 60:-1 61:-1 62:-0.946667 63:-1 64:-1 65:-0.599999 66:-1 67:-1 68:-1 69:-1 70:-1 71:-0.92 72:-1 73:-1 74:-0.973333 75:0.0133349 76:-0.813333 77:-0.973333 78:-1 79:-1 80:-0.84 81:-0.253334 82:-1 83:-1 84:-0.946667 85:-0.866667 86:-0.893333 87:-1 88:-1 89:-1 90:-0.44 91:1 92:-1 93:-0.733333 94:-0.733333 95:-1 96:-0.973333 97:-1 98:-1 99:-1 100:-0.813333 101:-0.893333 102:-1 103:-0.0933328 104:-0.386666 105:-1 106:-0.84 107:-1 108:-1 109:-1 110:-0.44 111:-1 112:-1 113:-0.76 114:-0.520001 115:-1 116:-0.599999 117:-1 118:-1 119:-1 120:-0.973333 121:-1 122:-1 123:-0.946667 124:-0.866667 125:-1 126:-0.520001 127:-1 128:-1 129:-1 130:-0.84 131:-1 132:-1 133:-0.84 134:-0.893333 135:-1 136:-0.733333 137:-1 138:-1 139:-1 140:-0.84 141:-1 142:-1 143:-0.866667 144:-0.84 145:-1 146:0.0933329 147:-1 148:-1 149:-1 150:-0.0666659 151:-1 152:-1 153:0.0666659 154:0.0399989 155:-1 156:-0.84 157:-1 158:-1 159:-1 160:-0.813333 161:-1 162:-1 163:-0.893333 164:-0.946667 165:-1 166:-0.973333 167:-1 168:-1 169:-1 170:-1 171:-1 172:-1 173:-1 174:-1 175:-1 176:-0.973333 177:-1 178:-1 179:-1 180:-1 
-1 -1 -1 -1 1 1:-1 2:-1 3:-1 4:-1 5:-1 6:-1 7:-1 8:-1 9:-1 10:-1 11:-1 12:-1 13:-1 14:-1 15:-1 16:-1 17:-0.982143 18:0.446427 19:-0.964286 20:-1 21:-1 22:-1 23:-1 24:-1 25:-1 26:-1 27:-0.767857 28:-0.589287 29:-0.428572 30:-1 31:-1 32:-0.553571 33:-1 34:-1 35:-0.982143 36:-1 37:0.357144 38:-0.357144 39:0.357144 40:-1 41:-1 42:0.196429 43:-1 44:-1 45:0.517856 46:-1 47:-0.0357143 48:-0.857143 49:-0.375001 50:-1 51:-1 52:-0.214287 53:-1 54:-1 55:0.0357141 56:-1 57:-0.928572 58:-1 59:-0.946429 60:-1 61:-1 62:-0.785714 63:-1 64:-1 65:-0.928572 66:-1 67:-1 68:-1 69:-1 70:-1 71:-0.428572 72:-1 73:-0.928572 74:-0.946429 75:-1 76:-1 77:-1 78:-1 79:-1 80:-1 81:1 82:-1 83:-0.928572 84:-0.964286 85:-1 86:-1 87:-1 88:-1 89:-1 90:-1 91:-0.928572 92:-1 93:-0.428572 94:-0.964286 95:-1 96:-1 97:-1 98:-1 99:-1 100:-0.946429 101:-1 102:-1 103:-0.964286 104:-0.375001 105:-1 106:-0.75 107:-1 108:-1 109:-1 110:-0.910714 111:-1 112:-1 113:-0.982143 114:-0.892857 115:-1 116:-0.482143 117:-1 118:-1 119:-1 120:-0.482143 121:-1 122:-1 123:-0.892857 124:-0.892857 125:-1 126:-0.660715 127:-1 128:-1 129:-1 130:-0.625 131:-1 132:-1 133:0.285712 134:-0.089285 135:-1 136:-0.642858 137:-1 138:-1 139:-1 140:-0.642858 141:-1 142:-1 143:-0.517859 144:-0.232142 145:-1 146:0.125 147:-1 148:-1 149:-1 150:0.160713 151:-1 152:-1 153:-1 154:-1 155:-1 156:-0.946429 157:-1 158:-1 159:-1 160:-0.910714 161:-1 162:-1 163:-1 164:-1 165:-1 166:-1 167:-1 168:-1 169:-1 170:-1 171:-1 172:-1 173:-1 174:-1 175:-1 176:-1 177:-1 178:-1 179:-1 180:-1 
-1 -1 -1 -1 1 1:-1 2:-0.948718 3:-1 4:-1 5:-1 6:-1 7:-1 8:-0.982906 9:-1 10:-1 11:-1 12:-0.91453 13:-1 14:-1 15:-1 16:-1 17:-0.794872 18:-0.333333 19:-1 20:-1 21:-1 22:-0.965812 23:-1 24:-1 25:-1 26:-1 27:-0.863248 28:0.726495 29:-0.948718 30:-1 31:-1 32:-0.863248 33:-1 34:-1 35:-0.777778 36:-1 37:0.28205 38:-0.931624 39:0.470084 40:-1 41:-1 42:0.333333 43:-0.897436 44:-1 45:1 46:-1 47:-0.65812 48:-1 49:-0.179489 50:-1 51:-1 52:-0.367523 53:-0.965812 54:-1 55:-0.743591 56:-1 57:-0.675215 58:-1 59:-0.880342 60:-1 61:-1 62:-0.931624 63:-0.965812 64:-1 65:-1 66:-0.931624 67:-0.965812 68:-1 69:-0.982906 70:-1 71:-0.897436 72:-0.863248 73:-0.965812 74:-0.965812 75:-1 76:-0.880342 77:-0.897436 78:-1 79:-1 80:-1 81:0.692308 82:-1 83:-0.965812 84:-0.897436 85:-1 86:-0.91453 87:-0.948718 88:-1 89:-1 90:-0.931624 91:-0.31624 92:-1 93:-0.982906 94:-0.931624 95:-1 96:-0.965812 97:-1 98:-1 99:-1 100:-0.931624 101:-1 102:-1 103:-0.982906 104:-0.931624 105:-1 106:-0.948718 107:-1 108:-1 109:-1 110:-0.931624 111:-1 112:-1 113:-0.846154 114:-0.487179 115:-1 116:-0.777778 117:-1 118:-1 119:-1 120:-0.726495 121:-1 122:-1 123:-0.0940182 124:0.28205 125:-1 126:-0.504274 127:-1 128:-1 129:-1 130:-0.760684 131:-1 132:-1 133:0.00854754 134:-0.692308 135:-1 136:0.0427353 137:-1 138:-1 139:-1 140:-0.726495 141:-1 142:-1 143:-0.863248 144:-0.897436 145:-1 146:-0.641025 147:-1 148:-1 149:-1 150:0.487179 151:-1 152:-1 153:-1 154:-1 155:-1 156:-1 157:-1 158:-1 159:-1 160:-1 161:-1 162:-1 163:-1 164:-1 165:-1 166:-1 167:-1 168:-1 169:-1 170:-1 171:-1 172:-1 173:-1 174:-1 175:-1 176:-1 177:-1 178:-1 179:-1 180:-1 
-1 -1 -1 -1 1 1:-1 2:-1 3:-1 4:-1 5:-1 6:-1 7:-0.942308 8:-0.0384601 9:-1 10:-1 11:-1 12:-0.903846 13:-1 14:-1 15:-1 16:-1 17:-0.961539 18:-0.211539 19:-1 20:-1 21:-1 22:-0.923077 23:-1 24:-1 25:-1 26:-1 27:-0.961539 28:-0.615385 29:-0.942308 30:-1 31:-1 32:0.134617 33:-1 34:-1 35:0.750001 36:-1 37:-0.192307 38:-0.980769 39:-0.230769 40:-1 41:-1 42:-0.153846 43:-1 44:-1 45:-0.596154 46:-1 47:-0.0384601 48:-1 49:-0.346155 50:-1 51:-1 52:-1 53:-1 54:-1 55:-1 56:-1 57:-0.750001 58:-1 59:-0.48077 60:-1 61:-1 62:-1 63:-0.846154 64:-0.923077 65:-1 66:-1 67:-1 68:-1 69:-0.942308 70:-1 71:-0.846154 72:-1 73:-0.961539 74:-0.903846 75:-1 76:-1 77:-1 78:-1 79:-0.903846 80:-1 81:1 82:-1 83:-0.980769 84:-0.980769 85:-1 86:-1 87:-1 88:-1 89:-1 90:-1 91:-1 92:-1 93:-0.980769 94:-0.846154 95:-1 96:-1 97:-1 98:-1 99:-1 100:-1 101:-1 102:-1 103:-0.942308 104:-0.326923 105:-1 106:-1 107:-1 108:-1 109:-1 110:-1 111:-1 112:-1 113:-0.711537 114:-0.76923 115:-1 116:-0.615385 117:-1 118:-1 119:-1 120:-1 121:-1 122:-1 123:0.403847 124:-0.596154 125:-1 126:-0.0384601 127:-1 128:-1 129:-1 130:-0.865385 131:-1 132:-1 133:-0.826923 134:-0.499999 135:-1 136:-0.403845 137:-1 138:-1 139:-1 140:0.807694 141:-1 142:-1 143:-1 144:-1 145:-1 146:-0.788461 147:-1 148:-1 149:-1 150:-0.788461 151:-1 152:-1 153:-1 154:-1 155:-1 156:-1 157:-1 158:-1 159:-1 160:-1 161:-1 162:-1 163:-1 164:-1 165:-1 166:-1 167:-1 168:-1 169:-1 170:-1 171:-1 172:-1 173:-1 174:-1 175:-1 176:-1 177:-1 178:-1 179:-1 180:-1 
-1 -1 -1 -1 1 1:-1 2:-1 3:-1 4:-1 5:-1 6:-1 7:-1 8:-0.109091 9:-1 10:-1 11:-1 12:-1 13:-1 14:-1 15:-1 16:-1 17:-0.854546 18:-0.0909083 19:-1 20:-1 21:-1 22:-1 23:-1 24:-1 25:-1 26:-1 27:-0.436364 28:-0.290908 29:-1 30:-1 31:-1 32:0.618181 33:-1 34:-1 35:-0.49091 36:-1 37:-0.127274 38:-0.872727 39:-1 40:-1 41:-1 42:-1.2517e-06 43:-1 44:-1 45:0.872727 46:-1 47:-0.381818 48:-1 49:-0.072728 50:-1 51:-1 52:-0.981818 53:-1 54:-1 55:-0.745455 56:-1 57:-0.563637 58:-1 59:0.454545 60:-1 61:-1 62:-1 63:-0.981818 64:-0.945454 65:-1 66:-1 67:-1 68:-1 69:-0.8 70:-1 71:1 72:-1 73:-0.981818 74:-0.927273 75:-1 76:-1 77:-1 78:-1 79:-0.963636 80:-1 81:-0.363637 82:-1 83:-0.963636 84:-0.909091 85:-1 86:-1 87:-1 88:-1 89:-0.981818 90:-1 91:-1 92:-1 93:-1 94:-0.963636 95:-1 96:-0.981818 97:-1 98:-1 99:-1 100:-1 101:-1 102:-1 103:-0.836364 104:-0.927273 105:-1 106:-0.963636 107:-1 108:-1 109:-1 110:-0.854546 111:-1 112:-1 113:-0.763636 114:-0.818182 115:-1 116:-0.836364 117:-1 118:-1 119:-1 120:-0.309091 121:-1 122:-1 123:-0.0363647 124:0.8 125:-1 126:-0.472727 127:-1 128:-1 129:-1 130:-0.545454 131:-1 132:-1 133:0.199998 134:-0.672727 135:-1 136:0.272728 137:-1 138:-1 139:-1 140:0.199998 141:-1 142:-1 143:-1 144:-1 145:-1 146:-0.381818 147:-1 148:-1 149:-1 150:-0.854546 151:-1 152:-1 153:-1 154:-1 155:-1 156:-1 157:-1 158:-1 159:-1 160:-1 161:-1 162:-1 163:-1 164:-1 165:-1 166:-1 167:-1 168:-1 169:-1 170:-1 171:-1 172:-1 173:-1 174:-1 175:-1 176:-1 177:-1 178:-1 179:-1 180:-1 
-1 -1 -1 -1 1 1:-1 2:-1 3:-1 4:-1 5:-1 6:-1 7:-1 8:-1 9:-1 10:-1 11:-1 12:-1 13:-1 14:-1 15:-1 16:-1 17:-1 18:-0.0952375 19:-1 20:-1 21:-1 22:-1 23:-1 24:-1 25:-1 26:-1 27:-0.357143 28:0.5 29:-0.952381 30:-1 31:-1 32:-0.738095 33:-1 34:-1 35:-1 36:-1 37:-0.214285 38:-0.904762 39:0.809525 40:-1 41:-1 42:-0.190475 43:-1 44:-1 45:-0.47619 46:-1 47:-0.52381 48:-1 49:-0.357143 50:-1 51:-1 52:0.214285 53:-1 54:-1 55:0.571427 56:-1 57:-0.738095 58:-1 59:-1 60:-1 61:-1 62:-0.785714 63:-1 64:-1 65:-0.857143 66:-1 67:-0.690475 68:-1 69:-1 70:-1 71:-0.5 72:-1 73:-1 74:-1 75:-0.738095 76:-1 77:-0.97619 78:-1 79:-1 80:-1 81:1 82:-1 83:-1 84:-0.857143 85:-1 86:-0.833333 87:-1 88:-1 89:-1 90:-0.833333 91:-1 92:-1 93:-0.809524 94:-0.928572 95:-1 96:-0.880952 97:-1 98:-1 99:-1 100:-0.880952 101:-1 102:-1 103:-0.785714 104:-0.928572 105:-1 106:-0.880952 107:-1 108:-1 109:-1 110:-0.833333 111:-1 112:-1 113:-0.0714275 114:-0.285715 115:-1 116:-0.642857 117:-1 118:-1 119:-1 120:-0.380952 121:-1 122:-1 123:-0.809524 124:-0.904762 125:-1 126:-0.0952375 127:-1 128:-1 129:-1 130:-0.928572 131:-1 132:-1 133:-0.54762 134:-0.5 135:-1 136:-0.571428 137:-1 138:-1 139:-1 140:-0.761905 141:-1 142:-1 143:-0.809524 144:-0.619048 145:-1 146:-0.595237 147:-1 148:-1 149:-1 150:0.119047 151:-1 152:-1 153:-0.714285 154:-0.690475 155:-1 156:-1 157:-1 158:-1 159:-1 160:-1 161:-1 162:-1 163:-0.952381 164:-0.785714 165:-1 166:-1 167:-1 168:-1 169:-1 170:-1 171:-1 172:-1 173:-1 174:-1 175:-1 176:-1 177:-1 178:-1 179:-1 180:-1 
-1 -1 -1 -1 1 1:-1 2:-1 3:-1 4:-1 5:-1 6:-1 7:-0.982143 8:-0.803571 9:-1 10:-1 11:-1 12:-1 13:-1 14:-1 15:-1 16:-1 17:-0.910714 18:-0.374999 19:-1 20:-1 21:-1 22:-0.892857 23:-1 24:-1 25:-0.803571 26:-1 27:-0.464287 28:1 29:-0.946429 30:-1 31:-1 32:-0.767857 33:-1 34:-1 35:-0.785714 36:-1 37:-0.410714 38:-0.607144 39:-0.553571 40:-1 41:-1 42:-0.32143 43:-1 44:-1 45:-0.428572 46:-1 47:-0.714286 48:-0.964286 49:-0.0535713 50:-1 51:-1 52:-0.374999 53:-1 54:-1 55:-0.0357158 56:-1 57:-0.500001 58:-1 59:-0.535715 60:-1 61:-0.857143 62:-0.714286 63:-1 64:-1 65:-0.500001 66:-0.928572 67:-0.803571 68:-1 69:-0.392858 70:-1 71:-0.0535713 72:-0.571429 73:-1 74:-1 75:-0.821429 76:-0.339285 77:-0.875 78:-1 79:-0.32143 80:-0.857143 81:-0.535715 82:-0.803571 83:-0.964286 84:-0.982143 85:-0.589285 86:-0.910714 87:-0.803571 88:-1 89:-0.964286 90:-0.767857 91:0.0535713 92:-0.839286 93:-0.767857 94:-0.910714 95:-0.892857 96:-0.500001 97:-0.982143 98:-1 99:-0.982143 100:-0.374999 101:-0.357144 102:-0.785714 103:-0.910714 104:-0.821429 105:-0.928572 106:-0.285715 107:-0.910714 108:-1 109:-1 110:-0.678572 111:-1 112:-0.678572 113:-0.821429 114:-0.535715 115:-0.964286 116:-0.839286 117:-0.553571 118:-1 119:-1 120:-0.589285 121:-1 122:-1 123:-0.374999 124:-0.267857 125:-1 126:-0.803571 127:-0.839286 128:-1 129:-1 130:-0.500001 131:-1 132:-1 133:0.410714 134:0.249998 135:-1 136:-0.839286 137:-1 138:-1 139:-1 140:-0.250001 141:-1 142:-1 143:-0.32143 144:-0.482142 145:-1 146:-0.732143 147:-1 148:-1 149:-1 150:-0.803571 151:-1 152:-1 153:-1 154:-1 155:-1 156:-0.696429 157:-1 158:-1 159:-1 160:-0.928572 161:-1 162:-1 163:-1 164:-1 165:-1 166:-0.910714 167:-1 168:-1 169:-1 170:-1 171:-1 172:-1 173:-1 174:-1 175:-1 176:-0.964286 177:-1 178:-1 179:-1 180:-1 
-1 -1 -1 -1 1 1:-1 2:-1 3:-1 4:-1 5:-1 6:-1 7:-1 8:-1 9:-1 10:-1 11:-1 12:-1 13:-1 14:-1 15:-1 16:-1 17:-1 18:-0.422221 19:-1 20:-1 21:-1 22:-1 23:-1 24:-1 25:-1 26:-1 27:-0.577777 28:-0.244444 29:-1 30:-1 31:-1 32:-0.8 33:-1 34:-1 35:-0.955556 36:-1 37:0.288889 38:-0.888889 39:-0.422221 40:-1 41:-1 42:0.800001 43:-1 44:-1 45:0.288889 46:-1 47:-0.333333 48:-0.0444444 49:0.644445 50:-1 51:-1 52:-0.644445 53:-1 54:-1 55:0.066666 56:-1 57:-0.977778 58:-1 59:-0.822222 60:-1 61:-1 62:-0.955556 63:-1 64:-1 65:-1 66:-1 67:-1 68:-1 69:-1 70:-1 71:-0.599999 72:-1 73:-1 74:-1 75:-1 76:-1 77:-1 78:-1 79:-1 80:-1 81:1 82:-1 83:-1 84:-0.977778 85:-1 86:-0.911111 87:-1 88:-1 89:-1 90:-0.866666 91:-1 92:-1 93:-0.911111 94:-0.577777 95:-1 96:-0.911111 97:-1 98:-1 99:-1 100:-0.933333 101:-1 102:-1 103:-0.200001 104:-0.4 105:-1 106:-0.688888 107:-1 108:-1 109:-1 110:-0.844444 111:-1 112:-1 113:-0.866666 114:-0.599999 115:-1 116:-0.377778 117:-1 118:-1 119:-1 120:-0.244444 121:-1 122:-1 123:-0.0888876 124:-0.555556 125:-1 126:-0.955556 127:-1 128:-1 129:-1 130:-0.777778 131:-1 132:-1 133:-0.888889 134:-0.711112 135:-1 136:-0.866666 137:-1 138:-1 139:-1 140:-0.4 141:-1 142:-1 143:-0.711112 144:-0.844444 145:-1 146:0.066666 147:-1 148:-1 149:-1 150:-0.533334 151:-1 152:-1 153:-0.933333 154:-0.933333 155:-1 156:-0.955556 157:-1 158:-1 159:-1 160:-1 161:-1 162:-1 163:-1 164:-1 165:-1 166:-1 167:-1 168:-1 169:-1 170:-1 171:-1 172:-1 173:-1 174:-1 175:-1 176:-1 177:-1 178:-1 179:-1 180:-1 
-1 -1 -1 -1 1 1:-1 2:-1 3:-1 4:-1 5:-1 6:-1 7:-1 8:-1 9:-0.774648 10:-1 11:-1 12:-0.971831 13:-1 14:-1 15:-1 16:-1 17:-0.633803 18:-0.577465 19:-0.408451 20:-1 21:-1 22:-0.915493 23:-1 24:-1 25:-0.830986 26:-1 27:-0.802817 28:0.521127 29:-0.71831 30:-1 31:-1 32:-1 33:-1 34:-1 35:0.380282 36:-1 37:0.521127 38:0.521127 39:0.15493 40:-1 41:-1 42:1 43:-1 44:-1 45:0.295775 46:-1 47:0.15493 48:-0.943662 49:-0.0422535 50:-1 51:-1 52:0.0985916 53:-1 54:-1 55:-0.492958 56:-1 57:-0.71831 58:-1 59:-0.690141 60:-1 61:-1 62:-0.690141 63:-1 64:-1 65:-0.830986 66:-1 67:-1 68:-1 69:-1 70:-1 71:-0.0140845 72:-1 73:-1 74:-0.943662 75:-1 76:-1 77:-1 78:-1 79:-1 80:-1 81:-0.211268 82:-1 83:-0.915493 84:-0.971831 85:-1 86:-0.971831 87:-1 88:-1 89:-1 90:-0.971831 91:0.746479 92:-1 93:-0.830986 94:-1 95:-1 96:-1 97:-1 98:-1 99:-1 100:-0.774648 101:-1 102:-1 103:-0.887324 104:-0.859155 105:-1 106:-0.408451 107:-1 108:-1 109:-1 110:-0.521127 111:-1 112:-1 113:-0.661972 114:-0.71831 115:-1 116:-0.577465 117:-1 118:-1 119:-1 120:-0.352113 121:-1 122:-1 123:0.15493 124:0.15493 125:-1 126:-0.521127 127:-1 128:-1 129:-1 130:-0.71831 131:-1 132:-1 133:-0.323944 134:-0.464789 135:-1 136:-0.295775 137:-1 138:-1 139:-1 140:-0.0422535 141:-1 142:-1 143:-0.408451 144:-0.0422535 145:-1 146:0.295775 147:-1 148:-1 149:-1 150:-0.126761 151:-1 152:-1 153:-0.661972 154:-0.633803 155:-1 156:-1 157:-1 158:-1 159:-1 160:-0.971831 161:-1 162:-1 163:-0.943662 164:-1 165:-1 166:-1 167:-1 168:-1 169:-1 170:-1 171:-1 172:-1 173:-1 174:-1 175:-1 176:-1 177:-1 178:-1 179:-1 180:-1 
