svm_type c_svc
kernel_type rbf
gamma 0.0142857
nr_class 6
total_sv 71
rho 0.629447 0.103671 0.149549 -0.33196 -0.261202 -0.677789 -0.5143 -1.05838 -0.880477 0.0705924 -0.377778 -0.12848 -0.539147 -0.401367 0.0694366
label 8 10 12 13 15 16
nr_sv 11 12 12 12 12 12
SV
1 1 1 1 1 1:-1 2:-1 3:-1 4:-1 5:-1 6:0.149999 7:-1 8:0.224999 9:-0.875 10:0.549999 11:-1 12:-0.825 13:-1 14:-1 15:-0.425001 16:-0.325001 17:-0.250001 18:0.500001 19:-0.35 20:-0.75 21:-1 22:-0.35 23:-1 24:-1 25:-0.875 26:-0.9 27:-0.9 28:-1 29:-0.925 30:-0.875 31:0.825001 32:-0.925 33:-0.525 34:-1 35:-0.8 36:-0.825 37:-0.9 38:-1 39:-0.9 40:-0.8 41:-0.100001 42:-0.425001 43:-0.75 44:-0.275 45:-0.425001 46:-0.374999 47:-0.2 48:-1 49:-0.650001 50:-0.400001 51:-1 52:-0.35 53:0.799999 54:1 55:-0.250001 56:-1 57:-0.0250005 58:-1 59:0.425 60:-1 61:-1 62:-0.400001 63:-0.8 64:-1 65:-0.500001 66:-1 67:-1 68:-1 69:-1 70:-1 
1 1 1 0.7715453336604003 0.773235451213071 1:-1 2:-1 3:-1 4:-1 5:-0.970803 6:-0.489052 7:-1 8:0.0364964 9:-1 10:-0.605839 11:-1 12:-0.50365 13:-1 14:-1 15:-0.459853 16:-0.0073002 17:-0.664234 18:0.313868 19:-0.605839 20:-0.211678 21:-0.912409 22:-0.664234 23:-1 24:-1 25:-0.751825 26:-0.766423 27:-0.912409 28:-1 29:-0.868613 30:-0.459853 31:0.766423 32:-0.474454 33:-1 34:-1 35:-0.708028 36:-0.810219 37:-0.810219 38:-1 39:-0.883212 40:-0.883212 41:-0.50365 42:-0.605839 43:-1 44:-1 45:-0.474454 46:-0.912409 47:-0.591241 48:-1 49:-0.328468 50:-0.839416 51:-1 52:-0.708028 53:-0.518248 54:-0.649636 55:-0.416059 56:-0.664234 57:0.109489 58:-1 59:-0.0510946 60:-0.649636 61:-1 62:-0.69343 63:0.868612 64:1 65:-0.868613 66:-1 67:-0.781022 68:-1 69:-0.912409 70:-1 
1 1 0.2244315986096474 0 0 1:-1 2:-1 3:-1 4:-1 5:-1 6:-0.471264 7:-0.724138 8:1 9:-1 10:-0.494253 11:-1 12:-0.701149 13:-1 14:-1 15:-0.977011 16:0.195403 17:-0.977011 18:-0.862069 19:-1 20:0.21839 21:0.770115 22:-0.931034 23:-1 24:-1 25:-0.655173 26:-0.931034 27:-0.908046 28:-1 29:-0.655173 30:-0.931034 31:-0.632184 32:-0.402299 33:-1 34:-1 35:-0.632184 36:-0.954023 37:-0.931034 38:-1 39:-0.908046 40:-0.977011 41:-1 42:-0.37931 43:0.83908 44:0.51724 45:-0.402299 46:-0.724138 47:0.425288 48:-1 49:0.0804589 50:-0.908046 51:-1 52:-0.448275 53:-0.701149 54:-0.37931 55:-0.264368 56:-0.977011 57:-0.747126 58:-1 59:-0.37931 60:-0.770115 61:-1 62:-1 63:-1 64:-1 65:-0.931034 66:-1 67:-1 68:-1 69:-1 70:-1 
0.7789645596615475 0 0 0 0 1:-1 2:-1 3:-1 4:-1 5:-1 6:0.0222213 7:-1 8:0.792593 9:-1 10:-0.0370362 11:-1 12:-0.777778 13:-1 14:-1 15:-0.762963 16:-0.081481 17:-0.896296 18:-0.525927 19:-0.777778 20:-0.0222213 21:-0.733333 22:-0.955556 23:-1 24:-1 25:-0.97037 26:-0.955556 27:-0.866667 28:-1 29:-0.985185 30:-0.955556 31:1 32:-0.599999 33:-1 34:-1 35:-0.629629 36:-0.97037 37:-0.955556 38:-1 39:-0.955556 40:-0.97037 41:-1 42:0.348148 43:-0.392592 44:-0.0222213 45:0.125926 46:-0.911111 47:-0.955556 48:-1 49:-0.97037 50:-0.97037 51:-1 52:-0.748148 53:0.525927 54:0.125926 55:-0.496297 56:-0.837037 57:0.22963 58:-1 59:-0.0370362 60:-0.777778 61:-1 62:-1 63:-0.866667 64:-0.837037 65:-1 66:-1 67:-0.288888 68:-1 69:-0.00740635 70:-1 
1 1 1 0.8314114181844913 1 1:-1 2:-1 3:-1 4:-1 5:-0.938462 6:-0.948718 7:-1 8:1 9:-0.989744 10:-1 11:-1 12:-0.528206 13:-1 14:-1 15:-0.251282 16:0.446154 17:-0.589744 18:-1 19:-0.610256 20:0.210256 21:1 22:-0.261538 23:-0.989744 24:-1 25:-0.405128 26:-0.917949 27:-0.989744 28:-1 29:-0.917949 30:-0.71282 31:-1 32:-0.682052 33:-0.733334 34:-1 35:-0.641026 36:-0.989744 37:-0.979487 38:-1 39:-0.969231 40:-0.938462 41:-1 42:-0.661538 43:0.63077 44:0.958974 45:-0.774358 46:-0.969231 47:-0.641026 48:-1 49:-0.476924 50:-0.979487 51:-1 52:-0.866667 53:-0.907692 54:-0.958974 55:-0.989744 56:-0.620512 57:0.2 58:-1 59:-0.035898 60:-0.579488 61:-1 62:-1 63:-1 64:-1 65:-1 66:-1 67:-1 68:-1 69:-1 70:-1 
1 1 1 1 1 1:-1 2:-1 3:-1 4:-1 5:-1 6:-0.785046 7:-1 8:0.878504 9:-1 10:-0.728972 11:-1 12:-0.186916 13:-1 14:-1 15:-0.271028 16:-0.11215 17:-0.626168 18:-0.878505 19:-0.551402 20:-0.2243 21:-1 22:-0.448598 23:-1 24:-1 25:-0.345794 26:-0.88785 27:-0.663552 28:-1 29:-0.813084 30:-0.850467 31:1 32:-0.719626 33:-1 34:-0.953271 35:-0.672898 36:-0.934579 37:-0.943925 38:-1 39:-0.850467 40:-0.841121 41:-1 42:-0.869159 43:0.93458 44:0.336448 45:-0.82243 46:-0.906542 47:-0.88785 48:-1 49:-0.841121 50:-0.841121 51:-1 52:-0.7757 53:-0.934579 54:-0.383178 55:-0.88785 56:-0.373832 57:-0.158878 58:-1 59:-0.140186 60:-0.514018 61:-1 62:-1 63:-1 64:-1 65:-1 66:-1 67:-0.719626 68:-1 69:-0.803738 70:-1 
1 1 1 1 1 1:-1 2:-0.791411 3:-1 4:-1 5:-0.901841 6:-0.730062 7:-0.730062 8:-0.705522 9:-1 10:-0.889571 11:-1 12:0.386504 13:-1 14:-1 15:-0.509203 16:-0.742332 17:-0.680982 18:1 19:-1 20:-0.423314 21:-0.423314 22:-0.766871 23:-0.779141 24:-1 25:-0.619632 26:-0.0674857 27:-0.411044 28:-0.97546 29:-0.398774 30:0.361964 31:0.742332 32:-0.742332 33:0.595092 34:-0.484663 35:-0.361964 36:-0.607362 37:-0.300614 38:-1 39:-0.030676 40:-0.92638 41:-1 42:-0.828221 43:-0.496933 44:0.447853 45:-0.766871 46:-0.803681 47:-0.631902 48:-1 49:-0.656442 50:-0.914111 51:-1 52:-0.93865 53:-1 54:-0.644172 55:-0.521473 56:-0.730062 57:-0.92638 58:-1 59:-0.595093 60:-0.889571 61:-1 62:-1 63:-1 64:-1 65:-1 66:-1 67:-1 68:-1 69:-1 70:-1 
1 1 1 1 1 1:-0.460993 2:-0.858156 3:-1 4:-1 5:-0.943262 6:-0.957447 7:-1 8:0.843971 9:-0.929078 10:-0.787234 11:-1 12:-0.0780131 13:-1 14:-1 15:-0.333334 16:-0.148936 17:-0.900709 18:-0.106383 19:-0.347518 20:-0.375887 21:0.120566 22:-0.503547 23:-1 24:-1 25:-0.290781 26:-0.304965 27:-0.248228 28:-1 29:-0.41844 30:-0.48936 31:0.0780131 32:-0.5461 33:-0.985816 34:-0.971631 35:-0.48936 36:-0.659575 37:-0.5461 38:-1 39:-0.801418 40:-0.829787 41:-1 42:-0.531916 43:-0.276595 44:-0.659575 45:-0.390071 46:-0.41844 47:-0.758865 48:-1 49:-0.617022 50:-0.886525 51:-1 52:-0.872341 53:0.0212765 54:1 55:-0.815603 56:-0.77305 57:0.0921992 58:-1 59:-0.361701 60:-0.390071 61:-1 62:-0.872341 63:-0.0212765 64:-0.631206 65:-1 66:-1 67:-0.900709 68:-1 69:-0.787234 70:-0.503547 
1 1 1 1 1 1:-1 2:-1 3:-1 4:-1 5:-1 6:-0.87931 7:-1 8:-1 9:-0.913793 10:-0.655172 11:-1 12:-0.534482 13:-1 14:-1 15:-0.586206 16:0.017242 17:-0.37931 18:1 19:-0.793104 20:-0.189656 21:0.103448 22:-0.534482 23:-1 24:-1 25:-0.5 26:-0.862069 27:-0.87931 28:-1 29:-0.586206 30:-0.827586 31:-0.103448 32:-0.62069 33:-0.724138 34:-0.810345 35:-0.706896 36:-0.87931 37:-0.87931 38:-1 39:-0.827586 40:-0.568966 41:-1 42:-0.603448 43:-0.37931 44:-0.327586 45:-0.655172 46:-0.396552 47:-0.275862 48:-1 49:-0.017242 50:-0.75862 51:-1 52:-0.706896 53:0.103448 54:0.13793 55:-0.551724 56:-1 57:-0.586206 58:-1 59:-0.862069 60:-1 61:-1 62:-1 63:-1 64:-1 65:-1 66:-1 67:-1 68:-1 69:-1 70:-1 
1 0.3690732790139636 0.8456782957376255 0 0.1573061198164211 1:-1 2:-0.891626 3:-1 4:-1 5:-1 6:-0.871921 7:-1 8:1 9:-1 10:-0.793104 11:-1 12:-0.694582 13:-1 14:-1 15:-0.665024 16:0.24138 17:-0.980296 18:-1 19:-1 20:0.270936 21:-0.1133 22:-0.852217 23:-1 24:-1 25:-0.842365 26:-0.753694 27:-0.68473 28:-1 29:-1 30:-0.487684 31:0.1133 32:-0.655172 33:-1 34:-1 35:-0.64532 36:-0.931034 37:-0.891626 38:-1 39:-0.7734 40:-0.990148 41:-1 42:-0.487684 43:-0.852217 44:-1 45:-0.527094 46:-0.694582 47:-0.310344 48:-1 49:0.458128 50:-1 51:-1 52:-0.41872 53:0.852216 54:1 55:-0.320198 56:-0.990148 57:-0.192118 58:-1 59:-0.68473 60:-1 61:-1 62:-1 63:-1 64:-1 65:-1 66:-1 67:-0.940887 68:-1 69:-1 70:-1 
1 0.467035390588627 1 0.7535703376070021 1 1:-1 2:-0.969072 3:-1 4:-1 5:-1 6:-0.42268 7:-1 8:1 9:-1 10:-0.608248 11:-1 12:-0.742268 13:-1 14:-1 15:-0.628866 16:0.030928 17:-0.814433 18:-1 19:-0.72165 20:0.216494 21:-0.896907 22:-0.804124 23:-1 24:-1 25:-0.969072 26:-0.979381 27:-0.824742 28:-1 29:-0.917526 30:-0.979381 31:0.896908 32:-0.845361 33:-1 34:-1 35:-0.752578 36:-0.989691 37:-1 38:-1 39:-0.989691 40:-0.989691 41:-1 42:-0.649484 43:-1 44:-1 45:-0.546392 46:-0.845361 47:-0.979381 48:-1 49:-0.979381 50:-0.958763 51:-1 52:-0.020618 53:0.85567 54:0.680412 55:-0.123712 56:-0.793814 57:-0.020618 58:-1 59:0.13402 60:-0.680412 61:-1 62:-0.969072 63:-0.85567 64:-0.680412 65:-0.979381 66:-1 67:-0.360824 68:-1 69:-0.525774 70:-1 
-0.7622738432108395 1 1 1 1 1:-1 2:-1 3:-1 4:-1 5:-1 6:-1 7:-0.333334 8:-1 9:-1 10:-0.828571 11:-1 12:-0.428572 13:-1 14:-1 15:-0.085714 16:-1 17:0.333334 18:1 19:-0.580952 20:-0.619048 21:-1 22:0.428572 23:-1 24:1 25:-0.485714 26:-1 27:-1 28:-1 29:-0.12381 30:-0.885714 31:1 32:-1 33:-1 34:-1 35:-0.885714 36:-1 37:-1 38:-1 39:-0.904762 40:-0.333334 41:-1 42:-1 43:0.84762 44:-1 45:-0.657142 46:0.809524 47:-1 48:-1 49:-0.904762 50:-0.390476 51:-1 52:-1 53:-0.847619 54:-1 55:-0.904762 56:-0.809524 57:-1 58:-1 59:-0.485714 60:-0.942857 61:-1 62:-1 63:-1 64:-1 65:-0.980952 66:-1 67:-1 68:-1 69:-1 70:-1 
-1 1 1 0.9593769061515984 1 1:-1 2:-0.726316 3:-1 4:-1 5:-1 6:-1 7:-0.831579 8:-0.831579 9:-1 10:-1 11:-1 12:-0.389474 13:-1 14:-1 15:-0.936842 16:-1 17:-0.347368 18:0.831578 19:-0.178948 20:-0.157894 21:-0.978947 22:-0.831579 23:-1 24:-1 25:0.178948 26:-1 27:-0.957895 28:-1 29:-0.768422 30:-0.936842 31:-1 32:-0.052632 33:-1 34:-1 35:-0.536842 36:0.157894 37:0.136842 38:-1 39:-0.957895 40:-0.957895 41:0.936842 42:-1 43:-1 44:-1 45:-0.768422 46:-0.957895 47:-1 48:-1 49:-0.936842 50:-0.894737 51:-0.957895 52:-1 53:-1 54:-1 55:-0.936842 56:-0.305264 57:-1 58:-1 59:-0.157894 60:-0.052632 61:-1 62:-1 63:1 64:1 65:-1 66:-0.894737 67:-1 68:-1 69:-1 70:-1 
-1 1 1 1 1 1:-1 2:-1 3:-1 4:-1 5:-1 6:-1 7:-1 8:-0.0196091 9:-1 10:-0.215687 11:-1 12:0.568626 13:-1 14:-1 15:-1 16:-0.882353 17:1 18:0.254903 19:-1 20:0.450981 21:-0.176471 22:-0.411765 23:-1 24:-1 25:0.490196 26:-1 27:-0.882353 28:-1 29:-1 30:-1 31:0.411765 32:-0.921569 33:-1 34:-1 35:-0.450981 36:-1 37:-0.960784 38:-1 39:-1 40:-1 41:-1 42:-1 43:-0.764706 44:0.490196 45:-0.803922 46:0.803922 47:-0.921569 48:-1 49:0.254903 50:-1 51:-1 52:-1 53:1 54:-0.254903 55:-1 56:-0.686274 57:-1 58:-1 59:-0.0196091 60:-1 61:-1 62:-1 63:-1 64:-1 65:-1 66:-1 67:-1 68:-1 69:-1 70:-1 
-1 1 1 0.694558905538131 1 1:-1 2:-0.607844 3:-1 4:-1 5:-1 6:-1 7:-1 8:1 9:-1 10:-0.843137 11:-1 12:0.019608 13:-1 14:-1 15:-0.921569 16:-0.960784 17:-0.215686 18:-1 19:-0.803922 20:-0.137254 21:-1 22:-0.686274 23:-1 24:-1 25:-0.372548 26:-0.803922 27:-0.529412 28:-1 29:-0.529412 30:-0.882353 31:-0.803922 32:-1 33:-0.921569 34:-1 35:-0.882353 36:-0.647058 37:-0.686274 38:-1 39:-0.921569 40:-0.843137 41:0.647058 42:-0.882353 43:0.490196 44:-0.294118 45:0.17647 46:-0.294118 47:-0.686274 48:-1 49:-0.803922 50:-0.529412 51:-0.843137 52:-0.843137 53:-0.568628 54:0.294118 55:-1 56:-0.294118 57:-0.882353 58:-1 59:-0.215686 60:-0.764706 61:-1 62:-1 63:-1 64:-1 65:-1 66:-1 67:-1 68:-1 69:-0.72549 70:-1 
-1 1 1 1 1 1:-1 2:0.296 3:-1 4:-1 5:-0.984 6:-1 7:-1 8:1 9:-0.392 10:-1 11:-1 12:-0.296 13:-1 14:-1 15:0.568 16:-1 17:1 18:-1 19:-0.92 20:-0.248 21:1 22:-1 23:-1 24:-1 25:-0.648 26:-1 27:-1 28:-1 29:-0.92 30:-0.504 31:-1 32:-1 33:-0.984 34:-0.84 35:-0.936 36:-1 37:-1 38:-1 39:-0.536 40:-0.872 41:-1 42:-1 43:0.984 44:0.504 45:-1 46:-0.856 47:-1 48:-1 49:-0.232 50:-0.952 51:-1 52:-1 53:-1 54:-0.664 55:-1 56:0.856 57:-1 58:-1 59:-1 60:-0.424 61:-1 62:-1 63:-1 64:-1 65:-1 66:-1 67:-1 68:-1 69:-1 70:-1 
-0.9069715439132141 1 1 1 1 1:-1 2:-1 3:-1 4:-1 5:-1 6:-1 7:-1 8:1 9:-1 10:-1 11:-1 12:1 13:-1 14:-1 15:0.189656 16:-1 17:1 18:-1 19:0.086206 20:-0.482758 21:-0.810345 22:-1 23:-1 24:-1 25:-0.37931 26:-1 27:-1 28:-1 29:-0.913793 30:-0.775862 31:0.810344 32:-1 33:-1 34:-1 35:-0.87931 36:-1 37:-1 38:-1 39:-0.896552 40:-0.913793 41:-1 42:-1 43:0.63793 44:0.172414 45:-0.931034 46:-1 47:-1 48:-1 49:-0.775862 50:-0.913793 51:-1 52:-1 53:-0.637932 54:-0.172414 55:-1 56:1 57:-1 58:-1 59:-0.5 60:0.086206 61:-1 62:-1 63:-1 64:-1 65:-1 66:-1 67:-1 68:-1 69:-1 70:-1 
-1 1 1 1 1 1:-1 2:-1 3:-1 4:-1 5:-1 6:-1 7:-1 8:1 9:-0.396552 10:-0.913793 11:-1 12:-0.034482 13:-1 14:-1 15:-0.827586 16:-1 17:-1 18:-1 19:-0.37931 20:-0.396552 21:0.103448 22:-0.017242 23:-1 24:-1 25:-0.603448 26:-1 27:-1 28:-1 29:-0.862069 30:-0.844828 31:-0.103448 32:-0.948276 33:-1 34:-1 35:0.051724 36:-0.827586 37:-0.982759 38:-1 39:-0.431034 40:-0.137932 41:-1 42:-1 43:-0.206896 44:-0.551724 45:-0.862069 46:0.827586 47:0.931034 48:-1 49:-0.931034 50:-0.706896 51:-1 52:-1 53:0.206896 54:0 55:-0.75862 56:-1 57:-0.948276 58:-1 59:-1 60:-1 61:-1 62:-1 63:-1 64:-0.448276 65:-1 66:-1 67:-1 68:-1 69:-1 70:-1 
-0.2184580623789834 1 1 1 1 1:-1 2:-1 3:-1 4:-1 5:-1 6:-1 7:-1 8:1 9:-1 10:-1 11:-1 12:1 13:-1 14:-1 15:-0.024 16:-1 17:1 18:-1 19:-0.664 20:-1 21:-1 22:-1 23:-1 24:-1 25:-0.04 26:-1 27:-1 28:-1 29:-0.248 30:-0.904 31:1 32:-1 33:-1 34:-1 35:-0.936 36:-1 37:-1 38:-1 39:-0.232 40:-0.472 41:-1 42:-1 43:-1 44:-1 45:-1 46:-1 47:-1 48:-1 49:-0.872 50:0.024 51:-1 52:-1 53:1 54:1 55:-1 56:1 57:-1 58:-1 59:-0.984 60:-0.648 61:-1 62:-1 63:-1 64:-1 65:-1 66:-1 67:-1 68:-1 69:-1 70:-1 
-1 1 1 1 1 1:-1 2:-1 3:-1 4:-1 5:-1 6:-0.983607 7:-1 8:-1 9:-0.918033 10:-0.934426 11:-1 12:-0.770492 13:-1 14:-1 15:-0.704918 16:-0.278688 17:-0.42623 18:1 19:-0.196722 20:-0.491804 21:-1 22:0.721312 23:-1 24:-1 25:-0.196722 26:-0.508196 27:-0.704918 28:-1 29:-0.721312 30:-0.639344 31:1 32:-0.95082 33:-1 34:-0.852459 35:-0.606558 36:-0.836066 37:-0.47541 38:-1 39:-0.803279 40:-0.590164 41:-1 42:-1 43:0.442622 44:0.393442 45:-0.62295 46:-0.393442 47:-0.508196 48:-1 49:-0.37705 50:-0.344262 51:-1 52:-1 53:-0.442622 54:-0.540984 55:-0.918033 56:-1 57:-0.885246 58:-1 59:-0.983607 60:-1 61:-1 62:-1 63:-1 64:-1 65:-0.95082 66:-1 67:-1 68:-1 69:-1 70:-1 
-1 1 1 1 1 1:-1 2:-1 3:-1 4:-1 5:-1 6:-1 7:-1 8:1 9:-1 10:-1 11:-1 12:0.50495 13:-1 14:-1 15:-0.148514 16:-0.524752 17:-0.940594 18:-1 19:-0.089108 20:-0.425742 21:-1 22:-0.50495 23:-1 24:-1 25:-0.544554 26:-0.069306 27:-0.841584 28:-1 29:-0.821782 30:-0.821782 31:-0.10891 32:-1 33:-1 34:-1 35:-0.564356 36:-0.643564 37:-0.623762 38:-1 39:-0.90099 40:-0.90099 41:0.10891 42:-1 43:-1 44:-1 45:-0.742574 46:-0.80198 47:-0.188118 48:-1 49:-0.90099 50:-0.90099 51:-1 52:-1 53:1 54:1 55:-1 56:-0.960396 57:-0.40594 58:-1 59:-0.80198 60:0.049504 61:-1 62:-1 63:-1 64:-1 65:-1 66:-1 67:-1 68:-1 69:-0.485148 70:-1 
-0.9062465266310172 1 1 1 1 1:-1 2:-1 3:-1 4:-1 5:-1 6:-1 7:0.766666 8:-1 9:-0.466666 10:-1 11:-1 12:-0.916667 13:-1 14:-1 15:0.216666 16:-1 17:-0.766666 18:1 19:0.2 20:-1 21:-0.766666 22:0.916666 23:-1 24:-1 25:-0.4 26:-1 27:-1 28:-1 29:-0.733334 30:-0.833333 31:0.766666 32:-1 33:1 34:1 35:-0.95 36:-0.833333 37:-1 38:-1 39:-1 40:-0.05 41:-1 42:-1 43:-1 44:-1 45:-0.866667 46:0.833334 47:-1 48:-1 49:-1 50:-0.116666 51:-1 52:-1 53:-1 54:-1 55:-1 56:-1 57:-1 58:-1 59:-1 60:-1 61:-1 62:-1 63:-1 64:-1 65:-1 66:-1 67:-1 68:-1 69:-1 70:-1 
-0.9850145835274933 1 1 1 1 1:-1 2:-1 3:-1 4:-1 5:-0.874214 6:-1 7:-1 8:1 9:-1 10:-1 11:-1 12:0.559748 13:-1 14:-1 15:0.610062 16:-1 17:0.559748 18:-1 19:0.421384 20:-1 21:-1 22:-0.559748 23:-1 24:-1 25:-0.874214 26:-1 27:-0.836478 28:-1 29:-0.786164 30:-0.899371 31:1 32:-1 33:-1 34:-1 35:-0.949686 36:-1 37:-0.72327 38:-1 39:-0.73585 40:-0.761006 41:-1 42:-1 43:-1 44:-1 45:-0.924528 46:-0.672956 47:-1 48:-1 49:-0.899371 50:-0.72327 51:-1 52:-1 53:1 54:1 55:-0.987421 56:0.672956 57:-1 58:-1 59:-1 60:0.383648 61:-1 62:-1 63:-1 64:-1 65:-1 66:-1 67:-1 68:-1 69:-1 70:-1 
-0.8189971702387311 -1 1 1 1 1:-1 2:-0.592357 3:-1 4:-1 5:-0.821656 6:-1 7:-0.910828 8:0.719745 9:-0.898089 10:-1 11:-0.987261 12:0.0445848 13:-1 14:-1 15:0.0318463 16:-1 17:-0.121019 18:-0.159237 19:0.10828 20:-1 21:-0.503185 22:0.082803 23:-1 24:-1 25:0.0318463 26:-0.872612 27:-0.78344 28:-1 29:-0.057326 30:-0.987261 31:1 32:-0.974522 33:-1 34:-0.554141 35:-0.745223 36:0.0318463 37:0.146496 38:-1 39:-0.617834 40:0.0191077 41:-0.949045 42:-1 43:0.363056 44:0.605095 45:-0.936306 46:0.082803 47:-0.770701 48:-1 49:-0.974522 50:0.375794 51:-1 52:-1 53:0.0700619 54:-0.796178 55:-1 56:-0.732483 57:-1 58:-1 59:-1 60:-0.847134 61:-1 62:-1 63:-0.872612 64:-0.694268 65:-1 66:-0.949045 67:-1 68:-1 69:-1 70:-1 
-1 -1 1 1 1 1:-0.879195 2:-0.986577 3:-1 4:-1 5:-0.986577 6:-1 7:-0.959732 8:1 9:-0.973154 10:-1 11:-0.838926 12:0.409396 13:-1 14:-1 15:0.395971 16:-0.489933 17:0.409396 18:-0.516778 19:0.771811 20:-1 21:-0.422819 22:-0.637585 23:-0.758389 24:-0.946309 25:-0.798658 26:-0.771812 27:-0.624162 28:-0.946309 29:-0.382551 30:-0.892617 31:-0.0604034 32:-0.865772 33:-0.973154 34:-0.865772 35:-0.932886 36:-0.744967 37:-0.919463 38:-0.986577 39:-0.986577 40:-0.771812 41:-0.248322 42:-0.503356 43:-0.651007 44:-0.14094 45:-0.919463 46:-0.302014 47:-0.852349 48:-1 49:-0.919463 50:-0.302014 51:-1 52:-0.865772 53:-0.489933 54:-0.463088 55:-0.476511 56:-0.14094 57:-0.503356 58:-1 59:-0.959732 60:0.449664 61:-1 62:-1 63:0.422819 64:-0.0335585 65:-0.731544 66:-1 67:-1 68:-1 69:-1 70:-0.932886 
-0.4777614126061451 -1 1 0.9937796445582199 1 1:-1 2:-0.891304 3:-1 4:-1 5:-0.760869 6:-0.891304 7:0.217391 8:0.0652176 9:0.239132 10:-1 11:0.195653 12:-0.217391 13:-1 14:-1 15:0.217391 16:-0.804348 17:-0.173912 18:0.413044 19:-0.173912 20:-0.913044 21:0.630435 22:0.891306 23:-0.869565 24:-1 25:-0.847826 26:-0.782609 27:-0.717391 28:-0.652174 29:-0.586956 30:-0.869565 31:-1 32:-0.956522 33:0.152173 34:-0.826087 35:-0.0434766 36:-0.717391 37:-0.673912 38:-1 39:-0.782609 40:-0.673912 41:-1 42:-1 43:-0.260871 44:0.0217382 45:-0.73913 46:1 47:-0.826087 48:-1 49:-0.978261 50:0.152173 51:-1 52:-1 53:-0.195653 54:0.434782 55:-1 56:-0.978261 57:-1 58:-1 59:-0.891304 60:0.0652176 61:-1 62:-1 63:-1 64:-0.804348 65:-1 66:-1 67:-1 68:-1 69:-1 70:-0.934783 
-1 -1 1 1 1 1:-0.651377 2:-0.59633 3:-1 4:-0.467889 5:-0.926606 6:-1 7:-0.743119 8:-0.0825679 9:-0.247707 10:-0.798165 11:-0.633028 12:0.0458703 13:-1 14:-0.211009 15:-0.44954 16:-1 17:1 18:-0.211009 19:-0.284404 20:0.321102 21:-0.192661 22:-0.0275216 23:-1 24:-0.651377 25:0.688074 26:-0.87156 27:-0.504586 28:-0.87156 29:-0.321102 30:-0.706422 31:0.614679 32:-0.357799 33:-0.798165 34:-0.853211 35:-0.174312 36:-0.724771 37:-0.688073 38:-0.908257 39:-0.541284 40:-0.559633 41:-0.981651 42:-0.944954 43:-0.0825679 44:-0.155963 45:-1 46:-0.0091759 47:-0.908257 48:-0.926606 49:-0.633028 50:-0.504586 51:-1 52:-0.963303 53:0.0825679 54:-0.504586 55:-0.981651 56:0.302753 57:-1 58:-0.87156 59:-0.816514 60:-0.59633 61:-1 62:-1 63:-0.0458704 64:-1 65:-1 66:-0.541284 67:-1 68:0.0275216 69:-1 70:-1 
-1 -1 1 1 1 1:-0.983607 2:-0.803279 3:-1 4:-1 5:-1 6:-1 7:-0.885246 8:1 9:-1 10:-1 11:-0.442623 12:0.508197 13:-0.967213 14:-1 15:0.0163947 16:-1 17:-0.114754 18:-0.639344 19:-0.606556 20:0 21:0.786885 22:-0.344262 23:-0.672131 24:-1 25:0.163936 26:-1 27:0.0163947 28:-1 29:-0.508197 30:-0.819672 31:-1 32:-1 33:-0.918033 34:-0.278687 35:-0.819672 36:-0.327869 37:-0.655738 38:-1 39:-0.819672 40:-0.557377 41:-1 42:-1 43:-0.688526 44:-0.0491795 45:-1 46:0.114754 47:-1 48:-1 49:-0.606556 50:-0.639344 51:-1 52:-1 53:0.27869 54:-0.311474 55:-1 56:-0.426228 57:-1 58:-1 59:-0.114754 60:-0.622951 61:-1 62:-1 63:-0.672131 64:-1 65:-1 66:-1 67:-1 68:-1 69:-0.983607 70:-1 
-1 -1 1 1 1 1:-0.813954 2:-0.891473 3:-1 4:-1 5:-1 6:-1 7:-1 8:0.503877 9:-1 10:-1 11:-0.736434 12:1 13:-0.984496 14:-1 15:0.00775337 16:-0.953488 17:0.0852703 18:0.116278 19:-0.286822 20:-0.193798 21:-0.333333 22:-0.395349 23:-0.875969 24:-0.906977 25:-0.116278 26:-0.844961 27:-0.209302 28:-0.875969 29:-0.426357 30:-0.705425 31:0.643412 32:-0.953488 33:-0.705425 34:-0.689921 35:-0.379845 36:-0.441861 37:-0.348837 38:-0.984496 39:0.0542624 40:-0.441861 41:-1 42:-1 43:-0.147286 44:0.131782 45:-0.751938 46:0.302325 47:-0.860465 48:-1 49:-0.581396 50:-0.457365 51:-1 52:-1 53:0.333333 54:0.116278 55:-1 56:-0.317829 57:-0.906977 58:-1 59:-1 60:-0.441861 61:-1 62:-1 63:-0.860465 64:-0.891473 65:-1 66:-0.984496 67:-1 68:-1 69:-1 70:-1 
-1 -1 1 0.2115881623177021 0.2361797570484473 1:-1 2:-1 3:-1 4:-0.981308 5:-0.775701 6:-1 7:-0.51402 8:-0.813084 9:-0.775701 10:-1 11:-0.0280362 12:0.15888 13:-0.831776 14:-0.831776 15:-0.476634 16:-0.607478 17:-0.401869 18:1 19:-0.196263 20:-1 21:0.364486 22:0.700936 23:0.00934649 24:-0.457944 25:0.345796 26:0.140187 27:-0.532709 28:-0.813084 29:0.0280393 30:-0.345793 31:0.00934649 32:-0.51402 33:-0.140187 34:-0.121494 35:-0.00934654 36:-0.327103 37:-0.327103 38:-0.532709 39:-0.158877 40:0.102805 41:-1 42:-1 43:0.30841 44:0.271028 45:-0.738318 46:-0.439251 47:0.121498 48:-0.757009 49:-0.551402 50:0.364486 51:-1 52:-1 53:-1 54:-0.794392 55:-1 56:-0.420562 57:-1 58:-0.738318 59:-1 60:-0.775701 61:-1 62:-1 63:-1 64:-0.738318 65:-1 66:-1 67:-1 68:-1 69:-1 70:-1 
-0.1000239913271198 -1 1 1 1 1:-0.192309 2:-0.499998 3:-1 4:-1 5:-0.711538 6:-0.903846 7:-0.961538 8:0.673078 9:-1 10:-1 11:-0.365385 12:0.365385 13:-1 14:-1 15:0.750003 16:-0.365385 17:0.26923 18:-0.673077 19:0.596156 20:-0.499998 21:-0.557694 22:-0.0192294 23:-0.942308 24:-0.942308 25:0.365385 26:0.115384 27:0.423077 28:-0.538461 29:0.0769252 30:-0.115384 31:0.923079 32:-0.346152 33:-0.250001 34:-0.26923 35:-0.576923 36:-0.365385 37:0.0576919 38:-0.326922 39:-0.557694 40:-0.0384626 41:-0.846154 42:-0.576923 43:0.692307 44:0 45:-0.865384 46:-0.557694 47:-0.846154 48:-0.173076 49:-0.26923 50:-0.461539 51:-1 52:-0.961538 53:0.384618 54:1 55:-1 56:-0.0769213 57:-0.980769 58:-1 59:-0.884615 60:0.0576919 61:-1 62:-1 63:-0.923077 64:-0.826923 65:-1 66:-0.884615 67:-1 68:-1 69:-1 70:-0.980769 
-0.3210562864331725 -1 1 1 1 1:-0.896552 2:-0.379309 3:-1 4:-1 5:-0.206895 6:-1 7:-0.172415 8:0.913793 9:1 10:-1 11:-0.534483 12:0.74138 13:-1 14:-1 15:1.66893e-06 16:-0.896552 17:0.0344819 18:0.241379 19:-0.310345 20:-1 21:0.362069 22:-0.655173 23:-1 24:-1 25:-0.0689651 26:-0.810345 27:-0.534483 28:-0.965517 29:-0.637929 30:-1 31:0.258622 32:-0.948276 33:-0.862069 34:-0.896552 35:-0.603449 36:-0.517242 37:-0.672413 38:-1 39:-0.862069 40:-0.913793 41:-1 42:-0.948276 43:0.775863 44:0.137932 45:-0.931035 46:-0.275862 47:-0.517242 48:-1 49:-1 50:0.362069 51:-1 52:-0.620689 53:0.0172417 54:0.637933 55:-1 56:0.293102 57:-0.948276 58:-1 59:-1 60:-0.051725 61:-1 62:-1 63:-0.741379 64:-0.689655 65:-1 66:-0.603449 67:-1 68:-1 69:-1 70:-0.206895 
-1 -1 1 1 1 1:-1 2:-0.872341 3:-0.716312 4:-1 5:-0.404256 6:-1 7:-0.5461 8:0.687944 9:-0.872341 10:-0.843972 11:-0.886525 12:1 13:-0.815603 14:-1 15:0.631206 16:-0.985816 17:0.503547 18:-0.5461 19:-0.404256 20:-0.858156 21:-0.460994 22:-0.531916 23:-0.801418 24:-1 25:-0.787234 26:-0.617022 27:-0.304965 28:-0.758865 29:-0.0921998 30:-0.531916 31:0.631206 32:-0.914894 33:-0.872341 34:-0.971631 35:-0.77305 36:-0.177306 37:-0.985816 38:-0.744681 39:-0.673759 40:-0.659575 41:-0.602837 42:-1 43:-0.744681 44:-0.234044 45:-0.985816 46:-0.617022 47:-0.985816 48:-0.957447 49:-0.716312 50:-0.361703 51:-1 52:-1 53:0.418441 54:0.872341 55:-1 56:0.0780127 57:-1 58:-1 59:-0.631206 60:-0.219859 61:-1 62:-1 63:-0.787234 64:-0.985816 65:-1 66:-1 67:-1 68:-1 69:-0.929078 70:-0.843972 
-0.6394916469581108 -1 1 0.8279847988582246 1 1:-0.983607 2:-0.786885 3:-1 4:-0.967213 5:-0.934426 6:-1 7:-0.852459 8:-0.0491809 9:-0.590162 10:-1 11:0.377051 12:-0.508198 13:-1 14:-0.327869 15:-0.0491809 16:-0.754098 17:-0.508198 18:0.0655749 19:0.639345 20:-1 21:0.508198 22:1 23:-0.934426 24:-0.0819661 25:0.0655749 26:0.590165 27:-0.606556 28:1.43051e-06 29:-0.606556 30:-1 31:-0.885246 32:-0.688524 33:-0.557377 34:-0.868852 35:-0.459015 36:-0.704918 37:-0.344263 38:-1 39:-0.491804 40:-1 41:-1 42:-1 43:1 44:0.131148 45:-0.606556 46:-0.147539 47:0.327869 48:-1 49:-0.934426 50:0.344263 51:-1 52:-1 53:-0.606556 54:-0.868852 55:-1 56:-0.967213 57:-1 58:-1 59:-1 60:0.557377 61:-1 62:-1 63:-0.885246 64:-1 65:-1 66:-1 67:-1 68:-1 69:-1 70:-0.885246 
-0.4787781620393112 -1 1 1 1 1:-0.593751 2:-1 3:-1 4:-1 5:-0.765625 6:-1 7:-1 8:0.859374 9:-0.406251 10:-0.9375 11:-0.609374 12:-0.0625013 13:-1 14:-1 15:1 16:-0.96875 17:0.234375 18:-0.140625 19:0.671874 20:-0.765625 21:-0.390624 22:-0.187501 23:-0.640624 24:-0.84375 25:-0.562501 26:-0.6875 27:-0.609374 28:-0.90625 29:-0.562501 30:-0.65625 31:0.390624 32:-0.375001 33:-0.312501 34:-0.406251 35:-0.875 36:-0.421874 37:-0.375001 38:-0.96875 39:-0.890625 40:-0.281251 41:-0.953125 42:-0.562501 43:-0.468751 44:0.0624985 45:-0.953125 46:-0.328125 47:-0.531251 48:-1 49:-0.984375 50:-0.531251 51:-1 52:-0.96875 53:0.109375 54:0.0312486 55:-1 56:0.156248 57:-0.90625 58:-1 59:-0.984375 60:0.015625 61:-1 62:-1 63:-0.84375 64:-1 65:-1 66:-0.90625 67:-0.96875 68:-1 69:-1 70:-1 
-0.9512874396046124 -1 -1 1 1 1:-1 2:-0.931372 3:-1 4:-1 5:-0.921569 6:-0.862745 7:-0.980392 8:1 9:-1 10:-1 11:-1 12:-0.049019 13:-1 14:-1 15:-0.362746 16:-0.95098 17:-0.107842 18:-0.480391 19:0.196078 20:-1 21:-0.823529 22:0.264705 23:-0.990196 24:-1 25:0.578432 26:-0.980392 27:-0.0588228 28:-1 29:0.0588228 30:-0.901961 31:0.0588228 32:-0.764706 33:-0.921569 34:-0.95098 35:-0.77451 36:-0.568628 37:-0.558824 38:-1 39:-0.784314 40:-0.754902 41:0.284315 42:-1 43:-0.931372 44:-0.931372 45:-1 46:-0.362746 47:-0.980392 48:-1 49:-0.95098 50:-0.215686 51:-1 52:-1 53:-0.186275 54:-0.117646 55:-1 56:0.156863 57:-0.960784 58:-1 59:-1 60:0.392157 61:-1 62:-1 63:0.54902 64:0.519609 65:-1 66:-0.911765 67:-0.833333 68:-1 69:-1 70:-1 
-1 -1 -1 1 1 1:-1 2:-1 3:-1 4:-0.940959 5:-1 6:-1 7:-0.645756 8:-0.298894 9:-0.498155 10:-1 11:-1 12:-0.852399 13:-0.571955 14:-0.822878 15:-0.896679 16:-1 17:-0.431735 18:-0.247233 19:-0.210332 20:-1 21:-1 22:0.335793 23:-0.0405915 24:-0.188192 25:0.542435 26:-1 27:-0.357933 28:-0.616237 29:-0.571955 30:-1 31:1 32:-0.409593 33:-0.579336 34:-0.343174 35:-0.616237 36:-0.594095 37:-0.520295 38:-0.785978 39:-0.734317 40:-0.712177 41:-0.926199 42:-1 43:-0.904059 44:-0.653136 45:-0.95572 46:-0.129151 47:-0.97048 48:-0.97786 49:-0.911439 50:-0.409593 51:-1 52:-1 53:-0.837638 54:-0.97786 55:-1 56:-0.225093 57:-1 58:-1 59:-1 60:0.107011 61:-1 62:-1 63:-0.99262 64:-1 65:-1 66:-0.97786 67:-1 68:-1 69:-1 70:-0.911439 
-1 -1 -1 1 1 1:-1 2:-0.692308 3:-1 4:-1 5:-0.671796 6:-1 7:-0.907692 8:1 9:-0.917949 10:-0.917949 11:-0.907692 12:-0.323077 13:-1 14:-1 15:-0.394873 16:-1 17:0.0974351 18:-0.538462 19:-0.210257 20:-0.907692 21:0.210257 22:0.415385 23:-0.979487 24:-1 25:-0.230769 26:-1 27:-0.00512737 28:-1 29:-0.128204 30:-0.969231 31:0.158974 32:-0.938462 33:-0.825641 34:-0.897436 35:-0.241026 36:-0.815385 37:-0.835897 38:-1 39:-0.579488 40:-0.589743 41:-1 42:-1 43:0.0153846 44:0.0153846 45:-1 46:-0.0871803 47:-0.88718 48:-1 49:-0.85641 50:-0.210257 51:-1 52:-1 53:0.0666659 54:0.261538 55:-1 56:0.158974 57:-1 58:-1 59:-0.948718 60:-0.0461539 61:-1 62:-1 63:-0.815385 64:-0.917949 65:-1 66:-0.794872 67:-1 68:-1 69:-0.897436 70:-0.897436 
-0.953385749464092 -1 -1 1 1 1:-1 2:-0.836177 3:-1 4:-0.986348 5:-0.692833 6:-1 7:-0.836177 8:-0.358363 9:-0.658702 10:-1 11:-1 12:0.235494 13:-0.993174 14:-0.938567 15:-0.522184 16:-1 17:0.262798 18:-0.897611 19:-0.187714 20:-1 21:-0.66553 22:-0.044369 23:-0.945393 24:-0.597271 25:0.208191 26:-0.945393 27:-0.440274 28:-0.610922 29:-0.501706 30:-0.692833 31:1 32:-0.911263 33:-0.938567 34:0.0784973 35:-0.542661 36:-0.624574 37:-0.56314 38:0.0784973 39:-0.699658 40:-0.119455 41:-0.883959 42:-0.993174 43:-0.604095 44:-0.535836 45:-1 46:-0.0989762 47:-0.972696 48:-0.829351 49:-0.692833 50:-0.638226 51:-1 52:-1 53:0.481229 54:-0.706485 55:-1 56:-0.0102383 57:-1 58:-0.938567 59:-0.808874 60:-0.501706 61:-1 62:-1 63:-0.549488 64:-0.863481 65:-1 66:-0.870307 67:-1 68:-0.993174 69:-1 70:-0.597271 
-0.7077450031787539 -1 -1 1 1 1:-1 2:-0.976923 3:-1 4:-1 5:-1 6:-1 7:-1 8:0.784616 9:-1 10:-1 11:-1 12:0.907692 13:-1 14:-1 15:1 16:-1 17:0.138462 18:-0.684616 19:-0.00769335 20:-1 21:-0.984615 22:-0.830769 23:-1 24:-1 25:-0.9 26:-1 27:-0.107693 28:-1 29:-0.0153857 30:-1 31:0.976923 32:-1 33:-0.576924 34:-0.738462 35:-1 36:-1 37:-0.930769 38:-1 39:-0.876923 40:-1 41:-0.892308 42:-1 43:0.115386 44:0.123078 45:-1 46:-0.538462 47:-1 48:-1 49:-1 50:-0.138462 51:-1 52:-1 53:-0.438462 54:-0.284616 55:-1 56:0.638462 57:-1 58:-1 59:-1 60:0.238462 61:-1 62:-1 63:-1 64:-1 65:-1 66:-1 67:-1 68:-1 69:-1 70:-1 
-1 -1 -1 1 1 1:-1 2:-1 3:-0.900356 4:-0.907473 5:-0.978648 6:-1 7:-0.288256 8:-0.580072 9:-0.217082 10:-1 11:-1 12:0.572954 13:-0.302492 14:-1 15:0.679716 16:-1 17:-0.459074 18:0.174378 19:-0.231316 20:-1 21:1 22:-0.572954 23:-0.736654 24:-0.402136 25:-0.701068 26:-1 27:-0.772242 28:-0.658362 29:-0.580072 30:-1 31:-1 32:-1 33:-0.451958 34:-0.08185 35:-1 36:-0.964413 37:-0.708186 38:-0.935943 39:-0.97153 40:-1 41:-1 42:-1 43:-0.672598 44:-0.672598 45:-1 46:-0.437722 47:-0.772242 48:-1 49:-1 50:-0.822064 51:-1 52:-1 53:-0.935943 54:-0.935943 55:-1 56:0.11032 57:-1 58:-1 59:-1 60:0.44484 61:-1 62:-1 63:-1 64:-1 65:-1 66:-0.708186 67:-1 68:-1 69:-1 70:-0.622776 
-1 -1 -1 1 1 1:-1 2:-0.917051 3:-1 4:-1 5:-0.760369 6:-0.852535 7:-1 8:1 9:-1 10:-0.953917 11:-1 12:-0.0230407 13:-1 14:-1 15:-0.179723 16:0.10599 17:-0.668204 18:-0.861751 19:-0.668204 20:-0.253456 21:-0.990783 22:-0.124424 23:-1 24:-1 25:-0.0967739 26:-0.714285 27:-0.963134 28:-1 29:-0.815668 30:-0.898618 31:-0.0506904 32:-0.797235 33:-0.981567 34:-1 35:-0.824885 36:-0.824885 37:-0.834101 38:-1 39:-0.354839 40:-0.327189 41:0.179723 42:-1 43:0.087558 44:-0.373273 45:-1 46:-0.926267 47:-0.797235 48:-1 49:-0.824885 50:-0.760369 51:-1 52:-1 53:0.0322587 54:0.511521 55:-1 56:-0.64977 57:0.0138248 58:-1 59:-0.281106 60:-0.668204 61:-1 62:-1 63:-1 64:-1 65:-1 66:-1 67:-0.612904 68:-1 69:-0.917051 70:-1 
-1 -1 -1 1 1 1:-1 2:-0.577142 3:-0.611428 4:0.634286 5:-0.931428 6:-1 7:-1 8:-0.394285 9:-0.977143 10:-0.977143 11:-1 12:0.862856 13:0.805714 14:0.0514287 15:0.52 16:-0.348572 17:-0.862857 18:-0.222857 19:-0.428571 20:-0.257143 21:-0.00571597 22:-0.325714 23:-0.851429 24:-0.691428 25:0.360001 26:0.405714 27:-0.908572 28:0.0171419 29:-0.177144 30:-0.199999 31:1 32:-0.942857 33:-0.405714 34:-0.977143 35:-0.931428 36:-0.280001 37:-0.657144 38:-0.451429 39:-0.0171418 40:0.234286 41:-0.977143 42:-1 43:-0.92 44:-1 45:-1 46:-0.931428 47:0.177144 48:-0.931428 49:-0.634286 50:-0.782857 51:-1 52:-1 53:-1 54:-1 55:-1 56:-0.828571 57:0.0628576 58:-1 59:-0.771429 60:-1 61:-1 62:-1 63:-1 64:-1 65:-1 66:-1 67:-0.794286 68:-1 69:-0.977143 70:-1 
-1 -1 -1 1 1 1:-1 2:-0.259911 3:-1 4:-1 5:0.00440645 6:-0.947136 7:-1 8:1 9:-0.903084 10:-1 11:-0.973568 12:0.753306 13:-1 14:-1 15:0.409693 16:-0.964758 17:-0.0572678 18:-0.251101 19:0.0837013 20:-0.947136 21:-0.656388 22:-0.744493 23:-0.920705 24:-1 25:-0.700441 26:-0.788546 27:0.251101 28:-1 29:-0.154186 30:-0.638767 31:0.550662 32:-1 33:-0.885462 34:-0.682818 35:-0.964758 36:-0.770925 37:-0.735683 38:-1 39:-0.541849 40:-0.629957 41:-0.171806 42:-1 43:-0.550659 44:-0.506608 45:-1 46:0.330396 47:-0.823788 48:-1 49:-0.735683 50:0.0837013 51:-1 52:-1 53:0.8326 54:0.903085 55:-1 56:-0.118942 57:-0.911894 58:-1 59:-1 60:-0.171806 61:-1 62:-1 63:-0.726872 64:-0.964758 65:-1 66:-0.991189 67:-0.973568 68:-1 69:-1 70:-0.947136 
-0 -1 -1 1 1 1:-1 2:-0.629956 3:-1 4:-1 5:-1 6:-1 7:-0.471366 8:-0.136564 9:-0.814978 10:-1 11:-1 12:0.8326 13:-1 14:-0.348018 15:0.550662 16:-1 17:0.233479 18:0.444936 19:0.0572681 20:-1 21:-0.585902 22:-0.726871 23:-0.823788 24:-0.665198 25:-0.0484588 26:-1 27:-0.312776 28:-0.788546 29:-0.171807 30:-1 31:1 32:-0.955947 33:-0.85022 34:-0.22467 35:-0.982379 36:-0.929515 37:-0.929515 38:-1 39:-0.594714 40:-0.991189 41:-0.894273 42:-1 43:-0.0660799 44:-0.339206 45:-1 46:-0.559472 47:-1 48:-1 49:-0.955947 50:-0.568281 51:-1 52:-1 53:0.180616 54:-0.929515 55:-1 56:0.480178 57:-1 58:-1 59:-1 60:0.550662 61:-1 62:-1 63:-0.920705 64:-0.973568 65:-1 66:-0.471366 67:-1 68:-1 69:-1 70:-0.471366 
-0 -1 -1 1 1 1:-0.956989 2:-0.0752688 3:-1 4:-1 5:-0.806452 6:-0.935484 7:-0.978495 8:1 9:-0.784946 10:-0.935484 11:-0.935484 12:0.569892 13:-1 14:-1 15:0.591398 16:-0.956989 17:0.548387 18:-0.311828 19:-0.0752688 20:-1 21:-0.913979 22:-0.870968 23:-1 24:-1 25:-0.204301 26:-0.913979 27:-0.182796 28:-1 29:0.290323 30:-0.978495 31:-0.16129 32:-1 33:-0.978495 34:-0.892473 35:-0.978495 36:-0.849462 37:-0.827957 38:-1 39:-0.763441 40:-0.849462 41:0.591398 42:-1 43:0.204301 44:0.139785 45:-0.978495 46:-0.569893 47:-0.913979 48:-1 49:-0.978495 50:0.032258 51:-1 52:-1 53:0.462366 54:0.44086 55:-1 56:0.784946 57:-0.956989 58:-1 59:-1 60:0.225806 61:-0.935484 62:-0.935484 63:-1 64:-1 65:-0.935484 66:-0.870968 67:-1 68:-1 69:-1 70:-0.806452 
-0.4576917020998147 -1 -1 1 1 1:-1 2:-0.0740743 3:-1 4:-0.962963 5:0.518518 6:-1 7:-1 8:0.88889 9:0.259259 10:-1 11:-1 12:0.148149 13:-1 14:-0.703703 15:-0.259259 16:-1 17:-0.814815 18:-0.666667 19:-0.333333 20:-1 21:-1 22:-0.814815 23:-1 24:-0.851852 25:-1 26:-1 27:0.629628 28:-0.962963 29:-0.703703 30:-1 31:1 32:-1 33:-0.740741 34:0.629628 35:-1 36:-1 37:-0.555556 38:-1 39:-0.962963 40:-1 41:-0.740741 42:-1 43:-0.481482 44:-0.851852 45:-1 46:0.333333 47:-1 48:-1 49:-1 50:-1 51:-1 52:-1 53:0.481482 54:-1 55:-1 56:-0.222223 57:-1 58:-1 59:-1 60:0.370369 61:-1 62:-1 63:-1 64:-1 65:-1 66:-0.851852 67:-1 68:-1 69:-1 70:-0.11111 
-0.3565270894518937 -1 -1 -1 1 1:-1 2:-1 3:-1 4:-1 5:-0.479167 6:-1 7:-0.958333 8:0.124999 9:-0.875 10:-1 11:-1 12:-0.0416663 13:-1 14:-1 15:-0.4375 16:-1 17:1 18:-0.0833327 19:0.916667 20:-1 21:-1 22:0.0833327 23:-1 24:-1 25:-0.0416663 26:-1 27:-1 28:-1 29:-1 30:-1 31:1 32:-1 33:-0.8125 34:-0.8125 35:-1 36:-1 37:-1 38:-1 39:-1 40:-1 41:-0.958333 42:-1 43:-0.145834 44:-0.208334 45:-1 46:-0.166667 47:-1 48:-1 49:-1 50:-0.5625 51:-1 52:-1 53:-0.208334 54:-0.208334 55:-1 56:0.208334 57:-1 58:-1 59:-1 60:0.0833327 61:-1 62:-1 63:-0.791666 64:-0.729167 65:-1 66:-1 67:-1 68:-1 69:-1 70:-0.479167 
-1 -1 -1 -1 1 1:-1 2:-0.854545 3:-1 4:-1 5:-1 6:-1 7:-0.454546 8:0 9:-0.909091 10:-1 11:-1 12:0.454546 13:-1 14:-1 15:-0.4 16:-1 17:0.363636 18:0 19:0.90909 20:-1 21:-1 22:-0.6 23:-1 24:-1 25:0.29091 26:-0.890909 27:-0.927273 28:-1 29:-1 30:-1 31:1 32:-1 33:-0.70909 34:-0.618182 35:-0.890909 36:-0.872727 37:-0.981818 38:-1 39:-1 40:-0.345454 41:-1 42:-1 43:-0.29091 44:-0.30909 45:-1 46:-0.381818 47:-1 48:-1 49:-1 50:-0.527272 51:-1 52:-1 53:-0.49091 54:-0.618182 55:-1 56:0.09091 57:-1 58:-1 59:-1 60:-0.127272 61:-1 62:-1 63:-0.50909 64:-0.454546 65:-1 66:-0.945455 67:-1 68:-1 69:-1 70:-1 
-0 -1 -0.7455357394633877 -1 1 1:-1 2:-1 3:-1 4:-1 5:-1 6:-1 7:-0.945946 8:0.31081 9:-0.783784 10:-1 11:-1 12:0.283784 13:-1 14:-1 15:0.175676 16:-1 17:0.945946 18:-0.31081 19:0.743244 20:-1 21:-1 22:-0.283784 23:-0.959459 24:-0.986486 25:-0.175676 26:-1 27:-1 28:-1 29:-0.959459 30:-1 31:1 32:-1 33:-0.472972 34:-0.918919 35:-1 36:-1 37:-1 38:-1 39:-1 40:-0.918919 41:-1 42:-1 43:-0.932432 44:-0.364864 45:-1 46:-0.22973 47:-1 48:-1 49:-1 50:-0.405406 51:-1 52:-1 53:0.364864 54:0.27027 55:-1 56:0.22973 57:-1 58:-1 59:-1 60:0.324324 61:-1 62:-1 63:-1 64:-1 65:-1 66:-1 67:-1 68:-1 69:-1 70:-1 
-0 -0.6539358116897295 -1 -1 1 1:-1 2:-0.873239 3:-1 4:-1 5:-1 6:-1 7:-0.774647 8:0.676058 9:-1 10:-1 11:-1 12:0.323944 13:-0.915493 14:-1 15:0.859156 16:-1 17:0.422536 18:-0.633803 19:0.929579 20:-1 21:-0.957746 22:-0.450703 23:-0.929577 24:-0.985915 25:-0.816901 26:-0.901408 27:-0.661972 28:-1 29:-0.887324 30:-1 31:1 32:-0.957746 33:-0.943662 34:-0.84507 35:-1 36:-0.830986 37:-0.943662 38:-1 39:-1 40:-0.873239 41:-1 42:-1 43:-0.577464 44:0.492957 45:-1 46:-0.464788 47:-1 48:-1 49:-1 50:-0.56338 51:-1 52:-1 53:0.408451 54:-0.619718 55:-1 56:0.239438 57:-1 58:-1 59:-1 60:0.478874 61:-1 62:-1 63:-1 64:-1 65:-1 66:-1 67:-1 68:-1 69:-1 70:-1 
-0 -1 -1 -1 1 1:-1 2:-0.875 3:-1 4:-1 5:-1 6:-1 7:-0.892857 8:0.857142 9:-1 10:-1 11:-1 12:0.875 13:-1 14:-1 15:1 16:-1 17:0.767858 18:-0.857143 19:0.5 20:-1 21:-1 22:-1 23:-0.821429 24:-0.839286 25:-1 26:-1 27:-0.875 28:-1 29:-0.5 30:-1 31:1 32:-1 33:-0.964286 34:-0.714286 35:-1 36:-1 37:-1 38:-1 39:-1 40:-1 41:-1 42:-1 43:0.535714 44:-0.017858 45:-1 46:0.214286 47:-1 48:-1 49:-1 50:-0.982143 51:-1 52:-1 53:-0.75 54:-0.428572 55:-1 56:-0.214286 57:-1 58:-1 59:-1 60:0.982142 61:-1 62:-1 63:-1 64:-1 65:-1 66:-1 67:-1 68:-1 69:-1 70:-1 
-1 -1 -1 -1 1 1:-1 2:-1 3:-1 4:-1 5:-1 6:-1 7:-0.668966 8:0.737932 9:-1 10:-1 11:-1 12:0.986206 13:-1 14:-1 15:1 16:-1 17:0.434482 18:-0.737932 19:0.02069 20:-1 21:-0.668966 22:-0.986207 23:-0.972414 24:-0.917241 25:-1 26:-1 27:-0.765518 28:-1 29:-0.048276 30:-1 31:0.668966 32:-1 33:-0.931034 34:-0.862069 35:-1 36:-0.986207 37:-1 38:-1 39:-0.972414 40:-1 41:-1 42:-1 43:-0.2 44:0.462068 45:-1 46:-0.55862 47:-1 48:-1 49:-1 50:-0.048276 51:-1 52:-1 53:0.103448 54:-0.682758 55:-1 56:0.544828 57:-1 58:-1 59:-1 60:0.0482759 61:-1 62:-1 63:-1 64:-1 65:-1 66:-1 67:-1 68:-1 69:-1 70:-1 
-1 -1 -1 -1 1 1:-1 2:-1 3:-1 4:-1 5:-1 6:-1 7:-0.904762 8:0.657142 9:-1 10:-1 11:-1 12:0.142858 13:-1 14:-1 15:-0.44762 16:-1 17:0.428572 18:-0.657142 19:1 20:-1 21:-1 22:-0.142858 23:-1 24:-1 25:0.409524 26:-1 27:-0.52381 28:-1 29:-1 30:-1 31:1 32:-1 33:-0.809524 34:-0.828571 35:-0.961905 36:-0.75238 37:-1 38:-1 39:-1 40:-0.733334 41:-1 42:-1 43:0.028572 44:-0.314286 45:-1 46:-0.00952399 47:-1 48:-1 49:-1 50:-0.371428 51:-1 52:-1 53:-0.390476 54:-0.104762 55:-1 56:-0.238096 57:-1 58:-1 59:-1 60:0.104762 61:-1 62:-1 63:-0.828571 64:-0.75238 65:-1 66:-1 67:-1 68:-1 69:-1 70:-1 
-1 -1 -1 -1 1 1:-1 2:-0.922481 3:-1 4:-1 5:-0.953488 6:-1 7:-0.72093 8:0.131783 9:-0.984496 10:-1 11:-1 12:-0.131784 13:-1 14:-1 15:-0.100776 16:-1 17:0.100776 18:0.689923 19:0.255814 20:-1 21:-0.240309 22:0.0697681 23:-1 24:-1 25:0.271317 26:-0.488371 27:-0.410853 28:-1 29:0.472869 30:-0.937985 31:0.984498 32:-0.64341 33:-0.736434 34:-0.844961 35:-0.472869 36:-0.0542629 37:-0.751938 38:-1 39:-0.922481 40:-0.100776 41:-0.922481 42:-0.550387 43:-0.441861 44:0.0542628 45:-0.922481 46:-0.395348 47:-0.395348 48:-1 49:-1 50:-0.193799 51:-1 52:-1 53:1 54:0.612405 55:-1 56:-0.457363 57:-1 58:-1 59:-1 60:0.0542628 61:-1 62:-1 63:-1 64:-1 65:-1 66:-0.782946 67:-1 68:-1 69:-1 70:-1 
-0 -1 -0.287816866270759 -1 1 1:-1 2:-1 3:-1 4:-1 5:-1 6:-1 7:-1 8:-0.111112 9:-1 10:-1 11:-1 12:0.74074 13:-1 14:-1 15:0.185186 16:-1 17:1 18:0.111112 19:0.888888 20:-1 21:-1 22:-0.74074 23:-1 24:-1 25:-0.185186 26:-1 27:-1 28:-1 29:-0.888889 30:-1 31:1 32:-1 33:-0.685186 34:-0.166666 35:-1 36:-0.814815 37:-1 38:-1 39:-1 40:-0.796296 41:-1 42:-1 43:0.111112 44:-0.333334 45:-1 46:-0.24074 47:-1 48:-1 49:-1 50:-0.203704 51:-1 52:-1 53:-0.425926 54:-0.518518 55:-1 56:0.0555561 57:-1 58:-1 59:-1 60:0 61:-1 62:-1 63:-1 64:-0.981481 65:-1 66:-1 67:-1 68:-1 69:-1 70:-1 
-1 -1 -1 -1 1 1:-1 2:-0.952 3:-1 4:-1 5:-0.968 6:-1 7:-0.696 8:-0.104 9:-0.456 10:-1 11:-1 12:0.232 13:-1 14:-1 15:0.648 16:-1 17:0.552 18:0.104 19:0.328 20:-1 21:-1 22:-0.28 23:-1 24:-1 25:-0.68 26:-1 27:-0.856 28:-1 29:-0.872 30:-1 31:1 32:-1 33:-0.84 34:-0.936 35:-1 36:-0.92 37:-1 38:-1 39:-1 40:-0.76 41:-1 42:-1 43:-0.104 44:-0.184 45:-1 46:-0.36 47:-1 48:-1 49:-1 50:-0.296 51:-1 52:-1 53:-0.136 54:0.056 55:-1 56:0.28 57:-1 58:-1 59:-1 60:0.056 61:-1 62:-1 63:-0.92 64:-0.936 65:-1 66:-1 67:-1 68:-1 69:-1 70:-1 
-1 -1 -1 -1 1 1:-1 2:-0.903846 3:-1 4:-1 5:-1 6:-1 7:-0.711538 8:-0.0192302 9:-0.76923 10:-1 11:-1 12:0.0576924 13:-1 14:-1 15:0.307693 16:-1 17:0.557692 18:0.0961548 19:0.576925 20:-1 21:-0.903846 22:-0.0576925 23:-0.903846 24:-0.788462 25:-0.211538 26:-1 27:-0.75 28:-0.980769 29:-0.711538 30:-0.961538 31:1 32:-1 33:-0.153845 34:-0.26923 35:-1 36:-0.153845 37:-1 38:-1 39:-1 40:-0.0576925 41:-1 42:-1 43:-0.76923 44:-0.807692 45:-1 46:-0.576923 47:-1 48:-1 49:-1 50:-0.903846 51:-1 52:-1 53:-0.211538 54:-0.0576925 55:-1 56:-0.173077 57:-1 58:-1 59:-1 60:0.0192322 61:-1 62:-1 63:-0.865385 64:-0.980769 65:-1 66:-1 67:-1 68:-1 69:-1 70:-1 
-1 -1 -1 -1 1 1:-1 2:-0.985185 3:-1 4:-1 5:-0.940741 6:-1 7:-0.318519 8:0.985185 9:-0.792593 10:-1 11:-1 12:-0.111112 13:-1 14:-1 15:0.362964 16:-1 17:0.422223 18:-0.866667 19:0.644445 20:-1 21:-0.881481 22:-0.570371 23:-0.851852 24:-0.925926 25:-0.362964 26:-1 27:-0.985185 28:-1 29:-0.837037 30:-1 31:1 32:-0.214816 33:0.0222212 34:-0.674074 35:-0.940741 36:-0.688889 37:-1 38:-1 39:-0.896296 40:-0.733334 41:-1 42:-1 43:-0.62963 44:0.111112 45:-1 46:-0.0962972 47:-1 48:-1 49:-1 50:0.155556 51:-1 52:-1 53:-0.555556 54:-0.392593 55:-1 56:-0.0962972 57:-1 58:-1 59:-1 60:-0.348149 61:-1 62:-1 63:-0.866667 64:-1 65:-1 66:-1 67:-1 68:-1 69:-1 70:-0.955556 
-1 -1 -1 -1 -1 1:-1 2:-1 3:-1 4:-1 5:-1 6:-1 7:-1 8:1 9:-1 10:-1 11:-1 12:-0.0243918 13:-1 14:-1 15:-0.203251 16:-1 17:0.17073 18:-0.463416 19:0.105689 20:-1 21:-1 22:0.23577 23:-1 24:-1 25:0.17073 26:-1 27:0.219511 28:-1 29:-0.365854 30:-0.934959 31:0.495935 32:-0.804878 33:-1 34:-1 35:-0.723578 36:-0.739838 37:-0.853659 38:-1 39:-0.203251 40:0.382114 41:0.0406488 42:-0.869919 43:0.0243893 44:-0.333332 45:-0.739838 46:-0.252032 47:-1 48:-1 49:-1 50:-0.723578 51:-1 52:-1 53:-0.235773 54:0.642276 55:-0.96748 56:0.512195 57:-1 58:-1 59:-1 60:-0.186992 61:-1 62:-1 63:-0.252032 64:-0.772358 65:-1 66:-0.98374 67:-1 68:-1 69:-1 70:-1 
-0.3831721104539362 -1 -1 -1 -1 1:-1 2:-0.939394 3:-1 4:-1 5:-1 6:-1 7:-1 8:0.838384 9:-1 10:-1 11:-1 12:0.111112 13:-1 14:-1 15:-0.010102 16:-1 17:0.919192 18:-0.838384 19:1 20:-1 21:-1 22:-0.19192 23:-1 24:-1 25:0.0101 26:-0.959596 27:-0.979798 28:-1 29:-1 30:-1 31:0.535354 32:-0.979798 33:-0.939394 34:-1 35:-1 36:-0.878788 37:-0.939394 38:-1 39:-1 40:-0.79798 41:-0.535354 42:-1 43:-0.39394 44:-0.39394 45:-1 46:0.050506 47:-1 48:-1 49:-1 50:0.171718 51:-1 52:-1 53:-0.333334 54:-0.171718 55:-1 56:-0.212122 57:-1 58:-1 59:-1 60:-0.373738 61:-1 62:-1 63:-0.333334 64:-0.434344 65:-1 66:-1 67:-1 68:-1 69:-1 70:-1 
-1 -1 -1 -1 -1 1:-1 2:-1 3:-1 4:-1 5:-1 6:-1 7:-0.962963 8:0.685186 9:-1 10:-1 11:-1 12:-0.277778 13:-1 14:-1 15:-0.148148 16:-1 17:0.851852 18:-0.685186 19:0.981482 20:-1 21:-1 22:0.277778 23:-0.962963 24:-1 25:0.148148 26:-1 27:-0.888889 28:-1 29:-0.981481 30:-1 31:1 32:-1 33:0 34:-0.12963 35:-1 36:-0.75926 37:-1 38:-1 39:-1 40:-0.981481 41:-1 42:-1 43:-0.851852 44:-0.574074 45:-1 46:0.111112 47:-1 48:-1 49:-1 50:0.277778 51:-1 52:-1 53:-0.185186 54:-0.296296 55:-1 56:-0.351852 57:-1 58:-1 59:-1 60:-0.296296 61:-1 62:-1 63:-1 64:-1 65:-1 66:-1 67:-1 68:-1 69:-1 70:-1 
-0 -1 -1 -1 -1 1:-1 2:-1 3:-1 4:-1 5:-1 6:-1 7:-1 8:1 9:-0.938144 10:-1 11:-1 12:0.835052 13:-1 14:-1 15:0.670104 16:-1 17:0.979382 18:-1 19:0.938144 20:-1 21:-1 22:-0.835052 23:-0.938144 24:-1 25:-0.670104 26:-1 27:-0.979381 28:-1 29:-1 30:-1 31:1 32:-1 33:-0.917526 34:-0.814433 35:-1 36:-0.979381 37:-1 38:-1 39:-1 40:-1 41:-1 42:-1 43:0.113402 44:0.13402 45:-1 46:0.340206 47:-1 48:-1 49:-1 50:0.484536 51:-1 52:-1 53:-0.257732 54:-0.319588 55:-1 56:-0.360824 57:-1 58:-1 59:-1 60:-0.484536 61:-1 62:-1 63:-1 64:-1 65:-1 66:-1 67:-1 68:-1 69:-1 70:-1 
-0 -1 -1 -1 -1 1:-1 2:-1 3:-1 4:-1 5:-0.775862 6:-1 7:-0.931034 8:1 9:-0.534482 10:-1 11:-1 12:1 13:-1 14:-1 15:0.775862 16:-1 17:0.448276 18:-1 19:0.224138 20:-1 21:-0.844828 22:-1 23:-1 24:-1 25:-1 26:-1 27:-0.517242 28:-1 29:-0.689656 30:-1 31:0.844828 32:-1 33:-0.913793 34:-0.948276 35:-1 36:-1 37:-1 38:-1 39:-1 40:-1 41:-1 42:-1 43:0.36207 44:0.103448 45:-1 46:-0.568966 47:-1 48:-1 49:-1 50:-0.75862 51:-1 52:-1 53:-0.448276 54:-0.155172 55:-1 56:0.568966 57:-1 58:-1 59:-1 60:0.75862 61:-1 62:-1 63:-1 64:-1 65:-1 66:-1 67:-1 68:-1 69:-1 70:-1 
-1 -1 -1 -1 -1 1:-1 2:-1 3:-1 4:-1 5:-0.955556 6:-1 7:-0.9 8:1 9:-0.755556 10:-1 11:-1 12:0.911112 13:-1 14:-1 15:0.777778 16:-1 17:-0.133334 18:-1 19:-0.288888 20:-1 21:-0.944444 22:-0.911111 23:-1 24:-1 25:-0.822222 26:-1 27:0.033334 28:-1 29:-0.111112 30:-1 31:0.944444 32:-1 33:-1 34:-1 35:-1 36:-1 37:-1 38:-1 39:-0.933333 40:-0.911111 41:-1 42:-1 43:0.188888 44:0.2 45:-1 46:-0.744444 47:-1 48:-1 49:-0.911111 50:-0.844444 51:-1 52:-1 53:-0.188888 54:-0.2 55:-1 56:0.744444 57:-1 58:-1 59:-1 60:0.733334 61:-1 62:-1 63:-1 64:-1 65:-1 66:-1 67:-1 68:-1 69:-1 70:-0.977778 
-1 -1 -1 -1 -1 1:-1 2:-0.472223 3:-1 4:-1 5:-0.277777 6:-1 7:-0.222223 8:1 9:-0.111111 10:-1 11:-0.944444 12:0.680555 13:-1 14:-1 15:-0.194445 16:-1 17:-0.527779 18:-0.61111 19:-0.361111 20:-1 21:-0.152778 22:-0.833333 23:-1 24:-1 25:-0.652777 26:-1 27:-0.222223 28:-1 29:-0.458334 30:-1 31:-0.194445 32:-0.986111 33:-0.944444 34:-0.958333 35:-0.486112 36:-0.319444 37:-0.666666 38:-1 39:-0.680555 40:-0.51389 41:-0.319444 42:-1 43:0.152778 44:-0.0138878 45:-1 46:0.0277792 47:-0.972222 48:-1 49:-1 50:0.0277792 51:-1 52:-1 53:0.180556 54:0.333335 55:-1 56:-0.472223 57:-1 58:-1 59:-1 60:-0.125 61:-1 62:-1 63:-1 64:-0.972222 65:-1 66:-0.847222 67:-1 68:-1 69:-1 70:-1 
-1 -1 -1 -1 -1 1:-1 2:-0.916168 3:-1 4:-1 5:-0.952096 6:-1 7:-0.952096 8:1 9:-0.976048 10:-0.568863 11:-1 12:0.616765 13:-1 14:-1 15:-0.269461 16:-0.461078 17:-0.341318 18:-0.892216 19:-0.42515 20:-0.485031 21:-0.437127 22:-0.592814 23:-0.988024 24:-1 25:0.161675 26:-0.568863 27:-0.748503 28:-1 29:-0.556887 30:-0.964072 31:-0.568863 32:-1 33:-0.952096 34:-0.976048 35:-0.832335 36:-0.976048 37:-0.832335 38:-1 39:-0.88024 40:-0.844311 41:0.113772 42:-1 43:-0.0179646 44:-0.101798 45:-1 46:-0.688623 47:-0.988024 48:-1 49:-0.964072 50:-0.233534 51:-1 52:-1 53:0.0538918 54:-0.0419175 55:-1 56:-0.293414 57:-0.0419175 58:-1 59:-0.652694 60:-0.796407 61:-1 62:-1 63:-0.988024 64:-0.772454 65:-1 66:-0.904192 67:-0.988024 68:-1 69:-0.437127 70:-1 
-1 -1 -1 -1 -1 1:-1 2:-0.671642 3:-1 4:-1 5:-0.134328 6:-1 7:-0.791044 8:0.22388 9:-1 10:-1 11:-1 12:0.477612 13:-1 14:-1 15:-0.567164 16:-0.880597 17:0.119404 18:-0.22388 19:0.208956 20:-1 21:-1 22:-0.835821 23:-1 24:-1 25:-0.298508 26:-0.820896 27:-0.567164 28:-1 29:-0.283582 30:-1 31:1 32:-0.970149 33:-1 34:-1 35:-1 36:-0.80597 37:-0.761194 38:-1 39:-0.925373 40:-0.835821 41:-1 42:-1 43:-0.134328 44:-0.686568 45:-1 46:-0.373134 47:-1 48:-1 49:-1 50:0.014926 51:-1 52:-1 53:0.134328 54:0.686568 55:-1 56:-0.253732 57:-1 58:-1 59:-1 60:-0.179104 61:-1 62:-1 63:-1 64:-1 65:-1 66:-0.865672 67:-1 68:-1 69:-1 70:-1 
-0 -1 -0.2361797570484472 -1 -1 1:-1 2:-0.787879 3:-1 4:-1 5:-0.787879 6:-1 7:-0.727274 8:1 9:-1 10:-1 11:-1 12:0.848486 13:-1 14:-1 15:0.848486 16:-1 17:0.666666 18:-0.878788 19:0.742425 20:-1 21:-0.787879 22:-0.939394 23:-1 24:-1 25:-0.939394 26:-1 27:-0.818182 28:-1 29:-0.621213 30:-1 31:0.909091 32:-1 33:-1 34:-1 35:-1 36:-0.954545 37:-1 38:-1 39:-1 40:-0.954545 41:-1 42:-1 43:-0.833333 44:-0.075758 45:-1 46:-0.484849 47:-1 48:-1 49:-1 50:-0.39394 51:-1 52:-1 53:0.954547 54:0.181819 55:-1 56:0.560606 57:-1 58:-1 59:-1 60:0.469697 61:-1 62:-1 63:-1 64:-0.984848 65:-1 66:-1 67:-1 68:-1 69:-1 70:-1 
-0.547369460575556 -1 -1 -1 -1 1:-1 2:-1 3:-1 4:-1 5:-1 6:-1 7:-0.907692 8:0.276924 9:-0.953846 10:-1 11:-1 12:0.384616 13:-1 14:-1 15:0.56923 16:-1 17:0.907692 18:-0.276924 19:0.753846 20:-1 21:-1 22:-0.384616 23:-1 24:-1 25:-0.56923 26:-1 27:-1 28:-1 29:-0.8 30:-1 31:1 32:-1 33:-0.307692 34:-0.23077 35:-1 36:-0.507692 37:-1 38:-1 39:-1 40:-0.276924 41:-1 42:-1 43:-0.6 44:-0.753846 45:-1 46:-0.6 47:-1 48:-1 49:-1 50:-0.76923 51:-1 52:-1 53:-0.092308 54:-0.015384 55:-1 56:0.107692 57:-1 58:-1 59:-1 60:0.046154 61:-1 62:-1 63:-1 64:-1 65:-1 66:-1 67:-1 68:-1 69:-1 70:-1 
-1 -1 -1 -1 -1 1:-1 2:-0.986577 3:-1 4:-1 5:-0.892617 6:-1 7:-0.838926 8:0.100672 9:-0.852349 10:-1 11:-1 12:-0.167786 13:-1 14:-1 15:-0.087248 16:-1 17:0.530202 18:-0.100672 19:0.637584 20:-1 21:-1 22:0.154362 23:-1 24:-0.959732 25:-0.221476 26:-0.959732 27:-0.704698 28:-1 29:-0.785234 30:-0.946309 31:1 32:-1 33:-0.28859 34:-0.221476 35:-0.798658 36:-0.100672 37:-0.986577 38:-1 39:-1 40:-0.100672 41:-1 42:-1 43:-0.57047 44:-0.677852 45:-1 46:-0.677852 47:-1 48:-1 49:-1 50:-0.919463 51:-1 52:-1 53:-0.14094 54:-0.14094 55:-1 56:-0.261744 57:-1 58:-1 59:-1 60:-0.060402 61:-1 62:-1 63:-1 64:-1 65:-1 66:-1 67:-1 68:-1 69:-1 70:-0.973154 
