svm_type c_svc
kernel_type rbf
gamma 0.0125
nr_class 6
total_sv 72
rho 0.181655 -0.0426559 -0.00654581 -0.0327552 -0.0408928 -0.303073 -0.233915 -0.277828 -0.242008 0.0473464 0.0341138 0.0821247 -0.0389775 -0.0239716 3.09348e-05
label 8 10 12 13 15 16
nr_sv 12 12 12 12 12 12
SV
1 1 1 1 1 1:0 2:0 3:0 4:0 5:0 6:0.238532 7:0 8:0 9:0.0183486 10:0.541284 11:0 12:0.00917431 13:0 14:0 15:0.137615 16:0.412844 17:0.275229 18:1 19:0.238532 20:0.119266 21:0 22:0.284404 23:0 24:0 25:0.110092 26:0.0366972 27:0.0275229 28:0 29:0.0458716 30:0.0275229 31:0.559633 32:0.0366972 33:0 34:0 35:0.0825688 36:0.0366972 37:0.0183486 38:0 39:0.0183486 40:0.0366972 41:0.431193 42:0.00917431 43:0.192661 44:0.183486 45:0.0366972 46:0.220183 47:0.0458716 48:0 49:0.0733945 50:0.256881 51:0.00917431 52:0.229358 53:0.155963 54:0.119266 55:0.238532 56:0.0550459 57:0.513761 58:0 59:0.366972 60:0.0183486 61:0 62:0.284404 63:0.651376 64:0.697248 65:0.238532 66:0 67:0.119266 68:0 69:0.238532 70:0 71:0 72:0.146789 73:0 74:0 75:0.155963 76:0 77:0 78:0 79:0 80:0 
1 1 1 1 1 1:0 2:0 3:0 4:0 5:0 6:0.15528 7:0 8:0.124224 9:0 10:0.118012 11:0 12:0.111801 13:0 14:0 15:0.198758 16:0.360248 17:0.136646 18:0.875776 19:0.15528 20:0.335404 21:0 22:0.15528 23:0 24:0 25:0.0993789 26:0.180124 27:0.0310559 28:0 29:0.0559006 30:0.192547 31:0.36646 32:0.167702 33:0 34:0 35:0.10559 36:0.0931677 37:0.0434783 38:0 39:0.0372671 40:0.118012 41:0.621118 42:0.248447 43:0 44:0 45:0.15528 46:0.0434783 47:0.0931677 48:0 49:0.0807453 50:0.0372671 51:0.0124224 52:0.0993789 53:0 54:0 55:0.180124 56:0.0372671 57:0.285714 58:0 59:0.378882 60:0.0621118 61:0 62:0.111801 63:0.242236 64:0.21118 65:0.223602 66:0.130435 67:0.347826 68:0 69:0.267081 70:0.136646 71:0 72:0.10559 73:0.757764 74:0.78882 75:0.0372671 76:0 77:0.0621118 78:0 79:0.0248447 80:0 
1 1 1 1 1 1:0 2:0 3:0 4:0 5:0 6:0.107527 7:0.11828 8:0.860215 9:0 10:0.0860215 11:0 12:0.139785 13:0 14:0 15:0 16:0.688172 17:0.0215054 18:0.139785 19:0 20:0.709677 21:0.0537634 22:0.0107527 23:0 24:0 25:0.150538 26:0.0322581 27:0.0215054 28:0 29:0.139785 30:0.0322581 31:0.946237 32:0.139785 33:0 34:0 35:0.0645161 36:0.0322581 37:0.0322581 38:0 39:0.0322581 40:0.0107527 41:0 42:0.247312 43:0.0107527 44:0 45:0.236559 46:0.0107527 47:0.290323 48:0 49:0.139785 50:0.0215054 51:0 52:0.27957 53:0.946237 54:0.935484 55:0.247312 56:0.129032 57:0.494624 58:0 59:0.612903 60:0.11828 61:0 62:0.182796 63:0.0430108 64:0.0645161 65:0.27957 66:0 67:0.0215054 68:0 69:0.0752688 70:0.0215054 71:0 72:0 73:0 74:0 75:0.0215054 76:0 77:0 78:0 79:0 80:0 
1 1 1 1 1 1:0 2:0 3:0 4:0 5:0 6:0.267974 7:0 8:0.575163 9:0 10:0.20915 11:0 12:0.0392157 13:0 14:0 15:0.104575 16:0.581699 17:0 18:0.424837 19:0.0915033 20:0.633987 21:0.0718954 22:0.0718954 23:0 24:0 25:0.0130719 26:0.0196078 27:0.104575 28:0 29:0.0130719 30:0.0261438 31:0.928105 32:0.0522876 33:0 34:0 35:0.0326797 36:0.0130719 37:0.00653595 38:0 39:0.00653595 40:0.0130719 41:0 42:0.372549 43:0 44:0 45:0.320261 46:0.0130719 47:0.0196078 48:0 49:0.0130719 50:0.0130719 51:0 52:0.431373 53:0.477124 54:0.660131 55:0.392157 56:0.104575 57:0.0392157 58:0 59:0.0522876 60:0.0130719 61:0 62:0.0326797 63:0.503268 64:0.27451 65:0.137255 66:0 67:0.699346 68:0 69:0.48366 70:0.0915033 71:0 72:0 73:0.0196078 74:0.0653595 75:0 76:0 77:0.130719 78:0 79:0.339869 80:0 
1 1 1 1 1 1:0 2:0 3:0 4:0 5:0.0307692 6:0.0205128 7:0 8:0.994872 9:0 10:0 11:0 12:0.220513 13:0 14:0 15:0.292308 16:0.671795 17:0.179487 18:0.00512821 19:0.194872 20:0.558974 21:0.641026 22:0.25641 23:0.00512821 24:0 25:0.282051 26:0.0974359 27:0.0307692 28:0 29:0.0358974 30:0.184615 31:0.358974 32:0.220513 33:0.0205128 34:0 35:0.158974 36:0 37:0.00512821 38:0 39:0.0153846 40:0.0153846 41:0 42:0.123077 43:0.374359 44:0.441026 45:0.174359 46:0.00512821 47:0.00512821 48:0 49:0.0205128 50:0.0205128 51:0 52:0.169231 53:0.589744 54:0.558974 55:0.0615385 56:0.205128 57:0.425641 58:0 59:0.533333 60:0.0615385 61:0 62:0.0102564 63:0.0102564 64:0 65:0 66:0 67:0.353846 68:0 69:0.2 70:0.158974 71:0 72:0 73:0 74:0 75:0 76:0 77:0 78:0 79:0 80:0 
1 1 1 1 1 1:0 2:0 3:0 4:0 5:0 6:0.046729 7:0 8:0.841121 9:0 10:0.0560748 11:0 12:0.38785 13:0 14:0 15:0.327103 16:0.481308 17:0.00934579 18:0.158879 19:0.0654206 20:0.439252 21:0 22:0.121495 23:0 24:0 25:0.233645 26:0.0654206 27:0.331776 28:0 29:0.214953 30:0.0747664 31:0.0514019 32:0.233645 33:0 34:0 35:0.224299 36:0.0327103 37:0.0327103 38:0 39:0.0654206 40:0.0841122 41:0.948598 42:0.0981308 43:0.0140187 44:0.0841122 45:0.107477 46:0.0280374 47:0.0280374 48:0 49:0.0794393 50:0.046729 51:0 52:0.0654206 53:0.985981 54:0.915888 55:0.107477 56:0.331776 57:0.0794393 58:0 59:0.0700935 60:0.088785 61:0 62:0.0934579 63:0 64:0 65:0 66:0.0140187 67:0.490654 68:0 69:0.415888 70:0.21028 71:0 72:0 73:0 74:0 75:0 76:0 77:0.0280374 78:0 79:0.088785 80:0 
1 1 1 1 1 1:0 2:0.0582011 3:0 4:0 5:0.037037 6:0.0846561 7:0.116402 8:0.0687831 9:0 10:0.026455 11:0 12:0.465608 13:0 14:0 15:0.190476 16:0.0952381 17:0.042328 18:0.899471 19:0 20:0.142857 21:0.126984 22:0.243386 23:0 24:0 25:0.142857 26:0.354497 27:0.259259 28:0.031746 29:0.031746 30:0.52381 31:0.873016 32:0.0687831 33:0.507937 34:0.100529 35:0.243386 36:0.232804 37:0.333333 38:0 39:0.412698 40:0.21164 41:0 42:0.10582 43:0.328042 44:0.354497 45:0.116402 46:0.111111 47:0.111111 48:0 49:0.285714 50:0.031746 51:0 52:0.047619 53:0.164021 54:0.507937 55:0.116402 56:0.121693 57:0.116402 58:0 59:0.243386 60:0.026455 61:0 62:0.010582 63:0 64:0.037037 65:0.153439 66:0 67:0.021164 68:0 69:0.026455 70:0.037037 71:0 72:0 73:0 74:0 75:0 76:0 77:0 78:0 79:0 80:0 
1 1 1 1 1 1:0.196891 2:0 3:0 4:0 5:0 6:0.00518135 7:0 8:0.430052 9:0.015544 10:0.0569948 11:0 12:0.284974 13:0 14:0 15:0.202073 16:0.26943 17:0 18:0.569948 19:0.19171 20:0.248705 21:0.227979 22:0.243523 23:0 24:0 25:0.284974 26:0.253886 27:0.279793 28:0 29:0.233161 30:0.145078 31:0.378238 32:0.165803 33:0 34:0 35:0.11399 36:0.11399 37:0.103627 38:0 39:0.0518135 40:0.0725389 41:0.196891 42:0.11399 43:0.160622 44:0.0259067 45:0.238342 46:0.0829016 47:0.124352 48:0 49:0.119171 50:0.0466321 51:0 52:0.129534 53:0.124352 54:0.233161 55:0.139896 56:0.253886 57:0.0673575 58:0 59:0.0932643 60:0.150259 61:0 62:0.015544 63:0.430052 64:0.61658 65:0.0207254 66:0.0207254 67:0.414508 68:0 69:0.248705 70:0.134715 71:0 72:0.0466321 73:0.284974 74:0.124352 75:0 76:0 77:0.0103627 78:0 79:0.0466321 80:0.145078 
1 1 1 1 1 1:0 2:0 3:0 4:0 5:0 6:0 7:0 8:0 9:0 10:0.0344828 11:0 12:0.0948276 13:0 14:0 15:0.0172414 16:0.560345 17:0.301724 18:0.887931 19:0.137931 20:0.525862 21:0.00862069 22:0.336207 23:0 24:0 25:0.431034 26:0.0431034 27:0.0258621 28:0.112069 29:0.198276 30:0.0862069 31:0.991379 32:0.103448 33:0.12069 34:0 35:0.0517241 36:0.0775862 37:0.0775862 38:0 39:0.0689655 40:0.206897 41:0 42:0.198276 43:0.0689655 44:0.215517 45:0.163793 46:0.267241 47:0.0603448 48:0 49:0.0689655 50:0.112069 51:0 52:0.189655 53:0.310345 54:0.241379 55:0.181034 56:0.0517241 57:0.517241 58:0 59:0.525862 60:0.0344828 61:0 62:0.0775862 63:0.5 64:0.543103 65:0.155172 66:0 67:0.0172414 68:0 69:0 70:0 71:0 72:0 73:0 74:0 75:0 76:0 77:0 78:0 79:0 80:0 
1 1 1 1 1 1:0 2:0.0566038 3:0 4:0 5:0.0314465 6:0.0314465 7:0 8:0.72956 9:0 10:0.169811 11:0 12:0.0628931 13:0 14:0 15:0.0503145 16:0.666667 17:0 18:0.27044 19:0 20:0.496855 21:0 22:0.132075 23:0 24:0 25:0.138365 26:0.213836 27:0 28:0 29:0 30:0.245283 31:0.754717 32:0.157233 33:0 34:0 35:0.132075 36:0.0503145 37:0.0314465 38:0 39:0 40:0.0880503 41:0.245283 42:0.176101 43:0.00628931 44:0 45:0.150943 46:0.0377358 47:0.0314465 48:0 49:0.0880503 50:0 51:0 52:0.207547 53:0.421384 54:0.27044 55:0.150943 56:0 57:0.176101 58:0 59:0.314465 60:0 61:0 62:0.188679 63:0.465409 64:0.534591 65:0.27044 66:0 67:0.622642 68:0 69:0.484277 70:0 71:0 72:0.0188679 73:0.106918 74:0.194969 75:0.0754717 76:0 77:0.138365 78:0 79:0.113208 80:0 
1 1 1 1 1 1:0 2:0.0147783 3:0 4:0 5:0 6:0.0246305 7:0 8:0.655172 9:0 10:0.0295567 11:0 12:0.187192 13:0 14:0 15:0.00492611 16:0.536946 17:0.00985222 18:0.344828 19:0 20:0.650246 21:0.0295567 22:0.0738916 23:0 24:0 25:0.187192 26:0.236453 27:0.123153 28:0 29:0 30:0.310345 31:0.970443 32:0.0738916 33:0 34:0 35:0.152709 36:0.0246305 37:0.0640394 38:0 39:0.00492611 40:0.00985222 41:0 42:0.133005 43:0 44:0 45:0.157635 46:0.0197044 47:0.0985222 48:0 49:0.275862 50:0 51:0 52:0.408867 53:0.453202 54:0.339901 55:0.364532 56:0.157635 57:0.541872 58:0 59:0.669951 60:0 61:0 62:0.108374 63:0.546798 64:0.660098 65:0.133005 66:0 67:0.157635 68:0 69:0.0492611 70:0 71:0 72:0 73:0 74:0 75:0 76:0 77:0.00492611 78:0 79:0 80:0 
1 1 1 1 1 1:0 2:0 3:0 4:0 5:0 6:0.201031 7:0 8:1 9:0 10:0.134021 11:0 12:0.118557 13:0 14:0 15:0.185567 16:0.592784 17:0.0670103 18:0 19:0.0412371 20:0.561856 21:0.0154639 22:0.0670103 23:0 24:0 25:0.00515464 26:0.0206186 27:0.0824742 28:0 29:0.139175 30:0.118557 31:0.731959 32:0.0927835 33:0 34:0 35:0.0412371 36:0.00515464 37:0.0309278 38:0 39:0 40:0.00515464 41:0.252577 42:0.103093 43:0 44:0 45:0.180412 46:0.00515464 47:0.00515464 48:0 49:0.00515464 50:0 51:0 52:0.180412 53:0 54:0 55:0.185567 56:0.0979381 57:0.0154639 58:0 59:0.0773196 60:0.108247 61:0 62:0.427835 63:0.958763 64:0.902062 65:0.402062 66:0.0773196 67:0.525773 68:0 69:0.56701 70:0.0721649 71:0 72:0.0103093 73:0.0412371 74:0.0979381 75:0 76:0 77:0.273196 78:0 79:0.170103 80:0 
-1 1 1 1 1 1:0 2:0 3:0 4:0 5:0 6:0 7:0.0761905 8:0 9:0 10:0.0190476 11:0 12:0 13:0 14:0 15:0 16:0 17:0.92381 18:1 19:0.0380952 20:0.238095 21:0 22:1 23:0 24:0.790476 25:0.695238 26:0 27:0 28:0 29:0.333333 30:0.0571429 31:0.047619 32:0 33:0 34:0.209524 35:0.0380952 36:0 37:0 38:0 39:0.295238 40:0.047619 41:0.952381 42:0 43:0 44:0 45:0.190476 46:0 47:0 48:0 49:0.047619 50:0.419048 51:0 52:0 53:1 54:0 55:0.0285714 56:1 57:0 58:0 59:0.0666667 60:0.2 61:0 62:0 63:0 64:0 65:0.047619 66:0 67:0 68:0 69:0.219048 70:0.0190476 71:0 72:0 73:0 74:0 75:0 76:0 77:0 78:0 79:0 80:0 
-1 1 1 1 1 1:0 2:0.136842 3:0 4:0 5:0 6:0 7:0.0631579 8:0 9:0 10:0 11:0 12:0.305263 13:0 14:0 15:0 16:0 17:0.2 18:1 19:0.0736842 20:0.326316 21:0 22:0.0736842 23:0 24:0 25:0.389474 26:0 27:0.157895 28:0 29:0.442105 30:0.115789 31:0.0105263 32:0.2 33:0 34:0 35:0.368421 36:0.0105263 37:0.0210526 38:0 39:0.0210526 40:0.0210526 41:0.631579 42:0.284211 43:0 44:0 45:0.157895 46:0.568421 47:0.557895 48:0 49:0.0210526 50:0.0210526 51:0.357895 52:0 53:0 54:0 55:0.0842105 56:0.189474 57:0 58:0 59:0.0526316 60:0.0736842 61:0 62:0 63:0 64:0.0105263 65:0 66:0.189474 67:0 68:0 69:0.389474 70:0.442105 71:0 72:0 73:1 74:0.989474 75:0 76:0.0421053 77:0 78:0 79:0 80:0 
-1 1 1 1 1 1:0 2:0 3:0 4:0 5:0 6:0 7:0 8:0.140351 9:0 10:0.0701754 11:0 12:0.561404 13:0 14:0 15:0 16:0.0526316 17:0.789474 18:0.859649 19:0 20:0.859649 21:0 22:0.385965 23:0 24:0 25:0.105263 26:0 27:0.157895 28:0 29:0 30:0.0701754 31:1 32:0.0526316 33:0 34:0 35:0.754386 36:0 37:0 38:0 39:0 40:0 41:0 42:0 43:0 44:0.280702 45:0.0877193 46:0 47:0.0526316 48:0 49:0.0877193 50:0 51:0 52:0 53:0.157895 54:0.438596 55:0.0526316 56:0.947368 57:0 58:0 59:0.807018 60:0 61:0 62:0 63:0.842105 64:0.280702 65:0 66:0 67:0 68:0 69:0.105263 70:0 71:0 72:0 73:0 74:0 75:0 76:0 77:0 78:0 79:0 80:0 
-1 1 1 1 1 1:0 2:0.196078 3:0 4:0 5:0 6:0 7:0 8:0.882353 9:0 10:0.0588235 11:0 12:0.313726 13:0 14:0 15:0.0196078 16:0 17:0.0784314 18:0.117647 19:0.0588235 20:0.431373 21:0 22:0.352941 23:0 24:0 25:0.196078 26:0.0392157 27:0.411765 28:0 29:0.254902 30:0.0392157 31:0 32:0 33:0 34:0 35:0.156863 36:0.137255 37:0.215686 38:0 39:0.0196078 40:0.0980392 41:0.588235 42:0.0196078 43:0.117647 44:0 45:0.372549 46:0.137255 47:0.117647 48:0 49:0.0588235 50:0.117647 51:0.411765 52:0.0588235 53:0.686275 54:0.745098 55:0.254902 56:0.470588 57:0.156863 58:0 59:0.0980392 60:0.176471 61:0 62:0.0588235 63:0.196078 64:0.254902 65:0 66:0.215686 67:0.0196078 68:0 69:0.490196 70:0.0784314 71:0 72:0 73:0 74:0 75:0 76:0 77:0 78:0 79:0.0196078 80:0 
-1 1 1 1 1 1:0 2:0.304 3:0 4:0 5:0 6:0 7:0 8:1 9:0.288 10:0 11:0 12:0.696 13:0 14:0 15:0.536 16:0 17:0.84 18:0 19:0.032 20:0.216 21:0 22:0 23:0 24:0 25:0.4 26:0 27:0.16 28:0 29:0.048 30:0.392 31:1 32:0 33:0 34:0 35:0.056 36:0 37:0 38:0 39:0.176 40:0.04 41:0 42:0 43:0.656 44:0.184 45:0.008 46:0 47:0 48:0 49:0.32 50:0.04 51:0 52:0 53:0.344 54:0.8 55:0 56:0.624 57:0 58:0 59:0.136 60:0.176 61:0 62:0 63:0 64:0.016 65:0 66:0.376 67:0 68:0 69:0 70:0.136 71:0 72:0 73:0 74:0 75:0 76:0 77:0 78:0 79:0 80:0 
-1 1 1 1 1 1:0 2:0 3:0 4:0 5:0 6:0 7:0 8:1 9:0 10:0 11:0 12:0.827586 13:0 14:0 15:0.568965 16:0 17:1 18:0 19:0.525862 20:0.232759 21:0 22:0.172414 23:0 24:0 25:0.241379 26:0 27:0 28:0 29:0.0431034 30:0.12069 31:0.913793 32:0 33:0 34:0 35:0.12069 36:0 37:0 38:0 39:0.0344828 40:0.0344828 41:0.0862069 42:0 43:0 44:0 45:0.0517241 46:0 47:0 48:0 49:0.0948276 50:0.0431034 51:0 52:0 53:0.905172 54:0.87069 55:0.0172414 56:0 57:0 58:0 59:0.0689655 60:0.0689655 61:0 62:0 63:0.0948276 64:0.12931 65:0 66:1 67:0 68:0 69:0.232759 70:0.5 71:0 72:0 73:0 74:0 75:0 76:0 77:0 78:0 79:0 80:0 
-1 1 1 1 1 1:0 2:0 3:0 4:0 5:0 6:0 7:0 8:0.844828 9:0.215517 10:0 11:0 12:0.431034 13:0 14:0 15:0.0775862 16:0 17:0 18:0.155172 19:0.37069 20:0.318966 21:0 22:0.508621 23:0 24:0 25:0.0689655 26:0 27:0 28:0 29:0.0603448 30:0.0689655 31:1 32:0.0603448 33:0 34:0 35:0.491379 36:0 37:0 38:0 39:0.232759 40:0.284483 41:0 42:0 43:0 44:0 45:0.198276 46:0.482759 47:0.0775862 48:0 49:0.12069 50:0.25 51:0 52:0 53:0.844828 54:0.284483 55:0.103448 56:0.517241 57:0.922414 58:0 59:0 60:0.0775862 61:0 62:0 63:0.155172 64:0.663793 65:0.0603448 66:0 67:0 68:0 69:0 70:0 71:0 72:0 73:0 74:0.0517241 75:0 76:0 77:0 78:0 79:0 80:0 
-1 1 1 1 1 1:0 2:0 3:0 4:0 5:0 6:0 7:0 8:1 9:0 10:0 11:0 12:0.568 13:0 14:0 15:0.304 16:0 17:0.992 18:0 19:0.152 20:0 21:0 22:0.432 23:0 24:0 25:0.64 26:0 27:0.008 28:0 29:0.12 30:0.04 31:0 32:0 33:0 34:0 35:0.056 36:0 37:0 38:0 39:0.544 40:0.128 41:1 42:0 43:0 44:0 45:0 46:0 47:0 48:0 49:0.136 50:0.552 51:0 52:0 53:0 54:0 55:0 56:0.048 57:0 58:0 59:0.04 60:0.12 61:0 62:0 63:1 64:1 65:0 66:0.952 67:0 68:0 69:0.008 70:0.16 71:0 72:0 73:0 74:0 75:0 76:0 77:0 78:0 79:0 80:0 
-1 1 1 1 1 1:0 2:0 3:0 4:0 5:0 6:0 7:0 8:0 9:0.00819672 10:0.0245902 11:0 12:0.0819672 13:0 14:0 15:0.0491803 16:0.286885 17:0.221311 18:1 19:0.360656 20:0.180328 21:0 22:0.598361 23:0 24:0 25:0.47541 26:0.229508 27:0.0983607 28:0 29:0.155738 30:0.221311 31:0.688525 32:0.319672 33:0 34:0 35:0.0737705 36:0.163934 37:0.270492 38:0 39:0.0901639 40:0.122951 41:0.311475 42:0 43:0 44:0.0901639 45:0.245902 46:0.0901639 47:0.163934 48:0 49:0.172131 50:0.196721 51:0 52:0 53:0.860656 54:0.811475 55:0.0983607 56:0.229508 57:0.245902 58:0 59:0.213115 60:0.254098 61:0 62:0 63:0.139344 64:0.0983607 65:0.0327869 66:0 67:0 68:0 69:0 70:0 71:0 72:0 73:0 74:0 75:0.0245902 76:0 77:0 78:0 79:0 80:0 
-1 1 1 1 1 1:0 2:0 3:0 4:0 5:0 6:0 7:0 8:0.940594 9:0 10:0 11:0 12:0.623762 13:0 14:0 15:0.227723 16:0.118812 17:0 18:0.0594059 19:0.148515 20:0.158416 21:0 22:0.376238 23:0 24:0 25:0.39604 26:0.386139 27:0.0792079 28:0 29:0.366337 30:0.188119 31:0 32:0 33:0 34:0 35:0.188119 36:0.346535 37:0.168317 38:0 39:0.0594059 40:0.049505 41:0.821782 42:0 43:0 44:0 45:0.128713 46:0.0594059 47:0.207921 48:0 49:0.039604 50:0.039604 51:0.178218 52:0 53:0 54:0 55:0.0594059 56:0.0891089 57:0.287129 58:0 59:0.039604 60:0.0990099 61:0 62:0 63:1 64:1 65:0 66:0 67:0.257426 68:0 69:0.168317 70:0.465347 71:0 72:0 73:0 74:0 75:0 76:0 77:0 78:0 79:0.178218 80:0 
-1 1 1 1 1 1:0 2:0 3:0 4:0 5:0 6:0 7:0.783333 8:0 9:0.225 10:0 11:0 12:0 13:0 14:0 15:0.35 16:0 17:0.216667 18:0.541667 19:0.616667 20:0 21:0 22:1 23:0 24:0 25:0.533333 26:0 27:0 28:0.458333 29:0.125 30:0.0333333 31:1 32:0 33:0.75 34:0.8 35:0.0416667 36:0 37:0 38:0 39:0.0333333 40:0.108333 41:0 42:0 43:0.25 44:0.2 45:0.0333333 46:0.291667 47:0 48:0 49:0 50:0.808333 51:0 52:0 53:0 54:0 55:0.0416667 56:0.708333 57:0 58:0 59:0 60:0.05 61:0 62:0 63:0 64:0 65:0 66:0 67:0 68:0 69:0 70:0 71:0 72:0 73:0 74:0 75:0 76:0 77:0 78:0 79:0 80:0 
-1 1 1 1 1 1:0 2:0 3:0 4:0 5:0.00628931 6:0 7:0 8:1 9:0 10:0 11:0 12:0.72956 13:0 14:0 15:0.805031 16:0 17:0.72956 18:0 19:0.509434 20:0 21:0 22:0.27044 23:0 24:0 25:0.113208 26:0 27:0.113208 28:0 29:0.27673 30:0.0125786 31:0 32:0 33:0 34:0 35:0.0188679 36:0 37:0.157233 38:0 39:0.0691824 40:0.132075 41:1 42:0 43:0 44:0 45:0.0188679 46:0.150943 47:0 48:0 49:0.125786 50:0.0628931 51:0 52:0 53:0 54:0.0188679 55:0.0377358 56:0.0754717 57:0 58:0 59:0.0188679 60:0.402516 61:0 62:0 63:1 64:0.981132 65:0 66:0.773585 67:0 68:0 69:0 70:0.389937 71:0 72:0 73:0 74:0 75:0 76:0 77:0 78:0 79:0 80:0 
-1 -1 1 1 1 1:0 2:0.129353 3:0 4:0 5:0.0199005 6:0 7:0.0348259 8:0.532338 9:0.0248756 10:0 11:0 12:0.293532 13:0 14:0 15:0.422886 16:0 17:0.333333 18:0.467662 19:0.41791 20:0 21:0.039801 22:0.447761 23:0 24:0 25:0.368159 26:0.0149254 27:0.0597015 28:0 29:0.21393 30:0 31:0.671642 32:0.129353 33:0 34:0.0199005 35:0.149254 36:0.228856 37:0.144279 38:0 39:0.298507 40:0.039801 41:0.288557 42:0 43:0.0199005 44:0.343284 45:0.0199005 46:0.482587 47:0.393035 48:0 49:0.0447761 50:0.606965 51:0 52:0 53:0.606965 54:0.447761 55:0.0199005 56:0.159204 57:0.0348259 58:0 59:0 60:0.318408 61:0 62:0 63:0.343284 64:0.0945274 65:0 66:0.109453 67:0 68:0 69:0 70:0.0348259 71:0 72:0 73:0.0298507 74:0.0945274 75:0 76:0.00497512 77:0 78:0 79:0 80:0 
-1 -1 1 1 1 1:0.0263158 2:0 3:0 4:0 5:0 6:0 7:0.00526316 8:0.747368 9:0.00526316 10:0 11:0.0736842 12:0.363158 13:0 14:0 15:0.494737 16:0.194737 17:0.531579 18:0.205263 19:0.563158 20:0 21:0.115789 22:0.268421 23:0.0421053 24:0 25:0.121053 26:0.0421053 27:0.152632 28:0.0421053 29:0.357895 30:0.0263158 31:0.357895 32:0.115789 33:0.0578947 34:0.0578947 35:0.0315789 36:0.105263 37:0.0368421 38:0.00526316 39:0.0210526 40:0.0263158 41:0.426316 42:0.0315789 43:0.0473684 44:0.126316 45:0.0263158 46:0.157895 47:0.0315789 48:0 49:0.0105263 50:0.173684 51:0 52:0.210526 53:0.136842 54:0.3 55:0.0368421 56:0.2 57:0.0473684 58:0 59:0.0368421 60:0.305263 61:0 62:0.0105263 63:0.247368 64:0.152632 65:0.210526 66:0.3 67:0.194737 68:0 69:0.00526316 70:0.447368 71:0 72:0 73:0.468421 74:0.363158 75:0.0789474 76:0 77:0 78:0 79:0 80:0.0210526 
-1 -1 1 1 1 1:0 2:0.0307692 3:0 4:0 5:0.0461538 6:0.0384615 7:0.423077 8:0.123077 9:0.323077 10:0 11:0.269231 12:0.2 13:0 14:0 15:0.353846 16:0.0307692 17:0.292308 18:0.623077 19:0.369231 20:0.0307692 21:0.353846 22:0.5 23:0 24:0 25:0.130769 26:0.1 27:0.0692308 28:0.246154 29:0.115385 30:0.0153846 31:0.376923 32:0.269231 33:0.384615 34:0.0230769 35:0.215385 36:0.0923077 37:0.0846154 38:0.00769231 39:0.138462 40:0.0615385 41:0 42:0 43:0.138462 44:0.0769231 45:0.2 46:0.353846 47:0.1 48:0 49:0.00769231 50:0.230769 51:0 52:0 53:0.476923 54:0.376923 55:0.0538462 56:0.384615 57:0.0307692 58:0 59:0.0153846 60:0.446154 61:0 62:0 63:0 64:0.5 65:0 66:0 67:0 68:0 69:0.0307692 70:0.192308 71:0 72:0 73:0 74:0.0230769 75:0 76:0 77:0 78:0 79:0 80:0.0230769 
-1 -1 1 1 1 1:0.0988372 2:0.116279 3:0 4:0.104651 5:0.0174419 6:0 7:0.0406977 8:0.244186 9:0.19186 10:0.00581395 11:0.0813954 12:0.209302 13:0 14:0.284884 15:0.0988372 16:0 17:0.668605 18:0.27907 19:0.174419 20:0.44186 21:0.244186 22:0.302326 23:0 24:0.110465 25:0.476744 26:0.0290698 27:0.0988372 28:0.0406977 29:0.168605 30:0.104651 31:0.296512 32:0.284884 33:0.0116279 34:0.0697674 35:0.226744 36:0.0348837 37:0.133721 38:0.0348837 39:0.226744 40:0.133721 41:0.27907 42:0.0697674 43:0.168605 44:0.0348837 45:0.174419 46:0.267442 47:0.0406977 48:0.0116279 49:0.139535 50:0.0465116 51:0 52:0.0116279 53:0.313953 54:0.372093 55:0.00581395 56:0.174419 57:0.0174419 58:0.0232558 59:0.0755814 60:0.255814 61:0 62:0.00581395 63:0.22093 64:0.0232558 65:0 66:0.377907 67:0 68:0.0697674 69:0.0232558 70:0.0116279 71:0 72:0 73:0.284884 74:0 75:0 76:0.116279 77:0 78:0.296512 79:0 80:0 
-1 -1 1 1 1 1:0 2:0.0555556 3:0 4:0 5:0 6:0 7:0.0208333 8:0.770833 9:0 10:0 11:0.0486111 12:0.534722 13:0 14:0 15:0.222222 16:0 17:0.263889 18:0.229167 19:0.159722 20:0.229167 21:0.930556 22:0.402778 23:0.111111 24:0 25:0.597222 26:0 27:0.416667 28:0 29:0.0972222 30:0.263889 31:0.0208333 32:0.00694444 33:0.0486111 34:0.131944 35:0.145833 36:0.0138889 37:0.298611 38:0 39:0.180556 40:0.00694444 41:0 42:0 43:0.0833333 44:0.326389 45:0.0347222 46:0.479167 47:0 48:0 49:0.0208333 50:0.305556 51:0 52:0 53:0.215278 54:0.513889 55:0 56:0.388889 57:0 58:0 59:0.305556 60:0.0416667 61:0 62:0 63:0.409722 64:0.0277778 65:0 66:0.118056 67:0 68:0 69:0.236111 70:0.152778 71:0 72:0 73:0.131944 74:0 75:0 76:0 77:0 78:0 79:0 80:0 
-1 -1 1 1 1 1:0.0617978 2:0.0280899 3:0 4:0 5:0 6:0 7:0 8:0.522472 9:0 10:0 11:0.0842697 12:0.601124 13:0 14:0 15:0.286517 16:0 17:0.252809 18:0.38764 19:0.185393 20:0.151685 21:0.134831 22:0.286517 23:0.0224719 24:0 25:0.337079 26:0.0617978 27:0.303371 28:0.0730337 29:0.241573 30:0.241573 31:0.522472 32:0.0842697 33:0.0955056 34:0.0617978 35:0.168539 36:0.0617978 37:0.292135 38:0.0168539 39:0.146067 40:0.0337079 41:0.196629 42:0 43:0.0561798 44:0.202247 45:0.174157 46:0.404494 47:0.0898876 48:0 49:0.348315 50:0.235955 51:0 52:0 53:0.567416 54:0.55618 55:0.0337079 56:0.275281 57:0.0337079 58:0 59:0.0786517 60:0.185393 61:0 62:0 63:0.235955 64:0.168539 65:0 66:0.191011 67:0.0280899 68:0 69:0 70:0.151685 71:0 72:0 73:0.0224719 74:0.011236 75:0 76:0.00561798 77:0 78:0 79:0 80:0 
-1 -1 1 1 1 1:0 2:0 3:0 4:0.00558659 5:0.0670391 6:0 7:0.117318 8:0.00558659 9:0.0502793 10:0 11:0.167598 12:0.312849 13:0 14:0.0446927 15:0.0893855 16:0.0223464 17:0.173184 18:0.620112 19:0.223464 20:0 21:0.446927 22:0.26257 23:0.22905 24:0.106145 25:0.24581 26:0.290503 27:0.122905 28:0.0446927 29:0.167598 30:0.106145 31:0.385475 32:0.385475 33:0.273743 34:0.206704 35:0.27933 36:0.290503 37:0.111732 38:0.128492 39:0.273743 40:0.26257 41:0 42:0.0391061 43:0.26257 44:0.424581 45:0.296089 46:0.0670391 47:0.357542 48:0.0837989 49:0.22905 50:0.324022 51:0 52:0 53:0.234637 54:0.0893855 55:0.0223464 56:0.329609 57:0.117318 58:0.0837989 59:0.0558659 60:0.284916 61:0 62:0 63:0 64:0.0949721 65:0 66:0 67:0 68:0.0335196 69:0 70:0.0223464 71:0 72:0 73:0 74:0.027933 75:0 76:0 77:0 78:0 79:0 80:0 
-1 -1 1 1 1 1:0.184466 2:0.11165 3:0 4:0 5:0.0485437 6:0.0145631 7:0 8:0.252427 9:0 10:0 11:0.160194 12:0.334951 13:0 14:0 15:0.26699 16:0.11165 17:0.262136 18:0.242718 19:0.305825 20:0.101942 21:0.0485437 22:0.18932 23:0 24:0 25:0.504854 26:0.26699 27:0.252427 28:0.0970874 29:0.271845 30:0.131068 31:0.262136 32:0.145631 33:0.0873786 34:0.0533981 35:0.101942 36:0.179612 37:0.334951 38:0.116505 39:0.165049 40:0.286408 41:0.34466 42:0.160194 43:0.262136 44:0.247573 45:0.0679612 46:0.106796 47:0.121359 48:0.213592 49:0.0728155 50:0.116505 51:0 52:0.0582524 53:0.315534 54:0.262136 55:0.00970874 56:0.106796 57:0.0242718 58:0.0776699 59:0.169903 60:0.135922 61:0 62:0 63:0.320388 64:0.42233 65:0 66:0.194175 67:0.00485437 68:0 69:0.0145631 70:0.223301 71:0 72:0 73:0.0145631 74:0.0145631 75:0 76:0.0194175 77:0 78:0 79:0 80:0.00485437 
-1 -1 1 1 1 1:0.0216216 2:0.162162 3:0 4:0 5:0.2 6:0 7:0.167568 8:0.513514 9:0.6 10:0 11:0.12973 12:0.497297 13:0 14:0 15:0.324324 16:0.027027 17:0.362162 18:0.475676 19:0.210811 20:0 21:0.145946 22:0.172973 23:0 24:0 25:0.302703 26:0.0216216 27:0.145946 28:0.0108108 29:0.145946 30:0 31:0.654054 32:0.027027 33:0 34:0.0216216 35:0.0972973 36:0.0810811 37:0.135135 38:0 39:0.0378378 40:0 41:0.0486486 42:0.00540541 43:0.2 44:0.0810811 45:0.0648649 46:0.216216 47:0.0378378 48:0 49:0.00540541 50:0.135135 51:0 52:0.0810811 53:0.497297 54:0.362162 55:0.0108108 56:0.145946 57:0.135135 58:0 59:0 60:0.389189 61:0 62:0.0540541 63:0.243243 64:0.464865 65:0 66:0.410811 67:0.0162162 68:0 69:0 70:0.259459 71:0 72:0 73:0.0594595 74:0.0702703 75:0 76:0.0972973 77:0 78:0 79:0 80:0.216216 
-1 -1 1 1 1 1:0 2:0.00529101 3:0.0952381 4:0 5:0.174603 6:0 7:0.121693 8:0.544974 9:0.026455 10:0.047619 11:0.015873 12:0.730159 13:0.0687831 14:0 15:0.560847 16:0 17:0.486772 18:0.248677 19:0.174603 20:0.047619 21:0.0740741 22:0.195767 23:0.0582011 24:0 25:0.142857 26:0.031746 27:0.296296 28:0.0582011 29:0.338624 30:0.132275 31:0.338624 32:0.0687831 33:0.0687831 34:0 35:0.0846561 36:0.280423 37:0.0846561 38:0.0899471 39:0.111111 40:0.10582 41:0.444444 42:0 43:0.021164 44:0.0687831 45:0.031746 46:0.253968 47:0.00529101 48:0.0529101 49:0.116402 50:0.132275 51:0.126984 52:0 53:0.185185 54:0.291005 55:0.00529101 56:0.042328 57:0.00529101 58:0.00529101 59:0.126984 60:0.328042 61:0 62:0 63:0.428571 64:0.634921 65:0 66:0.391534 67:0 68:0 69:0.10582 70:0.15873 71:0 72:0 73:0.0740741 74:0.00529101 75:0 76:0 77:0 78:0 79:0 80:0.047619 
-1 -1 1 1 1 1:0.00543478 2:0.0434783 3:0 4:0 5:0.0108696 6:0 7:0 8:0.26087 9:0.076087 10:0 11:0.26087 12:0.0706522 13:0 14:0.0923913 15:0.11413 16:0.0163043 17:0.201087 18:0.36413 19:0.576087 20:0 21:0.391304 22:0.711957 23:0.0108696 24:0.434783 25:0.440217 26:0.527174 27:0.048913 28:0.298913 29:0.0978261 30:0 31:0.336957 32:0.173913 33:0.0271739 34:0.0217391 35:0.195652 36:0.103261 37:0.152174 38:0.076087 39:0.146739 40:0 41:0.00543478 42:0 43:0.347826 44:0.304348 45:0.195652 46:0.130435 47:0.440217 48:0 49:0.0978261 50:0.173913 51:0 52:0 53:0.521739 54:0.125 55:0.0434783 56:0.211957 57:0.157609 58:0 59:0.00543478 60:0.483696 61:0 62:0 63:0.0543478 64:0.0217391 65:0 66:0.0108696 67:0 68:0 69:0 70:0.331522 71:0 72:0 73:0.0380435 74:0 75:0 76:0 77:0 78:0 79:0 80:0.0108696 
-1 -1 1 1 1 1:0.115385 2:0 3:0 4:0 5:0.0384615 6:0 7:0 8:0.56044 9:0.186813 10:0.0164835 11:0.142857 12:0.302198 13:0 14:0 15:0.686813 16:0.00549451 17:0.357143 18:0.395604 19:0.538462 20:0.0604396 21:0.137363 22:0.21978 23:0.0659341 24:0.021978 25:0.131868 26:0.0604396 27:0.148352 28:0.0274725 29:0.192308 30:0.0824176 31:0.285714 32:0.203297 33:0.181319 34:0.142857 35:0.104396 36:0.142857 37:0.137363 38:0.010989 39:0.0659341 40:0.192308 41:0.302198 42:0.192308 43:0.192308 44:0.225275 45:0.032967 46:0.192308 47:0.247253 48:0.00549451 49:0.00549451 50:0.181319 51:0.0164835 52:0.0714286 53:0.214286 54:0.445055 55:0.00549451 56:0.192308 57:0.0824176 58:0 59:0.010989 60:0.192308 61:0 62:0.010989 63:0.296703 64:0.164835 65:0 66:0.384615 67:0.021978 68:0 69:0 70:0.274725 71:0 72:0 73:0.0494506 74:0 75:0 76:0.021978 77:0.00549451 78:0 79:0 80:0 
-1 -1 -1 1 1 1:0 2:0.0233463 3:0 4:0 5:0.0155642 6:0.0466926 7:0.00389105 8:0.649805 9:0 10:0 11:0 12:0.178988 13:0 14:0 15:0.132296 16:0.0272374 17:0.256809 18:0.350195 19:0.357977 20:0 21:0.00389105 22:0.529183 23:0 24:0 25:0.622568 26:0.0077821 27:0.338521 28:0 29:0.346303 30:0.00389105 31:0.33463 32:0.252918 33:0.0272374 34:0.0116732 35:0.229572 36:0.0933852 37:0.252918 38:0 39:0.233463 40:0.0505837 41:0.513619 42:0.0155642 43:0.0077821 44:0.0155642 45:0 46:0.178988 47:0.0661479 48:0 49:0.0622568 50:0.198444 51:0.14786 52:0 53:0.0389105 54:0.0466926 55:0 56:0.249027 57:0 58:0 59:0 60:0.307393 61:0 62:0 63:0.447471 64:0.428016 65:0 66:0.381323 67:0.0272374 68:0 69:0 70:0.439689 71:0 72:0 73:0.478599 74:0.498054 75:0 76:0.0155642 77:0.0544747 78:0 79:0 80:0 
-1 -1 -1 1 1 1:0 2:0 3:0 4:0.0177936 5:0 6:0 7:0.142349 8:0.281139 9:0.177936 10:0 11:0 12:0 13:0.0676157 14:0.0711744 15:0.0142349 16:0 17:0.24911 18:0.362989 19:0.402135 20:0 21:0 22:0.398576 23:0.476868 24:0.217082 25:0.437722 26:0 27:0.241993 28:0.145907 29:0.177936 30:0 31:0.19573 32:0.551601 33:0.192171 34:0.41637 35:0.480427 36:0.0854093 37:0.323843 38:0.170819 39:0.142349 40:0.0498221 41:0.80427 42:0.0498221 43:0.149466 44:0.252669 45:0.0604982 46:0.185053 47:0.0391459 48:0.0391459 49:0.0960854 50:0.19573 51:0 52:0 53:0.0747331 54:0.0177936 55:0.00711744 56:0.427046 57:0.00355872 58:0 59:0.00355872 60:0.298932 61:0 62:0 63:0.0355872 64:0.00711744 65:0 66:0.302491 67:0 68:0 69:0 70:0.44484 71:0 72:0 73:0.00355872 74:0 75:0 76:0 77:0 78:0 79:0 80:0.0106762 
-1 -1 -1 1 1 1:0 2:0.0708333 3:0 4:0 5:0.120833 6:0 7:0.0208333 8:0.708333 9:0.0166667 10:0.0333333 11:0.00833333 12:0.204167 13:0 14:0 15:0.1875 16:0 17:0.370833 18:0.291667 19:0.229167 20:0.0375 21:0.0333333 22:0.575 23:0.00833333 24:0 25:0.316667 26:0 27:0.445833 28:0 29:0.3125 30:0 31:0.904167 32:0.15 33:0.00416667 34:0 35:0.2625 36:0 37:0.108333 38:0 39:0.254167 40:0.1 41:0.0541667 42:0 43:0.1875 44:0.225 45:0.1125 46:0.158333 47:0.0375 48:0 49:0.116667 50:0.120833 51:0 52:0 53:0.375 54:0.35 55:0 56:0.4125 57:0.0166667 58:0 59:0.0166667 60:0.4375 61:0 62:0 63:0.3625 64:0.425 65:0 66:0.379167 67:0 68:0 69:0.0166667 70:0.254167 71:0 72:0 73:0.0625 74:0 75:0 76:0.05 77:0 78:0 79:0.0375 80:0.0166667 
-1 -1 -1 1 1 1:0 2:0.0529248 3:0 4:0.00278552 5:0.111421 6:0 7:0.0501393 8:0.253482 9:0.108635 10:0 11:0 12:0.270195 13:0 14:0.0194986 15:0.178273 16:0 17:0.4039 18:0.0362117 19:0.250696 20:0 21:0 22:0.562674 23:0.0167131 24:0.0752089 25:0.342618 26:0.00278552 27:0.306407 28:0.114206 29:0.247911 30:0.0139276 31:0.67688 32:0.100279 33:0.0111421 34:0.359331 35:0.350975 36:0.0696379 37:0.183844 38:0.256267 39:0.158774 40:0.331476 41:0.32312 42:0.0139276 43:0.0389972 44:0.278552 45:0.0167131 46:0.253482 47:0.0473538 48:0.286908 49:0.091922 50:0.183844 51:0 52:0 53:0.289694 54:0.114206 55:0 56:0.292479 57:0.00835655 58:0.0417827 59:0.0752089 60:0.147632 61:0 62:0 63:0.509749 64:0.114206 65:0 66:0.356546 67:0 68:0.00835655 69:0.0668524 70:0.194986 71:0 72:0 73:0.133705 74:0.0362117 75:0 76:0.0250696 77:0 78:0.00278552 79:0 80:0.128134 
-1 -1 -1 1 1 1:0 2:0 3:0 4:0 5:0 6:0 7:0 8:0.736264 9:0 10:0 11:0 12:0.81685 13:0 14:0 15:0.765568 16:0 17:0.355311 18:0.260073 19:0.164835 20:0 21:0 22:0.18315 23:0 24:0 25:0.234432 26:0 27:0.472527 28:0.003663 29:0.59707 30:0 31:0.421245 32:0 33:0 34:0.003663 35:0 36:0 37:0.172161 38:0 39:0.238095 40:0 41:0.578755 42:0 43:0.249084 44:0.271062 45:0 46:0.047619 47:0 48:0 49:0 50:0.021978 51:0 52:0 53:0.600733 54:0.498168 55:0 56:0.3663 57:0 58:0 59:0 60:0.589744 61:0 62:0 63:0.150183 64:0.227106 65:0 66:0.586081 67:0 68:0 69:0 70:0.388278 71:0 72:0 73:0 74:0 75:0 76:0 77:0 78:0 79:0 80:0 
-1 -1 -1 1 1 1:0 2:0 3:0.0284698 4:0.0391459 5:0 6:0 7:0.263345 8:0.131673 9:0.338078 10:0 11:0 12:0.537367 13:0.270463 14:0.00711744 15:0.52669 16:0 17:0.33452 18:0.480427 19:0.362989 20:0 21:0.708185 22:0.441281 23:0.156584 24:0.0569395 25:0.462633 26:0 27:0.0996441 28:0.345196 29:0.274021 30:0 31:0.291815 32:0.0213523 33:0.320285 34:0.597865 35:0.0106762 36:0 37:0.13879 38:0.0320285 39:0.0213523 40:0 41:0 42:0 43:0.0711744 44:0.142349 45:0 46:0.206406 47:0.0640569 48:0.0106762 49:0.00355872 50:0.00711744 51:0 52:0 53:0.131673 54:0.142349 55:0 56:0.153025 57:0.0996441 58:0 59:0 60:0.160142 61:0 62:0 63:0.0213523 64:0.0142349 65:0 66:0.530249 67:0 68:0 69:0 70:0.725979 71:0 72:0 73:0 74:0 75:0 76:0.11032 77:0 78:0 79:0 80:0.106762 
-1 -1 -1 1 1 1:0 2:0.00862069 3:0 4:0 5:0.0905172 6:0.0301724 7:0 8:0.87069 9:0 10:0.00862069 11:0 12:0.344828 13:0 14:0 15:0.340517 16:0.508621 17:0.137931 18:0.12931 19:0.150862 20:0.327586 21:0 22:0.461207 23:0 24:0 25:0.357759 26:0.163793 27:0.0301724 28:0 29:0.0517241 30:0.0431034 31:0.0905172 32:0.168103 33:0 34:0 35:0.211207 36:0.0215517 37:0.0301724 38:0 39:0.137931 40:0.202586 41:0.823276 42:0.0172414 43:0.0258621 44:0.0646552 45:0 46:0.103448 47:0.0905172 48:0 49:0.262931 50:0.219828 51:0.0862069 52:0 53:0.62931 54:0.560345 55:0 56:0.0172414 57:0.0862069 58:0 59:0.0474138 60:0.0560345 61:0 62:0 63:0.344828 64:0.375 65:0 66:0.155172 67:0.512931 68:0 69:0.318966 70:0.142241 71:0 72:0 73:0 74:0 75:0 76:0 77:0.112069 78:0 79:0.0301724 80:0 
-1 -1 -1 1 1 1:0 2:0.0757576 3:0.0909091 4:0.518939 5:0.0113636 6:0 7:0 8:0.170455 9:0 10:0.00757576 11:0 12:0.55303 13:0.534091 14:0.352273 15:0.329545 16:0.132576 17:0.0265152 18:0.212121 19:0.140152 20:0.140152 21:0.0378788 22:0.340909 23:0.151515 24:0.0984849 25:0.549242 26:0.363636 27:0.0492424 28:0.261364 29:0.253788 30:0.306818 31:0.598485 32:0.030303 33:0.0719697 34:0.030303 35:0.106061 36:0.359848 37:0.0378788 38:0.314394 39:0.246212 40:0.382576 41:0.363636 42:0 43:0.151515 44:0 45:0.00378788 46:0.0719697 47:0.242424 48:0.0416667 49:0.19697 50:0.128788 51:0 52:0 53:0 54:0 55:0 56:0.0492424 57:0.340909 58:0 59:0.0909091 60:0.0340909 61:0 62:0 63:0 64:0 65:0 66:0.0227273 67:0.272727 68:0 69:0.0643939 70:0 71:0 72:0 73:0 74:0 75:0 76:0 77:0.030303 78:0 79:0.00757576 80:0 
-1 -1 -1 1 1 1:0 2:0.211538 3:0 4:0 5:0.326923 6:0.0160256 7:0 8:0.625 9:0.0192308 10:0 11:0.00961538 12:0.605769 13:0 14:0 15:0.435897 16:0.00961538 17:0.169872 18:0.371795 19:0.272436 20:0.00320513 21:0.0480769 22:0.182692 23:0.00641026 24:0 25:0.205128 26:0.0544872 27:0.461538 28:0.00320513 29:0.323718 30:0.105769 31:0.516026 32:0 33:0.0512821 34:0.0544872 35:0.0320513 36:0.0576923 37:0.237179 38:0 39:0.217949 40:0.125 41:0.198718 42:0 43:0.0288462 44:0.115385 45:0 46:0.144231 47:0.0801282 48:0 49:0.121795 50:0.179487 51:0.227564 52:0 53:0.266026 54:0.246795 55:0 56:0.483974 57:0.00961538 58:0 59:0.0448718 60:0.349359 61:0 62:0 63:0.589744 64:0.576923 65:0 66:0.230769 67:0.0320513 68:0 69:0 70:0.224359 71:0 72:0 73:0.0576923 74:0.00641026 75:0 76:0.00320513 77:0.00961538 78:0 79:0 80:0.0128205 
-1 -1 -1 1 1 1:0 2:0.0804196 3:0 4:0 5:0 6:0 7:0.178322 8:0.276224 9:0.0454545 10:0 11:0 12:0.699301 13:0 14:0.188811 15:0.503497 16:0 17:0.395105 18:0.58042 19:0.335664 20:0 21:0 22:0.188811 23:0.020979 24:0.160839 25:0.447552 26:0 27:0.328671 28:0.129371 29:0.328671 30:0 31:0.486014 32:0.0244755 33:0.0979021 34:0.185315 35:0.048951 36:0 37:0.0839161 38:0.013986 39:0.230769 40:0 41:0.513986 42:0.00699301 43:0.0104895 44:0.265734 45:0 46:0.0559441 47:0.013986 48:0 49:0.0594406 50:0.027972 51:0 52:0 53:0.548951 54:0.160839 55:0 56:0.258741 57:0 58:0 59:0 60:0.234266 61:0 62:0 63:0.300699 64:0.0314685 65:0 66:0.58042 67:0 68:0 69:0 70:0.597902 71:0 72:0 73:0.020979 74:0.00699301 75:0 76:0.104895 77:0 78:0 79:0 80:0.13986 
-1 -1 -1 1 1 1:0.016 2:0.232 3:0 4:0 5:0.056 6:0.024 7:0 8:0.592 9:0.072 10:0.024 11:0.008 12:0.616 13:0 14:0 15:0.456 16:0.016 17:0.456 18:0.408 19:0.296 20:0 21:0.032 22:0.128 23:0 24:0 25:0.36 26:0.016 27:0.376 28:0 29:0.32 30:0 31:0.096 32:0 33:0 34:0.008 35:0.088 36:0.024 37:0.104 38:0 39:0.304 40:0.008 41:0.616 42:0 43:0.032 44:0.112 45:0.016 46:0.072 47:0.016 48:0 49:0 50:0.144 51:0.208 52:0 53:0.712 54:0.504 55:0 56:0.368 57:0.032 58:0 59:0.008 60:0.416 61:0 62:0 63:0.256 64:0.376 65:0 66:0.464 67:0.016 68:0 69:0 70:0.336 71:0.024 72:0.024 73:0 74:0 75:0.024 76:0.016 77:0 78:0 79:0 80:0.072 
-1 -1 -1 1 1 1:0 2:0.327869 3:0 4:0.0163934 5:0.409836 6:0 7:0 8:0.704918 9:0.393443 10:0 11:0 12:0.47541 13:0 14:0.0819672 15:0.590164 16:0 17:0.0655738 18:0.262295 19:0.377049 20:0 21:0 22:0.196721 23:0 24:0.114754 25:0 26:0 27:0.213115 28:0.0327869 29:0.196721 30:0 31:0.311475 32:0 33:0.0655738 34:0.163934 35:0 36:0 37:0.622951 38:0 39:0.0327869 40:0 41:0.688525 42:0 43:0.0491803 44:0.622951 45:0 46:0.0163934 47:0.0983607 48:0 49:0 50:0 51:0 52:0 53:0.836066 54:0 55:0 56:0.868852 57:0 58:0 59:0 60:0 61:0 62:0 63:0.0491803 64:0 65:0 66:0.0491803 67:0 68:0 69:0 70:0.688525 71:0 72:0 73:0 74:0 75:0 76:0.0655738 77:0 78:0 79:0 80:0.311475 
-1 -1 -1 -1 1 1:0 2:0 3:0 4:0 5:0.255102 6:0 7:0 8:0.479592 9:0.0204082 10:0 11:0 12:0.142857 13:0 14:0 15:0.0918367 16:0 17:0.918367 18:0.520408 19:0.969388 20:0 21:0 22:0.857143 23:0 24:0 25:0.653061 26:0 27:0.0816327 28:0 29:0.0102041 30:0 31:0.122449 32:0 33:0 34:0 35:0 36:0 37:0 38:0 39:0 40:0 41:0.877551 42:0 43:0.122449 44:0.132653 45:0 46:0.0102041 47:0 48:0 49:0 50:0.0306122 51:0 52:0 53:0.418367 54:0.387755 55:0 56:0.632653 57:0 58:0 59:0 60:0.336735 61:0 62:0 63:0.44898 64:0.459184 65:0 66:0.357143 67:0 68:0 69:0 70:0.377551 71:0 72:0 73:0.0102041 74:0.0204082 75:0 76:0 77:0 78:0 79:0 80:0.255102 
-1 -1 -1 -1 1 1:0 2:0.0363636 3:0 4:0 5:0 6:0 7:0.272727 8:0.427273 9:0.0272727 10:0 11:0 12:0.618182 13:0 14:0 15:0.0909091 16:0 17:0.590909 18:0.572727 19:0.836364 20:0 21:0 22:0.345455 23:0 24:0 25:0.454545 26:0 27:0.127273 28:0 29:0.136364 30:0 31:0.281818 32:0 33:0 34:0.0272727 35:0.454545 36:0.1 37:0.00909091 38:0 39:0 40:0.245455 41:0.718182 42:0 43:0.418182 44:0.418182 45:0 46:0.0727273 47:0 48:0 49:0 50:0.254545 51:0 52:0 53:0.1 54:0.118182 55:0 56:0.354545 57:0 58:0 59:0 60:0.0909091 61:0 62:0 63:0.4 64:0.3 65:0 66:0.445455 67:0 68:0 69:0 70:0.409091 71:0 72:0 73:0.0818182 74:0.136364 75:0 76:0.0272727 77:0 78:0 79:0 80:0 
-1 -1 -1 -1 1 1:0 2:0 3:0 4:0 5:0 6:0 7:0.027027 8:0.560811 9:0.0337838 10:0 11:0 12:0.439189 13:0 14:0 15:0.0472973 16:0 17:0.871622 18:0.425676 19:0.783784 20:0 21:0 22:0.560811 23:0 24:0 25:0.952703 26:0 27:0.101351 28:0.0135135 29:0.182432 30:0 31:0.972973 32:0 33:0.0540541 34:0.0337838 35:0 36:0 37:0 38:0 39:0 40:0 41:0.027027 42:0 43:0.22973 44:0.256757 45:0 46:0.101351 47:0 48:0 49:0 50:0.0878378 51:0 52:0 53:0.0608108 54:0.27027 55:0 56:0.391892 57:0 58:0 59:0 60:0.364865 61:0 62:0 63:0.655405 64:0.439189 65:0 66:0.506757 67:0 68:0 69:0 70:0.547297 71:0 72:0 73:0 74:0 75:0 76:0 77:0 78:0 79:0 80:0 
-1 -1 -1 -1 1 1:0 2:0.0551724 3:0 4:0 5:0 6:0 7:0.103448 8:0.758621 9:0 10:0 11:0 12:0.241379 13:0.0344828 14:0 15:0.255172 16:0 17:0.634483 18:0.241379 19:0.834483 20:0 21:0 22:0.634483 23:0.0275862 24:0 25:0.744828 26:0.00689655 27:0.2 28:0 29:0.165517 30:0 31:0.724138 32:0.0689655 33:0.0344828 34:0.0551724 35:0 36:0.103448 37:0.062069 38:0 39:0 40:0.0275862 41:0.275862 42:0 43:0.0206897 44:0.062069 45:0 46:0.0413793 47:0 48:0 49:0 50:0.0758621 51:0 52:0 53:0.772414 54:0.841379 55:0 56:0.441379 57:0 58:0 59:0 60:0.213793 61:0 62:0 63:0.110345 64:0.0413793 65:0 66:0.406897 67:0 68:0 69:0 70:0.682759 71:0 72:0 73:0 74:0 75:0 76:0 77:0 78:0 79:0 80:0 
-1 -1 -1 -1 1 1:0 2:0.0535714 3:0 4:0 5:0 6:0 7:0.0535714 8:0.857143 9:0 10:0 11:0 12:0.892857 13:0 14:0 15:1 16:0 17:0.651786 18:0.142857 19:0.446429 20:0 21:0 22:0.0535714 23:0.0357143 24:0.00892857 25:0 26:0 27:0.294643 28:0 29:0.5 30:0 31:1 32:0 33:0.0625 34:0.0803571 35:0 36:0 37:0 38:0 39:0.0535714 40:0 41:0 42:0 43:0.0446429 44:0.401786 45:0 46:0 47:0 48:0 49:0 50:0 51:0 52:0 53:0.857143 54:0.464286 55:0 56:0.651786 57:0 58:0 59:0 60:0.607143 61:0 62:0 63:0 64:0.0446429 65:0 66:0.348214 67:0 68:0 69:0 70:0.392857 71:0 72:0 73:0 74:0 75:0 76:0 77:0 78:0 79:0 80:0 
-1 -1 -1 -1 1 1:0 2:0 3:0 4:0 5:0 6:0 7:0.0965517 8:0.793103 9:0 10:0 11:0 12:0.882759 13:0 14:0 15:0.496552 16:0 17:0.593103 18:0.206897 19:0.144828 20:0 21:0 22:0.117241 23:0.00689655 24:0.0137931 25:0.503448 26:0 27:0.310345 28:0 29:0.827586 30:0 31:1 32:0 33:0.0206897 34:0.0689655 35:0 36:0 37:0 38:0 39:0.0275862 40:0 41:0 42:0 43:0.0896552 44:0.0482759 45:0 46:0.0413793 47:0 48:0 49:0 50:0.103448 51:0 52:0 53:0.772414 54:0.841379 55:0 56:0.358621 57:0 58:0 59:0 60:0.510345 61:0 62:0 63:0.110345 64:0.0275862 65:0 66:0.6 67:0 68:0 69:0 70:0.386207 71:0 72:0 73:0 74:0 75:0 76:0 77:0 78:0 79:0 80:0 
-1 -1 -1 -1 1 1:0 2:0 3:0 4:0 5:0 6:0 7:0 8:0.47619 9:0 10:0 11:0 12:0.171429 13:0 14:0 15:0.0857143 16:0 17:0.685714 18:0.52381 19:0.87619 20:0 21:0 22:0.828571 23:0 24:0 25:0.790476 26:0 27:0.238095 28:0 29:0.12381 30:0 31:1 32:0 33:0 34:0.0571429 35:0.12381 36:0.0666667 37:0.0761905 38:0 39:0 40:0.0666667 41:0 42:0 43:0.2 44:0.0761905 45:0 46:0.114286 47:0 48:0 49:0 50:0.142857 51:0 52:0 53:0.561905 54:0.428571 55:0 56:0.561905 57:0 58:0 59:0 60:0.257143 61:0 62:0 63:0.190476 64:0.333333 65:0 66:0.257143 67:0 68:0 69:0 70:0.533333 71:0 72:0 73:0.047619 74:0.104762 75:0 76:0 77:0 78:0 79:0 80:0 
-1 -1 -1 -1 1 1:0 2:0.021978 3:0 4:0 5:0.00549451 6:0 7:0.0549451 8:0.335165 9:0.00549451 10:0 11:0 12:0.148352 13:0 14:0 15:0.159341 16:0 17:0.362637 18:0.664835 19:0.368132 20:0 21:0.010989 22:0.406593 23:0 24:0 25:0.565934 26:0 27:0.258242 28:0 29:0.32967 30:0 31:0.467033 32:0.208791 33:0.010989 34:0.00549451 35:0.203297 36:0.252747 37:0.104396 38:0 39:0.291209 40:0.115385 41:0.521978 42:0.186813 43:0.104396 44:0.10989 45:0.0659341 46:0.395604 47:0.10989 48:0 49:0.00549451 50:0.296703 51:0 52:0.0274725 53:0.412088 54:0.401099 55:0 56:0.115385 57:0.10989 58:0 59:0 60:0.456044 61:0 62:0 63:0.472527 64:0.483516 65:0 66:0.175824 67:0 68:0 69:0 70:0.131868 71:0 72:0 73:0 74:0 75:0 76:0.0604396 77:0 78:0 79:0 80:0 
-1 -1 -1 -1 1 1:0 2:0 3:0 4:0 5:0 6:0 7:0 8:0.351852 9:0 10:0 11:0 12:0.305556 13:0 14:0 15:0.25 16:0 17:0.916667 18:0.490741 19:0.805556 20:0 21:0 22:0.694444 23:0 24:0 25:0.75 26:0 27:0.0833333 28:0.157407 29:0.194444 30:0 31:1 32:0 33:0 34:0.00925926 35:0 36:0.037037 37:0 38:0 39:0 40:0.0555556 41:0 42:0 43:0.416667 44:0.5 45:0 46:0.268519 47:0 48:0 49:0 50:0.388889 51:0 52:0 53:0.416667 54:0.37963 55:0 56:0.175926 57:0 58:0 59:0 60:0.138889 61:0 62:0 63:0.166667 64:0.111111 65:0 66:0.518519 67:0 68:0 69:0 70:0.416667 71:0 72:0 73:0 74:0 75:0 76:0 77:0 78:0 79:0 80:0 
-1 -1 -1 -1 1 1:0 2:0.016 3:0 4:0 5:0 6:0 7:0.152 8:0.224 9:0.248 10:0 11:0 12:0.408 13:0 14:0 15:0.664 16:0 17:0.656 18:0.776 19:0.544 20:0 21:0 22:0.576 23:0 24:0 25:0.336 26:0 27:0.192 28:0 29:0.208 30:0 31:0.504 32:0 33:0.024 34:0.024 35:0 36:0.008 37:0 38:0 39:0 40:0.008 41:0.496 42:0 43:0.088 44:0.064 45:0 46:0.192 47:0 48:0 49:0 50:0.24 51:0 52:0 53:0.472 54:0.48 55:0 56:0.4 57:0 58:0 59:0 60:0.256 61:0 62:0 63:0.392 64:0.432 65:0 66:0.4 67:0 68:0 69:0 70:0.496 71:0 72:0 73:0.024 74:0 75:0 76:0 77:0 78:0 79:0 80:0 
-1 -1 -1 -1 1 1:0 2:0 3:0 4:0 5:0 6:0 7:0.119266 8:0.440367 9:0.100917 10:0 11:0 12:0.46789 13:0 14:0 15:0.394495 16:0 17:0.669725 18:0.495413 19:0.541284 20:0 21:0 22:0.247706 23:0.0183486 24:0.0275229 25:0.449541 26:0 27:0.211009 28:0.0642202 29:0.321101 30:0 31:0.642202 32:0.284404 33:0.155963 34:0.412844 35:0.155963 36:0.0366972 37:0 38:0 39:0.0366972 40:0.146789 41:0.357798 42:0 43:0.293578 44:0.0183486 45:0 46:0.40367 47:0 48:0 49:0 50:0.330275 51:0 52:0 53:0.12844 54:0.100917 55:0 56:0.275229 57:0 58:0 59:0 60:0.192661 61:0 62:0 63:0.40367 64:0.440367 65:0 66:0.284404 67:0 68:0 69:0 70:0.330275 71:0 72:0 73:0 74:0 75:0 76:0 77:0 78:0 79:0 80:0 
-1 -1 -1 -1 1 1:0 2:0 3:0 4:0 5:0.00699301 6:0 7:0.0839161 8:0.748252 9:0.0699301 10:0 11:0 12:0.321678 13:0 14:0 15:0.41958 16:0 17:0.881119 18:0.251748 19:0.629371 20:0 21:0 22:0.293706 23:0.048951 24:0.00699301 25:0.517483 26:0 27:0.034965 28:0 29:0.237762 30:0 31:0.678322 32:0.356643 33:0.0979021 34:0.048951 35:0.0559441 36:0.034965 37:0 38:0 39:0.0629371 40:0 41:0.321678 42:0.027972 43:0.454545 44:0.20979 45:0 46:0.286713 47:0 48:0 49:0 50:0.412587 51:0 52:0 53:0.13986 54:0.468531 55:0 56:0.398601 57:0 58:0 59:0 60:0.433566 61:0 62:0 63:0.258741 64:0.265734 65:0 66:0.27972 67:0 68:0 69:0 70:0.146853 71:0 72:0 73:0 74:0 75:0 76:0 77:0 78:0 79:0 80:0.00699301 
-1 -1 -1 -1 -1 1:0 2:0 3:0 4:0 5:0 6:0 7:0 8:0.673077 9:0 10:0 11:0 12:0.307692 13:0 14:0 15:0.224359 16:0 17:0.416667 18:0.326923 19:0.403846 20:0 21:0 22:0.532051 23:0 24:0 25:0.410256 26:0 27:0.442308 28:0 29:0.153846 30:0 31:0.0128205 32:0.0576923 33:0 34:0 35:0.230769 36:0.0641026 37:0.121795 38:0 39:0.339744 40:0.185897 41:0.987179 42:0.0705128 43:0.0128205 44:0 45:0.0384615 46:0.0705128 47:0.0192308 48:0 49:0.102564 50:0.423077 51:0 52:0.0320513 53:0.512821 54:0.378205 55:0.0961538 56:0.487179 57:0 58:0 59:0 60:0.0897436 61:0 62:0 63:0.25 64:0.583333 65:0 66:0.378205 67:0 68:0 69:0 70:0.301282 71:0 72:0 73:0.224359 74:0.0384615 75:0 76:0 77:0 78:0 79:0 80:0 
-1 -1 -1 -1 -1 1:0 2:0 3:0 4:0 5:0 6:0 7:0 8:0.737374 9:0 10:0 11:0 12:0.40404 13:0 14:0 15:0.030303 16:0 17:0.909091 18:0.262626 19:1 20:0 21:0 22:0.474747 23:0 24:0 25:0.969697 26:0 27:0.050505 28:0 29:0 30:0 31:0.242424 32:0.121212 33:0 34:0 35:0 36:0.040404 37:0.040404 38:0 39:0 40:0 41:0.757576 42:0 43:0.0808081 44:0.111111 45:0 46:0.313131 47:0 48:0 49:0 50:0.171717 51:0 52:0 53:0.353535 54:0.424242 55:0 56:0.313131 57:0 58:0 59:0 60:0.545455 61:0 62:0 63:0.282828 64:0.232323 65:0 66:0.333333 67:0 68:0 69:0 70:0.282828 71:0 72:0 73:0.282828 74:0.232323 75:0 76:0 77:0 78:0 79:0 80:0 
-1 -1 -1 -1 -1 1:0 2:0 3:0 4:0 5:0 6:0 7:0 8:0.333333 9:0 10:0 11:0 12:0.0833333 13:0 14:0 15:0.212963 16:0 17:0.416667 18:0.666667 19:0.824074 20:0 21:0 22:0.916667 23:0 24:0 25:0.787037 26:0 27:0.583333 28:0 29:0.175926 30:0 31:0.574074 32:0 33:0.037037 34:0.0462963 35:0 36:0 37:0 38:0 39:0 40:0 41:0.425926 42:0 43:0.518519 44:0.509259 45:0 46:0.62037 47:0 48:0 49:0 50:0.592593 51:0 52:0 53:0.148148 54:0.259259 55:0 56:0.259259 57:0 58:0 59:0 60:0.101852 61:0 62:0 63:0.296296 64:0.185185 65:0 66:0.12037 67:0 68:0 69:0 70:0.305556 71:0 72:0 73:0 74:0 75:0 76:0 77:0 78:0 79:0 80:0 
-1 -1 -1 -1 -1 1:0 2:0 3:0 4:0 5:0 6:0 7:0 8:0.958763 9:0 10:0 11:0 12:0.391753 13:0 14:0 15:0.649485 16:0 17:0.907216 18:0.0412371 19:1 20:0 21:0 22:0.608247 23:0 24:0 25:0.350515 26:0 27:0.0927835 28:0 29:0 30:0 31:0.608247 32:0 33:0.0515464 34:0.0309278 35:0 36:0 37:0 38:0 39:0 40:0 41:0.391753 42:0 43:0.0412371 44:0.0824742 45:0 46:0.608247 47:0 48:0 49:0 50:0.0515464 51:0 52:0 53:0.597938 54:0.824742 55:0 56:0.103093 57:0 58:0 59:0 60:0.731959 61:0 62:0 63:0.309278 64:0.0618557 65:0 66:0.28866 67:0 68:0 69:0 70:0.216495 71:0 72:0 73:0 74:0 75:0 76:0 77:0 78:0 79:0 80:0 
-1 -1 -1 -1 -1 1:0 2:0 3:0 4:0 5:0 6:0 7:0.0258621 8:1 9:0.172414 10:0 11:0 12:1 13:0 14:0 15:0.974138 16:0 17:0.353448 18:0 19:0.37931 20:0 21:0 22:0 23:0 24:0 25:0.0258621 26:0 27:0.612069 28:0 29:0.448276 30:0 31:0.793103 32:0 33:0 34:0 35:0 36:0 37:0.00862069 38:0 39:0 40:0 41:0.206897 42:0 43:0.181034 44:0.189655 45:0 46:0 47:0 48:0 49:0 50:0 51:0 52:0 53:0.801724 54:0.681035 55:0 56:0.439655 57:0 58:0 59:0 60:0.431034 61:0 62:0 63:0.0172414 64:0.12931 65:0 66:0.560345 67:0 68:0 69:0 70:0.568965 71:0 72:0 73:0 74:0 75:0 76:0 77:0 78:0 79:0 80:0 
-1 -1 -1 -1 -1 1:0 2:0 3:0 4:0 5:0.0111111 6:0 7:0.0444444 8:1 9:0.1 10:0 11:0 12:0.877778 13:0 14:0 15:0.877778 16:0 17:0.266667 18:0 19:0.1 20:0 21:0 22:0.122222 23:0 24:0 25:0.0444444 26:0 27:0.661111 28:0 29:0.722222 30:0 31:0.472222 32:0 33:0 34:0 35:0.0666667 36:0 37:0.0277778 38:0 39:0.00555556 40:0 41:0.527778 42:0 43:0.0611111 44:0.0666667 45:0 46:0.0166667 47:0 48:0 49:0.0444444 50:0.0722222 51:0 52:0 53:0.905556 54:0.905556 55:0 56:0.222222 57:0 58:0 59:0.0277778 60:0.511111 61:0 62:0 63:0.0333333 64:0.0277778 65:0 66:0.761111 67:0 68:0 69:0 70:0.416667 71:0 72:0 73:0 74:0 75:0 76:0 77:0 78:0 79:0 80:0 
-1 -1 -1 -1 -1 1:0 2:0.19186 3:0 4:0 5:0.19186 6:0 7:0.261628 8:0.494186 9:0.133721 10:0 11:0 12:0.72093 13:0 14:0 15:0.354651 16:0 17:0.25 18:0.505814 19:0.424419 20:0 21:0.145349 22:0.0639535 23:0 24:0 25:0.232558 26:0 27:0.244186 28:0 29:0.255814 30:0 31:0.418605 32:0.0232558 33:0 34:0 35:0.145349 36:0.0697674 37:0.104651 38:0 39:0.0755814 40:0.0290698 41:0.430233 42:0 43:0.0697674 44:0.0872093 45:0.0755814 46:0.313953 47:0.139535 48:0 49:0.110465 50:0.30814 51:0.00581395 52:0 53:0.604651 54:0.581395 55:0 56:0.360465 57:0 58:0 59:0 60:0.52907 61:0 62:0 63:0.325581 64:0.325581 65:0 66:0.22093 67:0 68:0 69:0 70:0.133721 71:0 72:0 73:0 74:0.00581395 75:0 76:0.0348837 77:0 78:0 79:0 80:0 
-1 -1 -1 -1 -1 1:0 2:0.0284091 3:0 4:0 5:0 6:0 7:0 8:0.778409 9:0 10:0.198864 11:0 12:0.556818 13:0 14:0 15:0.221591 16:0.0397727 17:0.295455 18:0.221591 19:0.193182 20:0.238636 21:0.0795455 22:0.414773 23:0 24:0 25:0.659091 26:0.420455 27:0.125 28:0 29:0.159091 30:0.0113636 31:0.352273 32:0 33:0.0227273 34:0.0113636 35:0.0965909 36:0.00568182 37:0.102273 38:0 39:0.193182 40:0.0454545 41:0.363636 42:0 43:0.0625 44:0.0284091 45:0.0227273 46:0.0113636 47:0.0113636 48:0 49:0.00568182 50:0.113636 51:0.204545 52:0 53:0.528409 54:0.556818 55:0 56:0.232955 57:0.210227 58:0 59:0.0625 60:0.357955 61:0 62:0 63:0.386364 64:0.306818 65:0 66:0.289773 67:0.255682 68:0 69:0.153409 70:0.0340909 71:0 72:0 73:0 74:0.0965909 75:0 76:0 77:0 78:0 79:0.232955 80:0 
-1 -1 -1 -1 -1 1:0 2:0.104478 3:0 4:0 5:0.335821 6:0 7:0.0820896 8:0.514925 9:0 10:0 11:0 12:0.723881 13:0 14:0 15:0.313433 16:0.0298507 17:0.395522 18:0.485075 19:0.41791 20:0 21:0 22:0.119403 23:0 24:0 25:0.328358 26:0.0970149 27:0.343284 28:0 29:0.447761 30:0 31:0.485075 32:0.0522388 33:0 34:0 35:0.0223881 36:0.0746269 37:0.149254 38:0 39:0.134328 40:0 41:0.514925 42:0 43:0.0298507 44:0 45:0 46:0.0671642 47:0.0298507 48:0 49:0 50:0.164179 51:0 52:0 53:0.544776 54:0.276119 55:0 56:0.373134 57:0 58:0 59:0 60:0.492537 61:0 62:0 63:0.425373 64:0.723881 65:0 66:0.298507 67:0 68:0 69:0 70:0.343284 71:0 72:0 73:0 74:0 75:0 76:0.0597015 77:0 78:0 79:0 80:0 
-1 -1 -1 -1 -1 1:0 2:0.0785714 3:0 4:0 5:0 6:0 7:0.0714286 8:0.635714 9:0 10:0 11:0 12:0.564286 13:0 14:0 15:0.714286 16:0 17:0.692857 18:0.364286 19:0.485714 20:0 21:0 22:0.357143 23:0 24:0 25:0.285714 26:0 27:0.235714 28:0 29:0.514286 30:0 31:0.485714 32:0 33:0 34:0 35:0 36:0 37:0 38:0 39:0 40:0 41:0.514286 42:0 43:0 44:0.0428571 45:0 46:0.0571429 47:0 48:0 49:0 50:0.0857143 51:0 52:0 53:0.25 54:0.428571 55:0 56:0.321429 57:0 58:0 59:0 60:0.578571 61:0 62:0 63:0.75 64:0.528571 65:0 66:0.621429 67:0 68:0 69:0 70:0.335714 71:0 72:0 73:0 74:0 75:0 76:0 77:0 78:0 79:0 80:0 
-1 -1 -1 -1 -1 1:0 2:0 3:0 4:0 5:0 6:0 7:0 8:0.623077 9:0 10:0 11:0 12:0.530769 13:0 14:0 15:0.515385 16:0 17:0.969231 18:0.376923 19:0.838462 20:0 21:0 22:0.469231 23:0 24:0 25:0.438462 26:0 27:0.0307692 28:0 29:0.161538 30:0 31:0.546154 32:0 33:0.161538 34:0.1 35:0.0461538 36:0.115385 37:0 38:0 39:0 40:0.0384615 41:0.453846 42:0 43:0.230769 44:0.3 45:0 46:0.3 47:0 48:0 49:0 50:0.353846 51:0 52:0 53:0.3 54:0.307692 55:0 56:0.107692 57:0 58:0 59:0 60:0.184615 61:0 62:0 63:0.307692 64:0.292308 65:0 66:0.476923 67:0 68:0 69:0 70:0.423077 71:0 72:0 73:0 74:0 75:0 76:0 77:0 78:0 79:0 80:0 
-1 -1 -1 -1 -1 1:0 2:0 3:0 4:0 5:0.0134228 6:0 7:0 8:0.52349 9:0.0604027 10:0 11:0 12:0.375839 13:0 14:0 15:0.463087 16:0 17:0.704698 18:0.47651 19:0.630872 20:0 21:0 22:0.261745 23:0 24:0 25:0.0738255 26:0 27:0.234899 28:0 29:0.302013 30:0 31:0.550336 32:0.362416 33:0.181208 34:0.194631 35:0.449664 36:0.201342 37:0.0604027 38:0 39:0.00671141 40:0.409396 41:0.449664 42:0 43:0.248322 44:0.214765 45:0 46:0.281879 47:0 48:0 49:0 50:0.0805369 51:0 52:0 53:0.38255 54:0.409396 55:0 56:0.194631 57:0 58:0 59:0 60:0.0805369 61:0 62:0 63:0.187919 64:0.181208 65:0 66:0.322148 67:0 68:0 69:0 70:0.416107 71:0 72:0 73:0 74:0 75:0 76:0 77:0 78:0 79:0 80:0.0134228 
