svm_type c_svc
kernel_type rbf
gamma 0.00555556
nr_class 6
total_sv 72
rho 0.103018 -0.0326028 -0.0262219 -0.0180104 -0.00418332 -0.146352 -0.130829 -0.123816 -0.100915 0.0115784 0.0223588 0.0399295 0.0112714 0.0215736 0.00663853
label 8 10 12 13 15 16
nr_sv 12 12 12 12 12 12
SV
1 1 1 1 1 1:0 2:0 3:0 4:0 5:0 6:0 7:0 8:0 9:0 10:0.0183486 11:0 12:0 13:0 14:0 15:0 16:0.12844 17:0 18:0 19:0.00917431 20:0.40367 21:0 22:0 23:0 24:0 25:0 26:0.412844 27:0.0275229 28:0.816514 29:0.0458716 30:0.165138 31:0 32:0 33:0 34:0 35:0 36:0.110092 37:0.201835 38:0.183486 39:0.0183486 40:0.0550459 41:0 42:0.0550459 43:0 44:0 45:0.201835 46:0.0183486 47:0.0458716 48:0 49:0.201835 50:0.0183486 51:0 52:0.201835 53:0 54:0 55:0.0183486 56:0.00917431 57:0.0183486 58:0 59:0.0183486 60:0.0275229 61:0 62:0.0366972 63:0 64:0 65:0.0275229 66:0.0183486 67:0.00917431 68:0 69:0.00917431 70:0.00917431 71:0 72:0.0183486 73:0 74:0 75:0.00917431 76:0.00917431 77:0.0183486 78:0 79:0.00917431 80:0.00917431 81:0.559633 82:0.0183486 83:0 84:0 85:0.0733945 86:0.0183486 87:0 88:0 89:0.00917431 90:0.0183486 91:0.110092 92:0 93:0 94:0 95:0 96:0.00917431 97:0.0183486 98:0 99:0.0275229 100:0.00917431 101:0.238532 102:0.00917431 103:0.183486 104:0.183486 105:0.00917431 106:0.211009 107:0.0183486 108:0 109:0.0458716 110:0.247706 111:0.0917431 112:0.0917431 113:0.0183486 114:0.00917431 115:0.110092 116:0.0183486 117:0.0642202 118:0 119:0.0275229 120:0.00917431 121:0 122:0.110092 123:0.0825688 124:0.0825688 125:0.110092 126:0.0366972 127:0.256881 128:0 129:0.137615 130:0.00917431 131:0 132:0.0825688 133:0.0917431 134:0.0550459 135:0.0825688 136:0 137:0.293578 138:0 139:0.357798 140:0 141:0 142:0.110092 143:0.284404 144:0.330275 145:0.12844 146:0 147:0.0275229 148:0 149:0.0825688 150:0 151:0 152:0.146789 153:0.33945 154:0.33945 155:0.119266 156:0 157:0 158:0 159:0 160:0 161:0 162:0.0642202 163:0 164:0 165:0.100917 166:0 167:0 168:0 169:0 170:0 171:0 172:0.0550459 173:0 174:0 175:0.00917431 176:0 177:0 178:0 179:0 180:0 
1 1 1 1 1 1:0 2:0 3:0 4:0 5:0 6:0.00621118 7:0 8:0 9:0 10:0.00621118 11:0 12:0 13:0 14:0 15:0 16:0.10559 17:0 18:0.0372671 19:0 20:0.0434783 21:0 22:0.0186335 23:0 24:0 25:0.0186335 26:0.186335 27:0 28:0.751553 29:0 30:0.186335 31:0 32:0.0186335 33:0 34:0 35:0.0124224 36:0.161491 37:0.0621118 38:0.21118 39:0.130435 40:0.173913 41:0 42:0.173913 43:0 44:0 45:0.198758 46:0.15528 47:0.0745342 48:0 49:0.0372671 50:0.0869565 51:0 52:0.0186335 53:0 54:0 55:0.0434783 56:0.0559006 57:0.0186335 58:0 59:0.0248447 60:0.111801 61:0.00621118 62:0.0496894 63:0 64:0 65:0.0310559 66:0.0248447 67:0.0186335 68:0 69:0.0186335 70:0.0621118 71:0.0869565 72:0.10559 73:0 74:0 75:0.0434783 76:0.0621118 77:0.0124224 78:0 79:0.0186335 80:0.0745342 81:0.273292 82:0.0496894 83:0 84:0 85:0.0559006 86:0.0310559 87:0.0248447 88:0 89:0.0186335 90:0.0186335 91:0.347826 92:0.118012 93:0 94:0 95:0.0621118 96:0.0186335 97:0.0310559 98:0 99:0.0186335 100:0.0186335 101:0.248447 102:0.10559 103:0 104:0 105:0.0745342 106:0.0124224 107:0.0496894 108:0 109:0.0434783 110:0.0186335 111:0.0372671 112:0.0621118 113:0 114:0 115:0.0807453 116:0.0186335 117:0.0496894 118:0 119:0.118012 120:0.0248447 121:0 122:0.0372671 123:0 124:0 125:0.0807453 126:0.0248447 127:0.124224 128:0 129:0.173913 130:0.0310559 131:0 132:0.0496894 133:0.0434783 134:0.0124224 135:0.111801 136:0.0745342 137:0.192547 138:0 139:0.142857 140:0.10559 141:0 142:0.0496894 143:0.0931677 144:0.0869565 145:0.0931677 146:0.0621118 147:0.161491 148:0 149:0.167702 150:0.0372671 151:0 152:0.0496894 153:0.223602 154:0.142857 155:0.0559006 156:0 157:0.130435 158:0 159:0.0621118 160:0 161:0 162:0.0434783 163:0.372671 164:0.416149 165:0.0310559 166:0 167:0.0310559 168:0 169:0.0248447 170:0 171:0 172:0.0496894 173:0.267081 174:0.341615 175:0.00621118 176:0 177:0.0186335 178:0 179:0 180:0 
1 1 1 1 1 1:0 2:0 3:0 4:0 5:0 6:0 7:0 8:0 9:0 10:0 11:0 12:0 13:0 14:0 15:0 16:0.0430108 17:0.107527 18:0.741935 19:0 20:0.0107527 21:0 22:0 23:0 24:0 25:0 26:0.354839 27:0.0215054 28:0.247312 29:0 30:0.430108 31:0 32:0.0967742 33:0 34:0 35:0 36:0.268817 37:0.0107527 38:0.0107527 39:0 40:0.268817 41:0 42:0.0430108 43:0 44:0 45:0.0107527 46:0.139785 47:0 48:0 49:0 50:0.0967742 51:0 52:0.0107527 53:0 54:0 55:0.0752688 56:0.0107527 57:0.0107527 58:0 59:0.107527 60:0.0107527 61:0.139785 62:0 63:0 64:0 65:0.0645161 66:0.0107527 67:0.0107527 68:0 69:0.0322581 70:0.0107527 71:0.731183 72:0.0430108 73:0 74:0 75:0.0215054 76:0.0215054 77:0.0215054 78:0 79:0.0215054 80:0.0107527 81:0.129032 82:0.0967742 83:0 84:0 85:0.0430108 86:0.0107527 87:0.0107527 88:0 89:0.0107527 90:0 91:0 92:0.107527 93:0 94:0 95:0.107527 96:0 97:0.0215054 98:0 99:0.0215054 100:0.0107527 101:0 102:0.107527 103:0 104:0 105:0.107527 106:0.0107527 107:0.215054 108:0 109:0.0322581 110:0 111:0 112:0.11828 113:0.397849 114:0.129032 115:0.107527 116:0 117:0.247312 118:0 119:0.258065 120:0.0107527 121:0 122:0.150538 123:0.494624 124:0.645161 125:0.11828 126:0.11828 127:0.247312 128:0 129:0.290323 130:0.0430108 131:0 132:0.0967742 133:0.107527 134:0.225806 135:0.107527 136:0.0107527 137:0.0752688 138:0 139:0.16129 140:0.0967742 141:0 142:0.129032 143:0 144:0 145:0.172043 146:0 147:0 148:0 149:0.0645161 150:0 151:0 152:0 153:0 154:0 155:0.0537634 156:0 157:0 158:0 159:0 160:0 161:0 162:0 163:0 164:0 165:0.0107527 166:0 167:0 168:0 169:0 170:0 171:0 172:0 173:0 174:0 175:0 176:0 177:0 178:0 179:0 180:0 
1 1 1 1 1 1:0 2:0 3:0 4:0 5:0 6:0 7:0 8:0.0326797 9:0 10:0 11:0 12:0 13:0 14:0 15:0 16:0.163399 17:0 18:0.398693 19:0 20:0.0915033 21:0 22:0 23:0 24:0 25:0 26:0.457516 27:0 28:0.529412 29:0 30:0.575163 31:0 32:0 33:0 34:0 35:0.0522876 36:0.196078 37:0 38:0.0392157 39:0.0653595 40:0.169935 41:0 42:0.0980392 43:0 44:0 45:0.0522876 46:0.0392157 47:0.0392157 48:0 49:0.0326797 50:0.0196078 51:0.0392157 52:0.00653595 53:0 54:0 55:0.00653595 56:0.00653595 57:0.0588235 58:0 59:0 60:0.00653595 61:0.0392157 62:0.00653595 63:0 64:0 65:0.00653595 66:0.00653595 67:0.00653595 68:0 69:0.00653595 70:0.00653595 71:0.0980392 72:0.00653595 73:0 74:0 75:0.00653595 76:0.00653595 77:0.00653595 78:0 79:0.00653595 80:0.00653595 81:0.823529 82:0.0457516 83:0 84:0 85:0.0261438 86:0.00653595 87:0 88:0 89:0 90:0.00653595 91:0 92:0.0980392 93:0 94:0 95:0.0980392 96:0.00653595 97:0.00653595 98:0 99:0.00653595 100:0.00653595 101:0 102:0.235294 103:0 104:0 105:0.169935 106:0.00653595 107:0.00653595 108:0 109:0.00653595 110:0.00653595 111:0 112:0.202614 113:0.0196078 114:0.130719 115:0.189542 116:0.00653595 117:0.00653595 118:0 119:0.00653595 120:0.00653595 121:0 122:0.20915 123:0.300654 124:0.346405 125:0.222222 126:0.0522876 127:0.0196078 128:0 129:0.0130719 130:0 131:0 132:0.0849673 133:0.326797 134:0.320261 135:0.124183 136:0.0457516 137:0.130719 138:0 139:0.111111 140:0.00653595 141:0 142:0.00653595 143:0.202614 144:0.111111 145:0.0457516 146:0 147:0.24183 148:0 149:0.20915 150:0.0915033 151:0 152:0 153:0.130719 154:0.0326797 155:0 156:0 157:0.411765 158:0 159:0.320261 160:0 161:0 162:0 163:0.0130719 164:0.0326797 165:0 166:0 167:0.0653595 168:0 169:0.20915 170:0 171:0 172:0 173:0.00653595 174:0.0261438 175:0 176:0 177:0 178:0 179:0.00653595 180:0 
1 1 1 1 1 1:0 2:0 3:0 4:0 5:0.0205128 6:0 7:0 8:0.861538 9:0 10:0 11:0 12:0 13:0 14:0 15:0.0102564 16:0.0102564 17:0 18:0.133333 19:0 20:0 21:0 22:0.00512821 23:0 24:0 25:0.00512821 26:0.0512821 27:0 28:0.00512821 29:0.0974359 30:0.0564103 31:0 32:0.205128 33:0 34:0 35:0.246154 36:0.553846 37:0 38:0 39:0.0974359 40:0.430769 41:0 42:0.025641 43:0 44:0 45:0.0974359 46:0.117949 47:0.2 48:0 49:0 50:0.112821 51:0.107692 52:0.107692 53:0 54:0 55:0.169231 56:0.0461538 57:0.00512821 58:0 59:0.00512821 60:0.14359 61:0.846154 62:0.194872 63:0.00512821 64:0 65:0.0820513 66:0.0102564 67:0.00512821 68:0 69:0.0307692 70:0 71:0.0461538 72:0.102564 73:0.00512821 74:0 75:0.0769231 76:0 77:0 78:0 79:0.0102564 80:0.0102564 81:0 82:0.0564103 83:0.0153846 84:0 85:0.0564103 86:0 87:0.00512821 88:0 89:0.00512821 90:0.00512821 91:0 92:0.0461538 93:0.0615385 94:0 95:0.0769231 96:0.00512821 97:0 98:0 99:0.0102564 100:0.0153846 101:0 102:0.0615385 103:0.179487 104:0.358974 105:0.0871795 106:0 107:0.00512821 108:0 109:0.00512821 110:0.00512821 111:0 112:0.0512821 113:0.487179 114:0.584615 115:0.025641 116:0.00512821 117:0.0461538 118:0 119:0.0666667 120:0.00512821 121:0 122:0.0769231 123:0.220513 124:0.0461538 125:0.0461538 126:0.0102564 127:0.184615 128:0 129:0.215385 130:0.00512821 131:0 132:0.0666667 133:0.025641 134:0.0102564 135:0 136:0.189744 137:0.374359 138:0 139:0.415385 140:0.189744 141:0 142:0 143:0 144:0 145:0 146:0 147:0.158974 148:0 149:0.0410256 150:0.0205128 151:0 152:0 153:0 154:0 155:0 156:0 157:0.0153846 158:0 159:0 160:0 161:0 162:0 163:0 164:0 165:0 166:0 167:0 168:0 169:0 170:0 171:0 172:0 173:0 174:0 175:0 176:0 177:0 178:0 179:0 180:0 
1 1 1 1 1 1:0 2:0 3:0 4:0 5:0 6:0 7:0 8:0 9:0 10:0 11:0 12:0 13:0 14:0 15:0 16:0.0233645 17:0 18:0.752336 19:0 20:0.00934579 21:0 22:0 23:0 24:0 25:0.00934579 26:0.228972 27:0 28:0.247664 29:0 30:0.224299 31:0 32:0.327103 33:0 34:0 35:0.271028 36:0.205607 37:0 38:0 39:0 40:0.242991 41:0 42:0.0700935 43:0 44:0 45:0.0747664 46:0.0934579 47:0.149533 48:0 49:0.214953 50:0.0420561 51:0 52:0.0373832 53:0 54:0 55:0.088785 56:0.0280374 57:0.182243 58:0 59:0.0373832 60:0.0373832 61:0 62:0.14486 63:0 64:0 65:0.140187 66:0.0186916 67:0.0140187 68:0 69:0.0373832 70:0.0186916 71:0 72:0.116822 73:0 74:0 75:0.140187 76:0.0186916 77:0.0140187 78:0 79:0.0327103 80:0.0327103 81:0.0514019 82:0.046729 83:0 84:0 85:0.0607477 86:0.00934579 87:0.0140187 88:0 89:0.0233645 90:0.046729 91:0.88785 92:0.046729 93:0 94:0.00934579 95:0.0654206 96:0.0140187 97:0.00934579 98:0 99:0.0327103 100:0.00934579 101:0.0607477 102:0.046729 103:0 104:0.0700935 105:0.0280374 106:0.0046729 107:0.0140187 108:0 109:0.0373832 110:0.0280374 111:0 112:0.0280374 113:0.504673 114:0.11215 115:0.0233645 116:0.0186916 117:0.0140187 118:0 119:0.0233645 120:0.0373832 121:0 122:0.0280374 123:0.485981 124:0.663551 125:0.046729 126:0.046729 127:0.0420561 128:0 129:0.0327103 130:0.0420561 131:0 132:0.0514019 133:0.00934579 134:0.14486 135:0.0514019 136:0.28972 137:0.0934579 138:0 139:0.0560748 140:0.228972 141:0 142:0.0514019 143:0 144:0 145:0 146:0 147:0.17757 148:0 149:0.28972 150:0 151:0 152:0.0046729 153:0 154:0 155:0 156:0 157:0.275701 158:0 159:0.107477 160:0 161:0 162:0 163:0 164:0 165:0 166:0 167:0 168:0 169:0.0747664 170:0 171:0 172:0 173:0 174:0 175:0 176:0 177:0 178:0 179:0 180:0 
1 1 1 1 1 1:0 2:0 3:0 4:0 5:0 6:0.00529101 7:0 8:0 9:0 10:0.00529101 11:0 12:0.047619 13:0 14:0 15:0.026455 16:0.026455 17:0 18:0.042328 19:0 20:0.010582 21:0 22:0.190476 23:0 24:0 25:0.026455 26:0.0952381 27:0.121693 28:0.26455 29:0 30:0.10582 31:0 32:0.0846561 33:0 34:0 35:0.148148 36:0.042328 37:0 38:0.449735 39:0 40:0.037037 41:0 42:0.333333 43:0 44:0 45:0.047619 46:0.042328 47:0.116402 48:0.232804 49:0 50:0.026455 51:0.026455 52:0.0846561 53:0 54:0 55:0.0793651 56:0.111111 57:0.10582 58:0.010582 59:0 60:0.238095 61:0.116402 62:0.031746 63:0 64:0 65:0.047619 66:0.243386 67:0.0952381 68:0 69:0.0740741 70:0.402116 71:0.301587 72:0.026455 73:0.179894 74:0.021164 75:0.132275 76:0.0952381 77:0.195767 78:0 79:0.248677 80:0.0793651 81:0.555556 82:0.037037 83:0.328042 84:0.0793651 85:0.10582 86:0.10582 87:0.116402 88:0 89:0.121693 90:0 91:0 92:0.0634921 93:0.238095 94:0.100529 95:0.0740741 96:0.015873 97:0.047619 98:0 99:0.142857 100:0.00529101 101:0 102:0.031746 103:0.0793651 104:0.227513 105:0.031746 106:0.0952381 107:0.0529101 108:0 109:0.137566 110:0.026455 111:0 112:0.026455 113:0.174603 114:0.322751 115:0.031746 116:0.00529101 117:0.042328 118:0 119:0.026455 120:0 121:0 122:0.021164 123:0 124:0.111111 125:0.047619 126:0 127:0.0846561 128:0 129:0.0952381 130:0.015873 131:0 132:0.021164 133:0 134:0.116402 135:0.148148 136:0.116402 137:0.010582 138:0 139:0.137566 140:0.026455 141:0 142:0 143:0 144:0.00529101 145:0.047619 146:0 147:0.010582 148:0 149:0.015873 150:0.021164 151:0 152:0 153:0 154:0.015873 155:0.00529101 156:0 157:0 158:0 159:0 160:0 161:0 162:0 163:0 164:0 165:0 166:0 167:0 168:0 169:0 170:0 171:0 172:0 173:0 174:0 175:0 176:0 177:0 178:0 179:0 180:0 
1 1 1 1 1 1:0.0984456 2:0 3:0 4:0 5:0 6:0 7:0 8:0.015544 9:0 10:0.0310881 11:0.0984456 12:0 13:0 14:0 15:0 16:0.00518135 17:0 18:0.181347 19:0.015544 20:0.0259067 21:0 22:0.134715 23:0 24:0 25:0.0362694 26:0.103627 27:0 28:0.694301 29:0.0207254 30:0.0777202 31:0 32:0.0829016 33:0 34:0 35:0.119171 36:0.139896 37:0 38:0.108808 39:0.11399 40:0.160622 41:0 42:0.134715 43:0 44:0 45:0.103627 46:0.0673575 47:0.0103627 48:0 49:0.0984456 50:0.0103627 51:0.0880829 52:0.0984456 53:0 54:0 55:0.108808 56:0.0362694 57:0.134715 58:0 59:0.145078 60:0.0362694 61:0.160622 62:0.0880829 63:0 64:0 65:0.124352 66:0.19171 67:0.139896 68:0 69:0.0518135 70:0.129534 71:0.238342 72:0.0621762 73:0 74:0 75:0.0518135 76:0.0518135 77:0.0259067 78:0 79:0.0362694 80:0.0310881 81:0.119171 82:0.0932643 83:0 84:0 85:0.0569948 86:0.0466321 87:0.0725389 88:0 89:0.0103627 90:0.0207254 91:0.196891 92:0.0310881 93:0 94:0.00518135 95:0.0880829 96:0.0569948 97:0.0829016 98:0 99:0.0310881 100:0.0259067 101:0 102:0.0725389 103:0.124352 104:0.00518135 105:0.134715 106:0.0259067 107:0.0310881 108:0 109:0.0725389 110:0.015544 111:0 112:0.0673575 113:0.11399 114:0.0466321 115:0.0621762 116:0.0310881 117:0.0414508 118:0 119:0.0621762 120:0.015544 121:0 122:0.0518135 123:0.0466321 124:0.0880829 125:0.0518135 126:0.176166 127:0.0259067 128:0 129:0.0466321 130:0.015544 131:0 132:0.0310881 133:0.0259067 134:0.398964 135:0.0621762 136:0.0569948 137:0.108808 138:0 139:0.0259067 140:0.160622 141:0 142:0.00518135 143:0.145078 144:0.284974 145:0 146:0.0103627 147:0.222798 148:0 149:0.11399 150:0.0518135 151:0 152:0.00518135 153:0.321244 154:0.0518135 155:0 156:0 157:0.0984456 158:0 159:0.145078 160:0.0777202 161:0 162:0.015544 163:0.165803 164:0.0569948 165:0 166:0 167:0.00518135 168:0 169:0.0103627 170:0.0777202 171:0 172:0.0259067 173:0.0569948 174:0.0621762 175:0 176:0 177:0 178:0 179:0 180:0.0362694 
1 1 1 1 1 1:0 2:0 3:0 4:0 5:0 6:0 7:0 8:0 9:0 10:0 11:0 12:0 13:0 14:0 15:0 16:0 17:0 18:0 19:0 20:0 21:0 22:0 23:0 24:0 25:0 26:0.215517 27:0 28:0 29:0.0689655 30:0.37069 31:0 32:0 33:0 34:0 35:0.00862069 36:0.310345 37:0.215517 38:0.87069 39:0.0431034 40:0.181034 41:0 42:0.224138 43:0 44:0 45:0.189655 46:0.0431034 47:0.0948276 48:0.12931 49:0.0344828 50:0.0172414 51:0 52:0.181034 53:0 54:0 55:0.103448 56:0.0258621 57:0.00862069 58:0 59:0.112069 60:0.0603448 61:0.0948276 62:0.0258621 63:0 64:0 65:0.146552 66:0.0172414 67:0.00862069 68:0 69:0.0775862 70:0.0258621 71:0.465517 72:0.0344828 73:0 74:0 75:0.0172414 76:0.0344828 77:0.0517241 78:0 79:0.0258621 80:0.0172414 81:0.439655 82:0.0689655 83:0.12069 84:0 85:0.0344828 86:0.0344828 87:0.0258621 88:0 89:0.0431034 90:0.181034 91:0 92:0.112069 93:0.0172414 94:0.00862069 95:0.0603448 96:0.00862069 97:0.0172414 98:0 99:0.0258621 100:0.00862069 101:0 102:0.0775862 103:0 104:0.172414 105:0.0948276 106:0.241379 107:0.0258621 108:0 109:0.0344828 110:0.0862069 111:0 112:0.0517241 113:0.267241 114:0.155172 115:0.0775862 116:0.0689655 117:0.112069 118:0 119:0.137931 120:0.0517241 121:0 122:0.0948276 123:0.0431034 124:0.0948276 125:0.0517241 126:0 127:0.284483 128:0 129:0.37069 130:0 131:0 132:0.103448 133:0.439655 134:0.181034 135:0.0948276 136:0 137:0.155172 138:0 139:0.0258621 140:0 141:0 142:0.0258621 143:0.112069 144:0.387931 145:0.12069 146:0 147:0 148:0 149:0 150:0 151:0 152:0 153:0 154:0 155:0 156:0 157:0 158:0 159:0 160:0 161:0 162:0 163:0 164:0 165:0 166:0 167:0 168:0 169:0 170:0 171:0 172:0 173:0 174:0 175:0 176:0 177:0 178:0 179:0 180:0 
1 1 1 1 1 1:0 2:0 3:0 4:0 5:0 6:0 7:0 8:0 9:0 10:0 11:0 12:0.0440252 13:0 14:0 15:0.0188679 16:0.00628931 17:0 18:0.628931 19:0 20:0.0628931 21:0 22:0.0314465 23:0 24:0 25:0.0188679 26:0.314465 27:0 28:0.339623 29:0 30:0.308176 31:0 32:0.0251572 33:0 34:0 35:0.0125786 36:0.333333 37:0 38:0.0314465 39:0 40:0.194969 41:0 42:0.0251572 43:0 44:0 45:0.0754717 46:0.138365 47:0 48:0 49:0 50:0.194969 51:0 52:0.0754717 53:0 54:0 55:0.0377358 56:0.113208 57:0 58:0 59:0 60:0.125786 61:0 62:0.0566038 63:0 64:0 65:0.0691824 66:0.0125786 67:0 68:0 69:0 70:0.0314465 71:0.232704 72:0.0754717 73:0 74:0 75:0.0628931 76:0.0251572 77:0 78:0 79:0 80:0.0251572 81:0.522013 82:0.0754717 83:0 84:0 85:0.0566038 86:0.0188679 87:0.0314465 88:0 89:0 90:0.0566038 91:0.245283 92:0.0943396 93:0 94:0 95:0.081761 96:0.0314465 97:0.0251572 98:0 99:0.0377358 100:0 101:0 102:0.0691824 103:0 104:0 105:0.0628931 106:0.00628931 107:0.00628931 108:0 109:0.0440252 110:0 111:0 112:0.0880503 113:0.0880503 114:0 115:0.0628931 116:0 117:0.0251572 118:0 119:0.0628931 120:0 121:0 122:0.0754717 123:0.106918 124:0.0754717 125:0.0628931 126:0 127:0.081761 128:0 129:0.188679 130:0 131:0 132:0.138365 133:0.45283 134:0.383648 135:0.081761 136:0 137:0.100629 138:0 139:0.138365 140:0 141:0 142:0.100629 143:0.157233 144:0.301887 145:0.138365 146:0 147:0.327044 148:0 149:0.213836 150:0 151:0 152:0.00628931 153:0.113208 154:0.132075 155:0.106918 156:0 157:0.327044 158:0 159:0.295597 160:0 161:0 162:0.0188679 163:0.081761 164:0.106918 165:0.0503145 166:0 167:0.0754717 168:0 169:0.0188679 170:0 171:0 172:0 173:0 174:0 175:0 176:0 177:0 178:0 179:0 180:0 
1 1 1 1 1 1:0 2:0.00492611 3:0 4:0 5:0 6:0 7:0 8:0 9:0 10:0 11:0 12:0.00492611 13:0 14:0 15:0 16:0.00985222 17:0 18:0 19:0 20:0.00985222 21:0 22:0.142857 23:0 24:0 25:0 26:0.172414 27:0 28:1 29:0 30:0.310345 31:0 32:0.0394089 33:0 34:0 35:0 36:0.280788 37:0.00985222 38:0 39:0 40:0.241379 41:0 42:0.0147783 43:0 44:0 45:0.167488 46:0.216749 47:0 48:0 49:0 50:0.162562 51:0 52:0.0295567 53:0 54:0 55:0 56:0.118227 57:0.0738916 58:0 59:0 60:0.26601 61:0.133005 62:0.044335 63:0 64:0 65:0.0344828 66:0 67:0.0738916 68:0 69:0 70:0 71:0.600985 72:0.0147783 73:0 74:0 75:0.0541872 76:0.00985222 77:0.0197044 78:0 79:0 80:0.00492611 81:0.26601 82:0.0541872 83:0 84:0 85:0.0886699 86:0.0147783 87:0.0197044 88:0 89:0.00492611 90:0.00492611 91:0 92:0.0886699 93:0 94:0 95:0.0492611 96:0.0197044 97:0.00492611 98:0 99:0.0985222 100:0 101:0 102:0.0394089 103:0 104:0 105:0.0837438 106:0 107:0.0935961 108:0 109:0.0886699 110:0 111:0 112:0.044335 113:0 114:0 115:0.0295567 116:0.0640394 117:0.0738916 118:0 119:0.325123 120:0 121:0 122:0.280788 123:0.187192 124:0 125:0.20197 126:0.0935961 127:0.280788 128:0 129:0.394089 130:0 131:0 132:0.167488 133:0.635468 134:0.615764 135:0.221675 136:0 137:0.231527 138:0 139:0.0738916 140:0 141:0 142:0.0197044 143:0.17734 144:0.384236 145:0.0689655 146:0 147:0.0738916 148:0 149:0.0147783 150:0 151:0 152:0.00985222 153:0 154:0 155:0 156:0 157:0.044335 158:0 159:0 160:0 161:0 162:0 163:0 164:0 165:0 166:0 167:0 168:0 169:0 170:0 171:0 172:0 173:0 174:0 175:0 176:0 177:0 178:0 179:0 180:0 
1 1 1 1 1 1:0 2:0 3:0 4:0 5:0 6:0.0515464 7:0 8:0 9:0 10:0 11:0 12:0 13:0 14:0 15:0 16:0.123711 17:0 18:0.958763 19:0 20:0.056701 21:0 22:0.0309278 23:0 24:0 25:0 26:0.170103 27:0 28:0.0412371 29:0 30:0.195876 31:0 32:0.0670103 33:0 34:0 35:0.108247 36:0.324742 37:0.0360825 38:0 39:0 40:0.283505 41:0 42:0.0360825 43:0 44:0 45:0.0773196 46:0.134021 47:0.0515464 48:0 49:0.123711 50:0.268041 51:0 52:0.0412371 53:0 54:0 55:0.00515464 56:0.0103093 57:0.0360825 58:0 59:0.0515464 60:0.00515464 61:0.0257732 62:0.0309278 63:0 64:0 65:0 66:0 67:0.0515464 68:0 69:0.00515464 70:0.00515464 71:0.0463918 72:0.0412371 73:0 74:0 75:0.0257732 76:0 77:0.00515464 78:0 79:0 80:0 81:0.675258 82:0.0309278 83:0 84:0 85:0.0154639 86:0.00515464 87:0 88:0 89:0 90:0.00515464 91:0.252577 92:0.0103093 93:0 94:0 95:0.0824742 96:0 97:0 98:0 99:0.00515464 100:0 101:0 102:0.0721649 103:0 104:0 105:0.0824742 106:0 107:0.00515464 108:0 109:0 110:0 111:0 112:0.0824742 113:0 114:0 115:0.108247 116:0.0515464 117:0 118:0 119:0.00515464 120:0.00515464 121:0 122:0.0515464 123:0 124:0 125:0.0515464 126:0.0360825 127:0.0103093 128:0 129:0.00515464 130:0.0360825 131:0 132:0.221649 133:0.0927835 134:0.113402 135:0.175258 136:0.0309278 137:0.0257732 138:0 139:0.226804 140:0.139175 141:0 142:0.257732 143:0.747423 144:0.556701 145:0.231959 146:0.0463918 147:0.35567 148:0 149:0.268041 150:0 151:0 152:0.0206186 153:0.134021 154:0.293814 155:0.0360825 156:0.0154639 157:0.21134 158:0 159:0.206186 160:0 161:0 162:0.00515464 163:0.0257732 164:0.0309278 165:0 166:0 167:0.159794 168:0 169:0.103093 170:0 171:0 172:0 173:0 174:0.00515464 175:0 176:0 177:0.0515464 178:0 179:0 180:0 
-1 1 1 1 1 1:0 2:0 3:0 4:0 5:0 6:0 7:0 8:0 9:0 10:0 11:0 12:0 13:0 14:0 15:0 16:0 17:0.0190476 18:0 19:0 20:0 21:0 22:0 23:0 24:0 25:0 26:0 27:0.685714 28:0.0857143 29:0 30:0.12381 31:0 32:0 33:0 34:0 35:0 36:0 37:0.295238 38:0.914286 39:0.0285714 40:0.0666667 41:0 42:0.266667 43:0 44:0 45:0.4 46:0 47:0 48:0 49:0.0666667 50:0.0761905 51:0 52:0.733333 53:0 54:0 55:0.238095 56:0 57:0 58:0 59:0.238095 60:0.0285714 61:0 62:0 63:0 64:0.866667 65:0.0571429 66:0 67:0 68:0 69:0.285714 70:0.0190476 71:0 72:0 73:0 74:0.133333 75:0.0190476 76:0 77:0 78:0 79:0.0285714 80:0.0285714 81:0.047619 82:0 83:0 84:0 85:0.0190476 86:0 87:0 88:0 89:0.0190476 90:0.0190476 91:0.942857 92:0 93:0 94:0 95:0.0285714 96:0 97:0 98:0 99:0.00952381 100:0.304762 101:0.00952381 102:0 103:0 104:0 105:0.161905 106:0 107:0 108:0 109:0.0285714 110:0 111:0 112:0 113:0.314286 114:0 115:0.00952381 116:0.466667 117:0 118:0 119:0.0285714 120:0.295238 121:0 122:0 123:0.67619 124:0 125:0.0190476 126:0.533333 127:0 128:0 129:0.0285714 130:0.00952381 131:0 132:0 133:0.00952381 134:0 135:0 136:0 137:0 138:0 139:0.0761905 140:0.0285714 141:0 142:0 143:0 144:0 145:0.0285714 146:0 147:0 148:0 149:0.12381 150:0 151:0 152:0 153:0 154:0 155:0.0190476 156:0 157:0 158:0 159:0.0380952 160:0 161:0 162:0 163:0 164:0 165:0 166:0 167:0 168:0 169:0 170:0 171:0 172:0 173:0 174:0 175:0 176:0 177:0 178:0 179:0 180:0 
-1 1 1 1 1 1:0 2:0.0526316 3:0 4:0 5:0 6:0 7:0.0315789 8:0 9:0 10:0 11:0 12:0.0736842 13:0 14:0 15:0 16:0 17:0.0105263 18:0 19:0 20:0 21:0 22:0.221053 23:0 24:0 25:0 26:0 27:0.136842 28:0.978947 29:0 30:0 31:0 32:0.0842105 33:0 34:0 35:0 36:0 37:0.0421053 38:0.0210526 39:0 40:0.136842 41:0 42:0.0105263 43:0 44:0 45:0.0210526 46:0 47:0.189474 48:0 49:0.336842 50:0.273684 51:0 52:0 53:0 54:0 55:0.105263 56:0 57:0.0105263 58:0 59:0.147368 60:0.0210526 61:0 62:0.0736842 63:0 64:0 65:0.357895 66:0 67:0.0105263 68:0 69:0.0315789 70:0.0105263 71:0.0105263 72:0.0105263 73:0 74:0 75:0.189474 76:0 77:0 78:0 79:0.0105263 80:0.0105263 81:0 82:0.189474 83:0 84:0 85:0.0842105 86:0.0105263 87:0.0105263 88:0 89:0.0105263 90:0.0105263 91:0 92:0.284211 93:0 94:0 95:0.0421053 96:0.263158 97:0.473684 98:0 99:0.0105263 100:0.0105263 101:0.568421 102:0 103:0 104:0 105:0.0842105 106:0.305263 107:0.0842105 108:0 109:0.0105263 110:0.0105263 111:0.368421 112:0 113:0 114:0 115:0.0526316 116:0.0105263 117:0 118:0 119:0.0105263 120:0.0210526 121:0.0421053 122:0 123:0 124:0 125:0.0421053 126:0.0105263 127:0 128:0 129:0.0105263 130:0.0210526 131:0.0105263 132:0 133:0 134:0 135:0.0210526 136:0.189474 137:0 138:0 139:0.105263 140:0.210526 141:0 142:0 143:0 144:0 145:0 146:0.126316 147:0 148:0 149:0.221053 150:0.263158 151:0 152:0 153:0 154:0.0315789 155:0 156:0.0526316 157:0 158:0 159:0.0947368 160:0 161:0 162:0 163:0.0315789 164:0.547368 165:0 166:0.0315789 167:0 168:0 169:0 170:0 171:0 172:0 173:0.968421 174:0.421053 175:0 176:0 177:0 178:0 179:0 180:0 
-1 1 1 1 1 1:0 2:0 3:0 4:0 5:0 6:0 7:0 8:0 9:0 10:0 11:0 12:0 13:0 14:0 15:0 16:0 17:0 18:0.0526316 19:0 20:0 21:0 22:0.0175439 23:0 24:0 25:0 26:0 27:0.385965 28:0.859649 29:0 30:0.438596 31:0 32:0.105263 33:0 34:0 35:0 36:0.0175439 37:0.333333 38:0.0877193 39:0 40:0.45614 41:0 42:0.561404 43:0 44:0 45:0 46:0.0350877 47:0.175439 48:0 49:0 50:0.0877193 51:0 52:0.263158 53:0 54:0 55:0 56:0 57:0.0526316 58:0 59:0 60:0.0175439 61:0 62:0 63:0 64:0 65:0.122807 66:0 67:0 68:0 69:0 70:0 71:1 72:0.0175439 73:0 74:0 75:0.666667 76:0 77:0 78:0 79:0 80:0 81:0 82:0.0350877 83:0 84:0 85:0.0701754 86:0 87:0 88:0 89:0 90:0 91:0 92:0 93:0 94:0 95:0.0350877 96:0 97:0 98:0 99:0 100:0 101:0 102:0 103:0 104:0.0877193 105:0.0526316 106:0 107:0.0526316 108:0 109:0.0877193 110:0 111:0 112:0 113:0.0175439 114:0.333333 115:0.0350877 116:0.578947 117:0 118:0 119:0.175439 120:0 121:0 122:0 123:0.105263 124:0.245614 125:0.0175439 126:0.333333 127:0 128:0 129:0.315789 130:0 131:0 132:0 133:0.263158 134:0.122807 135:0 136:0.0350877 137:0 138:0 139:0.421053 140:0 141:0 142:0 143:0.614035 144:0.210526 145:0 146:0 147:0 148:0 149:0 150:0 151:0 152:0 153:0 154:0 155:0 156:0 157:0 158:0 159:0 160:0 161:0 162:0 163:0 164:0 165:0 166:0 167:0 168:0 169:0 170:0 171:0 172:0 173:0 174:0 175:0 176:0 177:0 178:0 179:0 180:0 
-1 1 1 1 1 1:0 2:0.0588235 3:0 4:0 5:0 6:0 7:0 8:0.313726 9:0 10:0 11:0 12:0.0980392 13:0 14:0 15:0 16:0 17:0 18:0.509804 19:0 20:0.0588235 21:0 22:0.0392157 23:0 24:0 25:0 26:0 27:0 28:0.176471 29:0.0196078 30:0.196078 31:0 32:0.0588235 33:0 34:0 35:0 36:0 37:0 38:0 39:0.0196078 40:0.235294 41:0 42:0.411765 43:0 44:0 45:0.0392157 46:0.0196078 47:0.294118 48:0 49:0.0392157 50:0 51:0 52:0.196078 53:0 54:0 55:0.117647 56:0.0196078 57:0.117647 58:0 59:0.137255 60:0.0392157 61:0 62:0 63:0 64:0 65:0.0980392 66:0.0196078 67:0.0784314 68:0 69:0.0980392 70:0.0196078 71:0 72:0 73:0 74:0 75:0.0980392 76:0.0588235 77:0.176471 78:0 79:0.0196078 80:0.0196078 81:0 82:0 83:0 84:0 85:0.0196078 86:0.0588235 87:0.0392157 88:0 89:0 90:0.0588235 91:0.0784314 92:0 93:0.0196078 94:0 95:0.0196078 96:0.0980392 97:0.0784314 98:0 99:0.0196078 100:0.0196078 101:0.431373 102:0 103:0.0784314 104:0 105:0.333333 106:0.0196078 107:0.0196078 108:0 109:0.0392157 110:0.0588235 111:0.372549 112:0.0392157 113:0.470588 114:0.0196078 115:0.156863 116:0.137255 117:0.0196078 118:0 119:0.0392157 120:0.0980392 121:0.0392157 122:0.0196078 123:0.215686 124:0.529412 125:0.117647 126:0.254902 127:0.117647 128:0 129:0.0392157 130:0.0784314 131:0.0784314 132:0.0784314 133:0.0588235 134:0.411765 135:0 136:0.313726 137:0.0588235 138:0 139:0.0196078 140:0.0784314 141:0 142:0 143:0.156863 144:0.0392157 145:0 146:0 147:0 148:0 149:0.156863 150:0.0392157 151:0 152:0 153:0 154:0 155:0 156:0 157:0 158:0 159:0.352941 160:0 161:0 162:0 163:0 164:0 165:0 166:0 167:0 168:0 169:0 170:0 171:0 172:0 173:0 174:0 175:0 176:0 177:0 178:0 179:0 180:0 
-1 1 1 1 1 1:0 2:0 3:0 4:0 5:0 6:0 7:0 8:1 9:0.032 10:0 11:0 12:0.144 13:0 14:0 15:0 16:0 17:0 18:0 19:0.24 20:0 21:0 22:0.744 23:0 24:0 25:0.08 26:0 27:0.128 28:0 29:0.032 30:0 31:0 32:0.112 33:0 34:0 35:0.304 36:0 37:0.552 38:0 39:0.008 40:0.144 41:0 42:0 43:0 44:0 45:0.392 46:0 47:0.312 48:0 49:0.024 50:0.168 51:0 52:0 53:0 54:0 55:0.128 56:0 57:0.008 58:0 59:0.016 60:0.248 61:0 62:0 63:0 64:0 65:0.04 66:0 67:0 68:0 69:0.024 70:0.048 71:1 72:0 73:0 74:0 75:0.032 76:0 77:0 78:0 79:0.016 80:0.024 81:0 82:0 83:0 84:0 85:0.016 86:0 87:0 88:0 89:0.152 90:0.016 91:0 92:0 93:0 94:0.064 95:0.008 96:0 97:0 98:0 99:0.04 100:0.024 101:0 102:0 103:0.352 104:0.08 105:0 106:0 107:0 108:0 109:0.216 110:0.016 111:0 112:0 113:0.592 114:0.072 115:0 116:0 117:0 118:0 119:0.2 120:0 121:0 122:0 123:0.056 124:0.648 125:0 126:0.168 127:0 128:0 129:0 130:0.024 131:0 132:0 133:0 134:0.136 135:0 136:0.768 137:0 138:0 139:0 140:0.288 141:0 142:0 143:0 144:0 145:0 146:0.064 147:0 148:0 149:0 150:0 151:0 152:0 153:0 154:0 155:0 156:0 157:0 158:0 159:0 160:0 161:0 162:0 163:0 164:0 165:0 166:0 167:0 168:0 169:0 170:0 171:0 172:0 173:0 174:0 175:0 176:0 177:0 178:0 179:0 180:0 
-1 1 1 1 1 1:0 2:0 3:0 4:0 5:0 6:0 7:0 8:0.0603448 9:0 10:0 11:0 12:0 13:0 14:0 15:0 16:0 17:0 18:0.939655 19:0 20:0 21:0 22:0 23:0 24:0 25:0.12931 26:0 27:0 28:0 29:0 30:0.163793 31:0 32:0.258621 33:0 34:0 35:0.215517 36:0 37:0.465517 38:0 39:0.241379 40:0.0689655 41:0 42:0.646552 43:0 44:0 45:0.25 46:0 47:0.534483 48:0 49:0.301724 50:0.0172414 51:0 52:0.0948276 53:0 54:0 55:0.172414 56:0 57:0 58:0 59:0.0172414 60:0.0258621 61:0 62:0 63:0 64:0 65:0.0862069 66:0 67:0 68:0 69:0.0172414 70:0.0775862 71:0.137931 72:0 73:0 74:0 75:0.0517241 76:0 77:0 78:0 79:0.00862069 80:0.0172414 81:0.775862 82:0 83:0 84:0 85:0.0258621 86:0 87:0 88:0 89:0.0172414 90:0.0172414 91:0.0862069 92:0 93:0 94:0 95:0.0172414 96:0 97:0 98:0 99:0.0172414 100:0.0172414 101:0 102:0 103:0 104:0 105:0.0344828 106:0 107:0 108:0 109:0.0344828 110:0.0172414 111:0 112:0 113:0 114:0 115:0.0172414 116:0 117:0 118:0 119:0.0689655 120:0.0172414 121:0 122:0 123:0.836207 124:0.698276 125:0 126:0 127:0 128:0 129:0.0258621 130:0.0172414 131:0 132:0 133:0.163793 134:0.301724 135:0 136:0 137:0 138:0 139:0.0258621 140:0.198276 141:0 142:0 143:0 144:0 145:0 146:0.887931 147:0 148:0 149:0.0775862 150:0.344828 151:0 152:0 153:0 154:0 155:0 156:0.112069 157:0 158:0 159:0.146552 160:0 161:0 162:0 163:0 164:0 165:0 166:0 167:0 168:0 169:0 170:0 171:0 172:0 173:0 174:0 175:0 176:0 177:0 178:0 179:0 180:0 
-1 1 1 1 1 1:0 2:0 3:0 4:0 5:0 6:0 7:0 8:0 9:0.00862069 10:0 11:0 12:0 13:0 14:0 15:0 16:0 17:0 18:0.362069 19:0.137931 20:0 21:0 22:0.0948276 23:0 24:0 25:0 26:0 27:0 28:0.637931 29:0.267241 30:0.0862069 31:0 32:0.284483 33:0 34:0 35:0.0689655 36:0 37:0 38:0 39:0.146552 40:0.155172 41:0 42:0.0862069 43:0 44:0 45:0.0172414 46:0 47:0 48:0 49:0.0517241 50:0.103448 51:0 52:0.301724 53:0 54:0 55:0.00862069 56:0 57:0 58:0 59:0.0172414 60:0.0344828 61:0 62:0.189655 63:0 64:0 65:0.0689655 66:0 67:0 68:0 69:0.0172414 70:0.0172414 71:0.784483 72:0.0258621 73:0 74:0 75:0.181034 76:0 77:0 78:0 79:0.0517241 80:0.0603448 81:0.215517 82:0.0172414 83:0 84:0 85:0.293103 86:0 87:0 88:0 89:0.181034 90:0.215517 91:0 92:0 93:0 94:0 95:0.155172 96:0.0775862 97:0 98:0 99:0.0431034 100:0.163793 101:0 102:0 103:0 104:0 105:0.0344828 106:0.336207 107:0.0431034 108:0 109:0.0775862 110:0.0689655 111:0 112:0 113:0 114:0.0172414 115:0.0258621 116:0.577586 117:0.586207 118:0 119:0 120:0.0775862 121:0 122:0 123:0.551724 124:0.224138 125:0.0517241 126:0.00862069 127:0.344828 128:0 129:0 130:0.0172414 131:0 132:0 133:0.431034 134:0.0431034 135:0.0517241 136:0 137:0.0258621 138:0 139:0 140:0 141:0 142:0 143:0.0172414 144:0.0689655 145:0.0431034 146:0 147:0 148:0 149:0 150:0 151:0 152:0 153:0 154:0.62069 155:0 156:0 157:0 158:0 159:0 160:0 161:0 162:0 163:0 164:0.0258621 165:0 166:0 167:0 168:0 169:0 170:0 171:0 172:0 173:0 174:0 175:0 176:0 177:0 178:0 179:0 180:0 
-1 1 1 1 1 1:0 2:0 3:0 4:0 5:0 6:0 7:0 8:0 9:0 10:0 11:0 12:0 13:0 14:0 15:0 16:0 17:0 18:0.36 19:0 20:0 21:0 22:0 23:0 24:0 25:0.016 26:0 27:0 28:0.64 29:0 30:0 31:0 32:0 33:0 34:0 35:0.208 36:0 37:0.592 38:0 39:0.144 40:0 41:0 42:1 43:0 44:0 45:0.232 46:0 47:0.408 48:0 49:0.024 50:0 51:0 52:0 53:0 54:0 55:0.328 56:0 57:0 58:0 59:0.024 60:0.008 61:0 62:0 63:0 64:0 65:0.168 66:0 67:0 68:0 69:0.144 70:0.032 71:0 72:0 73:0 74:0 75:0.04 76:0 77:0 78:0 79:0.384 80:0.024 81:0 82:0 83:0 84:0 85:0.008 86:0 87:0 88:0 89:0.096 90:0.104 91:1 92:0 93:0 94:0 95:0 96:0 97:0 98:0 99:0.104 100:0.096 101:0 102:0 103:0 104:0 105:0 106:0 107:0 108:0 109:0.024 110:0.408 111:0 112:0 113:0 114:0 115:0 116:0 117:0 118:0 119:0.016 120:0.136 121:0 122:0 123:0 124:0 125:0 126:0 127:0 128:0 129:0.032 130:0.024 131:0 132:0 133:0 134:0 135:0 136:0.48 137:0 138:0 139:0.008 140:0.016 141:0 142:0 143:1 144:1 145:0 146:0.52 147:0 148:0 149:0 150:0.152 151:0 152:0 153:0 154:0 155:0 156:0 157:0 158:0 159:0 160:0 161:0 162:0 163:0 164:0 165:0 166:0 167:0 168:0 169:0 170:0 171:0 172:0 173:0 174:0 175:0 176:0 177:0 178:0 179:0 180:0 
-1 1 1 1 1 1:0 2:0 3:0 4:0 5:0 6:0 7:0 8:0 9:0 10:0 11:0 12:0 13:0 14:0 15:0 16:0 17:0 18:0 19:0 20:0 21:0 22:0.00819672 23:0 24:0 25:0 26:0.0409836 27:0 28:0.139344 29:0.057377 30:0.0983607 31:0 32:0.00819672 33:0 34:0 35:0 36:0.188525 37:0.057377 38:0.860656 39:0.180328 40:0.0655738 41:0 42:0.0819672 43:0 44:0 45:0.0819672 46:0.139344 47:0.229508 48:0 49:0.204918 50:0.106557 51:0 52:0.360656 53:0 54:0 55:0.401639 56:0.0819672 57:0.0245902 58:0 59:0.0655738 60:0.122951 61:0 62:0.262295 63:0 64:0 65:0.0409836 66:0.0983607 67:0.0655738 68:0 69:0.0327869 70:0.0491803 71:0 72:0.278689 73:0 74:0 75:0.0245902 76:0.114754 77:0.106557 78:0 79:0.0491803 80:0.0245902 81:0.688525 82:0 83:0 84:0 85:0.0491803 86:0.0163934 87:0.106557 88:0 89:0.0245902 90:0.0819672 91:0.254098 92:0 93:0 94:0.0163934 95:0.122951 96:0.00819672 97:0.0983607 98:0 99:0.057377 100:0.0901639 101:0.057377 102:0 103:0 104:0.0737705 105:0.0983607 106:0.0245902 107:0.057377 108:0 109:0.0737705 110:0.0409836 111:0 112:0 113:0.42623 114:0.122951 115:0.106557 116:0.286885 117:0.0737705 118:0 119:0.122951 120:0.270492 121:0 122:0 123:0.327869 124:0.598361 125:0.00819672 126:0 127:0.180328 128:0 129:0.131148 130:0.0491803 131:0 132:0 133:0.229508 134:0.188525 135:0.00819672 136:0 137:0 138:0 139:0 140:0 141:0 142:0 143:0.0163934 144:0 145:0.0245902 146:0 147:0 148:0 149:0 150:0 151:0 152:0 153:0 154:0 155:0.0163934 156:0 157:0 158:0 159:0 160:0 161:0 162:0 163:0 164:0 165:0.0163934 166:0 167:0 168:0 169:0 170:0 171:0 172:0 173:0 174:0 175:0 176:0 177:0 178:0 179:0 180:0 
-1 1 1 1 1 1:0 2:0 3:0 4:0 5:0 6:0 7:0 8:0 9:0 10:0 11:0 12:0 13:0 14:0 15:0 16:0 17:0 18:0.881188 19:0 20:0 21:0 22:0.0990099 23:0 24:0 25:0.0891089 26:0 27:0 28:0.118812 29:0 30:0 31:0 32:0.455446 33:0 34:0 35:0.029703 36:0.019802 37:0 38:0 39:0.0693069 40:0.128713 41:0 42:0.168317 43:0 44:0 45:0.277228 46:0.19802 47:0.019802 48:0 49:0.376238 50:0.138614 51:0 52:0.207921 53:0 54:0 55:0.158416 56:0.128713 57:0.049505 58:0 59:0.019802 60:0.0594059 61:0 62:0.0693069 63:0 64:0 65:0.0792079 66:0.188119 67:0.029703 68:0 69:0.0693069 70:0.039604 71:0 72:0 73:0 74:0 75:0.029703 76:0.19802 77:0.019802 78:0 79:0.019802 80:0.00990099 81:0 82:0 83:0 84:0 85:0.148515 86:0.118812 87:0.128713 88:0 89:0.019802 90:0.019802 91:0.227723 92:0 93:0 94:0 95:0.049505 96:0.00990099 97:0.019802 98:0 99:0.019802 100:0.029703 101:0.554455 102:0 103:0 104:0 105:0.0792079 106:0.039604 107:0.138614 108:0 109:0.00990099 110:0.00990099 111:0.217822 112:0 113:0 114:0 115:0.019802 116:0.019802 117:0.19802 118:0 119:0.019802 120:0.019802 121:0 122:0 123:0 124:0 125:0.039604 126:0.0693069 127:0.108911 128:0 129:0.029703 130:0.039604 131:0 132:0 133:0 134:0.029703 135:0 136:0.00990099 137:0.0594059 138:0 139:0.019802 140:0.128713 141:0 142:0 143:0.80198 144:0.752475 145:0 146:0 147:0.227723 148:0 149:0.039604 150:0.356436 151:0 152:0 153:0.19802 154:0.217822 155:0 156:0 157:0 158:0 159:0.148515 160:0.019802 161:0 162:0 163:0 164:0 165:0 166:0 167:0 168:0 169:0.138614 170:0 171:0 172:0 173:0 174:0 175:0 176:0 177:0 178:0 179:0 180:0 
-1 1 1 1 1 1:0 2:0 3:0 4:0 5:0 6:0 7:0 8:0 9:0.00833333 10:0 11:0 12:0 13:0 14:0 15:0 16:0 17:0.766667 18:0 19:0.133333 20:0 21:0 22:0 23:0 24:0 25:0 26:0 27:0.2 28:0 29:0.191667 30:0 31:0 32:0 33:0 34:0 35:0.258333 36:0 37:0.0333333 38:0.05 39:0.5 40:0 41:0 42:0.0333333 43:0 44:0 45:0.325 46:0 47:0 48:0.95 49:0.0333333 50:0 51:0 52:0.966667 53:0 54:0 55:0.291667 56:0 57:0 58:0 59:0.0333333 60:0 61:0 62:0 63:0 64:0 65:0.025 66:0 67:0 68:0 69:0.0833333 70:0.05 71:1 72:0 73:0 74:0 75:0.0166667 76:0 77:0 78:0 79:0.0166667 80:0.0416667 81:0 82:0 83:0.75 84:0.8 85:0.00833333 86:0 87:0 88:0 89:0 90:0.05 91:0 92:0 93:0.133333 94:0.133333 95:0.00833333 96:0.05 97:0 98:0 99:0 100:0.375 101:0 102:0 103:0.116667 104:0.0666667 105:0.0166667 106:0.108333 107:0 108:0 109:0 110:0.3 111:0 112:0 113:0 114:0 115:0.025 116:0.841667 117:0 118:0 119:0 120:0.175 121:0 122:0 123:0 124:0 125:0.025 126:0 127:0 128:0 129:0 130:0.00833333 131:0 132:0 133:0 134:0 135:0 136:0 137:0 138:0 139:0 140:0 141:0 142:0 143:0 144:0 145:0 146:0 147:0 148:0 149:0 150:0 151:0 152:0 153:0 154:0 155:0 156:0 157:0 158:0 159:0 160:0 161:0 162:0 163:0 164:0 165:0 166:0 167:0 168:0 169:0 170:0 171:0 172:0 173:0 174:0 175:0 176:0 177:0 178:0 179:0 180:0 
-1 1 1 1 1 1:0 2:0 3:0 4:0 5:0 6:0 7:0 8:0.0125786 9:0 10:0 11:0 12:0 13:0 14:0 15:0 16:0 17:0 18:0.981132 19:0 20:0 21:0 22:0 23:0 24:0 25:0.0880503 26:0 27:0 28:0.00628931 29:0 30:0 31:0 32:0.484277 33:0 34:0 35:0.622642 36:0 37:0.377358 38:0 39:0.251572 40:0 41:0 42:0.289308 43:0 44:0 45:0.144654 46:0 47:0.396226 48:0 49:0.427673 50:0 51:0 52:0.0754717 53:0 54:0 55:0.0566038 56:0 57:0.0628931 58:0 59:0.0943396 60:0 61:0 62:0.150943 63:0 64:0 65:0.0125786 66:0 67:0.0125786 68:0 69:0.0251572 70:0.0251572 71:0 72:0 73:0 74:0 75:0.0125786 76:0 77:0.0566038 78:0 79:0.0314465 80:0.0251572 81:0 82:0 83:0 84:0 85:0.00628931 86:0 87:0.0943396 88:0 89:0.0251572 90:0.0943396 91:1 92:0 93:0 94:0 95:0.00628931 96:0 97:0 98:0 99:0.0754717 100:0.0188679 101:0 102:0 103:0 104:0 105:0.0125786 106:0.150943 107:0 108:0 109:0.0377358 110:0.0251572 111:0 112:0 113:0 114:0 115:0.00628931 116:0.00628931 117:0 118:0 119:0.0314465 120:0.0440252 121:0 122:0 123:0 124:0 125:0.0314465 126:0.0125786 127:0 128:0 129:0 130:0.106918 131:0 132:0 133:0.18239 134:0.603774 135:0 136:0.150943 137:0 138:0 139:0 140:0.566038 141:0 142:0 143:0.647799 144:0.396226 145:0 146:0.63522 147:0 148:0 149:0 150:0.0943396 151:0 152:0 153:0.169811 154:0 155:0 156:0.0440252 157:0 158:0 159:0 160:0 161:0 162:0 163:0 164:0 165:0 166:0 167:0 168:0 169:0 170:0 171:0 172:0 173:0 174:0 175:0 176:0 177:0 178:0 179:0 180:0 
-1 -1 1 1 1 1:0 2:0.0746269 3:0 4:0 5:0 6:0 7:0.0199005 8:0.208955 9:0 10:0 11:0 12:0.0497512 13:0 14:0 15:0.00497512 16:0 17:0.0149254 18:0.124378 19:0.0199005 20:0 21:0 22:0.0597015 23:0 24:0 25:0.208955 26:0 27:0.00995025 28:0.656716 29:0.0845771 30:0 31:0 32:0.0746269 33:0 34:0 35:0.174129 36:0 37:0.0995025 38:0.00995025 39:0.278607 40:0 41:0.00497512 42:0.298507 43:0 44:0 45:0.0845771 46:0 47:0.233831 48:0 49:0.0845771 50:0 51:0.00995025 52:0.0597015 53:0 54:0 55:0.0696517 56:0 57:0.0298507 58:0 59:0.0945274 60:0 61:0.039801 62:0.308458 63:0 64:0 65:0.283582 66:0.0199005 67:0.0298507 68:0 69:0.154229 70:0 71:0.19403 72:0.0646766 73:0 74:0 75:0.0696517 76:0.0597015 77:0.0597015 78:0 79:0.174129 80:0.00497512 81:0.462687 82:0.00995025 83:0 84:0.0199005 85:0.0646766 86:0.164179 87:0.0746269 88:0 89:0.0646766 90:0.0348259 91:0.263682 92:0 93:0 94:0.0646766 95:0.00995025 96:0.179104 97:0.258706 98:0 99:0.0298507 100:0.0497512 101:0.0199005 102:0 103:0.00497512 104:0.238806 105:0.00497512 106:0.248756 107:0.119403 108:0 109:0.0149254 110:0.492537 111:0.00497512 112:0 113:0.0895522 114:0.0945274 115:0.0248756 116:0.179104 117:0.0348259 118:0 119:0 120:0.268657 121:0 122:0 123:0.477612 124:0.38806 125:0 126:0.0248756 127:0.0149254 128:0 129:0 130:0.0995025 131:0 132:0 133:0.079602 134:0.0149254 135:0 136:0.0199005 137:0 138:0 139:0 140:0.0447761 141:0 142:0 143:0.189055 144:0.0447761 145:0 146:0.0547264 147:0 148:0 149:0 150:0.00497512 151:0 152:0 153:0.134328 154:0.0497512 155:0 156:0.0497512 157:0 158:0 159:0 160:0 161:0 162:0 163:0.0248756 164:0.0597015 165:0 166:0 167:0 168:0 169:0 170:0 171:0 172:0 173:0 174:0.0248756 175:0 176:0 177:0 178:0 179:0 180:0 
-1 -1 1 1 1 1:0.00526316 2:0 3:0 4:0 5:0 6:0 7:0 8:0.0421053 9:0 10:0 11:0.0210526 12:0 13:0 14:0 15:0 16:0 17:0.00526316 18:0.668421 19:0 20:0 21:0.0421053 22:0.00526316 23:0 24:0 25:0.0421053 26:0 27:0.0578947 28:0.110526 29:0.0105263 30:0 31:0.0210526 32:0.0368421 33:0 34:0 35:0.1 36:0.178947 37:0.352632 38:0.121053 39:0.463158 40:0 41:0.0210526 42:0.494737 43:0 44:0 45:0.410526 46:0.0210526 47:0.136842 48:0.0263158 49:0.178947 50:0 51:0.0315789 52:0.0684211 53:0 54:0 55:0.0263158 56:0 57:0.1 58:0.0210526 59:0.205263 60:0.00526316 61:0.121053 62:0.0473684 63:0.0842105 64:0 65:0.0421053 66:0.0578947 67:0.0368421 68:0.00526316 69:0.0684211 70:0.0210526 71:0.1 72:0.0526316 73:0.0157895 74:0.0210526 75:0.0157895 76:0.0473684 77:0.0315789 78:0 79:0.0210526 80:0.0157895 81:0.210526 82:0.0421053 83:0 84:0.0368421 85:0.0105263 86:0.0368421 87:0.00526316 88:0.00526316 89:0 90:0.0105263 91:0.1 92:0 93:0.00526316 94:0.0157895 95:0.0105263 96:0.0421053 97:0.0157895 98:0 99:0.00526316 100:0.0736842 101:0.184211 102:0.0157895 103:0.0263158 104:0.0684211 105:0.00526316 106:0.0526316 107:0.0105263 108:0 109:0 110:0.0684211 111:0.142105 112:0.0789474 113:0.0631579 114:0.173684 115:0.0157895 116:0.142105 117:0.0526316 118:0 119:0.0105263 120:0.157895 121:0 122:0.115789 123:0.0578947 124:0.105263 125:0.0157895 126:0.1 127:0 128:0 129:0.0210526 130:0.0578947 131:0 132:0.0421053 133:0.0684211 134:0.110526 135:0.0578947 136:0.0368421 137:0 138:0 139:0.0157895 140:0.247368 141:0 142:0 143:0.0947368 144:0.0736842 145:0.105263 146:0.284211 147:0.152632 148:0 149:0 150:0.315789 151:0 152:0 153:0.221053 154:0.0684211 155:0.0947368 156:0 157:0.0421053 158:0 159:0 160:0.00526316 161:0 162:0 163:0.215789 164:0.294737 165:0.0421053 166:0 167:0 168:0 169:0 170:0.00526316 171:0 172:0 173:0.147368 174:0.0315789 175:0.00526316 176:0 177:0 178:0 179:0 180:0.0157895 
-1 -1 1 1 1 1:0 2:0.00769231 3:0 4:0 5:0 6:0 7:0 8:0.0307692 9:0.0153846 10:0 11:0 12:0.0153846 13:0 14:0 15:0.0153846 16:0.0230769 17:0.392308 18:0.0769231 19:0.230769 20:0 21:0 22:0.0692308 23:0 24:0 25:0.123077 26:0.0230769 27:0.0923077 28:0.307692 29:0.276923 30:0.00769231 31:0.0769231 32:0.115385 33:0 34:0 35:0.123077 36:0.0153846 37:0.230769 38:0.184615 39:0.115385 40:0.0153846 41:0.346154 42:0.1 43:0 44:0 45:0.253846 46:0.0461538 47:0.00769231 48:0.269231 49:0.0923077 50:0.00769231 51:0.0769231 52:0.215385 53:0 54:0 55:0 56:0.0384615 57:0.0461538 58:0.0846154 59:0.0384615 60:0 61:0.176923 62:0.276923 63:0 64:0 65:0.0230769 66:0.0307692 67:0.0384615 68:0.0461538 69:0.0692308 70:0.0230769 71:0.323077 72:0.2 73:0.238462 74:0 75:0.0538462 76:0.0307692 77:0.0307692 78:0 79:0.0538462 80:0.0307692 81:0 82:0 83:0.146154 84:0.0230769 85:0.153846 86:0.0538462 87:0.0307692 88:0 89:0.0538462 90:0.0230769 91:0 92:0 93:0.0384615 94:0.0384615 95:0.138462 96:0.0230769 97:0.0461538 98:0 99:0.00769231 100:0.0615385 101:0 102:0 103:0.0692308 104:0.0153846 105:0.0615385 106:0.223077 107:0.0384615 108:0 109:0 110:0.138462 111:0 112:0 113:0.169231 114:0.253846 115:0.0538462 116:0.3 117:0.0461538 118:0 119:0.00769231 120:0.107692 121:0 122:0 123:0.130769 124:0.1 125:0 126:0.192308 127:0 128:0 129:0.00769231 130:0.253846 131:0 132:0 133:0.207692 134:0.169231 135:0 136:0 137:0 138:0 139:0 140:0.176923 141:0 142:0 143:0 144:0.215385 145:0 146:0 147:0 148:0 149:0.0230769 150:0.115385 151:0 152:0 153:0 154:0.176923 155:0 156:0 157:0 158:0 159:0.00769231 160:0.0153846 161:0 162:0 163:0 164:0.00769231 165:0 166:0 167:0 168:0 169:0 170:0.0230769 171:0 172:0 173:0 174:0 175:0 176:0 177:0 178:0 179:0 180:0 
-1 -1 1 1 1 1:0.0174419 2:0.0116279 3:0 4:0 5:0 6:0 7:0.00581395 8:0.0174419 9:0.0872093 10:0 11:0.0813954 12:0.0697674 13:0 14:0.0639535 15:0.0174419 16:0 17:0.0116279 18:0.168605 19:0.0581395 20:0 21:0.0116279 22:0.0639535 23:0 24:0.180233 25:0.0232558 26:0 27:0.25 28:0.180233 29:0.127907 30:0.156977 31:0.0232558 32:0.104651 33:0 34:0.0988372 35:0.0465116 36:0 37:0.354651 38:0.127907 39:0.0523256 40:0.244186 41:0.0755814 42:0.19186 43:0 44:0.0639535 45:0.0872093 46:0 47:0.0930233 48:0.0348837 49:0.116279 50:0.0755814 51:0.0813954 52:0.104651 53:0 54:0.0523256 55:0.290698 56:0.00581395 57:0.0348837 58:0.0290698 59:0.0465116 60:0.0290698 61:0.151163 62:0.110465 63:0 64:0.0465116 65:0.168605 66:0.0232558 67:0.0755814 68:0.0174419 69:0.122093 70:0.0523256 71:0.0872093 72:0.151163 73:0 74:0.0348837 75:0.122093 76:0.0116279 77:0.0813954 78:0.00581395 79:0.0930233 80:0.0465116 81:0.19186 82:0.104651 83:0.0116279 84:0.0290698 85:0.0639535 86:0.0232558 87:0.0348837 88:0.0174419 89:0.0581395 90:0.0813954 91:0.267442 92:0.0581395 93:0.0406977 94:0 95:0.151163 96:0.0465116 97:0.0232558 98:0.0116279 99:0.0581395 100:0.0232558 101:0.00581395 102:0.00581395 103:0.0813954 104:0.0290698 105:0.0232558 106:0.156977 107:0.0174419 108:0 109:0.0523256 110:0.0232558 111:0.00581395 112:0.0116279 113:0.0930233 114:0.0697674 115:0 116:0.127907 117:0.0174419 118:0.0232558 119:0.0581395 120:0.0116279 121:0 122:0 123:0.156977 124:0.203488 125:0.00581395 126:0.0581395 127:0 128:0 129:0.0174419 130:0.180233 131:0 132:0.00581395 133:0.203488 134:0.104651 135:0 136:0.145349 137:0 138:0.0116279 139:0.0465116 140:0.0755814 141:0 142:0 143:0.0988372 144:0.0174419 145:0 146:0.215116 147:0 148:0.00581395 149:0.00581395 150:0 151:0 152:0.00581395 153:0.0465116 154:0.00581395 155:0 156:0.0872093 157:0 158:0.0930233 159:0 160:0 161:0 162:0 163:0.0755814 164:0 165:0 166:0.0988372 167:0 168:0.151163 169:0 170:0 171:0 172:0 173:0.19186 174:0 175:0 176:0 177:0 178:0.104651 179:0 180:0 
-1 -1 1 1 1 1:0 2:0.0208333 3:0 4:0 5:0 6:0 7:0 8:0.354167 9:0 10:0 11:0 12:0.0208333 13:0 14:0 15:0 16:0 17:0.0138889 18:0.340278 19:0 20:0 21:0.0138889 22:0.145833 23:0 24:0 25:0 26:0 27:0.0555556 28:0.194444 29:0 30:0 31:0.0138889 32:0.208333 33:0 34:0 35:0.0138889 36:0 37:0.166667 38:0.111111 39:0 40:0.125 41:0.159722 42:0.291667 43:0.0138889 44:0 45:0.354167 46:0 47:0.152778 48:0 49:0.166667 50:0.243056 51:0.493056 52:0.229167 53:0.0208333 54:0 55:0.305556 56:0 57:0.173611 58:0 59:0.0208333 60:0.125 61:0.319444 62:0.0833333 63:0.104167 64:0 65:0.173611 66:0 67:0.145833 68:0 69:0.104167 70:0.00694444 71:0 72:0 73:0.0138889 74:0.0208333 75:0.0972222 76:0 77:0.180556 78:0 79:0.104167 80:0 81:0 82:0 83:0.00694444 84:0.111111 85:0.0208333 86:0.0138889 87:0.111111 88:0 89:0.0416667 90:0 91:0 92:0 93:0.0138889 94:0.131944 95:0.0347222 96:0.1875 97:0 98:0 99:0.0138889 100:0.145833 101:0 102:0 103:0.0694444 104:0.145833 105:0 106:0.236111 107:0 108:0 109:0.00694444 110:0.111111 111:0 112:0 113:0.0138889 114:0.152778 115:0 116:0.201389 117:0 118:0 119:0.0486111 120:0.0763889 121:0 122:0 123:0.0694444 124:0.152778 125:0 126:0.131944 127:0 128:0 129:0.131944 130:0.00694444 131:0 132:0 133:0.298611 134:0.270833 135:0 136:0.173611 137:0 138:0 139:0.1875 140:0.0694444 141:0 142:0 143:0.159722 144:0.0138889 145:0 146:0.0555556 147:0 148:0 149:0.111111 150:0.0902778 151:0 152:0 153:0.0833333 154:0 155:0 156:0 157:0 158:0 159:0.0625 160:0 161:0 162:0 163:0.0277778 164:0 165:0 166:0 167:0 168:0 169:0 170:0 171:0 172:0 173:0.104167 174:0 175:0 176:0 177:0 178:0 179:0 180:0 
-1 -1 1 1 1 1:0.011236 2:0 3:0 4:0 5:0 6:0 7:0 8:0.168539 9:0 10:0 11:0.0280899 12:0.011236 13:0 14:0 15:0 16:0 17:0 18:0.342697 19:0 20:0 21:0.0505618 22:0.0898876 23:0 24:0 25:0.0168539 26:0 27:0 28:0.157303 29:0 30:0.011236 31:0.0449438 32:0.320225 33:0 34:0 35:0.196629 36:0 37:0.0786517 38:0.202247 39:0.0168539 40:0.0337079 41:0.0280899 42:0.320225 43:0 44:0 45:0.140449 46:0.011236 47:0.297753 48:0.0730337 49:0.235955 50:0.224719 51:0.0561798 52:0.0955056 53:0.00561798 54:0 55:0.0842697 56:0.0280899 57:0.140449 58:0.0280899 59:0.11236 60:0.0955056 61:0.101124 62:0.106742 63:0.0224719 64:0 65:0.196629 66:0.0224719 67:0.0786517 68:0.011236 69:0.0674157 70:0.0280899 71:0.179775 72:0.0449438 73:0.0337079 74:0.0449438 75:0.0730337 76:0.0280899 77:0.146067 78:0.011236 79:0.0617978 80:0.0224719 81:0.303371 82:0.011236 83:0.0561798 84:0.0168539 85:0.0842697 86:0.0337079 87:0.106742 88:0.00561798 89:0.0786517 90:0.011236 91:0.168539 92:0 93:0.0337079 94:0.0561798 95:0.11236 96:0.106742 97:0.0617978 98:0 99:0.258427 100:0.151685 101:0.0280899 102:0 103:0.0224719 104:0.0955056 105:0.0393258 106:0.235955 107:0.0224719 108:0 109:0.0786517 110:0.0617978 111:0 112:0 113:0.0561798 114:0.224719 115:0.0505618 116:0.162921 117:0.0337079 118:0 119:0.0617978 120:0.0955056 121:0 122:0 123:0.38764 124:0.174157 125:0.00561798 126:0.129213 127:0 128:0 129:0.0280899 130:0.0730337 131:0 132:0 133:0.191011 134:0.264045 135:0 136:0.230337 137:0.011236 138:0 139:0 140:0.179775 141:0 142:0 143:0.0955056 144:0.0786517 145:0 146:0.00561798 147:0.0224719 148:0 149:0 150:0.011236 151:0 152:0 153:0.0786517 154:0.0337079 155:0 156:0 157:0 158:0 159:0 160:0 161:0 162:0 163:0.011236 164:0.00561798 165:0 166:0.00561798 167:0 168:0 169:0 170:0 171:0 172:0 173:0.00561798 174:0.00561798 175:0 176:0 177:0 178:0 179:0 180:0 
-1 -1 1 1 1 1:0 2:0 3:0 4:0 5:0.0502793 6:0 7:0 8:0 9:0.00558659 10:0 11:0 12:0 13:0 14:0 15:0.00558659 16:0 17:0.00558659 18:0 19:0.0223464 20:0 21:0 22:0 23:0 24:0.00558659 25:0.0167598 26:0 27:0.178771 28:0.413408 29:0.134078 30:0 31:0.122905 32:0.122905 33:0 34:0.0111732 35:0.027933 36:0 37:0.0726257 38:0.195531 39:0.106145 40:0 41:0.128492 42:0.223464 43:0.027933 44:0.0391061 45:0.106145 46:0.0893855 47:0.0614525 48:0.0446927 49:0.027933 50:0 51:0.21229 52:0.0949721 53:0.100559 54:0.0111732 55:0.0837989 56:0.184358 57:0.0837989 58:0.00558659 59:0.0782123 60:0.00558659 61:0.162011 62:0.189944 63:0.139665 64:0.106145 65:0.167598 66:0.0670391 67:0.0167598 68:0.0167598 69:0.106145 70:0.139665 71:0.122905 72:0.256983 73:0.0893855 74:0.0614525 75:0.195531 76:0.150838 77:0.0614525 78:0.0614525 79:0.156425 80:0.0782123 81:0.251397 82:0.0726257 83:0.145251 84:0.128492 85:0.027933 86:0.111732 87:0.0446927 88:0.0614525 89:0.0782123 90:0.145251 91:0 92:0.0391061 93:0.0502793 94:0.117318 95:0.189944 96:0.0446927 97:0.100559 98:0.0391061 99:0.128492 100:0.117318 101:0 102:0 103:0.173184 104:0.26257 105:0.100559 106:0.0167598 107:0.21229 108:0.027933 109:0.0837989 110:0.173184 111:0 112:0 113:0.167598 114:0.0782123 115:0.027933 116:0.0335196 117:0.111732 118:0.0223464 119:0.0670391 120:0.139665 121:0 122:0 123:0.106145 124:0.0391061 125:0 126:0.268156 127:0.0502793 128:0.0335196 129:0.00558659 130:0.139665 131:0 132:0 133:0 134:0.0167598 135:0 136:0.0335196 137:0 138:0.0558659 139:0 140:0.0446927 141:0 142:0 143:0 144:0.0335196 145:0 146:0 147:0 148:0.0223464 149:0 150:0.00558659 151:0 152:0 153:0 154:0.0670391 155:0 156:0 157:0 158:0 159:0 160:0.0111732 161:0 162:0 163:0 164:0.0223464 165:0 166:0 167:0 168:0 169:0 170:0 171:0 172:0 173:0 174:0 175:0 176:0 177:0 178:0 179:0 180:0 
-1 -1 1 1 1 1:0.0436893 2:0.0145631 3:0 4:0 5:0.00485437 6:0 7:0 8:0 9:0 10:0 11:0.131068 12:0.0728155 13:0 14:0 15:0.0339806 16:0 17:0 18:0.208738 19:0 20:0 21:0.101942 22:0.0679612 23:0 24:0 25:0.0582524 26:0.0339806 27:0.0145631 28:0.262136 29:0.00485437 30:0.0194175 31:0.0339806 32:0.257282 33:0 34:0 35:0.0339806 36:0.0825243 37:0.131068 38:0.0194175 39:0.213592 40:0.0728155 41:0.0533981 42:0.0533981 43:0 44:0 45:0.305825 46:0.0582524 47:0.174757 48:0.00970874 49:0.169903 50:0.0291262 51:0.0145631 52:0.0970874 53:0 54:0 55:0.237864 56:0.126214 57:0.0873786 58:0.0533981 59:0.0970874 60:0.0825243 61:0.0145631 62:0.0873786 63:0 64:0 65:0.15534 66:0.116505 67:0.140777 68:0.0485437 69:0.11165 70:0.038835 71:0.0970874 72:0.0825243 73:0.0291262 74:0.0242718 75:0.0436893 76:0.0679612 77:0.184466 78:0.0291262 79:0.106796 80:0.126214 81:0.165049 82:0.0485437 83:0.0582524 84:0.0291262 85:0.0485437 86:0.0873786 87:0.116505 88:0.0776699 89:0.038835 90:0.150485 91:0.252427 92:0.0776699 93:0.0825243 94:0.116505 95:0.038835 96:0.038835 97:0.0970874 98:0.0582524 99:0.0291262 100:0.0728155 101:0.092233 102:0.0728155 103:0.131068 104:0.0728155 105:0.0242718 106:0.0582524 107:0.0145631 108:0.135922 109:0.0291262 110:0.0339806 111:0 112:0.0145631 113:0.213592 114:0.101942 115:0.00970874 116:0.0339806 117:0.0291262 118:0.0873786 119:0.0873786 120:0.0533981 121:0 122:0.0436893 123:0.121359 124:0.131068 125:0.00485437 126:0.0339806 127:0.00485437 128:0.00970874 129:0.0825243 130:0.0582524 131:0 132:0.00970874 133:0.213592 134:0.330097 135:0 136:0.0970874 137:0 138:0 139:0.0194175 140:0.0825243 141:0 142:0 143:0.126214 144:0.135922 145:0 146:0.131068 147:0.00485437 148:0 149:0.00970874 150:0.174757 151:0 152:0 153:0.0145631 154:0.0582524 155:0 156:0.0145631 157:0 158:0 159:0 160:0.00485437 161:0 162:0 163:0.00970874 164:0 165:0 166:0.0145631 167:0 168:0 169:0 170:0 171:0 172:0 173:0 174:0 175:0 176:0.00485437 177:0 178:0 179:0 180:0 
-1 -1 1 1 1 1:0 2:0.0864865 3:0 4:0 5:0.0216216 6:0 7:0.0324324 8:0.237838 9:0.12973 10:0 11:0.0162162 12:0.0486486 13:0 14:0 15:0.118919 16:0 17:0.0594595 18:0.254054 19:0.383784 20:0 21:0.0216216 22:0.135135 23:0 24:0 25:0.189189 26:0 27:0.286486 28:0.356757 29:0.178378 30:0 31:0.0594595 32:0.351351 33:0 34:0 35:0.151351 36:0 37:0.108108 38:0.135135 39:0.0864865 40:0 41:0.0756757 42:0.113514 43:0 44:0 45:0.0756757 46:0.0324324 47:0.0864865 48:0.00540541 49:0.0594595 50:0 51:0.0162162 52:0.0648649 53:0 54:0 55:0.254054 56:0.0162162 57:0.0648649 58:0.0108108 59:0.0702703 60:0 61:0.189189 62:0.0378378 63:0 64:0 65:0.0324324 66:0 67:0.0540541 68:0 69:0.0486486 70:0 71:0.275676 72:0.0162162 73:0 74:0 75:0.0378378 76:0.0486486 77:0.0594595 78:0 79:0.00540541 80:0 81:0.297297 82:0.00540541 83:0 84:0.0216216 85:0.0432432 86:0.0324324 87:0.0594595 88:0 89:0.0324324 90:0 91:0.0486486 92:0.00540541 93:0.027027 94:0.00540541 95:0.0486486 96:0.0864865 97:0.0162162 98:0 99:0.00540541 100:0.0108108 101:0 102:0 103:0.102703 104:0.0432432 105:0.0162162 106:0.102703 107:0.0162162 108:0 109:0 110:0.0702703 111:0 112:0 113:0.227027 114:0.189189 115:0.0108108 116:0.102703 117:0.118919 118:0 119:0 120:0.102703 121:0 122:0.0432432 123:0.275676 124:0.151351 125:0 126:0.0594595 127:0.0216216 128:0 129:0 130:0.286486 131:0 132:0.0756757 133:0.0918919 134:0.194595 135:0 136:0.0972973 137:0 138:0 139:0 140:0.113514 141:0 142:0.0162162 143:0.12973 144:0.275676 145:0 146:0.237838 147:0.0162162 148:0 149:0 150:0.102703 151:0 152:0 153:0.0864865 154:0.0702703 155:0 156:0.113514 157:0 158:0 159:0 160:0.151351 161:0 162:0 163:0.0324324 164:0.0324324 165:0 166:0.0540541 167:0 168:0 169:0 170:0.151351 171:0 172:0 173:0.027027 174:0.0162162 175:0 176:0.0162162 177:0 178:0 179:0 180:0.0108108 
-1 -1 1 1 1 1:0 2:0 3:0.015873 4:0 5:0.00529101 6:0 7:0.026455 8:0.0740741 9:0.010582 10:0.010582 11:0 12:0 13:0.0793651 14:0 15:0.132275 16:0 17:0.0687831 18:0.433862 19:0.015873 20:0.031746 21:0 22:0.174603 23:0.026455 24:0 25:0.185185 26:0 27:0.0899471 28:0.15873 29:0.031746 30:0.015873 31:0.00529101 32:0.269841 33:0.026455 34:0 35:0.248677 36:0 37:0.153439 38:0.121693 39:0.0793651 40:0.015873 41:0.021164 42:0.322751 43:0.026455 44:0 45:0.253968 46:0 47:0.359788 48:0.010582 49:0.116402 50:0.037037 51:0.0529101 52:0.132275 53:0.021164 54:0 55:0.042328 56:0.010582 57:0.153439 58:0.021164 59:0.190476 60:0.026455 61:0.047619 62:0.047619 63:0.037037 64:0 65:0.010582 66:0.042328 67:0.0899471 68:0.042328 69:0.116402 70:0.10582 71:0.142857 72:0.0529101 73:0.026455 74:0 75:0.037037 76:0.116402 77:0.047619 78:0.042328 79:0.0529101 80:0.047619 81:0.15873 82:0 83:0.031746 84:0 85:0.047619 86:0.142857 87:0 88:0.037037 89:0.037037 90:0.042328 91:0.407407 92:0 93:0.00529101 94:0.00529101 95:0.026455 96:0.111111 97:0 98:0.031746 99:0.0687831 100:0.0634921 101:0.031746 102:0 103:0.010582 104:0.031746 105:0.00529101 106:0.100529 107:0.00529101 108:0.015873 109:0.042328 110:0.0582011 111:0.132275 112:0 113:0.0529101 114:0.0899471 115:0.00529101 116:0.0634921 117:0.00529101 118:0.010582 119:0.047619 120:0.0582011 121:0 122:0 123:0.031746 124:0.179894 125:0 126:0.015873 127:0 128:0 129:0.026455 130:0.164021 131:0 132:0 133:0.169312 134:0.179894 135:0 136:0.206349 137:0 138:0 139:0.0846561 140:0.15873 141:0 142:0 143:0.354497 144:0.433862 145:0 146:0.190476 147:0 148:0 149:0.037037 150:0.100529 151:0 152:0 153:0.010582 154:0.0793651 155:0 156:0 157:0 158:0 159:0.042328 160:0.026455 161:0 162:0 163:0.010582 164:0 165:0 166:0 167:0 168:0 169:0 170:0.037037 171:0 172:0 173:0.0634921 174:0 175:0 176:0 177:0 178:0 179:0 180:0 
-1 -1 1 1 1 1:0 2:0.0217391 3:0 4:0 5:0 6:0 7:0 8:0.0597826 9:0.0163043 10:0 11:0 12:0.00543478 13:0 14:0 15:0.00543478 16:0 17:0 18:0.141304 19:0.0326087 20:0 21:0.0217391 22:0.048913 23:0 24:0.0217391 25:0.0326087 26:0 27:0.125 28:0.211957 29:0.184783 30:0 31:0.125 32:0.0108696 33:0 34:0.0326087 35:0.0652174 36:0.00543478 37:0.0652174 38:0.184783 39:0.347826 40:0 41:0.277174 42:0.103261 43:0 44:0.119565 45:0.157609 46:0.0543478 47:0.0217391 48:0.0597826 49:0.0923913 50:0 51:0.130435 52:0.48913 53:0 54:0.293478 55:0.211957 56:0.271739 57:0.0163043 58:0.130435 59:0.0380435 60:0 61:0.152174 62:0.179348 63:0.0163043 64:0.0597826 65:0.130435 66:0.228261 67:0.0271739 68:0.168478 69:0.0380435 70:0 71:0.26087 72:0.0652174 73:0.00543478 74:0.0163043 75:0.103261 76:0.0543478 77:0.108696 78:0.0434783 79:0.0815217 80:0 81:0.0271739 82:0.076087 83:0.0163043 84:0.00543478 85:0.0543478 86:0.0326087 87:0.0380435 88:0 89:0.0652174 90:0 91:0.00543478 92:0 93:0.0815217 94:0.0108696 95:0.048913 96:0.0543478 97:0.119565 98:0 99:0.0706522 100:0 101:0 102:0 103:0.201087 104:0.271739 105:0.141304 106:0.048913 107:0.244565 108:0 109:0.0271739 110:0.0108696 111:0 112:0 113:0.336957 114:0.0923913 115:0.0434783 116:0.217391 117:0.228261 118:0 119:0.00543478 120:0.288043 121:0 122:0 123:0.190217 124:0.0434783 125:0.00543478 126:0.0217391 127:0.00543478 128:0 129:0 130:0.168478 131:0 132:0 133:0.076087 134:0.0163043 135:0 136:0.00543478 137:0 138:0 139:0 140:0.304348 141:0 142:0 143:0.0217391 144:0.0163043 145:0 146:0.00543478 147:0 148:0 149:0 150:0.13587 151:0 152:0 153:0.0271739 154:0 155:0 156:0 157:0 158:0 159:0 160:0.0869565 161:0 162:0 163:0.0217391 164:0 165:0 166:0 167:0 168:0 169:0 170:0.00543478 171:0 172:0 173:0.00543478 174:0 175:0 176:0 177:0 178:0 179:0 180:0 
-1 -1 1 1 1 1:0.0274725 2:0 3:0 4:0 5:0.00549451 6:0 7:0 8:0.0934066 9:0.010989 10:0 11:0.0659341 12:0 13:0 14:0 15:0.021978 16:0 17:0 18:0.39011 19:0.137363 20:0.010989 21:0.0659341 22:0.00549451 23:0 24:0 25:0.120879 26:0 27:0 28:0.307692 29:0.0934066 30:0.021978 31:0.0659341 32:0.203297 33:0 34:0 35:0.401099 36:0 37:0.0824176 38:0.137363 39:0.368132 40:0.0274725 41:0.0494506 42:0.10989 43:0 44:0 45:0.21978 46:0.010989 47:0.335165 48:0.0274725 49:0.175824 50:0.0384615 51:0.0824176 52:0.131868 53:0 54:0 55:0.0604396 56:0.021978 57:0.043956 58:0.0164835 59:0.0879121 60:0.032967 61:0.043956 62:0.0879121 63:0.0769231 64:0.0384615 65:0.0604396 66:0.043956 67:0.0659341 68:0.0164835 69:0.0604396 70:0.043956 71:0.120879 72:0.0989011 73:0.0934066 74:0.021978 75:0.0549451 76:0.0604396 77:0.0604396 78:0 79:0.0274725 80:0.0934066 81:0.159341 82:0.0879121 83:0.0769231 84:0.104396 85:0.0164835 86:0.0714286 87:0.0549451 88:0.00549451 89:0.021978 90:0.0824176 91:0.302198 92:0.0879121 93:0.0934066 94:0.0659341 95:0.0164835 96:0.0934066 97:0.0934066 98:0.00549451 99:0.00549451 100:0.10989 101:0 102:0.0879121 103:0.0824176 104:0.142857 105:0.0164835 106:0.0659341 107:0.142857 108:0 109:0 110:0.0549451 111:0.0164835 112:0.0494506 113:0.0714286 114:0.126374 115:0 116:0.159341 117:0.0604396 118:0 119:0 120:0.0549451 121:0 122:0.0384615 123:0.0714286 124:0.148352 125:0.00549451 126:0.043956 127:0.0164835 128:0 129:0.00549451 130:0.0769231 131:0 132:0.00549451 133:0.346154 134:0.346154 135:0 136:0.153846 137:0.0274725 138:0 139:0.00549451 140:0.164835 141:0 142:0.00549451 143:0.021978 144:0 145:0 146:0.225275 147:0.00549451 148:0 149:0 150:0.186813 151:0 152:0 153:0.0274725 154:0.00549451 155:0 156:0.032967 157:0.00549451 158:0 159:0 160:0 161:0 162:0 163:0.010989 164:0 165:0 166:0.00549451 167:0.00549451 168:0 169:0 170:0 171:0 172:0 173:0.0274725 174:0 175:0 176:0.010989 177:0 178:0 179:0 180:0 
-1 -1 -1 1 1 1:0 2:0.0077821 3:0 4:0 5:0 6:0.0155642 7:0 8:0.0466926 9:0 10:0 11:0 12:0.0116732 13:0 14:0 15:0 16:0.0272374 17:0 18:0.447471 19:0 20:0 21:0 22:0.0116732 23:0 24:0 25:0.0466926 26:0.0116732 27:0.0155642 28:0.420233 29:0.0077821 30:0 31:0 32:0.0817121 33:0 34:0 35:0.0622568 36:0.0155642 37:0.116732 38:0.07393 39:0.225681 40:0 41:0 42:0.22179 43:0 44:0 45:0.151751 46:0.00389105 47:0.198444 48:0.0116732 49:0.206226 50:0 51:0.00389105 52:0.2607 53:0 54:0 55:0.268482 56:0.0077821 57:0.167315 58:0 59:0.190661 60:0 61:0 62:0.182879 63:0 64:0 65:0.311284 66:0 67:0.14786 68:0 69:0.14786 70:0.0155642 71:0.101167 72:0.143969 73:0.00389105 74:0.00389105 75:0.108949 76:0 77:0.120623 78:0 79:0.143969 80:0.0272374 81:0.233463 82:0.0622568 83:0.0233463 84:0.0077821 85:0.0505837 86:0.0933852 87:0.0856031 88:0 89:0.0155642 90:0.0116732 91:0.0894942 92:0.0155642 93:0.0077821 94:0.0077821 95:0 96:0.0622568 97:0.0583658 98:0 99:0.0350195 100:0.0544747 101:0.377432 102:0 103:0 104:0.00389105 105:0 106:0.0894942 107:0.0077821 108:0 109:0.0272374 110:0.120623 111:0.175097 112:0 113:0.0194553 114:0.0077821 115:0 116:0.0933852 117:0 118:0 119:0 120:0.120623 121:0.0194553 122:0 123:0.0116732 124:0.0155642 125:0 126:0.101167 127:0 128:0 129:0 130:0.108949 131:0 132:0 133:0.0194553 134:0.11284 135:0 136:0.136187 137:0.00389105 138:0 139:0 140:0.307393 141:0 142:0 143:0.0700389 144:0.11284 145:0 146:0.264591 147:0.0116732 148:0 149:0 150:0.229572 151:0 152:0 153:0.540856 154:0.322957 155:0 156:0.0700389 157:0.0155642 158:0 159:0 160:0.00389105 161:0 162:0 163:0.229572 164:0.311284 165:0 166:0.0077821 167:0.0272374 168:0 169:0 170:0 171:0 172:0 173:0.07393 174:0.0933852 175:0 176:0 177:0.0233463 178:0 179:0 180:0 
-1 -1 -1 1 1 1:0 2:0 3:0 4:0 5:0 6:0 7:0.0391459 8:0.0604982 9:0.0320285 10:0 11:0 12:0 13:0 14:0.00355872 15:0 16:0 17:0.0925267 18:0.16726 19:0.131673 20:0 21:0 22:0 23:0 24:0.0391459 25:0 26:0 27:0.0711744 28:0.153025 29:0.188612 30:0 31:0 32:0 33:0.0213523 34:0.0391459 35:0 36:0 37:0.106762 38:0.220641 39:0.156584 40:0 41:0 42:0.0427046 43:0.145907 44:0.0284698 45:0.0427046 46:0 47:0.131673 48:0.0925267 49:0.103203 50:0 51:0 52:0.177936 53:0.217082 54:0.0569395 55:0.117438 56:0 57:0.0747331 58:0.0676157 59:0.0711744 60:0 61:0 62:0.231317 63:0.199288 64:0.199288 65:0.380783 66:0 67:0.142349 68:0.0391459 69:0.088968 70:0 71:0 72:0.295374 73:0.11032 74:0.199288 75:0.295374 76:0.00711744 77:0.145907 78:0.103203 79:0.0747331 80:0.0142349 81:0.19573 82:0.202847 83:0.0427046 84:0.156584 85:0.0960854 86:0.0782918 87:0.153025 88:0.0569395 89:0.0533808 90:0.0355872 91:0.697509 92:0.0498221 93:0.128114 94:0.0818505 95:0.0391459 96:0.088968 97:0.024911 98:0.024911 99:0.0462633 100:0.0569395 101:0.106762 102:0 103:0.0177936 104:0.163701 105:0.0177936 106:0.0782918 107:0.0106762 108:0.0106762 109:0.0427046 110:0.120996 111:0 112:0 113:0.00355872 114:0.0213523 115:0.0106762 116:0.103203 117:0.00711744 118:0.00355872 119:0.0106762 120:0.117438 121:0 122:0 123:0.0427046 124:0 125:0 126:0.284698 127:0 128:0 129:0 130:0.103203 131:0 132:0 133:0.0569395 134:0.00355872 135:0 136:0.0925267 137:0 138:0 139:0 140:0.153025 141:0 142:0 143:0.0106762 144:0.00711744 145:0 146:0.217082 147:0 148:0 149:0 150:0.302491 151:0 152:0 153:0.00355872 154:0 155:0 156:0.0498221 157:0 158:0 159:0 160:0.0960854 161:0 162:0 163:0 164:0 165:0 166:0 167:0 168:0 169:0 170:0 171:0 172:0 173:0 174:0 175:0 176:0 177:0 178:0 179:0 180:0 
-1 -1 -1 1 1 1:0 2:0 3:0 4:0 5:0.0291667 6:0 7:0 8:0.366667 9:0 10:0.0208333 11:0 12:0.05 13:0 14:0 15:0.0916667 16:0 17:0.0125 18:0.241667 19:0.0125 20:0.00833333 21:0 22:0.1125 23:0 24:0 25:0.0125 26:0 27:0.0916667 28:0.3375 29:0.0958333 30:0.00416667 31:0 32:0.075 33:0 34:0 35:0.104167 36:0 37:0.208333 38:0.0541667 39:0.0791667 40:0.0375 41:0.0375 42:0.141667 43:0 44:0 45:0.125 46:0 47:0.1375 48:0 49:0.1375 50:0 51:0 52:0.2375 53:0 54:0 55:0.183333 56:0 57:0.279167 58:0 59:0.133333 60:0 61:0.00416667 62:0.266667 63:0.00833333 64:0 65:0.0875 66:0 67:0.125 68:0 69:0.120833 70:0.00416667 71:0.604167 72:0.1 73:0.00416667 74:0 75:0.104167 76:0 77:0.05 78:0 79:0.1375 80:0.0208333 81:0.3 82:0.0166667 83:0 84:0 85:0.15 86:0 87:0.0416667 88:0 89:0.0958333 90:0.075 91:0.0541667 92:0 93:0.05 94:0.0375 95:0.1125 96:0.0541667 97:0.00416667 98:0 99:0.0541667 100:0.0583333 101:0 102:0 103:0.1 104:0.145833 105:0 106:0.0833333 107:0.025 108:0 109:0.0583333 110:0.05 111:0 112:0 113:0.225 114:0.15 115:0 116:0.129167 117:0.0166667 118:0 119:0.00416667 120:0.120833 121:0 122:0 123:0.116667 124:0.133333 125:0 126:0.208333 127:0.00833333 128:0 129:0.00833333 130:0.241667 131:0 132:0 133:0.25 134:0.325 135:0 136:0.145833 137:0 138:0 139:0.00833333 140:0.170833 141:0 142:0 143:0.1625 144:0.15 145:0 146:0.220833 147:0 148:0 149:0.00833333 150:0.0916667 151:0 152:0 153:0.0333333 154:0.0583333 155:0 156:0.125 157:0 158:0 159:0.00833333 160:0.0916667 161:0 162:0 163:0.0416667 164:0 165:0 166:0.0333333 167:0 168:0 169:0.0291667 170:0.00416667 171:0 172:0 173:0.00833333 174:0 175:0 176:0 177:0 178:0 179:0.00833333 180:0 
-1 -1 -1 1 1 1:0 2:0.0222841 3:0 4:0 5:0.0194986 6:0 7:0.00835655 8:0.178273 9:0.0306407 10:0 11:0 12:0.0250696 13:0 14:0 15:0.0835655 16:0 17:0.0222841 18:0.0724234 19:0.0584958 20:0 21:0 22:0.0334262 23:0 24:0.00557103 25:0.0389972 26:0 27:0.103064 28:0.0194986 29:0.122563 30:0 31:0 32:0.0807799 33:0 34:0.00557103 35:0.10585 36:0 37:0.197772 38:0.0167131 39:0.119777 40:0 41:0 42:0.345404 43:0.00278552 44:0.0139276 45:0.0668524 46:0 47:0.206128 48:0.00835655 49:0.0947075 50:0 51:0 52:0.295265 53:0.00835655 54:0.0417827 55:0.122563 56:0.00278552 57:0.155989 58:0.0724234 59:0.147632 60:0.00557103 61:0.0222841 62:0.100279 63:0.00557103 64:0.0445682 65:0.259053 66:0 67:0.0835655 68:0.0501393 69:0.0501393 70:0.0278552 71:0.231198 72:0.0724234 73:0.00835655 74:0.119777 75:0.18663 76:0.0417827 77:0.0696379 78:0.0835655 79:0.0640668 80:0.139276 81:0.423398 82:0.0111421 83:0.00278552 84:0.225627 85:0.100279 86:0.0278552 87:0.097493 88:0.158774 89:0.0779944 90:0.172702 91:0.24234 92:0.00557103 93:0.0194986 94:0.142061 95:0.0167131 96:0.0668524 97:0.0445682 98:0.208914 99:0.0250696 100:0.125348 101:0.0807799 102:0.00835655 103:0.0111421 104:0.122563 105:0 106:0.142061 107:0.00278552 108:0.0752089 109:0.0529248 110:0.0306407 111:0 112:0 113:0.0445682 114:0.0752089 115:0 116:0.142061 117:0.00278552 118:0.0111421 119:0.0417827 120:0.0779944 121:0 122:0 123:0.13649 124:0.0389972 125:0 126:0.128134 127:0.00557103 128:0.0222841 129:0.0389972 130:0.0584958 131:0 132:0 133:0.21727 134:0.0389972 135:0 136:0.125348 137:0 138:0.0139276 139:0.00835655 140:0.0724234 141:0 142:0 143:0.281337 144:0.0362117 145:0 146:0.181058 147:0 148:0.00557103 149:0.0529248 150:0.0891365 151:0 152:0 153:0.13649 154:0.0612813 155:0 156:0.130919 157:0 158:0.00278552 159:0.0139276 160:0.100279 161:0 162:0 163:0.0668524 164:0.0278552 165:0 166:0.00557103 167:0 168:0 169:0 170:0.0807799 171:0 172:0 173:0.0584958 174:0 175:0 176:0.00557103 177:0 178:0 179:0 180:0.0194986 
-1 -1 -1 1 1 1:0 2:0 3:0 4:0 5:0 6:0 7:0 8:0.340659 9:0 10:0 11:0 12:0 13:0 14:0 15:0 16:0 17:0 18:0.32967 19:0 20:0 21:0 22:0.0695971 23:0 24:0 25:0.025641 26:0 27:0 28:0.260073 29:0 30:0 31:0 32:0.604396 33:0 34:0 35:0.32967 36:0 37:0.164835 38:0.0549451 39:0.025641 40:0 41:0 42:0.241758 43:0 44:0 45:0.589744 46:0 47:0.315018 48:0.014652 49:0.421245 50:0 51:0 52:0.0842491 53:0 54:0 55:0.0549451 56:0 57:0.263736 58:0 59:0.157509 60:0 61:0 62:0 63:0 64:0 65:0 66:0 67:0.131868 68:0 69:0.205128 70:0 71:0.00732601 72:0 73:0 74:0 75:0 76:0 77:0.117216 78:0 79:0.168498 80:0 81:0.413919 82:0 83:0 84:0.003663 85:0 86:0 87:0.00732601 88:0 89:0.021978 90:0 91:0.468864 92:0 93:0.14652 94:0.106227 95:0 96:0 97:0 98:0 99:0 100:0 101:0.10989 102:0 103:0.0915751 104:0.113553 105:0 106:0.025641 107:0 108:0 109:0 110:0.014652 111:0 112:0 113:0.157509 114:0.186813 115:0 116:0.047619 117:0 118:0 119:0 120:0.14652 121:0 122:0 123:0.373626 124:0.282051 125:0 126:0.197802 127:0 128:0 129:0 130:0.32967 131:0 132:0 133:0.14652 134:0.234432 135:0 136:0.267399 137:0 138:0 139:0 140:0.388278 141:0 142:0 143:0.0842491 144:0.0622711 145:0 146:0.454212 147:0 148:0 149:0 150:0.120879 151:0 152:0 153:0 154:0.010989 155:0 156:0.00732601 157:0 158:0 159:0 160:0 161:0 162:0 163:0 164:0 165:0 166:0 167:0 168:0 169:0 170:0 171:0 172:0 173:0 174:0 175:0 176:0 177:0 178:0 179:0 180:0 
-1 -1 -1 1 1 1:0 2:0 3:0 4:0 5:0 6:0 7:0.024911 8:0.024911 9:0.0533808 10:0 11:0 12:0 13:0.0106762 14:0.0320285 15:0 16:0 17:0.192171 18:0.0640569 19:0.199288 20:0 21:0 22:0.00711744 23:0.124555 24:0.0142349 25:0.0391459 26:0 27:0.209964 28:0.174377 29:0.199288 30:0 31:0 32:0.320285 33:0.0782918 34:0 35:0.241993 36:0 37:0.135231 38:0.188612 39:0.177936 40:0 41:0 42:0.412811 43:0.174377 44:0 45:0.540925 46:0 47:0.0604982 48:0.291815 49:0.131673 50:0 51:0.0782918 52:0.217082 53:0.0462633 54:0.0177936 55:0.163701 56:0 57:0.0462633 58:0.188612 59:0.149466 60:0 61:0.729537 62:0.024911 63:0.0284698 64:0.11032 65:0.00711744 66:0 67:0.0355872 68:0.0284698 69:0.0711744 70:0 71:0.192171 72:0.0177936 73:0.088968 74:0.316726 75:0.00711744 76:0 77:0.0462633 78:0.00711744 79:0.00355872 80:0 81:0 82:0 83:0.224199 84:0.209964 85:0 86:0 87:0.0854093 88:0.0213523 89:0.0106762 90:0 91:0 92:0 93:0.024911 94:0.088968 95:0 96:0 97:0.0427046 98:0.0106762 99:0.00355872 100:0 101:0 102:0 103:0.0284698 104:0.0427046 105:0 106:0.160142 107:0.0177936 108:0 109:0 110:0 111:0 112:0 113:0.0925267 114:0.0498221 115:0 116:0.0960854 117:0.0996441 118:0 119:0 120:0.0213523 121:0 122:0 123:0.0533808 124:0.0925267 125:0 126:0.0462633 127:0.00355872 128:0 129:0 130:0.088968 131:0 132:0 133:0.0106762 134:0.024911 135:0 136:0.234875 137:0 138:0 139:0 140:0.124555 141:0 142:0 143:0.0106762 144:0 145:0 146:0.24911 147:0 148:0 149:0 150:0.434164 151:0 152:0 153:0.00355872 154:0 155:0 156:0.128114 157:0 158:0 159:0 160:0.263345 161:0 162:0 163:0 164:0 165:0 166:0.0854093 167:0 168:0 169:0 170:0.0569395 171:0 172:0 173:0 174:0 175:0 176:0 177:0 178:0 179:0 180:0.0106762 
-1 -1 -1 1 1 1:0 2:0 3:0 4:0 5:0.012931 6:0.012931 7:0 8:0.155172 9:0 10:0 11:0 12:0 13:0 14:0 15:0.0560345 16:0.0172414 17:0 18:0.547414 19:0 20:0 21:0 22:0.0862069 23:0 24:0 25:0.0862069 26:0.181034 27:0 28:0.262931 29:0 30:0.0215517 31:0 32:0.12069 33:0 34:0 35:0.189655 36:0.280172 37:0.0344828 38:0.0301724 39:0.146552 40:0.0818966 41:0 42:0.241379 43:0 44:0 45:0.146552 46:0.0818966 47:0.112069 48:0.00431034 49:0.00862069 50:0.267241 51:0 52:0.25431 53:0 54:0 55:0.142241 56:0.0948276 57:0.0172414 58:0 59:0.0215517 60:0.00862069 61:0 62:0.133621 63:0 64:0 65:0.181034 66:0.0387931 67:0.00431034 68:0 69:0.0301724 70:0.00431034 71:0.0215517 72:0.0862069 73:0 74:0 75:0.116379 76:0.012931 77:0.00862069 78:0 79:0.0603448 80:0.0387931 81:0.0689655 82:0.0603448 83:0 84:0 85:0.0689655 86:0.00431034 87:0.0215517 88:0 89:0.0732759 90:0.159483 91:0.202586 92:0.0172414 93:0 94:0 95:0 96:0.0689655 97:0.0344828 98:0 99:0.181034 100:0.133621 101:0.530172 102:0 103:0.00862069 104:0.0258621 105:0 106:0.0344828 107:0.0474138 108:0 109:0.0818966 110:0.0775862 111:0.176724 112:0 113:0.198276 114:0.163793 115:0 116:0.00431034 117:0.0301724 118:0 119:0 120:0.0387931 121:0 122:0 123:0.336207 124:0.133621 125:0 126:0.00431034 127:0.0474138 128:0 129:0.0215517 130:0.012931 131:0 132:0 133:0.306034 134:0.525862 135:0 136:0.0517241 137:0.0905172 138:0 139:0.159483 140:0.0172414 141:0 142:0 143:0.150862 144:0.12931 145:0 146:0.112069 147:0.271552 148:0 149:0.146552 150:0.137931 151:0 152:0 153:0 154:0.0215517 155:0 156:0 157:0.206897 158:0 159:0.0387931 160:0 161:0 162:0 163:0 164:0 165:0 166:0 167:0.0732759 168:0 169:0.0215517 170:0 171:0 172:0 173:0 174:0 175:0 176:0 177:0 178:0 179:0.00862069 180:0 
-1 -1 -1 1 1 1:0 2:0 3:0 4:0.094697 5:0 6:0 7:0 8:0.0606061 9:0 10:0 11:0 12:0.030303 13:0.0340909 14:0.352273 15:0.00757576 16:0 17:0 18:0.0909091 19:0 20:0.00378788 21:0 22:0.159091 23:0.189394 24:0.208333 25:0.0454545 26:0 27:0.00757576 28:0.0719697 29:0.0227273 30:0.00757576 31:0 32:0.25 33:0.287879 34:0.185606 35:0.174242 36:0.0795455 37:0.0151515 38:0.117424 39:0.0568182 40:0.0833333 41:0 42:0.272727 43:0.185606 44:0.0378788 45:0.246212 46:0.132576 47:0.0151515 48:0.0871212 49:0.109848 50:0.121212 51:0 52:0.151515 53:0.0606061 54:0.0681818 55:0.287879 56:0.17803 57:0.0340909 58:0.0871212 59:0.113636 60:0.147727 61:0.0719697 62:0.109848 63:0.0189394 64:0.0265152 65:0.185606 66:0.155303 67:0.00378788 68:0.170455 69:0.109848 70:0.102273 71:0.378788 72:0.0113636 73:0.00378788 74:0.0227273 75:0.0340909 76:0.170455 77:0.00378788 78:0.170455 79:0.0871212 80:0.106061 81:0.185606 82:0.0151515 83:0.0681818 84:0.00378788 85:0.0151515 86:0.140152 87:0.0340909 88:0.102273 89:0.140152 90:0.265152 91:0.212121 92:0 93:0.113636 94:0 95:0.00378788 96:0.0568182 97:0.0530303 98:0.0151515 99:0.132576 100:0.0719697 101:0.151515 102:0 103:0.0378788 104:0 105:0 106:0.0151515 107:0.106061 108:0.0151515 109:0.0568182 110:0.0492424 111:0 112:0 113:0 114:0 115:0 116:0.00378788 117:0.215909 118:0.0113636 119:0.0378788 120:0.030303 121:0 122:0 123:0 124:0 125:0 126:0.0151515 127:0.109848 128:0 129:0.0530303 130:0.0113636 131:0 132:0 133:0 134:0 135:0 136:0.0378788 137:0.185606 138:0 139:0.0340909 140:0 141:0 142:0 143:0 144:0 145:0 146:0.0151515 147:0.106061 148:0 149:0.0378788 150:0 151:0 152:0 153:0 154:0 155:0 156:0 157:0.0871212 158:0 159:0.00378788 160:0 161:0 162:0 163:0 164:0 165:0 166:0 167:0.0151515 168:0 169:0.00378788 170:0 171:0 172:0 173:0 174:0 175:0 176:0 177:0.00757576 178:0 179:0 180:0 
-1 -1 -1 1 1 1:0 2:0.0192308 3:0 4:0 5:0.099359 6:0.0128205 7:0 8:0.163462 9:0.00320513 10:0 11:0 12:0.144231 13:0 14:0 15:0.189103 16:0.00320513 17:0 18:0.346154 19:0.0160256 20:0 21:0 22:0.221154 23:0 24:0 25:0.137821 26:0.00641026 27:0.00320513 28:0.314103 29:0.0416667 30:0 31:0.00320513 32:0.266026 33:0 34:0 35:0.205128 36:0.00320513 37:0.0865385 38:0.153846 39:0.121795 40:0 41:0.00641026 42:0.230769 43:0 44:0 45:0.208333 46:0.00641026 47:0.182692 48:0.0224359 49:0.208333 50:0.0160256 51:0.0224359 52:0.0897436 53:0 54:0 55:0.102564 56:0.0128205 57:0.214744 58:0 59:0.147436 60:0.0448718 61:0.0288462 62:0.0288462 63:0.00961538 64:0 65:0.0288462 66:0.0512821 67:0.205128 68:0 69:0.108974 70:0.0608974 71:0.150641 72:0 73:0.0352564 74:0 75:0.0160256 76:0.0192308 77:0.121795 78:0 79:0.128205 80:0.0480769 81:0.362179 82:0 83:0.0128205 84:0.0544872 85:0.0128205 86:0.0224359 87:0.0544872 88:0 89:0.0576923 90:0.0641026 91:0.0833333 92:0 93:0.00641026 94:0.0512821 95:0 96:0.0320513 97:0.0224359 98:0 99:0.0544872 100:0.0192308 101:0.0961538 102:0 103:0.0128205 104:0.0320513 105:0 106:0.0897436 107:0.0512821 108:0 109:0.0512821 110:0.128205 111:0.11859 112:0 113:0.073718 114:0.0897436 115:0 116:0.144231 117:0.0128205 118:0 119:0.0288462 120:0.125 121:0.128205 122:0 123:0.099359 124:0.073718 125:0 126:0.288462 127:0.00320513 128:0 129:0.0320513 130:0.185897 131:0 132:0 133:0.275641 134:0.320513 135:0 136:0.179487 137:0.0128205 138:0 139:0 140:0.189103 141:0 142:0 143:0.352564 144:0.330128 145:0 146:0.121795 147:0.0128205 148:0 149:0 150:0.0801282 151:0 152:0 153:0.102564 154:0.0416667 155:0 156:0.00320513 157:0.00961538 158:0 159:0 160:0.0288462 161:0 162:0 163:0.0192308 164:0.00641026 165:0 166:0.00320513 167:0 168:0 169:0 170:0.00961538 171:0 172:0 173:0 174:0 175:0 176:0 177:0.00641026 178:0 179:0 180:0 
-1 -1 -1 1 1 1:0 2:0.0104895 3:0 4:0 5:0 6:0 7:0.0524476 8:0.0839161 9:0.00699301 10:0 11:0 12:0.0594406 13:0 14:0 15:0 16:0 17:0.0944056 18:0.129371 19:0.0244755 20:0 21:0 22:0.188811 23:0 24:0.00699301 25:0.0244755 26:0 27:0.15035 28:0.251748 29:0.0979021 30:0 31:0 32:0.325175 33:0 34:0.101399 35:0.353147 36:0 37:0.178322 38:0.293706 39:0.15035 40:0 41:0 42:0.27972 43:0 44:0.13986 45:0.213287 46:0 47:0.206294 48:0.13986 49:0.185315 50:0 51:0 52:0.0874126 53:0.0034965 54:0.0699301 55:0.206294 56:0 57:0.136364 58:0.0629371 59:0.206294 60:0 61:0.0034965 62:0.0174825 63:0.020979 64:0.041958 65:0.171329 66:0 67:0.115385 68:0.0244755 69:0.048951 70:0 71:0.181818 72:0.0174825 73:0.0559441 74:0.0629371 75:0.0244755 76:0 77:0.0454545 78:0.013986 79:0.111888 80:0 81:0.300699 82:0.00699301 83:0.0384615 84:0.111888 85:0.00699301 86:0 87:0.00699301 88:0 89:0.108392 90:0 91:0.374126 92:0.00699301 93:0.0104895 94:0.115385 95:0 96:0.020979 97:0.013986 98:0 99:0.0384615 100:0 101:0.13986 102:0 103:0 104:0.104895 105:0 106:0.0314685 107:0 108:0 109:0.013986 110:0.00699301 111:0 112:0 113:0.0979021 114:0.199301 115:0 116:0.0244755 117:0 118:0 119:0.00699301 120:0.0804196 121:0 122:0 123:0.339161 124:0.00699301 125:0 126:0.146853 127:0 128:0 129:0 130:0.108392 131:0 132:0 133:0.286713 134:0.013986 135:0 136:0.262238 137:0 138:0 139:0 140:0.160839 141:0 142:0 143:0.101399 144:0.00699301 145:0 146:0.188811 147:0 148:0 149:0 150:0.272727 151:0 152:0 153:0.027972 154:0.0174825 155:0 156:0.251748 157:0 158:0 159:0 160:0.272727 161:0 162:0 163:0.013986 164:0 165:0 166:0.0594406 167:0 168:0 169:0 170:0.0944056 171:0 172:0 173:0.0034965 174:0 175:0 176:0.013986 177:0 178:0 179:0 180:0.0034965 
-1 -1 -1 1 1 1:0.008 2:0.088 3:0 4:0 5:0.048 6:0 7:0 8:0.192 9:0.024 10:0 11:0.008 12:0.104 13:0 14:0 15:0.008 16:0.024 17:0 18:0.32 19:0.04 20:0 21:0 22:0.304 23:0 24:0 25:0.08 26:0 27:0.016 28:0.368 29:0.032 30:0.024 31:0 32:0.288 33:0 34:0 35:0.16 36:0.016 37:0.224 38:0.12 39:0.16 40:0 41:0.024 42:0.112 43:0 44:0 45:0.312 46:0 47:0.32 48:0 49:0.144 50:0 51:0.016 52:0.08 53:0 54:0 55:0.192 56:0 57:0.168 58:0 59:0.16 60:0 61:0 62:0 63:0 64:0 65:0.088 66:0.016 67:0.144 68:0 69:0.184 70:0.008 71:0.024 72:0 73:0 74:0 75:0.072 76:0.016 77:0.024 78:0 79:0.184 80:0 81:0.072 82:0 83:0 84:0.008 85:0 86:0.008 87:0.04 88:0 89:0.064 90:0 91:0.192 92:0 93:0 94:0.016 95:0.008 96:0.04 97:0.016 98:0 99:0 100:0.024 101:0.296 102:0 103:0.008 104:0.064 105:0.008 106:0.032 107:0 108:0 109:0 110:0.096 111:0.28 112:0 113:0.2 114:0.12 115:0 116:0 117:0.024 118:0 119:0 120:0.176 121:0.056 122:0 123:0.296 124:0.272 125:0 126:0.184 127:0.008 128:0 129:0.008 130:0.16 131:0 132:0 133:0.4 134:0.304 135:0 136:0.272 137:0 138:0 139:0 140:0.152 141:0 142:0 143:0.096 144:0.2 145:0 146:0.304 147:0.016 148:0 149:0 150:0.256 151:0 152:0 153:0 154:0.016 155:0 156:0.072 157:0 158:0 159:0 160:0.04 161:0 162:0 163:0 164:0 165:0 166:0.016 167:0 168:0 169:0 170:0.008 171:0.024 172:0.024 173:0 174:0 175:0.024 176:0 177:0 178:0 179:0 180:0.056 
-1 -1 -1 1 1 1:0 2:0.180328 3:0 4:0 5:0 6:0 7:0 8:0.590164 9:0 10:0 11:0 12:0.131148 13:0 14:0 15:0.327869 16:0 17:0 18:0.0983607 19:0.278689 20:0 21:0 22:0.147541 23:0 24:0.0327869 25:0.655738 26:0 27:0.0327869 28:0.196721 29:0.344262 30:0 31:0 32:0.213115 33:0 34:0.0327869 35:0.0163934 36:0 37:0.0163934 38:0.0819672 39:0.0983607 40:0 41:0 42:0.245902 43:0 44:0.0491803 45:0 46:0 47:0.0327869 48:0.0163934 49:0.114754 50:0 51:0 52:0.0327869 53:0 54:0.0819672 55:0 56:0 57:0.0491803 58:0.0163934 59:0.0819672 60:0 61:0 62:0.0491803 63:0 64:0.0163934 65:0 66:0 67:0.213115 68:0 69:0.0491803 70:0 71:0 72:0 73:0.0327869 74:0.0819672 75:0 76:0 77:0.491803 78:0 79:0.0327869 80:0 81:0.311475 82:0 83:0.0327869 84:0.0819672 85:0 86:0 87:0.0655738 88:0 89:0 90:0 91:0.491803 92:0 93:0.0327869 94:0.557377 95:0 96:0 97:0.0983607 98:0 99:0 100:0 101:0.196721 102:0 103:0.0163934 104:0.0327869 105:0 106:0 107:0 108:0 109:0 110:0 111:0 112:0 113:0.0327869 114:0.0327869 115:0 116:0.196721 117:0 118:0 119:0 120:0 121:0 122:0 123:0.409836 124:0 125:0 126:0.606557 127:0 128:0 129:0 130:0 131:0 132:0 133:0.409836 134:0 135:0 136:0.0983607 137:0 138:0 139:0 140:0.0655738 141:0 142:0 143:0.0327869 144:0 145:0 146:0 147:0 148:0 149:0 150:0.393443 151:0 152:0 153:0 154:0 155:0 156:0.0819672 157:0 158:0 159:0 160:0.278689 161:0 162:0 163:0 164:0 165:0 166:0.0163934 167:0 168:0 169:0 170:0.262295 171:0 172:0 173:0 174:0 175:0 176:0 177:0 178:0 179:0 180:0 
-1 -1 -1 -1 1 1:0 2:0 3:0 4:0 5:0 6:0 7:0 8:0 9:0 10:0 11:0 12:0 13:0 14:0 15:0.255102 16:0 17:0 18:0.428571 19:0.0102041 20:0 21:0 22:0.0102041 23:0 24:0 25:0 26:0 27:0.132653 28:0.530612 29:0.173469 30:0 31:0 32:0.0204082 33:0 34:0 35:0.0102041 36:0 37:0.632653 38:0.0408163 39:0.714286 40:0 41:0 42:0.357143 43:0 44:0 45:0.163265 46:0 47:0.204082 48:0 49:0.102041 50:0 51:0 52:0.397959 53:0 54:0 55:0.510204 56:0 57:0.0306122 58:0 59:0 60:0 61:0 62:0.214286 63:0 64:0 65:0.0612245 66:0 67:0 68:0 69:0 70:0 71:0 72:0 73:0 74:0 75:0 76:0 77:0 78:0 79:0 80:0 81:0.122449 82:0 83:0 84:0 85:0 86:0 87:0 88:0 89:0 90:0 91:0.540816 92:0 93:0.0714286 94:0.0714286 95:0 96:0 97:0 98:0 99:0 100:0 101:0.336735 102:0 103:0.0408163 104:0.0510204 105:0 106:0.0102041 107:0 108:0 109:0 110:0.0204082 111:0 112:0 113:0.0612245 114:0.346939 115:0 116:0.0714286 117:0 118:0 119:0 120:0.132653 121:0 122:0 123:0.336735 124:0.0102041 125:0 126:0.336735 127:0 128:0 129:0 130:0.0714286 131:0 132:0 133:0.0510204 134:0.0714286 135:0 136:0.265306 137:0 138:0 139:0 140:0.22449 141:0 142:0 143:0.132653 144:0.0306122 145:0 146:0.316327 147:0 148:0 149:0 150:0.295918 151:0 152:0 153:0.306122 154:0.408163 155:0 156:0 157:0 158:0 159:0 160:0 161:0 162:0 163:0 164:0.0102041 165:0 166:0 167:0 168:0 169:0 170:0 171:0 172:0 173:0 174:0 175:0 176:0 177:0 178:0 179:0 180:0.255102 
-1 -1 -1 -1 1 1:0 2:0.0181818 3:0 4:0 5:0 6:0 7:0.127273 8:0 9:0 10:0 11:0 12:0.0181818 13:0 14:0 15:0 16:0 17:0.145455 18:0.390909 19:0.0272727 20:0 21:0 22:0.154545 23:0 24:0 25:0 26:0 27:0.0545455 28:0.227273 29:0.309091 30:0 31:0 32:0.281818 33:0 34:0 35:0.0636364 36:0 37:0.363636 38:0.381818 39:0.481818 40:0 41:0 42:0.3 43:0 44:0 45:0.209091 46:0 47:0.254545 48:0 49:0.163636 50:0 51:0 52:0.209091 53:0 54:0 55:0.2 56:0 57:0.0454545 58:0 59:0.0181818 60:0 61:0 62:0.0181818 63:0 64:0 65:0.136364 66:0 67:0 68:0 69:0 70:0 71:0.0272727 72:0 73:0 74:0.00909091 75:0.345455 76:0.0636364 77:0.00909091 78:0 79:0 80:0.0545455 81:0.254545 82:0 83:0 84:0.0181818 85:0.0454545 86:0.0363636 87:0 88:0 89:0 90:0.190909 91:0.681818 92:0 93:0.0909091 94:0.0909091 95:0 96:0.00909091 97:0 98:0 99:0 100:0.0636364 101:0.0363636 102:0 103:0.309091 104:0.209091 105:0 106:0.0545455 107:0 108:0 109:0 110:0.190909 111:0 112:0 113:0.0818182 114:0.163636 115:0 116:0.136364 117:0 118:0 119:0 120:0.00909091 121:0 122:0 123:0.0181818 124:0.0454545 125:0 126:0.163636 127:0 128:0 129:0 130:0.0545455 131:0 132:0 133:0.0545455 134:0.0363636 135:0 136:0.0909091 137:0 138:0 139:0 140:0.0545455 141:0 142:0 143:0.0454545 144:0.0545455 145:0 146:0.372727 147:0 148:0 149:0 150:0.318182 151:0 152:0 153:0.363636 154:0.354545 155:0 156:0.0545455 157:0 158:0 159:0 160:0.0636364 161:0 162:0 163:0.0363636 164:0.0181818 165:0 166:0.00909091 167:0 168:0 169:0 170:0 171:0 172:0 173:0 174:0 175:0 176:0.00909091 177:0 178:0 179:0 180:0 
-1 -1 -1 -1 1 1:0 2:0 3:0 4:0 5:0 6:0 7:0 8:0 9:0 10:0 11:0 12:0 13:0 14:0 15:0 16:0 17:0.00675676 18:0.547297 19:0.0135135 20:0 21:0 22:0 23:0 24:0 25:0 26:0 27:0.0878378 28:0.155405 29:0.216216 30:0 31:0 32:0.168919 33:0 34:0 35:0.00675676 36:0 37:0.513514 38:0.243243 39:0.513514 40:0 41:0 42:0.452703 43:0 44:0 45:0.574324 46:0 47:0.364865 48:0.0540541 49:0.236486 50:0 51:0 52:0.297297 53:0 54:0 55:0.391892 56:0 57:0.027027 58:0 59:0.0202703 60:0 61:0 62:0.0810811 63:0 64:0 65:0.027027 66:0 67:0 68:0 69:0 70:0 71:0.216216 72:0 73:0.027027 74:0.0202703 75:0 76:0 77:0 78:0 79:0 80:0 81:0.756757 82:0 83:0.027027 84:0.0135135 85:0 86:0 87:0 88:0 89:0 90:0 91:0.027027 92:0 93:0.216216 94:0.0135135 95:0 96:0 97:0 98:0 99:0 100:0.0202703 101:0 102:0 103:0.0135135 104:0.236486 105:0 106:0.0945946 107:0 108:0 109:0 110:0.0337838 111:0 112:0 113:0.00675676 114:0.0405405 115:0 116:0.195946 117:0 118:0 119:0 120:0.195946 121:0 122:0 123:0.0405405 124:0.0405405 125:0 126:0.128378 127:0 128:0 129:0 130:0.141892 131:0 132:0 133:0.486486 134:0.344595 135:0 136:0.135135 137:0 138:0 139:0 140:0.135135 141:0 142:0 143:0.182432 144:0.290541 145:0 146:0.425676 147:0 148:0 149:0 150:0.439189 151:0 152:0 153:0 154:0 155:0 156:0.0202703 157:0 158:0 159:0 160:0.0337838 161:0 162:0 163:0 164:0 165:0 166:0 167:0 168:0 169:0 170:0 171:0 172:0 173:0 174:0 175:0 176:0 177:0 178:0 179:0 180:0 
-1 -1 -1 -1 1 1:0 2:0.0206897 3:0 4:0 5:0 6:0 7:0 8:0.00689655 9:0 10:0 11:0 12:0.0344828 13:0 14:0 15:0 16:0 17:0.0827586 18:0.268966 19:0 20:0 21:0 22:0.0137931 23:0 24:0 25:0 26:0 27:0.0551724 28:0.696552 29:0.0206897 30:0 31:0 32:0.0551724 33:0 34:0 35:0.0896552 36:0 37:0.517241 38:0.0275862 39:0.593103 40:0 41:0 42:0.537931 43:0.0413793 44:0 45:0.806897 46:0 47:0.137931 48:0 49:0.331034 50:0 51:0 52:0.255172 53:0.0137931 54:0 55:0.103448 56:0 57:0.131034 58:0 59:0.0482759 60:0 61:0 62:0.0275862 63:0.0137931 64:0 65:0 66:0.0275862 67:0.0137931 68:0 69:0.00689655 70:0 71:0.0413793 72:0.0551724 73:0.0137931 74:0.0137931 75:0 76:0.0482759 77:0.0413793 78:0 79:0 80:0 81:0.682759 82:0 83:0.0137931 84:0.0413793 85:0 86:0.0344828 87:0.0206897 88:0 89:0 90:0.0275862 91:0.275862 92:0 93:0.00689655 94:0.0275862 95:0 96:0.0137931 97:0 98:0 99:0 100:0.0275862 101:0 102:0 103:0.00689655 104:0.0275862 105:0 106:0.0206897 107:0 108:0 109:0 110:0.0275862 111:0 112:0 113:0.062069 114:0.206897 115:0 116:0.0896552 117:0 118:0 119:0 120:0.110345 121:0 122:0 123:0.365517 124:0.517241 125:0 126:0.2 127:0 128:0 129:0 130:0.0965517 131:0 132:0 133:0.406897 134:0.124138 135:0 136:0.42069 137:0 138:0 139:0 140:0.110345 141:0 142:0 143:0.0551724 144:0.0413793 145:0 146:0.144828 147:0 148:0 149:0 150:0.6 151:0 152:0 153:0 154:0 155:0 156:0 157:0 158:0 159:0 160:0 161:0 162:0 163:0 164:0 165:0 166:0 167:0 168:0 169:0 170:0 171:0 172:0 173:0 174:0 175:0 176:0 177:0 178:0 179:0 180:0 
-1 -1 -1 -1 1 1:0 2:0 3:0 4:0 5:0 6:0 7:0.0267857 8:0.446429 9:0 10:0 11:0 12:0.0446429 13:0 14:0 15:0 16:0 17:0.0178571 18:0.366071 19:0 20:0 21:0 22:0.0357143 23:0 24:0 25:0 26:0 27:0.0178571 28:0.178571 29:0.0267857 30:0 31:0 32:0.526786 33:0 34:0 35:0.8125 36:0 37:0.375 38:0.00892857 39:0.357143 40:0 41:0 42:0.392857 43:0 44:0 45:0.1875 46:0 47:0.446429 48:0 49:0.303571 50:0 51:0 52:0 53:0 54:0 55:0 56:0 57:0.116071 58:0 59:0.241071 60:0 61:0 62:0 63:0.0714286 64:0.0357143 65:0 66:0 67:0 68:0 69:0.0267857 70:0 71:0.0714286 72:0 73:0.0178571 74:0.0446429 75:0 76:0 77:0 78:0 79:0.0446429 80:0 81:0.928571 82:0 83:0.00892857 84:0.00892857 85:0 86:0 87:0 88:0 89:0 90:0 91:0 92:0 93:0.00892857 94:0.0714286 95:0 96:0 97:0 98:0 99:0 100:0 101:0 102:0 103:0.0267857 104:0.3125 105:0 106:0 107:0 108:0 109:0 110:0 111:0 112:0 113:0.133929 114:0.107143 115:0 116:0.178571 117:0 118:0 119:0 120:0 121:0 122:0 123:0.651786 124:0.1875 125:0 126:0.446429 127:0 128:0 129:0 130:0.0625 131:0 132:0 133:0.0803571 134:0.232143 135:0 136:0.276786 137:0 138:0 139:0 140:0.839286 141:0 142:0 143:0 144:0 145:0 146:0.0982143 147:0 148:0 149:0 150:0.0982143 151:0 152:0 153:0 154:0 155:0 156:0 157:0 158:0 159:0 160:0 161:0 162:0 163:0 164:0 165:0 166:0 167:0 168:0 169:0 170:0 171:0 172:0 173:0 174:0 175:0 176:0 177:0 178:0 179:0 180:0 
-1 -1 -1 -1 1 1:0 2:0 3:0 4:0 5:0 6:0 7:0 8:0.337931 9:0 10:0 11:0 12:0 13:0 14:0 15:0 16:0 17:0.0551724 18:0.344828 19:0 20:0 21:0 22:0 23:0 24:0 25:0 26:0 27:0.213793 28:0.268966 29:0 30:0 31:0 32:0.613793 33:0 34:0 35:0.193103 36:0 37:0.331034 38:0.0482759 39:0 40:0 41:0 42:0.37931 43:0 44:0 45:0.710345 46:0 47:0.234483 48:0 49:0.351724 50:0 51:0 52:0.00689655 53:0 54:0 55:0.0965517 56:0 57:0.165517 58:0 59:0.551724 60:0 61:0 62:0 63:0.00689655 64:0.0206897 65:0 66:0 67:0 68:0 69:0.0758621 70:0 71:0.758621 72:0 73:0.00689655 74:0.0275862 75:0 76:0 77:0 78:0 79:0.0137931 80:0 81:0.241379 82:0 83:0.0137931 84:0.0344828 85:0 86:0 87:0 88:0 89:0.00689655 90:0 91:0 92:0 93:0 94:0.0137931 95:0 96:0.00689655 97:0 98:0 99:0 100:0 101:0 102:0 103:0.062069 104:0.0275862 105:0 106:0.0137931 107:0 108:0 109:0 110:0.0551724 111:0 112:0 113:0.0896552 114:0.0689655 115:0 116:0.062069 117:0 118:0 119:0 120:0.262069 121:0 122:0 123:0.365517 124:0.682759 125:0 126:0.2 127:0 128:0 129:0 130:0.172414 131:0 132:0 133:0.455172 134:0.124138 135:0 136:0.482759 137:0 138:0 139:0 140:0.455172 141:0 142:0 143:0 144:0 145:0 146:0.234483 147:0 148:0 149:0 150:0.0551724 151:0 152:0 153:0 154:0 155:0 156:0 157:0 158:0 159:0 160:0 161:0 162:0 163:0 164:0 165:0 166:0 167:0 168:0 169:0 170:0 171:0 172:0 173:0 174:0 175:0 176:0 177:0 178:0 179:0 180:0 
-1 -1 -1 -1 1 1:0 2:0 3:0 4:0 5:0 6:0 7:0 8:0 9:0 10:0 11:0 12:0 13:0 14:0 15:0 16:0 17:0 18:0.361905 19:0 20:0 21:0 22:0 23:0 24:0 25:0 26:0 27:0.257143 28:0.6 29:0.0190476 30:0 31:0 32:0.104762 33:0 34:0 35:0 36:0 37:0.314286 38:0.0380952 39:0.72381 40:0 41:0 42:0.32381 43:0 44:0 45:0.209524 46:0 47:0.190476 48:0 49:0.257143 50:0 51:0 52:0.485714 53:0 54:0 55:0.628571 56:0 57:0.104762 58:0 59:0 60:0 61:0 62:0.0857143 63:0 64:0 65:0.0571429 66:0 67:0.12381 68:0 69:0 70:0 71:0.2 72:0 73:0 74:0 75:0.104762 76:0 77:0.00952381 78:0 79:0 80:0 81:0.8 82:0 83:0 84:0.0571429 85:0 86:0.0666667 87:0 88:0 89:0 90:0.0666667 91:0 92:0 93:0.0761905 94:0.0285714 95:0 96:0.047619 97:0 98:0 99:0 100:0.047619 101:0 102:0 103:0.0857143 104:0.0285714 105:0 106:0.047619 107:0 108:0 109:0 110:0.0666667 111:0 112:0 113:0.371429 114:0.285714 115:0 116:0.142857 117:0 118:0 119:0 120:0.247619 121:0 122:0 123:0.0761905 124:0.0380952 125:0 126:0.361905 127:0 128:0 129:0 130:0.0285714 131:0 132:0 133:0.180952 134:0.2 135:0 136:0.171429 137:0 138:0 139:0 140:0.0952381 141:0 142:0 143:0.0761905 144:0.152381 145:0 146:0.161905 147:0 148:0 149:0 150:0.447619 151:0 152:0 153:0.114286 154:0.12381 155:0 156:0 157:0 158:0 159:0 160:0 161:0 162:0 163:0.0190476 164:0.0857143 165:0 166:0 167:0 168:0 169:0 170:0 171:0 172:0 173:0 174:0 175:0 176:0 177:0 178:0 179:0 180:0 
-1 -1 -1 -1 1 1:0 2:0 3:0 4:0 5:0 6:0 7:0.00549451 8:0.0604396 9:0 10:0 11:0 12:0 13:0 14:0 15:0 16:0 17:0.0274725 18:0.192308 19:0 20:0 21:0 22:0.032967 23:0 24:0 25:0.0604396 26:0 27:0.164835 28:0.615385 29:0.0164835 30:0 31:0 32:0.0714286 33:0 34:0 35:0.0659341 36:0 37:0.181319 38:0.120879 39:0.137363 40:0 41:0 42:0.208791 43:0 44:0 45:0.175824 46:0 47:0.0879121 48:0.010989 49:0.291209 50:0 51:0 52:0.192308 53:0 54:0 55:0.296703 56:0 57:0.153846 58:0 59:0.142857 60:0 61:0.043956 62:0.0879121 63:0 64:0 65:0.153846 66:0.021978 67:0.0604396 68:0 69:0.186813 70:0 71:0.291209 72:0.131868 73:0 74:0 75:0.0549451 76:0.203297 77:0.0384615 78:0 79:0.208791 80:0.043956 81:0.142857 82:0.0604396 83:0.010989 84:0.00549451 85:0.126374 86:0.0274725 87:0.0604396 88:0 89:0.010989 90:0.0714286 91:0.324176 92:0.0494506 93:0.0714286 94:0.0274725 95:0.032967 96:0.153846 97:0.00549451 98:0 99:0.00549451 100:0.192308 101:0.197802 102:0.0659341 103:0.0274725 104:0.0549451 105:0.021978 106:0.21978 107:0.0274725 108:0 109:0 110:0.0989011 111:0 112:0.0989011 113:0.0549451 114:0.142857 115:0.010989 116:0.0494506 117:0.137363 118:0 119:0 120:0.126374 121:0 122:0 123:0.192308 124:0.225275 125:0 126:0.0604396 127:0.0494506 128:0 129:0 130:0.153846 131:0 132:0 133:0.434066 134:0.384615 135:0 136:0.0494506 137:0 138:0 139:0 140:0.230769 141:0 142:0 143:0.208791 144:0.159341 145:0 146:0.0824176 147:0 148:0 149:0 150:0.0604396 151:0 152:0 153:0 154:0 155:0 156:0.0934066 157:0 158:0 159:0 160:0.021978 161:0 162:0 163:0 164:0 165:0 166:0.0274725 167:0 168:0 169:0 170:0 171:0 172:0 173:0 174:0 175:0 176:0.010989 177:0 178:0 179:0 180:0 
-1 -1 -1 -1 1 1:0 2:0 3:0 4:0 5:0 6:0 7:0 8:0 9:0 10:0 11:0 12:0 13:0 14:0 15:0 16:0 17:0 18:0.240741 19:0 20:0 21:0 22:0 23:0 24:0 25:0 26:0 27:0.175926 28:0.314815 29:0 30:0 31:0 32:0.0833333 33:0 34:0 35:0.0185185 36:0 37:0.537037 38:0.0462963 39:0.240741 40:0 41:0 42:0.75 43:0 44:0 45:0.537037 46:0 47:0.277778 48:0.398148 49:0.685185 50:0 51:0 52:0.148148 53:0 54:0 55:0.444444 56:0 57:0.00925926 58:0 59:0.0740741 60:0 61:0 62:0.0185185 63:0 64:0 65:0 66:0 67:0 68:0 69:0 70:0 71:0.166667 72:0 73:0 74:0 75:0 76:0 77:0 78:0 79:0 80:0 81:0.833333 82:0 83:0 84:0.00925926 85:0 86:0.037037 87:0 88:0 89:0 90:0.0555556 91:0 92:0 93:0.037037 94:0.175926 95:0 96:0.037037 97:0 98:0 99:0 100:0.0277778 101:0 102:0 103:0.333333 104:0.25 105:0 106:0.12963 107:0 108:0 109:0 110:0.0648148 111:0 112:0 113:0.0555556 114:0.166667 115:0 116:0.259259 117:0 118:0 119:0 120:0.314815 121:0 122:0 123:0.37963 124:0.185185 125:0 126:0.0185185 127:0 128:0 129:0 130:0.0925926 131:0 132:0 133:0.0462963 134:0.12037 135:0 136:0.0555556 137:0 138:0 139:0 140:0.25 141:0 142:0 143:0.12037 144:0.0648148 145:0 146:0.444444 147:0 148:0 149:0 150:0.194444 151:0 152:0 153:0.0277778 154:0.0277778 155:0 156:0.0185185 157:0 158:0 159:0 160:0 161:0 162:0 163:0 164:0 165:0 166:0 167:0 168:0 169:0 170:0 171:0 172:0 173:0 174:0 175:0 176:0 177:0 178:0 179:0 180:0 
-1 -1 -1 -1 1 1:0 2:0 3:0 4:0 5:0 6:0 7:0 8:0 9:0.064 10:0 11:0 12:0.008 13:0 14:0 15:0 16:0 17:0.104 18:0.12 19:0.168 20:0 21:0 22:0.024 23:0 24:0 25:0.048 26:0 27:0.056 28:0.432 29:0.08 30:0 31:0 32:0 33:0 34:0 35:0.392 36:0 37:0.432 38:0.432 39:0.328 40:0 41:0 42:0.568 43:0 44:0 45:0.368 46:0 47:0.328 48:0.016 49:0.272 50:0 51:0 52:0.312 53:0 54:0 55:0.144 56:0 57:0.08 58:0 59:0.088 60:0 61:0 62:0.088 63:0 64:0 65:0.048 66:0 67:0 68:0 69:0 70:0 71:0.28 72:0 73:0 74:0.016 75:0 76:0 77:0 78:0 79:0 80:0 81:0.224 82:0 83:0.024 84:0.008 85:0 86:0.008 87:0 88:0 89:0 90:0.008 91:0.496 92:0 93:0.048 94:0 95:0 96:0 97:0 98:0 99:0 100:0.064 101:0 102:0 103:0.032 104:0.04 105:0 106:0.168 107:0 108:0 109:0 110:0.136 111:0 112:0 113:0.096 114:0.08 115:0 116:0.12 117:0 118:0 119:0 120:0.184 121:0 122:0 123:0.328 124:0.328 125:0 126:0.136 127:0 128:0 129:0 130:0.08 131:0 132:0 133:0.192 134:0.152 135:0 136:0.2 137:0 138:0 139:0 140:0.272 141:0 142:0 143:0.168 144:0.272 145:0 146:0.368 147:0 148:0 149:0 150:0.248 151:0 152:0 153:0.096 154:0.104 155:0 156:0 157:0 158:0 159:0 160:0.008 161:0 162:0 163:0.016 164:0 165:0 166:0 167:0 168:0 169:0 170:0 171:0 172:0 173:0 174:0 175:0 176:0 177:0 178:0 179:0 180:0 
-1 -1 -1 -1 1 1:0 2:0 3:0 4:0 5:0 6:0 7:0.0183486 8:0 9:0 10:0 11:0 12:0 13:0 14:0 15:0 16:0 17:0.0825688 18:0.366972 19:0.0917431 20:0 21:0 22:0.0550459 23:0 24:0 25:0.0550459 26:0 27:0.0917431 28:0.12844 29:0.0458716 30:0 31:0 32:0.247706 33:0 34:0 35:0.100917 36:0 37:0.284404 38:0.40367 39:0.201835 40:0 41:0 42:0.229358 43:0 44:0 45:0.449541 46:0 47:0.40367 48:0.0642202 49:0.513761 50:0 51:0 52:0.137615 53:0 54:0.00917431 55:0.110092 56:0 57:0.0733945 58:0.0366972 59:0.0366972 60:0 61:0 62:0.311927 63:0.0183486 64:0.0275229 65:0.284404 66:0 67:0.0458716 68:0 69:0.100917 70:0 71:0.100917 72:0.0183486 73:0.0366972 74:0.0825688 75:0 76:0 77:0 78:0 79:0.00917431 80:0.0366972 81:0.541284 82:0 83:0.119266 84:0.321101 85:0 86:0.0366972 87:0 88:0 89:0 90:0.110092 91:0.357798 92:0 93:0.238532 94:0.00917431 95:0 96:0.357798 97:0 98:0 99:0 100:0.311927 101:0 102:0 103:0.0458716 104:0.00917431 105:0 106:0.0458716 107:0 108:0 109:0 110:0.0183486 111:0 112:0 113:0.0550459 114:0.0275229 115:0 116:0.0825688 117:0 118:0 119:0 120:0.0183486 121:0 122:0 123:0.0550459 124:0.0550459 125:0 126:0.100917 127:0 128:0 129:0 130:0.0275229 131:0 132:0 133:0.0550459 134:0.0458716 135:0 136:0.146789 137:0 138:0 139:0 140:0.330275 141:0 142:0 143:0.238532 144:0.33945 145:0 146:0.229358 147:0 148:0 149:0 150:0.146789 151:0 152:0 153:0.137615 154:0.0733945 155:0 156:0 157:0 158:0 159:0 160:0 161:0 162:0 163:0 164:0 165:0 166:0 167:0 168:0 169:0 170:0 171:0 172:0 173:0 174:0 175:0 176:0 177:0 178:0 179:0 180:0 
-1 -1 -1 -1 1 1:0 2:0 3:0 4:0 5:0 6:0 7:0 8:0 9:0 10:0 11:0 12:0 13:0 14:0 15:0.00699301 16:0 17:0.00699301 18:0.552448 19:0.048951 20:0 21:0 22:0.0839161 23:0 24:0 25:0.0629371 26:0 27:0.433566 28:0.41958 29:0.104895 30:0 31:0 32:0.146853 33:0 34:0 35:0.20979 36:0 37:0.440559 38:0.027972 39:0.370629 40:0 41:0 42:0.167832 43:0 44:0 45:0.335664 46:0 47:0.111888 48:0 49:0.321678 50:0 51:0 52:0.132867 53:0.027972 54:0 55:0.258741 56:0 57:0.00699301 58:0 59:0.0839161 60:0 61:0 62:0.0909091 63:0.034965 64:0.013986 65:0.0839161 66:0 67:0 68:0 69:0.013986 70:0 71:0.342657 72:0.00699301 73:0.013986 74:0.027972 75:0.020979 76:0 77:0 78:0 79:0.00699301 80:0 81:0.335664 82:0.342657 83:0.0699301 84:0.013986 85:0.020979 86:0.034965 87:0 88:0 89:0.048951 90:0 91:0.321678 92:0.027972 93:0.202797 94:0.0909091 95:0 96:0.0839161 97:0 98:0 99:0 100:0.111888 101:0 102:0 103:0.251748 104:0.0909091 105:0 106:0.153846 107:0 108:0 109:0 110:0.237762 111:0 112:0 113:0.041958 114:0.216783 115:0 116:0.146853 117:0 118:0 119:0 120:0.167832 121:0 122:0 123:0.0839161 124:0.265734 125:0 126:0.167832 127:0 128:0 129:0 130:0.174825 131:0 132:0 133:0.027972 134:0.034965 135:0 136:0.146853 137:0 138:0 139:0 140:0.223776 141:0 142:0 143:0.048951 144:0.13986 145:0 146:0.265734 147:0 148:0 149:0 150:0.0559441 151:0 152:0 153:0.195804 154:0.104895 155:0 156:0 157:0 158:0 159:0 160:0.027972 161:0 162:0 163:0 164:0 165:0 166:0 167:0 168:0 169:0 170:0 171:0 172:0 173:0 174:0 175:0 176:0 177:0 178:0 179:0 180:0 
-1 -1 -1 -1 -1 1:0 2:0 3:0 4:0 5:0 6:0 7:0 8:0.0128205 9:0 10:0 11:0 12:0 13:0 14:0 15:0 16:0 17:0 18:0.583333 19:0 20:0 21:0 22:0 23:0 24:0 25:0 26:0 27:0 28:0.352564 29:0.0192308 30:0 31:0 32:0.0128205 33:0 34:0 35:0 36:0 37:0.185897 38:0.0512821 39:0.358974 40:0 41:0 42:0.358974 43:0 44:0 45:0.314103 46:0 47:0.262821 48:0 49:0.0448718 50:0 51:0 52:0.346154 53:0 54:0 55:0.179487 56:0 57:0.314103 58:0 59:0.0641026 60:0 61:0 62:0.128205 63:0 64:0 65:0.198718 66:0 67:0.141026 68:0 69:0.0897436 70:0 71:0 72:0.0384615 73:0 74:0 75:0.108974 76:0.025641 77:0.0512821 78:0 79:0.141026 80:0.0641026 81:0.0128205 82:0.0128205 83:0 84:0 85:0.0641026 86:0.0384615 87:0.025641 88:0 89:0.179487 90:0.121795 91:0.467949 92:0.0384615 93:0 94:0 95:0.0192308 96:0.0320513 97:0.0192308 98:0 99:0.102564 100:0.288462 101:0.487179 102:0.025641 103:0.00641026 104:0 105:0.00641026 106:0.0128205 107:0 108:0 109:0 110:0.121795 111:0.0320513 112:0.0320513 113:0.0961538 114:0.0320513 115:0.0641026 116:0.0897436 117:0 118:0 119:0 120:0.025641 121:0 122:0.00641026 123:0.339744 124:0.269231 125:0.0320513 126:0.301282 127:0 128:0 129:0 130:0.0576923 131:0 132:0 133:0.141026 134:0.141026 135:0.0128205 136:0.307692 137:0 138:0 139:0 140:0.0512821 141:0 142:0 143:0.108974 144:0.205128 145:0 146:0.185897 147:0 148:0 149:0 150:0.269231 151:0 152:0 153:0.102564 154:0.326923 155:0 156:0.00641026 157:0 158:0 159:0 160:0 161:0 162:0 163:0.205128 164:0.025641 165:0 166:0 167:0 168:0 169:0 170:0 171:0 172:0 173:0 174:0 175:0 176:0 177:0 178:0 179:0 180:0 
-1 -1 -1 -1 -1 1:0 2:0 3:0 4:0 5:0 6:0 7:0 8:0 9:0 10:0 11:0 12:0 13:0 14:0 15:0 16:0 17:0 18:0.585859 19:0 20:0 21:0 22:0.0808081 23:0 24:0 25:0 26:0 27:0.0606061 28:0.414141 29:0.030303 30:0 31:0 32:0.020202 33:0 34:0 35:0 36:0 37:0.626263 38:0 39:0.959596 40:0 41:0 42:0.444444 43:0 44:0 45:0.434343 46:0 47:0.262626 48:0 49:0.010101 50:0 51:0 52:0.161616 53:0 54:0 55:0.494949 56:0 57:0.010101 58:0 59:0 60:0 61:0 62:0.222222 63:0 64:0 65:0.0707071 66:0 67:0 68:0 69:0 70:0 71:0 72:0.0707071 73:0 74:0 75:0 76:0.030303 77:0.010101 78:0 79:0 80:0 81:0.242424 82:0 83:0 84:0 85:0 86:0.010101 87:0.030303 88:0 89:0 90:0 91:0.444444 92:0 93:0 94:0 95:0 96:0.020202 97:0 98:0 99:0 100:0.0808081 101:0.313131 102:0 103:0.0808081 104:0.0707071 105:0 106:0.20202 107:0 108:0 109:0 110:0.0707071 111:0 112:0 113:0.10101 114:0.0909091 115:0 116:0.242424 117:0 118:0 119:0 120:0.30303 121:0 122:0 123:0.151515 124:0.212121 125:0 126:0.111111 127:0 128:0 129:0 130:0.242424 131:0 132:0 133:0.151515 134:0.292929 135:0 136:0.111111 137:0 138:0 139:0 140:0.040404 141:0 142:0 143:0.141414 144:0.030303 145:0 146:0.272727 147:0 148:0 149:0 150:0.262626 151:0 152:0 153:0.151515 154:0.30303 155:0 156:0 157:0 158:0 159:0 160:0 161:0 162:0 163:0.222222 164:0 165:0 166:0 167:0 168:0 169:0 170:0 171:0 172:0 173:0 174:0 175:0 176:0 177:0 178:0 179:0 180:0 
-1 -1 -1 -1 -1 1:0 2:0 3:0 4:0 5:0 6:0 7:0 8:0 9:0 10:0 11:0 12:0 13:0 14:0 15:0 16:0 17:0 18:0.111111 19:0 20:0 21:0 22:0 23:0 24:0 25:0 26:0 27:0.0277778 28:0.851852 29:0 30:0 31:0 32:0.0462963 33:0 34:0 35:0.0648148 36:0 37:0.222222 38:0.037037 39:0.333333 40:0 41:0 42:0.240741 43:0 44:0 45:0.351852 46:0 47:0.666667 48:0 49:0.62963 50:0 51:0 52:0.62037 53:0 54:0 55:0.166667 56:0 57:0.0833333 58:0 59:0.037037 60:0 61:0 62:0.0925926 63:0.00925926 64:0 65:0.416667 66:0 67:0 68:0 69:0 70:0 71:0.00925926 72:0 73:0.0185185 74:0 75:0 76:0 77:0 78:0 79:0 80:0 81:0.564815 82:0 83:0.00925926 84:0.0462963 85:0 86:0 87:0 88:0 89:0 90:0 91:0.203704 92:0 93:0.472222 94:0.0648148 95:0 96:0.0740741 97:0 98:0 99:0 100:0 101:0.222222 102:0 103:0.0462963 104:0.407407 105:0 106:0.481481 107:0 108:0 109:0 110:0.583333 111:0 112:0 113:0.0185185 114:0.0462963 115:0 116:0.0740741 117:0 118:0 119:0 120:0.037037 121:0 122:0 123:0.0277778 124:0.12963 125:0 126:0.111111 127:0 128:0 129:0 130:0.0277778 131:0 132:0 133:0.203704 134:0.268519 135:0 136:0.212963 137:0 138:0 139:0 140:0.185185 141:0 142:0 143:0.194444 144:0.037037 145:0 146:0.0462963 147:0 148:0 149:0 150:0.166667 151:0 152:0 153:0 154:0 155:0 156:0 157:0 158:0 159:0 160:0 161:0 162:0 163:0 164:0 165:0 166:0 167:0 168:0 169:0 170:0 171:0 172:0 173:0 174:0 175:0 176:0 177:0 178:0 179:0 180:0 
